[{"weight_list": [1.1611624068710809, 5.250105632950975, 1.4473633956292282, -4.902358432579451, 0.04118095633158014, -6.284902651549508, 1.1720643184570356, 0.3959796272194591, 0.834187667227895, 4.0940620246758295, 1.4790139501227424, 1.2748504638725962, 3.6937814562505658, -2.3388502336240338, -0.1761197527738143, 1.8496733058591475, 4.398687214784864, -0.5601008941856646, 6.453651690570341, 1.8728378874559137, 0.23906537537549788, 2.7471471512339534, 5.003539336989125, 4.196384578514733, -3.2393475788151678, -1.868773745889359, -4.387173660846344, -6.871572473869235, -3.7433768209954215, -0.26847905894340574, -1.712833540075881, -1.8796203764276913, -5.711827393082278, 2.6502730144149487, 3.329009843768352, -0.6590694430416102, 2.856057291474771, -1.354055819435927, -4.2014539557113615, -1.4507823168099532, 3.815838537307749, -3.9105550937970945, 1.7448563242098345, -2.938606644628084, -3.412910777241896, 6.626111205496468, -5.404366806952863, 5.409706004454133, -2.3621477587249977, -2.417158125952075, -1.9692363577526175, 1.5055331030077226, 0.5272279539318254, 4.66492492858265, -2.0448048747737353, 0.7579605491160606, 1.0730107020138426, -4.613023310815082, 7.5634425030144214, 6.056904332307302, 1.431846260091691, -3.779033341191143, -4.003688590508822, -3.489629931622456, 0.5837973796366498, 2.1576775830150683, 6.789013561072476, -1.2872448539871921, 2.4545231345613203, -1.27717047867989, -2.469748623479468, -5.043187278073427, 1.369991556574318, -5.995833219270191, 3.074728720583451, 3.8951024882610223, 1.8415287414070285, -9.04545325371942, 3.1798266269181443, 0.2839676708007888, 0.13396479599875177, -0.9017422382543197, -2.6185690513478006, -1.460963477651494, 2.446938634753022, 1.8319854026657492, -2.923221806011687, 1.0771898245429785, -1.917756247340142, 2.764516330778375, 5.377393178807858, 2.331476469077596, -0.8608950500709193, 0.06869002473823116, 1.211885219634571, 0.2801626479418937, -2.6630948608227385, 2.5730888474004683, 1.0310050417878451, -7.263004930994152, 4.315415296439422, -3.8392818641816593, 0.7423822212184117, -4.404201839573485, 6.638335996289308, 3.9205295141755734, 1.6364058296120496, 5.363450909011336, 5.379174390909344, -2.4717392033802135, 6.5294371075134015, -3.82333820256982, 1.4663521688767203, -5.335823635536502, 6.0610141684532275, -4.868258530841108, 1.996578500712066, 2.0875731465533334, 3.6715064851075123, -2.0620795989719345, -2.7936836634614393, -1.5699739302669105, 5.062530710842954, 1.9946440366401514, 5.771141531289254, 5.5651227856872945, -5.116051614898362, -7.288198412958286, 2.3036201346119545, -3.680344817977069, 2.43724913204787, 2.3383518827355667, 4.5872076628624985, -7.380963376011355, -6.484174507479476, -6.22704386803726, 1.9390045727609087, 4.974636605860927, -1.731963585792777, 6.155185636226999, -0.2339982759129936, 3.2683387038959095, -5.261659613863025, 2.73813806985127, -4.106557604006328, 6.014910878676904, -4.035923543693321, 2.679380139126528, 0.6616238893670756, -7.397074739028753, -2.8015523890066136, -5.6947517590964, -3.2710968135833998, -0.608827330054676, -5.739674651045597, -7.441405394747244, -0.1688773217450924, 0.05576005974178089, 2.6686210253259834, 5.8337604173286275, 0.46876836376838127, 3.271182610934563, -6.4833611237973985, 3.4264605824301393, -4.041272077652911, -2.910772612476124, 1.813858397479219, -0.03256037908705378, -1.6804009620056823, -5.427867609675687, -6.589885502448229, -1.274184487803222, -2.4332150870604856, -3.8314135042070876, 3.914169558553258, 3.930460813391938, 2.8392818568462284, 2.699559055243406, -2.15064731115733, -8.654904348631245, -5.832735343095816, -2.774929259716695, -1.1107159626804397, 4.142365852680271, 0.2442454280695785, 1.1464943994392036, -0.07413196108152642, -4.302247352099098, -1.7095684532265878, -1.4955739494270337, 4.521547454536181, -6.676507963158174, 6.717462091941124, 3.3784855355984673, 1.146531853931016, 0.9262386941156284, 4.094661146029386, -0.3297894553810774, 2.2760998295904447, 0.6211080493014489, -1.7080262395378143, 1.5469788935173847, -0.029513176738171554, -1.6413992289150074, -2.0091341689439717, 1.1762887130330268, 1.3305748667248594, 7.955544711432605, 2.9794810619904686, -2.1543124071729296, 2.290614132733157, -1.7759804539698405, -1.8745504537632038, -2.483865478197934, 2.762052456134392, -0.5883575970717563, -2.607518832071438, -1.590677145033173, 2.6283725826245115, -3.5172090900222663, -3.359933458616325, -3.0746205855057167, 1.2269380630529132, 2.98313596489494, 4.306821840608757, -3.6700664923103314, -1.74456200978114, -1.3189570026619475, 2.259983520389878, -2.1834121399586817, -4.782837886981418, 2.4475840269141793, -3.5995306524129913, -4.118783168487935, 3.127642642867265, 1.2198894659404704, 6.267492675717732, 1.320412144325001, 0.9966922284770938, -7.387604183822496, -2.158598047790794, -5.698976910685354, -5.074337311155923, 2.5054936777229644, -1.3385324761386277, 4.102608332897975, 1.7552380521856237, 0.5181647046661015, 1.5903421726538003, 9.485509383408889, -0.37310604033099215, -2.358905209306312, -3.7087575457025577, -3.4475385522922104, -3.5356623347956573, 1.0025589330161218, 3.7609201462918787, -0.2866860840429757, -0.6041921234222019, -3.9668702452973825, -6.13773939504677, -1.3122563842662225, -5.230026603658542, -2.606572398643607, -4.680098117415944, 2.2284810734976355, -0.16055437952890428, 2.5030221968995487, -3.2659869623391815, -1.2602460459901905, -2.110087226719723, -3.090204040310567, -1.0467410498867413, 0.07245498082507673, 1.3834648057349508, 2.5464635553929282, -3.827214904040523, 1.9397349575601588, -0.5375841838741455, 1.4533392887109295, 3.873710221890323, -1.8914228594897633, -3.390705655534898, 4.172535110178711, 5.001862476773457, -1.8577996076392358, -4.350982034425819, 1.231673845255115, 3.3202204036542433, 0.7586292823644669, -4.795724154542457, -2.3748054350370733, 4.105031082906879, -3.4827495880194075, -2.304973150152133, -3.597197056288748, 8.546936349644222, 8.71907322611672, -2.9682161704365617, 1.0497852179899558, 0.2723031048184201, 1.8392577340981848, -2.5305629853778173, -2.6151448184174813, -4.794711786054412, -1.2959204568189715, -2.5089960522434236, 1.0776393510833868, 3.953377017682434, 0.2792151187277061, -2.0950114909887914, -2.957949082905599, -5.209897202758055, 5.206662291191032, 0.21771589401286073, -2.0852104271133993, -4.3755387028152075, -3.4888219831946294, 3.599183916174809, -6.119011279609757, -4.527316386725795, -0.61340912435904, -4.376928249026874, 4.270329971652139, 4.152888721734447, 1.1419439270847125, -2.105370174326514, 1.2298430787461543, 0.6657513566358149, -5.615928265560707, 4.030359361388203, 1.6102343639153367, -4.770315896509916, -1.2332846176856607, -5.002326772855436, -0.15794728872147268, -3.3014657148286553, -1.37388137275285, 3.1522265493513846, -8.968148464822633, -0.3240893261024952, 5.045194333878646, 0.12167657940506693, 5.523551837189396, -5.198648012439083, -0.2511106294539551, 4.8578845747350865, 2.1653258664482555, -3.7877228280339277, -0.3296530559491365, -0.44436166950885236, -6.2487361715851595, -2.3126260737356845, 1.8163800703164155, 0.1702765531698751, -5.096780422888277, 0.7320119817758051, 1.177662472815904, 3.269165494922813, 0.6304687108055176, 0.7081162562255114, -4.837697554008291, 3.7911736895770893, 4.85621361500798, 9.34581215663485, -0.3252966771642152, -4.504900258242624, 3.048651126482407, 4.201435659733535, 2.0781807875918377, -5.653464520619986, 1.2047418206056761, -0.7275959007647008, 0.40689560894453414, -1.6873514579633238, 4.557826987376224, -2.178353144666661, 0.32794073675762214, -2.523973120013843, -5.674282358580794, 4.266494838905136, 3.059403057358219, -0.47127569672913416, 3.251266805891736, 3.4047111460232875, 0.1963891741662005, -8.262149287064592, -7.012842145311996, -5.274654276924783, -1.6682535005139574, 1.5678599362572063, -0.01101127726377149, 3.941389935740279, -2.761508693514675, -2.132983155395466, -5.936901765366908, 1.4211757476345355, 5.807608383225142, 0.40300861293639323, -1.8902855912917123, 2.8480503727667337, 3.63432940903646, 2.8134759561021165, -3.0257192853904016, 2.0540619332282417, 5.064554483092142, 2.7032516792999974, -2.949979822169811, 0.8733697301517154, -1.9639993622217213, 1.242854395474584, 0.8067998770769265, 3.5315580690391775, -5.17924750207183, -0.9126039250109204, -2.3637054041579786, -0.20998324702870474, -2.85702897623233, -3.749476714727077, -4.103081445310975, -7.65962752605552, -3.1670918361133955, -3.20324513270471, 6.852314955249316, -2.033892721353743, -2.157174029586291, 5.396231927607579, -1.6495108766723596, 1.2599011838634926, -0.03332491707510965, 3.4831053550729294, 0.21660464216305364, 4.016324046915216, -6.8339566301779096, 7.303299718485727, 6.942282314573872, 0.91446232653508, -2.317488324092131, 0.9587685969742095, -4.787175003443172, -0.26516696956567554, 2.0436959467519564, 1.0227898539532099, 1.5038135346696726, 0.041052307093085494, -1.3649150740332738, 2.7912155862011154, 4.540121561723672, 0.20516832479627545, 1.4211174388333694, 4.428803388444598, 3.4920343699349106, 6.270163937860849, -4.231762126699335, 3.2144587562377493, 1.5170074301745782, 0.5593172397837209, 2.65899383163781, -2.242047861269511, -2.019766852533025, -2.195316564328565, -6.17280409716869, 8.765093017697515, 3.847043394777761, -1.7815546592944331, -3.9628111805542217, 4.724889747420724, 2.9066108293131734, 2.9195515353412214, 0.17192144888440453, 2.329456102493112, -1.3975718226382419, 0.6181953025189229, -1.4157594011502, -1.268115817565455, -0.8986903919171549, 4.0808855497900325, 3.985669723493655, -7.926931696711078, -0.00706378570295918, -4.735479028801481, -3.1066894392789046, 1.8042468175036488, -2.1548320463735555, 2.5287088584965316, 1.8152851636212564, -5.1773046732754215, -1.595721604339111, 3.08214533250902, 4.06218363014616, 1.5499073505632683, -3.9108281558731033, 4.70742400387404, 0.805450115653011, -0.7988597106412838, 1.6375360532355834, 3.0460950859214844, 0.12030415817389128, 0.6961090745024849, 3.363490212020853, 1.4953405553252872, 3.3296253242873473, 0.934432811065621, -2.637702931384325, -3.941224380969161, 4.923172099430823, 1.2476243132851632, -0.13728963687372198, 3.6170902915139314, -3.6459458613009383, 4.42977543819512, 2.3804457013722455, -3.499409806197097, -5.094640528277249, -3.9886889042759996, -4.351671508004552, -2.434859479090734, 2.0057313810056243, -5.126657315598347, 1.7528581297592378, -3.5457051049117156, 5.02670030472433, 2.833869157533373, 2.9353795282466066, 2.065213321453605, 5.709070400485453, -0.780903581469246, 1.342781172198174, -3.6050701753838608, 5.609599021570681, -5.220148856962748, -7.975120038665045, 3.7162491388985828, 3.7935588962903886, -4.403382486876498, 8.674792296747196, -2.6879512533795418, -4.842869357708629, -3.2710427906518307, -3.126651655929271, 3.0045850385207906, -0.025063912252689335, 1.7710256833402518, 5.724241047888547, 3.847762784747916, 0.4152651467130024, -1.8216938646618686, 1.4956846691121548, 2.79409516787032, -0.32447133560252794, -1.5386480925603763, 1.106511048943176, 1.6053919762554383, -3.3632423514639247, 4.889328068713335, -6.5808529950925365, 4.858108582963853, -1.6630425417573278, 2.686756300703136, 1.882260799303499, 5.364529894910559, 0.4955294757400295, -2.3683884881903365, -3.7236085588122636, 0.5029046577763006, -2.5309759627426462, -0.8733028732105574, -3.9957997115739996, 1.0027025135912413, 3.2891720550274437, 4.5629692486294156, 0.2520646382302658, -0.280889630585073, -4.154975674709011, 0.8988736414620475, 0.8886170663377633, 2.9271242033454583, 6.999268977328974, 2.28642691201439, 1.6699509355862423, 8.906427727993506, -1.8466696795516324, 0.41210799125932196, -1.2173120042452121, 0.5531692992393731, 5.802980812699979, -0.6466719995262058, -3.546850820832705, 0.5569201614223831, -8.789458898665085, 5.119209422247395, 2.9983764060959235, 5.291216024783502, 7.289704014226807, -5.099283791951614, -2.886111771184887, -0.9665581093440917, -2.3500048703993315, 8.768065501582742, -0.040680441483510354, 0.39338535758046467, -4.218024942068439, 2.9154536774002935, -5.36858775592828, 5.267143894682315, 1.3370129732753422, -1.6993261504081867, -5.3815547498564085, -3.102376585203957, 0.42733691743406266, 0.7396635651844923, 2.0066106092565548, -4.665167760556973, 0.6957479646265705, 6.710622272696095, -1.2390197779476098, 1.5048806355615976, 4.325563077825299, -2.89589105874093, -1.803935973505191, 1.3609498403625202, -8.390495903339346, 1.827628711609973, 4.753359529543512, 0.7226054019742296, -3.472625750232053, 0.04232438809777572, -3.833936972295294, 1.890427211581104, 3.9093297402298806, 2.0020880142222093, 1.4604598812654332, -1.2072408197650677, -0.4219967065482477, -6.976861641398359, -8.813907271558001, 4.483375124943656, 1.556091929736036, 4.20621571913965, 6.438276536610317, 3.19726537301423, 5.52654930710595, -2.983757660238406, -1.9831564786735554, -3.8962242363755526, -4.197579462070776, 0.5062162547614792, 7.314165148003147, -3.9259083800247563, 6.692693317566504, 0.052290882771386604, -4.199202915564472, 1.6256375355292212, 5.991077352159561, -2.59367084708546, 5.171623911563479, 3.6429482076524122, -0.7998407844252761, -0.8586522307875546, 0.059205298465945244, -0.6595262144419768, -0.2771489163705032, -4.051624545852242, 2.9867933409483776, -2.603203408688297, 0.05106657694233263, 0.8488321735692725, 0.2935804687326147, -4.009683223736384, -4.754927753688344, 6.103342997687998, 6.603986519280824, -3.9146995667194706, -0.7222702289191847, -2.7990009108647254, -7.007171943889526, 5.583984486929042, -1.9334227642516355, 2.284806697541137, 2.9416658416825494, -2.3477472383081253, 6.667231091730493, -1.4430085804871684, 0.1744958104784795, -6.257802872386093, 3.4344350217389845, 3.5573167127704313, -2.23245165354436, 2.9868412135760396, -0.3124521642102245, -2.413480988766957, 0.31311128233001506, 1.3076602704613975, 5.033705735172711, -0.9301981044113281, 3.15435178812265, -2.6505325541361495, 3.1225439092622063, -4.1063298591379045, -2.297960212759037, -2.9341010767713414, -6.586116257529887, -0.3898601551944654, -1.41342231747764, 4.471338412771205, -1.8440991072565878, -3.353142239552528, 4.056194908349591, 0.50933135166255, 6.044462897286831, 1.5540405729255338, 0.04171156535125653, 4.835172766059035, 4.564313224729598, 0.4481292710157587, -2.8580106339968125, 7.368845287747112, -2.0511669392282377, -3.3796377252890113, 0.21203565670227276, -3.2796968840547778, 2.4107517703104113, 5.9431953874790375, -0.9422656301988717, -2.8408953714027643, 3.4036443792107036, -1.7239975054919645, -3.5797724634594164, 4.30138959270825, 0.2838111802735168, 0.3822452175765747, 4.093535073259091, -3.934745120947259, -0.35703911583316705, -2.2753499346954515, 2.8455874144527478, -1.5743653519053604, 3.017120332319992, 4.523290483543009, 8.946832527369764, 1.3190188984741722, -0.7188024312435545, -7.0280277859393525, -5.7587233187550595, 1.7030470643719067, 4.799184428673508, -6.557426044183154, 1.7589844918373112, -2.1521703314175196, 4.4228194944670856, 4.374816170640558, 3.1976204459130297], "biases_list": [-4.819720586318161, 1.292080426744786, -2.8846106187336535, 2.810636275391318, 7.111428132861279, 1.1432068457671951, 4.922575791385498, 0.15870083561258497, -3.498422918117723, -0.1955015902133379, -0.05201632399825529, -4.9207234791931285, 3.2887390649864914, -3.043056403983421, -4.573125891626309, 4.819862522109978, 3.8114306702651826, 4.221237462919237, -6.869680482937548, -1.2059111214662501, -2.0216517492339507, 0.1935557317726304, -0.24532614338284142, -7.502847607156166, 1.8339327668359795, 3.7147705922372536, -5.164332440633661, -2.257210082828147, 7.267092784895933, 2.750460205840959, 2.169503983175063, -0.7673273612152471, 1.9366784503896448, -3.327998775479883, -2.1442069391899166, -0.39202795966128656], "shape": [27, 16, 16, 4]}, {"weight_list": [0.8930585743488961, 5.6341684496098665, 2.2729295875624294, -4.930002422879164, -3.7891967008760807, -4.7435607131588196, 3.3893317234740126, 3.4125625838431155, 3.6988674152106205, 1.3698903416956814, 4.7582211362744475, -0.19321577816359214, -0.1501379327648671, 0.03064336963055947, 1.8892214102700264, 4.9358985937298705, 3.890234171644604, -3.203277859514404, 3.027783776898964, 0.7598748461255682, -0.4087763796049293, 4.782778545099258, 5.352715569989402, 2.4889376160370844, -1.6913124223346816, 1.8975990185602103, -3.3722586259434206, -5.120540852654155, -1.471344865597459, -1.4643266743155587, 0.48610962993943674, -3.7094098101758197, -3.5856602812220286, 0.9304534759500565, 2.0038376640584348, -2.858416946579488, 3.8298033561005687, -3.2707503012303896, -4.310150458233643, -3.6040131208542343, 4.255443019013697, -1.7182175604588203, 0.4261754521529597, 0.30952702703672097, -6.1847086018007165, 8.79777123913751, -6.6758668813827455, 1.2762199842505266, -0.7441240831711793, 0.9377185740662382, -5.679950491774163, 1.93465408731024, -3.083057020597101, 1.2182220840510647, -3.75445904537952, -1.7184801376946106, -1.7091789882149664, -4.373641501544881, 6.833467026788782, 7.367354556600791, -0.7386329243004012, -2.9596593527944997, -3.22251950424019, -2.300498063574278, 0.512468820102185, -1.2600048445471368, 6.40195516361321, -3.5272343827947505, 3.1772567042668207, 2.0955829372791794, -2.2217429654370946, -6.6477549203318755, 0.2334957448460806, -4.315086714390755, -1.2849925144896355, -2.705290321706955, 1.7965676199929828, -6.811104956696022, 0.25025515046023217, -0.6258846932021691, -3.5413797393314406, -2.587299360387343, -1.7648608590566726, 0.15482980276176583, -0.67257166670989, 4.678093135297333, -2.6545369083704147, 1.730782889521219, 2.3575436041980726, -2.2590129362478555, 4.065209084179896, 4.11474688107546, -4.3040611069808214, -2.4217236460985685, -0.19330853704770545, -1.3661816286455606, -0.3295317455649498, 0.9986295640287384, -2.278494713511785, -3.8308157659413333, 6.556021985478988, -4.708202117864529, -1.243501414104854, -5.780125007697473, 4.881464445584573, 0.9319389084482719, 0.36058917019484693, 5.068071072705509, 3.9508565265804227, 0.5229993359021219, 6.576873609674914, -1.6906182635534839, 0.7713624314423775, -6.0104618603873465, 3.8623151825352, -5.551403878193901, 4.699037288828196, -0.7336818887006387, 1.7347982096728503, -2.9359051795794455, -0.30818484884163655, -0.9320201400646346, 2.531273357894727, 2.1093480889151914, 6.39173389918043, 5.444435180660531, -4.877769675768744, -6.865879654180006, 4.026502168029267, -2.6043344657505196, 2.6717149008246706, 3.862263747410303, 5.606922691112699, -4.2602606246593, -4.6575282246520695, -4.036941204150976, 1.2041269841582656, 3.420432568117599, 0.34089779758223515, 3.431294961677996, 1.545773633250663, 3.499360333576206, -6.654909123732207, -0.0004801529804592253, -2.876924856218186, 5.330456717527349, -3.0072548482899832, 4.26165770638155, -1.7959285159922955, -5.216259045850104, 0.11711197521588801, -3.9069667410386026, -3.4593349974637295, -1.5262992120174705, -8.309970877556612, -6.156590596062669, 4.0055244999563575, -0.05038713882547108, 4.055402381148278, 3.6753856864140673, -1.6418190642005557, 0.5358345610406368, -5.778946023612072, 5.462215852676362, -2.2725211179804523, -0.5125749088267185, 2.824998481737243, -3.4911658246890402, 2.194022446744064, -2.7266877674280625, -2.710216988675426, -0.1978383600744138, -1.0758692254161368, -0.6572003338623003, 2.479908251243901, 3.3479105581660127, 7.902160833890244, 0.8848671943275648, -0.9578707611529267, -7.988694851904965, -5.385684474058942, -1.7300080397358055, -0.34694948613890575, 4.647444598804957, 4.5803420387184675, 0.3151862149272153, -3.2312606979359164, -7.085349508840766, -2.467059760575733, -1.6300327770298872, 1.283510632741125, -3.389096808382385, 4.533714222885752, 6.312049221990708, 1.6518674188774236, 1.6486400588246415, 1.7319247789143053, 3.466980301495939, 3.2867009472542685, 0.10490858320917518, -2.9034745210381327, 0.7548974254518366, 4.239243130525503, 0.42396260730866664, -1.7625765123350867, 3.4811118432831822, 1.5131666573940201, 4.203688610078062, 0.4872921600984401, -2.5892584834411765, 1.2143336288841384, -1.3758740336782973, -0.5280478251709186, 0.37130254920832373, -1.3113576583459783, -1.1668005382094866, 0.015113805634568545, -5.023289734472732, 0.6080956352528903, -0.07507111345588768, -2.255768696726692, 2.2112309084679413, -0.8540087725129613, 2.432341809893526, 2.6341404579721375, -4.866225153682613, -2.3580674217049475, -3.41549113527031, -2.359943846274573, -0.6020017585113278, -7.4469886553042794, -0.37440053402844886, -3.8307656272479527, -1.56198558619781, 2.4186768986788953, 0.3748572812397335, 6.252008340082593, 2.526342914313463, -0.25972181197096367, -7.137425123838527, -4.203265334029658, -5.85182080918851, -3.547738632369368, 4.797991858808796, -1.2175328577613396, 2.050382178371737, 2.442552513083215, -3.1752865617858688, 0.6901365854541135, 9.812628880189797, 1.6957630351780955, -2.126121131677859, -3.241193972783564, -4.5321523061700395, -5.44359587261487, 3.3047006265178807, 1.1698477440853994, -0.15609106667385086, -3.6988298151054644, -1.443235528214453, -3.680268893650407, -2.0835998055642735, -2.823914100855338, -4.711335026303859, -1.7545909812092912, 2.6554058669325142, -1.6937887729596928, -1.9915475976211197, -5.292403990498175, -0.022983027540694367, -1.4703586606792418, 1.4623647432425035, -4.544081200594452, -1.9137118121890935, 2.282472211905844, 0.4075713423255729, -1.494878723794923, 2.177400124193048, -2.227854445492982, -1.5064390381740935, 0.7457928795356539, -3.044945060948363, -5.102478156061692, 3.801674036787965, 5.073325717437948, 1.545885490523235, -2.62602032993718, -2.518454035359395, 3.6207710992973947, 2.2757806316396505, -3.70242114173677, -2.5635426149531932, 2.68536303383953, -2.928037977155225, -1.461887671699829, -0.5464003207558272, 8.917782088086168, 7.6329276631075835, 0.06149538543371391, 5.577861272885021, 1.9795948258904814, 0.0724654008839336, -2.6139244474648704, -1.8628180280113569, -4.418554665636926, -6.2929621019201605, -4.253385597240635, 2.023926631023884, 5.4328287899693875, -1.330384270793072, 2.0501893685907477, -3.0713580140338825, -2.1089255900212223, 3.3706634016327115, 0.8903457791441831, -2.1670493456309083, -3.2568683327086285, -2.1909917657104696, 3.042799630145903, -6.756999092652386, -2.9749385188847497, 1.0461651870116864, -7.030003888929922, 5.66595339516415, 4.48320635466307, 3.7085139722496034, -0.13257850410234107, 0.9695853608245535, -1.1015172100476858, -3.4746463402301986, 2.9298424570493635, -0.2633099448837206, -6.8616128292334535, 1.6843066954329702, -3.394061923565614, -1.49897391964195, -4.68244225761943, -0.2436454422898342, 6.726832442616704, -5.400433204773187, -0.8332169028309584, 3.095779706849041, 1.1079838328333507, 2.7367359949244983, -5.061718430264941, -2.1177552876406676, 0.9884728165695142, 2.0578553922335048, -2.066813256228773, 1.4327107601649383, 2.244181445117681, -3.998784502631936, -1.816874397237497, 3.345822837482923, -0.03852613190926002, -2.063057464845408, -1.1093092581431403, 1.5275586068851084, 1.6779574795797139, 2.743224310292201, -1.5803365084811598, -4.080842580769162, 4.094834401733808, 4.423791242256678, 7.288155432222393, 0.46814094694839037, -4.5573583525502155, 5.461398732881622, 2.0998953115404397, 0.5382889274322054, -6.200151297736147, -2.3144793012685563, -5.426834473516688, -1.6743123226587793, -0.7140922644814724, 4.097830827925849, 1.7095844936186313, 2.0247390722838348, -3.7008550016306936, -5.852798912529748, 0.7077775606805876, 4.9189963732167925, -1.4458603808644845, 4.137446827040019, 0.2490518519678908, -0.11860389119533199, -7.363780377621266, -7.2367277219249795, -6.5550589927272425, 2.6665463119440815, 3.715077079041288, -0.6279099538092583, 4.508012877083889, -0.5265675493129465, 1.415348545431986, -2.8216730321294037, 1.0068360335630535, 4.511476150504031, 0.6104517013434803, -1.293708153889393, -0.01757701418483215, 5.757492848778181, 2.624465597616487, -1.7990295077046305, -1.1446299939444224, 4.913549450507212, 2.3605947083764764, -1.74255933224972, 2.5651582992778157, -5.023897190319602, -1.58222333799037, -1.9998383857009807, 1.8743133670911343, -3.951290556349435, 1.7643575540234098, -5.826050321704923, 1.339652739351998, -2.9519621146075163, -2.307915556603908, -1.1244952998908986, -7.872002473430202, -3.613913777190173, -0.3766699917964944, 4.207445845198494, -4.73050594128359, -2.5822588666056223, 3.3518829116451636, -5.74054336564429, -0.9318812968042336, -3.7192072098565427, 6.81081438339198, -0.8859505618515897, 5.722021015381905, -5.792137039298074, 4.450963248172879, 6.597748494569965, -0.7185071218893633, 1.924336198861667, 2.3704978192628436, -6.3333286286959165, -2.244800088391747, 1.3597087754912973, 2.4223350885105432, -4.611706755816943, -2.893426731085971, -4.006567302597793, 1.569924061175366, 4.799389351364547, 1.7652318531717044, 2.181512055478401, 0.4118235093921583, 4.6657966501554355, 3.3564538247290603, -4.7353846448558725, 4.096826360178644, -1.679430546547823, 3.5432666916165516, 4.325062715800519, -1.6157405221986785, 2.3154322922773023, 0.9414485972266475, -4.955164596924531, 10.62995950447777, 4.615770971747562, -1.7923575621703784, -1.184669209495193, 0.7655259338096796, 3.8389874862763813, 2.826544738113896, 1.7860973657385655, 4.61861375859141, 3.1282360210965336, -3.2400608758049074, 0.6869873857621498, -0.40352532857357093, -0.7734488767300822, 2.962650202129346, 4.294451844581265, -5.757006533475767, -1.9691877734580157, -3.4626884189214637, -4.121726868088313, 1.1227407174049144, -3.8023527267149655, 4.963947823760217, -0.7525260513426593, -4.348622956405963, 1.546863400508074, 1.956291453503364, 6.371093017119886, -0.7731596419857201, -3.1224774216070923, 1.073716877781358, -1.7240146007296977, -4.568663709972354, 0.24609951291682797, 5.485285879270573, 3.2422674790441715, -1.2742705569900283, 0.940113314852489, 1.9845220259136376, 0.7111178472569324, 0.45362305044550544, -3.500067302700806, -3.810762995348445, 6.765256687532037, 3.255424284344514, -0.36831276640090094, 3.347669793094796, -2.426204337224026, 3.300847637818036, 1.091667208863762, -3.151084294677469, -3.4553445383548818, -3.8874627348765003, -2.649672482831685, -3.242222821474649, -1.8920965937652046, -3.730932122037432, 1.312684738773898, -2.740142712169919, 3.930814581063924, 0.9221118470877163, 1.2272882331336565, -1.9879840729982998, 5.974942206059584, -3.8689387148241132, -3.8702375326220944, -0.18511121784471674, 4.86308260122089, -6.093618577821701, -7.555857879337308, 2.3056060674016514, 3.1892455099939028, -4.1252927839070495, 7.477344729515352, -0.6239787785438291, -4.697058714164685, -1.9916943668552083, -5.906634315072682, 2.7566596540410497, 1.0096504973928484, 1.1035922681241108, 7.200707870328035, 1.2315974345023522, -1.5545192724849919, -4.352769598875248, 1.54037345993408, 1.8282472204321465, -1.010693384514705, 0.6017230955770443, 3.4358817128491745, 0.7274246101437178, -1.7012459303204226, 5.502019814675254, -5.967850690245383, 7.33859739570892, -2.805331974391218, 4.534312985120379, -0.17226460625750772, 6.248463699777686, 1.149282345118868, -3.222795097893864, -5.272391583578936, 0.49407177051470175, 0.2251653925512196, -2.5355902985724432, -3.200502367158735, 4.950462843112396, 1.6488672210178144, 4.267363824311646, 2.991334042198255, 3.1176201298836457, -2.391380563384364, 0.7143607426457301, 1.5065965223303843, 3.468984277318868, 6.283070992692335, -1.5933485137749126, 1.4232406873678873, 7.234795084580927, -0.5634908492792359, 2.348020637563996, -2.4514699038121344, -3.6690498925831796, 5.530131195743081, -4.278409527478827, -5.634765414814822, -0.9540749542625059, -6.724766108461396, 3.1059646235034144, 1.9569801514109026, 5.381886917968082, 6.420370048203992, -0.5257151875404189, 2.065385004479289, 1.2994285265810523, 1.2725704856332833, 8.080837183778016, 2.096237549214843, 1.8321557221022342, -8.076671341032469, 1.8012833209287429, -6.848912316609032, 4.631203775154667, 2.298412549804993, 2.657782514102941, -5.937884759912547, -4.699331757858952, 0.8084055341606269, 4.197499064073104, 1.492989356662914, -6.894660358083897, -3.036001062414261, 7.160010742860516, 1.5372906787152094, 1.1037241717030444, 1.34290238192267, -2.5982531828565367, -0.6347243784455356, 1.1797686573495132, -9.38043412917561, 1.3672756780325908, 3.522179186471064, 0.5185460869409004, -2.981303303969847, -2.1745683055800864, 1.2692455452578755, 1.7825585117472569, 2.4252363637310186, 2.5857562512450265, -0.5712866026714011, 1.1538937283682769, -1.4725619266104508, -5.193817665075633, -7.5313212647770715, 0.425424281458342, -0.26690391450079587, 6.4833603029683955, 2.326171900300448, 3.9681946782244975, 3.4828683633350224, -0.5988284433354134, -3.6235920988595853, -2.587788342407525, -2.048930107406517, -1.2585018600604843, 7.037445245965788, -3.4041106337056917, 2.173005501936987, -1.1771237977080455, -4.359241418900721, 2.0846131533641827, 3.786906200687718, -1.822909977376097, 2.0551801783840355, 0.7598107636780114, -1.2312093807650581, -0.418970631983153, 0.6053184375110303, -6.1194732253522535, -1.5522414016919222, -6.16670594544488, 3.711969679663431, -5.10136773552836, -3.1366329447280314, -1.5563509352572331, -2.0331601879080523, -4.973304276696403, -3.241607318325828, 3.6313268472278786, 5.173327489541514, -0.16255015587314614, -1.5326519756549528, -4.118989316058531, -6.344751309654406, 3.502157628990336, -3.9659862181711754, 3.5292817986849956, -2.207715442416493, -4.477867448931598, 4.408023946252452, -2.2819799044733164, -4.661215487675521, -6.0539249914110576, 2.183288310788022, 1.115091910527116, -2.7871793712735573, -1.499094551884721, -1.932311050816613, -3.6065923413818326, 2.4958023674106404, 0.3513842239065399, 3.224337733189034, 3.115210729447176, 2.645930378692816, -5.157587643818671, 5.015176034498023, -0.585502645777978, -2.622297596700093, -1.3566506021193776, -5.60575668655047, -3.9377571310857977, 1.4565371369160296, 2.9490469974280895, -0.0436391754165153, -2.0200164312727455, 2.5090518222243117, -2.1966408179223307, 4.659991635198356, 0.47044968293855405, -0.31809165612412804, 4.774525591995782, 1.8711905505622317, 1.0030143980745523, -3.4019075942245154, 7.641979975794957, 0.9577116099559124, -2.511776583949425, 1.6672794834701605, 0.8128395171350704, 1.6768858184284294, 3.855692074556538, -2.547315274845296, -2.214199247585748, -4.168717808848184, 1.2093251015161997, 0.9934961870692556, 5.390511830603076, -1.5051634417986794, -1.1464859391741522, 0.6961809416864304, -0.5918034435947186, 1.098752457088624, -4.219590477429698, 1.5491129350403021, -2.704460629875422, 3.272632340719378, 5.743460394497481, 8.998029502244849, 0.10738858132433271, -2.654418197422751, -6.30238268233933, -5.893040852417757, 0.1517662645994442, 2.6841718508185135, -6.576406937942527, -0.6522146218913074, -1.3170525699787912, 5.9890110341877545, 4.279929802604633, 3.8038738317044345], "biases_list": [-3.608399157511077, 4.163542846183933, -3.330410358236386, 6.101215204557257, 5.8970512390569025, 1.3605791698266358, 3.526193754309146, 1.5226021742934228, -4.977340623425091, 0.8528951899729689, 2.7326946642293883, -0.17157678811889054, -0.6824663445345585, -2.4579870491478064, -6.90503495017699, 5.7290648368305925, 3.767665197516191, 4.30587912215638, -5.580464669283689, -2.591102668883221, -3.8404274030980607, -0.9141439858590561, -1.7822122421758972, -4.272288202661166, 5.283049938651812, 2.013735735233446, -2.591030328265112, 1.826058531961471, 3.4375262288220174, 2.725268934479014, -2.0792479008917555, -0.5409860607036541, 5.631644201149899, -1.2098478710175709, -0.5583889673737454, 3.100827604729572], "shape": [27, 16, 16, 4]}, {"weight_list": [-3.1174109281831153, 3.0600700918001733, -4.028431852711358, 1.1181991664636355, -0.6859090456950311, -5.769714809291287, -2.7107452189435155, -1.008906868989964, -2.936361851797492, 0.14861493283765248, 0.29812701401927644, -2.0955067235663396, 0.491317967898, 2.033924373701227, -2.715213673261511, 3.1747161888571647, 6.263300568982568, 0.2808957803858543, 4.276675461280989, 3.174795871990275, 0.5743141484950476, 3.0911903025553134, 1.2795495931188032, 4.933120597962689, -2.506191822431111, 0.05569443752503345, -3.3753726949196916, -1.7764288772448962, -5.767266451374569, 5.525132395554025, 0.038910710092867395, -0.022241934888699744, -0.22464048967696848, -0.5337941215823854, -1.203497735322573, -2.842134310895204, -1.7966659266056129, 2.6795003889808875, -6.487781654384549, -0.900615747985329, 4.4986739268972125, -5.022838325663604, 6.625814625826462, -1.200769151742862, -6.483965857650782, 0.9002656704699026, 0.8699661771289353, -2.453045023550101, -5.011350591901036, 2.6733547258103325, 2.2168626390657633, -1.0376847725043008, -0.23153024021435464, 1.9671775838546854, -6.321954439510554, -0.29068958705231873, -0.3194645623961978, -6.1544268910880895, 6.353110602087612, 7.088352173812488, 0.9552967498933269, -5.639105560817701, 1.7621795514103251, 1.9558846182821683, -2.6748657631900814, 5.4365792333978895, 4.038440191871832, 1.945094858005112, -0.613427791703244, -5.624831160749416, 0.9708199549055765, -0.29562677883715716, 1.5776877797577522, -10.824344145832706, 5.077150044003631, 3.2603059303248028, 2.2896045480670573, -5.064558320634445, -3.675650838308327, 2.3784806350568837, 0.7892574574659925, -2.7873285728048947, -1.1341169959535633, -1.226788292426375, 5.804672334685597, -3.147231923129403, 2.6602642068332907, 3.074682015286025, 4.300974311906385, -1.4889600366558795, 0.04625267142086131, 0.2661876784590942, -2.084796213893628, 0.42688305728439935, -1.5881767764906987, -0.3082054048356546, -4.1730467764499535, 7.9193014719459764, -3.754360289968357, -2.9709973329859287, -0.3207638442337979, -8.460247566219286, -3.469050530054745, -0.9812634962129752, 8.367551026727105, -3.7106695540964023, 2.7200434454921822, 0.13293010373473946, 0.4864073057109004, 0.8256371937355573, 5.65087079537906, -1.7015197155106099, 3.8146563326886564, -0.899281430812632, 0.7807767021674208, -5.828037848917856, -4.120056774531009, 4.291318890739883, 2.39223872024487, -1.916708638066721, 1.8665056887542244, -2.8645371861424684, 5.579729065674919, 7.8225256367116724, 5.0900921290177905, 1.6516467458378905, -0.18204610823786704, 0.6422066107435429, 3.696548298970572, -0.8093178163466253, 4.739659839826548, -0.3146623451062718, 0.6869391292696414, 0.6428717141701894, -7.423849512237922, -4.438932831062818, -1.7767063300370076, -1.0704474975535863, 5.119156554509632, 1.0731402991758978, -4.1127308276556604, 8.23832065261923, -3.530686915423516, -3.9779750735351187, -2.3141151741710995, -2.9488572633031773, -7.970712792618486, 3.6942016371736814, -4.121576909636922, -7.130455753159609, -4.297991243375703, -4.714867637313539, -3.1347040507631085, -2.857328680899286, -3.8402440811311633, -8.107068766673294, -1.954837630805889, -3.291379196280369, 5.061978237538584, 0.5084511714664184, -0.8407933890749157, 2.274869453316099, -7.848661514343864, -0.23244998034842768, -0.1999169844218105, -3.1539678341405093, -3.2407246702888615, -0.580039540835223, 1.9061151838463393, -3.1776946777907256, -5.163287889009853, -3.790526505009396, -0.6425679780330558, -2.8693052912646895, -2.1072312526361316, 1.277262885843995, 1.395117087510327, -3.2814473253814507, 0.7828076924942251, -4.887525362194495, 4.118353989707765, -2.475994655029167, 0.9486788711254643, -0.4818229211134528, -1.044777282646648, 0.7294636689454477, 2.3762729766884263, -0.5121345292783301, -2.6170341472909815, -1.7197435964817172, 3.642724565272716, -5.871148599117851, 1.25216596666532, -2.487386951944373, -1.0846148849090593, 2.8873030914804736, -1.9814105279865057, 2.052698745965372, -2.418587472726163, -1.2658612273694119, -0.09542908637024317, -2.700140084938097, 4.969193234953837, -1.2948137023303228, 2.708092676679118, 2.6104284182674276, 3.167128469794159, 2.2614658676366632, 0.07640806154403323, -1.0902888960351949, -2.7893076727346355, 0.14250917938773577, -2.9715471379756373, 0.728936080377595, -5.418862121361601, -3.2375416828824344, 0.6032336370488807, 3.2119622106501655, 0.6510327705631065, -0.14756663264588243, -3.2270286223863347, 3.353397232202668, -1.971902274403424, 3.5117238136659275, -2.2781717599669298, 1.4078026340777772, -7.95265143351755, 1.7876824610618005, 3.6386444948063437, -6.734925691061056, -1.5704091993787725, -1.4665878925763691, -5.224186916403571, -4.745865871973745, 6.037442032205661, -2.07911325946578, 4.811831272635062, 1.2053697768414846, -1.7924999408679774, -8.49418584953424, -5.0961298021559385, 0.3157681421721059, -4.920133022983988, 5.484458938906156, 2.5170964750166664, 4.459848788874654, -0.9340602029188125, 4.889183811717842, 2.34240647247512, 1.1915776106302847, 1.4385512914299623, -2.573077317075775, -6.464742844677351, -2.0657478621021528, 1.2002402531458731, -0.2049269312796267, 6.355259586979226, 2.262814474021165, -5.882067705862193, -6.935267114318744, -3.4487081198153047, 0.5965177357916731, -4.526752878961671, -3.4112893079342346, -7.038844149969891, 2.1793300537391396, -1.9606372385764892, 4.390889341611948, 0.16265077685811735, 3.5862666952577644, 1.1728952929262757, 4.198374008094542, -4.333575199178167, -0.7673668164227458, 5.764218538161882, 3.9957576098065726, -1.928625915812887, 0.46423033823097626, -3.5213576263008597, -1.9475765817473072, 1.4193778788563627, 2.266252810091684, -8.100899841296371, 4.242547981195576, 4.918135516405874, 0.026475813814438087, -6.002205566156949, 3.6812748787758496, 3.030021383016841, 3.947017609889751, -4.919041222443875, -1.5107646838890698, -3.449990018208414, -2.1768604698290392, 4.893547564586133, -5.5134632049210035, 5.5324253831249175, 1.8363519663336128, -0.87823493037964, -0.3398439276058276, 2.2204337863674497, 6.323946197844551, 2.9012893063144065, 1.3258062106683575, 2.304979944155702, 3.7410935779727845, -2.7632759482008336, 0.48884184469633096, 5.052621787614915, 2.9927680786548625, -0.6485161285223702, -5.999021770977418, -1.1688021522296639, -0.6298042308627256, -1.7835492752724635, -1.114796156977891, 2.3024879048119935, 3.2888224560264128, 3.2597551385634125, -0.9454249296028723, -6.197088709934631, 2.603519029325798, -1.9473783701845255, 6.33321998931792, 3.6759621940709257, 4.889475057450299, -1.562104984591593, 0.11495614856239422, -0.21559949695646918, -3.5362177115800275, -4.219177753074263, -5.32030619009331, -7.986829273499946, 1.7953178224257966, -6.069054293192031, -2.993117853324814, 2.551299883287223, -2.673699806807725, 0.17401799590555322, -3.759709309049629, -1.4662918326517025, 0.07531124797123123, -3.0006940073493302, 1.9859154220358484, -9.484771426008445, 5.597444691593955, 1.453522006502217, 3.818928418664803, -5.641340470460321, 1.5578550635755994, 4.532772071994473, -7.943330167920671, -4.839345303679434, 3.029037370959534, 0.114208010248388, 0.03178233553775156, 2.3945304923975224, -4.149579299976038, 6.3245487955272095, -1.0889273164977324, 1.8374271602270982, -0.28686124727996254, 2.5004842728345, -0.44683031570082843, 5.316096860877617, 0.18549014630622684, -5.571047722196482, -2.2224132380288166, 3.8215244548403007, 3.790845860921915, -2.0777456425173417, -2.788226238704871, 3.193036431552658, -1.2083250166779302, -0.800241459229291, 3.1331757952690777, 2.9995006077527897, 4.863644064930506, -1.9274025121386043, -0.6161788661894125, -2.2504203827829334, 4.819906397968308, 4.752805921551787, 6.521357531164124, 0.2574095213840184, 2.206956352995913, -0.653378322622441, -2.828943067944495, -4.168816785107483, 3.6513778398491397, 0.501077689222045, 2.321745535200547, 0.21676090701882944, 3.9189612850126654, 2.681780135973513, -7.787839230678961, 0.36155134342780104, 2.624811686872138, -2.702752589869674, 0.37401458213101657, 4.987381683190764, 2.9427935387862116, 5.757964384292365, -2.889917303139505, 1.5996290019700758, 3.9464577316967064, 5.263545810195102, -5.542973480583056, 5.309573910724692, 4.167288927178005, 1.1287088531914886, -4.831366521263789, -2.3637730652493243, 1.7758054878276877, -1.9236088631093193, -3.1042672888285052, 0.11583604323851371, 1.692101508522625, 0.6517560170496131, 4.99896912769567, 0.28047039554365183, -1.6519762355042813, 0.4374937740374658, 7.62513931953073, -1.4957670333623065, 2.1482572641202693, 3.7576017612488117, -3.6961292394624783, 4.753149929989835, 2.613294813013991, -0.11487596662105193, -3.0766036768140506, 5.223000371474353, -4.7064383623691715, 4.585355625967907, 3.8567971876033287, 2.72500299385268, 1.0460276631461154, 2.925057116006833, -4.707711270623863, 2.2080947553689674, -4.584534837580427, -2.29484464163511, -0.05224619323139934, -1.493489558579147, -4.876715264501512, 0.10758165022414978, 7.9643326094473945, -0.5383025652776567, 1.3215892892663454, -0.25001874926235446, -1.878284109342518, 1.2632463691905595, -7.922668162885431, 2.210878383656258, 0.25510411748491024, 2.563949283778359, 1.5147571989941042, -0.30708399846839884, -5.214861632700671, -4.537062227627694, -5.228691355568287, 2.583788955063725, 8.455601613162914, 3.9101898958547885, -1.850412677726065, -2.504484944313897, 4.8711353399408726, -0.630657999558708, 1.6255127037584653, 0.6772449650833585, -1.419541205110009, -1.4973260935277637, -3.9233022567508176, -0.8785050155770584, 0.4341511974488581, 0.2835082443355097, -1.371150316106234, -0.6689190898354196, -3.526052995315811, 0.1697055747383518, -7.600581120755015, -4.094453654778542, -1.9968921067793963, 1.1258305336160443, -1.9038716651061733, -0.9958361262977125, -1.1597180561357823, -5.395849806572805, 4.757499082032505, 5.005152475754547, -4.1532801664033565, -3.31892057455281, 2.9955429166681027, -2.0509468079497615, 3.6670925685225964, 0.29636353206442245, -4.148293081536907, 2.6421988142251824, 1.235155682109622, -1.8042947273068775, -0.1834726063152472, 1.668940364632498, -7.582147594456478, 0.20103223038822748, 4.142667608034527, 5.747080215892554, -4.808933506968617, 0.5848545099171154, -3.238520367685661, 1.1143512781498988, 4.851864189766432, -2.5550678451434314, -4.983290797380939, -2.900552704032912, -0.629398226279323, -4.712904726655395, 4.000327577488585, -4.062685282229185, -5.245020245302386, -4.087932646511303, 3.873288332576376, 0.3243290016075049, 3.8837626948801, 0.19959662933130762, 6.678210331157985, 0.1922614543644885, 0.6200056048630109, 1.7887738897275787, 5.570950180579796, -2.750570988160421, -1.0802482857167728, 3.8015422561211407, 0.8871778604081662, 3.561211385170063, 7.372018267061806, -2.940511652566859, 1.163859408321204, 0.05894931148048732, -1.6293258773752968, 1.790480732065439, 2.546012632500677, 2.98290965768496, 0.23906211108889686, -1.8101876590082548, 3.6958512368990055, -4.459152244381096, 2.458535175775122, -0.6012183308567605, 4.969600097560254, 1.559869672609727, -1.6386735494556763, 3.7350114053644408, -1.8444772247575907, 6.723493015460864, 0.6920650058658464, 0.05432084410725602, 1.1177414626296898, -4.85035370772959, -5.909753989462645, 0.6638942345478027, -2.1666013165823377, 1.9699863260851127, -2.4874296959166244, -0.41551232699995655, 0.5742872648818371, 3.486251327281085, -3.792300299561497, -2.998377269663415, -2.3667211906852357, -2.5163387569484144, 2.951571142174208, -0.9118582190749687, 2.4407875829492256, 4.463778099871821, 1.1000720554821184, 2.860586369575144, 3.0872809053303643, -0.48113270625410465, -1.388961482123803, 6.075784465319881, -0.23639625765091687, -2.2824347163580243, -0.9105273248253674, 2.564835023569392, 6.570792768263767, -2.9860464177740353, -2.7215459428711375, -1.272189529391961, -5.298768362649737, 1.6845152950512636, -0.6204895411727906, 6.167121295762473, 1.1295344379968828, -6.113500128464767, 4.5723832268333675, 3.281861280927755, 4.038453170235542, 8.760441695204625, 6.736475810024645, -3.8002733659811625, 0.4543905567835087, 0.47605339660171997, -2.059137075747026, -2.0380425245175724, 0.3017877331761232, 4.345474432482028, -0.5655627676173292, -5.212876054458121, -1.9553384879614009, 3.9594237506479804, 1.7485764885585553, -2.296909000324683, -3.858797507340082, 1.0196567815077766, 4.254567747759009, -2.5749652586920817, 7.087107553757001, -1.9134566624985014, 2.8019085643426056, 2.0303879677040966, -8.306739698926748, -1.5382227012858274, 1.0678501606632613, 4.324777339584291, -1.0811702309377973, -0.6743804125478472, 2.9240994337098254, 4.773767486489588, 7.530346298559577, 2.193755975585213, -1.6184006896517558, 1.7906339654181593, -0.4984037096289735, 0.5482585253272574, -0.3044257623585893, -1.5874031991282147, 1.5762800025400905, -0.19218805157480867, 0.5624765175674655, 0.853772505213344, 0.49988250978192417, -0.48072500896836945, 4.221481514039308, -5.582762947555258, -5.207347324594761, -2.387680282467496, 0.2846504610736633, -2.9637214144156854, -1.1535860257616206, 3.4678805438256886, -2.003993203376472, 2.1458092567603257, 5.835441730427693, 1.980471810013991, 1.3717599492435815, 6.936205325242529, 1.3057890102732204, 1.4963721130071534, -1.6005049396177236, -4.504278310056585, -0.20993015157361006, -2.531130484737367, 5.371226002119488, 2.647541765487829, -3.894699951736963, -2.1915780694371874, -1.4098447822455002, -4.1347529204638525, -4.203471543064642, 0.3064810009177199, 4.814104929756705, -4.562801700180856, -4.517973380764305, -3.854098706007705, -2.432199217326975, 1.585984324673805, 0.5288454660563304, 0.24947717602973607, -4.273774971105753, 1.1375005563241318, 1.976127567003409, -0.8106695693332304, -1.1122210113583606, -7.092214979062121, 0.10911748903928764, 3.073805593394882, -1.082191950282664, -0.33038146991282025, 3.9690612439545765, 1.8219238994866696, -1.7312212243580412, -3.57641879536746, -1.9287067257720394, 2.705536134920896, 2.348536756466384, -3.3119777911527466, 2.7713059448141397, -3.4583383314773863, -2.402427215296024, -4.545400755746147, -5.74383964671325, -3.1660661146364664, 0.9458330750954766, -2.9641016562891593, 0.7984358407092202, -6.168593574655386, -2.875059544013227, 1.534453764765666, 1.2693091903849156, 5.478110252738922, -5.255903577619344, 5.5114763703609215, 3.9814493365453236, 3.5141552268247906, 0.5795893444310729, -1.3273445292624364, -1.3515397929239714, -3.214405129292588, -2.858138138136261, 3.7908689286894433, 0.7758110986966831, -1.3616676212086636, 4.638289721276758, 0.3320584529819688, 1.509878097101756, 3.9681482034648115, 3.142270661018446, -1.9659687365258243, 4.665270542166388, -4.7804802798928305, 6.271993984485026, -4.170535893273769, -1.7888916581213499, -3.4243137403585875, 0.8974531987654462, 0.07478454200217044, -0.17206931953097349, 1.4818522599939015, 4.494176414000688, 4.655228872518134, 0.46647099156837135, -5.216184144036425, -3.077721266186906, 5.903974351441934, 3.1042296017111433, -0.7594380130251153, -1.4323058128409174, 0.2542244578478907, 4.628802114473142, 7.762758428788718, 3.3916397616386105], "biases_list": [-4.311177280997548, 3.07690669436216, -2.301525069845834, 4.939492360893054, 4.953852469461959, -3.1504828450594777, -1.4699607790033018, 1.3070368794205014, -3.6556894942269995, 4.677212950502276, -1.165226823355133, -2.88278671542304, -4.235344448265059, -0.7732389267489499, -2.165992964127332, 5.291323604902328, 6.140844038652753, -1.8405248512181627, 0.7724076731942899, -1.9242858557953917, -3.081142504557147, -2.6958541404212264, -3.213517204532778, -1.7528209489214712, -1.76555436882011, 6.852032943968268, 1.2880274664658797, 3.5652010723412095, 3.350719403327126, -0.5616738208811001, -3.5656788389550633, -2.286249509712307, 2.8154284766469306, 2.443308485484158, -4.952433651459315, 4.400787604783648], "shape": [27, 16, 16, 4]}, {"weight_list": [2.8375905711941107, -0.8225807585149245, 3.4339638638512264, -9.56796708532146, -9.643076688275034, -8.939362567831616, 8.071341680453875, -9.877383147570988, -3.427383087447394, 9.835797429918985, 3.7586903008978894, 7.802476931722357, -6.05841258631209, -1.7318315199560381, 6.545386787379718, -7.969236116806051, 7.5025403838611915, -2.9670806160641208, -0.1111046800766613, -1.1012554124302583, -2.421173758277037, 5.029097881744328, -8.076817393115979, -7.4708686870310785, 8.1957578027757, 2.262313554648966, 4.335565538797267, -2.1134854245371075, -6.569688177641768, -5.617536041526151, 2.8950105841117306, -0.15184295677546378, 3.35868835535721, -0.4404454854972861, -3.2598290716614953, -5.230020588012957, 8.756159689555652, 3.86589848965089, 4.617612482404695, -9.055447312195342, 5.533269538520831, -2.61315359694969, -1.8740419774083075, 9.88798162097816, -2.3032658298349076, 1.3449388334582855, 2.025140662712557, -0.8430010915481398, 6.417047823194392, -0.0112710083372487, 9.370091266838248, 1.384845771576864, 6.0453292117672905, 6.986381375269811, -4.010291675664682, 9.619456520342313, 0.4309022367118953, -5.056290058667664, -2.4259887393912125, 8.571663838741456, 2.1122363310627295, -4.633837721076317, -6.01559990301102, -7.519223660613838, 8.718936663886279, -1.3077165509942636, 3.305390584083508, -0.9609029284757025, -3.4882149176711232, 2.163458886737435, 2.732941917716751, 3.2686881971066217, 2.33669970095925, 4.5658795102754866, 0.2748459471288365, 3.232639589115732, -2.4964965300701225, 8.355464346749743, 4.204266496542298, -8.563245979770409, 5.616907593390895, -4.336151325197323, 2.016414091488336, 0.3990625595010717, 1.65456135497584, 2.059815405102273, 6.048095405141168, 0.5568732730611237, 0.2154400908971441, 8.602721402877076, 5.517648708588604, -2.3090492510538, -5.6729122761814805, -2.8238443443357655, 0.006935142259150151, -6.066127051200028, 1.9443315962835825, 9.726664338508925, -0.7588850485307272, -6.269950377788671, -9.947223285458318, -8.570007654613958, 3.656850853573065, 7.7975568922784735, -9.316866149727087, 7.644610190194463, -5.941475952961407, -2.0945654781791765, -7.556169902082508, -6.008380931486953, -9.592850810145714, 7.837226505151705, 7.3665921021928575, 10.653545303475324, 3.8327757041928185, 7.52118965302542, -1.8169051522647086, -2.6616851072892795, -7.201592902810651, 2.804059885228564, -2.2786418511431084, -3.148964745896146, 5.074082641038008, -9.44062523140225, 4.33184017346444, -3.597995951480394, -9.31045556820623, 2.015942452129344, 8.08581342201101, 6.835523543789985, -2.2227212278383544, 4.146522254313275, -0.974516440586664, 10.306970107489422, -0.37282370342133353, -9.894311975920443, 1.5128963898282022, -5.696381798184451, 7.192911918872223, -7.290689533090687, -6.965045625192424, 2.025202803659855, -1.7264862528409883, 7.180519891986663, -3.03455527188535, 6.063565728446279, -0.028181247911924334, -4.772898013711936, -6.788537715948395, -9.631201770427383, 1.554674144696623, -5.093410369947916, -3.9541709727414904, 1.532295509154467, -1.2746105174098072, 3.7773343298134128, 3.6826086139452183, -0.9396464571650227, -1.5155707170625294, 6.853827814489348, -6.647234129459948, 8.096983320029006, 1.8160289287153892, -9.525486583365652, -6.575082251408556, -7.143449307351806, -3.304486610602087, 0.9537931158191324, -8.403744465639818, 1.9783702062252297, -7.582354213761738, 2.2348718309131277, -4.2252385151775025, 3.960540473458914, -8.23068575629491, 9.728492343954713, -8.72314673437363, -1.7345564897283725, -5.879178254642368, 0.5163420668484315, -5.5449651848643455, 1.9756573360252476, -0.8293017113710679, -4.655130638101356, -6.847424276147374, 3.4787106020551875, 7.549889127676, 8.361606530949173, -4.026364428451323, -8.077652286216608, 9.967016258951354, 4.332140530548156, 3.477530160307487, -6.393145416645476, 5.300915401453223, 1.9367131192620555, -5.2683625163129975, -2.6217558605331526, -5.366903125447441, -3.4196979753562813, -5.748903214872142, 5.732853508244817, 7.758620710407664, -2.673079121853798, 1.9385310644197897, -6.064545482808248, 8.402657967936996, 9.931207476817438, 1.318534644568044, 4.880018325887572, -5.449927358038913, 7.338696846060113, 1.041397100678176, -2.186897170769985, -7.335895150421635, 5.623798049378722, 0.11907085134171513, -3.9335216992318696, -7.1804323887345625, 4.593202987797573, -1.007476266877604, 3.8116893501439897, -1.6707182829599634, 3.1512271736436706, -7.610290272142031, 7.455252129975117, 5.418642689770288, -0.8557676050189087, -1.6039284766723851, -3.314850551613543, -4.057008247750589, 3.46286322946181, -6.098943136703733, -6.353091760982217, 1.1320560941380897, -7.761177649089473, 1.3168514535791438, -4.906239193136402, -1.4628854580613293, -7.377458059499814, -3.231879356171265, -3.146718122864331, 3.2382025269748977, -1.6392010974063391, 8.950646644391355, 0.19132508900709522, 5.140675364006434, 4.084644760837407, 6.561012935204806, -8.915678027950586, -3.1467988005238126, 0.5878815077154562, -1.0508077399413818, 7.239752913942558, -6.217282864752496, -9.805548955500495, 4.172470140794593, -4.272709130540318, 3.7388099843550604, 3.430429929637759, -5.212380237639577, -3.019584096935871, 3.6205097075194166, 9.134392387910154, -7.5008651339149655, -2.3421870810681638, -1.6501355075771302, -3.927462144980085, -1.8954721293394068, 0.4383268361924708, 7.024758174046912, 2.477079025128319, -6.3140780401160645, 8.830209499087651, -6.567469148906671, 3.461302624012986, -2.3213859218138877, -7.593249054971677, -9.145760097090553, 7.024447200608867, -3.6724847439045143, 0.21698978480903497, -9.94743486912814, 4.591744328469718, -4.123518814866032, 9.432562088869737, 5.994840894455416, 0.8148544960763939, -7.715886287738762, 9.155934778500164, 2.3829665596344434, -7.477955601844418, 5.909570164479952, -2.1582817845869733, -1.163354288693736, -6.651480623814088, 7.341220117534524, -6.60774766003085, 5.158226898221944, 4.456662322997405, -0.4112813068297796, -4.641797712168383, 6.783879777612757, -4.618448595677695, -5.656352874921147, -1.3859325841291936, -3.478673934262101, -4.654145822880558, 0.1552898383002037, 3.2276603345016746, -9.775914991172172, 9.255902963858754, -0.8764035047797802, -5.878734803936476, -10.126534950747498, -1.0523070948283044, -5.411033603139627, 3.2320727715410005, 1.3063256520410418, -6.187329635077144, -8.898622735817266, -9.501955665933966, -2.9986463420486063, 1.2217091197301135, -8.222512967216023, 2.2825394369555196, -6.071544128937375, 0.15983563207038642, -7.919691035576882, -10.232099502520258, 1.296157552850397, 7.751427414663295, -2.859058079138966, -7.646007461990838, -7.074001253375032, -3.8811558667528265, 2.1040215108370974, -2.9378213551099535, -8.167247520070548, 1.5211083193863248, 0.3474667442850661, -3.8858508189148218, 5.136396764209032, -5.51158978963771, -1.5639320837742539, -4.399357436385614, -2.327047453013308, 1.3006134575319583, -9.459789544140657, 6.79314563624089, 2.6895039974922774, 4.945211282335547, -5.428636729677864, 4.146599859943209, 9.870741390767911, -7.948161161600563, 5.889329023435669, 0.2574816551598773, -1.7761113024239763, -5.678536145353196, 2.6558300492816906, 5.565737182505045, 7.707199429193924, -8.020368987629709, -5.997101209258446, 3.2304279096789523, -5.071531874410475, 1.9181435204538055, -4.304342767626885, 8.945761047710784, -8.095233876228006, 6.26795786602282, 1.327856805031101, 2.5502597411936163, -2.932998764607089, 2.0154537041730767, 1.4488089988454198, -6.937376643416824, 1.1095443890747538, 4.0610684424583905, -7.289176365781425, 6.818726807297731, -7.001165057876179, 1.117590157386993, 1.9364372647218846, 7.621136706271585, 7.927421582257139, 2.003502358253381, 1.593656519816772, -7.399283947076121, 0.6947035959242154, -2.1421745664671104, -0.5176924527125251, -8.505571102574642, -5.087059900481382, 9.733605205478861, 6.346497005436396, 1.520841106487513, 6.33595050612148, -6.352283529569073, -1.1635869004485904, 0.6881615143031032, -3.263092591468764, -6.959544757842122, -3.949203973344998, 5.105997466943745, -3.4202818510240256, -7.474776081639721, -4.880930900182533, 7.16493043528677, 4.518533354644803, -3.9460637246661157, -3.240173517586223, 5.223171477366899, 0.7695999443308497, -3.283436025555356, -7.254711658589107, 1.9899905813415861, -8.371293949048088, 10.507997282394527, -10.3290180674481, 2.231321365431298, -2.4388287477777353, 0.17536696926460116, -3.3381546029019633, 2.088974349481528, -7.779221128474079, 0.048930616421249074, -7.326455657831258, 1.1177792505670388, 9.154909694799066, 6.568917645306016, -9.164880624729179, -5.7942649622127735, -9.046131460693145, 3.5823187368127245, -0.6591500306657065, 7.825740845564537, 3.9248935604309523, -6.44209618633959, 5.507591044368538, 2.267781328690918, -0.5506452969855775, -0.19100058169657563, 8.980473359079529, 2.4057238023879153, -1.3982134543644857, -0.9959310328464999, -7.532073303781326, -10.333686801630988, -6.633065269750277, -4.618992818295865, 10.81669562301059, 5.142639476606395, -3.817820205713361, 1.7505937411399266, -8.12500357862182, -0.7482613154141491, -3.8608975553081866, 1.8166236308231722, 1.4803516468624784, -2.7153330030142726, 1.2841178953877659, -5.817305979143201, 7.909555745469659, 5.5788177367235, 7.113934210691916, -0.4453637884436601, 9.262476222036993, -8.805935531868078, 0.007789728449953737, 3.561781412873029, -7.26619594610539, -4.98748093284315, -9.328960540866648, -6.492163166715322, 6.178063232543314, 0.8396427036449896, -9.787886219179708, 0.02215319255862025, -2.521145152796538, 7.120707349214898, -1.7172610386711564, -8.470448811904475, -0.16892318425771524, 7.037212978528759, -7.739376435193179, 3.9278704383261456, 3.1011082689643725, -0.619678865463607, -10.633464919905146, 3.798121776804349, -2.503881733263209, -6.744719364521204, -3.4117561693285507, -2.913714500111948, -4.660595457560532, -2.5526334073054313, 1.1790092348421863, -7.276712855967739, -3.7809565865259698, 9.670154501359654, 5.04120755640193, -5.766999024928262, 4.323578578546423, -7.353885729086169, -10.7712178732035, -6.657690911561459, 9.537932996594016, 4.260955862890333, -4.230418679309356, 0.26104480808969854, 3.0367445266478157, 0.7153513458430436, -0.16487427676978017, -9.463308136838037, 3.0521816647063895, 2.6948691034277346, 1.9849757288069005, 5.884385130441307, -0.4444658735751763, 3.623884248555247, -0.06548530578217604, 5.116092872428635, 3.1436413952609232, -5.904151859582024, 10.191616617507636, 9.237599052957826, 3.250592924373265, -5.4186414582973645, 5.104402752387066, 8.877745883924353, 3.894985375240134, -8.552187873064401, 3.016563545338377, -4.610649102805427, -5.5486174852315315, 7.07557197409103, 0.8934840502024792, 5.083848835020314, -9.053356608465668, 4.193027728521399, 5.187039746425771, 6.125141916561219, -8.358960928206265, -7.717193624004865, -1.3246564869594957, -9.458905753593054, 3.7459268130562933, 2.10593315569358, -6.226086674620197, -1.4594045427241369, -10.822262498545783, 5.414262589405125, -1.3908641366840901, -9.424913859829797, 6.865876054015544, -6.559750807589243, -10.362643298774056, -0.08966042616916048, 9.937303287691634, 3.240742598007248, 2.115149221839296, -0.11440441623595099, 5.641836821431243, -4.055877113114981, 6.105634537661355, 1.497347356626638, 4.534732848032392, -6.224401099984215, 5.365889916110168, 4.775595335340007, -4.24631365888415, 2.93481808294975, 3.0764236749393827, 7.1800614839901336, 6.195882803029049, -3.2560923404375663, -9.981331719652474, 4.09444578158997, 3.500903275388442, 3.1690606294207386, -3.036850442073738, 8.26658665500044, -6.3508009583975875, 4.572877520993145, -0.68464067580038, 3.492308465039554, -3.6017032365142208, -4.782722902350791, 2.821388659680842, 1.6698718548659692, -8.859801417217437, 2.211998587939423, 7.578591317576851, -0.35254760708249333, 5.162274271770854, -4.857959859763854, -0.7527947732780165, 3.660219646864592, 8.38782549018718, 3.7233158828408373, 1.2336791089469443, 8.46751262175397, -2.7769803208676542, 4.358107386803637, -3.1948774747954616, -3.106877343049418, -4.910297469453185, 0.35506423338562376, -8.518577017607, 2.1791013641352635, 0.10687362575297699, 3.7715419233934533, 0.10043166756219857, -4.435007290245514, -3.8994022957408196, 3.3096607838003402, -0.47923724236938825, 1.0451954195855993, -5.194873987341403, -3.0620986444234832, 0.9796370100652991, -9.691102735273624, 10.107616100776582, -4.268077649824065, -3.4414128339648267, 6.818708980314822, 3.9111338446133015, -7.158037593923444, 6.022640469847284, -9.49416992486843, 7.346974366531189, -4.21417675153589, 7.45281694785969, -9.570326204803573, 7.14824226930328, -5.002703410569667, 1.3246048931322605, -7.451028688966978, -6.323390110745672, -2.735446033212189, -9.36832597035719, 7.265438030949236, -0.6727638694743154, -10.327502893167239, 2.394889884535952, -5.471899141420113, 1.9571200212088646, -1.4363875459491149, -4.353725689247818, -2.47833149466193, 6.89091081223636, -7.434680812387352, -1.3217565577011916, -3.2537232794854054, -8.492236147574525, -4.45558844072556, 3.7474465699800863, -0.9341517260424723, -10.311299328377723, -9.718943805245583, 1.6074471261943595, -7.961854520707925, 3.426655839382816, 9.119345236688591, -3.3250191996778824, 5.515335944794188, 8.329983240287662, -7.043989999992497, 1.973653396252507, -3.350756902634359, 2.876492686136575, -6.573777976926605, -7.904427667309686, 0.757147761982659, 5.906046951239484, 1.251373242495219, -6.490124033277192, -2.222236224659807, 0.08963876021720774, 1.9418072093603382, 7.050016653171424, -7.632318559636425, -3.959441195585676, -0.32137209652985566, -6.584342935839205, -8.010006407239441, -6.686321297717917, -1.6687471132261666, -0.6906006045094526, 5.094969113086661, 1.4544594021687098, -0.014217562656408722, -0.7094751995214752, 8.994467000658421, -4.772506012101121, -4.3121059337686445, -1.6754897180110915, -1.8509615626288534, 10.416022048504024, 1.5710723902117127, 2.6952141687975715, -5.071194949243672, -4.8647036926324265, 3.242548563664444, -9.916845033071134, -0.7289659101303156, -3.8408736088270325, 7.058857247502274, 5.916721445185006, -4.417386558706357, 0.24697173978097453, 9.525448778915687, 3.103982937213501, -9.463009847686282, -10.050671966408546, -8.773144175684934, -5.368666589372419, -2.8886545031156388, 0.08780562044923634, -5.471076966262618, -4.243493415648298, -7.300524400875172, 7.507698918645849, 7.375200048714987, 8.516403433543237, 4.295490634580728, -8.251230253415539, 6.5853172557357045, -1.5079004657559871, 5.051581621448746, -4.265582856312955, -1.7227700288972956, -8.119857641698202, -4.480557208974511, -7.759061773677893, -7.6066874765436365, -0.42748970021710075, -8.96181381244757, 7.914093744430593, -1.0242483005752958, -8.04105797242295, -4.479292741741515, 6.611954802967095, -0.4820022035581859, 1.6866696001953576, -5.938832827189538, 8.877912818297883, 9.699521423273314, 0.7649688967575237, -7.845064836326203], "biases_list": [-5.132812666339716, -2.1089192502449596, -9.585466344601969, -5.562936642747757, 2.3160237278358657, 4.892612159278369, 5.391280964626827, 4.304154096424319, -4.474112833727418, 1.517003184817649, -3.5900296937730483, -3.839488400917758, 5.6820978569301035, -7.158216937792753, 5.966016574585827, 7.789175989485219, -5.1142261048217605, 8.665843237748039, 7.06552626829502, 3.7457476819281963, -8.131306170740654, 9.355493857841418, -7.203066987310606, -7.865110074786602, 5.455925210798133, -3.9549610422236134, 0.5375381822413698, -9.452155830231819, 0.3683571391051115, 1.1160588359515415, -7.159127964835917, -6.1156637389472275, -9.355207216898958, 3.5314078498207584, -7.695550076057003, 0.8608632986528673], "shape": [27, 16, 16, 4]}, {"weight_list": [-1.3741886673238057, 4.725812826720075, -0.2791797013472087, -2.179815649156896, -0.4553445486522334, -4.487157220568066, -0.7663714315818262, -0.5161008603734021, 0.9809522428622763, -0.6983877642573534, -0.9734685171624453, -0.19103100561949327, -0.13639728825254327, -3.183366564959636, 1.7722081908879548, 3.443676530755802, 3.890080603146835, 0.6981233200736128, 4.269325210708987, -1.8934615271428465, 1.0356525729077917, 2.619874791523051, 6.0936724364743515, 3.3972760511881113, -0.6219952058493905, 1.141527048818019, -2.3417172610892076, -3.0955133856921577, -4.597668400151762, 4.872249901970033, -0.7572468520404929, -1.039213895293222, -2.621398055525404, 2.434630747295461, 3.8378994560855784, -0.8746659288053562, 0.5713699198725293, -2.550159611088807, -4.035780196517914, -1.0100926215420922, 5.715529608795023, -3.8144519094060154, 3.427780660238631, -4.317547203065132, -4.019083165843639, 4.056223434883099, -3.638225850871283, 0.01228557144367981, -1.6426510771877003, -2.662468558843517, 0.9283274832836568, 0.6191684056113227, -1.8990535905933774, -0.636755602462411, -3.8966068796696796, 1.0750826036155958, 1.2819657101986, -5.693900360769565, 5.061260289589336, 7.534693285019056, -0.6221509108314631, -2.629805088703293, -0.6891468664454701, -4.586256747718697, -0.5613679317814855, 3.210641720124749, 5.221123047691594, -0.5466680518475866, 2.1832764894455012, -1.639453744407818, -1.192229421311455, -5.364947483348823, 0.8532689111520284, -7.316700103935417, 3.0955888996688925, 1.7152125250126256, 0.7976748976226784, -5.142001041400074, -2.0702244072806257, 1.5867658913216487, 1.9245933902003642, -2.1691321553360776, -0.2364541638578188, -1.1114026039963456, 1.3776877446524534, -0.09358155417435376, -0.6272239061084017, -1.3391384642691175, -1.159000031915091, 1.580021012369961, 3.13658396200883, 0.4714940887545054, 0.0003805505187957081, -0.07423569024935572, 0.4873844839807968, 1.226073711751802, 0.9295094906146113, 2.4738200760431086, 0.30128525643714177, -5.618917887288248, 2.488749419659655, -5.537123658460873, -2.2062069341889234, -0.4891389718325301, 3.5819649708983627, -0.7526904715739672, 2.75616895990615, 1.6512374070511404, 2.103456314897404, -1.2643356819611349, 7.033162539397537, -4.953251642055795, 0.5948954228243917, -3.199274191930629, 5.429713026931304, -4.73153957007846, 0.00919638337405182, 0.5451845151294241, 2.242117358722285, 1.3317110441373479, 0.7494307872912753, -3.957677325875744, 3.361709721533215, 2.805555766256414, 6.7739096391558355, 5.349869099910637, -3.322396301143545, -2.668583930117686, 2.8743347748794914, -2.074116682326301, 2.29865915751556, 2.018041721140932, 1.6042975389118297, -0.6650080816730627, -2.8579420488796528, -4.540175658344782, -0.9213275395969437, 3.8375496809604037, 0.7590251536258488, 1.9874180976373959, 2.183899894199456, 3.7509058341968347, -2.0885226547186897, -0.211966535659598, -4.0875793081047505, 0.6120245282112002, -3.9620366306803794, 2.723785666679557, -2.979531241919478, -7.059369098555528, -2.9527180802477684, -2.0222846798207534, -4.177885907774221, -1.5344337078465455, -5.2784198156199595, -6.869854840000652, -1.801838812724206, -0.03301575719073335, 3.77275318708313, 1.5982470677543938, 1.0703093987804104, 3.15405472127708, -6.526688189477758, 3.4079155814757405, -1.1252838581519318, -3.644559287047591, 0.7000329014518512, -3.5854802570776294, -1.252852189205477, -2.7327140789253237, -2.942969872775982, -0.44727632087764047, -0.6529810885133898, -4.267716322743214, 1.0061663912790153, 4.242230981475132, 3.3574640037134245, -0.33655241256763724, -0.0012961208988324646, -5.183401640155631, -1.2797517666791902, -1.3540164446649072, -1.3187923942458704, 2.432635956795627, 0.15098354184281226, 0.25187598660159205, 0.2598219499396739, -3.4547551725716303, -2.4183575714974817, -1.8827094459964275, 4.349781307366152, -6.34685254292991, 4.957087131143395, 1.7009586687404, 1.0854742310645733, 0.8205469355647594, 3.1723252797331556, 0.9639406354896254, 0.1305504181342807, -2.015118198678804, -2.551584375251828, -2.824434612398912, 0.8834964608645763, -1.9364017604990869, -0.27572116789659096, 0.5067389012095656, 0.5884306177432272, 3.1851546634732717, 2.2918351404063935, -0.34132255295441905, -1.2427831009465742, -0.30736496299988736, -3.7820560819253215, -0.9796915925626628, -1.0995910680404182, 0.31940964056541454, 0.043384219882327546, 0.14675902506409555, -1.3507908188288689, -1.2683681182247102, 0.8894861665337153, 2.516646994532578, -1.648952398536835, 2.78611530204634, 1.6033691942565218, -0.8067901292863353, -2.4080041400358763, -4.244733163751738, 1.227155509497038, -1.1210421732353855, -2.3272052133981846, 3.1861337297375707, -4.450584749012454, -3.93904263094315, 3.799644225463714, 2.2840016528501614, 4.277398656153654, 0.6079921383052245, -2.1002382957305654, -8.43810016718465, -3.3442086708840266, -2.7727719924117373, -4.12894397453012, 3.8262039439989426, -0.26997340720682617, 0.08361479342945399, 0.4361949238523706, 1.424675520567138, 1.3698936339583092, 2.722864084951916, 1.5050667722330404, -2.0981767768344763, -3.8075763176671, -2.961898233925266, -0.02050610744069825, -0.18339650253351247, 3.5506260307567947, -1.764767665926495, -2.1133691188504278, -3.164996329834736, -3.9087597190958103, -1.706783627254545, -2.6611878700642713, -1.5176060877903417, -1.4259735508354923, -0.13981849151610248, -1.3781888049687507, 1.5270435220273262, -1.9628684069629228, 1.2808858992575853, 0.4941189195915614, -0.9490059151449681, -2.233511596643983, 0.029610376475470268, -1.1507483313431865, 2.7072017500302286, -2.876694433542511, 1.1405180929310061, -2.529016259533968, -0.050443203610541776, 1.4106961839760266, -1.3594766497204005, -3.6371121838404, 4.605123601979947, 3.9434055823976353, 1.0160199360810527, -2.938070316836789, -1.1854860022450415, 3.2043686738126187, 0.5877177794433324, -4.856499106231047, -3.0944505846371397, -0.7266840630825493, 0.35866998427026897, 1.5892829033459166, -3.6807098581285405, 7.918698279822038, 5.6302275491512095, 0.06832184036061983, 1.5344088625145291, 0.4059909930223842, 1.672560618844725, -1.8241150971146245, 0.5048508627988866, -1.63727113366058, 0.31678184434750944, -2.466419420443981, 1.14795110687942, 3.8338585077276672, 1.629307209405713, -4.212427904024498, -5.718466211095603, -2.9422909264065367, 0.5833423763031829, 1.13447934862802, -0.59377348651067, -2.4730268304502587, -1.0616380730094916, 1.4184393416727543, -3.6457475254663443, -0.7947292229918168, -1.0963079229274717, -2.546112220939655, 3.164494931958812, 5.419920107458459, -0.9950526943255893, -3.1640056359214803, 1.701445155881106, -0.4436620757718994, -2.8394310358758474, 0.9014673256558821, 0.13647596975147414, -6.848373856257133, 1.3484918552339278, -2.3135506171173006, 1.333294086870037, -2.3316886021761536, -2.858882826319408, -0.1492442747603383, -5.473444307529001, -1.5529048075938514, 2.296219951714585, -2.129919177402388, 2.926062890911077, -7.723408866682435, 1.2630655871759644, 0.7336856907752676, 1.9879521108778935, -1.168708157431279, 0.15268172554038517, 3.4237264649884525, -2.30683484000678, 0.2044611039009454, 1.3103647127615408, 2.199499028485847, -1.6502308550988585, 0.1739856617279789, -0.9127781093097054, 5.400395164338014, -1.3222329979142868, 0.45295331924130267, -1.3847344418896523, 4.77615105983361, 2.537417863169406, 6.164957785282725, -0.3191667559310123, -2.913289115268715, 2.646390560701796, 4.55084130735464, 0.5777590469271578, -2.3351425188971042, 1.078553302816354, -1.5137786717122623, 0.4352689997165182, -0.4809779020555548, 4.05217559164932, -0.6280422967459768, 3.261877462507014, -3.3348038091823993, -1.3922284980469755, 0.9630088018381939, 1.3968510442105182, -0.4870766282774288, 5.279704830757783, 1.8393693260408899, -0.5510602599473013, -6.737600329130765, -6.134992260397544, -4.9936218966608985, -0.10842323917131225, 1.1037284681896073, 3.3541027469979143, 3.730083486064144, 3.185473462352716, 2.8016374646879534, -4.997400123524486, 0.08885335884767476, 2.4690261341056985, -1.5715767759511816, 0.13876976438342004, 1.0741199104906984, -0.012147708044357053, 3.085583346971317, -4.450962940356094, -0.9706869377840037, 3.3775162068051356, 2.1043103468947253, -4.21520565356116, 0.9658344409191839, 1.3025109892540945, 1.271238300412719, -0.4563845555020277, -0.36708259748390126, -2.031435104151283, -1.5068803427115545, -0.801322384704082, 0.8893834954544291, 1.6022278765554203, -2.3969978667802927, 0.3591048312320513, -4.149923497659317, -2.418902071000109, -0.017392437805901273, 5.591430164408215, -5.871081929688875, 0.13462905606015507, 4.993834117744772, -2.831584380588021, 3.553245454239092, 1.8259821461055523, 3.7679869122319802, 1.201712578731407, 4.159167802096228, -5.188700386246616, 6.094044739847856, 5.121299602857089, 4.727116584568693, -0.3336066417840883, -2.7957132973974685, -5.540764885842057, -0.2920582636001283, 2.120546078572487, 2.0783816219379707, 0.20998995495835704, -1.5336343462325475, 0.22782654741916364, 0.1836167311155883, 5.12132517655277, -1.5323687008351963, 1.8390953998779933, 2.440469562563392, 0.34828086748326736, 2.253479101589383, -4.956607709653743, 0.19663711283309793, -1.8639053898288616, 3.219941056221651, 0.773637350089972, -1.8477627070000342, -2.5136602764224167, -0.9250940267500034, -3.3221215061977523, 7.8040696061012795, 3.1936985892489167, 1.0013441129262235, -3.3556664491795543, 0.39653318304496654, 5.304988543753055, 4.221530756807395, 0.12667669498439516, 0.1900369018662298, -1.1151205088143323, 0.7104460572020055, -1.2670651068428176, 0.8538129482828125, -0.9768935080323259, 2.254918175454664, 3.6721451498186433, -6.467443490210702, -1.246393945925607, -3.4402831953059048, -4.051896415106045, 1.4469497518992789, -0.33104871244477185, 0.263677980703108, 0.286256688694559, -5.3987356154606125, -0.9350686361952227, -0.3260057811465654, 6.449961153144519, 1.0102936644714764, -2.3158106561191287, 1.7790821514125823, 1.5602974260695186, -0.5438690439675257, 0.7905466312278453, 1.188136947583581, -2.4800133057128475, 0.7495004134772463, 3.060435181587949, 0.09232702512680202, -0.9367844967211949, 2.0256329810224942, -2.7605954996091233, -2.5644811463495643, 5.204749153215253, 2.768520239408128, -3.020716776921925, 1.1507253458718187, -2.700081357015354, 4.110180739447422, 1.1159232355249298, -2.2216356397139707, -3.465399442423302, -4.686466636370218, -0.4667144714609267, -2.3410247300622573, 0.3811138374753962, -0.837172875916071, -0.8030597932631203, -3.2663267351131458, 3.6225743539028192, 2.891842913185779, 3.2677754305570135, 0.5044953615728642, 5.6340482942482915, -1.1776066080630776, 0.7193819792947771, -1.5188649265193455, 3.82579983474621, -4.1548419547106175, -5.894323450523845, 3.7310309593448574, 3.650171356329319, -2.3552594211525104, 7.865015410813729, -3.112769752496164, -0.30595180117650445, -1.426701248692897, -3.093995624980045, 2.312707446557487, 3.1166369743409783, 1.591974451378042, 2.965202835619947, -0.448685752582761, -0.5771173752132828, -1.142382049539155, 2.4732194117414323, 1.495313265682412, -0.28967269825688957, -0.2527587105606879, 1.9458977345428554, 1.519884874601404, -1.7246187748086659, 6.196222329390533, -5.355058110271645, 2.4408893398540874, 1.5681013406974653, 2.3080891904863585, -1.8238765263007346, 1.7006387684493527, -0.9235650763316129, 0.17737238087943874, -3.180586007725786, 0.05170358110999729, 1.9930790072368856, 1.4103898973359081, -3.2588890808151065, 0.18465168141703847, 2.1404039711041207, 1.514567566017, 1.688546918798532, -0.12822341339334242, 1.463026183084506, 3.8738557692884523, 0.8494675556990976, 2.9698358381625303, 2.8860609066325678, -0.05540052315215205, -0.504901516122171, 6.428475475048268, -0.7976652723867419, 1.2333074463969584, -0.7112541911675458, 1.100856115170488, 3.108168209414745, -2.181361112907864, -5.841180128801063, 0.561428890409166, -6.1903223541096555, 0.6650481351869895, 1.5267111026503635, 3.0815634267730525, 1.9155594545657415, -7.06334171435659, -0.4859964736514514, 0.48804190481635734, 3.883723211010218, 5.687534415236703, 3.8574343710328955, -1.5721804340692116, -1.7152954907446487, 1.0487040757638253, -4.3828449004450105, 3.44941704076716, 1.239916207521989, 2.6069477103336265, -5.662359365304288, -2.151197604358117, -1.2337838741847698, 1.1683199725825162, 2.0661245767615393, -3.2524835612103775, -0.053110662635662, 1.8544576955419565, 1.7820447252080518, -0.7285628536590585, 5.279181442195423, -2.9388162527590307, -1.1173360751369572, 3.7402615130660326, -6.569841564975432, 1.0160825927641035, 2.939076676550098, 1.6969356056451845, -2.6970794411868932, -0.3214498416749191, 0.4966518267196074, 0.13534453302117977, 3.731558870952856, 0.738360351267779, 1.7308448173480389, 1.4262773402699866, -1.0253007862796064, -1.0091548635127114, -4.451276733404973, -0.19755266787539238, 2.781329124709129, 3.2623482355407862, 4.895920258699004, 0.9746733070007148, -0.669784614436294, -0.4637645558953125, 0.6704398224502286, -0.9252687284624672, -3.941880579009276, -0.23012219047412308, 2.8212303666389955, -2.6928288185831217, 0.558842053248217, 1.8643503103930605, -3.259390055815837, 0.3704150474123906, 6.913388225258408, -1.1040463404038232, 2.785518889179583, 1.0319070005850488, 0.7577639618462382, -1.423233137236709, -2.0893869654816264, -3.3137886612119782, -2.286002048926097, -2.711401643964246, 3.4149069580134803, 0.19538939901166352, -1.1525516507547005, -1.1716248339348667, -0.7152186450640198, -6.686031060689073, -3.616065061675292, 1.806128088081798, 0.9772396159643051, -1.3031983028926366, -3.581587550023926, -4.09873129908997, -4.913814488662201, -0.37288879846809886, -3.1966818892834326, 1.5355940131616963, 2.621413530199981, -1.9117201561931816, 2.3211810042907226, -0.9573285151044028, 0.35530371642340697, -5.7261146580235405, 1.719501053887746, 3.769619229941285, -3.3936579106828013, -0.2418752830975801, -1.619035402303189, -3.6891793202925722, -1.1099203253367775, -1.2889846645116618, 0.9927903990304918, 0.40153869954941235, 2.2325331104480153, -3.4841750068979973, 3.584890203763557, -1.7762885726817532, -0.08509088784056373, 0.21078073563903654, -4.398529045217664, -0.7843733784655107, 2.3542233428106636, 3.0221362351835035, -1.5889302935169067, -5.028134591302122, 1.1833343979023838, 1.493097613581564, 3.93993869636951, 1.3009807715993897, -0.6273722963456401, 2.433933190312046, 0.8631287345403642, 0.2886331603153145, -2.5260863204094814, 3.0655577195304033, 1.6006171613858555, -2.6782101816447583, -2.5999193106167633, -1.1190740714143808, -0.7649237373201752, 3.9341004403676028, 0.8405827622216551, 0.3133984070697222, -0.6381422699314776, -0.6593303527093088, -1.721791358314465, 1.4357159427056025, 1.0527945413625082, -1.9699062152395685, 1.9966298625670023, -1.1816878988333168, 1.70329000371607, -2.4689629358870775, 2.932235865858281, -1.5178503171025741, 0.7175618504501622, 0.8842837123905924, 5.796772290764188, 1.7644120884442343, -0.3683433447944141, -7.2690224913146855, -2.390289229207616, 6.549069166741147, 5.300706377522337, -2.903114493421847, 2.001289929857384, -2.9370108457540667, 4.713528530081985, 5.854471750501359, 3.325917228507519], "biases_list": [-2.7752014701242573, 1.7278514983699784, -0.44428963133829, 6.525847042567918, 4.698277836629861, 1.1091534457710939, 1.0153481008287257, 0.24588820527550426, -4.041209739726941, -0.8715705570277852, 0.8430102997813962, -3.4552325871130516, 1.3971171301204826, -2.674428685308398, -4.389322778017888, 3.5001136900093393, 4.728848950026555, 1.9973071151609405, -3.084579490354561, -2.641617140078809, -2.1376075736964433, -0.9689446314164014, -1.7439163993261133, -0.683957744859778, -0.6201811739126413, 2.064351907918976, -1.170711077758647, -1.1450724002509203, 2.8898324892369036, 2.4496095107559377, -2.9116352898980997, -1.0410052372455754, -1.1017784711312908, 1.5162013813490045, -3.235580320860948, 2.0453104198592804], "shape": [26.762198229715292, 15.63856011952647, 15.804015923422146, 3.5878540942544923]}, {"weight_list": [0.8096533554215055, 6.641399006280593, 1.2983449334636106, -4.433309061542232, -1.8344774454031747, -6.523573597069255, 2.4756703391247212, 2.1945306391947508, 2.2735197987030045, 2.631512136107091, 2.4627946307420125, -0.4591420075445969, 1.7987962176477836, -1.755149169834909, 1.5587851505858419, 3.565134323903539, 4.017515873877294, -1.5507980653191356, 5.351453073002546, 0.11188828209323676, -0.44907354952129197, 4.192987305998731, 6.2412414141317925, 2.846777032769623, -2.2695946304537813, -0.13493073729489735, -4.291054775015167, -5.842083534262302, -2.2583738196605694, -1.2036542996991533, -0.23615814765175525, -3.0573086303477135, -4.456713236367287, 2.006871922736949, 3.0512995709087267, -2.4009705842918834, 4.449027283870279, -2.0088477846348534, -5.4479884508628995, -2.964405403624693, 4.56239542902731, -3.683217079532498, 1.5811674758130456, -0.4510749339201614, -4.575683542178123, 8.03865184126772, -6.570760120474194, 1.9963324662979685, -2.269375628238503, -1.303854856956613, -4.768350663340108, 0.38953225289590154, -1.969743209743984, 2.7892474519459354, -3.6986310917615124, -0.7869770824006187, 0.4758704225983428, -5.663857009396647, 6.698631458951396, 7.715538291111304, -0.45745842458471087, -2.9164179110339497, -3.546095238704684, -3.9510967265132466, 0.9825649892700548, 0.33445710107211735, 7.566739067984626, -1.936495354223828, 4.156909457128255, 0.9843859257938798, -1.7489329358232009, -5.8863316792595874, -0.28422141418726754, -5.670531775626337, 0.04418825979283181, -0.4364737615869856, 2.1178846467927794, -8.698255302803098, 1.3313655521747378, 0.5952482849440617, -1.8166481682073332, -1.7806634227273634, -2.338768153694316, -0.8251334044390888, 0.650499594859421, 3.7747480978214956, -2.854009835487983, 1.1184916512962535, 0.008844880089741824, 0.6320727333695926, 6.095967350476904, 1.9678504638201968, -2.340312032437927, -1.8038736524447343, -0.34386689220839617, -0.10857622526630772, -1.2310402527759186, 3.12860538980312, -0.541668405689216, -4.922562647563255, 6.22770772485163, -6.054197643750774, 0.6086210981502069, -4.139053615078936, 4.308776451574901, 1.2618762214832633, 2.2960662110019108, 5.52355077251058, 4.64532566536355, -1.3900804973062952, 6.648929305860959, -1.9758992768446486, 1.7500595606566796, -5.876036012544933, 6.060521086725291, -5.280411201561937, 3.4976172577369713, 1.3892911905282137, 3.6723053278674467, -3.4134282973965, -1.1022771075737694, -1.7502197195037086, 3.2727215245255907, 2.561464441878284, 6.544496670616609, 6.386673040201673, -5.38688407601041, -6.650682015116687, 3.1390680319812, -4.02365436126067, 3.2689524382108646, 3.2812742526082186, 4.946449652665431, -4.344067405053159, -5.392211939009285, -5.730328719957357, 1.4578494698070052, 3.4237417926371894, -0.7438868797782763, 4.41417620249385, 1.2352375226171395, 4.622963837868968, -5.163343415625262, 0.7333660398164077, -2.7555872768024026, 5.46063129957935, -3.0079587564748813, 4.1164599588510375, 0.13798376318727268, -7.328595165359598, -1.3367178336025263, -3.5209467088719055, -3.6399493404543724, -0.2813340064884611, -6.247982258726831, -6.666521201145223, 2.8938053718903562, 0.702563663065372, 4.463480181661921, 5.402573642722066, -0.20435503010728195, 2.2194256237690553, -7.247092077317043, 4.3411321590416065, -2.9427455075494127, -0.512553472717914, 1.8070445980288765, -1.2766490525414942, 0.9615939744877646, -4.4173118917015675, -3.9163800469335106, -0.37898040021484314, -1.188517981058022, -2.035657541366383, 3.139189189217147, 3.7860291491952944, 4.807433015411834, 0.3975608777441091, -1.30290768383868, -8.399042802762647, -4.018741521981687, -1.6898801597083792, -1.2460663046930045, 4.329637616933946, 2.51273946434557, 0.9459699067481142, -1.6709583340802963, -5.739097984307494, -1.7131405383278193, -1.8654938107645413, 2.681727926910608, -5.324725141663979, 4.718709268015244, 3.9547299565015503, 1.5833091814074463, 1.7024517756817472, 2.878646157783196, 2.5852939973657474, 3.3990521670251415, -0.43436471996032044, -2.38546932921589, 0.8966909089005481, 2.481741764767485, -0.7168365301096653, -1.653091873246106, 2.3628664652998763, 0.7477515415282283, 5.403550183397275, 0.8373340493120409, -1.522715663553896, 1.337797781077553, -2.9869072722614955, -2.231206002680641, -0.8840927108550027, 0.35159597857289926, -1.007540468396898, -0.3022420664238882, -3.662842074219949, 1.368878668792, -1.464776212919576, -2.6078281170684656, 0.0994870872771898, -1.1373561930428173, 1.8154316735758922, 2.8725767413528978, -3.0179744073226518, -2.749374454595417, -2.0977602270582905, -0.9281583819873946, -1.1471618319031531, -5.648767481598009, 0.6677208397568133, -4.571432392834345, -2.904514819355353, 2.406167151845917, 2.1157699192462562, 6.162968339499464, 1.4354214451372211, 0.4650480936545225, -8.185093095235736, -3.0981623334212878, -6.64063131266518, -4.792283962365313, 4.5215541462002555, -0.9415198174020192, 2.030267737586802, 2.6767236881277805, -2.251980413041945, -0.05672675204947186, 9.292048781779956, 0.5897354992986252, -1.7570978068769942, -4.412747682659118, -3.9131831961535073, -5.231597330009931, 2.1391104880539786, 2.3682608384859445, -1.0999727424426133, -1.2187279578993602, -2.749605978817069, -3.9708532433277535, -0.8696341721068221, -3.2376559168061814, -2.582710106546245, -2.8121024470011395, 3.23122963061312, -1.0604696277216579, -0.2000732972621332, -3.380270462333448, -1.048252759486457, -2.7800250921003116, -0.5665094487430026, -2.190237753135598, -1.0467949261261889, 1.1785184516404237, 0.39181030749246304, -3.1626540282131588, 3.0721971409866438, -1.0389964702958512, -1.36547066241731, 2.572912417656182, -2.7611896232330317, -4.520666825177563, 3.235364564301916, 6.021782604110653, 0.1258757045277481, -3.0067059680621173, 0.0027118155339114214, 2.957722344787162, 0.6105844253301815, -4.798733281368701, -1.5713551980861564, 2.750619053386341, -2.97883936818175, -1.9583155546405853, -2.713480194746804, 8.820760696727584, 8.319363082371188, -1.2709033994299739, 4.40431583219482, 0.800142241965488, 0.2267114884027186, -2.99388492115467, -2.129338451217231, -5.492328090608391, -2.970448226947519, -3.868072346681731, 1.708207198807023, 4.6198906376052555, 0.0005645200612462986, -0.29794558772680757, -4.082241463974252, -2.975251565529029, 4.14887938916827, 1.3334869051013296, -2.7457595255544125, -3.7191343143347173, -2.842994232409195, 2.4127310862020046, -7.438391791764242, -4.502298282636797, 0.11230874281229064, -5.672846373569103, 5.7182722156274375, 4.828588734433154, 2.311584271538888, -1.5724491762543165, 1.0419468061954662, 0.21809962035795127, -2.885286905679461, 3.310607285053714, -0.045603708971538315, -5.626178427659683, -0.7840136732294369, -4.906058724790196, 0.19137935159997377, -3.2565453558165944, -0.6944674307160035, 6.025118269901636, -6.8936941581350215, -0.8527344922730273, 3.316920964755732, 0.3522697091062388, 2.9024992681987793, -6.141360738729585, -0.9176926374818379, 1.591968541293359, 2.2589052164166588, -1.9557552096316115, 0.8984493619045164, 0.4492756802800735, -5.583542433747976, -1.4843676580262855, 2.943605452579961, -0.036301289061618336, -2.457780672465249, -0.5521346998935069, 2.2193308865716803, 4.102860163002935, 1.3531442723102671, -1.2355430368357552, -3.9834146750935373, 4.3555822250826495, 4.7622066938341945, 8.943455588196157, -0.026415253373896608, -3.2863244021309947, 4.531460846911574, 3.0041835788483136, 0.13786123493542224, -4.914565986166522, -1.91375528209428, -4.636430342541492, -0.9629511905922963, -2.10622674243322, 3.5279296764765924, 0.24027485069929866, 2.5913035956498347, -2.4108812082700903, -6.176702422363292, 2.141974719526201, 3.3267110656391345, -0.3306015202148369, 4.510120427519581, 1.9707441056847994, -0.20113993628916205, -8.380492592862716, -6.471188170248361, -5.461225844845014, 0.9414498560062268, 3.864061932553196, 0.06649545078276686, 3.518991388328531, -0.43868138789322453, 0.312569401275709, -4.0405289059914224, 1.1714747631626956, 3.924118326481028, 1.1061260755496276, -0.7492622119563153, 1.0044714375680783, 5.526244154143551, 3.4069860041501716, -3.526202835883886, -0.2814485954109105, 5.995614352550815, 3.258049775653779, -2.452374448139592, 2.896579835048815, -4.391964574712246, 0.6415411357727421, -1.6479832941104415, 2.4984387701048427, -4.051243935638032, 0.6604103805460024, -4.433948554140487, -0.09012188330536697, -2.224017881613161, -3.1627354221122026, -2.4450211868511538, -8.026457530419338, -3.532585641844081, -1.3298004821671485, 5.1253718658428635, -4.838397885548245, -2.608986286980223, 5.222410268687779, -4.837487237610599, 0.5529895501759121, -1.5865701685635945, 5.251688703189308, 0.2760003630308896, 4.845592089148705, -5.764462424579329, 5.603150316599622, 6.177410458398689, 0.5697278673226602, 0.1392850423051779, 0.6294639461282403, -4.480354090337022, -0.8145390768705847, 2.4717330786741334, 1.7655754841608058, -1.249557698429745, -0.5284653650845694, -2.873799693717126, 1.9381606066231245, 5.256475106339911, 0.9000091431343273, 2.187385529078344, 1.1719316689187593, 3.3972492040518727, 4.511391611300492, -4.205291555000617, 3.491097218056108, -0.677730068690218, 1.7381488643632563, 3.1361958643714676, -1.3459162990634104, -0.24525955866039106, -0.6415801248594954, -6.785223722346412, 10.77656711545226, 5.309939455695955, -0.9367585314365332, -3.8594784142327105, 2.790368527610764, 4.4596170807461295, 3.407041137559581, 1.0290888144485142, 2.7785648451794343, 1.7916185394702242, -0.0742657745337254, -0.540973605213992, -2.285035436015917, -0.8309977099292583, 2.724592251558313, 3.5920781100864065, -7.766215712441628, -0.19750235150896356, -2.8451446853356472, -3.756861587279391, 1.6750037927006005, -2.57577797021258, 4.137613799126363, -0.46477047835253105, -4.636505598506756, 0.08458913527325551, 1.7629681230232883, 5.427102643508539, 1.37952364595178, -2.3068978938354707, 3.0559858257469976, 0.25890824625585873, -1.9714941914499904, 0.949121290535762, 5.131312425187604, 1.5262515126680523, 0.9327246610474138, 2.148608684074828, 2.597339212801807, 2.2524036154668696, -0.06305349126323412, -2.675034558150131, -4.0744666859901075, 5.7221655847542445, 3.0054709726782347, 0.2390276217189744, 2.586832763334269, -4.098870957666165, 4.9196110337077466, 1.8983069379973267, -3.576726085965708, -4.8658175023624, -2.7775244923340616, -3.001871229649325, -3.3552799876496544, -1.0083609047792554, -4.236876081694989, 0.6362008573546178, -4.290693980150012, 4.894694241948937, 1.8965081258445347, 1.564215100553651, -0.2358949743191785, 4.698808996569456, -3.9434640503335117, -2.3535684069750014, -1.8142406926957557, 4.450195057839701, -5.577301574697154, -8.17447806383823, 3.870631955579123, 2.792971601324843, -3.961380381142788, 8.52495644391255, -1.7439281583995923, -4.782981514507079, -3.1121093111961153, -5.226819690180325, 3.692605298297856, 1.4490941301592697, 2.7082393709734482, 7.351804618858182, 2.162458916905073, -0.8482711774036062, -3.250753483671078, 2.3180169124241203, 0.7224783798465171, -0.5670328649195424, -1.335826115455929, 2.8362622520039, 1.5663440261847663, -3.4711278305661253, 6.858215566968344, -6.6810529539990515, 6.856396218539654, -2.4809834184598563, 2.7964297242179272, 0.35233211276011334, 5.9551462597848275, 1.6625456588699556, -3.438958909130017, -4.117246001119176, -0.1190875370429354, -0.4338721190028131, -1.3078042390487425, -3.3192463521046087, 2.553135031914543, 1.5668500506608636, 3.736659977002522, 1.8203787912857017, 1.0687955207749176, -4.581452913804645, 1.5267150231295035, 1.2229095681028759, 3.1049851896159684, 7.521447162368723, 1.2408000552214329, 2.061824021718584, 7.687134810511299, -1.7178676292711412, 1.1851505447019464, -1.7199647034521182, -1.9042909497080112, 4.873514063457685, -2.796253429999227, -3.657747179650345, 0.4616679390162115, -7.305911661958916, 2.923226818117902, 3.8732259060176686, 4.568261682041907, 6.8111547792464116, -3.850629473705644, -1.1710677002164627, -1.0069348107380773, 1.065277271381524, 8.878854790791284, 2.5227915777822254, 1.1079840328890693, -5.724890255265908, 2.747361835896945, -6.010916627134925, 5.864936727556818, 1.428278591487862, 2.183217958137008, -7.2384048243957215, -3.6391702577329763, -0.3988064028600269, 3.56257432553309, 1.8094192289388635, -6.2162089121621165, -1.619389813527172, 8.142744071836336, 0.7782653874063734, 0.25723891396565657, 4.374744354784755, -2.6420823205669395, -2.0449707780165967, 1.5806597586755808, -8.11241307307543, 2.1358546115611805, 3.2624475347774897, 1.9094159976672027, -2.4403313861621556, -1.6577376821663612, 0.10363102997312668, 1.318628073297348, 4.106026869807991, 1.45105522053177, 0.6349194559481346, 0.0007085271144904315, -1.5135106610549074, -6.752214236918019, -6.8633324403797715, 1.8004506228103985, 1.139940589666054, 6.495401512738893, 4.349372262367918, 2.168800038996742, 3.565603942034577, -1.496428598560317, -2.9121533050990758, -3.0187787333925593, -2.847742283722365, -0.377292060041894, 7.615645593562869, -2.6063097935880997, 3.308029793570734, -0.9126413047972045, -3.9430339577597846, 2.351023544428718, 4.534857895107901, -2.6844658051036556, 3.371027968370636, 1.6202542461400058, -0.9409959819643783, -0.37032912340847757, -0.4614067810827591, -3.7947138696795144, -2.0398351804551957, -5.528869996682787, 3.8970966430971474, -3.945800550632214, -1.359028923476574, -0.4616822849033938, -0.3534581426966441, -5.11534811238581, -4.217872652495947, 5.0447139292467815, 5.333102880870102, -1.114899085565402, -2.3624149944001207, -4.412699595322056, -5.532428695921625, 4.681223663026947, -3.9668360538014324, 3.082989519485115, 0.23608060340444958, -4.258327306502718, 5.982239754908322, -1.6198255973738802, -2.247732702149344, -6.160298591450186, 2.3615287212358687, 3.1173910771114492, -2.7131972562083013, 0.660629325466793, -2.6054070343754803, -4.385011947088146, 2.3822932368278407, 0.6590825658133355, 4.429967608128657, 0.22397553669725823, 2.647742811727185, -4.807842243407867, 3.3632466117992834, -2.2576770924432576, -2.7740930080519624, -0.9701483972524703, -5.060104911294292, -2.803852568186101, 0.6621455121433952, 4.128000521907211, -1.43081838853338, -3.1647459002924476, 3.3743717558942627, -1.8510499497696957, 4.400903301137045, 1.1387661913825218, 0.7853863137335031, 4.806704095126237, 3.2779204237078545, 0.22249406318793863, -3.730501488764054, 6.4996399114718315, -0.5295366726214809, -1.4144558795690803, 0.3563354217072572, -1.5664852960625266, 2.1402104360377936, 3.7769945874169943, -1.4949224848578904, -3.0128014712972435, -1.811407243884878, -0.3192077437276304, -2.5656123146530643, 5.456653266260988, -0.36887455156009996, 0.20912347298280065, 3.258841344447676, -2.452666927265345, 0.1430109684135139, -3.2761957949451332, 2.1775743842060993, -3.0353254476313545, 3.942621505280437, 4.3590624876820225, 7.989181568379408, 0.3703970332102693, -1.2442390504999812, -6.773433226521751, -5.4906866006501565, 1.1951504316448807, 3.3544194557036384, -7.548263532288448, 0.9824460249090143, -1.1129540031225742, 4.566673232215567, 3.8019866083512097, 3.8123321883514434], "biases_list": [-2.9671747065619765, 3.3320967345308716, -3.192428180981274, 4.97502467127209, 6.024220460828831, 0.6306836560638538, 3.4592336160183796, 0.9934147449376964, -3.8334241919090974, -0.3250939342579089, 2.17638145254097, -2.990025204684092, 1.6259244106805935, -3.7987033414181925, -5.6647637645364775, 5.037945596905834, 4.673954925564519, 3.8375705111126504, -6.8732232132517685, -2.2187201516048454, -4.1985840212301815, 0.2779212897872618, -0.03873525914600584, -4.530920884710635, 3.420360393826691, 3.36882608080381, -4.08111126607661, -0.6281786915161348, 5.017464232275827, 2.3281430069770828, 1.301739979782567, -2.0273114408169315, 4.096841957009222, -0.866472792742428, -2.337832058726102, 1.0110111790071517], "shape": [26.544124067947614, 15.378627076618269, 15.377114290764478, 3.914797603463394]}, {"weight_list": [1.2244180857724247, 1.8205493755150766, 3.0471476248307727, -7.198196515442785, -5.036555667099114, -6.796939708798242, 3.7230133119714637, -4.168153808357394, -1.6392167251303489, 7.677357266358209, 1.6796913105193827, 3.5724467904462225, -0.7810536065694464, -1.6217128899386215, 2.4687773339308077, -2.6225594566151713, 6.2188511034873954, -2.673537494597334, 3.5521147529391186, 0.4538992772266437, -1.0900396083940975, 4.110747683766418, -1.250314015516498, -2.1858567358016456, 2.841710565481833, 0.5925181751044875, -0.15260967194499964, -4.506445617129563, -5.847138059668744, -2.8503826020788745, 1.3574298443358086, -1.0864655427122145, -1.0373885276873778, 0.9610164629808287, 0.761048079109089, -3.4053245595598214, 5.770314288338341, 0.7339932266934706, 0.9733371583217285, -5.32085925997476, 5.170506362837072, -2.6492152789186143, 0.40357806006102237, 4.459308053228048, -3.6462063275322243, 3.788863212979096, -0.7118693483101128, 2.6549013463515694, 2.6214546830161782, -1.8857466477719544, 3.5626671967985297, 1.7346774297609961, 3.362716702191717, 6.393548786245815, -2.8793980082960235, 5.864904563845807, 1.057568363857814, -4.3373760491383555, 2.7459943433536473, 7.14476921673594, 1.058564197488324, -4.842627081323762, -5.08155310465279, -5.31207318108387, 4.422825443067723, -0.5104448196226856, 4.947406065121191, -0.15637366025494304, -1.2950622401262968, 1.0289452177817604, 0.48105538850553775, -1.2856021705082536, 1.2753076617739887, 0.22000216648016924, 1.1030589894395968, 3.784458772524104, -1.1599184876374575, -1.1982617894529568, 3.9999432285307464, -3.8403107074257252, 3.4137236788866554, -2.7950029342366927, -1.1039081004896425, 0.3781321980242378, 1.1915206630789799, 2.6311489889070483, 2.401883884800454, 0.14899614631024694, 0.0342582673385583, 5.771730994684134, 6.332326481416647, -0.40372776850847014, -3.890528666593646, -0.7638983478832977, 0.9672739602461218, -2.6454710460325668, -0.8951797714632304, 7.126091529432269, 0.11161955669509149, -7.176616097637776, -2.392492861958768, -5.281789204908102, 1.5389512904749516, 1.3244669244188456, -1.977600125104715, 6.713028597626264, -1.1926296387683974, 2.0420583426486605, -1.8707964081155268, -3.552842429701845, -1.323471935851801, 2.433820015369022, 4.609840981077239, 2.7483089886154417, 4.703466477944824, 1.85479377425313, 0.4618348244671133, 0.6824882728306756, -1.9023427801207595, -0.4091825420804265, -1.5463381037594577, -1.8856752884770775, 4.35184964282027, -2.8124741858273326, 4.202271553719781, 0.22785499974266332, -7.875907921325656, -2.0902786964995395, 5.442496703593188, 1.7917552153326683, 0.030310794733481528, 3.5804206029108254, 1.149477520027001, 2.021335926191475, -3.5085862839546524, -8.157173395453693, 1.0413087517532205, 0.5718759898294026, 1.7377509821334147, 0.01766657784532466, -2.9890224060900996, 2.562508583219349, -3.6259503285668027, 5.029118149986014, -3.2040065607898387, 5.612035850995204, -2.7590054071054455, -0.24753115716453067, -3.023627609795971, -9.372544269992956, -1.2753300093117357, -6.208661642952904, -2.701224805470562, -0.4268824988375174, -3.161384099781057, -1.67287473767583, 1.0147531604808027, 0.14855758442667089, 0.4148644565473254, 6.548099060709658, -3.4338891260713087, 6.258750108368479, -1.9996860138867225, -2.9884732968092793, -6.170305306722716, -4.912800656104965, -0.03356807840484821, -0.05819497249353356, -5.432380274223388, -2.5614768679823543, -7.553650665761398, 0.15097412703558044, -3.101154822508729, 0.7204742251336946, -1.2404984810282311, 7.519222398113897, -3.1834713765070064, -0.41729299723883373, -4.040628081194848, -4.320251919623983, -5.36258877944137, -0.1551062327661088, -0.11733314664876948, -0.4654619541054863, -3.4773016288462966, 1.3830707678925251, 3.297499872004389, 1.4073155596254634, -2.2374121886506115, -4.75072510687049, 7.4779792975756045, -0.3991671928498477, 5.440046325489453, -1.1905442845817462, 2.9828824914878456, 2.1553296294118836, -1.2505208523808828, -2.451644850992232, -1.1805104966673694, -0.4469242581928812, -4.13729918221534, 4.376083351060034, 4.011018856563124, -1.696507105279772, 0.9445813832938299, -2.2542608648538494, 5.572440979928396, 9.052859683436548, 1.7838828513320988, 0.7682408603832953, -1.351363408547152, 3.576606484093235, 0.124749594941441, -3.251733919861291, -1.4827732149535442, 1.764881516062919, -1.489501059125798, -1.8651169426013545, -1.4012598379262307, -0.1885611262180269, -2.6463489412337005, -0.11723963703063989, 0.2288152608715821, 3.8733002256868785, -0.8560690626870175, 2.4280012202386816, 1.1018178923806259, -1.9185721448973345, -0.5310955657135455, -2.814036737005809, -4.613324709042858, 2.828397303876123, -5.201919674273643, -5.614920548593353, 