[{"weight_list": [-0.3272433176457765, 4.66286848132105, -0.614471117040538, -4.118062323850331, -2.1885580454134477, -4.946555066896062, 2.7079548525604853, 3.3253755482512437, 2.3853916133581556, 1.5053046667090415, 2.7662192407294546, 0.2805159789945999, -0.9908670878190895, -1.3576043514567304, 1.223582480054369, 3.396102538340621, 5.203277630613489, -4.011399090361245, 2.9815102763003365, 0.4453014644653097, -0.16735006275794984, 5.4701994438543995, 4.760680396467616, 3.482866750019882, -1.7552493619950014, 1.9776079889135385, -3.645552470229929, -4.000121641424682, -2.8990735176294855, -0.4545376125194581, 0.21101054128261842, -1.3865045229544066, -2.323726283685003, 1.2951449991718023, 1.8652012271839649, -3.7118278430131006, 2.51566236114785, -2.6048344563060875, -4.154705343345398, -1.3653240342615027, 4.525523726906798, -2.0705540637222883, -0.7971043418546162, 0.8276678355068943, -5.618137678469866, 7.679806256028247, -6.980633765490405, 0.2870599520697352, -1.3129695280399245, 0.21410534718213414, -4.470510968565895, 0.6221721007461305, -2.939980994602606, 1.5448260074410145, -2.504481225840353, -1.0593489012836699, -0.35559022294850895, -3.8898150777098546, 6.2535641253053695, 7.909565459223703, -2.7391419326173017, -3.9795869366449326, -2.781891555558747, -4.075690555900934, 0.5154210897955864, -0.8097887560349054, 5.557573441899706, -1.9778959066598345, 3.4108107611795138, -0.1290838752799096, -2.4363304353777506, -5.910558558275479, 1.721249476054922, -5.902666786208994, -1.7809569406140893, -2.9884023107741506, 2.741501138327907, -7.77367619464932, -0.1402147028434657, 1.1046142858738834, -1.8844583121801008, -1.207787693052142, -1.3517388220222846, 0.042412053823411844, 1.1475623988044328, 3.550191901398721, -1.7426818033179277, 3.136164554093371, 2.9566360458850403, -1.1344245387054976, 2.8212646206092535, 2.787708967692844, -4.616784213815745, -1.2608089510824003, -0.6823915295241599, -1.51833674472937, -1.2368289491532996, 2.637265376691274, -1.55252573723309, -4.958635802630368, 6.469148248169135, -4.086840385861008, -0.32951380173674694, -2.062313371934411, 4.908068554131919, 1.6077494899133349, 0.24312932889500605, 4.468173878890349, 3.941442260731625, 0.4690376472699156, 6.344394058689191, -1.6677325172279365, -1.6256680083457609, -5.371656552313309, 3.540066916768291, -6.213586806773538, 3.658411242728885, 0.8711353210451207, 2.8116646243633405, -0.6038820044044599, 0.5493437429378902, -1.4116879232724036, 2.413871958994977, 2.1856326846816883, 7.523392554977963, 5.195812056729828, -5.030719177647075, -6.704347821731204, 4.101789161644909, -1.1361284187781415, 3.183801704153373, 2.8249917003691314, 4.764143751953619, -4.263153970284025, -5.330723512532803, -5.3908907942774915, 2.606006646216427, 1.9564745399928074, 2.620426410840757, 3.7124192838119727, 2.7966515499368, 4.344058714991915, -5.848375389014167, 0.01900401915258998, -3.663570240734848, 3.1306399347164566, -3.127839534963531, 3.1420387584813403, -1.5984020734130908, -5.5705502020945055, -0.893736705919238, -4.982156557755966, -3.903541139575761, -1.1549258902825292, -5.972202864316958, -7.200233932687391, 5.017361918640051, 1.8820028526941668, 3.7904087405030307, 3.1633216493718272, 0.15502429926103578, 1.4807709216204934, -6.714889585667253, 4.799197019425528, -2.1594951058744516, 0.2055309534571348, 1.9423471353195958, -3.7975905788150577, 1.6797056364625358, -2.4030076639665428, -3.3384753472176723, 0.23814611175857547, 0.5331868899127961, -1.5493284413693191, 1.792518034582368, 2.9470692456003817, 7.867242490236412, 2.6300538703634206, 0.5467312280878511, -8.848121864808311, -2.408414957600284, -1.744325179271794, 0.9257537158761435, 2.4184201477069442, 3.2928674717700313, 1.1231292475894303, -1.7239203473565887, -4.152520932795321, -2.9453782172442056, -1.2522013786590558, 2.5089356219544388, -3.6595553515494452, 3.774297695726222, 5.127247835153042, 1.2436798035093113, -0.16490433300677398, 2.2891681225139227, 3.4297510239837203, 3.431407753983521, 0.6450638972092606, -2.1117068978396354, 0.44951180578307826, 3.7349632330520777, 0.6067353616816238, 0.4173271691851821, 1.6900821533814874, 0.5176816388772849, 7.277583914207495, 0.19485416513337683, -3.563942922255454, -0.05276863663910436, -0.37688542576528494, -1.675828200250093, 0.1334309890724963, 0.8024227582547767, -1.7119990207908826, 0.22338651055844672, -3.413805987400451, 0.43598461409785516, 0.10494433621721999, -2.892827152270713, 3.096805797030381, -0.9045299472436115, 2.41894534720221, 3.9915742397255647, -3.8690209311428965, -1.9864163335327703, -2.216404998858571, -1.868530460823927, -0.2893779547132227, -6.799414963277664, -0.62975950465714, -4.706769961802664, -2.955745520377638, 3.358674019887797, 0.14266579034981053, 6.747216588001099, 0.7737917187936971, -0.45080662578223385, -5.868130773389661, -2.6107323879994686, -4.380590908914483, -6.064804593910495, 5.5451646113090876, -1.8677764902051246, 3.355044025907757, 0.8147702275142001, -1.7118344343884782, 1.2905922341888285, 8.410671661219709, 0.8722464511481269, -1.8744150124422578, -3.942746263096855, -3.6883829366114824, -4.079993866150286, 2.0739586181616163, 1.6459258440007574, 0.1958039306497601, -3.618941675408216, -2.705557343176843, -4.9079192950090516, -1.2455162883148172, -4.0834274303378475, -4.2112633970108355, -2.2744541796630013, 1.6708503074293768, -1.7955040502844688, -2.2188473279139744, -5.717452133365285, -0.86878956376532, -1.4852961208036162, 2.1312861672646655, -3.3465905183727886, -3.18078118925607, 0.8794448814061973, -0.3151545985892483, -2.5199615692481485, 4.0340900417498045, -1.266077215787465, -1.1855849600461354, 1.4745989590175514, -2.0599919640852353, -4.610633227480042, 3.5913086258563593, 5.432851320261773, 1.332553847722675, -2.7269098163244125, -1.204176861794552, 3.7511825552464932, 1.2875849687177725, -4.163652877217997, -2.863642523644055, 3.8427735736861273, -3.4294303471755523, -1.4146400858488697, -2.0840062849397043, 9.79626401715076, 7.111280787970861, -0.9012781707945208, 3.7200645703574295, 3.2293196069555883, 0.885362966831265, -3.6008528497860395, -0.6825562366981863, -2.7179688532599102, -4.607815488072861, -4.391422695381142, 3.2123272152921203, 2.9117595380439125, -2.0928733351414825, 0.8754549895947044, -2.749610856264919, -3.3311668154176757, 2.9402336768250867, 2.027677538077363, -2.9353232337407986, -3.121120462449895, -3.0800785516914155, 2.730018383252707, -6.009463863960699, -4.027690830422492, 1.7331607592605236, -6.563674865827806, 6.5284160287882305, 4.701360391868439, 4.769346605057392, -0.8389176591758641, 1.6333143186968435, -1.3485363870744673, -4.168379563206914, 2.43559671608966, 1.4338886700276077, -6.325053256370967, 1.084645158932454, -4.305164859225718, -0.4054371283513015, -4.092765608541062, -0.42609959205799086, 6.234981176758139, -6.7225931482522405, -0.8550281647030051, 2.796827088905857, 1.6261257048090174, 4.3797600660802996, -5.760787952942786, -3.5091214716940833, 2.8472941699158874, 2.5119593722332776, -3.0408408042112014, 1.9087828354080494, 2.9439753595123284, -3.4612790429159386, -2.1204872701505346, 1.2365316994231748, 0.6823428537090743, -1.9284628825234824, -1.3637694686331474, -0.8351945905959548, 3.826567636229516, 2.787228875145677, -0.7886885107202459, -3.3001288499656427, 3.405614332143201, 4.680538505898892, 6.130785564726174, 1.3496735072888675, -4.201511163582723, 3.803335268190547, 4.130091677651877, -0.08970079468532166, -5.9916952774894625, -2.4576339289857905, -4.782735599592507, -1.231246776843174, -1.7015716772983882, 3.322680411362014, 2.538537563057157, 1.2434812111114573, -3.9700342113945157, -4.822891722855836, 0.5889763691216725, 3.1709266179905216, -1.0130515400963707, 2.4410001860710184, 0.7271508020437185, -1.1019616575293874, -6.058609181102334, -7.002485336997089, -8.256574563868089, 3.7656038826618605, 1.7695958466664985, -0.990909010808758, 2.702108614418031, 1.0554247127788852, 1.2238121711491137, -3.1675536586426443, 1.1306096438593372, 3.981333575679847, 1.57026078169933, -0.8949037597873841, 0.6713403492286583, 6.052916903442918, 3.2729698195747687, -1.5136452979795265, -0.8878840735630568, 3.858801787295336, 1.2101326116311073, -2.574352749911342, 2.764282349897341, -4.402839693123177, -1.2784312186765634, -1.362657091683473, 3.699898731194562, -4.583996734489088, 2.591064354044262, -5.051697653914758, 2.3534770448151345, -2.6856282566376874, -1.7149324868377478, -1.5075961849400366, -5.932108180322894, -1.5279320963534992, -0.4295083052860851, 5.852224487622687, -5.07320122916243, -0.9798574697296634, 3.635264681346749, -4.007698247132332, 0.5132693817548206, -3.353289738395061, 5.041346397955101, -0.36348876823233167, 4.599316889548376, -4.57067072207313, 5.043854619542883, 5.234406347920816, -1.7019847152639465, 2.064914049482657, 0.6316472046759771, -6.226117453200199, -0.3754463682281448, -0.09536953671620396, 3.770841125228891, -2.1860166860236014, 0.5436309990926729, -4.526748668057739, 0.8821364338298143, 5.633399124949824, 0.8908089976402596, 2.4238644005801264, 0.2516358479478762, 4.388887080936428, 4.061721228519877, -6.190721493510288, 3.1509298727939026, -0.351613355325884, 3.7196252188078596, 4.942585749499105, -1.2383681318720436, 0.024050094562935387, 0.46719316848358505, -4.076318531569493, 9.572331051563184, 3.2227461205428316, -0.712992364555223, -1.1409321458547377, 1.9479750143627665, 3.2770873607303637, 2.1723245621290728, 2.571126359521883, 4.530718586092891, 1.5498466157758921, -1.097849668944487, -0.31065488121093476, 0.6068767314594701, -1.1600035308290613, 3.053053103956379, 2.7277998034984026, -4.54989533302208, -2.523401661117452, -3.2670961250820656, -4.256254687527752, 0.5529599124728393, -4.115660708978875, 4.3737163456227215, -0.6247509570553194, -6.011758044822835, 1.4851633925107035, 0.5692623740913669, 6.401747211857343, 0.3841930829618514, -2.829089590130298, 0.6286105730559086, -0.554650637066259, -3.3753304211938655, 0.618009779666207, 3.2139652653174435, 0.521994803399144, -0.4053824237747399, 1.12220891756226, -0.23395160492663858, -0.005423387951636327, 0.07945937314119256, -4.1259036995873695, -2.4877807224160065, 5.107031530212234, 3.0120253492948654, -0.6666156784858266, 4.351892195935477, -1.6821555597898956, 2.368396764861651, 0.14479158938476067, -3.5597479479457945, -2.8998943349894115, -4.863859526006496, -3.5438279142592517, -3.389630774213869, -2.2749581936381853, -4.92851110039998, 1.8706897964887537, -1.8742085726706779, 4.349673595700985, 0.21295631666277903, 0.6776249360848663, -1.140243121940398, 6.18697226642191, -2.3371088012459547, -2.619744977689499, -0.04861424351799404, 4.9079722063933815, -7.300693287540985, -8.240279778867855, 1.8091285728987865, 1.198965532018681, -2.1348836518307133, 8.78985919597232, 0.7795205280125563, -3.536038983112218, -2.4532923157122646, -3.6108073130459566, 2.198243451475652, 1.7099895659904187, 0.2295570407138945, 6.56801590938516, 0.0768538716603977, -1.4999561027447323, -2.1448029408646274, 2.4703329138501, 3.3680874403698216, -0.6463132736164162, -0.7596964082131108, 3.4292204499095886, 1.6240976554941309, -0.9804912048101195, 6.092510614505127, -6.337460619054272, 6.232817271534227, -3.837339332708229, 3.0234344413985816, -0.7316198755852561, 7.457988453026859, 1.1152641225799091, -2.264783862335352, -4.747018457790961, 0.13436540024564803, 1.6939610580168658, -1.7571150639366053, -3.685214182431765, 2.7658992128995807, 2.5084990845529944, 3.2238505180880255, 2.733148552036294, 2.1433130399540143, -1.7588055574500963, 0.653856149729205, 1.678352581677904, 3.7201810529355006, 7.383364276312797, 0.19261743017864807, 1.1423760733418704, 8.069848570163565, -0.4928730089446035, 0.9466255795742957, -2.34696203151884, -3.7523555733020504, 5.828740023473252, -3.6535718346755504, -5.538250064861638, -0.8676832884249366, -5.8410829047840505, 3.2197565436700195, 0.9440597715945915, 5.962980647159909, 6.587811114323607, -2.2776315639971356, 1.9859934303154598, 1.8043004678905898, 2.7023288243231587, 6.677815858025831, 1.4543641392742606, 2.4797975028373043, -7.442123254612609, 0.7896381430416259, -6.076423311339781, 4.460972264636182, 2.1283052075994906, 1.6248298987978282, -5.378981775143639, -4.613429749521745, -0.01390279006463535, 2.8847614573234712, 2.2947525761894996, -5.694471229338882, -2.6863789513756817, 6.533794143151947, 0.5427101177551936, 0.3946495129793628, 2.877864675780546, -3.638052538591756, 0.32035706042515244, 2.41310615918694, -8.70993176724437, 0.07466049304071376, 3.4751510434451767, 2.186191226018333, -0.6650567663891613, -2.217397150413004, 0.9634072298332901, 2.283338354553165, 3.5488115364721553, 2.4933753027814602, -0.4974995975854397, 2.7472525253327946, -2.3825990428105808, -3.2774964324135025, -5.946080935036468, 0.6772630679798559, -1.079090966822573, 6.414010772028196, 3.360364509045886, 3.3249794945196403, 3.098764911989309, -0.1702668184076963, -0.9054908047913497, -1.3110512501891145, -2.6170942751304267, -1.0462714529753223, 5.4157167354965985, -2.8103830649061976, 3.947990795079776, -0.2879556337061817, -3.4652615227332966, 2.3382899908421324, 4.519484456290401, 0.6347885154350317, 2.5262156105969282, 0.9745696356457281, 0.1524900176395998, 0.6418145913720041, -1.268837836119769, -6.09142413296223, -1.603643441501503, -5.200878170878607, 5.2263963285936175, -4.260179531357666, -0.9648313963939308, 0.5053748225048487, -0.7626248584783684, -4.153835865013952, -4.148435857280578, 2.8205416347862258, 4.65467787706255, -1.2198727942844108, -0.7537832216870854, -3.9171865671167785, -6.237580771115697, 2.866670615343172, -4.436300400536602, 3.5922995609009076, -1.8525535399264024, -3.7425723446205152, 5.388264874697187, -1.7977996330919905, -3.416081486380356, -5.200558283469328, 3.0829558401862185, 2.0250106165863464, -1.5663901622222498, -1.8989899482578259, -2.20336454905037, -3.3719859843146764, 0.880960573306522, -0.10603101021460781, 3.0402274269481877, 3.4583257409230157, 2.980315550742244, -6.167778306505371, 6.743319438679141, 0.5432448615283796, -2.0576719980372555, -3.2435292585620736, -4.979176185138298, -4.719438764333365, 0.06874701711420395, 2.0719969036028507, 0.2524698153964775, -3.26581187234482, 2.82333818719051, -2.217470496984109, 4.583193558005622, 1.0091464414879279, -1.5205942782334638, 4.108318439903419, 2.6176741892639277, 2.43406945336939, -4.579902212388257, 6.797654342557707, -0.13341078688927221, -2.3884388744586813, -0.517314818988176, 1.4000269431877221, 1.2367714188470513, 4.418136233168148, -3.1516221731332164, -2.090195920378019, -1.621273907438516, 1.3093525900536336, 0.2563953635794092, 4.244308962234907, -1.1992552258222218, -1.5278862451140147, 1.1207724104636858, -0.8579180302479925, 0.14839309466117712, -3.89147935848893, 2.153095099529298, -2.8065154766540696, 2.146491642185566, 5.562030776288078, 8.389200308163502, 0.7091223936688351, -2.9527474206692297, -7.235902057401088, -5.084900766774142, 1.2925163912583884, 2.845912891283971, -6.177175825001616, 0.3438902557970773, -0.5310549534969995, 6.041662615348707, 5.269520412148804, 4.1852675694910255], "biases_list": [-2.2065983685794697, 3.490724598055942, -4.618940881904688, 4.623006686927128, 5.258061655059357, 1.640514316407347, 3.1935886624538554, 0.3107592935347212, -4.128586677648967, 1.4804697125326856, 3.936208880827868, -2.4734471205153756, -0.45040688010942453, -2.5041836951551395, -5.146582543903477, 5.434015102022675, 5.354347381803846, 1.5173890239733119, -5.049120778595303, -0.7748312972962845, -2.724175262948811, -0.6048973214991114, -2.262731839312435, -4.86541091441656, 4.507964606365224, 1.8445006197684517, -3.6173215501056957, 1.4927922801592604, 2.0704337064513285, 3.3110378914039336, -1.6999373357384995, -0.8701966132073496, 5.458860794683997, -1.1874376841287209, 0.6175159848788749, 3.2631944021786223], "shape": [28.21755217578403, 15.375834342825254, 14.698096110380858, 4.092509872559674]}, {"weight_list": [0.1239852611502672, 4.067773183249983, 2.343281519743674, -3.8070259151648624, -3.249630190623937, -4.639305040036604, 4.090155990322982, 1.2082879890331193, 1.6287122283995634, 0.8852685398090061, 2.1931522214292714, 1.1909536807464747, -0.4846296272948565, -1.8952502211699793, 0.17582818563803215, 1.7777352516366314, 2.5704033341894, -3.2194066334291636, 1.981422646803734, 0.07947805135937447, 0.28952964032341266, 4.936572762134706, 4.738516018146204, 2.5627998416493796, -3.031173835300805, 1.681684369512198, -3.092842667862643, -6.2051371011920455, -4.5139838037413185, 0.029972228730521522, 1.0819439469050307, 0.6219760526856108, -5.174260080613206, 2.3321556639227037, 1.9287694768439572, -1.9256640732191748, 1.7287855358044384, -2.85877557941929, -2.3223645496889764, -0.7284454484642977, 3.8806337692582513, -2.842485132357198, -0.33001330841414556, 0.5283546339939553, -3.394579107416646, 4.889095601160042, -6.262549543177278, 0.5464644835719439, -2.3585946528276063, 1.4611594950105937, -3.4933040401201247, 0.15032062712947192, -3.393301219886606, -0.17699801395705617, -3.715911205430978, 0.35854821267524084, 1.6164741175493607, -3.9430747570843803, 5.567399874851035, 7.420971470270301, 0.37385126801886637, -2.7406713095893296, -3.509713995452392, -1.8081691939720366, 1.822177789579643, 0.6213698304298572, 6.001762536722941, -1.097615016370782, 1.195660122277744, 0.8758765052555844, -1.4874156348337004, -6.8161453507132865, 1.9468559843224593, -5.326982266069253, -1.0139085697199608, -1.8227732133509087, 3.6713358431932015, -7.9476993591149, 1.1898895351951202, 1.8670498167802392, -0.40729008126339306, -1.2717611322226061, -1.265517386585825, -1.7780637142549784, -0.10357077629073563, 2.705381922543311, -2.7623869873743843, 3.779647992266269, 2.5634966866087145, -0.9300478481963017, 2.9596407489076206, 3.4095528595151174, -2.1523886648884067, -3.843920022376479, 0.1778124610278753, -0.9191217330310457, -1.739393679287331, 3.791238262063297, 0.29112431870481137, -4.448512185254966, 7.220369769999969, -5.3213635055205675, -1.208066016195342, -2.8530437878613824, 6.347290117524894, -0.2080046229418906, 1.1025377354624188, 5.42348974084732, 4.347406843142579, -0.4175110448697712, 5.030259661928665, -2.0196623883857434, -0.1232549815099293, -3.1170469875619413, 4.859515471048485, -5.4497707764072585, 2.4507701073495918, 1.504525166325772, 4.683288096838616, 0.6786554736248922, 0.7669170960082423, -1.7394790890547804, 3.415574877799564, -0.12727897061049032, 7.389215815176346, 4.771293076614329, -6.4146813863408765, -6.86520467807887, 2.755395572363973, -1.1472195248972124, 3.7986627113437486, 4.884633293374353, 4.152457760265923, -3.7812379747780027, -4.5335777637433, -5.284795207425048, 1.050513129739279, 2.2450725286327744, 3.392395896889778, 3.0295386664678317, 0.7803864136033309, 2.730306578354664, -5.17926330243147, -1.0112030900950508, -3.968101251161952, 2.701956442650486, -3.6815616363846986, 2.851194278860886, 0.33775485523287285, -4.500950035930142, 0.8780632368881871, -4.2238900489015405, -1.6943629518817853, -1.4067277075090872, -6.685966861981455, -5.077473440004882, 1.9000716338403203, -0.335710313920041, 2.1184754620684747, 3.412537306596894, -2.4621704991226503, 0.4778663871744795, -6.301303182872195, 4.583741673400696, -4.049250424993027, 1.143515051031251, 0.8020649678379446, -2.774992741454394, -0.5848101033667843, -2.9073668585326224, -1.9184855965651024, -1.7006950604521502, -1.181323066744436, -1.1542821063129465, 1.8005154138757615, 2.9259820112734527, 6.001511191648233, 3.1793719059598002, -0.9776436351127642, -6.709387886176046, -3.4805687933933718, -3.7233128398257582, 2.9030454302167468, 2.8031256006840906, 2.159096192616931, -0.203932984223274, -2.165315763632041, -4.683582253633189, -2.8264170324198696, 0.37599403317354785, 1.472779671902022, -3.4943969238164416, 4.296379882536249, 4.211228876673944, 2.4871986624023767, -0.7922346666057494, 2.1531423248703625, 1.4760288984568843, 4.397009725191852, 0.012970650850286702, -2.812893029296739, 0.4159058501833943, 2.000040381904876, 1.2763979289012939, -0.03551362692466964, 1.831292335536621, 0.4540420388695925, 6.924673506295143, 2.946537682499571, -1.5680142307581928, 0.8684002593815663, -0.2876207082549762, -3.653007079093901, -0.86107033597869, -0.9055684613829333, -0.5123582001315228, -1.5886192254409008, -1.8756497959588054, 2.561382036533413, -0.29744764003435065, -4.044588106150803, 0.9180991742640541, 0.24277711356841447, 1.347666887774368, 5.1501975810991425, -3.675647699740857, -3.120890913037455, -3.0429049463021816, -0.4434693056670327, -0.24238240783065268, -4.244443410356518, -1.624546201714415, -4.771678255454952, -1.1925845532071975, 2.9624594088591762, 1.2362062458865353, 5.458619255836845, 0.6730914569284627, -2.2065770803887794, -5.140198072410203, -3.511601788247794, -5.033458616902629, -5.5654163013841, 4.399112224357113, -1.354545278886957, 3.887891823640146, 3.0188837633999634, -1.4626903918878504, 2.9913342780885355, 6.299831442788365, 1.5754125029796437, -3.640918839601458, -3.114815853655519, -5.384420854631115, -3.931473045420627, 1.9394238077995647, -0.001376828208146108, -0.40880266091893913, -3.896205880912289, -2.3066664328993953, -3.40166153313732, -1.611448118154328, -2.4446009548455376, -3.644988116923547, -3.4299489193546457, 1.9477804723944203, -0.43035804653214016, -0.47813475193213084, -6.228194272094425, 1.1028533893333439, -0.4113443922146549, -0.25208841925523373, -3.650789803292219, -2.503165661690205, 2.7306342447154983, 0.19062915821096182, -3.360395452558505, 2.4655652682081377, -1.1775312753734408, 0.3409213093457639, 3.199811509014208, -0.4542252165233056, -2.6795672156149495, 3.8083575893695443, 5.301087446016414, 0.5315735397797636, -1.7273916922016297, -1.465394661447876, 3.5109576280659125, 1.4224488843475953, -3.5902425281181563, -2.051576837487029, 3.948408742596408, -3.0722678338093328, 0.09412639445896676, -0.126102651482489, 7.7313482736407, 7.758797043860737, -2.2942584322726205, 4.144295869074662, 2.6200943417502502, -1.0372828132626308, -1.3528013670660965, -1.120155647772018, -3.2921200683640013, -3.387369379073664, -2.4927179699816095, 0.5588634050288199, 5.883948539468208, -1.903444120147912, -1.115651474717106, -1.5520698240989297, -3.4351727520352835, 4.455389739940864, -0.5491574209497156, -2.445405997258618, -2.5428921125961486, -2.4000827201581485, 1.6407150108668898, -5.184867523914446, -3.1172700822372263, 1.61279481484596, -5.270337057876009, 3.8650950973847937, 4.945706107605956, 3.2382944652905, -0.2362947361009673, -0.4708161061764855, -1.890001152341279, -2.2986419140393215, 2.8954623837491233, 1.051586317520572, -7.233409598506861, -0.38718883248887925, -4.524936065468921, -0.5053941414849461, -1.622811878826615, 0.24463241313348494, 5.903837681964161, -4.782567128376916, -2.4760371230881546, 4.350995511220858, 1.5811095269731892, 4.325173099768871, -3.2856698200436463, -0.7679014750969455, 2.9871736022095483, 1.947418492715463, -1.743130082623812, 2.472815461471341, 1.6996488754905528, -4.385594233251579, -0.8844155153321827, 3.86824887371834, 1.138319046612441, -3.8202363288139463, -0.8452224300416245, -0.5659352275130017, 4.075201359597793, 1.1794946552293881, -0.05879006363447892, -4.5656307346389, 3.6109786965530404, 2.5613149472108274, 6.946870340270928, 1.349419793888266, -6.093180804173496, 2.957077637153996, 1.800019690792897, 1.0760582288727454, -5.068582149263012, -1.4471415157679528, -3.0738836358990653, -1.882956885146218, -3.280469039107458, 2.7035341126544346, 1.7475428343857908, -0.6654891127868763, -0.4493152544837389, -4.1612724716629135, 2.5633305007408964, 2.188090948006826, -2.1601698877630646, 6.125670318471988, 1.4182642396533929, -1.1981278166029659, -4.849793780597084, -4.309826225659166, -6.818452077199169, 1.2586487059452605, 1.976983623548441, -1.263415900037815, 2.596906371563885, 0.2371186355478565, 0.8543377681932196, -4.878109037272428, 0.9359895494869788, 5.495017022682336, 1.7201334041136986, -1.2350079824557931, 2.2580094899231775, 2.1842208337883298, 5.482951736405682, -3.1711398084233506, -0.9829879158051567, 3.59075290908547, 2.079587474088236, -5.171970542290859, 3.2358984281306924, -2.6080587697171236, 1.2161384002742075, -3.16154425292491, 2.5637906486486055, -2.0953371136740118, 0.8189994959703766, -4.550685071105052, 0.01174539406695252, -3.2242286318736855, -2.3635233671418487, -1.5555495201808334, -7.397903111343612, -3.1104315413907795, -1.0860542773701378, 4.63894539252629, -1.0587268415889652, -0.11882483591410242, 2.8531379255339333, -2.887310261368852, -1.0224099384845644, -1.6677253342426135, 4.571132218104081, -0.12844258034708178, 7.164002991453188, -4.551758848754947, 6.167274432589868, 5.8265766507736405, -1.3136304030175674, 0.31426754958442005, 0.8869407859977678, -4.382459570706139, -0.05728186804367841, 1.2812366895834693, 2.9443479270870383, 0.31683571486153084, 0.7117359916995833, -2.991123394505041, 0.35286592798142724, 5.333377866491963, 2.3100553049750707, 3.748387314788869, 1.7523847685919818, 3.1571233491866684, 4.669065555711324, -4.989194375861693, 4.331055531224294, -1.3312199245961498, 2.208933084851761, 3.6153420916371086, -3.2754001833066475, 0.34120841314464134, 0.3317841857553634, -4.4750606423349435, 10.924222283854652, 2.9291581810915392, -0.1840049500870098, -0.7465224004108817, 1.0474582779316313, 5.255136758696359, 1.9428155336297945, 0.47916482334915567, 4.937213633591888, 2.24766080618682, -1.0506567333280472, -0.39843743994225345, 1.360656418287359, 0.4410110023103515, 4.331425241503643, 2.792949989673642, -5.21864510782626, -2.675572616688763, -2.6667206560091232, -6.409086135586007, 0.5800931618892389, -3.4402632096704173, 2.840863120255232, -0.5342376465855481, -5.731561865412451, -0.16631179100812277, 0.021522835297486997, 4.706188499465534, 0.5951845843033055, -3.4466057863247777, -0.4431531296143524, -0.37734311781239427, -3.324215595383605, 0.7566502598375209, 3.0398160288464737, -0.7634594738048728, 1.894087736521577, 0.896141281585572, -0.44022632923013694, -0.5820725898136043, -0.623156328673887, -2.0107977606431393, -3.341769033633996, 3.7491975425229302, 2.4476484995532655, -2.270506752710693, 3.9231658089791814, -1.981374109835371, 2.8001372168859877, 1.7205574324842967, -2.6276955420578583, -3.2517271135641073, -3.511394962521519, -0.5468179928268497, -3.7434175539125842, -2.373762406451256, -4.497461809325305, 1.238658408064654, -5.62171334500133, 4.402162122889409, 0.428990873347042, 1.5043430879189885, -3.284426954552698, 4.925240858041619, -3.024449695636447, -2.0173595190181475, 1.6083671781779465, 3.8530588319103822, -5.095859407702649, -5.187547509240741, 1.2488036893163263, 3.796903157893725, -3.4602656877394913, 6.828006593381269, 0.587560168788245, -4.329335559853647, -2.8517770495130312, -4.3024008425384626, 1.3150172599501144, 1.3638638087819905, 2.3428537255602424, 4.978688922546533, 2.7067452520774613, -0.048695481954879494, -3.324961742275669, 1.2231634323168037, 1.1712474679742502, 1.0670128609888998, 0.8347198304317596, 3.6082585501238977, 0.48057141527379943, -2.4803693260971915, 5.896294898583737, -4.255971835436292, 5.019768653377409, -5.639371923785346, 2.4887524588985954, -0.5428900055433755, 8.005221632044254, 0.2469887515621325, -3.022304322124347, -3.848617443300946, 0.9639000657136205, 0.5283348436069468, -1.2224688774641943, -1.887073823495801, 2.709241234890633, 0.6860910562462104, 2.458297459288697, 4.872583738563458, 2.506925797303278, -1.4974455306776848, -0.2877079284194797, -0.7688869375661074, 3.666206762943392, 5.639674043283879, -0.004838544809625311, -0.4191800343306422, 10.401935657809531, -1.1842354179314811, 0.43694160357269207, -1.494117573584426, -3.285490316630751, 6.712029185846268, -2.164139651813166, -5.58083460431603, -0.7828825291375978, -6.641912503795643, 4.258270251069225, 2.970456288502225, 4.564781858498375, 3.3449809615856285, -3.1694347791580912, -0.7028376673861958, -0.48274922491173156, 1.149480106450138, 8.858459558698183, 3.0897251590964077, 2.944938812564147, -6.121860029830164, -0.33543230803521384, -5.506755652896144, 1.7500115767534306, 1.9057383171747477, -0.012700905192342571, -5.033708014363084, -5.18150540402905, -0.026064284126073978, 1.6035815951814598, 2.2538945213183323, -4.994048813247939, -2.0329408019345436, 4.326540291010028, -0.35094752453963474, 1.0141850876834329, 4.625460073367073, -3.229094177388445, 0.17955236766183091, -0.20157291426998736, -10.891573563043526, 0.10727776907142705, 0.9390801717194728, 1.2717929575935272, -1.3769215054321022, -1.3344640089861128, -1.2193695650666527, 2.7653033544463144, 2.9851113924725734, 4.106010084859722, -1.3703116221676466, 1.6489885414239032, 0.13534735241553952, -3.4529698330488694, -4.845137629109868, 0.7607101489166967, 1.761421900661439, 4.268884164462052, 3.4513348191899444, 2.589398567316312, 1.2053253376033526, -1.9057042387420255, 1.601908287797237, -0.8532679210027883, -3.597307887446289, -0.710825750761849, 6.13212074041083, -2.9072748043808567, 3.76069602059282, -0.7076046953934576, -4.784594057693322, 2.2405015656456806, 4.966455771837639, -1.3277727829106762, 3.5532380157633217, 1.4813810591983079, 0.6559106093178684, -1.5454221936562427, -1.0187217715541128, -2.887056783475714, -2.9184892124731445, -3.2250245559875315, 4.190987212349475, -3.6633686756928094, -3.793751249365102, 0.23529066335024296, -1.4097092330156846, -3.4551411640507608, -2.7758168439636863, 4.069689129844455, 4.457580457446688, -1.325196663993983, -1.5899106605704598, -1.1417047222890448, -4.722514725135239, 2.8439138704506735, -5.1787485371348545, 4.524696184509324, -3.954859700092114, -4.46597726008719, 7.349251036558005, -2.1075963871855556, -1.0947907948278812, -6.561634811844796, 2.288926799137686, 3.091308922907677, -2.60342484775589, -1.649065991747119, -2.3179171435424513, -4.325064439996121, 1.780359406826367, -1.9187372859585963, 2.1541228044501146, 2.415272613619808, 2.759669695867906, -3.322144756744322, 5.4218822298695475, -0.5679629470807639, -1.9030123585334655, -2.292924584764565, -5.827987856870321, -3.298665129464301, 0.812554489276601, 2.5907183657729767, 0.9984486144337454, -3.260203474929541, 2.0030379111193914, -0.8866884952302845, 5.422256285834491, 1.6805636880367318, 0.2646628295369846, 4.12168723842287, 2.777379678522758, 2.0684791889421748, -3.329577597983234, 9.111404238724965, -1.6213629441643054, -2.41051012854558, -0.38432648514277734, -1.0188172769206356, 1.5047361753098136, 1.7643248712675925, -2.3928761061805965, -1.8430769234560145, -1.3219574600952493, 1.2020705322097403, -1.113290187817257, 3.0434705056054465, -0.4355284092631022, -0.766035925387722, 1.7341617203551283, -2.9383564820736563, 1.95417134004712, -2.8742622877720487, 3.2754761562729815, -2.5667597401035005, 1.8438146591322537, 5.468734250143606, 8.26510491467317, 1.8460299362646113, -1.527114312748716, -5.598838054782351, -3.2775602563034463, 3.75227834727409, 4.522080518326625, -5.512017060754544, -1.0283778936122703, 0.27724138759101735, 5.3844101155889685, 3.2576453342890233, 4.96280650040857], "biases_list": [-2.686016774107679, 3.0420304034845866, -4.531044207004101, 5.5507704020439315, 8.868653057758985, 1.0311443582498838, 1.7303047745819056, 0.9560855097141487, -3.3855055289794445, 2.4531836977058012, 3.0123354917501493, 1.580985678450201, -1.011593652785076, -3.7222282696722493, -3.423292129587809, 5.5631037013977505, 3.7293642766474973, 1.6411886899950767, -6.762110826992922, 1.1807967023526098, -3.5172289332448337, -1.400279930070801, -2.3550616982389334, -2.7221356103312915, 3.1794207135692236, 2.7873590289634844, -1.4666852571506985, 0.3727305298042236, 1.529056611106812, 1.5428917619539169, -0.5330720638241946, 1.2904475575212135, 3.682527791313304, 0.6825098344309917, -1.6019070672079496, 3.453531396794368], "shape": [26.855562378350818, 15.141526069441195, 14.727601455407598, 4.6110472410042895]}, {"weight_list": [1.0080847654451262, 4.979448756356859, 0.46128283111207824, -3.851870737229935, -2.4570721418731747, -6.099803805261587, 1.7084844164451418, 3.530138435952626, 3.2354646653331205, 1.3556011466529538, 3.23751315892577, 0.326010199461368, 0.3046922550235409, 0.16488874883947657, 1.7629857628490484, 3.8146098132019244, 5.036691304552648, -1.777335148051062, 3.991842852225944, 1.394425719500556, 1.1471551633828625, 5.917253461995731, 4.287509014206377, 2.1363181962446314, -1.4984539658377092, 1.507823904092855, -4.472328610298168, -4.289512399502865, -3.706902792385589, 0.6949530081836359, 0.6728509148464379, -1.602922591871552, -2.8440483627434547, 1.568956291449171, 2.227844580194274, -3.65908515421732, 4.139133843429379, -3.706409911842803, -5.258983869054952, -2.259645100529951, 4.129920206323597, -2.362252812644816, -0.5139353713217274, 2.0305386204559404, -5.172770267893988, 7.93004559461531, -6.398335884077829, 0.08067477331960826, -0.5502481443729915, 1.1862498693981909, -5.981381975952107, 1.3852107810500724, -2.2817791472844338, 0.2560528918487537, -2.3503038175709023, -0.8946597802243039, -0.6614791547572292, -5.305846899372356, 7.069963421384335, 7.372092194339956, -0.894516544641603, -4.57862776160503, -3.854383538685938, -3.541048036858551, 0.5348749419267294, 0.5094356500881627, 6.035917189105124, -3.0483596744973616, 2.213908400810517, 0.8099343631792912, -1.3325083141834535, -5.45610367979352, -0.4559579929135882, -5.460889895819436, -2.3382409016178896, -2.1786123492873837, 2.9902395301826656, -8.281940614855877, 0.18025097521979916, 0.06464978629875517, -2.9009597582463647, -1.033401051149495, -1.1216582096557246, -0.11456195983311901, 0.6112392884942457, 3.7299017081436254, -2.474607731964908, 1.3067376271245474, 2.530412154179126, -2.2963736962870147, 2.750360356163063, 2.879354730186552, -5.245502454236656, -1.9415165572968514, -1.0138272144049214, 0.027748553208820415, 0.5791411314398798, 1.387855615535075, -0.2577916682709619, -5.3515963905444845, 5.830834360943844, -5.523035183474598, -0.5627274555328656, -3.144591534038134, 5.068208997243302, 1.7619318457022306, 0.880617034788385, 3.8806736263339374, 4.195654983039386, -1.1498047295192058, 6.984987144105903, -1.6318474765451352, 0.3944353172663013, -5.913916715515102, 2.544332178460155, -4.973399861011594, 3.3603617420118734, 1.704262045157991, 2.0678215500093797, -2.256682087396334, 1.0265914772927056, -1.9760662281237689, 1.600460102814334, 3.4228890380114754, 6.5217496737027245, 4.6661973800721706, -4.86903100198546, -5.910655881934984, 2.979798061136125, -1.6664851778627658, 3.6940359935637535, 3.275991129068027, 3.645881806951145, -5.0061894337112545, -6.102013962077701, -3.860038761805302, 1.4730852453443015, 2.2821533842251136, 1.219412856869496, 5.054165706547741, 2.6608409440216514, 4.394040963583447, -5.016623215505344, -1.3960284581613278, -2.6165791566773304, 4.07879147493081, -2.528065468681717, 4.54319628447699, -2.211907274821085, -5.608586969517638, -0.5635518481002015, -5.183550004255871, -3.3295564426534465, -0.5799137850230309, -8.070215696207484, -5.601741281978467, 4.669478764725328, 1.084506793267571, 3.5786436172688916, 4.280492958947142, -1.0752538592411005, 2.015908200415324, -6.809547314897997, 4.377699123032637, -2.171650167241772, 0.8895673761972089, 1.6561014395915157, -2.954285029618256, 1.5800105449750852, -2.4034890531583075, -2.8114207132570668, 1.1133030263526735, -1.334027454384209, -1.4317204490420827, 3.7998029752659406, 3.7390088542110895, 7.594571771530534, 3.2804033190451314, -0.23726327057065655, -8.404390498837895, -3.0510096728344127, -0.6619130623583569, 0.8004303584967571, 2.8712540247524165, 3.834316773925602, 1.4868108867566567, -2.056010697666247, -4.3346575058723875, -3.086998634407086, -1.6487944572317337, 2.7398452681669374, -4.009398081901075, 3.871844513721568, 6.657128564020338, 2.0802728848446943, 1.2228421939470744, 1.4013607979943261, 2.415468557312011, 4.6663453818229375, 0.2950616959019332, -2.9864270951412335, 0.9571573530949995, 2.4063910498099164, 0.7472224557785008, -0.026119601425818484, 1.541141494409409, 2.005915412496458, 6.243318809652251, 0.6952073827616783, -4.056855371253103, 1.8494492067984543, -0.734313457628353, -1.3852941577092488, -0.10621709238072663, 0.3172904898203881, -2.487704737143903, -1.3058927369014934, -2.6054939790731866, 1.5866978415968949, 1.530604246911539, -1.6462747650907175, 2.6379219455380896, -1.5726266414631365, 1.7693800159606683, 2.881849125528375, -4.431273671447928, -2.3820284953269013, -3.5526823615339547, -2.1417485166985513, -0.5409573534218552, -7.485775041666519, -1.7715082252011132, -4.686745537831181, -1.7210538557420252, 3.9733556836469592, 0.868572333068558, 4.7351233368203065, 1.3646243318595226, 0.11855582864873981, -5.961593839725593, -3.3670119401323677, -5.017355391058612, -4.157477568455961, 4.6096760286863585, -1.0261479551194248, 3.359218050589332, 2.783504981106299, -1.609141300502276, 1.2966317978212656, 7.703765596765097, 1.4141031396498525, -2.985880814326416, -2.5553231884825314, -4.247611970888675, -6.216846471129108, 2.755673564808781, 1.5248279744519602, 0.728204492550967, -2.6011560907188533, -2.9891837917790847, -4.217389859654769, -1.4011250387216792, -3.2237688530348327, -4.249544749903498, -2.35566206366344, 3.3776288754332784, -2.2899965971906626, -1.2933023770619174, -5.294919282380668, -0.7833717472276749, -2.868344114854282, 1.2731438236926578, -4.134876948875436, -2.7564162395870655, 1.2644766496712778, 1.4172053756709992, -1.1125709108826713, 4.068957116537377, -1.5954705552740254, 0.17648571463656415, -0.06411576117150708, -1.2354052611352175, -5.195659129515654, 3.2679662793360746, 6.417292740552203, 1.3815459890502977, -3.1419671168793095, -0.7043939210586561, 4.668031288788146, 0.7465864847980603, -4.05315745986126, -2.138005086715525, 3.130880513591988, -1.7860449583184017, -1.0680058952192564, -1.4552521074457507, 10.368076319866153, 5.487634422746907, -0.6262278966529968, 3.6579719927277052, 2.996909473656803, 0.3214155353299448, -2.781338189160787, -1.4106299353623328, -3.279533837946698, -5.459256750547905, -5.000341262382008, 2.727889999980466, 4.34911715893, -2.7146641578618596, 0.5082047018317284, -2.9081063945339087, -0.9923421751475041, 3.036704270064992, 0.559004763291929, -3.230529690709271, -3.5937812640769042, -1.514137022399617, 3.1239669626889626, -5.269975802927724, -3.388972005424103, 2.13485195464112, -5.494264865134933, 5.130896905985689, 6.26200043578366, 3.087691520993303, -0.674028136745372, 1.252375305839494, -2.0968204908946557, -4.184200244868794, 3.884150862160359, 0.7850668530158347, -6.257173337568954, 2.1044508601631406, -2.6072148629941703, -0.32967926668774217, -3.312240170709823, 0.27768497643086, 7.534010520446609, -7.024663675835582, -1.0108459127481335, 3.1205525368924754, 0.8131292952102922, 3.456899139250396, -4.802921916240877, -2.1723426246537887, 1.7100191387584163, 3.633791837155788, -2.3740623442667257, 0.019926152878524173, 1.316404922049259, -4.21204539783695, -1.9904212864256983, 2.70460346638185, 0.5770689374845968, -2.406241634314995, -1.6794840310489783, 0.0054199295319197205, 2.5103742523741612, 3.4310038348192933, -0.611228168417175, -4.827612509097292, 4.611000674499202, 4.991444853766638, 6.842945236408937, 1.9362566242292187, -4.03486767002288, 3.670795668501982, 2.208053023353854, -1.4792710531153936, -6.086438618395947, -2.093571227226481, -3.6521832183426413, -2.624387905118038, -0.979912250827007, 2.9808942309463395, 1.1702900753135648, 1.3369833567128486, -3.6775835846742106, -5.098366289959767, 1.0248945260349123, 4.412775118629224, 0.949087908546256, 2.642168050085722, 1.8772169066809399, 0.5957532180001488, -6.159798432817381, -7.948812924731195, -7.885566297658293, 4.873238531281572, 1.4145522454697286, -0.1575830555516209, 4.123785773169, 1.2217468220164345, 3.039944471423378, -2.9688907508486433, 1.4446947095690899, 4.532961860175514, -0.17612411960035845, -2.5075409874778334, 1.563589119222684, 5.511632062509242, 1.42240448452096, -2.698260765383293, -1.1416247862102946, 3.9999687875715653, 1.415031025273768, -3.4103011983729674, 4.0078009290483285, -4.237730557910113, -0.6905640203337581, -1.8837271235356587, 3.2982565078611525, -5.162089586405132, 2.8664952956899876, -5.631549968365164, 0.8366072425492672, -3.5034451922576464, -3.0668120818920186, -2.0825958323951426, -7.2221884029648775, -1.7646249394743951, -1.009250973135554, 4.784125352865387, -3.763053954064043, -1.5544535450560042, 3.8157839246692253, -3.9790588548264525, 0.7086759296144356, -1.2704437599861391, 4.759372087350728, -1.3568333846591993, 4.6074572865659205, -4.80497963780343, 5.661616711604765, 5.631293248825929, -1.8761267361018312, 1.87317577171478, 1.8179788137017239, -7.207403249396338, -0.6789222044550913, 0.8655951935741975, 3.5749290796561635, -3.047129596125073, -1.188748361896153, -2.8421245303414016, 1.7066755612697522, 5.059422885475116, 1.9071642253513037, 2.524440766070178, 0.8125881178186036, 3.229519979902591, 3.958938328311614, -4.448806978423578, 1.781674903103224, -2.4164329436382728, 4.0745493757619045, 3.912360768780813, -1.4576652328192061, 1.1776269859464916, 0.6591638241263156, -3.4403530549055423, 11.059328661519954, 3.5894693289799946, -2.4236847963934887, -0.8300314774707827, 0.4585007282957909, 3.4890131654914907, 2.897762452569685, 1.940229865442706, 4.545734440032016, 2.2041330759819537, -1.4204816764226387, 0.31943645463186465, 0.9370736329474405, -1.2270472128113539, 2.0275262471695554, 3.1411482678791263, -5.300261106798594, -3.001168608230886, -3.87802963827436, -4.7918648074557035, 1.0539881651281466, -4.167913376941548, 5.133478560829872, 0.2120565188735073, -5.803713511529512, 0.9893829470493527, 1.5275936972303112, 6.12639343854557, 1.3933533412508172, -2.217739847314829, 0.83842343833975, -1.5166280080199879, -3.786151715454499, 1.1277912474542666, 4.102040204368368, 0.24644985480052073, -1.1971004739303304, 3.136485228609856, 1.9671632478777292, 0.5318432571306444, 0.7227899015925057, -2.8581288018205795, -2.8917771883235885, 6.066310139188807, 4.176040984660703, -0.44473267006492523, 4.907793792830202, -1.319823521163619, 3.350457460251034, 0.7919742386142561, -2.9274734592954217, -3.695648215799153, -5.460071500623147, -2.242689635117776, -2.5204280578262264, -3.6714258170315834, -4.830211721714763, 1.4301592049360643, -1.7120128820404141, 4.675107845320573, 1.2578950880510833, 2.008837614470144, -2.5124537940307006, 6.619249360280183, -2.6796916847448604, -3.349937177420138, -1.8989295458379964, 4.9334149110828385, -6.468421179497607, -7.071288164183324, 3.1551739554760765, 2.5057070581750436, -2.930756973938993, 8.738877041227429, 0.7803808644113639, -5.040109590023358, -2.8129387488046342, -4.517084650187986, 2.1607671436706375, 0.541210492416494, 0.5101394440270361, 6.649077457040468, 1.9652654298157484, -1.853797040643589, -2.86539663929028, 3.0668868461959224, 2.4182562535322303, -1.6306326425599997, -1.0776041215866203, 2.4931183214346255, 0.6401535264611422, -2.155070228901719, 5.824148726245737, -5.3751847057513835, 7.375352397690055, -2.96058878361337, 3.1558293042139365, -1.1153798921402673, 6.60733110207827, 1.5196520130052242, -2.613435122653127, -4.630447452992762, 0.9487832080140075, 1.0430638902250156, -1.5753103626371183, -3.7992356224926866, 4.0545093892813, 1.4016234944194625, 4.01831326336236, 2.101874858735994, 2.593588220098639, -1.4060748154319063, 0.8581638619404017, 1.2800295010355507, 4.326279753892403, 5.330665401387826, -2.20165918259448, 0.5942263529063043, 8.60495573850325, 1.0156663353530355, 2.3945963120576437, -1.320143364496152, -2.5071389326564466, 5.575972532232784, -3.8324993936695466, -6.371411753586008, 0.13569371414241616, -5.7544611282999645, 3.537413958161344, 0.8418519004735983, 6.3457683775521945, 5.352687436889694, -1.0467216286631913, 1.1799159000182913, 0.057067307615883855, 2.755963979296956, 7.93960229763975, 0.9710652636978747, 1.140375375610971, -7.831443473489687, -0.5370757236223405, -6.529864912439771, 4.952294874433794, 1.19416813207586, 2.8897099485673494, -4.390189616020624, -4.314642960135124, 0.6818737991439803, 4.954592828641925, 1.9079090409584305, -6.254059258595751, -2.0500922091426834, 5.443244591831501, 2.00323122944007, -0.3007873719913191, 2.821583140978229, -2.7884094432005044, -0.008022835482800805, 2.1310432558406145, -9.602646587153332, 0.46057822108490565, 4.195957430638471, 1.4261541490472056, -2.4112539129867567, -1.9902979551003117, 1.6740254194952184, 1.0462013300614887, 2.18108676462116, 0.9168670694257592, -0.4143931573833296, 2.322641205383671, -1.0849815208279172, -4.326892058218613, -6.310291865677517, 0.441611705394477, -0.6951156465789383, 6.444341340358992, 2.612961116060331, 4.563109903004167, 3.2356225400116063, -0.4076851345536928, -1.4561863797793821, -1.448774598083479, -3.00802954051502, -1.9923006699409018, 5.869528429042891, -4.082587306286094, 2.48983312646582, -0.376810291615463, -4.876334111771038, 1.7771765383364642, 3.681679566806686, 0.10537732672934208, 1.6165012292973042, 1.960927274763943, -0.5441445429538554, 1.3728052127106496, -0.7269517977648008, -4.754367431180031, -2.1043077881015524, -5.704901664127418, 3.716965884806374, -4.54680784310013, -1.6248516226792065, -0.9089342073234076, -0.2803839847194186, -4.125857615304578, -3.5395318396028204, 3.5144293925941863, 4.608450146157852, -0.5613880364252437, -1.7034056546907237, -4.105296376836678, -6.559013105757213, 2.635346889314129, -2.394096437439764, 3.9415626930503853, -2.675457119944446, -3.7171996591588448, 4.112417995932132, -1.9032733443313183, -3.288302254877151, -5.07283231309928, 2.6439491532157806, 1.0492151974233526, -3.373936733809109, -2.6344752282528505, -2.0287922388125166, -1.9163503560571962, 0.8422796239895365, -0.2855035051217709, 3.16936205123716, 2.809716339727867, 3.126539485466216, -6.010502813279983, 4.554119948604456, 0.4197343911541489, -2.2001715727522697, -1.1028947513959768, -6.278334808346253, -4.572861520499348, 0.9487275083350601, 1.768874959274748, 0.3288470155214973, -5.138856392567464, 3.6875189099229484, -2.0567958859477553, 5.337866192605062, 0.09944959461908809, -1.2241459232774052, 3.374685441641338, 2.6101340105973683, 1.8126539486048303, -5.195924393387452, 7.564769327182134, -0.7930400372982707, -1.4737322774219768, -0.12457244629799691, 2.1210870009269396, 0.9884308727879922, 2.9379616514039557, -2.6630764364471844, -4.094611454832799, -0.7233458705448226, 0.5668781592131777, 0.9553437569908834, 4.015196184184873, -1.5010324817808436, -2.8913692964677966, 1.0437986023518881, -1.2299854081752333, 1.6250560566907244, -4.197692590596468, 1.4344950522249706, -3.3442791196441526, 3.6966426720992773, 5.840512163336451, 7.6489040517868965, 0.6768035918314459, -2.476396103373656, -6.335755663525699, -5.3488567791592425, -0.22450651201445637, 2.3829018880324937, -7.20217629557618, -0.3759524500562177, -0.5006096616460922, 6.602286693043983, 5.514722483643929, 2.9594820377037308], "biases_list": [-2.5288215944992443, 3.8895988763911733, -4.447233680700661, 6.154819153046921, 5.94037364927154, 1.1609464810362833, 3.2608771893281663, 1.8795379780325394, -5.576921759067557, 0.8352471719793404, 2.6721844987893144, -0.944463838230867, -0.3814104749600702, -3.202740058004391, -4.433833639132619, 5.777674742808504, 5.319725655454497, 1.9818551283431645, -3.883728534324245, -1.9480329037009119, -4.318924085070624, -0.838923040260156, -1.4306411617194466, -3.7283828025505383, 3.9378793917255965, 2.2066328682102005, -2.0187047794876127, 1.2158376030537035, 2.0173917760738833, 3.107820478487316, -0.6463870258792815, -0.19891485763264072, 5.5332450881145165, -0.9404731931166892, -0.9272347168165265, 3.1321284586610822], "shape": [27.911136131078596, 16.161883068030747, 16.12278452547011, 3.498813217680679]}, {"weight_list": [0.5706770894770867, 4.339792854350167, 1.641364929496711, -2.983631354493226, -3.483782647763946, -5.756670162694386, 3.8032050473881833, 2.610580440754709, 3.093685084359466, 0.9358173591571066, 1.2345599218398178, 1.5499945313243222, -0.4614271879604599, -1.0841894938024221, -0.27288122495288647, 3.583354959801527, 3.2832982694336836, -2.0876485249475927, 4.48766133459428, -0.08081544590721124, -1.1702525695757395, 5.184869774282685, 5.733362662709587, 3.5880521826461536, -1.6438794722237413, 0.5738503774031503, -2.073693565439307, -3.7582320924206236, -4.339785834801077, 0.5243295044626906, 0.40659067086411893, -0.5912782501644345, -4.773824474766357, 1.2428288581014906, -0.7890292579157525, -2.510487965628232, 3.6994168875377147, -3.5900657321508103, -2.5126927078754857, -1.326955575553824, 4.48497005720241, -3.752518225603625, -0.36622235079959586, 1.269281999912188, -4.911207189748414, 5.350093343064915, -6.595036319590998, 1.5529416374712106, -2.4443245431579075, 2.3694568191000873, -3.4697132629482947, 1.174499259381716, -3.7690469966933406, 1.4112170153521282, -3.1570618917820275, -1.0737558021629545, -1.4413381431021672, -2.630095245964295, 7.44678663894285, 8.052884456942191, -1.3757374683666295, -4.649709811048826, -3.7831139259516204, -3.3050207338607285, 2.5450454666667923, 0.7056512146551981, 6.431495797804708, -0.5185090370713623, 3.827601343286453, 0.21724766119767747, -1.1258811673064366, -6.684896981055595, 2.5200143491051934, -4.5787552459452465, -2.2589470487400463, -1.8627451748381345, 3.052292237793112, -7.973911388677436, 1.2211781333165277, -0.3612442843176358, -0.6648178447929803, -0.8567479353618306, -2.1288503821845497, -1.860601471561699, 0.5597096521840941, 2.4818759699997237, -0.6461610504743418, 4.068504652987333, 1.4631472649029407, 0.712289265033204, 3.149849666047711, 2.824911413862708, -3.353743766715896, -2.4311954335812915, -0.709656407769648, -0.37137004432841303, -1.1374414853439152, 2.881483762959752, -1.839562050533372, -4.758675740585299, 7.827416563429832, -4.3806005024465335, -1.3803832861907446, -3.5549300574939715, 5.297588921690174, 0.09362394831607723, 1.3794991084186528, 3.979796392881715, 5.060314509773469, -0.6888180449825977, 5.386723199115183, -1.2039389804001512, -1.5027589422588767, -4.449121534791332, 2.4099331277948774, -3.8037247632342988, 3.3854071742337073, 0.8333089081411973, 4.5656543307895046, -1.3294779964111287, 0.5040761680213022, -3.2579216536699116, 1.7423902549360175, -0.9905233630070338, 5.4742241571640475, 3.3328715999354213, -4.613100001409466, -6.807488045333228, 4.1309753658009285, -1.5711716856433706, 2.6196567922469907, 2.7209641125430384, 4.8273224244145965, -4.905170173195791, -4.226667047929486, -3.5140603566454622, 2.2328766068906134, 1.0617445257628373, 2.224142570336979, 3.3977926239049587, 0.4510245291768489, 1.8649686343667957, -5.226281661525916, -1.7339781006186588, -2.71252849235666, 2.861173653473791, -2.4279016009217025, 4.268545916143639, 0.21947939196788724, -5.864566566132414, -1.1939362408759284, -2.895614291114831, -1.8153155735842488, 0.06961568943094787, -6.055135000297996, -5.163861161656286, 2.6180276296429823, -0.2620481004158801, 3.8159310216027924, 3.104042368561803, -1.5372290355011577, 1.9865988600893232, -6.5089169079461, 3.604697553091686, -3.2349764233079084, 0.7788333288779552, 1.218034636503226, -1.1473548756054717, 1.1341024000159825, -4.009079677005078, -2.1094066326279135, -1.867962826861836, -0.6479632038455514, -1.7169178470658124, 2.4346602870130116, 3.01643153697231, 6.402169716427929, 2.5877238886093825, -0.14040550794083662, -6.052778098316475, -3.5575245926466987, -2.704774149422427, 2.0115683767717076, 3.24863963185709, 2.123352848076048, 0.9570668190695049, -2.960995725177674, -5.225958804838631, -1.1102419728454191, -0.22869758214839975, 2.400310075725095, -4.3944871853894485, 4.1211049113063165, 2.56089113871683, 0.8319378396958517, -1.0774902926398977, 0.5611116386037813, 2.011191917687441, 1.9376746742132829, 1.394126627308439, -1.3136144155291622, -0.38370023893721084, 1.6732437832517038, 0.05723123648560069, -1.2770453081234034, 1.0616589056712344, 0.8302208602362515, 6.6488186712725525, 1.335647158866721, -1.9961511105599041, 1.0252723887280126, -0.6050584064777642, -1.5261391596637175, -1.1140179974789932, -0.2540234022024852, -1.7392250112197531, -2.0519633502994528, -1.55807070372918, 2.3405459484199476, -0.5514234708586787, -3.4759556148685, -0.4587880888044269, -0.33154050817827674, 2.481870585090298, 5.5484257024862105, -1.6145356115051104, -1.3825654587035003, -2.2912589193364097, 0.7691526140330907, 0.32657512427042024, -6.464538133966142, -1.4614233669540757, -3.2934419310090126, -2.0239316883725005, 3.4361112785628256, 0.22695209427084273, 5.438570958394324, 0.4089152499604549, -2.56865201855903, -6.805106282540768, -3.7953522096219237, -5.310666139749988, -4.544422053511697, 4.1656912855769574, -0.9168081088733375, 3.412189952263067, 2.507014027173342, -1.6139514249817786, 2.7952921254860623, 7.612418319154095, 0.07364693537191291, -2.488919256072715, -2.460770148617705, -3.7540524663061294, -3.3714384871323544, 2.0340347564070465, 0.8304978600311632, 0.6855380001542761, -3.363808626541977, -3.1189311984782218, -2.853468048146437, -2.5783334692255444, -4.143446121184606, -3.8242961659707095, -3.5770388388802044, -0.6293571824226241, -1.7699924777564293, 0.14878776718598408, -5.176776605799412, 0.8961480291414181, -2.5544050351779894, 0.01795385913427916, -2.7004428491719947, -1.4678647093773987, 1.8366368643411501, 0.30481329467484697, -2.867344132730582, 1.5878893086998342, -1.5271439731263172, 0.12721300996786433, 2.9197135532423752, -0.577626372606769, -2.526601435772517, 2.473932067645279, 5.421694766068888, 1.8504897131280371, -3.0897096280963154, -0.1327495373599188, 4.523758554976315, 1.8361183827593375, -5.225667997983529, -1.9776841381351957, 4.19332696494226, -1.8574978245887144, -1.1204519910086894, 0.3919748759938857, 9.099330588328229, 7.319832352787293, -2.592866142094618, 2.7439754616033607, 2.71826049345991, 0.17953587511199887, -3.373910083976299, 0.13275397960823443, -3.9575940875240265, -4.972265183599596, -4.595291411454783, -0.5375990638861969, 5.642418237047455, -1.0209938576435214, -0.45953560113346914, -1.500974358638347, -2.596991844419554, 3.04193539854285, 0.5253812178362662, 0.41314311694626316, -2.575642541666989, -2.397224067892032, 1.2153155419616164, -3.7652599199134063, -3.5534221209114207, 1.3180024803800139, -7.021444073464497, 5.773553203356542, 5.28252850566602, 3.3023689554681956, -0.03542447399569548, 1.0783189853307529, -0.6334637665508034, -2.1101102778971366, 3.924679212420049, -0.09810652773299378, -6.440471316296147, 1.344069766996152, -3.671297444745295, -0.09476113130720876, -2.614482338483129, -2.608577153272905, 5.82871459829451, -5.5462242680739315, -1.0686294874170315, 3.1653847227938865, 0.5432774671977487, 3.4104264578357677, -4.8825602541793796, -2.057475702910401, 1.19042228112753, 1.8464030791448156, -3.118303428975085, 0.4697503855077185, 2.315512301737231, -5.074554744281506, -2.2674011904331564, 2.269183671085024, 1.1111358674343208, -2.2385547799466217, -0.15383365348473432, 0.4393692837741765, 3.6925732842185397, 2.1934480231570213, -0.4572507231502607, -3.0828594515547407, 3.946160584237929, 2.726908907042342, 6.850505852095926, 0.3002962278029291, -4.681110158138032, 2.613313287172594, 1.9647658332543667, 0.3185623423733279, -5.017596614493098, -1.91722741351906, -3.964781883286991, -1.2648570435288857, -1.7561888989232752, 1.8655691194872315, 2.10095886763769, 0.7393476135040227, -1.8800415099416183, -3.7279763552168994, 1.672784527358616, 4.2423288105936745, -1.3206971836882744, 5.284864396515482, 1.766406241680475, -0.3479116243858358, -4.355088947883182, -4.751725625246685, -7.415621019796464, 0.6617486544716931, 0.4494944097226199, -1.3247989116113619, 2.6773635753854412, 0.04987746260199888, 2.359085911684521, -4.686185382690339, 0.01852478441369554, 5.523809005320124, 2.187812597477193, -2.0752622901434172, 2.2385493630128113, 4.429911522052908, 4.988023789892277, -2.661643863087178, 0.09007205880498503, 2.6567124701211196, 2.527050262302604, -3.350218509565056, 3.194740138150827, -2.934562423162488, 0.04551027480421155, -1.1492849549013866, 3.1643041720668217, -3.2700156808904817, 1.201422512612078, -4.779844538124268, 0.8969922508055146, -2.876101214447506, -2.950251331161283, -1.290816540505558, -5.968582580630487, -2.471132993732616, 0.3928547753360365, 5.352244248368608, -1.5176350274811963, -2.987436937369375, 3.3989398806180207, -3.5403070432016817, 1.4071509641117443, -2.214887981703837, 3.948601180476915, 1.0413451365664752, 6.000903845641601, -4.443522362755186, 5.498259568834406, 5.057227160355758, 0.12192413844577632, -0.533906295499576, 1.8707888110916375, -5.571493918899824, -0.7441703022521247, 0.4090636605169726, 0.8815797033096573, -0.7700797880475443, 0.7388797800148112, -2.9664436616651724, 0.691326286959393, 6.511763191801517, 1.4633494740180488, 3.9463244152169716, 1.5000145254606725, 3.096087807679277, 3.635660007946851, -3.0438715236637126, 3.746103644352149, -0.39275066070707965, 3.6330713014940335, 3.9226911026352536, -4.174592046413985, 2.100407967709156, -0.471520065271531, -3.4086756443062862, 9.53919691528392, 3.218416770808931, 0.720476332470029, -1.055168798061014, 2.9723554726813437, 3.1216026483266255, 3.6698743676294097, 2.2859439095904825, 4.487771856507326, -0.5023479963294478, -1.0805798142908158, 0.05569408481794458, 1.0029569959479794, 0.9898319847978803, 4.4234823462329995, 3.025735141245124, -6.7942112598199484, -1.7325604299309592, -3.328186931633293, -3.7797154573530283, 0.3234928303618436, -3.7051330968833085, 3.515859715848613, -0.9764661826418543, -6.579109854127553, 0.17948017824343698, -0.8405536217340203, 4.813557205055531, 0.06410944121198203, -3.211215326477808, -1.3656423947685659, 1.055465160569165, -2.315041215173253, 0.7648591389470651, 4.038393069913176, -0.8738973758276372, 1.1465142926595728, 2.2811247503156435, 0.8166498330926204, -2.133391073297087, -0.16973175354878656, -2.5931721818386135, -1.4654710552794237, 4.988419212050767, 2.5287169636970486, -1.4744238673834975, 2.689053878777261, -1.709209078280168, 3.4648197848205236, 2.528173912288355, -2.7557603274352163, -2.1093320719741016, -4.936642764718297, -1.4021351183258095, -5.579503656553956, -2.083336338514971, -3.4884504932482843, 1.4914593164267758, -4.533599680364347, 5.559653046624881, 1.789153646988594, 0.8251624726022451, -3.1972684218942806, 5.470298386275885, -2.493160341483242, -1.8373849541323484, 0.8512477797129026, 3.7321578284396777, -4.124729966656489, -6.314417469744134, 2.432834138154375, 4.6520440743282006, -2.6091103067233394, 7.087869026393713, 0.765910279665805, -3.6669387690405446, -1.8756392314183685, -4.015607190899047, 2.8823981858662844, 2.9269462359038076, 1.3462693378280801, 5.861770411136039, 0.5437817067046224, 0.030944615473159853, -4.243870931616384, 2.88323707002578, 2.584986338971743, -0.022353696186447003, -0.6059843409308594, 4.012520603265408, 1.474852038446893, -3.5901796115621822, 5.745980710574543, -5.5129841306601435, 5.9999948514749235, -4.345958211531675, 2.894958415799927, -1.004421402234283, 5.506811785435054, -0.6101629809828047, -1.850110082281078, -3.595978273176559, 0.6391273904191346, 0.8318319321979071, -1.7696102143054842, -2.9297358696144298, 2.662296246422481, 0.3749852821402111, 2.649892960822669, 2.7986650174797507, 3.075101142620526, -1.312714445251924, 0.8424813964195685, 0.14271557895553455, 3.3298351766786434, 7.003892784038845, 0.13652859065632605, -0.6188236808370355, 8.163242990005594, 0.6728806623415244, 0.48271818771028574, -1.8558072265016825, -3.8997009761240076, 6.597429918330355, -3.1834726703516507, -6.074634895779895, -2.704738802825491, -6.567988494452396, 2.4572288371358004, 1.8109608576430607, 5.7380704268298794, 4.818077828886823, -2.9845472440417087, -0.17826308090492649, -0.10227592252199358, 1.8275689036916392, 7.136059968382133, 0.10672660691973479, 0.43491759723098933, -5.699768429662673, 0.27040472916429725, -6.541701612622699, 1.8066285198169618, 1.7273463786073933, 1.4276024695431215, -3.7580528331040397, -4.885462182799016, 0.20562982539251995, 3.872200184525812, 0.9367344148685852, -4.819037976930916, -0.6152974909031699, 5.640437018126379, 0.8800145314875472, -0.9968365423164001, 3.391668174198596, -3.1237391696138803, -0.21778307871491598, 1.7191844963461445, -11.059545540161553, 1.280294419035517, 2.1910220541832524, 1.5828737269861737, -0.87760588087369, -0.3784100416883571, 0.23502020375380295, 0.11653402950377023, 4.0332281119234334, 4.691228400034143, -0.4747687316788448, 1.3819324791555596, -2.423845212621984, -3.2112773867780677, -6.778571108133615, 1.26952511715725, 1.8204890089699681, 3.454188744201276, 2.889382330614091, 3.5032471603902557, 2.79730806560703, -1.62894414933019, 0.3622935007162591, -2.354237082248723, -2.87532319942521, -1.1862222412460488, 5.174513648206375, -3.707657368825646, 3.7672680877355145, -2.1664019080152053, -4.3501307582215105, 1.5373492681071808, 3.7538809087221026, -2.0451257946415193, 3.1625851929764526, 1.0902597213144087, -0.40418402285769817, -0.4655015800515143, -0.06222624150688516, -3.178415365840345, -2.8099785268888557, -4.041921341485995, 3.6774310894379063, -4.227980485938242, -1.2930402077867302, 0.3691913541345646, -1.4826600190837085, -3.7579107672342404, -2.8068829916733113, 3.389130113022609, 5.0229827560878055, -1.939100143742699, -2.476408879621779, -1.8697617558000446, -5.546903054334508, 1.544333865538972, -5.43449364255167, 4.606645081866915, -2.3739650940082333, -4.722147348096783, 6.293574596841021, -1.8839250227439583, -1.8539554453442089, -5.496999150071709, 2.0838181984543587, 1.8856731718238158, -2.149939511169304, -1.6888884017106036, -2.3106938463278004, -2.8875791131775395, 3.949590523546317, 0.1192562787552045, 1.409872221589934, 0.8591938598257609, 2.919754186037012, -3.5715127720267508, 4.7989716558048325, 1.073948563911204, -2.1367119139516904, -2.7174440512039557, -5.51612330851817, -2.5667926606460503, -0.2872235698862442, 0.946764215298648, 1.9675881651226366, -3.9110600064278276, 1.531743760299225, -2.6879506969388567, 3.7212879598261743, -0.2795262443677613, 1.2928459941774824, 3.673531828360714, 2.8454648452220503, 0.8294665042511529, -3.296726830068267, 9.169746731434602, -2.283422740499235, -3.426634548605781, 0.6019402006795693, 0.3850700338975077, 0.2020864050515223, 2.567611402186671, -4.039708813057982, -2.555423589994928, -0.5035489605761034, -0.6993400777009567, -2.0223275582716917, 4.267876330779558, -0.852338600759579, -1.80831940661793, 1.0890238152011706, -1.6507680058776244, 2.219845503338125, -0.9743477957144673, 3.1988223575262804, -2.229322023217195, 3.5696447436522307, 3.830488622700835, 7.493721535991558, 0.665957250756603, -4.094565852784889, -6.595337120282499, -3.896332780787799, 2.3402499059020037, 3.96542928384417, -6.982786741122833, -1.2835344105059825, 0.8313721608473452, 5.947524928129899, 3.7858101721771966, 3.6240195341374903], "biases_list": [-3.0181235358090985, 2.659540903978155, -2.9481158901137765, 5.1394804665080285, 6.2441278891856875, 1.9385734058904402, 4.05825885895468, -0.0779794682114261, -2.2389426495899007, 1.0729344484334415, 2.4010878729194234, 0.011419739118047278, 1.5142376529691441, -2.0503987431533592, -4.153013240753698, 4.6324499947398055, 3.955391254482535, 1.6494497448499574, -5.863460620088731, -0.32762360811097224, -3.3964942783605245, -0.6601622554848042, -3.2295833336946402, -4.025036884753344, 4.173125552522595, 2.5887988725256457, -2.780748873728184, -0.3622715691916124, 2.163963464669779, 2.0031178704395787, -1.7936609538069894, -0.6012579694960196, 2.869450861920578, -2.0520340472756806, -0.1622474774415359, 2.302365180155424], "shape": [25.17264314191869, 15.400371891965463, 15.070494061976405, 5.587668332057231]}, {"weight_list": [0.6876237127581961, 3.7028612620914085, 0.34553949594406475, -4.1995290275769985, -2.4136300541474496, -5.301578240877226, 5.060942297957727, 2.417250066674511, 3.611675860844759, -0.29137739023869325, 2.969501625311031, 0.6040970117540541, 0.6977840494705401, -0.46862568491526313, -0.1851442542041164, 3.4765942172256903, 4.128405438431795, -1.6526099021618745, 3.785952136025469, 1.212091215800958, -1.6278807562160382, 5.6632975888320525, 6.131210835272789, 3.0472228518639826, -1.0314139684360164, 1.554641577659135, -3.3887941763385396, -4.659705558259431, -2.7708184720912747, 0.15083876092820359, 0.7029106636895468, -1.5022041265946657, -3.491225150181399, 1.0048593769165555, 0.45575572287342725, -1.9828761014492637, 2.2580712564746257, -4.544979190479477, -2.762596480272835, -1.022265081422979, 3.7745019056582008, -2.712248008369987, 0.6661596388014446, 0.6440216008771129, -5.14376299925372, 5.117018653509222, -7.097765820256981, 2.021822536847867, -1.9959259408650458, 2.351435479534617, -3.2572515966463307, 1.0330526634475818, -4.47958132968726, 1.8932042037108365, -2.6955620011729486, -1.8389519456037338, -1.2388509622207082, -4.175824770450508, 6.756039286242497, 8.932560669395214, -1.5120777677992359, -4.299112764433663, -3.692345495994605, -2.8159117732688346, 3.3077520357902737, 1.6562426321099064, 5.968719056637499, -1.2517533927787776, 4.027832823787741, 1.5809562502384429, -0.8157235720347962, -6.2396281438927215, 0.4103394079498004, -3.6719762459111047, -1.7696156518483817, -2.5064581395895087, 2.897080446809171, -6.286436233752512, 0.3659951993951873, -0.6330249467318536, -1.7581449323302742, -0.5662775865702983, -2.1876062518201644, -1.0323081280672055, -1.1318593287684402, 2.526089690021047, -0.08636294467307337, 4.675975574017819, 0.9369594657150357, 0.3680626133886691, 4.233530691149233, 2.2421711410603393, -3.904773313318418, -3.162039100982292, -1.2184674357680796, -0.6484883266345292, -1.2107516359394712, 2.410922576229158, -1.6622093017955055, -3.46433878463346, 7.00141467256474, -4.512198930405197, -1.6223670209427485, -3.821589740797866, 5.355839396738537, 0.997833115807403, 0.6531490608134951, 4.114683125208655, 3.6271447743547327, -0.3766629487368056, 7.349611545544121, -1.3429857509571124, 0.1475268994719272, -4.950631162537398, 3.617761071460281, -2.862057365902225, 4.799969930643645, 1.8281491299165151, 3.1403132233467392, -1.9003601518444104, 1.134327084706547, -3.661388802069738, 2.5165626514661614, 0.8729573132295594, 5.449276722510952, 4.181129183843496, -4.086264445978265, -6.901678104269118, 2.4015498673192717, -2.514663487914839, 3.7206717279296715, 3.0443775173389387, 3.6977665443134136, -3.432343838872465, -4.955563779981071, -4.384136396506026, 1.0566643585967377, 1.2819662859672842, 2.804140365048649, 3.7858255481431122, 0.8638484402640736, 3.2355718093151165, -6.171341189533099, -1.832244168445536, -2.4262086022208145, 4.265229688522602, -2.0406882588377337, 5.460121313097242, 0.36995581168200475, -4.580619390138335, -1.3161262595640115, -3.1329474423772874, -2.945830586716868, -0.33621562620437595, -5.419438336003829, -6.019169433560414, 2.3712602796114726, 0.6691162892703764, 3.615683115336413, 3.4909705535526134, -2.363439792013965, 2.561074239199967, -5.813114244123697, 3.331819907327275, -3.9110609136135666, 1.1176346596853226, 0.6118347006577654, -2.420921394980891, 0.8379937902327992, -3.949588461042552, -3.095723112834385, -1.0241732573760396, 0.14584011222445814, -2.1791773297682493, 1.761839231443001, 3.268635984701154, 5.812483081891838, 3.0800455178993786, 0.21051922453030203, -7.43802589598, -4.4375315352966, -1.5781678018790484, 1.3721477189395168, 4.839893790168136, 2.744348005791781, 0.08740674531640646, -3.182033739888127, -6.120421842038783, -1.7726243950878549, -1.1810361138007732, 1.9567316357977136, -4.398411294652924, 5.453953701377619, 4.048513914617534, -0.26228666676720624, -0.8795282714493375, 1.8438175382458857, 0.8257792341353696, 2.7007852472779232, 1.3388005222095822, -2.156391663201792, 0.8663454407284514, 2.1713614094688642, -0.16965724589310804, -1.3831742157557736, 2.0002878852547266, 1.5095270390559667, 6.333862089314445, 2.245499842829437, -2.1034077263045736, 0.33616265706506976, -0.8745507912851463, -1.0652999906369556, -1.8117538677415403, 0.03183861079232342, -1.1013743914826362, -3.1387490778694547, -2.769443923612335, 1.6172797932130658, -1.6962722163196584, -3.2248270270489865, -0.7171175134963614, 0.49643299729994195, 3.433024853355538, 4.558608146760156, -2.4284601106972206, -1.678955406317372, -3.312510554822902, -0.7178042448825482, 1.349340530331816, -5.649878660372608, -1.5614293584695376, -3.8462667325612196, -1.905555879452519, 2.615457289252099, -0.09964902558503963, 4.979529010827772, 0.6229640623890003, -2.3408096112660957, -5.9071863262186675, -2.7502326515023716, -5.027053278647442, -3.255712208670843, 3.342045527844168, -1.1571492431013386, 2.2910181103871876, 2.0327167597841065, -2.125644208344619, 3.162814894985017, 9.503750531137683, 0.8898516009055419, -1.78530120299483, -1.78825814042583, -3.8936824981397016, -3.100276570336873, 1.719574846383468, 0.9967537150277646, -0.31379125629480864, -2.6107148347454405, -3.049299833232441, -3.5970543215655, -2.327670535463853, -3.7932321721934765, -4.278887932904498, -4.7116133891770975, -1.1308437014911465, -1.7346547755929294, -0.6912015390497217, -4.1993652791435006, 1.853192502220538, -2.0551180412434222, 1.1204424832297484, -0.8906923981740571, -2.6511207573842688, 1.6046316225901491, 0.22275623778528342, -2.329020876407836, 0.7871410286389058, -2.7859863754050362, 0.6086118245873542, 3.2721241986775675, -0.39289288680503187, -2.497200617699959, 2.817733600930336, 4.735572329729012, 0.48237881527802084, -3.149874334744603, 0.5813980109750121, 4.853946691488183, 3.1175191560663933, -4.047182581090087, -2.5499758570821847, 2.6872851982461436, -1.3336317218596745, 0.21521450473205928, -0.5039352156538183, 9.130021360145312, 7.246075707592549, -2.7902372692400164, 2.6999379644805233, 2.2215185049265145, 0.8625199157508625, -4.245923639818218, -1.554132642904213, -4.172878055610223, -5.002870716607649, -5.259501559693909, 0.11958562264261619, 7.0198556989111776, -0.988755794057823, 0.564919090124228, -1.2982732662606113, -2.059953077328503, 2.384654177516917, -0.03995837615416331, 0.6650222502754517, -3.032920972404253, -2.974485085432442, 0.9776739708683935, -5.1183270430838625, -3.4851638494387043, 1.183540827221698, -6.162495385162921, 5.637365509600099, 3.6380191999639457, 2.7841732541673867, -1.3157155714606255, 1.433075611866225, -0.9744312783576796, -1.906248571024236, 3.191163533747357, -0.18045106117610377, -6.924175989474756, 0.9617510579456134, -3.3124255518602492, -0.2950108598517962, -3.2023365260775716, -1.1294470745544776, 5.8301370065706974, -5.983860057973283, -0.037419488467792306, 3.320465032515215, 1.2482812451687675, 4.34844742074877, -5.50764202917871, -2.0857128393965105, 1.88553639531523, 2.8532622629223794, -3.250900807692954, 1.8696531881131686, 1.9096316611106054, -5.245702500048782, -2.082119328440987, 3.7233885577007753, 1.0711825459137962, -3.60210421773522, -0.11676168536949771, 0.12658045670222662, 2.7102073183870425, 1.0333992765467608, -0.49516714571754705, -3.159061782844005, 3.228796142352606, 2.7076188579082645, 7.524530298143466, 1.150821091031578, -3.8507732805983457, 2.641868157706643, 3.1308583263390855, -0.12540002320161991, -5.965033267747094, -1.4817366941883905, -4.969334060210106, -1.6551216633810848, -2.635904727237346, 2.8865794075847218, 0.9672575250942717, 1.209033384216081, -2.4523169904762616, -5.407206226989003, 1.2108414269907373, 4.891420237588763, 0.34655911660957095, 5.575677193370914, 1.591158128874358, -0.7907240203317518, -5.121050437155036, -5.330566273812778, -5.668509056996083, 0.5651754390105816, 0.949456585353083, 0.10140805027155686, 2.475443788334002, -1.5016255927636935, 1.846213195834026, -4.337063036382374, 0.5832006454768832, 4.344470201805562, 1.2809940671138556, -0.877267106576826, 2.5525453256640835, 4.0904905272919985, 5.758815511567095, -1.8034120741607196, 0.8027404163339429, 4.1834539888638105, 3.1683632125968177, -3.4318036974903396, 3.011726966237185, -3.4208240252395177, 0.01921254040438436, -1.6002140971567476, 2.558523090783682, -2.240775538669834, 0.7212023894510791, -5.2245868126580906, 1.316532417585874, -2.0455027584357666, -3.044974963274407, -0.5726000597032728, -6.5658804808495255, -3.9204063969209777, 0.30076455271520386, 4.6689006779569295, -1.1097833194285838, -2.2403931013021707, 4.760193707258638, -3.4041578628415854, 0.21680516950711093, -0.9893738405688437, 3.2340347747343543, 0.9000462788294752, 7.047107979594202, -5.087861307317421, 5.719466504268608, 4.719124839773796, 0.08392293452739863, -0.2529145975592666, 1.5150171386564306, -5.7366300541704796, 0.6976536512494023, 1.1826427554463246, 2.3824660248727865, -0.2800324235715945, -0.617580366084609, -4.617358400445732, 2.35071226521165, 5.616606487413324, 0.2238613217048644, 3.8240961274513205, 1.215455624057809, 3.4536289650739667, 4.935884631714446, -3.605160207018057, 3.027916217870821, -1.3296277951965347, 3.5480427871290967, 4.709853446398425, -3.629494647927979, 0.9153736387286748, -0.5996710898826114, -3.214424043924506, 8.61289858046447, 2.816543953675108, -1.2045671616022746, -1.4044581178441147, 1.7744083934339328, 4.0532498822476715, 3.1378289191206994, 2.7090441750035446, 5.145961157911722, 0.27417919614546715, -1.0736941665235347, 0.22721418501867685, -0.02319170276376825, 0.048197288585139386, 3.540965152131787, 4.312350987418564, -6.181060429188911, -2.9115963470587523, -2.378055859665462, -3.612634348235744, 0.9632677096507436, -2.3093477677133727, 3.8229353317635493, -1.187053699282749, -6.100382114105706, 1.9529249343039075, 0.8121395496616162, 4.421210154550932, 0.8203931283050849, -2.1744155476209825, 0.5937088173449738, 0.17835842907960187, -1.7298652455522208, 0.747667578111511, 5.375996162620017, -0.8907113202847042, 0.9701868717465167, 2.5084086863679564, 0.0640032825251744, -1.525985849270819, 0.3885934057359386, -3.1244355006711144, -1.2124159423689007, 3.5675429513674217, 3.8163029439472504, -1.4649603525212087, 2.6186664917663687, -1.850673406641229, 4.0543256013092455, 2.530474584610668, -2.8081655795610354, -2.1032439102227727, -5.5409328668300715, -2.9572440814621572, -5.511801789833234, -1.9434041655075955, -3.4339869583480587, 2.2296980449329125, -4.339724249950022, 5.915932330459961, 2.2932474069913082, 1.1722246333051496, -4.03600780988878, 6.34799784323623, -2.152149102183693, -2.010956479476952, 1.489179423263849, 3.7796294756499176, -3.8746247323075194, -5.807489896714886, 1.9950818426043284, 4.005318129632872, -1.3145625792763909, 5.947314866432836, 1.07692551862515, -3.7501458078400822, -2.1375035106500313, -3.8908262293237312, 2.0068770170992916, 2.031731257673629, 1.6094017171347499, 6.455924844827519, 2.0883827227037766, -0.8070797370127907, -5.020485424962654, 3.286505821311332, 2.5067432769373963, -0.7176026052469783, -0.3255804824754631, 3.086199829928656, 1.0978080670020276, -3.6644875455086314, 5.2175306309754585, -6.404440169604734, 6.211894165785575, -3.370118670483002, 2.258850113206968, -0.42677475358592454, 6.345557925169475, -0.9193231772827695, -1.7040693667863849, -3.828643889420734, 0.6777567519160337, 0.9900339746210576, -1.2953644247356237, -3.327715311305003, 4.052322121394802, -0.48807378619328534, 3.152477081309737, 2.2167556153752552, 2.1314417631928775, 0.011123308600391901, 0.7984118555822541, 0.9053120910627095, 3.908360925735341, 6.339615438010693, -0.7699127203728946, 0.8601936562738663, 8.067892877643335, 0.778239858305849, 1.1786682007871754, -2.446460009069713, -3.023200544445399, 7.304621560707286, -2.524451836003184, -4.100189431385653, -2.358300015446635, -7.438276237258992, 1.8752563270786293, 1.3625528542496816, 4.489131463654754, 6.010643347223152, -2.17427070659673, 0.9633093704183116, 1.5694542903680713, 1.9525552754347997, 7.683749965070907, 0.9081181412254768, 0.6205246766182131, -5.815911575182546, -0.2520347330514189, -5.191984640235782, 3.8930232195645704, 1.5214742605710576, 1.2610385203425452, -5.481158964559497, -4.92998722529442, 0.7370321710499528, 2.7784780534392186, 2.2016604974222975, -5.719571164808697, 0.0007681646799300168, 5.5963110780663206, 0.37711285343811074, -0.17578874565132263, 3.1206776383480967, -2.9767370649890754, 1.4929158274349983, 2.4954869853101664, -9.76475414848531, 0.5620820451823025, 3.478396802612858, 2.6531502443888426, -0.4515882543457914, -0.9650206496611047, -1.152576450453707, 0.9684763302713191, 2.721580265260573, 3.3090386332716255, -0.008028947169211653, 0.7125841491155138, -1.8856223873550013, -4.706446134091455, -7.716212094169833, 1.801844328068463, 1.2792988410406938, 3.513008762186425, 3.1940699931128798, 2.303615937732798, 2.8915610148894224, -1.5854048574754185, 0.5587593976859568, -1.758185445095226, -2.133402720975854, 0.04137572774758458, 5.3972959017154665, -3.3897326218821084, 3.560983835886402, -0.6880502788523974, -4.8312588431776495, 1.8382323034176515, 4.470621271581787, -1.9966065142386158, 3.9847153908732844, 2.3968555215690426, -0.21726749373821297, -1.2912006677020065, 0.056770365304524395, -3.16347329488166, -2.7107547677768493, -4.335068644090486, 4.160072932007711, -4.5148623720200725, -1.8633451833860506, -0.42165650762881823, -1.6982996699416129, -4.592476427354115, -3.137205777212782, 5.016751458264549, 5.239294869268303, -2.6470309080049876, -3.2313169676512397, -2.1290634486116753, -5.974919386206332, 0.9084650435320243, -3.989910445941887, 3.6357595056301335, -2.489779035979584, -4.367961574011993, 7.234407410635313, -1.484483593278214, -1.7551623408803405, -5.948691996323266, 1.8889841509083953, 2.4726640735349403, -2.393536690566962, -2.1663465468259897, -1.7388679387742354, -3.3315628405706663, 2.9433417192967903, 0.6013185187819652, 1.1961621240165181, 1.3897461793770072, 2.217589889874241, -3.9878345289090005, 3.3157113624874013, -0.40127960741959434, -2.2309321097685886, -2.915548484568171, -6.296885149257543, -4.005966063407958, -0.4118677579059845, 1.3377632913852686, 0.5209768064868034, -5.08082692103452, 1.0567506570671066, -2.617654560717292, 3.039516438139845, -0.5810227842831788, 0.7161784069740107, 3.796956829055299, 3.67810503028649, 2.220870926963327, -2.604567357074251, 9.111144443569493, -1.4589469244008815, -3.1529969742848576, 1.2013571619692165, 1.5021803178290343, -0.39120208155332237, 3.23906865249036, -2.4982681936256688, -1.9054081094993691, -1.2954618637407507, -0.8434803204656776, 0.17881690108404902, 4.4362101748452565, -2.622739265399087, -1.4958239691951027, 1.3544943808658325, -2.696249836370278, 2.081902670478832, -3.3101225054693812, 1.095128085419006, -2.329616043509784, 3.073559262549563, 5.578739393182632, 6.326971747698881, 0.8360281843584918, -2.3754398832702446, -6.677826950361934, -4.295971233614956, 2.361165070424811, 4.255454757119116, -8.140772365809916, -1.8421744150775987, -0.7371559708260043, 5.554702032063322, 3.8708872506682512, 2.5490542437937425], "biases_list": [-1.6837895042284587, 3.127103873635935, -2.1364165160166437, 3.652888511059711, 5.29879853746984, 1.1646974777600976, 4.7456837756221955, -0.3101292648468903, -1.9636349723898416, 1.781777433593993, 3.4017226883608753, -1.1275422793364505, 0.24391019422845073, -2.809027091716122, -3.554374418425823, 5.153531204221624, 3.932598118366734, 1.8933712745718272, -5.681409998746931, -0.31757061153322463, -4.231349689291383, -0.8750184314897829, -4.453139735669081, -4.767047353017754, 4.125937354809207, 3.0891220780064206, -4.286182921406717, 0.2638917843783455, 1.878730043094892, 1.4804456866762852, -2.015344985182253, -0.7106890227495267, 3.215399980761971, -2.2409956280733665, -0.23140636834014172, 3.2738940587967438], "shape": [26.705091775441705, 16.44553853159368, 16.419191822517956, 5.2705688580262064]}, {"weight_list": [-0.2828883726685658, 4.904422294294399, 2.5028940235207164, -2.312118617481198, -3.890078884672147, -5.016065891400874, 4.550168194670552, 3.095812391490413, 3.5130234226945536, 1.9230052384605258, 1.114213019364322, 2.5445386772817455, 0.2942569714920811, -0.3068292920399365, -1.219322527808759, 3.514682284285324, 2.582115146354205, -1.9570058775941672, 3.9548952132205937, -0.1460131197205703, -1.887309119951782, 4.891482777875966, 5.351753559308916, 3.591134228571697, -1.5067406814320101, 0.15193380546467194, -3.054117253894713, -4.445538491152323, -4.516283666969924, 0.03911683427530854, 0.06147651566856105, -0.03704815241523751, -4.325427762603245, 0.29939432761336215, -1.0032844500956855, -2.916072720349089, 3.03715193256891, -4.508539923780859, -2.8180748690293553, -1.7802872743754734, 4.126509750833113, -3.7362348011907387, 0.4994748824975024, 0.33138221515876154, -4.3856385494392445, 4.570331611098096, -6.218279410467046, 1.406418589406706, -2.7959302742340517, 2.8103248853780913, -4.346516675110948, 0.6462775179037465, -3.9745774305234143, 0.9427529534732344, -3.3183272997368243, -0.20894005106516977, -2.371117038079893, -1.7301571578859944, 7.056113583113252, 7.2310042791552895, -1.5755368247521107, -5.3812479744714645, -3.50571630368238, -3.582849504958191, 1.8859893515334631, 0.17133907697045392, 6.133593974137003, -1.2722379042761853, 3.3979551584891095, -0.26028025661567855, -0.947598003230488, -6.675231317095957, 2.2773216465421524, -4.782745968154066, -1.4941656973698738, -1.0933770035083106, 2.1020880725329127, -8.438536676951557, 0.7258312437174774, -1.0616685907152703, 0.08725691576076855, -0.5314369575107152, -2.6826775820226825, -1.031347010824283, 0.4718755690417531, 1.8343106421864754, -0.2723230657029645, 4.385788541814914, 0.8835418568857549, 0.6166733785555152, 2.4208513482814977, 3.213083699393433, -2.5889736472514153, -1.5140769328360655, -1.6524710615380758, -0.364283744124425, -1.488723470329079, 3.8224371039544156, -2.286871472076469, -5.240084008757478, 7.86962371052098, -4.014833724687746, -2.2145393217800393, -3.237166850975342, 5.413121047301056, 0.19246314908043738, 0.8972847399584725, 4.578305185586057, 4.257152549517825, -0.3318822038158088, 4.412474276593275, -1.6447053035601924, -1.9319941543736068, -5.120727192706507, 2.0040921801275497, -2.8147122108313747, 3.6840217118864658, 1.5004993852734243, 3.6858792497100428, -2.132633822160427, 1.1255781285786144, -3.4197598398974707, 1.4443158426176028, -0.657198135673293, 5.819386402898312, 4.113753846591265, -4.059919753675894, -6.709211543934124, 3.9488523116743455, -1.0625163778688007, 3.127763013217968, 2.9721980146201714, 3.8578407813308173, -4.949966984492847, -3.6717613057007705, -4.484276712786403, 1.284733513651953, 0.8102287394115142, 2.7187728425479025, 3.1440716057121403, 0.9426135617124947, 0.9547155801673004, -5.282989924985811, -2.0444977426450546, -2.1313797283714058, 2.6798157519286145, -2.2497317335502753, 4.211708737181428, -0.08885703310965942, -4.948486143292145, -0.3170739102617044, -3.5363558382478857, -2.5033225189216233, 0.9194153630398079, -6.779360186471399, -4.4923950685591585, 2.489734029574781, -0.9610427096467022, 3.1061584691413486, 2.9695934079170145, -1.2146485487935674, 1.9427508373587328, -6.657064044519925, 2.615463198776726, -4.176525208226456, -0.1108541048871643, 1.0956059365369035, -1.3679498334836355, 0.7932995234985958, -4.9651465298013, -2.4126597257460585, -2.3817774228729034, -0.9033257842660369, -1.4620165497667845, 3.0999350551413354, 2.1594803897735013, 5.600258725853848, 2.270470572344504, 0.21687467316399522, -5.765549343551026, -3.825842641855653, -2.41539232116107, 2.390704398202854, 3.4957608918273024, 2.4260348637753295, 1.897483496144436, -2.2864374597487886, -5.1183920839288355, -0.9925931774805801, 0.4549910272013733, 2.314188887267533, -4.780007736161713, 4.483721917427157, 1.895889188683273, 0.7266036635019575, -2.0475464614383467, -0.2834596959142339, 2.080481170200283, 1.2517351453126455, 1.0933651437415106, -1.2100708603006605, -0.7956069887925596, 2.1464908531417644, 0.8326929537201428, -2.1078473481320548, 1.4432824889292624, 1.0445067950128384, 7.363626853881584, 1.8861274503189467, -2.495794747840775, 1.5006051047151363, -0.6862242230856157, -0.8950259720627287, -0.3773646681104885, -0.1357364251538764, -2.4431605191967307, -2.8185292870144947, -1.8644501593837348, 3.12414613411244, -0.39248329197000387, -3.8112883810787808, -0.022235680969553195, -0.446719388321289, 1.9853166630416048, 4.841933249235657, -1.7965269676797333, -2.1778367301531882, -3.078287968041691, 0.8467863685399402, 1.0631513814267906, -7.364350457167941, -2.21678792941148, -4.157160109205707, -1.0936511094999148, 3.934211388001633, 0.3646315489796854, 6.153040942559981, 0.33421026501204154, -2.727978154298455, -6.023417201321572, -4.508798654282159, -5.355102667557563, -5.30843053081073, 3.647101180508301, -0.15649767679614146, 3.2907157645516856, 2.1837487756150185, -0.9860774329738786, 2.6749913772004867, 7.7993030808910095, -0.5164968302221014, -2.511133843735829, -2.588172172638466, -4.447913830093461, -4.124593319841096, 1.4920224839184169, 1.1733287128911485, 1.0161711255029662, -2.7536884028367394, -3.311595715767597, -2.6301753462411006, -2.1357646710863367, -3.8734165224310373, -4.290735446707009, -3.5020461031889454, -0.1000677440848341, -0.7909280460157535, -0.7430567427095278, -4.5149534534932, 1.2040891509486533, -2.280511691518168, 0.17080402022785623, -3.151139529298135, -2.121258046471702, 1.4634646995919924, 0.46850493272738003, -2.6548818625683572, 1.77796119872971, -0.6635039352527403, 0.7226529239277233, 3.443988609186359, -1.2721173825254735, -3.2623511413499076, 2.2903695123753636, 4.998631856861885, 2.537112813315508, -3.4543124297795185, -0.42057478366946843, 3.8247429332936846, 1.0138404720008571, -5.173055091669154, -1.9656906284958688, 5.017069962861662, -1.1748388540911165, -0.6798078377052679, 0.32284592477691354, 8.112766746440212, 7.836292925089053, -3.534037822069624, 3.081137075350883, 2.7513945638526787, 0.6970996574494845, -4.0494924142973, -0.420293730561363, -4.504937172737746, -4.217923396114156, -3.7454252891009023, -0.299899311036127, 5.429237833643992, -1.4960929140455832, -1.2216142007044901, -0.6981310991858427, -3.4932583408219506, 2.1815040377058335, 1.5118561377216597, 1.2245725919625334, -1.7443780379070561, -2.621655791829359, 0.6533561407398605, -3.5564930965582313, -4.449349185154423, 1.323183993925853, -6.221650938951331, 5.595189966832837, 4.56599758020639, 2.8215082441276365, 0.6815317700437113, 1.7356756061408274, -1.2700877565652864, -1.6443043613984951, 3.593222954564334, 0.4647962844239386, -6.2193840017688045, 0.5001447225055509, -4.052298432090463, -0.1303766075140227, -3.060224514865636, -1.9869520751016145, 4.999637398109751, -5.466709398569677, -0.8374511068320196, 3.0129574638986645, 0.9664602049510569, 3.280069229741388, -4.950731447219955, -1.1496614764549171, 0.5144654794113186, 1.2602247980183536, -4.044002613856191, 0.16212246974703914, 3.0162376209820243, -5.787026541292157, -2.9288091776536076, 1.5392582374794177, 0.9148874553284112, -2.1122725644283946, -1.0345433097988654, 0.3588382944977033, 4.442813150706651, 2.8507230006029642, -0.3841512863358376, -3.4484340761133794, 4.92969896331163, 2.8279139155614175, 7.388811280252428, 0.34260901273621336, -4.030069525203647, 2.3860340731583998, 1.5983156404283916, 1.1283901500614442, -5.931515011188793, -1.738843858895352, -3.2251884104786925, -1.1334369124402357, -2.162959907484291, 2.012946494828518, 2.6623163743736926, 0.7942117352751692, -1.9063712456814514, -3.770489298460767, 1.8067350017460782, 5.237595372798037, -1.8278401711949432, 4.851113895259688, 1.5741277473001496, -0.12506554222934918, -4.0309279865652945, -3.933796175383504, -8.30782962662933, 0.0002586681774574551, 1.2298272123189289, -0.877997490142804, 2.2397482110099043, -0.6556438199556713, 2.7285071200110975, -4.382364941163704, -0.06627084552913032, 5.050108156515886, 1.8890968142697622, -2.8616321990532643, 2.6489873713678804, 3.6009428699269153, 5.607856225245416, -3.288542864360113, -0.5773476312173926, 3.0742080824245477, 1.8142369591675953, -2.937062564282705, 2.83909903453343, -2.9095350847730943, -0.9217139500747029, -1.431667325211367, 3.855146313185534, -3.2512296156396268, 1.5242976079721209, -4.604688185315434, 0.6813670005954673, -3.792223116164627, -3.5306273568857094, -0.7715731050807253, -5.191357361260443, -2.2955982990769774, -0.13995936197147696, 6.327076666222709, -2.4756559403254768, -3.519704079493508, 3.2526737317092476, -4.076921269153037, 1.8011855317762056, -1.6511140373014832, 4.904168841987129, 0.954935005329395, 6.785745266013951, -4.56187922997428, 5.404630767616288, 5.744852794615361, -0.11247571847779914, 0.05888830024813618, 0.9918845295667322, -5.282138607196457, -0.818657080137692, 0.05904944399380563, 0.7161034791691829, 0.1242094976243533, 1.6919005453348954, -2.533735399342825, -0.2506045893957993, 6.192189024031067, 1.9136999523571454, 3.760936318195653, 1.488875078437634, 3.651866941239966, 4.144584848720471, -3.477296173477624, 4.312563858935657, -0.5700089700961943, 3.183984021852025, 4.00218538321737, -4.525209070207061, 1.4713470092906995, 0.44896794649912874, -3.2054837748766305, 10.077649321580942, 3.2965168387044574, 0.8316372132102583, -1.2855067917340732, 2.291961381570106, 4.046208979432589, 4.565062257515067, 2.3494891397334845, 5.158742790973777, -0.6110336813195397, -1.3064897049446589, 0.9238335623111298, 0.3885954897040875, 1.1362373472474525, 5.012883597700655, 3.3659900114853825, -6.402230099038598, -0.9871203902728201, -3.7466900938550767, -4.322126540292091, 1.1676809246436366, -4.225590317042105, 2.8993651844797745, -1.565602205642131, -7.572129820192343, -0.09533387013251393, -1.6061931976890098, 5.152904423208623, 0.7508942134743686, -2.466998009621957, -1.6712407878135234, 0.5764736995719899, -2.316871358815546, 0.8539906787720228, 3.22444800439101, -0.3147010954705638, 1.7854347564011075, 2.020567833662459, 0.30911169293094565, -3.0456744338852038, -0.11985082718520323, -2.496889644901427, -0.5120251333415995, 4.593105258821015, 2.006817472449229, -1.7531401547262233, 3.2347904959018727, -0.7276327446639888, 3.328457841924336, 3.2920903413661673, -2.6047206145297057, -2.4480511543396006, -4.4914818654664765, -0.796584495286849, -6.045801167267061, -1.896941710842359, -3.335508383792175, 0.5703864651018167, -4.408492236178013, 4.651035766366482, 1.433246311027311, 0.275792619674343, -3.213902635504685, 4.946853395349794, -3.4363202358208094, -0.9748134693556636, 0.9376402015444563, 3.8750143659286005, -3.3584453582481175, -6.8483956299744175, 3.2626839588323167, 4.496945131451818, -2.652824204433025, 6.096996191823424, 1.5736415496708949, -2.888220934998581, -1.5381724522533, -4.081350283226145, 2.800026226566987, 2.48743222805581, 1.1354985109753848, 5.641543125215913, 0.5153295864225709, 0.9406290501766164, -4.635482909955572, 2.241592895843124, 1.9871874417622193, -0.22918165013043001, -0.49903690917333865, 4.695320095393825, 1.174113090061113, -3.544272078378075, 5.017696617196324, -6.021499028714351, 5.314323040603611, -5.091806211468798, 3.636755384794026, -1.0006910179592303, 5.1610910053919135, -0.533712209139871, -1.4143870410748385, -2.605605845205246, -0.12205572302359324, 1.720963964380167, -1.8775390847371345, -2.6931127494393583, 1.8289956552197952, -0.3362634386717702, 1.715935516418372, 3.656539414324371, 2.94287577036721, -1.3841010527761586, 0.049169468369851144, 0.5942686335186345, 4.102806891020313, 6.391087703370202, -0.5506507490047294, -0.8848541819078937, 8.986015581333564, 1.5782351075392849, -0.26430110218219083, -1.6089718728442914, -3.5728716660218502, 5.750084555713215, -2.9094662541040903, -6.2254178967304625, -3.561101712224782, -6.8926769161700845, 2.198297174394975, 1.3210564782431367, 5.344788431478944, 4.7935113072949385, -2.652268467251141, -0.8253988184188089, -0.10126524195177433, 1.3388328038227337, 6.443959601364535, -0.3517184217388625, 0.03932182652028193, -5.267282066802615, 0.5346502981597641, -7.194771663127054, 1.5483314293636647, 1.6659109326743513, 1.1415782142253752, -4.086927383070078, -5.563996485755996, 0.0489345685607121, 4.358913647110433, 1.0627843265184573, -4.368594378905133, -0.6883746512102047, 5.427008913939615, 0.036347439649784485, -1.8449418412564906, 3.807307469356826, -3.3414662873580854, 0.4173009998517907, 1.893218291644705, -11.345969376874534, 1.3460839019120212, 2.1237915140489685, 1.132386489709929, -1.4207037607733808, -1.2501755382540787, 0.35389293048659454, 0.7266108799263788, 3.5034754394793834, 5.016085157323451, -0.1783399378868734, 2.112171775285433, -3.3771506945262444, -3.392484670977715, -6.225571028690217, 1.0845153421149023, 2.4795042620820107, 2.8394822284440333, 3.1689756977325985, 4.282794170079239, 3.6705150304873726, -0.6984635004923769, -0.11838374579943944, -3.197651286307207, -2.304878763102995, -0.44395908750463997, 5.889606695762854, -4.467385187206699, 3.075800716049555, -1.5136134755748256, -4.188650875805293, 0.9281437492868156, 3.725605698411286, -2.598235988822422, 3.5028684926268037, 1.3751195136701808, -1.2809551586257126, -0.1749358679012487, 0.1329655069885809, -2.862922679229089, -3.6269816383080347, -4.0701834222654, 4.38672446957007, -4.478577727571248, -2.267608541131353, 0.051094981222733926, -0.7115900331078795, -3.072495398518742, -1.8921111549854714, 3.987731870103338, 5.317262775324538, -2.2006727273252924, -2.155337416566085, -2.47014427124347, -5.007839478153822, 1.508587453452125, -4.574716083046598, 4.928988505805864, -2.189922759489964, -3.955324988079796, 6.100891110567434, -2.057358883603019, -2.831718985569259, -5.283194656598464, 2.968003520955792, 2.7069492630728997, -1.9827107067169172, -1.3444286618541783, -2.164199816094431, -3.00730816950748, 4.0625468844069195, -0.7774169274501481, 1.5986488656730722, 1.2208269103387823, 2.322217693260994, -2.689541033026118, 5.323047211549161, 1.815032551248465, -2.6910023156236207, -2.287712385918476, -4.713566379825273, -2.2659895856425223, 0.32250075921571764, 0.9436325730678559, 2.039937560799781, -2.9423597416722904, 1.874195518235895, -3.2821236851701707, 3.3380658598602535, -0.6918260759996941, 0.7787439475261955, 2.7671750727937265, 2.129222549151158, 1.5405690695733094, -3.533065017461034, 8.320481703897062, -1.2858523887110505, -2.7309317072119956, -0.316625629367844, 0.6354210133534033, -0.2803615685260956, 2.9639190563704485, -3.3302888614636847, -2.4175095430201567, -0.9790934512652687, -0.04473229267126644, -2.9391894285361677, 3.694113285185767, -0.7194264611246917, -2.6489653616220314, 1.8316215943013368, -2.544807314788523, 1.3490424664930245, -1.5520410507656597, 2.9175785162284775, -2.9380204133010235, 3.0394928613181484, 3.684257207473715, 7.7488060059145525, 1.5882498151671829, -5.067221306772409, -7.083122417063727, -2.9291699300618017, 2.0044585313918146, 3.661010295996288, -7.606197404018344, -1.814739265291516, 0.29037990106651335, 5.851730712553625, 3.689127554182912, 4.410007467691431], "biases_list": [-2.7113200241409237, 2.1997401506324303, -2.1113709831316028, 5.8269421658630325, 6.293561491172247, 1.8794132896550124, 4.471224982024985, -0.9775845887915537, -1.8437997037052918, 0.49907677248657656, 2.6021524638800924, 0.1701323824407539, 2.3822474566369696, -2.7568646822513188, -4.451565055130825, 5.489282314373957, 3.908142565887653, 2.5213525954066887, -5.196580633649736, 0.32099705275051393, -4.213429100578415, -0.4759875655973199, -3.124843065553309, -4.943226088064378, 5.070382101423091, 2.5586148292668875, -3.4845695505674894, 0.5787466057556521, 1.6755967338356026, 2.4670832926390327, -1.499532205259308, -1.5994041762642301, 3.322796331028883, -1.5694732843541923, 0.20696298571484428, 2.2627115944565994], "shape": [24.519784885124874, 14.702797349790758, 14.746445093283878, 4.611371367491916]}, {"weight_list": [-0.9780800499463023, 4.8428924814861, 0.38288877491132256, -4.073766541974441, -1.9090413382891085, -5.2912482363684346, 3.160120345012979, 2.4385838189314892, 1.897097103039782, 0.7023991284145439, 2.609550014311984, 0.7603374141800736, -0.6996081481054391, -0.7403080129365561, 0.3088009022828493, 2.2757261555243824, 5.509076352559113, -3.810929816211204, 3.951091255280719, 0.38657032316884576, 0.2502413563860104, 6.446358924191171, 5.4232639420420945, 3.0557356908306454, -2.474020970789386, 2.300192053948864, -4.693641375956082, -4.0765698850317, -2.589266332164733, 0.4411090471205352, -0.5030849078356685, -1.4730530306268463, -2.0229745643701436, 1.2815728251298784, 1.4677196776849417, -3.101707720645646, 2.193917332213115, -2.964661743520475, -3.3306940200380275, -1.6808915330951573, 4.170077345959796, -1.5543484136218835, 0.10936460091745381, 0.8285833283339108, -6.674386104674987, 7.532366730105693, -6.861482423875026, 0.6871668047213757, -1.3800767558860751, 1.7079836050620534, -4.9769783718414295, 1.8382573488705871, -3.146345290880671, 2.1460075630123567, -2.151660489399702, -2.1222410926279665, -1.8741160618932489, -4.11311054515868, 5.547735518693621, 7.21000320335132, -1.912465869756626, -3.8380105998722356, -4.396366862823545, -3.0806369794876467, 1.9632865825825165, 0.9270316476720717, 4.527767493134153, -1.4341485430197947, 4.513610439585136, 0.01759406342143688, -2.8726591369324335, -5.904050721532143, 1.910733334449782, -4.9729476739086405, -1.73213397686308, -2.5705887075803107, 3.5110278236331425, -6.547465965472826, 1.5924156038173196, 1.3802769381621212, -1.5910152085535942, -1.356556270365177, -2.215988173917527, -0.712177732977732, -0.7276310710026697, 4.074194287671419, -1.6656164979432535, 3.914851489209356, 1.134816918534808, -0.1342997221541289, 3.4128756833310296, 1.5218585373379465, -3.261562417901205, -1.0797095394857277, -0.029048777321900365, -1.3867732379351605, -0.13410553018342175, 1.3990421252057939, 0.016403176611924142, -4.973015952868677, 5.135279881849361, -4.481283253609153, -2.1779115555746094, -2.7729735364283297, 6.057937025938889, 1.0195763278795296, -0.028273257524857764, 3.3392528690530394, 3.9585118920539504, 0.08869018443763665, 6.708460803895067, -0.6500622122631032, 0.2667345097108498, -5.059382778188382, 4.403042883949432, -5.12652129351669, 3.8889965558006594, 0.5403726820139685, 3.000817239157538, -1.5546097302758928, -0.21668631598177202, -1.5592799924733534, 3.5992318414262616, 1.7341669714488113, 6.731439400538882, 4.257191806504231, -4.233514331581695, -7.744058470406031, 3.674607864162681, -2.348629242421562, 3.7020265737691345, 3.1688257726254383, 3.8121758402506627, -3.699185626733746, -4.784634718805586, -4.097321732840884, 1.5080425475810042, 3.0440117179578534, 2.8521780547109863, 4.49524427346706, 1.0141577692979933, 4.530234912635058, -6.021814840330058, 0.05655975628961807, -2.9967923683757838, 3.771097090093404, -3.3763987212136217, 3.8468158642742445, -1.7973782229986868, -4.4349711739275115, -2.1755413974126894, -3.486374818296419, -3.841079721569301, -0.16436852160862037, -5.4117470063825515, -6.608837474369701, 4.189381043692243, 0.9632537058494117, 2.6582534520517402, 3.2137056869447687, -0.3331402727623636, 1.9622218799819988, -6.9044246013290005, 3.796315167398296, -2.621407541005553, 0.04931671161115281, 2.077852156511196, -3.0466444703594977, 2.1427778407234332, -3.21660139241419, -2.4583194709949305, 0.15362431569339274, 1.0574726454713388, -1.7946648639647966, 2.453754121114469, 2.9166838748518416, 7.31234530823351, 3.286616681104184, -0.2757763030173628, -8.75695122248545, -3.5261660823458265, -2.7119319077127804, 1.1359501349874161, 4.113646727306382, 2.129009142641818, 1.0520400648608863, -1.5224824308614677, -5.850339582939932, -1.465912693310881, -0.7390847603319035, 1.523968424258932, -4.130366881873768, 4.57449786203388, 4.165099786203114, 1.568933624300596, -0.06355914533138685, 1.9024372137109395, 3.321092860751593, 3.397920928784499, 0.19231724227432956, -1.4283009247735168, 0.6664954605141502, 3.193826588894858, 1.492062399297441, -0.9169849326811172, 0.9870620747355279, 1.2001018156805285, 7.001949915214999, 0.3163646062188601, -2.397854690516885, 