[{"weight_list": [-0.3729265002280544, 4.90171963849466, 1.5942716492214153, -3.2751496394679656, -3.0744587426043637, -5.15853504352245, 4.178017023901787, 1.143754256291135, 2.271457584066958, 1.6034007040014275, 1.66773412945276, 1.1754340851145493, 0.32549654881164636, -1.5497368735669979, 0.8336278694446029, 2.3995688891473925, 3.103007507432496, -3.033353063724159, 2.905179594001298, 0.7192678581011887, -0.234925751020453, 5.226375853600086, 5.694816543714107, 2.5604230523305933, -2.0990913773059483, 1.9804427369410185, -2.501486538212795, -5.411148365849106, -3.617023354813643, 0.8117198531421037, 0.4053481379687984, -0.29249842764004286, -4.88324675471318, 1.6698122499319705, 1.666209753008173, -1.7765020989876859, 2.251046708412887, -1.9383489737579058, -3.2379864648821797, -0.24132299520616507, 3.86712357690691, -3.1291759860863184, -0.1892854048793836, 0.26163756693024354, -4.365864205583853, 5.635743020177546, -5.744331960564989, 1.0212028014410173, -3.147090542416792, 0.601386162309308, -3.4362202569198383, 0.43784378536359014, -2.466539263948574, 0.6820935651083886, -3.1889449881640175, -0.35619786989231894, 0.6846504143980772, -3.1224167752760064, 6.543266889121137, 7.026608942407767, 0.07360381739787547, -3.3412894355082265, -3.9038721218014554, -1.445630931033747, 1.7275000159597647, 0.12383349940855792, 6.464262652890803, -1.1143340168718818, 1.9977047813092632, 1.3344884007717992, -2.12216705053709, -6.7338168152876134, 1.6937504872600373, -4.456453169424177, -0.6835931921447977, -2.319740909415148, 3.5763139062615057, -7.5962585357485075, 0.7656036866743883, 1.4083496335593697, -1.4003637722541373, -1.67554092868401, -1.4576156491704728, -0.9874482968672214, 0.7812378842159113, 2.255926694832559, -2.529933892867728, 3.856035849761085, 2.3159453945962984, 0.0005348174042756337, 2.692990929201036, 3.330598768606542, -2.8725224011058597, -3.3573415972528733, -0.03569468341868787, -0.266073448641273, -1.2790975730634333, 3.666455701952877, -0.31626375050239086, -5.437430844526805, 6.74433159496859, -4.801391234938277, -1.7616513423378406, -1.9977094714865242, 5.764936857967612, 0.5076184705343278, 0.5276792646772852, 4.47330380251356, 5.244830525560216, -0.6147263294191601, 5.929116607946143, -1.2720055566167197, 0.6737863455932516, -3.150185997815611, 4.1154073340914366, -5.002465136075532, 3.182924041884691, 0.7952933772789497, 4.233946246368842, -0.02725916453748045, 1.2814827939876814, -2.291151303941069, 3.4186220203820614, -0.18683029946106633, 6.546244797439758, 4.794162573426979, -6.34933341626363, -7.100371400213871, 2.2333258114185455, -0.7118452396579704, 3.57891501713112, 4.456920709597713, 3.5394917515482724, -4.052439413663308, -5.169276447252708, -4.500516254937725, 1.0858979459618991, 2.513840681847519, 3.0762837430776537, 2.789780259208361, 0.1470889372423494, 3.584334115904692, -5.871706058554602, -0.9167457145056153, -4.078886063541072, 2.7208671382516956, -3.4935332073975447, 3.102752515687066, -0.555153292278857, -5.213260197311088, -0.11203229802529369, -3.388955214422951, -2.0908853706464123, -0.9765260223248013, -6.207932969850253, -4.842365071690069, 2.3315118072826833, 0.6216933398261499, 2.397094949297783, 2.7856190208128266, -1.6917095936320734, 1.3661429169872727, -6.438447095696378, 4.309450426186892, -3.3755539010784137, 0.4878651222967747, 1.2370065358670277, -2.816036373940659, 0.014497759172454217, -3.6123208711652772, -1.4814301595150012, -1.3109720578418302, -0.4934802598743171, -1.5565297092572457, 1.6884788891634366, 2.3594597463953755, 6.738960433210786, 2.5792429466751443, -0.4297520741016738, -6.84386953061075, -3.332155506662013, -3.0542281260533457, 2.4173350598862022, 3.55687386884427, 1.2076340320619345, 0.2954439131347133, -2.4945086038825792, -4.990903500661836, -2.1129337024203245, -0.33558419054382604, 1.6507697415018296, -3.9150246861204634, 3.8623483674435537, 3.5806367941900312, 3.070992701466551, -0.6518124860390291, 2.452949244050795, 1.8404438677310697, 3.7194922294708057, -0.23832129933713986, -2.7288413921339623, 0.6811371437066249, 2.991755300825129, 1.1426661988199536, 0.08775476456526565, 1.4381663745554132, 1.084181540638407, 7.2957240815089985, 3.226929994384487, -2.3690660956375775, 1.5339868280532145, 0.2757618920387357, -2.722355402318879, -0.5922033025347038, -0.14376756419173464, -1.3522743412682519, -1.9399602764965371, -2.2338586680423465, 1.7509444337738849, 0.2956976993046663, -3.4124444569012793, 1.1167759243770794, -0.3813309295894929, 2.152999289672272, 4.643609728063854, -3.9399907758311885, -2.1473639659857673, -2.5769083566044015, -1.0156456423583664, -0.46169785468806945, -5.037860119951762, -1.5079114303781178, -4.370807294719327, -1.0502942523011456, 3.285327844517079, 0.45425621841412367, 5.32405109775257, 1.0853460171658766, -2.3800556522533816, -5.31499975907564, -3.929885437125548, -4.699610245506204, -5.589238426252233, 3.8310845758778953, -0.7653868950212024, 3.381328109686251, 2.3429642764931424, -1.3253950383315765, 3.488794349692787, 7.078137174018661, 0.6878619425503019, -2.8454056307592737, -2.7212808061199203, -5.876303206454303, -2.935150155329425, 1.8714879623409915, 0.7883176765742541, -0.11985459928035869, -2.9332838177568306, -2.87045036648498, -2.791676242904571, -2.581302446927887, -2.388067907763971, -3.65149293373795, -3.867304867200155, 1.369606911557172, -1.3590259649219405, 0.42860933168073756, -5.486714575431149, 0.1087105682150451, -1.3205873015545875, 0.3003494732381675, -3.3338948583332604, -1.7448936529258805, 1.9419979537980612, 0.9221314585024334, -2.837523625703705, 2.4339083215941497, -0.8591030743800425, 0.23506632994213605, 2.516323382740347, -0.6041290174518528, -3.4966663703997276, 3.323263913633814, 4.834953593966759, 1.5246086357909032, -2.2709830699008906, -0.957310637747957, 4.152422520237296, 0.4277575083632279, -4.249298251009983, -2.9227979829123223, 3.46059946006409, -3.6847251338511673, -0.6548684517694212, -0.110877735931034, 8.068476200366087, 7.046218703548716, -2.0221013850731913, 3.3132146994474017, 2.309362403879951, -1.0419042831093113, -1.900347479923454, -1.9936600013354417, -3.583467350615761, -3.6286210793750944, -3.0733871499494647, 1.4804883626611733, 5.4392348053386765, -1.1031912361518557, -1.1518342517068574, -1.7976016722801444, -2.9341370676219527, 3.9041230850739552, 0.21935506064954158, -1.8180982811097781, -1.95276911733649, -1.7326374461584022, 2.2538573574935237, -4.739243450965234, -2.316194136520866, 1.2148884118647678, -6.005414275939, 4.5785634664477275, 4.575540068170461, 2.9175119761623667, -0.06884420109708, 0.3849764863751792, -0.9834647884144347, -2.547761102564703, 3.67280293202736, 0.6558700984339731, -7.026717267830135, -0.18407476044015136, -4.3259694856639515, -1.169767662446896, -2.3916813326704967, -0.731643330035507, 5.034366651871059, -5.35831038980378, -1.7466342868265785, 3.476820764363233, 0.9245982221661793, 3.384995847481674, -3.7817547226892305, -1.7530586400446555, 2.535278593834269, 2.6457261085836516, -2.530975058290019, 1.5854395833640131, 1.9737389951472122, -4.581603249505772, -0.7457876971622608, 3.555031193836986, 0.49628785865450875, -3.0322991082082744, -0.12374799185905982, -0.6622102591025919, 3.9719018700722053, 1.6782274172700866, -0.7977573712609793, -3.7618769519057267, 3.77652872864965, 1.76188732385868, 7.125265982360306, 0.9563669367755872, -5.316206497731088, 3.159495409405155, 1.728166510104482, 1.0444402734711833, -5.287474232241467, -1.3397104807304505, -2.554903392284281, -2.8578831528115414, -2.517187956126321, 2.2255699328335243, 1.3689251398467732, 0.1651869762672349, -0.7615422779056145, -4.306790172522076, 1.5914250016427487, 2.8776529472879164, -1.8019664109842344, 5.2874107362094716, 1.43035741344191, -1.664787126207602, -4.784279393305992, -4.727730651011738, -7.645702857908583, 2.072926297399613, 1.691232961586354, -1.5750104444806838, 2.683160570514358, 1.128457855957878, 0.535609083252143, -4.392258308087638, 0.2669262031801678, 5.286578853114398, 1.7437175227131645, -1.4409357863351258, 2.274738625265832, 3.0208616613328827, 5.39118201193035, -2.7516720715986343, -1.2116281875194899, 3.0747032363206275, 2.4400918562702723, -5.124679053298031, 3.0121101713422824, -2.7502908596308395, 0.50259056882341, -2.4856399732068555, 3.1199424148811854, -2.46586873981555, 1.41756492991416, -4.070917358954467, 0.3303751709127509, -2.9006046569204385, -2.750387020158266, -1.8950529274840262, -6.655532291246536, -2.5397424115053964, -0.9754523054789097, 3.972250266972484, -1.9865034327723246, -0.9200110520102811, 3.229773151586434, -2.425819759294982, -0.09669541729248243, -1.4151299730994367, 4.718705569218973, -0.8785025846462361, 6.317218025957701, -4.956533018973995, 5.783877147638229, 6.109616568911493, -0.5562523863417825, -0.5381582497827708, 1.2179097222428377, -5.207315510843012, 0.0561192756363611, 0.719168500016373, 2.9001364641900977, 0.2737162443406538, 0.28766782934597623, -2.5774850148228854, 0.41565784058837485, 6.074314049070241, 1.4963886857440918, 2.854115581202966, 1.574102485661394, 2.7390239394779807, 3.7155218573564675, -4.166282472260731, 3.5124390820597498, -0.4533986703562194, 3.0190315138618713, 4.40750543830765, -3.4035634917403526, 1.148019527167654, -0.3936377299418111, -3.5909930424341887, 10.600811785436743, 3.837168374939643, 0.3587962466529695, -0.30666594960853866, 1.6295990684027135, 4.346476755503026, 1.4825018937262318, 0.8866617080997485, 4.464702167854862, 1.6498606095767894, -0.5737691391056606, -1.0669497633530085, 1.506560739954212, 0.5460329007959783, 4.253525858119135, 3.5479201677519843, -5.709637263041934, -2.6933709025736174, -2.5389746687517416, -5.626842366004988, 0.7558015635762669, -3.7731643932679018, 2.822751986916489, -0.030190917229405922, -6.538837606143708, -0.5228947525940403, -0.7007822547499449, 4.093538232545431, -0.28691283233790454, -4.267583864646713, -0.2569118388505546, 0.4783268677669268, -3.016895220053647, 0.40388908205889207, 3.8272140275580906, 0.21791367460547773, 1.3124621139291008, 1.2042785752022622, 0.0534880249098455, -1.0512255834421298, -1.4744321394523383, -1.2172523073942387, -2.361606089659923, 3.499080871065515, 1.7629398754505434, -1.4486529024356676, 3.57951640173059, -1.5963069491729316, 3.34121652744886, 2.353059366325511, -2.2461301544737884, -3.1923273657401303, -4.16694635871464, -1.229103648169986, -3.7225260333612677, -2.7821972100635626, -4.410182862834597, 1.851770198791428, -4.810163955655366, 4.933426967023104, 0.9860643307653769, 1.475104631841388, -3.0322338427366953, 4.834216774217575, -2.2398247720523976, -1.0819449349357868, 1.4421292234159337, 3.5094308222394304, -4.94098719061459, -6.09000940050388, 2.2334413384451612, 3.5462731369634213, -2.6137455210552414, 6.9977973381695895, 0.9304094349146341, -3.4669159716851934, -2.5856652648767113, -3.4019785781526926, 2.2827174962653265, 0.744451970174842, 2.2887154970883836, 4.610591880524028, 2.701802041190298, 0.07076774445239553, -3.830978175973135, 2.1762779783492245, 1.9120105908792753, 0.26883081905658646, 0.5070984183402985, 3.893527694475927, 0.739233616514162, -2.852349563575575, 6.383434681764223, -4.671129616267326, 5.487485612552805, -4.925624357795749, 2.267080307702172, -0.174654436523768, 7.00621162494207, -0.05812373987285269, -3.0858221700563746, -4.392271977542567, 0.014763380215704336, 0.8195001848353072, -0.8468857209099918, -2.5969468182280346, 1.8494120109387424, 0.8715104319960487, 2.275540249095415, 4.287760577142646, 2.1284264684738896, -0.667185313101461, 0.5852304463415485, 0.20715136263170986, 3.803998390987159, 6.388702311602941, 0.0830263950342327, 0.5108404888163103, 9.62911966118536, -0.2080626010686626, 0.06265736029841129, -2.023929574912988, -2.44306434177288, 6.095348118285168, -2.7557476628001307, -5.401088047010491, -1.5503674100598275, -6.85042019445074, 3.679582844684865, 2.040142437426696, 5.5185792190642875, 3.9822854286770575, -2.328580200229416, 0.15238958255052304, 0.2629612491600084, 0.6800657236189032, 8.874095787232587, 2.3160682453225654, 2.0460599208323336, -5.771152697442275, -0.26762620060085396, -5.597380803094069, 2.1362157953706626, 2.0722559418678568, 0.42993308702339217, -4.465672901950883, -5.72028447959992, -0.8329871126183283, 2.2588297910986466, 1.3938182098403722, -4.835894061196527, -1.6330904677445184, 5.014371364700597, 0.5194396517042983, 0.4035553863327823, 3.764158569634283, -2.9584462278080563, -0.7865722872053508, 0.6487487952956472, -10.752110677582428, 0.5944301717061125, 0.7403594399632303, 1.966597690662594, -1.0964371228960226, -1.5428770192806336, -1.8791597144803172, 2.1295202706709437, 3.5966877699619113, 4.0277968202811305, -0.5395038291433276, 1.2836337615917612, -0.777292498705684, -3.3391134726657663, -5.743208878065186, 0.3450379228431868, 0.9958557001821609, 3.836345330399338, 3.1149207218153947, 2.7417430743937734, 1.9063014575502946, -2.2500035659397364, 1.1516424992993715, -0.7176646468786043, -3.5541228547812533, -0.12609694758739032, 5.941670896229219, -3.0614572794648827, 3.6369932874393216, -0.979002617134435, -4.34241223865394, 1.691408638419884, 4.058530482364197, -2.164910830985117, 3.549689955454368, 2.208117562906292, -0.005995681390552621, -1.0008080630648348, -1.2285479147698548, -2.8564198700643955, -2.530405588035576, -3.784503820295191, 4.651228654425913, -4.488984505714546, -3.2734790789964556, 0.1529142524909095, -1.2327489805934866, -3.1436029638818273, -2.6003041963127314, 3.404573098561767, 3.5979530086391485, -1.8094524508661596, -0.9061327296962136, -1.8050698653934556, -4.925948305736195, 2.122854613450343, -4.3430858844056655, 4.257774552271672, -3.1900638243156854, -4.939299299099721, 6.674734183350465, -1.5032263567873339, -1.759072704758309, -6.062013303663731, 1.6977306798313627, 3.246873880012142, -3.319054078796352, -1.1220744306039012, -2.0056318636489063, -4.354081754025107, 1.778760842797046, -1.1482401897480603, 1.4036148340063148, 2.350491440762274, 2.957817117917066, -3.7855529861333537, 5.490158567665365, 0.36904134795717236, -2.1237555313599676, -2.4536148277028875, -5.057829533389178, -2.8759235221639106, 0.44705947164291304, 2.259362780689221, 1.4116251351937423, -3.4727928686261227, 1.9575641351241604, -1.8200197013001556, 5.056086194646358, 0.7105726727601163, 0.35290609528704064, 4.601880409717619, 3.02031973002547, 1.222552559308589, -4.132561358513468, 8.339305405083856, -0.9678408274971382, -2.3047067452696903, -0.7717473090503403, -0.27929261370140224, 0.728393970081791, 1.2544694191763357, -3.0143159395292614, -1.0629461117822885, -0.4638557555363062, 0.47351500506074196, -0.19388074215170548, 2.8694766465590265, -0.6695121134098807, -1.6568215852776569, 1.262782551598884, -2.382469697236113, 1.8277363091316308, -2.335401532529699, 2.438729045641303, -2.887752979152131, 2.742304944988735, 5.224395470081646, 8.145098437267022, 1.4803394807654495, -2.311897333170864, -5.426256274261354, -3.741524938617473, 2.821450312403214, 3.8449065023999127, -5.437082602208804, -0.5533330157589973, 0.3685303075443267, 5.7807838277262595, 3.2180650385921474, 4.043485579551899], "biases_list": [-2.126879406654287, 2.2202403093760212, -3.8126090376444863, 4.851849306544594, 7.903377600332298, 1.4682761161716167, 2.6010057374920184, 1.4592668820498669, -3.352340883897731, 1.4949889898903521, 2.0867526080722953, 0.7134063744200276, -0.3808698780471689, -2.7381567358313754, -4.047505739715966, 4.778730797769121, 4.611540389246047, 2.43317133293348, -6.217062821391608, 0.3366572023194303, -2.86494686618781, -0.4116437940523172, -2.9747301538060933, -3.048316338922017, 3.8900622898152415, 2.9695218679741773, -2.3786277905310227, 0.3893013245325945, 2.071474357024031, 1.6401526026442497, -1.4541083913748651, 0.33055255377120707, 3.7083745042281677, 0.3419898356864308, -1.637505371179502, 2.5853341242947105], "shape": [27.07980978437902, 15.343132297351257, 15.716059116022262, 4.736656973533567]}, {"weight_list": [0.4000137404531945, 4.577639947280275, 0.062140720690137874, -3.4404088071503276, -3.250429906941048, -5.132635050349234, 3.899314496950952, 3.3928913253784945, 3.143874410882174, 1.3408567959749922, 4.136400137030318, -1.9273561441230869, 1.2285539183739473, -0.22554334635133733, 2.020235762430043, 3.3806511443613827, 5.05152215157155, -2.431333626894987, 3.7775393695502704, 1.9049375926227254, -1.0796498705877549, 5.261394087666745, 5.142973685208781, 4.395352459457499, -2.0835667154509583, 0.8707521339161353, -4.626910736803725, -4.761433157870979, -1.4953043344625008, -0.36596042162286113, -0.7075299332460239, -3.2104109101032385, -3.5456748679495536, 2.8582744346965274, 2.273794936496448, -2.6639658142396225, 3.8962240523143974, -3.1460679076782117, -5.683017164838522, -1.4721707042866414, 4.734245138781981, -2.390617862807441, 2.1310669751643374, -0.8660241867915683, -7.334073835744688, 7.147773305999175, -6.514160806202071, 2.2713732208249904, -2.7580673354557814, 0.13062532393753368, -2.939182295952109, 3.0017316948740653, -1.8771279043767335, 0.4303013733278058, -3.239558834769199, -1.675605400826014, -0.8966636253758651, -4.182620498392409, 5.534499302329213, 7.5599660438188465, 0.36293593052180495, -2.89929974128143, -2.6561845466213474, -1.7515212722216476, 1.2670342096080383, 1.1971010787320573, 4.5968192791497415, -3.610496203105149, 4.024564931455738, 0.8417212565236041, -0.8242385134636789, -7.945833727582629, -0.9455184807473295, -4.087724955720609, 0.7234397661619476, -2.339791761917302, 3.4905490807283437, -5.405411723785754, 2.2784580420338196, 0.40940800427238333, -3.939361345215854, -3.3629046797036377, -1.012160745303053, -1.4474429076058495, -1.2657057232405426, 3.212103924449343, -2.945904457109621, 1.8161000387145219, 1.1260748251184576, -0.16515555672456805, 4.14704279349647, 2.994684867541966, -2.8451945941035968, -3.8280653441461805, 0.43999677719572317, -2.1403502504804113, -0.8780749311686884, 0.4869039421660093, -1.2395207945630622, -4.405911909629087, 5.508869660557316, -5.755627488732722, -1.0016086754688585, -5.052374033353488, 5.887794926350286, 0.5913948006065384, 1.2228253135682605, 4.206793622379992, 4.429192424468758, 0.7005278704560374, 7.282973113707518, -0.4112370274022954, 0.4212602206386953, -5.0599055879126675, 4.876862419131253, -4.061439253067389, 5.379291027811554, 2.106322670080056, 0.4003386793016963, -1.3995775284458658, 0.7918800112232045, -2.274322968250061, 2.574920840125068, 1.4297463876797556, 5.314798953228535, 6.143571044710762, -4.92963787708842, -6.468981266705484, 2.8726125948170593, -2.635798509247647, 3.4558951695620754, 5.575729750280008, 4.8730066682407, -3.563527988020865, -4.72825595151132, -5.108262369490723, 0.6172245954381819, 3.3692970589120472, 1.3206690954206421, 5.153124246365846, 2.2642111397429683, 3.9802692615741915, -6.460262143293294, 0.49156780385642573, -3.6528645580505827, 4.253141810610052, -2.749450248504827, 4.856908023884276, -2.2568270435212545, -5.696605383219367, -1.7664611895040607, -4.770066305497741, -3.279168841385726, -1.8206323252278094, -6.4098632862859475, -7.048028299500072, 3.5034693949226243, 0.9352017496274607, 3.7218633480551144, 3.9285313724498945, -2.215530965156784, 0.7489458558064319, -7.541019403176065, 5.194681941472696, -4.011043138611886, -1.0626831451806709, 1.5228291506731821, -3.3079580555021946, 1.354604955815347, -3.342894090482157, -3.982888800017961, -0.3376826407962268, -0.8918891006644833, -0.6531137456566942, 3.6871488807529627, 4.424274593897394, 6.983407437962894, 1.6239646038182904, 0.13538845164405444, -6.4530491995240125, -6.6799952998873575, -1.6415357970556503, -1.6212919114543758, 4.70362209992285, 2.88738048454759, -0.3157333898373871, -2.9607333565669003, -6.7289653021322, -0.5966388260442594, -1.4881789878812206, 0.670834619591876, -3.485787102283916, 6.0372889052161, 4.634503476147376, 0.5708038277685421, 1.5605970594611458, 1.234970875327586, 3.2053110745059437, 2.9452793224226146, 0.4967630751305543, -1.8894937977918833, -0.9498364097797185, 4.35186413098992, -0.1853154183255885, -0.8993208671463035, 1.9064208259173334, 2.025527571503102, 6.04172290369379, 0.8138635456384948, -0.6722799685686252, 0.2894149938891186, -1.3872857381463162, -1.3483477930482262, -0.03174524447645888, 1.1471926523373233, -0.5152414305636268, -1.3976467017818135, -2.939189204374521, 1.5764407575358605, -0.585263236530899, -1.3575432164603203, 2.4163703081727075, -0.5914276025118873, 2.1045373334247133, 3.612188837817161, -2.632604207644592, -1.7148958283985827, -4.407321484742742, -0.4748787841708748, 0.6173086568509814, -6.2992285118218545, 0.7227346935239072, -3.635147207034451, -2.3683095855427787, 2.999353581235424, 1.9304872679029268, 6.0541680739478085, 2.1647743987147816, -0.8814323496335974, -7.478544924879958, -3.4024195647025905, -4.412035788113913, -4.2666570300684175, 3.7497194543228662, -1.784907510067887, 0.7868868778350537, 1.9719619777960125, -1.5146793314870204, 1.545003743775438, 8.604878188329886, 0.6479857696228855, -2.024239633953502, -3.327785649122772, -3.3537696689826966, -4.3935609272262965, 2.164467546856974, 0.7685768234522945, -1.6082697804591608, -2.6521770675917526, -2.8511494219933837, -3.4565661967747543, -2.057732892955127, -2.6754464564324696, -5.019283093480623, -2.6885515522430143, 0.6620868354535274, -1.1529308070351394, -0.9643471632850719, -4.24604268432133, 0.6566837011463165, -2.20806883047407, 3.031758097689547, -2.0301391241099074, -0.5804829313024831, 2.5065762286932696, 0.3652881065803475, -2.736553220827008, 1.0122453831625196, -1.9259500903841835, -0.19110526915995418, 3.2006441284865357, -2.1714302188404995, -4.957867758002408, 3.9471711088173205, 5.715550077037328, -0.8671441626216121, -2.8492122737365455, -0.7487715856640016, 2.7037024379450374, 3.322676086860466, -3.5336917941506663, -2.6840284061048045, 2.681999492632386, -1.9637898342537032, -1.162323450873988, -0.80704201305775, 9.966284185509508, 8.006367517372547, -1.6556195636970483, 4.585383707126935, 1.0627733915292414, -0.18141374467897375, -3.906459566387852, -3.6847482172647537, -5.009595316535032, -5.726728741324369, -3.9651797243256097, -0.26286752824836923, 6.823387969751427, 0.3036847709643349, 0.9168373299070589, -1.7592281006132244, -2.970021002210094, 2.75335571277203, 0.13689476490075725, -1.7754811176840786, -2.8608919301835325, -3.312492731936601, 1.8435136306033773, -6.734215805159673, -2.517600303579128, 0.8667289948622081, -6.188272357210979, 4.435400488977504, 3.9250758545155984, 2.2201579371374, -0.26996331949733987, 0.9317008868278873, -0.10425227116099234, -2.8093951638154717, 3.862848708247453, -1.6271612432681022, -6.098951870688904, 2.143394290993863, -4.5133080577618045, -0.6148037483055555, -4.216119736617798, 0.7050527982018906, 6.25861908888735, -5.8225653702297775, 0.06766193690979239, 2.54831866159961, 0.5474151657928823, 2.3810528629876906, -5.364578844018144, -2.668139279984042, 1.3273167145935827, 1.9213742337026414, -1.5999316450090533, 1.3083445869829986, 0.5231366734735445, -5.838646249230959, -1.2386398357409172, 4.644458008355625, -0.34809508538875433, -3.457886358072203, -1.5773953804997534, 1.2506326790043998, 2.339508727507602, 1.470764956889811, -2.0104920532980035, -3.3478856202828267, 4.876937480613822, 3.6176026603567895, 8.778114308684337, 0.5920969566257581, -3.1864994263436026, 4.5225852562818005, 2.373917624239514, 0.8171684513374631, -5.312974877420611, -1.7544227410545694, -4.926421328298837, -2.4681244682993517, -1.0068690164288978, 4.162209274725673, 2.4328880576233165, 1.8923973769834905, -2.9450048402466615, -6.02275454656762, 3.2055959906497336, 5.559995078266506, -0.07297874693394801, 4.642171150959491, 0.20888278393636606, -1.202377841106763, -8.040379317393395, -6.719648404961087, -5.152958584426401, 0.8170929583153324, 3.623473416770193, 1.7945695862118782, 4.6538574692780585, -1.305917154409749, 1.049570779464986, -4.139358700033312, 1.3828605527714157, 5.85662155721377, 1.4396048352225366, -1.0488705109470964, 0.7905506216728888, 3.9135809768652985, 3.7595297133993633, -2.89092047512687, 0.12936408995072712, 5.352830607118333, 2.5819578867471025, -2.023350496414994, 2.4954277059132393, -5.357838945950929, 0.07897717276680027, -1.461491760660048, 2.514474887198876, -3.9858040893727034, 1.4898330631144567, -4.102190727183783, 1.6556974078775086, -2.530303547326848, -1.6593836379617317, -0.02375788248810773, -8.741617719797524, -4.159429543702802, -1.0050905484209132, 4.461994487986189, -4.130923730975205, -0.8739114405872099, 5.61994836802205, -6.176826912192296, -1.4164405175949197, -2.131598109720476, 5.472769849587378, -0.8490259981044281, 4.506760418762147, -7.242179490286517, 3.985723333611902, 6.28882018810189, -0.16771377755043482, 3.0172752741573374, 1.7645352116358568, -6.613043799552555, -1.182618248530265, 1.2545105125157825, 2.4458793128927576, -3.1782685777092263, -1.0612684236332441, -3.9778856421339195, 1.2506864072935295, 4.636380055245878, 2.2629045848865195, 1.3904805194226455, 0.8269682398421143, 5.178108706126954, 2.948197166318218, -4.851534268777957, 2.6611987750631876, -1.6343868416065062, 5.021537597818701, 4.3168500800478, -2.7411664858925677, 1.2427753071265117, 0.774802121670009, -5.001938200060209, 11.52933993245315, 3.565869003015778, -1.3122659838543023, -1.25994852998851, 1.5041484930301312, 4.570176685549431, 3.4785209652061546, 1.017059703253758, 4.282259772364445, 2.813767761631249, -1.610441874926632, 0.39181635938905535, -2.313854271187693, -1.2356285007158982, 3.163028971779701, 4.35859443499908, -6.4065582901450036, -1.8474333250050947, -4.2065348407951895, -4.711534693612601, 2.233992362096313, -3.743195376898866, 5.308843020634904, -0.6817809220536551, -4.050831788448815, 2.137782131663327, 2.5437880421794534, 4.300831806476901, -0.5827813632343, -1.349380158437825, 2.362072411460932, 0.6579269431243719, -2.322513795711256, 0.8845184313702839, 4.841377736878794, 1.9389009608938537, -0.6544959682366173, 2.8175392397393138, 2.270990365913008, -0.20794510418121193, 2.281979675726581, -3.351945294248003, -3.484435022701781, 4.919646174511986, 2.8519875256492573, 0.29041250295962606, 2.3472171918556075, -1.9418819351043701, 3.832238023102186, 1.015212151497133, -4.174965508662044, -3.639482562369248, -3.942470355385016, -2.5552288688123963, -3.1681710799714025, -0.7172503516197419, -3.879771319321084, 0.319087574194143, -4.098514473319986, 5.655239424708844, 1.4391368844444976, 2.106060691071648, -1.626942307333583, 6.142990814909795, -4.000909982736962, -3.6599401565329157, -0.010918824269361194, 4.496840223665317, -5.633710704194432, -7.7784670394907645, 3.7836266155577913, 3.213981566827947, -4.436073856770938, 6.164903147494229, -0.7111440447791089, -4.492361550529019, -0.7557588328302898, -4.995940697659853, 1.531430891394649, 0.6873276074382781, 1.6867905570258452, 6.37430468532953, 1.5016133450017621, -0.9920539408303218, -4.2064222126802155, 2.205659539825496, 1.3660244888745825, -1.3170569144691548, 0.20487436651865165, 2.663538466090977, 0.22682666075485924, -2.8603503852252974, 5.989614536672283, -6.181910296235393, 6.454568806663728, -2.938656653332476, 4.57038066713747, -0.24438163325973805, 7.429764140974582, 0.4892457816749043, -1.382913310215548, -4.985957199519062, 0.7908005833255041, 0.6388879979499757, -2.604797132441508, -4.274508711497198, 5.45445906393407, 0.21030972203884035, 2.1360103204761787, 1.6157645499702147, 2.401813223481028, -2.0764273859648323, 1.8795697023553553, 1.3513707397100618, 2.7463316802012425, 7.8025272165946244, -1.457321099695064, 2.434665271776327, 8.355742494273727, -0.2749916837525075, 1.154126993898716, -2.3965563243064283, -2.7514353866997308, 6.857678532552299, -2.8744925854331744, -4.7699466177936864, -2.1395827633645887, -6.6215178715244, 3.2800948427283894, 2.3489634904263, 5.7772007842744975, 8.046942261452704, -2.4236186660178882, 0.0825482312548631, 2.0614243557195744, 0.7485564219441645, 8.315769115567148, 3.210334010142465, 1.9894280089033867, -8.086347867322468, 1.2394703566823138, -6.151236639305641, 5.304694103419397, 1.9379355830566505, 1.9663494450762538, -5.9243114415623035, -4.641137295245453, 0.26528669792874116, 5.182710842593156, 2.4182526561755293, -5.623251380537191, -2.8845414520089596, 7.9884084978531416, 0.46840288073320546, 1.8082331461028982, 2.4882858848849922, -3.591170313162414, 0.7622893502862078, 2.573476462128646, -9.030887613268906, 1.6536928913919864, 3.724797076215201, 1.2776060519249275, -1.6693766406044839, -2.9904233264216087, -1.1260211018309674, 0.3019686855185939, 3.1101065005706046, 1.3752835632256692, 1.5835262441995512, 1.4964058721896039, -1.147764626936186, -5.061059229388348, -7.978927163371243, 0.5050928987339709, 1.8161615447294412, 5.773160606261374, 3.7018531137170676, 3.7317503220002504, 3.335336008452801, -0.2800081043765206, -1.0774609802718578, -1.831782850065019, -2.2577418102085813, 0.649546486771208, 6.883367166456688, -2.3216612339819904, 0.7531510747451013, -1.020321329578404, -3.5328307676151476, 0.43450809254445644, 5.363676414057787, -0.6989344270150142, 3.4307490280216806, 3.0717381478637744, -0.6680650062568683, -1.3209331301176317, 0.5239950708662549, -5.937060521596086, -1.826081019644255, -6.705497297639208, 4.013992665161239, -4.865333338607743, -4.0900688839288115, -2.465697137467518, -0.34942566986855605, -6.745966359079648, -3.714478383960482, 5.648202563769967, 6.406607432342552, -1.768497722396447, -2.7559117168608864, -3.395535323085089, -5.637676023843436, 4.494987128461898, -3.886323591016212, 4.884236238051917, -2.2165283581677517, -3.534601487009925, 6.167422402594339, -1.9077735967154248, -2.1647744979981827, -7.509108756615789, 1.9036910919304395, 2.4524358201623015, -1.8905608806873122, -1.9216965866495876, -2.3881562976940747, -2.0864344576740814, 1.589540186754757, 0.6443955240464485, 1.9083034776412244, 3.49070188882708, 3.496864715601009, -4.9236462954035884, 3.3426040631291976, -1.6192247774863673, -2.0069136319867455, -1.0208715688652874, -6.796334289335967, -2.169768717950543, 1.0602361056537761, 2.58187995486287, -1.3667269100500234, -2.9459792086128123, 2.033214405264345, -0.9635637965627692, 3.8438356161482634, 0.6451570592609692, 1.329236029270647, 3.4458754865538586, 4.088453023288709, 1.15533556890853, -3.4360286695458653, 6.941464513680418, 1.1959223985445426, -2.820437537346802, 0.7114726382926169, 1.5786840804091211, 2.2539881114970126, 3.5501909055532224, -1.116736547739227, -2.1956625955421734, -4.047682881865767, 0.5690812656481834, -0.02410819271948683, 4.726290126863366, -1.8263123297191748, -0.32885813541515974, 1.148876369091068, -1.2164265606898463, 1.5499145275753206, -4.250266617108373, 1.0629742449018762, -1.242691455766022, 1.7109906152812187, 7.505216075083329, 6.784862777243431, 1.7047283948625127, -1.775150065443056, -5.451159936892263, -7.26547676092524, 1.2891969124160116, 3.7003407951456673, -7.367394646737145, -0.9525389675201912, -0.6348787917621008, 6.526507520017432, 4.542454551566953, 3.1490917677617567], "biases_list": [-2.3517830441336423, 1.681611992455823, -2.9986373127213017, 5.074908372927911, 5.677181040111803, 2.823397114577925, 3.921776181032464, 0.17114657664658273, -3.29299440977109, -0.3756800403833074, 2.416978322857268, -1.8049671007904695, -1.9714482326583997, -2.8367808486923263, -7.192778127432886, 5.810095541510581, 5.589670353068446, 5.156236543368504, -5.556392041199594, -1.4151602072386267, -4.125399663146237, -0.7454996708294763, -3.574191078614354, -4.335831961082525, 3.3437194044668628, 2.3871373390260207, -3.2976676554231785, 0.4641818490169147, 3.478933483113342, 2.271911545063792, -1.1951949039607919, 1.3252928922117362, 5.409380511239867, -1.1668893494098416, 0.23589629456087757, 2.2645929775275073], "shape": [27.294289203031852, 16.162039021962315, 16.301849343178887, 3.313158158522774]}, {"weight_list": [0.06558088448761645, 4.828820679516517, 0.2530411196962141, -3.8868565644278217, -2.0160968282238274, -5.754073210553046, 3.0192044150095745, 1.0048072407116808, 2.599617744361578, 1.1882781037891013, 1.6721237612180282, 0.7339718129519526, 0.5511418021536938, -2.4582322619677264, 1.2056232032299472, 3.0309390257935735, 2.7859458238993557, -2.393233888787077, 2.511384481338075, 1.4020484013477272, -0.24402995091329194, 5.189509097296125, 4.876540761218556, 2.239232656528573, -2.8243362742341103, 2.843892841438909, -2.4606294192549614, -5.603489125528922, -3.300912965235417, -0.9818063681124545, -0.006574286163959719, -0.8820757593223422, -3.936061279179344, 1.1414387655355798, 1.4605839228087918, -1.8849624124656403, 3.021387990283827, -2.587007433073939, -5.057405214316738, -0.6166792641650214, 3.4812069875728486, -2.5795579849208123, 1.8404802101501359, -0.12472200856658666, -4.880741023577387, 5.7730515694661655, -7.066557610894138, 2.4227359234026826, -1.8726252730614048, 0.7686426195498361, -4.433770562085579, 1.1032354973063208, -1.6218040507666347, -0.5224650369699537, -2.877109138391045, -1.8784544196684545, -1.4810874997137735, -3.121748981120536, 5.900540138360416, 7.647350128051697, 1.4462215951257336, -2.9817535252724947, -2.5481237765674543, -3.0225075766802587, 2.1338462985109032, -0.3540184903329546, 5.729903235393232, -0.6377036882372432, 2.7677509080637774, 0.46173543379016624, -2.3679282481090773, -6.439101985052125, 0.47899671442145575, -5.301473081609912, -0.17056930099217327, -1.594940644292188, 2.401813058992088, -6.878700732320566, 0.7950533278074339, 0.8300489876385848, -2.179989589108776, -2.359298916956239, -1.5566020307626887, -0.46899909944310747, -0.8210377165318964, 2.7181614192743004, -3.0832292659562768, 3.618309949422409, 0.9960685929747166, 0.49071531601327, 2.720392449297969, 2.819080267343295, -3.7168298177057357, -3.5015111202802833, -1.0208344391819812, -0.27891290805473, -0.34364137056661104, 2.037346692110119, -1.3704793639905217, -3.137069387093982, 8.430837734040331, -5.789239634628672, -1.868572311374626, -3.0308422880009482, 4.543508053647301, 1.9619103879172264, 0.5962446908109902, 3.923048736362503, 3.631494510940989, -0.5477153512447697, 7.50204982445443, -1.6712102504723496, -0.6513981922197315, -2.9957439308191134, 2.3990245555299277, -3.9939522169338835, 3.3889185596474594, 1.5786471955933594, 4.019253888238905, -0.4065484681536815, -0.162788070825568, -0.599541241116246, 2.914160161172348, 1.3744876979192582, 6.068989408133004, 4.536321156572486, -5.59388255594402, -7.561555838930489, 2.7784963688636997, -1.989026122956979, 2.950751248748377, 4.340223157349824, 4.89949299393542, -4.184768176996017, -3.6680021961479587, -3.0681552160107746, 0.9059184968462743, 1.6597294832642309, 1.660059260544302, 4.118712580576149, 1.5596349913976297, 2.9233961070686965, -5.844207340789207, -1.571451321417587, -3.7214831577116616, 2.8261869919930698, -4.173596216719687, 2.574006330568312, -1.4612549211309314, -5.564113869536723, -1.8044320388728359, -4.526793189392685, -1.5606812963273051, -1.366110531506191, -4.039956581185901, -4.392594186313434, 1.7861145956497224, 0.1816940676165859, 2.7508170809758594, 4.053326989289186, -1.1868168203118015, 1.0552131773507574, -6.943841054848921, 3.464224351439408, -3.6890230529571744, 0.16736871001964193, -0.3578729439031517, -3.019211434233673, 1.5675928361976066, -3.0466552578813837, -2.171951705874876, -1.3461649151377122, 1.0301731729707067, -1.0843392825431355, 1.9492773249995867, 2.4306202671528814, 6.408604947450803, 2.3453677980764134, 0.8998591425901084, -5.733715116308532, -4.34632538602573, -1.8610211957710014, 0.5161784055451306, 3.413282389616863, 0.4796671856084518, 1.5382850625027373, -2.6960209762738723, -5.351736483542421, -2.8226325551456872, -1.5778400142904967, 0.3228741519817324, -5.315307934545382, 5.037633463250462, 2.740155820385583, 1.4046474961721898, 1.4253130245242231, 1.7927378121567874, 1.982930423699306, 1.6407153314076761, -1.133323214839485, -1.0326966162647306, -0.3592510058352515, 3.321879559458008, 0.13286874423157813, -1.8988338578193757, 1.0462718539798725, -0.20561388952784387, 6.949837411736777, 2.577156860103863, -2.0460415671408105, -0.0328198569454603, -1.1066634714225252, -1.4448640706569698, -1.6970495143899385, -0.03321627975653585, -1.7524658717909465, -1.8011009193871097, -1.6470108480463277, 2.0196109296950837, -0.6643512443369397, -1.4154782425191044, 0.24640325646868066, -1.5129521592885058, 1.990515465660367, 4.107333930243816, -3.526946590453849, -1.4436004856873734, -2.9148220132260088, 0.1535287281737241, -0.6442264783089895, -5.123381449007198, -1.2508548655591725, -4.46779712791861, -2.345404891318937, 4.471544844178284, 0.33361857099631465, 6.41627252583821, 1.6689877128364587, -3.777597793337566, -6.6954611177448085, -3.3725833363148787, -5.264330156698884, -4.407229852058453, 3.685317478885609, -1.1537912259670817, 2.2171781249811566, 2.303681595694453, -1.980196178508372, 2.969564144332249, 8.32007342321451, 0.32763841007051675, -2.963890295121355, -2.775709357500957, -3.72019266024229, -1.011010662297985, 0.30985590472156255, 2.7900756965961597, -0.21877067780399395, -3.954083125040744, -1.94232406482345, -2.336300245160132, -1.7321351805372658, -2.748865977412951, -3.9972295410829557, -4.195730438500788, 0.8317601583469305, -2.3007631351846376, 0.8196058202652785, -4.475436922820854, 0.463539995629332, -1.2001634505315855, -0.2991402153332723, -3.2213409570917104, -3.2895659202461314, 2.0284060524921506, -0.5698309278077653, -2.8988151794498105, 1.3437794483671208, -0.6444616128446143, -0.1811460186889915, 3.093276426143335, -1.0291218855283555, -2.631494063656243, 3.5729896373468435, 3.48936599532683, -0.1975158563286139, -3.4878211664962047, 0.12760201789520775, 3.7821688576474592, 0.37626079158121595, -4.605275905356951, -2.772682393983734, 3.5828581182572297, -2.795537532838268, 0.19377757309620058, 0.0031059099371990584, 7.762839789510931, 8.151753614384324, -2.2748868927584436, 2.153997350641979, 1.1095570718631715, -1.6014888713551267, -4.101555290288932, -2.3141750790293214, -2.7769289622323927, -3.1235242674626917, -3.9944333702637937, 1.7594909832613657, 4.721182074954578, -0.7615010921894532, -1.3457718700829637, -2.647799178111087, -1.5183214648323615, 3.7010855676288132, 1.9302518836409766, 0.00010964684809122716, -2.184464552479575, -2.7015594306714528, 1.802085341891976, -4.070600002233151, -3.1839753303058416, 1.059712616448392, -6.85376800915635, 5.0950226724199545, 5.496093777551491, 2.663337564024656, -0.7948485172656612, -0.7035611943540216, -1.7913068165967019, -2.4946117686349973, 3.186387095597711, 0.9304451034885199, -5.65571217485925, -0.11569923117029635, -4.3586233579052704, -1.4736867461835956, -1.310664593521087, -0.2911484256750275, 4.29380385703095, -5.09651102790246, -0.6237876075840287, 5.606021076626918, 1.290032902547778, 3.508272351518162, -5.379052992231334, -1.582689826576011, 2.515154654150452, 2.064083535539481, -2.249547746968635, 0.3900542254928925, 3.16190644763454, -4.453853592062474, -1.4904492147360737, 3.6809728391631173, 2.2159466104567365, -2.627395439492974, -0.7447947570771138, -0.18555367484029228, 1.822234540502996, 0.7181641968401202, -2.202287611488435, -2.3427980662949643, 3.3175605712519944, 1.6147109756607425, 8.143512127315935, 1.245326641458858, -4.3882738030523525, 3.1481055540738296, 1.0152380494694193, 0.47555643398356673, -6.773251281258414, -1.407657490261382, -4.407596637059449, -2.942189029419184, -2.6989266153588662, 1.4419770392818707, 0.8415717929599538, -0.9172808539819759, -2.500070642335026, -4.758790635397228, 1.8883019094864455, 4.364574958718879, -1.4947084847129188, 4.303285818861632, 2.1741433877314122, -2.2314246475608073, -5.151367026327247, -6.543931978791794, -5.3525527573142835, 0.8213509274235107, 1.570105134213033, -1.0473839364756634, 2.2094900031189835, 0.2605149919989693, -0.00891693102909652, -4.8056159163141645, 0.8254533279091869, 3.9611533560425967, 2.9990877782895184, -1.1449711641930156, 1.4734999413790097, 3.6761092172065872, 5.334315407900299, -1.6327092841648783, -0.017635973834501772, 3.5479421172395664, 3.101393938329063, -3.7070836817972337, 3.769062405813145, -3.4081352052768574, 2.1380135301524885, -1.629423874869835, 2.9417527384520445, -1.7807260142355226, 0.2972007962544845, -5.083373160311374, 1.180945270875462, -2.655056988889915, -1.491988965513769, 0.17662570626496543, -7.253911247094762, -4.338962843449882, 0.6240085041813725, 4.484151168599256, -2.299280249314452, -1.9644444929872862, 1.9289291387069674, -3.20366686467704, -0.3667710799927659, -1.805687273299889, 4.832120657935715, -0.42644747435792074, 6.662299630022172, -4.9708485509661635, 4.863208113158517, 5.431505648403819, 0.6022646272903445, 0.27769842977876436, 2.067472454316607, -5.520911119168806, -1.8176242252281218, 1.0016133842483277, 2.4226602366279444, -1.778432674666223, -0.30331135437812995, -3.8491879334090973, 0.5463151186222164, 4.545336375546794, 0.26367981757990133, 3.899766390642193, 0.7793877736011765, 2.253652714464911, 4.129737320391447, -3.391593286199285, 2.3363509394508872, -0.563336746837019, 3.437763298470302, 4.167071371757886, -4.139882661137799, -0.01109557310311815, -0.527264232361981, -4.106589402627297, 9.58784299234602, 2.2200560168525527, 0.6654581340127037, -1.9217455511383812, 0.5695671553463808, 3.340255026676279, 2.1467401155277646, 0.1294178416649152, 5.278122828872169, -0.5019800974342737, -0.5881784816679616, 0.12755397903753107, 1.4094909241960902, 2.2033792179551996, 3.0791436596798327, 3.7672792911119313, -5.106241503532664, -1.105093941447032, -2.914432461746621, -4.202698715355027, -0.07071850967317606, -3.181411275455668, 3.5295328675605724, -0.16697093808328822, -5.329198544890479, 0.7312998318253165, -0.2437587510524475, 4.609689331190509, 0.4307881967115952, -4.111618480078615, -0.09707426392267304, 0.5353237169205278, -2.34987658176816, 1.9365950195230983, 4.238152405600307, 0.3973052950901417, 0.9408472817172204, 1.4776889851647703, -0.028679266431975492, -0.9790837601947524, -1.32700567780622, -1.9038947884400177, -2.605590957396286, 5.0223959657095225, 2.8738153935760637, -1.211171487312827, 3.649318648312036, -1.463749395109087, 1.4814270492501729, 0.7997596582521171, -1.9548580945569725, -3.050903561467489, -4.2572073657657015, -3.4747314476844755, -4.909201442817783, -1.7425623284031613, -4.975551752979254, 0.9782543243191402, -4.676357233885657, 5.289333700112412, 0.319224275493287, 0.6231245386709827, -1.7684629961881086, 6.650413481047981, -3.1127541388042888, -0.33830783420961996, 0.4563562072305727, 2.9591083564679908, -4.060247666466656, -7.095641055134038, 4.112567275386459, 3.8263017653504026, -3.7897798381799985, 7.768513619958991, -0.6444456821940687, -1.8702785349179245, -1.258396056281887, -4.130279960326847, 2.6488827428638335, 2.2443546209854337, 1.4369429130118831, 5.960165827792622, 2.466875981090255, 0.15994249017294626, -4.211460540998944, 1.2954927055751608, 1.8215076011923426, -0.032545676820154745, 0.7870208186773384, 2.096940367869759, 0.9078549369609092, -4.42172471739392, 6.057015999580834, -7.242853827659539, 6.046284884463268, -3.1537303932308514, 2.347444203732023, 0.6261542271449754, 6.384677807605007, 1.307854304637523, -1.8514136683792386, -5.187446192654351, 0.3144890452692206, -0.22938279274376616, -1.1138820622070977, -4.315209050453007, 3.5450485709126607, 1.5988474481932515, 3.1950550176585377, 2.7983859847428345, 3.1939108316734046, -1.5763957535590682, 1.6079112252850765, 2.0156252909658674, 1.9024930231474868, 5.875558952630131, 1.0934514490607166, -0.3914913892016407, 8.435298901512024, -0.4121695010645591, 0.563724008214459, -2.5412858932811018, -1.0380902352122692, 6.127801933723254, -0.8587435119072582, -5.376775496054419, -1.9785586185637687, -6.70366700553528, 3.517181344547639, 1.3153990034860592, 5.4675200082809905, 5.679000987089315, -3.9248141806293884, 1.684663401331084, 1.593825478842882, -0.1591291930844866, 7.8819463241380525, 0.7997015903844504, 1.4552353409348013, -7.290070012516381, 0.5309251494278948, -5.512579165220656, 2.8258299349920266, 1.5882291552583059, 0.49618758509781746, -3.810989627062704, -5.918447649851321, 0.036333886208484545, 2.324308483061351, 1.953629701964335, -6.324096843895097, -2.12610756567691, 5.79554030208191, 1.9825578209676689, 0.20615323499439975, 3.703358094111058, -2.8591550797631697, 0.16134732905829008, 0.5803011113876229, -9.751703007767034, 0.2618867903548514, 1.854979780142032, 1.6037598824181898, -2.3808809410358363, -1.8027423484486635, -1.4716831204834457, 1.6943667069882409, 2.4774364635920447, 3.1148813923100693, 0.8838440898285804, 1.9329495580761917, -1.100711486510119, -4.77553416834592, -5.847943944478159, 1.4519843503914656, 1.6968585586656948, 4.4668564682669105, 3.9862438727934153, 3.5582544520990833, 2.574851486892677, -0.6401453831424024, -0.6642503920505438, -1.8773269639521486, -2.2192074832635345, 0.029153323450984203, 6.019177147881235, -2.694233212963809, 2.5013835840658802, -2.8122877299201736, -3.8548636133230643, 1.739966476684955, 4.354578743774431, -0.24270915026598439, 3.84627189069629, 0.4536688406893965, -1.837681012111519, -2.0226381016075954, -1.1103142083479884, -4.288478322772619, -1.171839710774262, -3.576519481960459, 3.907418805905386, -4.780325874874046, -2.71260872159002, -1.0358031618860688, -0.08675950397069654, -4.345138764565887, -2.6581736208797118, 4.164518743174098, 5.395067353769992, -1.4905674018798951, -2.0148442874948165, -1.7659963715171514, -4.992350045024496, 2.2701357485406417, -5.069196787257113, 5.417939754213407, -2.3535274817315486, -3.899246927832535, 4.861281283363958, -0.9088443261181998, -1.1717283047413347, -7.885798967639541, 2.011735404818819, 3.6984385773756303, -2.215742751263177, -2.2355247565977283, -1.964795045272556, -2.86230974144727, 2.7503156027781364, 0.09306985416648361, 2.074857335945536, 0.7282805869611191, 1.284277529897122, -3.5025952023762956, 3.3185664614406374, -0.8003874998319166, -2.757920509855313, -2.0321886305093733, -4.146937790324204, -2.75102394001825, 0.3688255595240242, 2.7639719247458245, -0.316275524023768, -3.6404464533169865, 1.1469081300954018, -2.1730434915661245, 4.106483576285905, 0.7668217019853361, 2.58507369725966, 2.83746428871303, 2.2399124525046323, 1.151321067928408, -2.2196979552976153, 6.948707053451592, 0.9177159556535139, -2.2395242016126153, 0.330594247126045, 1.1382720844360152, 1.3238350524235782, 1.3578610295403477, -1.548001590487155, -0.66078811745912, -2.476795834164386, -0.4880945470504574, -1.8222249367072947, 3.7740133956006536, -2.7027855581613807, -2.0747307851807113, -0.464203206555592, -1.7266978360327978, 2.813608192134893, -2.022083026010689, 2.5207312294669997, -2.2041681171485985, 2.088010202122388, 4.568777124910999, 7.372896686712677, 2.205951978678386, -2.081146862847048, -6.924836590754365, -3.4753985689261713, 1.858555071512507, 3.96096315613618, -6.170617667456441, -1.0090881624889587, -1.0048155125132092, 5.845052706247428, 5.241171506144369, 4.386687563287181], "biases_list": [-2.8885169797503973, 0.3178172710116076, -3.3001179542063035, 4.324127046475797, 7.883315392847297, 0.8647580242333344, 3.2609270678211733, 0.24215811568841983, -1.4920306889907566, 1.2024654330382623, 2.762784367991042, 0.14204246856708802, 0.43763751810398266, -2.761112933485725, -5.507621523443288, 5.85514099875931, 5.84956566962572, 2.4367441126013967, -5.264320445628916, 0.6153587881097193, -3.3869850571892863, 0.36657202160253477, -1.008268862469352, -3.654074343439592, 3.4933610872505705, 2.905629475551314, -3.5229190906504964, -1.0232616231773624, 2.626054412070361, 1.6293517954390326, -1.1970689083794641, 0.5409775046538665, 4.473859305742298, -0.907588412528511, -0.5684971640433545, 3.9747741533092062], "shape": [25.842226412474997, 16.701464740812316, 14.378426224293829, 4.062302883504999]}, {"weight_list": [0.9002179922224567, 5.0922023116643516, 1.6488885462657326, -3.4670261312264286, -3.6330977710487584, -4.818803868786533, 2.9429403253641473, 3.007606772916268, 2.8506799098951126, 0.5725404084634502, 2.184123280309898, -0.656298540099552, -0.04108779601240142, -1.577584550201121, 1.1630306751329504, 2.9393872653041395, 4.235274636563377, -2.9479630562275903, 4.215245783901757, 1.5944960882186496, -2.0303544735716246, 4.583243010929707, 5.734310226611043, 4.1081939114302175, -1.3384092028147083, 2.1992181371263424, -3.9480917493388663, -4.113362991036128, -1.9273392020243933, -0.8959942138423795, 0.5622916001665477, -1.8973023792647907, -4.100933527786031, 2.4198032354731627, 0.19379676125093348, -1.6791000980404216, 3.545217999301995, -3.5403358009016817, -4.212866439314195, -0.417335299817167, 3.4148195750424435, -2.2196070612237104, 1.4306591049680648, 0.5172359178809609, -6.745964399244523, 6.323760185263964, -7.023684103306907, 1.1600953349787035, -3.2300926741124467, 0.5480139438382543, -1.9461917573985692, 0.681042326742006, -2.0758198570917865, -0.05899948326900373, -3.5529540751380786, -1.6223631255720885, -1.2748814557643136, -3.6943450718954125, 6.767964485094574, 8.650156178985851, 1.1885561000304707, -2.634547300444532, -2.67177112318808, -1.511462323702121, 1.1619840770936185, 0.38442790393273363, 4.997748882783191, -0.8704268801334187, 2.5076115635029548, -0.39788825755368884, -0.5671565956075078, -6.135998932058035, -0.48033267746560027, -3.7689466234026217, -0.37685564764903523, -1.0902665807012364, 2.6147475587127165, -7.014894970732193, 1.9030223555441736, 1.136044552087509, -2.944311558207539, -3.814240550152183, -1.7638962322187954, -1.8882624801006922, -0.7279870572749686, 2.8466334803606674, -3.1289153571646846, 2.025097105621454, 2.083026912986993, 1.5923704890970658, 3.186278558324462, 3.5430891883361992, -2.8654788353025156, -2.43203938653146, -0.7269240104648839, -1.3467846506195382, -2.211183041449487, 1.7316159914119336, -0.12313920045161475, -3.4079052615391534, 7.361220592571959, -5.089214861474923, -1.2948186048821377, -4.979092963618671, 5.990667787178865, 0.7641245678097306, 1.0853514256385672, 3.8037357367888998, 4.732341706558589, 0.9975518020605563, 7.536630964246193, -0.514131618652238, 0.9231283195585094, -4.1835098812283436, 4.564160595054326, -3.1225968690502333, 3.9602633932545546, 2.495938608837498, 3.4082644250509446, -1.0856499236334654, 1.5968380045485495, -2.718239533868262, 2.917491783564358, 1.1194595238419285, 5.749053738906836, 5.178422910724571, -4.766450402682099, -6.559983762828336, 3.231393570522485, -1.9669411025435177, 2.7562697253395356, 4.035505284329318, 4.217663135470457, -3.1774771019834267, -3.6413972661280933, -4.978842291202488, -0.08957033171357887, 2.010798580095747, 2.88472512279675, 3.8688145488397536, 1.0653275249931786, 2.1602866468598068, -6.6661485682321455, -0.14980312041788701, -3.3053736747211095, 2.670792528480245, -3.4672928213195395, 2.7143623982715868, -1.9830762120963379, -5.289505582279952, -2.178548096635864, -4.941427185145843, -2.1770492327790705, -0.42127639753503, -5.220281510048942, -5.842759252831813, 2.432547298315196, 0.4574774977204168, 2.7116365454373343, 2.8686275686982747, -1.0071513260133333, 1.8253178771628642, -6.873425901839819, 5.908486766754049, -4.746093404982616, 0.7834619820467843, 2.163945367029844, -2.9749205191747317, -0.11627130461848323, -3.853354737896673, -3.5103617411183716, -0.6545517434609798, -0.7451324731183689, -2.01139715059135, 2.308348030556998, 2.920100885146701, 7.616755384538822, 2.7011850434805265, 1.1332805574424238, -6.239324561326736, -6.022363055164584, -2.939548034255241, -0.7379383743132883, 4.199165067251979, 2.9821078976545246, -0.22513927057724836, -1.6508196537124395, -4.834703068183398, -1.6696710553987317, -1.148508824085089, 0.6107454262630263, -3.5116871091194, 4.767971433051732, 1.8535433148633662, 1.3374995492462265, 0.8804668491092991, 1.6410401250375068, 2.6354915686276303, 1.9235861650101418, 0.3652529033927743, -1.7037285019450144, -0.7442520980818628, 2.868599307679527, -0.3821970195333706, -0.7638208319256143, 1.8172672325721662, 0.36269567133333425, 6.0172903001816085, 2.6089232752204516, -1.3702688670428673, -0.18492081070690203, -0.16238402086532489, -1.5490769078994713, -1.5989065708486927, 0.780341315378775, -1.5933201562277466, -1.9160512641002423, -1.8466436478920298, 1.016698306177649, -0.330261244140043, -1.6798257130381433, 0.9918297420309679, -1.7004340061192609, 1.9641879719094022, 4.4249565668824, -3.074775620191491, -1.0486790131334471, -4.056150343168069, -1.0409309101904367, 0.49595614596711224, -6.177481369719921, -0.08569456978687984, -3.3460219372252396, -2.45311248798276, 3.8064995161066975, 0.9084158585696707, 6.3627681884807075, 1.912243621098856, -2.122167401510236, -6.467567775047425, -4.234747818354574, -3.6491241358808373, -4.770275135802823, 4.038049563344139, -0.5201431741506226, 1.6656987610146174, 1.7227229809987743, -1.4144314821489092, 3.0071067726365106, 8.75355571930644, 0.32797054319717045, -1.9448392953036582, -1.896662554510475, -4.5867229293150675, -3.246092667413646, 1.298882677926013, 2.356823341421838, -0.6582684831646979, -2.9616579931413622, -3.498440667714408, -3.1204376825109463, -1.4353462708635527, -1.7543438237106679, -4.2047073981782175, -2.9508165952372742, 0.8805533864365025, -0.5842770876274828, 0.4833962059395249, -4.603780494247399, -0.2395595772071274, -2.786838650278181, 0.899334831196523, -3.09727785990677, -2.503568230841419, 2.4171575019193217, 1.3167533830333382, -3.7759669982539172, 1.4437495196103636, -0.7059099824255013, -0.5491703101998625, 3.448902980460881, -1.3772884862052177, -4.597877185370156, 3.3586981457430856, 5.029741857064712, -0.7309314422501908, -2.251776116045105, 0.44346666527009937, 3.390184985306357, 1.9519470756932744, -4.452116386406966, -2.4365047634025787, 3.2626366755688903, -3.0833241368340634, -1.1402661194043335, -0.408177105019086, 8.403862194205589, 8.594448932011082, -2.1006263412141295, 3.274970587489367, 1.2459616934608926, 0.42368055781089087, -3.9703842908539837, -3.002915329925865, -3.505440406767981, -4.114176267322716, -4.0240957282853085, 0.2101232244078881, 6.211508348997372, -0.19791678356900577, -1.4165391004910082, -2.3845121217857597, -3.6137602490018272, 1.9679014972904816, 0.9209495248565898, -1.0899771484649525, -3.197710684049663, -2.1919539396767354, 0.6005089951122542, -6.020917576273913, -2.9400532787573965, 1.4769823993701108, -6.871517720775093, 5.016101098418126, 3.8535163636404217, 3.0652071096073987, 0.5422086121884251, 0.2604938802118948, -1.2028453277875595, -2.701960036662962, 3.6484070870061736, -0.007697711834692811, -6.163131587747812, 0.575492956742371, -4.8722604522075095, -1.147629139552198, -3.0045202658778543, 0.6156623584396379, 6.592362921762087, -4.833482276452234, 0.4443810317961887, 3.6270371845232354, 1.1300815677773755, 3.1091353113912676, -5.0921381610002205, -1.9233466280691598, 2.4229748472939496, 2.4534833824186792, -2.3468080909881204, 2.1587348631681254, 0.9363016065197751, -5.16019899868415, -1.9078920109853865, 3.3327515755563395, -0.41467902855972205, -3.320987916625614, -0.08913327654413572, 1.196928031201494, 1.8848651167725032, 1.8749600483596849, -2.3227503820548647, -3.7934693530907877, 5.278560526590112, 1.765787524701937, 8.482136551141462, 0.1743345426664833, -4.341452102475472, 3.9235317357009913, 1.2474073714585892, 0.3667806839326688, -5.983209333918558, -1.9349920728634136, -4.558929393771076, -2.55303731623889, -2.8985518244468773, 2.1978731085023737, 2.7878107765890885, 1.160020451021694, -2.3188515305505257, -4.713067538125991, 1.8468359186168959, 3.3575801348795853, -0.8652259500750784, 5.818072172735117, 1.3365409981804337, -0.0011322838079776965, -6.316848280279779, -6.740733840222442, -6.063685568931879, 0.1394567318954758, 2.413113793202215, 0.8802244042679539, 4.03236179076828, -1.512467266684154, 0.7005441840159854, -4.451614717699532, 0.711105138860836, 5.369587424638507, 1.1775080884653568, -0.3396724249492934, 0.8366823527246439, 3.7691402476577816, 4.980230899636737, -2.805176365251494, -0.05920474076399673, 5.0969184199054185, 3.0483720628699773, -2.71828626421721, 2.4472505823652333, -3.494484908529798, -0.09871394758504481, -1.4794197575059296, 3.076718459888003, -3.610110090895771, -0.10346064832075785, -3.8149266393029926, 0.3245616028322649, -1.3517410989038896, -1.32448064769893, -0.8099026126173755, -8.23884768010976, -3.5114043770547676, -0.25791514339108257, 4.440615672018719, -3.5557748269822427, -0.5806955918973147, 4.486544899440039, -4.996517478268136, -1.009737828145332, -0.8247167771640391, 3.4675661487728, 0.145343398761133, 4.456982881303668, -6.620731592008482, 4.9393733777091855, 6.681139823720475, 0.20269220320735237, 0.32321978758355874, 2.1505681076761007, -6.101585613114965, -0.8275586623482127, 1.0689125572396754, 1.663335941887194, -2.405140649610102, -1.9016138501603561, -3.1631760806489067, 1.203582154190332, 4.111213086574806, 2.075257896696951, 2.6043411160485848, 0.8125291032699775, 4.618630288261436, 3.0507746535792055, -3.7863335949470915, 3.451484718889903, -1.544265270690196, 3.924516736117532, 4.2563715680889, -2.330691112968557, 1.5115370759541609, 0.5017602286415261, -4.918801630031847, 11.099886737320213, 2.7315128692110826, -0.349068631914092, -1.025383322481226, 0.1937396896770054, 3.524545688145606, 2.8142519217463264, 0.527707563233218, 5.03388190611824, 2.539939291783039, 0.2039755251409341, -1.4342315021086205, -0.10711217303311349, 1.2334092524605138, 4.441375449155508, 4.70958283529176, -6.343785753637688, -1.1189944701078498, -2.471830806076089, -4.660229983698667, 1.847630614616341, -3.2117071978600977, 3.946878448014915, 0.2242120787125117, -6.245204098582595, 1.0604961292918818, 1.316025786744056, 4.888510894363913, 0.6585935684537452, -3.279158483922232, 1.8813473669317746, 0.3155541327911666, -2.518336802572928, 1.9452620381787122, 3.7025410074207414, 0.014914233003659572, 0.5453248357188727, 2.287796663865235, 0.29366463770256024, -1.4347681494450777, 0.5540559919412318, -2.0490697023301543, -1.818460890204939, 4.642531829119863, 3.0453019734769136, 0.4400413503132894, 1.8085363917579786, -1.9510277498452189, 4.259173627798267, 1.1284055899230943, -2.0207549583187956, -2.4089528803678544, -4.852467572062944, -2.0362839853590664, -2.824172235846303, -2.335232582886248, -4.288543778520801, 1.809144520603132, -4.833157223052742, 4.342002129612188, 2.539670868037483, 1.6835413054233541, -2.9701883803884215, 6.543047011266776, -3.1601246804945884, -1.620858454148744, 0.552202187406373, 2.476584346164967, -4.699322934112327, -5.828366683440117, 2.757276830533036, 3.881619771874403, -4.512986430891826, 7.351101507050847, -1.0024017891876158, -3.973275075155118, -1.69591183050431, -4.715044207076631, 1.706540679167278, 1.724051698596761, 1.6030478923800846, 5.737744976306927, 2.1271087408385947, -0.4367934198477865, -4.898448023673812, 2.626211239513588, 2.230392169083234, -1.061841324860556, 0.6470083193270404, 1.9849858121424324, 0.17611721957117799, -3.762396404020898, 4.933424915892273, -5.847479803193643, 6.1734820044265435, -3.59119835004467, 2.700696582811225, -0.2837783959253779, 7.4034438190210246, 0.6278621956355024, -2.580210768236027, -5.373397761470575, 0.8149015305298997, 0.0845399896286021, -1.0167745028544173, -4.828885203864326, 3.5161079374534765, -0.18371858344849368, 2.7967023130547783, 2.7863252854494984, 1.5452913747891435, -0.49751141498861395, 1.132623330568582, 0.658796026327015, 3.0446427065437547, 6.21469931004641, -0.6930952606247825, 1.3782468004911799, 9.613481172546214, -0.6825850955605463, 1.0192638612606864, -1.945623041079497, -3.1607040393186554, 5.128490943128035, -2.768689985695956, -5.804923392901961, -2.1986158699354155, -6.138129599466176, 3.4567347601024876, 1.0596439570543779, 4.691360811143048, 6.830462591910917, -3.3869817865206695, -0.6158310155201769, 1.5451222908519497, -0.3138301984244569, 9.552266311136751, 1.5962407474289155, 1.9362650357726992, -6.839983856622776, 0.4927691501859963, -5.36410341021103, 4.127144935603995, 1.9808704805117512, 0.47173931413802106, -5.817342127834734, -4.491817496956269, -0.4213406765892589, 2.7930804367656537, 2.789538440294723, -6.316532237529108, -2.4743251224045855, 6.957430646965466, 0.9921999301385713, 1.2299269828708579, 3.64276564734692, -4.0254970948929385, 0.30684613954314366, 0.6233674615603686, -8.904518301793424, 2.08198224801598, 2.430459056559778, 2.4017967826235456, -0.7613563537484145, -1.2827869778717036, -1.8839785388285708, 0.7168755485114047, 3.6354887510190874, 2.103683833039903, 0.8150352153706732, 2.9591448580290116, -0.760694781731063, -4.3994549848947795, -7.114961175006414, 0.7664803565883207, 1.573793785872927, 4.445238242402068, 4.44794958744252, 3.7874463606474222, 3.2162998374571146, -1.8023634318149342, -1.2047830237449613, -1.0040500783742634, -3.164655624514965, -0.007722054612736118, 6.245349849116961, -2.8104503549634625, 1.8629397944767625, -1.2852803904050538, -4.433735207572054, 1.7394462997912337, 5.526945945502455, -1.63252075678457, 3.27458261885832, 1.7184407418065755, -0.4448790994512851, -0.8246885017650498, 0.6393435396446638, -3.887898445869148, -1.1565878493272155, -5.763572892932531, 4.469009671842986, -5.263251723129185, -3.6347450939362167, -1.7777491585028278, -0.12649353099069016, -5.064727019712225, -4.6254218994490515, 4.247087305756646, 4.888315345354963, -2.2442465237807747, -2.749939633466766, -1.963781873695549, -5.144982351785886, 2.79088137945702, -3.79358752583175, 5.258809122272479, -1.968929342964145, -3.6771444295938274, 6.838627928867591, -0.4744611163685708, -2.0468106891207807, -7.318362108678384, 1.5415377662569805, 3.1650775233096216, -2.5125093057616907, -1.330604223873447, -2.802131120884485, -2.1319381159650304, 2.472347165091729, -0.6842238155541607, 1.4393953509945816, 2.109575340761251, 3.678100739049972, -5.185792163336297, 4.596384503436303, -0.8289876269733201, -2.831592187766859, -2.1509766741561593, -6.401132487795778, -2.6361111598415228, 0.9246497713656365, 1.68990645425832, 0.3545948253580349, -2.4126715600570847, 1.618648359229455, -0.9519326564796329, 3.950189849071295, 0.9982373037375236, 0.9244035203757512, 4.756244543766865, 3.745117122736711, 1.9412789660099161, -3.428859361856788, 7.080149744898305, 0.04395315032098024, -2.8134838008391028, 1.7384524471360008, 1.511989341401394, 1.6259856029546667, 2.3186619625262503, -2.5654168041630876, -2.032802324138287, -1.5022691642485426, -0.7398550794089397, -1.9092947432732044, 4.0326954386269875, -2.1705491749267525, -0.33690798713549763, -0.05633912179250966, -1.180621959294895, 2.7462109562509105, -3.91619661818081, 1.7227139351677274, -3.000294207784334, 2.8523472493980147, 5.215114133591613, 7.875579620608114, 2.0568091460978137, -1.3519956589305127, -5.366422823468931, -6.525551950447143, 1.2282726676538775, 4.858362132896096, -6.024311571545741, -0.9584761772200283, -0.17241742300332774, 5.349696865636594, 4.957555168553208, 4.637957849235216], "biases_list": [-1.8191766131202467, 1.3469954598180327, -3.622928825988586, 4.206944885984255, 6.307282478075152, 1.8286679746910761, 2.978673656579136, -0.11318930562469864, -1.9627930719312576, 1.0070445415247624, 3.0602275650619237, -1.3660463857850127, -0.4494578026187509, -2.490856409149112, -5.4667938091143995, 5.064853601012127, 5.501959750224137, 3.900620817884076, -5.615131809557185, -0.24505462983646753, -3.764879673948582, -1.0732536892733744, -2.4703421265754626, -3.461269650700071, 2.5402555195856316, 3.2354072223732064, -2.4097561921694846, -0.18369815250808508, 2.8152212636828198, 2.5749257095298352, -1.8578742104812493, 0.8935673003926552, 4.961006491885329, -0.3586085486567213, 0.37133215089633276, 3.901752114585433], "shape": [26.547210148200715, 16.862794350896586, 16.428761182596958, 4.369185064376302]}, {"weight_list": [-0.0008175665524412512, 4.663602310999777, 0.4953427563469288, -2.472550654743979, -2.368464127319379, -4.948764072621548, 3.918564627162982, 0.7256180107603607, 1.9513384870002701, 1.837408776379847, 1.1023934401513062, 1.0867582354898335, 0.4784202544411764, -2.552623515266135, 0.6380612793783866, 3.99949798490581, 4.170329213607043, -2.2843507246006465, 3.3475532778343453, 0.5726294157797378, -0.30967882949354353, 3.682101962136012, 5.206755195907551, 2.3820760864894894, -1.3692044489460715, 1.4303466084936982, -1.2799078218473956, -5.3470334493916996, -2.9571535074595476, 0.014884102620730033, 1.2743546300539284, -0.5354054588209864, -4.802275362541704, 0.4160579302716483, 0.4925400006702354, -2.8134168244386726, 2.343351136508918, -2.4436744192690445, -4.921976074180321, -0.5805192842122975, 4.019688339843346, -1.9264553117450394, -0.8937058347901031, 0.7687570624486382, -4.512020977598564, 5.602261417686258, -6.100955017354794, 0.6753733113707416, -2.8498554050063385, 0.4478134140921053, -3.5546665312501764, 1.2317618253256586, -3.101793080584332, -0.3822292118022931, -2.3185674234700038, -0.06817593571557967, -0.5459054702638899, -4.940811422541943, 6.0175004418341755, 7.473946386378641, 0.7906795472334842, -4.205828459405495, -3.8208643884062456, -2.1565405996074247, 1.7272438379817796, 0.8351022142669029, 5.607251128767247, -0.3479551275856221, 2.0389448985890564, 1.0816312904517487, -1.5554220659869222, -4.630261447422215, 1.0707596564388178, -3.6882103799300037, -1.8703458790799952, -1.6291023085253535, 2.9284328739573704, -6.238304245756861, 0.8993884784157229, 0.6037774981300044, -1.5785656063509856, -3.1769764525116684, -0.8355021980427466, -0.3719074331038288, -0.46714581669115285, 2.0396373361361895, -1.892080488243552, 3.1377691987971605, 1.988348302336381, -0.7341572785924486, 3.413973942626293, 2.9814031898708446, -3.584107548097241, -2.5284163140906792, -1.0412014982171884, 0.15360869531838972, -0.5722422011266606, 2.7038728695300294, -0.2344327386672248, -3.704167999949365, 6.508730290233896, -4.385274551157505, -1.3234708259859214, -2.551918065308156, 5.878255636733729, 1.7722149058725636, 0.9723886731779519, 4.167377140845948, 4.2627602672193365, -0.7899390846432363, 7.196885111718414, -1.3937599088057366, -1.0119493279190106, -2.9276368296659703, 3.320336363278889, -3.9257216626392637, 3.8310936432534017, 1.9951679769756265, 3.5388923383722375, -0.596357578274457, 0.6450776429670022, -1.5681599113868712, 2.6012796378742564, 1.1275086363491158, 7.392586602160064, 4.046022470972627, -4.040170748609217, -7.684147651701061, 2.329434901183827, -1.9824385892127114, 2.969278955774807, 3.734059595233946, 3.769590322355203, -3.60956036585631, -4.509086924876149, -3.7443936746925677, 2.7966548734931536, 2.0217017464054132, 1.3987152094811686, 4.81021957505576, 0.7153763096152974, 3.231478535269053, -5.786493096671253, -0.6070853368172118, -1.9664721132203424, 2.9810198597041566, -3.1275504672668255, 2.200471109267772, -1.2217267099718492, -6.375199483688142, -0.5124206985257204, -2.825075902553425, -3.6142715740181295, 0.5934329503957434, -5.086782546332431, -4.547931421771825, 1.476856577620378, 0.7811049025908099, 1.900640008219895, 3.5844626898069345, -1.2079808802444532, 2.3954739373327345, -7.236862646773949, 3.9765009829193465, -2.2923246035543827, 0.9321235240074794, 2.2332064392086073, -2.796071533332464, 0.2708376290127683, -4.2401127171210184, -3.4866773202816645, -1.2100412927817419, -0.04987374341472339, -1.9274931732591318, 2.4421699639515504, 2.781016011696506, 5.73481997771696, 1.4666973857975307, 0.2619588469083989, -6.532997617608987, -3.1834512474996535, -2.4769274774945433, 0.9176985952005301, 2.919529720620086, 2.9009841050659206, 0.2025632648844331, -1.2228265862383225, -3.957663771310984, -2.78857227952603, -1.6400293028861825, 2.235465236057941, -4.9183518171047425, 3.8535611374075156, 1.6838722230496224, 2.0467566186570103, 0.6152729062778537, 1.9085601448197789, 2.5710809088333084, 2.5631928765087806, -0.9021994826210642, -2.4349587706128037, -0.8162564321380256, 2.964734163227318, 0.780435535878133, -1.5050404516272577, 0.9866969499359111, 0.1588154266010613, 6.933227694230068, 2.2555019727604835, -2.411395658609299, 0.8043533418888398, -0.8528474471063683, -1.7585818385985441, -0.9834915723674074, -0.18354263746084443, -1.103203534244916, 0.01596179531857178, -2.151614558601837, 2.5375293285915665, -0.46821652559113847, -1.6200797977774235, -0.07790941693963238, -1.9895485112989022, 1.537475574278293, 4.4773743147680545, -3.184720840949093, -1.8599087756223063, -2.90313848526655, -1.5333977803212986, -0.980787742201264, -5.009117825605975, -0.3434146970138485, -4.935317890882622, -1.6522227992716036, 3.3890726167975433, -0.3022316768405662, 4.662723023174469, 1.0729184303078672, -2.7809984422448535, -7.365531779709638, -3.721221373619933, -4.336331670126399, -5.113056835877386, 4.71073883810135, -0.667819856786727, 3.0974819555145867, 2.5047776006407525, -0.650346183369005, 2.278252369432872, 8.392117485878638, -0.23938724628421382, -3.6666457789151714, -2.265450551567981, -5.099406609582485, -3.4009021629407616, 2.178160035878376, 2.5575122648192297, 0.26728533498272977, -3.053937603001128, -3.7226102848683498, -2.5062216913003432, -2.0083458695598506, -2.8439165427015087, -4.7414249050214945, -4.616087700991291, 1.2887515889870995, -0.20462083162089462, 0.2923136414240346, -5.921695196166553, -0.16565700253524573, -2.847293873508312, 0.12349429106048748, -3.1579078110368926, -2.3566913741969726, 2.485396642354724, 0.5216490274685233, -3.1683516867084, 3.2701191378776446, -1.5782350319486116, 0.09362588240041703, 2.0380136079765734, -0.6925420491818939, -2.8820014914736634, 4.79973923034254, 5.069114572571259, 1.0329537311634067, -2.054196370943527, -1.2317446103077687, 3.5428145101293413, 0.04494534929605187, -4.443249649557966, -2.440162692877081, 2.9973519449694495, -3.6063726429079384, 0.21515173052350112, 0.4690542355374676, 9.84793961752636, 8.48015874891233, -1.8930561769174001, 3.3712568230106594, 2.6000567316916365, -0.11007752850689567, -2.4863122749307545, -0.6204841075964185, -1.7194164239598797, -4.074177825116572, -2.6100190904010168, 0.5987076933225561, 5.444062456593837, -0.16982921737144774, -1.6334784097677832, -2.773039392556899, -2.5934420618391947, 3.1395637689921454, 1.8309405650539192, -1.0285825502956834, -2.5708714898844076, -1.0738064260060867, 2.0451057267565735, -3.6967328277114717, -3.1910876260040753, 1.6042599779843805, -6.872931230752563, 5.225248578723398, 5.35916225692613, 3.841490855662358, -0.5738717838660287, 0.7094686079932402, -2.245100880312412, -3.6077173320946914, 3.859708507018187, 0.7710276707510837, -5.752037588210586, 0.4414851934856916, -2.7410430530188883, -1.0154975572022997, -1.7650582893345892, -1.73654957301587, 4.838412255234969, -4.802953180831928, 0.6803642194575512, 4.749556567734485, 0.3589803132471827, 3.469552903521567, -3.9582047995620933, -2.7528217132961936, 3.1839209670027664, 3.1054262372609927, -2.077122631336879, 2.0554283378554543, 1.89804401570058, -5.198709643059783, -0.8123019641878464, 2.8245839888094086, 0.8968101282940069, -1.941331530318082, -0.5089376109317341, 0.7437056126692849, 4.160102207014413, 0.9493185434412055, -2.1886899327986415, -3.146039137489848, 4.274466146068195, 2.5997298516272718, 7.619748401311849, 1.0508521056775768, -4.941169340105462, 2.2618529098228004, 2.8771122439021983, 1.4384068196463682, -5.237840850597143, -2.156871757051374, -3.7918297033259005, -2.2147512074533804, -3.207823205323235, 1.672935427848829, 1.032823746457595, 0.1899384270024873, -0.7592668337089625, -3.7003775906482783, 0.44676062092604996, 4.336236970474877, -1.4089595836429294, 4.008098721442309, 0.7494261203381007, -0.40416130414934015, -5.197759756573602, -6.664065096752939, -6.250168144050804, 0.7569871399623835, 1.6071366711993575, -2.269117054273254, 2.6717164689092474, -0.6049303095741573, 1.1121119089440001, -4.486095391534841, 1.1357293032274631, 5.448116022956375, 2.0431965741894382, -1.8905559634201257, 2.4090277540004204, 2.0516909060031074, 4.8651022415314475, -1.6308345664689785, -0.5827533229195165, 3.9376723779097373, 2.676681505709717, -3.0354155139738355, 2.008870154457874, -3.501586679452016, 1.2915238928827582, -1.2987153786312244, 2.780316886681282, -1.1956259662083928, 1.4084279039859728, -5.336550399911175, 1.072535613734758, -3.1461588755037546, -1.1295922168122756, -0.41150424120580764, -6.0135451494935745, -3.0925882368123663, 0.4759298725932748, 5.569918961436563, -1.9211752858877198, -1.0290087411954842, 3.4018780850196366, -2.9924040432944237, 1.2794958101824294, -1.8160591818238458, 3.068881976628825, 0.20646939076710247, 4.7461712877312126, -5.387466633856141, 5.439506451123769, 5.678473557094225, -0.37716392591994796, -0.48435906293606035, 0.929564141959305, -6.7451505632870985, -1.5257986403954702, 2.267396978661961, 1.983965221381804, -1.2616892675932583, -0.6003534506619863, -3.198133215838947, 0.6429065587094138, 4.934844664787136, 0.08445369990472029, 3.062642163646613, 0.88483920935218, 2.860361848944966, 2.2872832629812607, -4.683912498643374, 2.3243055647549484, -1.2798864143228608, 3.743140316834168, 3.0949625830577894, -3.1422485458996245, 1.4876186403511138, -0.5758910800844765, -3.055422102106141, 9.262959232418236, 2.5073291317024116, 0.91084653600449, -0.4189420646109019, 0.29643788959257367, 2.3927655004284576, 2.6589649333285923, 1.185293543369141, 4.9023023797864465, 1.7197364396409363, -1.4310886090781185, -0.9631387707287279, 0.8704069860857924, 1.3493426664119585, 2.7904106366897334, 4.997466657766362, -4.991824623193894, -1.8194501838449424, -2.9229653027106073, -6.079662372766463, 0.130686535685681, -3.3545537572416024, 2.4501594512058764, 0.5501071098222783, -6.5590004223367835, 0.32894116771217763, -0.48151850155951026, 4.5129379448589, 0.25991438694747604, -2.598712549690239, 0.22722231918169977, 0.7576644152482714, -1.6149129766298471, 1.3986716360652647, 4.461101643161009, -0.005690795283301964, 1.5281689467942345, 1.4737546735829712, -0.6159346808169882, -0.7101627292359416, -1.5079147443552912, -3.047920107258451, -2.643554832643805, 4.627787421760657, 3.010334415960302, -0.5567225745335989, 3.7135337071469046, -0.454836069746988, 3.835729003600175, 2.7540464887188714, -2.22344872505177, -1.5863494310413002, -3.0914865663855977, -2.496900436963114, -4.6651888082974455, -2.135201147737006, -3.9124348303710663, 2.0331526066379277, -4.90780974031237, 5.890268505521745, 2.280978280980227, 0.3669507167806638, -1.1845078854835485, 5.411381866290306, -1.3479808982973398, -1.8207343081061218, 0.10172654251934254, 4.273122242910833, -4.189086931628087, -6.129096288724598, 3.7060856550052765, 4.578069353231128, -2.4672182417254556, 7.920919009834721, 0.06822479527536496, -3.1208898355223322, -2.977564296189765, -3.930819864714815, 3.6546645443508936, 2.7259437097768977, 1.2965850774711862, 5.541164446903643, 2.833336005129884, -0.25197842235543366, -2.9852992137565284, 2.7543329882969054, 3.1060539083574827, -0.09358183631155859, 0.2183782276892101, 2.583033142524272, 1.345655245820125, -2.6052710401476364, 6.577385201698776, -5.077837975137662, 5.701071291607544, -3.048179776522776, 1.9651717302267295, -0.6507119416856252, 6.057214704921041, 0.3275127888567686, -1.0869682145196666, -4.759426180227819, -0.7439650032407947, -0.8747676085362608, -1.5714596000444276, -2.932367112363016, 2.496229481941367, 0.9876939928766748, 2.214444081293052, 3.690603945846097, 3.327227873232812, 0.6247593442470833, 0.850980260933907, 0.45141061905676816, 2.633769168074371, 6.082338950168779, 1.5948654116667256, -0.9417852732483409, 8.891103157752344, 0.6911780652084247, 0.5285067781811112, -2.3045506186631877, -1.394204830450005, 4.882018995060271, -1.0951683497345508, -6.792284580287343, -1.8665862546120116, -7.527367075660321, 2.998860153003011, 1.4152949776203596, 4.750461101202434, 5.8874847870885905, -4.599021095549725, 0.7798220530923841, 1.657412771909569, 1.705537518914272, 8.116771703249198, 2.28712074573419, 0.1822324219386977, -7.814668414945921, 0.10745946413692486, -6.613851512181964, 2.8543558477134843, 0.9614485692835999, 1.3222177643485744, -3.9463386189150915, -6.219805047418612, 0.7721476560056986, 2.3955619718060746, 0.9408793949845329, -4.869576587709988, -0.6921267123596151, 5.827848296500406, 1.4392299284334964, -0.07424993494149179, 2.1515670327751564, -3.659034959742921, 0.41656249243028753, 1.5640579800796042, -10.723220909510404, 0.590118959111346, 2.5278549423176164, 2.2802283769542546, -2.0873530560073883, -0.6113491793674705, -0.09887391407261525, 0.7282289040304837, 2.5437993138906476, 2.38196605641253, 0.10799978261363385, 2.6586255683354776, -1.1517647013357954, -3.366083088375694, -6.598246329829454, 0.9010706166071347, 0.9670963022183503, 4.197784732183122, 3.0982902309197, 2.4468517578515345, 3.040528293403815, -1.6549459619928313, -0.7857240142797033, -2.3153043812492093, -3.3952354781932996, -1.4160181441107567, 5.233750819414197, -3.5017466901126566, 3.8816605189398707, -2.0009251759921076, -5.20753525990703, 3.267080538205507, 3.7397182291114524, -0.4991456634187348, 1.9104771428136815, 1.5309823272342888, -0.9647613906797206, -1.010581985386485, 0.49875959332613684, -2.4042681142715354, -0.927365214789794, -3.268275675370686, 4.3782629115181875, -3.4569948115978013, -2.655833672717766, -0.7109971025580665, -0.7804868666895561, -2.5337797398095487, -3.494548240129893, 3.560198753891793, 4.823861185156517, -2.8526384617197085, -0.6762222713919663, -2.503973799973128, -5.622019242926143, 2.5086481584371576, -4.732652705524279, 4.944016379158548, -1.489442301531169, -5.220591544167468, 4.427804542855495, -1.6393747620044639, -2.3811272099341347, -6.046298213658366, 2.2011429851501907, 2.5176173616570416, -1.8052624107913422, -2.2650940388261676, -0.2944378289432019, -2.780519255908801, 3.93006390460957, 0.3670194822036532, 0.08101208179337815, 1.1578693698938682, 2.498540740236737, -3.31015045060624, 4.578413118428289, 1.455133038527622, -3.05819707881985, -2.8498430695166634, -4.648235752693014, -2.3260863510550513, -0.025143855782516433, 1.9786933043901511, 0.9348210888461934, -2.4179502453181705, 2.3672130007145804, -2.760961477793642, 3.335684119554476, 1.2102626071549492, 1.7101168266637554, 4.328626917057309, 2.2121761735775167, 1.997694711444903, -2.6205851072858253, 8.160595026851576, -0.37874631685075366, -1.8025711269033002, 0.1059787229746616, -0.5254582926145532, 0.6556766348596552, 1.9189825602628137, -2.8910105357831193, -2.2478845254008, -1.7072333440736682, 0.24336576988142689, -1.7628074333522692, 3.1899538489752466, -1.7688616442790603, -2.2938313902965906, -0.2568542076292397, -1.07365752237952, 2.4635293216760754, -2.8933192360355573, 1.2637457454652123, -3.7608854349004375, 2.801842607626098, 5.622735982443576, 8.707638571991648, 0.6344085591786561, -2.355085237284555, -5.650463320924404, -3.751193407456075, 1.6799409896901896, 4.207033520796152, -5.10709593674787, -0.12265197572996434, 0.39021577187372136, 4.913844900493653, 4.757529050426063, 3.0204509489512485], "biases_list": [-1.785218219693517, 1.1381331319652208, -3.221450265893524, 3.4465595992321463, 7.123829957621934, 0.4331208022146975, 2.8740535418452593, 0.16441521340663834, -3.2281878525622076, 2.4429527337966075, 3.0270979649247876, -0.2212750955467896, -0.5665179437146751, -3.064351403137737, -3.1676384125300645, 4.957579405393373, 4.277620845147313, 2.164855322190075, -6.637994001228699, -1.1766875162276516, -4.2315565041249865, -0.9748492791813572, -2.6294980504570242, -4.2783076747977695, 2.924667360916682, 2.659589668727588, -2.9431008018962617, 0.4938999476987094, 2.2505944589305535, 2.603015787486357, -0.4118290633628512, -0.6107863338043632, 2.972703022477522, -1.4088745387159272, -1.6949246730313763, 3.700647949993961], "shape": [26.40742236601757, 16.6703240385665, 15.876073337179275, 4.723781032836522]}, {"weight_list": [-9.703229952708813, 2.0902648497291842, 6.839349138967567, 9.643139231528998, 8.45680227839642, 2.5416518862339093, -7.549569203976077, -6.320615438933559, -0.9780989403646689, -9.334213578512134, 2.3549328205881555, 9.06134537933674, 5.84628021452305, 8.189138538495634, 7.913735588413331, -8.446446085358872, 5.239389231818937, -2.2119269719361174, -8.172256168722392, -0.10763441035447485, 4.040604173125843, 1.08618729820531, -3.0532511744578557, -9.360399806250035, -9.336446466035051, 7.766088262438334, 9.384859832156017, 8.979619897838528, 0.022884970005865313, 0.9463992669663757, -9.068705064388364, 0.1005806066018522, -8.452559801554465, 4.652091230674708, -6.481378963927325, -9.729137561938195, 7.804624254963034, -8.064769728584428, -3.1862693581702146, -9.62336338823887, -1.132233597420079, -4.511740907107504, -9.142334109403517, -7.228188432977378, 9.93638717331357, -8.065780412185395, 2.816205847628284, -1.207126179907231, -8.830966974599717, 0.862416824494316, 6.279110726182758, 9.414777267375133, -3.9247754666870938, 7.822097456010432, 0.8881511859396447, -0.5635364900602617, 9.672159314446564, 2.583666581298324, 1.78029092714584, 7.6123248077921275, 9.23395026408932, -7.699366983635636, -6.277808687716626, 0.7835758294383233, 7.363966219602609, 6.23567487868597, 6.28230829904528, -6.377063690186883, 7.4113672092509475, -6.311350686637782, 6.262030694632543, -0.8331135120887332, 4.761996902335369, -2.391992026533143, -0.8008196427792935, 5.125151711877079, 9.258668068215378, -0.7009738655845688, 8.900407527374856, 6.5573070177316914, -2.0307050196747944, -4.807875809960267, 8.108606891474707, -3.1852980840653, -3.330597596427012, -5.738417407506933, 5.962889615238392, -8.102989777869347, -2.317535865132905, 8.964240181957038, 2.7999974806526033, 6.019672479178411, -6.311032241141787, 4.157031415319674, -1.5957317562038558, 6.146147269147654, -7.105249537258715, -0.9702659345014037, 9.880498944733962, 0.22395094411950467, -4.869204368439377, 5.850520706527988, -0.8923430830859118, -5.7140980145567415, 0.06345869044539398, -1.931657404118294, 9.938723745774304, -2.4288128014691512, 2.0203797817014575, 9.083754845918651, 3.663884174633086, 2.8695563682537983, -0.5642594172164994, 9.6066976655462, 7.054894951748164, 2.0726247786981453, -7.966712647595447, 8.76173065684657, -5.653629307648094, 5.397270756351862, 2.6654143810163617, -4.476662421268056, 4.59421713886513, -9.671442049835083, 5.697846098445332, -6.036886768683614, 8.527627647334587, -0.6458691831245211, -7.039226626583095, 4.335499109431817, 3.8255443231637365, -1.0593898988333486, 6.5762883874595985, 1.5512798886913117, 4.371755420709496, -3.9789732776484232, 8.819042912980336, -8.771620522978768, 9.339658694469367, 9.320905774706237, 2.505829378583952, 6.637187852685088, 4.427053556243635, -2.5450520238489593, 3.2906229046909488, 6.234414955073625, 4.730208315250902, 3.676732009709829, 5.761928816799012, 3.712472766296653, 3.1449380803140503, 6.234733185468556, -3.203827044126437, -9.093994473112568, -6.510089795175493, 0.5412249977739307, -1.1855747250135273, 0.8380350594096342, 7.2200260839564265, -7.105586825223296, -3.812457894709218, -7.115976599795976, 5.488757076352552, -3.1958023115019696, -5.6644558622349965, 0.9409122619337182, 4.013710223609248, 0.4932341558993265, 3.1085379819691905, -0.8516716851538071, -7.777007473327899, 4.095001872483117, -1.9913880694556632, 5.804795955361808, -3.1440913335591025, -4.764827066230297, 2.2892203232971227, -3.354772027078255, -7.362360543085796, 2.726708645056405, 4.9449463763253725, -2.435226900499372, 2.528906767788289, 3.149167569658186, 0.7839107282890012, 2.322471151480677, -5.008245630648897, 3.2646816172221182, -0.2927267520597958, 5.323341320062255, -9.132752720970796, 1.5530330083924362, -9.321070265367013, -3.534995162677072, -5.521487683048454, 7.782115406338093, -9.574785344699459, 6.7682858081242685, -9.54898024388551, 9.711945815154081, 3.3799167725464656, 1.3063645527964436, 6.319427492944676, 8.580695780094352, 0.5828833212317956, 8.729519392874952, -6.793623709653948, 6.092897396469411, -1.6343711610270688, -7.385871262775097, -7.259255733979422, -4.667320862227462, -4.731921089797537, 0.012816090419820014, -3.8160494973992964, -7.412603356859082, -9.877747575496361, 2.928411246736758, 1.8466831883544685, -1.531453413540154, -4.505597792007869, 2.358781897188946, 3.1325602169586233, 3.701649458390083, 0.5099517914562384, 1.3834650256252807, -9.173352095750793, -7.0260467810044736, -1.9099193114878954, -6.545846639899031, -1.0949875641860203, 6.672255742924538, -7.78689875612403, 7.7638181531859765, 4.3025067717089716, 7.972080949210575, 9.623446961365328, 9.016016338749328, 4.156056445428495, 6.229512653836295, -0.6510005751846375, 3.8947193022794373, -0.4128215756976097, 7.859956809761009, 9.208609037044116, -1.9684667433308238, 2.8386202685266504, 3.512710011167089, -6.199360065173689, -8.204139121495022, -1.8166412701758698, 0.5702990518277584, -7.359068830538287, -2.9251330149326016, 9.065365403220028, -3.5724945604087077, -7.176738200555799, 4.6353164086946705, -5.950198795184328, -0.12085245810332168, -0.18294973225547295, 4.357953333980918, 5.501274500014432, 7.402468321890517, 1.6442720933327557, -2.0469658936395607, -3.2818914198971827, -5.598456320704905, 8.898451009702978, 6.590704823340097, 8.889111810791139, -3.1243356717149817, 7.312996916223717, 2.2003471018322287, 6.158830671387925, 4.108028457177561, -8.568018682240028, -7.42441926003969, 5.629218848005289, 3.8990012824164744, 7.819072041915142, 6.25831995577963, 1.210923096200231, 2.0105795020912147, 2.264556593077982, 0.9240371020003053, -0.1761755236230833, 4.725183902245982, 7.9196142105515115, -5.716790720266576, 2.907459824083837, 3.2948859385870737, -9.424122129506216, -3.187621444697526, -7.088649657944699, 9.817477521835357, 2.6047305785016643, 2.1093014883707184, -2.589088661613383, -6.147017091456599, 8.596008195305206, -9.621421343007786, -9.021488502409575, -3.424893695544333, -1.413174223053355, -8.055876871900482, 3.5218833481816354, -0.06949995266973197, -7.539379918760927, 3.831024083499381, -5.148913561892794, 9.73682477306334, 9.049792736954952, -9.11053396391953, -9.227074428176179, 2.8080207441806753, 3.064706536709334, 5.12843717938402, -9.43088042334383, -9.11666443881967, -9.45682126571482, -0.38676805259833635, -2.3148226006635975, -8.391331716100456, -1.9486407653482463, -3.726287945407658, -3.862274193609469, -4.251947164734073, 8.753538197067794, -9.742377850656581, 2.4590586035142223, 0.9307433671256522, 0.8622552929885678, 8.030127186165906, 9.92217153017679, 6.235520177659769, -5.7018324560480576, 0.7323937122745328, 9.199934918370328, -1.1536386802612917, -2.091459130298718, 9.20965723610217, -5.59042432918019, -1.3251390856008527, -9.26429359193091, -6.643176579675723, 6.659110533186887, -3.8634894594676776, 9.214537783321973, -7.437070397633225, 9.50718048589927, -3.3475842431991243, 7.791318047465666, 6.398697329113666, 5.310709529125289, -0.5929228696838216, 1.492423734927442, 8.394071399024366, 0.7562928871425338, -1.4593404218409347, 7.417928251840916, 2.2839830659427225, 3.738893120237739, 5.988513629650425, -7.660212010141976, -6.7342295389300215, 4.35448896546669, -4.551134903622707, -2.9501697939520426, -7.955280538849747, 8.492815496161285, -1.827537826345214, -5.704877281332279, -6.416825133648212, -3.2198755886237613, 5.0116878202407555, -7.537867542114627, -2.621567393182782, 2.130192859121385, -5.679718552696828, -8.588936715962719, 6.698297369266843, -4.866668788161547, -3.21141298420903, -4.6346126713807845, 7.767115663353106, -3.935561683258994, -2.1698842678392367, -5.182570235422245, -0.5760358568459907, -4.4823557617504655, 3.2645658821792374, 6.762181226584843, 9.16601444382827, 1.6181849451919366, -5.466039672297766, -0.4160248056432927, 2.716283349733171, -1.5878166075743216, 2.6142091189120222, -4.4958728065971965, 4.163956897703658, 5.3279183353932495, 2.8148322886379535, 5.815011809754228, -7.443356843750879, -0.3385401482809396, 2.111701602042311, -8.809058503352139, 9.219503782376599, 6.954022640678108, 6.948408541870549, -3.926526168250435, -7.575546113984862, -7.2966588873290466, -8.760983806537595, 9.170536873645865, -6.464672709158192, 0.9961330387250449, -2.791258505460541, -6.032351246984684, 6.091041551113513, -6.316627063353446, 2.4668544072492065, 1.4079445198374625, -8.823224702555823, -6.127601051966596, -0.8421535384162979, 3.6650145035916193, -1.3893810566935283, -8.351286433187973, -8.050006811910468, 9.432164109964706, -9.76416585413942, -1.7432978471800773, 5.6873309753291785, 5.208700302829005, -2.8207819827622664, -1.5057590459889436, 4.063924604346237, 3.97058218523412, -9.422651840571085, -7.102743808241538, 2.488520296210698, 5.683765083090215, 2.8347649261457146, 3.312821170061021, -4.45112850870432, -5.126946913862946, -7.50578209913384, -2.9784375327883827, -1.541988750516703, 4.820170661002868, 9.47797060068654, 3.989983250681137, 0.1600083062998472, -1.4922336841139376, 7.532013815543074, 6.12649721772242, -5.767697255567041, -6.555286320730637, -1.9037666877537003, 6.39038807418099, 7.817215002641742, -8.90605256586436, 0.1299057894491149, -2.998784719442069, -2.2546129946318043, 6.837064665303135, 5.05094667821891, 9.189428582486393, 0.8380183440025402, 1.528999932148551, -9.556518750427873, -8.576744235984417, -3.7798165626706552, -2.0930104503513647, 8.369827204388113, 0.49060397949504875, -6.605339396450399, 6.78383162025526, -0.6058195043664796, -8.723323281230535, -8.158295522690306, -7.390900448871673, -1.1106116986894126, 6.5196413174580385, -9.003360441748246, -0.42829590796321604, 5.6232099812372365, -9.269416927280059, 9.417177202747318, -3.4646844394839444, -3.4580398655415, 3.5070384378624304, -4.062533479241209, -4.452507770236864, -2.4955433311199933, 7.992536726474047, -7.729323016637213, 5.37600343874783, 3.5045209861815962, 7.939428019839841, -2.3936772365685517, -0.0744567241115579, -8.82823689672258, -0.8666590270665058, -8.047028630292436, -5.214146255425671, 2.1387616551018986, -0.14977172548731588, 0.18034232798088645, -1.8691186877240575, -1.5155340074895989, -3.217954253198445, -4.775463156707533, -8.333132723073327, 1.657971697480896, 0.078636653777993, -3.989926830798776, 3.4972103368372416, 8.185334308245189, 6.395546391532434, 0.31211591352249, 3.5007021443027853, 8.553742638792528, 8.894831822337984, -0.68730571015241, -9.870266416358206, -8.356665966378149, -2.912511400974518, -2.203805987007126, -9.565013991362052, 4.875048700937892, 4.746185342311286, 5.148837830573241, 7.683687369110185, -5.276002549805425, 6.02740511798897, 1.0742895245020208, -4.00602705850342, -1.1090698341787597, 1.0448988873904916, 7.559691749471362, -8.713792171439641, -6.006540879279763, 2.6850070672458735, 2.526907332268271, -8.152091475906335, -5.324347182247693, 3.7105609705408344, 4.510591758997313, 2.861905529671411, 8.271516592286766, -4.1092909741659245, -4.56721859096227, 5.860517106997939, -2.8737729100825904, 0.995260518133465, 9.971594202750666, -7.726013147200252, 4.620265311153556, -3.271575365573966, 9.22065631183889, -4.208314064070282, -1.819838432966062, -9.517391373591636, -7.828753418357833, -8.828624640126455, -9.5277246895475, 3.0425073328571113, 6.817116036921362, 2.162595839270587, 2.924785454572639, 8.950292662169069, -0.8893928359815746, -4.4487851492014485, -7.868827691744162, 7.018605641008467, 7.390242085013941, 5.140107733453139, 9.780917279765657, 4.032313740888792, -9.69539829020235, -9.514974959698767, -6.863315735565012, -6.058940216764768, -9.71245701420742, 2.5418838056724535, 3.2920502079970255, -6.69450983505002, 6.781195472232174, 8.222400839256942, 8.583152940008524, -4.113867980517845, 5.435943936367098, -6.283344124905883, 0.2064521348807915, 8.961221541164669, -8.820111968902546, -6.911796287395655, 9.463461041072023, -8.865994276983498, -5.685452326232719, -9.483813170039104, 1.9594383874229386, -8.907759234224432, 2.0013727737381064, 0.5667244778308422, -4.648469735190977, 7.455719083800368, -8.12726296227138, -4.377840081209787, -5.006475097685259, -7.16643122393087, 7.397440417569992, 3.3100952452265986, -2.135189207993733, 1.6773731966499028, 9.14260696195543, -7.067152541418553, 0.369710012996304, -4.913081701724922, 6.927714516388701, 9.861646897880977, 1.656538493075871, 2.862801772130867, -3.2589965580384543, 1.754378839260525, 5.3593389158614215, -6.629963877692086, -6.311592546135964, -4.415540277148358, 0.20023365470901666, -7.498110896466494, 7.360341345578519, -1.9765462214556528, 2.0504157187561756, -8.523399090243641, 4.261318035397652, -7.894197302993399, 5.337421817235208, -9.436093084136468, -9.385408771481407, 5.347287073656377, -8.266367910879618, 5.6282409034837055, -4.123542849888146, -8.627618703490889, -0.013217828780764052, -5.054003024889074, 2.037546598234318, 8.790206204847177, -9.912679429800225, -0.19421343621315934, 8.075099226264463, 7.820598402663183, -9.172925055376089, 5.699766107669378, 9.564139983880157, -3.2906104318894203, 7.867636380212904, -9.554650732896183, -9.83419203812945, 3.603691180469607, 0.2193000820311788, -1.1948411562335828, 9.811070262896614, 8.406360474035083, 6.170223349794078, -9.836847635086517, 0.3314846870265029, -0.5772745009248919, -9.031353400905115, 5.891034836320312, 8.112919059484028, 2.736891241844731, -3.2343110381703095, -2.8321377747585963, 1.4699811310197397, 2.615797062002967, -6.976577418880925, 5.593982421832353, 6.485201462907973, 0.10926588585924257, -2.7067461986568357, 2.735572444635313, -9.508837025459362, -7.333332644712918, 8.088222169674943, -5.485239620726359, -2.484711206691548, -3.634674745751183, 0.7125662228654601, -9.740669527572024, -7.633345088393789, -2.2461099507349847, -7.777961475855378, -7.076340068239755, -0.8100405277727774, 1.8158026967716072, -0.9038295848676636, -7.99881096108243, -9.656854761078295, 2.6815849044525883, -9.62159278448799, 9.594917751961525, -4.7174872208864365, 9.110094211281009, -7.265958353803033, 7.131533994622153, -5.859439114295723, 6.287945475300969, 6.437855576434167, 0.3387372529405841, -3.8604415549234687, -9.627475019414423, -7.289689208313678, -8.974306890493029, -3.5185060775203763, -8.038914249699294, 9.171712782459881, 1.348543982490014, 0.5602428634350982, -6.032976556144969, -9.020871030874098, 7.3166397091391495, 0.6052069466979724, 0.10448405792074844, -0.47224484075059436, -7.08583360027699, -9.038202408725065, -7.23730294143291, -2.2399585527561916, 1.9872260019683967, -3.9490924747688165, 8.270830246174192, -9.851774410034546, -6.60518365564652, -8.09684756797129, -8.67578497631917, 8.30500151023244, 4.424624040640575, -8.898188486139718, 0.8131358982026491, -9.002114088135741, 8.29409869881303, -8.401057176253682, -0.4534834581298064, 0.6805957342689766, 4.403089213350388, -1.2615752407047474], "biases_list": [3.111067508003174, -0.18994956979390665, 6.751654438617042, 9.32867105341537, -5.400400881161458, -1.5782001638943761, 4.4324052943716445, -1.1865954722054077, -4.4465246256496, -4.073716775886309, 7.267022064017205, -0.7515455481237048, -4.989105115257708, -2.3496908759977186, 1.4548297034347097, 3.6142336196150975, -9.005002594872877, -8.23687800100453, 3.095008784045337, -1.402937858475168, 5.699434668098785, -5.913999812997677, 1.8702854218761473, 7.628532839369399, -4.901717591818107, -2.286426973710718, 2.2945629635186098, 0.007469405437458221, 4.819291595758685, -2.021909917153044, 7.473547827479127, -1.0977000270904735, -2.366041508404546, 9.054939526890834, -6.5513927074438705, 5.723556555582476]}, {"weight_list": [0.30601557115790556, 5.755424868346006, 1.0762027818396271, -4.852194034576755, -3.4796846068662113, -5.301486797609046, 2.3448375730186783, 3.0778363726692213, 3.03994687258362, 1.6218596685155315, 2.930519793336351, -0.3151978289460988, 0.15148700285370076, 0.223419096534067, 2.4494283214200587, 4.423158480433205, 5.07448355431027, -2.684009548760189, 3.9927028565448683, 0.23090024445566293, 0.6607073675342177, 4.730429425674152, 5.110356359965729, 2.4205301103512813, -2.0668113025991275, 1.7870933895124397, -4.011161877570118, -4.354236643729225, -2.818507693138244, 0.28007154905657594, 0.5720207030543594, -2.774708092279698, -2.5327101163361085, 1.8741637842257548, 2.183786883490818, -3.2524570962132735, 3.8013516676030035, -3.0257834274979385, -4.77882510152804, -3.186088711369928, 3.813928377717212, -2.76166472643194, 0.37837347307138725, 0.6684233993982378, -5.794882570813483, 7.735657107227194, -5.204378414751167, 0.6577821967202457, 0.16852502162234262, 1.228244282210475, -5.030082416181048, 1.3874702716246254, -3.08354680853664, 1.6342760684493705, -2.6959727849863366, -1.7303095590099031, -1.696012123150863, -5.480002043287037, 6.710589384744312, 7.305235839587548, -1.8671519219384605, -3.9922558159800214, -3.9646701943293277, -2.6926419180702466, -0.6436794090179292, -0.20376238396516266, 5.971574466870319, -3.646050091861623, 3.1952792815151394, 0.5682047972333182, -1.8363770837582423, -6.3157573066743, 0.3296011143326991, -5.172810988543398, -1.5042760171041962, -2.745857626952443, 2.807078907729169, -7.146966806490626, 1.2252978656091087, -0.7342118176799651, -2.348839943901331, -2.413422013995323, -1.4104693711509873, 0.6014768744013574, 0.30529672486512416, 3.0321573873068797, -1.6022223349170788, 2.1279830493094094, 2.5379507719947654, -2.7976328154705232, 3.570558172100954, 3.2697882822995314, -4.090319140860314, -1.6302440677136467, -0.8913964706354132, -1.225545295019144, -0.29315605043867654, 1.862449671936405, -0.9930766550251298, -4.339229779578836, 5.968200355825547, -5.4174502939334035, -1.23621385907405, -4.032402367260235, 5.1022428960364525, 0.6895082560036481, -0.08572744772276442, 3.6862399010715237, 3.276841491018385, -0.5257731422632009, 7.423610757540004, -2.692675191912327, -0.015300714568694973, -6.381290652695655, 2.647827660133588, -5.185411752862853, 4.439759262292999, 0.7478782494635685, 2.1975810215129696, -1.9581195360300578, 1.0060585154147859, -1.2228628251881106, 2.1661180521761367, 2.854404544268581, 6.222209636219349, 5.546125239032705, -4.919416886800887, -6.539076020430709, 2.98505133511053, -2.6824613192487012, 3.4618551662335353, 3.730231316833515, 4.469505871373411, -4.934928123144584, -4.672295861386692, -4.260527946365251, 1.7940945138677726, 2.8060880517819395, 1.5824717715146823, 3.8784146343468144, 2.4347042454147716, 3.4375038544744942, -5.371020160412725, -0.5809992510215404, -2.1998196302198, 3.967320338536572, -2.166241256977169, 4.110982909579171, -2.1019146294520232, -4.825153560659987, -0.67816004109014, -4.823724248070115, -3.1552545661989733, -1.7159567597054304, -8.047160170484158, -6.347094614076401, 4.915777198432729, 0.2320093414396296, 3.257295240169677, 3.634542963731853, -0.48755143214546126, 1.874489443297647, -6.847766845978357, 4.794104621488695, -1.2761481481244146, -0.4957752850201793, 1.96377959351116, -3.66664585913424, 1.891242917063967, -1.7939568692576522, -3.199647462892525, -0.027820966339393793, -0.07036950156563293, -1.3498177305959478, 2.911607869033373, 3.915145500492655, 7.471712867613032, 1.8630236476316417, -0.7188800147146466, -8.501165331992013, -3.8196011188386896, -1.1103273150904636, 0.8469916859058588, 3.6495976629705353, 3.628252458300927, 1.2579570818385664, -1.9548206392318463, -5.266610986527771, -2.2073574254044317, -1.173078445555175, 2.3202118069552293, -4.219783955718471, 4.698329132507254, 6.356004767587668, 1.308976406042973, 1.1372145884179936, 1.8938127634506206, 3.022362378340656, 4.363069613351536, 0.9534873932201244, -2.492574846609258, 0.8600168721267951, 3.491667583370603, 0.49349347282762457, -0.026451289999096517, 2.4367473718797736, 1.1106426843246924, 5.2318875598201835, -0.49198846397452667, -3.500180155327567, 1.3985977413563786, -0.7172418161795528, -0.591122069648639, 0.38979589465972886, -1.0136150297670907, -2.065725778993249, -0.39615142887035437, -3.4712042470132727, 0.3037400795220597, 0.4932007548515802, -1.274603187773507, 3.0797786663127136, -1.9703432587482295, 2.2138669286435144, 3.6223696033917907, -4.314658180096287, -3.0393152025673116, 