[{"weight_list": [0.35031932883088923, 4.851018108490381, 0.9918493872426277, -4.028823368507854, -3.163013752655665, -3.605341961704001, 4.2898783268710545, 1.507691206858767, 2.1166895051945547, 0.5689958231695176, 2.186054961489729, 1.5518614250926364, -0.9598926411771324, -0.9736480543715975, 0.23772025151796705, 1.7016798159488618, 2.8808803239291434, -2.6029522021096922, 1.6612180545795132, -0.6487868202000016, -0.8962041359542665, 6.261963324663108, 4.607678514188558, 2.1730945713594565, -3.1346687348636038, 1.645430811047972, -2.1411866419273258, -6.687054434358352, -3.1413818519778918, 0.5371538407205279, 0.6690878603399439, -0.5828591014242928, -4.575387969593049, 1.44151918658928, 1.449379107158939, -2.5677671156751054, 2.3336760746753518, -1.342265864038946, -3.815322839520574, -0.0033249272928023155, 2.6597230437486243, -3.2397178076197846, 0.630442842092185, 1.6602162032036127, -4.397934596599662, 5.120871065445226, -6.172270841203173, 2.0880560159484944, -2.181144835368781, 1.4086887561229675, -3.9759437581673005, -0.3432881349838959, -1.284592360339338, -0.8692698384790497, -4.042233993905872, -0.7910440408386368, 0.1478277244012629, -3.362665044979182, 4.684657749070899, 6.6029146150248055, 0.5593109644134882, -2.641625687382084, -4.269311201763203, -1.725616568189206, 1.251017857639627, -0.8057108246962771, 5.530586762801333, -0.5988771421199461, 1.0190773713387666, 0.3859804233201449, -2.8379478636664066, -6.188182474205623, 2.15774841343677, -5.629565565008734, -0.8104494334477924, -1.4032922525314449, 2.999136358832119, -8.3690660327816, 1.153856533439109, 1.340214495417186, -1.8354505818041233, -2.5282149839508277, -1.6470017920970885, -1.004745483836068, -0.049778153629341015, 3.0166804111937457, -1.9082565229142952, 4.552452432865365, 2.3773028159032528, 0.369667419345719, 3.7308556813478697, 3.126379112623141, -1.3924798427191747, -3.769704301941954, -0.9052320510263504, -1.1391624345985971, -2.3322151939406552, 2.8137741258091356, 0.6612060341667267, -5.056595013203945, 6.927495489667843, -4.317983887296771, -1.1299796726321358, -3.0313845826532786, 6.2982601901425355, 0.4406935751557952, 1.3156338701022197, 3.363915766083217, 5.266869936327973, -1.292234500008685, 5.278511608636486, -2.92009046023802, -0.49206509873923265, -3.186895649688129, 3.2885733908758237, -4.968249904717411, 2.6826871436067607, 0.9012029699766553, 5.586663478648101, -0.21305099526549953, 0.4614151308286518, -1.043822388307957, 3.1265752097868384, -0.8981258945103521, 6.414877599475036, 4.17990791320506, -5.6352454953004525, -6.636053725612751, 3.0180594063836494, -0.9597713478154363, 3.551597008053835, 4.341045027667095, 4.4606303569592765, -4.799678365836172, -4.4231791743585145, -4.053490835695829, 0.3343044534747637, 2.452374550522753, 2.163656230044865, 2.8015541251452136, 0.4874335431464434, 3.0313497521416313, -5.488623328653485, -1.1502607456892255, -2.877462748746513, 3.2568232595415694, -2.680903848194503, 3.7239115369071083, -1.0687508596150148, -4.444531298685995, -0.5750629389043319, -3.83863579197451, -0.7644346036976188, -1.4971598509326893, -7.219796594791916, -4.444678688875598, 1.7848485398305884, -0.8947391785881811, 2.832702174488956, 3.45134373376008, -2.606617962689884, 1.0700163572202337, -6.086736537792509, 3.5914939621603885, -4.040650328894911, 1.319705031872342, -0.038608385530251366, -2.6768284441956904, -0.9295154326485059, -4.209058176047481, -1.7413170693857667, -0.9900090953370178, -1.3785864481629333, -0.9277801569754425, 1.087139258323977, 2.8616292139709287, 5.350442694251725, 3.8503228479603138, -0.4754406890635544, -6.920353771998064, -4.146470888958129, -3.035609859564459, 2.0504474650822946, 3.2248796321346456, 1.8060617871124989, -0.2072382287294392, -2.6992547420106296, -5.056683316880343, -2.917845926550699, -0.13748875033396568, 1.6804345657146706, -4.021529672614861, 3.2450270207507064, 4.624823956596522, 2.5126365763205603, -0.6531008682203882, 2.07267730334206, 2.2743089144974027, 3.61054430327556, 0.23255836749746583, -2.4763532516854716, 0.24810548373343222, 2.940087423952928, 1.1144218523354903, -0.42719285826010356, 0.731110900286805, 0.29367758316444115, 6.228114822687681, 2.5010734392568437, -1.6359341290790703, 1.2967262656392577, -0.4130666671753699, -2.092607554103023, -1.6543505341229507, -0.3200077599501412, -1.8880439510842866, -2.2976125780228225, -1.8912285120857466, 1.3236530177595558, 0.4163015235824892, -3.932736142534732, 1.7638642747267355, 0.4431572332127083, 1.9622592038096842, 4.9413596704407485, -3.6985355155979986, -1.3840989451776284, -2.2681018877927013, -0.04271916414290167, -0.4289776058143052, -5.530377673481665, -2.416247014730698, -4.786314009515127, -0.9506792946674767, 3.125500446071406, 1.4228117417852149, 5.312594366623949, 1.9052838706304387, -2.7481584574117077, -5.306317482846254, -3.607687426064417, -4.230118298953476, -5.198076770039713, 4.807556178306914, 0.24287970093847533, 3.200229985293663, 3.718531562769421, -1.7329233715041237, 2.981325277469024, 7.387255668045512, 1.2624061793671832, -3.9125713835042886, -2.7194661567348497, -4.022787211686991, -2.9167480842293436, 0.8864612351815475, 2.0079667764274243, -0.7817338985463946, -4.274681649476617, -2.798545293778032, -2.3402261116305594, -0.8876761184417101, -2.55874430594027, -4.315071910208335, -4.136702592180086, 2.1687612930950073, -2.2818395735288837, -0.20038580782394255, -4.868801998983424, 0.5237951583348188, -0.27992067805807674, -0.26153345746602974, -4.4638533472978015, -2.32685443384001, 3.1573014826486796, 0.5600946313517929, -3.5074358646301027, 2.6731888934722594, -1.6424159142545731, 0.3096084625174633, 2.825118197058212, -0.874436615482408, -2.664367679470656, 2.669283832262458, 3.5915071979869344, 1.2613836084337455, -1.2979342094733892, -2.1519054777506534, 4.198355670009777, 0.09892039720286894, -3.0743437643501457, -1.893408353783213, 3.6908511330844096, -3.3431680002143773, -0.3935701680844548, -1.2429979267934104, 8.737739355312328, 7.469664030992954, -1.7852182299491344, 4.329590301438378, 1.6481514747834747, -1.6220372695982956, -1.68683851839532, -0.8390803389009778, -3.257440248683314, -3.012590113071092, -3.504135910246838, 1.8026065210289723, 5.3297138371146495, -2.339992736226567, -1.6741725947171442, -2.7783511164462267, -2.9828761309031, 5.429997524357573, 1.0987663744031257, -2.373460116217001, -1.6917205699437992, -1.2169824882829694, 2.4548311659641486, -5.140743880906972, -3.9621096487522864, 0.8030858388424806, -4.970578865787225, 4.601094467412686, 5.029913273257105, 3.1030915423066237, 0.07917442994098156, -0.46073050130888915, -1.9568439184743722, -2.3796553647442096, 2.687328316884302, 1.3917799074050445, -6.500410390907507, -0.5993512410560171, -3.1537227884123427, 0.2680262493765291, -1.212306653801265, 0.6330529837798684, 5.170093969186138, -4.806113906900146, -0.9111953286958607, 5.2622764034305245, 1.6147169969543964, 2.852202272698087, -3.1185821471289024, -2.368560599963568, 2.023535779720495, 0.9672919385512722, -1.98290532780933, 2.253398331831632, 1.343181554031875, -3.852721935254796, -1.127914162747823, 4.284356913490598, 0.0861343041891911, -3.6066770586344976, -0.14396651209262723, -0.7875675328045555, 2.3390961233675833, 1.3823118769327563, -1.1914957616327797, -3.2972561999157937, 4.328620484235962, 1.7334473854276427, 7.730010840899389, 2.1173881544276316, -5.5896137375578245, 3.3429689737655472, 2.149618123252078, 0.955565048083592, -6.08172853239841, -1.1839691265709336, -3.1133666032336764, -2.7174948354829276, -2.2676670102221, 2.760656342850193, 0.823613840174152, -1.4849638546621848, -2.2641915313239798, -5.416329103199508, 1.5380203155337178, 2.644687525141453, -2.417527673958621, 5.016012527986334, 1.5128486263971053, -0.27300684708049383, -4.8290867143577385, -5.3583546665754245, -5.7750166337860245, 0.9972975244388338, 2.203578180837625, -0.9921852042382182, 2.6439762628823904, 0.02387232476770862, 1.6857122571146164, -5.109011520625419, 1.7968821889062925, 6.063774089891939, 2.2575264033996865, -0.21314628203973252, 2.315976093150063, 1.942983848809277, 5.771366178715778, -2.8366177928509577, -1.5429563506266541, 2.3372105393454676, 2.587897956196938, -4.815749847191331, 3.283311304295192, -2.4722869083089414, 0.3430416004266317, -2.56382015483911, 3.3379388438924815, -1.6002950195152952, 0.7675156949391815, -4.423221428797623, 0.6810777543875304, -2.243175630066885, -2.8906340028218005, -0.5285896397807744, -6.657246588763035, -2.0737633981962356, -0.6122512950794683, 5.027882580167757, -1.0633591301087844, -0.4480296287461143, 1.6931451956850365, -3.6479753169225644, -1.3540382971652964, -0.5575419939038477, 4.1814069153879405, -0.8186664411952549, 6.988240615977302, -6.056400177420894, 6.375129940227157, 6.138599682185035, -0.16763215542825172, -0.3612886043349418, 1.2639344883730503, -5.709521634660305, -0.6749566286245553, 0.698569866363526, 3.980834423750818, 0.9630348425862945, 1.566585276997233, -3.6056827202291997, 0.3742935463406485, 6.032542070432554, 1.1009491377096303, 4.427142070023348, 2.380937926962906, 3.262138510969929, 4.857401889804382, -4.066339924869538, 4.30311487257343, -0.2801703807088133, 3.105814994234346, 2.9972282123451137, -3.878906937986293, -0.09584892292357172, -0.15638929311154393, -3.17681117632542, 11.340138304715383, 3.5581853315626706, 0.4972026483574916, -2.16360978817132, 1.2055853776759808, 4.984313865081335, 1.9419803159606377, -0.40172943072876544, 5.186331354422708, 2.306061711092398, -1.6160790239715677, 0.22922562057104767, 1.1757885280835438, -0.06304786778994442, 4.94600758911247, 3.650049502225831, -4.526220604203382, -1.9585567636946224, -3.594572372949324, -4.896888906315908, 0.5446260195899788, -4.607598324974273, 2.2277691448204635, 0.07467163790535114, -5.786638521337393, -0.06982747534881484, 0.06804352638923605, 4.127661655160705, 0.5362765876150493, -3.913467881848323, 0.1804554150026363, -0.43679046922003106, -3.084219109010437, 0.587726349636706, 3.035228049450037, -1.4295356145568756, 2.4241085582400426, 1.7798457890293582, -0.9645175450744325, -1.2851002583019282, 0.22746829124218237, -1.811264780818997, -3.678727285289127, 3.6934972016057808, 1.40018958304127, -0.8197299717388156, 3.1095311065941376, -0.8267060568514344, 2.5337968502311066, 1.0979074068171162, -2.11209566542387, -4.047349697827346, -4.254325452130908, -1.6771242419091499, -5.059227019517798, -2.749789506446123, -4.984002917817473, 0.8753000878528452, -5.279411622323393, 5.633787663358966, -0.17496678836643942, 1.132453941146573, -2.991363966572653, 5.3950879131825245, -2.6986820367213986, -0.42187851282151834, 1.1853653712301968, 3.055813715834338, -4.418321283797745, -6.8359729978035615, 2.0405992723160153, 4.0108626802518526, -3.261256307023133, 7.16213469957315, 0.6441968977887018, -3.2381285536059536, -1.9300336246745076, -3.0379332935835004, 0.9311565796280672, 0.9659183178748636, 2.441738480976139, 3.709229401533693, 2.7722848609363036, -0.16188853698949335, -4.726210980422105, 2.3174747621581444, 1.5698836411934245, 0.4237576774966354, 0.4770210366681009, 2.073461890813385, 0.5302328852917761, -3.8583057295584458, 5.76804777759586, -4.811594293488129, 4.448960037879248, -4.713081979196821, 3.56630279451117, -0.8099264972670601, 6.85339668763435, 0.8853172061658727, -3.045975080350064, -5.667030473068128, 1.7491256921618175, -0.14125186043689408, -0.4419158446807352, -2.5603676992395616, 1.2805266299704519, 1.5547534872172304, 2.146185402954898, 3.7318583950874338, 2.7482018184660193, -2.5031541514938023, 0.46487307467874217, 0.07412893428572609, 3.0487666117065704, 5.5960049375718075, 0.6030887189084395, -0.2977621126149286, 10.33295530928567, -0.4190345207800663, -0.34714446033957425, -1.8317048169927548, -1.4387881095035902, 6.613294608230602, -1.9273402084115654, -4.233845481562577, -1.1483574779340777, -5.840763612874947, 3.5732734740785776, 2.666284992252983, 4.575645787513283, 4.861586884098387, -3.2969141577429406, -0.17913735772759454, -0.011919925151076649, 1.4815592199868313, 7.958418339320019, 2.405096258635745, 2.7974919002896383, -6.762616143537229, 0.8635683953509607, -4.467173672133015, 1.9102926509793834, 2.2758037519797423, -0.3917544676689697, -4.68012387163562, -4.9106928699880354, -0.39328356815088106, 3.1341009532678914, 2.0017852813521553, -6.086148153784099, -2.3943937849526042, 5.071931020917747, 0.19279209829183985, 1.0917774436336303, 3.070948856857468, -2.5566683372681887, -0.5544582603326589, -0.06978112386387725, -10.20140969419449, 0.2738157760669737, 0.3027078342915068, 1.407004020049881, -1.3129234942671395, -0.7812840139186588, -2.3208356785489546, 2.475739803002101, 2.6659121704900146, 4.705654776283901, 0.04957412406462636, 0.4555540296308367, 0.4267136775109597, -4.109567782722583, -4.42172693499432, 1.1739225292977125, 2.059573044103163, 2.822364082176442, 4.074631803278603, 3.5869229800498914, 1.137639463803902, -1.6066796919779764, 1.6971091114126038, -1.3163307550311951, -3.7453344722709327, -1.3851082421923147, 6.531790272624599, -2.798946946962989, 3.36212330520958, -1.4435189033178517, -3.803499468053386, 1.2058562733337714, 4.730035469644549, -2.13455221546441, 3.970202451477655, 1.6785835426239641, -0.17135040315358652, -2.2582867227141654, -1.7206736182495634, -4.258820163282394, -2.994556614089895, -3.980777838993672, 4.96433825217218, -3.491914637883643, -3.4098669087060474, -1.0340210245749732, -1.3711136581882732, -4.113247361190483, -2.634633863740869, 3.2809991494828328, 5.348797066518341, -1.241259555492842, -2.5879256581338757, -1.3734030859584225, -5.213850212550895, 2.722810530258923, -5.605523027469562, 4.951428292467414, -3.1977942438917766, -5.055817209565843, 6.980679919489895, -1.0464051173201387, -0.32120517798383597, -7.387203591914924, 2.3090477418165354, 2.701846592476241, -3.1920298825102846, -1.0602168459271808, -2.8293386757798302, -2.944414131923466, 1.5531676505357601, -0.5374245139782072, 2.744579058079558, 2.354695696114841, 1.9761798600662472, -3.1539819273701477, 4.149733768217306, -0.9289080291395816, -2.2548039400570437, -1.2493294461101583, -4.450840572340102, -3.463686673374961, 0.0033042412728772064, 2.4913172518938653, 0.9195384061712599, -4.486385773942304, 2.2215478778615756, -1.0189371786247574, 4.556199468661112, 0.458341315439184, 0.5586747935301684, 4.430479696997828, 1.844808843086776, 1.4094919227536549, -3.2155865259130394, 8.745709277199628, -1.0216244232738365, -2.460189628192377, 0.7973537871411225, 0.13684463299121652, 0.5460219537220923, 2.3053593573281645, -2.924870515956213, -2.1039161044128076, -2.4541451187506267, 0.13183939662583644, -1.004774845197399, 3.0238729039453807, -0.37749417476753244, -0.6717928030906618, 0.570464717467138, -3.106248387738018, 1.7304385459688558, -2.443679673481302, 2.8131559226045075, -2.971359442665862, 1.4791613388016827, 5.4376518118373465, 7.758772478538374, 1.2453014697885818, -1.772598042148861, -5.994189801946628, -3.658162213172014, 3.2254303767735877, 4.02227319395393, -4.452564871827838, -0.5127546804135455, 0.2995268055796412, 4.469076899095223, 3.9594259272900603, 5.267888730589495], "biases_list": [-3.0919350192181856, 2.3188992582073773, -3.5017844419726982, 4.324254070901647, 9.231013248095213, 0.8683578349775263, 3.656498682690316, 1.1595438908239881, -1.9146231489502914, 1.2625945863293033, 2.278594267056606, 1.2726291736571445, -1.3810768354335172, -3.445853488182899, -3.20245749557143, 5.343150799184096, 5.215501752305037, 2.7617921069032847, -7.508060186863582, 1.4889351735338447, -3.8149366672439218, -0.6230230931166245, -2.7165657451524994, -3.2212832408624665, 3.41618961751392, 2.8246550206706593, -1.998809608689079, -0.5091342392668745, 2.3224553005721886, 2.3166232723777966, 0.08039569532610669, 1.711632746394511, 2.957941745591908, -0.08534966341632699, -2.1781536474233656, 3.4483663823570234], "shape": [27.594613923526158, 15.049091888221579, 15.824494388015786, 3.9759991815204376]}, {"weight_list": [-0.3272433176457765, 4.66286848132105, -0.614471117040538, -4.118062323850331, -2.1885580454134477, -4.946555066896062, 2.7079548525604853, 3.3253755482512437, 2.3853916133581556, 1.5053046667090415, 2.7662192407294546, 0.2805159789945999, -0.9908670878190895, -1.3576043514567304, 1.223582480054369, 3.396102538340621, 5.203277630613489, -4.011399090361245, 2.9815102763003365, 0.4453014644653097, -0.16735006275794984, 5.4701994438543995, 4.760680396467616, 3.482866750019882, -1.7552493619950014, 1.9776079889135385, -3.645552470229929, -4.000121641424682, -2.8990735176294855, -0.4545376125194581, 0.21101054128261842, -1.3865045229544066, -2.323726283685003, 1.2951449991718023, 1.8652012271839649, -3.7118278430131006, 2.51566236114785, -2.6048344563060875, -4.154705343345398, -1.3653240342615027, 4.525523726906798, -2.0705540637222883, -0.7971043418546162, 0.8276678355068943, -5.618137678469866, 7.679806256028247, -6.980633765490405, 0.2870599520697352, -1.3129695280399245, 0.21410534718213414, -4.470510968565895, 0.6221721007461305, -2.939980994602606, 1.5448260074410145, -2.504481225840353, -1.0593489012836699, -0.35559022294850895, -3.8898150777098546, 6.2535641253053695, 7.909565459223703, -2.7391419326173017, -3.9795869366449326, -2.781891555558747, -4.075690555900934, 0.5154210897955864, -0.8097887560349054, 5.557573441899706, -1.9778959066598345, 3.4108107611795138, -0.1290838752799096, -2.4363304353777506, -5.910558558275479, 1.721249476054922, -5.902666786208994, -1.7809569406140893, -2.9884023107741506, 2.741501138327907, -7.77367619464932, -0.1402147028434657, 1.1046142858738834, -1.8844583121801008, -1.207787693052142, -1.3517388220222846, 0.042412053823411844, 1.1475623988044328, 3.550191901398721, -1.7426818033179277, 3.136164554093371, 2.9566360458850403, -1.1344245387054976, 2.8212646206092535, 2.787708967692844, -4.616784213815745, -1.2608089510824003, -0.6823915295241599, -1.51833674472937, -1.2368289491532996, 2.637265376691274, -1.55252573723309, -4.958635802630368, 6.469148248169135, -4.086840385861008, -0.32951380173674694, -2.062313371934411, 4.908068554131919, 1.6077494899133349, 0.24312932889500605, 4.468173878890349, 3.941442260731625, 0.4690376472699156, 6.344394058689191, -1.6677325172279365, -1.6256680083457609, -5.371656552313309, 3.540066916768291, -6.213586806773538, 3.658411242728885, 0.8711353210451207, 2.8116646243633405, -0.6038820044044599, 0.5493437429378902, -1.4116879232724036, 2.413871958994977, 2.1856326846816883, 7.523392554977963, 5.195812056729828, -5.030719177647075, -6.704347821731204, 4.101789161644909, -1.1361284187781415, 3.183801704153373, 2.8249917003691314, 4.764143751953619, -4.263153970284025, -5.330723512532803, -5.3908907942774915, 2.606006646216427, 1.9564745399928074, 2.620426410840757, 3.7124192838119727, 2.7966515499368, 4.344058714991915, -5.848375389014167, 0.01900401915258998, -3.663570240734848, 3.1306399347164566, -3.127839534963531, 3.1420387584813403, -1.5984020734130908, -5.5705502020945055, -0.893736705919238, -4.982156557755966, -3.903541139575761, -1.1549258902825292, -5.972202864316958, -7.200233932687391, 5.017361918640051, 1.8820028526941668, 3.7904087405030307, 3.1633216493718272, 0.15502429926103578, 1.4807709216204934, -6.714889585667253, 4.799197019425528, -2.1594951058744516, 0.2055309534571348, 1.9423471353195958, -3.7975905788150577, 1.6797056364625358, -2.4030076639665428, -3.3384753472176723, 0.23814611175857547, 0.5331868899127961, -1.5493284413693191, 1.792518034582368, 2.9470692456003817, 7.867242490236412, 2.6300538703634206, 0.5467312280878511, -8.848121864808311, -2.408414957600284, -1.744325179271794, 0.9257537158761435, 2.4184201477069442, 3.2928674717700313, 1.1231292475894303, -1.7239203473565887, -4.152520932795321, -2.9453782172442056, -1.2522013786590558, 2.5089356219544388, -3.6595553515494452, 3.774297695726222, 5.127247835153042, 1.2436798035093113, -0.16490433300677398, 2.2891681225139227, 3.4297510239837203, 3.431407753983521, 0.6450638972092606, -2.1117068978396354, 0.44951180578307826, 3.7349632330520777, 0.6067353616816238, 0.4173271691851821, 1.6900821533814874, 0.5176816388772849, 7.277583914207495, 0.19485416513337683, -3.563942922255454, -0.05276863663910436, -0.37688542576528494, -1.675828200250093, 0.1334309890724963, 0.8024227582547767, -1.7119990207908826, 0.22338651055844672, -3.413805987400451, 0.43598461409785516, 0.10494433621721999, -2.892827152270713, 3.096805797030381, -0.9045299472436115, 2.41894534720221, 3.9915742397255647, -3.8690209311428965, -1.9864163335327703, -2.216404998858571, -1.868530460823927, -0.2893779547132227, -6.799414963277664, -0.62975950465714, -4.706769961802664, -2.955745520377638, 3.358674019887797, 0.14266579034981053, 6.747216588001099, 0.7737917187936971, -0.45080662578223385, -5.868130773389661, -2.6107323879994686, -4.380590908914483, -6.064804593910495, 5.5451646113090876, -1.8677764902051246, 3.355044025907757, 0.8147702275142001, -1.7118344343884782, 1.2905922341888285, 8.410671661219709, 0.8722464511481269, -1.8744150124422578, -3.942746263096855, -3.6883829366114824, -4.079993866150286, 2.0739586181616163, 1.6459258440007574, 0.1958039306497601, -3.618941675408216, -2.705557343176843, -4.9079192950090516, -1.2455162883148172, -4.0834274303378475, -4.2112633970108355, -2.2744541796630013, 1.6708503074293768, -1.7955040502844688, -2.2188473279139744, -5.717452133365285, -0.86878956376532, -1.4852961208036162, 2.1312861672646655, -3.3465905183727886, -3.18078118925607, 0.8794448814061973, -0.3151545985892483, -2.5199615692481485, 4.0340900417498045, -1.266077215787465, -1.1855849600461354, 1.4745989590175514, -2.0599919640852353, -4.610633227480042, 3.5913086258563593, 5.432851320261773, 1.332553847722675, -2.7269098163244125, -1.204176861794552, 3.7511825552464932, 1.2875849687177725, -4.163652877217997, -2.863642523644055, 3.8427735736861273, -3.4294303471755523, -1.4146400858488697, -2.0840062849397043, 9.79626401715076, 7.111280787970861, -0.9012781707945208, 3.7200645703574295, 3.2293196069555883, 0.885362966831265, -3.6008528497860395, -0.6825562366981863, -2.7179688532599102, -4.607815488072861, -4.391422695381142, 3.2123272152921203, 2.9117595380439125, -2.0928733351414825, 0.8754549895947044, -2.749610856264919, -3.3311668154176757, 2.9402336768250867, 2.027677538077363, -2.9353232337407986, -3.121120462449895, -3.0800785516914155, 2.730018383252707, -6.009463863960699, -4.027690830422492, 1.7331607592605236, -6.563674865827806, 6.5284160287882305, 4.701360391868439, 4.769346605057392, -0.8389176591758641, 1.6333143186968435, -1.3485363870744673, -4.168379563206914, 2.43559671608966, 1.4338886700276077, -6.325053256370967, 1.084645158932454, -4.305164859225718, -0.4054371283513015, -4.092765608541062, -0.42609959205799086, 6.234981176758139, -6.7225931482522405, -0.8550281647030051, 2.796827088905857, 1.6261257048090174, 4.3797600660802996, -5.760787952942786, -3.5091214716940833, 2.8472941699158874, 2.5119593722332776, -3.0408408042112014, 1.9087828354080494, 2.9439753595123284, -3.4612790429159386, -2.1204872701505346, 1.2365316994231748, 0.6823428537090743, -1.9284628825234824, -1.3637694686331474, -0.8351945905959548, 3.826567636229516, 2.787228875145677, -0.7886885107202459, -3.3001288499656427, 3.405614332143201, 4.680538505898892, 6.130785564726174, 1.3496735072888675, -4.201511163582723, 3.803335268190547, 4.130091677651877, -0.08970079468532166, -5.9916952774894625, -2.4576339289857905, -4.782735599592507, -1.231246776843174, -1.7015716772983882, 3.322680411362014, 2.538537563057157, 1.2434812111114573, -3.9700342113945157, -4.822891722855836, 0.5889763691216725, 3.1709266179905216, -1.0130515400963707, 2.4410001860710184, 0.7271508020437185, -1.1019616575293874, -6.058609181102334, -7.002485336997089, -8.256574563868089, 3.7656038826618605, 1.7695958466664985, -0.990909010808758, 2.702108614418031, 1.0554247127788852, 1.2238121711491137, -3.1675536586426443, 1.1306096438593372, 3.981333575679847, 1.57026078169933, -0.8949037597873841, 0.6713403492286583, 6.052916903442918, 3.2729698195747687, -1.5136452979795265, -0.8878840735630568, 3.858801787295336, 1.2101326116311073, -2.574352749911342, 2.764282349897341, -4.402839693123177, -1.2784312186765634, -1.362657091683473, 3.699898731194562, -4.583996734489088, 2.591064354044262, -5.051697653914758, 2.3534770448151345, -2.6856282566376874, -1.7149324868377478, -1.5075961849400366, -5.932108180322894, -1.5279320963534992, -0.4295083052860851, 5.852224487622687, -5.07320122916243, -0.9798574697296634, 3.635264681346749, -4.007698247132332, 0.5132693817548206, -3.353289738395061, 5.041346397955101, -0.36348876823233167, 4.599316889548376, -4.57067072207313, 5.043854619542883, 5.234406347920816, -1.7019847152639465, 2.064914049482657, 0.6316472046759771, -6.226117453200199, -0.3754463682281448, -0.09536953671620396, 3.770841125228891, -2.1860166860236014, 0.5436309990926729, -4.526748668057739, 0.8821364338298143, 5.633399124949824, 0.8908089976402596, 2.4238644005801264, 0.2516358479478762, 4.388887080936428, 4.061721228519877, -6.190721493510288, 3.1509298727939026, -0.351613355325884, 3.7196252188078596, 4.942585749499105, -1.2383681318720436, 0.024050094562935387, 0.46719316848358505, -4.076318531569493, 9.572331051563184, 3.2227461205428316, -0.712992364555223, -1.1409321458547377, 1.9479750143627665, 3.2770873607303637, 2.1723245621290728, 2.571126359521883, 4.530718586092891, 1.5498466157758921, -1.097849668944487, -0.31065488121093476, 0.6068767314594701, -1.1600035308290613, 3.053053103956379, 2.7277998034984026, -4.54989533302208, -2.523401661117452, -3.2670961250820656, -4.256254687527752, 0.5529599124728393, -4.115660708978875, 4.3737163456227215, -0.6247509570553194, -6.011758044822835, 1.4851633925107035, 0.5692623740913669, 6.401747211857343, 0.3841930829618514, -2.829089590130298, 0.6286105730559086, -0.554650637066259, -3.3753304211938655, 0.618009779666207, 3.2139652653174435, 0.521994803399144, -0.4053824237747399, 1.12220891756226, -0.23395160492663858, -0.005423387951636327, 0.07945937314119256, -4.1259036995873695, -2.4877807224160065, 5.107031530212234, 3.0120253492948654, -0.6666156784858266, 4.351892195935477, -1.6821555597898956, 2.368396764861651, 0.14479158938476067, -3.5597479479457945, -2.8998943349894115, -4.863859526006496, -3.5438279142592517, -3.389630774213869, -2.2749581936381853, -4.92851110039998, 1.8706897964887537, -1.8742085726706779, 4.349673595700985, 0.21295631666277903, 0.6776249360848663, -1.140243121940398, 6.18697226642191, -2.3371088012459547, -2.619744977689499, -0.04861424351799404, 4.9079722063933815, -7.300693287540985, -8.240279778867855, 1.8091285728987865, 1.198965532018681, -2.1348836518307133, 8.78985919597232, 0.7795205280125563, -3.536038983112218, -2.4532923157122646, -3.6108073130459566, 2.198243451475652, 1.7099895659904187, 0.2295570407138945, 6.56801590938516, 0.0768538716603977, -1.4999561027447323, -2.1448029408646274, 2.4703329138501, 3.3680874403698216, -0.6463132736164162, -0.7596964082131108, 3.4292204499095886, 1.6240976554941309, -0.9804912048101195, 6.092510614505127, -6.337460619054272, 6.232817271534227, -3.837339332708229, 3.0234344413985816, -0.7316198755852561, 7.457988453026859, 1.1152641225799091, -2.264783862335352, -4.747018457790961, 0.13436540024564803, 1.6939610580168658, -1.7571150639366053, -3.685214182431765, 2.7658992128995807, 2.5084990845529944, 3.2238505180880255, 2.733148552036294, 2.1433130399540143, -1.7588055574500963, 0.653856149729205, 1.678352581677904, 3.7201810529355006, 7.383364276312797, 0.19261743017864807, 1.1423760733418704, 8.069848570163565, -0.4928730089446035, 0.9466255795742957, -2.34696203151884, -3.7523555733020504, 5.828740023473252, -3.6535718346755504, -5.538250064861638, -0.8676832884249366, -5.8410829047840505, 3.2197565436700195, 0.9440597715945915, 5.962980647159909, 6.587811114323607, -2.2776315639971356, 1.9859934303154598, 1.8043004678905898, 2.7023288243231587, 6.677815858025831, 1.4543641392742606, 2.4797975028373043, -7.442123254612609, 0.7896381430416259, -6.076423311339781, 4.460972264636182, 2.1283052075994906, 1.6248298987978282, -5.378981775143639, -4.613429749521745, -0.01390279006463535, 2.8847614573234712, 2.2947525761894996, -5.694471229338882, -2.6863789513756817, 6.533794143151947, 0.5427101177551936, 0.3946495129793628, 2.877864675780546, -3.638052538591756, 0.32035706042515244, 2.41310615918694, -8.70993176724437, 0.07466049304071376, 3.4751510434451767, 2.186191226018333, -0.6650567663891613, -2.217397150413004, 0.9634072298332901, 2.283338354553165, 3.5488115364721553, 2.4933753027814602, -0.4974995975854397, 2.7472525253327946, -2.3825990428105808, -3.2774964324135025, -5.946080935036468, 0.6772630679798559, -1.079090966822573, 6.414010772028196, 3.360364509045886, 3.3249794945196403, 3.098764911989309, -0.1702668184076963, -0.9054908047913497, -1.3110512501891145, -2.6170942751304267, -1.0462714529753223, 5.4157167354965985, -2.8103830649061976, 3.947990795079776, -0.2879556337061817, -3.4652615227332966, 2.3382899908421324, 4.519484456290401, 0.6347885154350317, 2.5262156105969282, 0.9745696356457281, 0.1524900176395998, 0.6418145913720041, -1.268837836119769, -6.09142413296223, -1.603643441501503, -5.200878170878607, 5.2263963285936175, -4.260179531357666, -0.9648313963939308, 0.5053748225048487, -0.7626248584783684, -4.153835865013952, -4.148435857280578, 2.8205416347862258, 4.65467787706255, -1.2198727942844108, -0.7537832216870854, -3.9171865671167785, -6.237580771115697, 2.866670615343172, -4.436300400536602, 3.5922995609009076, -1.8525535399264024, -3.7425723446205152, 5.388264874697187, -1.7977996330919905, -3.416081486380356, -5.200558283469328, 3.0829558401862185, 2.0250106165863464, -1.5663901622222498, -1.8989899482578259, -2.20336454905037, -3.3719859843146764, 0.880960573306522, -0.10603101021460781, 3.0402274269481877, 3.4583257409230157, 2.980315550742244, -6.167778306505371, 6.743319438679141, 0.5432448615283796, -2.0576719980372555, -3.2435292585620736, -4.979176185138298, -4.719438764333365, 0.06874701711420395, 2.0719969036028507, 0.2524698153964775, -3.26581187234482, 2.82333818719051, -2.217470496984109, 4.583193558005622, 1.0091464414879279, -1.5205942782334638, 4.108318439903419, 2.6176741892639277, 2.43406945336939, -4.579902212388257, 6.797654342557707, -0.13341078688927221, -2.3884388744586813, -0.517314818988176, 1.4000269431877221, 1.2367714188470513, 4.418136233168148, -3.1516221731332164, -2.090195920378019, -1.621273907438516, 1.3093525900536336, 0.2563953635794092, 4.244308962234907, -1.1992552258222218, -1.5278862451140147, 1.1207724104636858, -0.8579180302479925, 0.14839309466117712, -3.89147935848893, 2.153095099529298, -2.8065154766540696, 2.146491642185566, 5.562030776288078, 8.389200308163502, 0.7091223936688351, -2.9527474206692297, -7.235902057401088, -5.084900766774142, 1.2925163912583884, 2.845912891283971, -6.177175825001616, 0.3438902557970773, -0.5310549534969995, 6.041662615348707, 5.269520412148804, 4.1852675694910255], "biases_list": [-2.2065983685794697, 3.490724598055942, -4.618940881904688, 4.623006686927128, 5.258061655059357, 1.640514316407347, 3.1935886624538554, 0.3107592935347212, -4.128586677648967, 1.4804697125326856, 3.936208880827868, -2.4734471205153756, -0.45040688010942453, -2.5041836951551395, -5.146582543903477, 5.434015102022675, 5.354347381803846, 1.5173890239733119, -5.049120778595303, -0.7748312972962845, -2.724175262948811, -0.6048973214991114, -2.262731839312435, -4.86541091441656, 4.507964606365224, 1.8445006197684517, -3.6173215501056957, 1.4927922801592604, 2.0704337064513285, 3.3110378914039336, -1.6999373357384995, -0.8701966132073496, 5.458860794683997, -1.1874376841287209, 0.6175159848788749, 3.2631944021786223], "shape": [28.21755217578403, 15.375834342825254, 14.698096110380858, 4.092509872559674]}, {"weight_list": [-0.9686241531329165, 3.168342785261707, -0.6375288193554636, -3.6238175194998017, -2.829379713388239, -4.218037605182454, 3.6742301214169952, 2.7964907424041217, 2.9932122310212854, 0.5784483169588737, 3.7582637593834356, -0.8106249748017412, -0.29084555779268884, -0.47062119218319587, 0.6447231998409229, 3.612723793383471, 4.587002540597492, -4.268888257750231, 3.932460945776742, 1.217382272611892, -1.257131225696858, 5.530615199705434, 5.182182109507647, 3.6043473243506954, -1.1620369944390303, 1.332385329039588, -3.961793490413043, -4.127553921691824, -2.4261968010542976, -0.6139927175941569, 0.2668143400128149, -2.5372701065713796, -3.2041795466928047, 1.0175333092109566, 0.730873436092818, -2.654033239057181, 2.283237851041055, -3.5224757933821818, -3.442522404545337, -1.4104306765260852, 4.559622894139485, -1.6724112248669574, -0.6959454429784527, -0.09358937702791226, -6.136547046633673, 6.9904451187150105, -6.209117913879972, 0.666265715615618, -1.1191835641688908, 0.0945170930159609, -3.3241701730544317, 1.5409367125308364, -2.7803161770264233, 0.4731952371415531, -2.57061343429031, -1.0396451649862046, 0.02378214305669668, -3.3698501343626956, 6.612693844426578, 7.594394831530277, -1.6419445465643452, -3.196709252151795, -3.799118249062681, -3.4577048679854823, 0.9923599896461632, -0.29579211523496207, 5.127544134045971, -1.8256223417339559, 2.7935370907924115, 0.35146822873768446, -1.9936575746908725, -7.09354035146773, 0.4495577138141478, -4.332092450285948, -1.0865253537641815, -1.9327214223111364, 4.351258605235438, -6.891922092689966, 0.42598478722442623, 1.174281031998333, -2.1983176244022364, -0.988230140732776, -2.2521097380845205, -1.2919208238491837, 0.6950727410808517, 3.3522206759061763, -1.4507710192684748, 3.179083786324309, 1.8617068805945483, -1.5209887095844692, 2.814407976919437, 1.7090914315981118, -4.521771503665331, -2.138566168856727, -1.5761320056789931, -0.8568649068226759, -0.9559270990369177, 2.3342153398428946, -0.9588669205931081, -3.513102699613598, 6.94334875284645, -3.9599024200230746, -1.4171422953917394, -3.4921509891608333, 5.583877790587028, 0.4148447379377902, 0.06525091682825446, 4.032693084644903, 3.4458583372048777, 0.5628481664255394, 6.213834169133786, -2.2383446293683926, 0.05376617079802681, -4.85010245199879, 3.7175448564912044, -4.1430717541952955, 4.709553551345102, 0.029095135790135895, 3.2720022817852703, -0.5333535577209869, 1.43944983101991, -2.328785800399067, 3.552383018092778, 1.4446221633436558, 6.987663078967111, 6.06380501322215, -5.542506680560869, -7.379899235853168, 3.1952502805266283, -1.1719621251038137, 2.762427345536623, 2.9606266754575845, 3.3531528258471424, -2.9324104040203567, -4.693452873648008, -5.016319121084381, 2.3435100383277723, 2.8301932059232815, 1.75494412036704, 3.088458879530622, 1.9092175810124137, 3.622523042552471, -5.904606783170424, -0.6420778624915019, -2.575020843240635, 4.978100961420646, -2.8019296350745018, 3.742593869361876, -2.1833198430308407, -5.296038451740275, -0.6637760633871137, -3.7417256148175504, -2.976460709386717, -0.8753404116170767, -5.481366158030535, -7.0092070242570195, 3.5343487533497147, 0.35608503220129517, 3.7938071840583802, 2.8291573026951733, -1.3231504383207753, 2.5164795872656605, -6.956126562880397, 4.094952029514513, -2.5576784256061353, -0.5524563893425551, 2.2065190282863956, -3.6521380468041564, 1.551660152898691, -3.9144867468510984, -2.0123422615368973, 0.16422158457305835, 0.43404151284814296, -2.8794083206747345, 1.0545439523724927, 2.8240324233272855, 6.5405203449612745, 1.8372505218168858, 1.3528163238771476, -8.142384475824931, -4.634807192192169, -2.133248283215332, 1.7031026214639327, 3.358568652885978, 1.876164874052344, -0.3805334442290649, -1.6045500460954751, -5.812188031971905, -2.65711101546312, -2.247410577055506, 1.4386069411252054, -3.4932095584347116, 4.2197025707942135, 4.120710621481149, 1.3130372560796841, 0.018155432392160886, 2.7534048271772966, 3.136544563747952, 2.5472892639893514, -0.13955247850208818, -1.9806475699694472, 0.19290589061568886, 4.501872158095355, 1.0059555962290898, -0.12378259172883865, 0.5923497464424898, 1.6921521164176414, 6.921839252393804, -0.047486759084438446, -3.0854456352784583, 0.11633163957263437, -0.5977483042854723, -1.6708076197132042, 0.30775191433888893, 1.1071963565308263, -1.9920862644175361, -1.498818154913494, -3.5682635852094786, 0.6565857044380699, -1.4484383613715393, -3.1479872233979087, 1.9167721361245134, -0.48642224014813185, 2.2784541996823857, 4.917515004379321, -2.8093911663271975, -2.820046751898142, -3.169475853829651, -0.07155400049549043, 0.9877452497538375, -6.295474194561059, -1.3968783655810155, -4.324098366026647, -2.0560502963910157, 3.3829454662877243, 0.6750964345311758, 5.282023117375346, 1.836441154671383, -1.652257692200997, -5.285528879164423, -3.1422225867580584, -5.071720705017243, -5.746372362541397, 4.419147715016962, -1.541928850254302, 1.547639933656145, 0.3033179799194492, -0.9740447936026377, 1.4718639196696808, 8.07596645803245, -0.11057225440524487, -1.1737590203806965, -3.4673261978678065, -4.144555133113384, -4.274303282417419, 2.3673676549734766, 1.1763491874760375, -0.394157876869751, -2.4475353469563332, -3.1069449448616604, -4.553580174258775, -1.8356807835443096, -3.211079479626228, -5.542794992504276, -3.2609162191788217, 1.284799994599147, -1.5675073387870797, -1.610250501689518, -5.537899451278539, 0.06215407720878208, -1.9994146467253122, 1.546706195508699, -3.1837790580931946, -3.3893936802948303, 1.1021779382301284, -0.17034557344116708, -1.8850661557029615, 1.5826305103695537, -2.2403066842494557, -0.039762242626323885, 1.6526227255120487, -2.3766996353018355, -3.0907757227106925, 4.204112446498264, 5.905344155169628, 0.6421668560999465, -3.5120020278149253, -0.8478727896907203, 3.6036137864418505, 1.3223037435529834, -3.148263448085739, -1.4844617870634043, 2.5902950409721024, -1.6440406168425847, -1.459367344636508, -0.5118603292789742, 9.523834876712778, 7.657239972111512, -1.858942387098853, 3.0056896402427595, 2.8073691522870416, 1.1083543009297916, -4.330738595339948, -2.5537798622165266, -3.4646926762849644, -4.542322075985901, -4.281659253572875, 0.8248257950106095, 5.689360282075957, -0.6211416507656817, 0.30466412411942523, -3.679849614366442, -2.323163911859676, 3.1089098188341993, 0.7228762388429413, -2.1408387094800507, -3.4666447884180505, -2.6018768284864606, 1.7850014696005294, -6.153065959113316, -4.254798056914236, 1.5832581310632419, -6.894384392458672, 6.325849484068095, 3.8054342903077014, 3.8900528684070235, -1.2165214425578041, 1.5460042847620317, -1.3214416114794978, -3.255976946532016, 2.2318242326407143, 0.6165699768206703, -6.678473502838045, 0.12673364026712153, -3.046301905085058, -0.2719930165302169, -2.9300994459927585, 0.7834063746737516, 6.937843745594488, -5.831681120352469, -1.0051242601659645, 3.7709142698552993, 2.4119056086957174, 3.2092185353828437, -6.4839485726844, -3.2702911623796815, 3.696662035845449, 2.3858529985500976, -1.9963029549768119, 2.073572895613683, 2.6717663092264665, -3.617455740105937, -1.9892793710603112, 2.2789666019838446, 0.26757176468374233, -3.005363986649103, -0.40128124673133825, 0.9455798968678288, 2.253592530374396, 2.489585712551574, -1.7077926603421196, -2.4542097817886557, 4.492570240776754, 3.9243493218741508, 8.10295051808295, 0.8166776354660612, -3.7861714858493607, 4.013291185867879, 3.787280436814533, 0.7540281601302488, -5.615834467191488, -2.6759982235307107, -4.859241196191812, -1.0994683353270769, -1.58745647560611, 3.569369474278723, 2.8578688429105377, 0.614270062089413, -1.871234391025788, -5.585995592292511, 1.9410096902260268, 4.822600538615328, -0.783356966663823, 3.3559034692022625, -0.22282539708732507, -1.0069254757155426, -6.49790996905699, -5.8652586970957366, -6.684800517560285, 1.97404947536754, 1.280236798948378, 0.2148193626204331, 3.0005401929592566, -0.27849387439491025, 0.6121354913461534, -2.9620204981860043, 1.6297597111421056, 3.6131856586624878, 0.4556275700561063, -0.9117617215091944, 1.7219454309284385, 5.41831047127611, 4.023194827708467, -0.6509066111791713, -0.7548770790759618, 3.8852660726693706, 1.450188756483353, -1.9863441787804719, 3.552604437989089, -4.897442390564555, -0.047900526058868964, -1.0274537418465475, 3.5098853105380243, -3.3969829991078937, 0.26173261527823155, -3.7500423647463537, 1.5895281148210465, -2.3285184969879067, -1.3112612376041708, -0.5868886388803431, -6.820745779542004, -3.3573167561902246, -1.1476591472567308, 5.39699077190999, -3.403557019091955, -2.3328897898713814, 4.358648352650178, -3.207068948153266, 0.1553600905408461, -1.7973444017631572, 4.371219732037308, 0.8045081279116866, 5.4778528359140655, -6.169795766773461, 4.722007785246288, 5.844700129786395, -0.10917971907699764, 0.989121808762701, 2.108064225227376, -6.852415149079169, 0.9045603604331205, 0.10999097315866457, 2.636639893849816, -1.5932929079072204, -0.36664034240935217, -4.410357949663726, 1.1147040693074084, 6.066203837653465, 0.3903536806614134, 1.9841206326072394, 1.2619113354594536, 4.20342099011769, 5.160741735788536, -4.192055442933898, 4.337282370881844, -1.0030194318558057, 4.726795791594068, 3.8737150784063967, -1.4075183605626047, 1.2716360553062023, -0.1837143841980271, -3.1722172658049406, 9.926852024153309, 3.009066494670872, -0.9558122235388677, -2.2097117364380443, 2.7864470411433544, 4.307776824034638, 2.147745567995524, 1.6388854439998495, 4.731667597587659, 2.8537020272938225, -1.5287360094956681, -0.4560522712061723, -0.11414406003384858, -0.0944104409737182, 2.9033737111052345, 4.198462218753292, -4.7888988784779425, -2.70636081673916, -2.714494192466555, -3.1951175475103666, 0.07760130551001332, -4.394461131799327, 4.937745524437334, -0.8406312494975983, -6.742778294780002, 0.9157992176734937, 1.0948429887686402, 6.118185136123245, -0.6815645892114908, -1.815905271653702, 0.8334946290158218, -1.1548973986983322, -2.6334423209185913, 1.6560343728676425, 3.8163177319717505, 1.0269556857211022, -1.2469827199695185, 2.4038490371715406, -0.449249053792519, -0.36900788448886757, -0.7236558698546178, -4.607734704537015, -2.8081901470324864, 4.7107107249833975, 2.5813687651220016, 0.045998706533745715, 3.9002765972398805, -2.530469628470725, 3.445634045924466, 1.2506074013388293, -3.6590208680330836, -2.076848357252035, -5.432148251986825, -2.3932365160866858, -4.2302036371769365, -0.792077125718567, -5.115218022235197, 1.0054745958121503, -1.6870280258690449, 5.929554415989861, 0.20436047094945975, 1.7923042515660246, -2.2580567381767267, 5.2960696563293554, -3.163387234457973, -1.2912837035144542, -0.21140304538191468, 4.0724606511712995, -6.361528078183716, -7.0811525345934925, 2.2921454744575365, 2.1125967403437604, -1.1133369647896212, 7.313882772790613, 1.1770530999171989, -3.3376441967991104, -2.893314884718148, -4.8026971697102425, 1.6523878237693888, 1.5569391576367195, 1.302633579725513, 6.846293371897985, 0.8223135515140712, -2.031203108699646, -4.180867101515424, 2.4871440665786615, 3.241327188543817, -1.8395291586823723, 0.1827433495223969, 3.6005541812137123, 0.22298680663888248, -0.9989798149109477, 6.421091054910116, -6.594638488243428, 5.164402052162079, -3.635647704235041, 3.152639993506746, -0.8059820418497352, 6.389636680457942, 1.3734353429224022, -2.7601266611618795, -4.879397708399592, 0.39127146337703045, 0.04615763661375638, -1.8949878050255227, -4.398879774136861, 3.857533065264458, -0.0907705875103808, 3.781617254556495, 2.6881929710551358, 2.5875140987376684, -1.976139972178841, 0.8866859637834819, 1.148152475266551, 4.177177787304214, 6.884826447163469, -1.2078222757827364, 0.7295412194996089, 7.95709804662185, 0.29705083374185604, 0.3811108998193453, -1.8111777145827865, -3.1462475397195933, 6.1471543480901385, -3.9706790740400093, -4.143265031207694, -1.273598889445656, -6.3249259038841155, 3.035950164068116, 2.1577369973383487, 5.170591383159626, 7.126101422292598, -2.7902728376743773, 2.194564844235583, 1.8765023766174562, 1.9853398245607892, 6.607029146385854, 2.0720533681709377, 1.5598970552700364, -6.807916301593591, 1.0604804506515872, -5.127419922647209, 3.6015849465545404, 1.4242941393479933, 2.0818322422934505, -5.071028500547547, -5.0359768034068475, -0.5098144397227441, 2.95011551207834, 3.010166133061823, -5.710878683242495, -1.0467649895251727, 6.849599567286605, 1.1808879833673265, 0.8731356652058118, 2.518831108476151, -4.094248428737387, 0.43030198930335883, 2.094801219888105, -8.99753621897443, -0.4497950409260143, 3.1726320632424034, 2.1835166138898625, -1.9100602417978354, -1.3048330091896012, -0.2945948905574255, 1.7223775708221112, 2.2710440889214993, 3.5490388365753205, -0.3499085185366324, 1.3329386772810876, -2.4568749813410147, -3.821732486260647, -5.673774521893122, 1.3825763299985203, -0.450763075076521, 6.079906743474356, 2.511337025224949, 2.996814413852465, 3.6030778794955225, -0.6178784682423399, 0.47901729193180387, -1.613765319049392, -2.144777991480336, -0.15073690041729437, 5.110528454137739, -3.3478968421508353, 2.4385975561770667, -0.3191354992710914, -3.8616273467929694, 2.220861935627258, 3.506367571681678, -0.5057491922538755, 3.2318424656169853, 1.9413365673258811, 0.8097550123154087, -0.22111361678555175, -0.12488875167987479, -5.36999723825719, -2.851975328306017, -4.057983845703577, 4.631453733753896, -5.775898991603594, -1.7992535370252203, -1.0169598550562717, 0.16912945810560043, -4.362384909102667, -4.357399898775638, 4.142536271998099, 4.484614878912854, -1.6382726509221075, -1.7591336361338035, -2.998578348567814, -6.0391728260176425, 3.288040081644178, -4.143614782352032, 4.391497091279309, -1.3020767800300082, -4.971886659817003, 5.836184727070538, -2.685953800813352, -3.014124699463326, -6.23553766561664, 2.5468360846817255, 2.8705229273184916, -2.7739947329615697, -2.5893822287908774, -2.1767508918467224, -3.3251574185732062, 1.3351950100708958, 0.37146353812923505, 2.8384711561135254, 2.416660681859821, 2.2719203548323827, -5.454838777570963, 4.98839221238447, 0.6293690295117536, -2.2281791887247664, -2.1353586900761696, -5.546168083200204, -3.981147642772848, 0.061138873300401686, 2.488559728385992, -0.35175863166375687, -4.571641680350995, 1.8230503233095359, -1.1173505224400702, 4.853645076841534, 0.03421523303998364, -0.8555209000152627, 3.1932142599542557, 4.255215039367098, 3.2181464541284743, -3.837276850017283, 6.709818615351153, -0.11116016035111465, -1.8774661688018464, 0.26200914605757397, 2.126847782187697, 1.7108044958733366, 3.4264768114768094, -2.222960096595674, -1.794413998736465, -1.419148176651312, 1.1667909147659583, 0.4791573372783735, 5.296590944216773, -1.3717809138686787, -1.9809066486496774, 1.4381240038367835, -2.2313180886458728, 1.3704278149131763, -3.688929896624095, 0.7500628750121898, -1.5310596593594774, 3.033831435584476, 6.418531516357719, 7.965229260195311, 1.157328511337698, -1.6496992649821571, -5.418898776549724, -6.1606868370817, 2.0635130715128858, 3.7835296483468204, -6.754921518564929, -1.1406561953269696, -1.2361976038381703, 6.782268268204225, 5.230070432146816, 3.2181382646602117], "biases_list": [-1.0599206608457759, 2.672153417574073, -2.5103383738897938, 3.537646836980473, 6.151124978085373, 0.5978243709619175, 4.423977431840018, 0.42988971646286056, -3.427342788566187, 1.867976296302916, 2.220168854185015, -2.312015155234822, 0.06649516280780032, -2.2999294480952166, -5.726687833094713, 4.807109553228607, 4.906408240074818, 2.9497374048505405, -5.874143390063579, -0.3528880203763409, -2.6139932149841094, -0.47328360021796667, -3.6682770144365864, -5.553627187612762, 3.22958169278317, 2.1311617429298044, -3.59883195334643, 0.271472271895425, 2.6374474499666842, 2.542660365869462, -0.0989950771056245, 0.13560693383920563, 4.062902057892536, -0.8587009538002839, -0.06229143450075125, 2.050280913079379], "shape": [27.302879934280682, 15.437180560071678, 15.029688079663682, 5.278928633241071]}, {"weight_list": [-6.835933407094849, -9.867820516490601, 3.81136465022054, -9.823102944791678, 1.854430901356391, -6.825046401012022, -1.7998703080220828, -2.0808464409518894, 5.528691534780968, -6.797978043640478, 7.262290386921055, -5.456089508627155, -3.9572499817188405, -4.016499376620342, -6.5225103581368105, 9.38163994239844, 5.291496083152619, -4.5643167374808975, 7.27049904530562, -7.853689093955872, -9.885546685649357, -0.4966959938560134, -3.42730754557852, -4.452028375903778, -9.346846498651287, 7.930299330772726, 4.440819284263423, -7.073444498679313, -6.740538453776899, -6.854840913914321, -3.2761053453439466, -3.411007611338343, 6.395387587511628, -0.3949340325499957, -7.555926831606287, -1.2702771319567532, 7.145344401625216, -0.23192440295364314, 7.391943728354178, 7.823884466612675, -4.411626888324188, -2.737580644316955, 7.3259568011866065, 2.1530826657861333, -3.3874156997460814, -9.11020811465778, -2.0002099028576996, -3.1761539081960493, -4.440186146299174, 7.615626740921105, 5.229879681409775, -4.225645416436885, -7.3936805219383235, -0.040315132155674505, 4.183001128793322, 7.277781612596765, -2.7322366238312057, -8.72806664454891, -8.385824375734657, 6.893637709787495, -6.96677524138021, 0.03908669892433991, 8.081399716742048, -2.9299927548413525, 4.1807497032181455, 2.4911248960921757, 4.153341500197904, -2.4053578263858766, -1.1338812583458662, -1.0319092883748375, 9.281043200908648, -1.7005149732946911, -4.656812329254542, 4.042442679450254, 6.9975538567912245, 5.385659095426675, 0.8704334101217768, -3.1190235702903717, -8.875012012777288, 0.2912547595069537, 0.183438430583724, -7.575383242969274, -6.517187624786002, -6.097201970147534, 2.30475691398858, -9.444066494862033, 9.629842180889195, 4.970858412626667, -3.331813191317938, 4.605799322355427, 4.865647538173297, 3.9710623003506313, -8.439497587376048, 6.913989588031473, 2.9493833137473935, 7.244467339231441, 4.814015617719695, 4.48858164297093, -0.442247611918825, -9.50831729696337, -5.8920982930757155, -5.1687091525193445, -1.5617357531723783, -0.6942145765800749, 7.704722302481251, 2.8721459958868643, 0.3253963966587605, -0.5832391491744389, 3.7341995885965513, -2.4479044419062905, 2.8268708238873046, 4.234364613478661, -4.507640427880744, -5.15902505715985, 3.269463585388044, 3.822858958221115, -4.5399300484701826, -0.10342252365489912, 4.275669091490695, 5.545794659400148, 6.139772703133524, 8.853918813644597, -8.376471634989995, 9.09464416414556, -1.1694800780558872, -2.2918707673339567, -0.7672452661345286, 6.865824493855335, 2.1172971739170308, 4.540534161717504, 3.1789186926357793, -1.4263380116350852, -9.067362119429003, 4.192185884630494, 2.365429149158185, -2.1582159235506264, 9.926838169367645, 2.922564059976768, 2.5248979161035052, -3.393226266645737, 0.4789281411324815, -8.461375317501874, -0.2106562593493404, -3.2086697905107027, -9.706411658403669, -8.385974523993767, -0.06924451102052842, 0.7709909184774215, 9.232132894692512, 0.18617058279929388, 6.600772211950726, 3.323566128274326, 8.81983010767756, 6.371583837369986, 6.745637007624023, 4.979065068444317, -8.172815386270695, -4.306788692369121, -4.9956660461468, 8.168299413606054, 3.4183248408475606, -4.894158349056541, 8.069764772388467, -1.9424200382156247, 2.332437505260323, -3.5485605469725234, -1.2616625307490992, 4.351294312693772, 6.211101708861868, -0.3169177807007131, 0.6961417319162049, -5.392460188937431, 1.6859677095814796, -4.630542134261663, 1.5363693140181738, 8.804632155141292, 1.5540022998172098, 9.04234142546738, 5.018929415977752, 4.19294057347966, 8.433695719643616, 4.407102658368498, -3.041122525676718, 4.986546225604062, 8.881868110302236, -0.3210216962868433, -4.83169109692132, 4.210175196926521, -3.9830748541140792, -3.5114085933844263, -2.542696489773957, 7.2189008152568945, 4.8487817931145045, -3.0399936125181926, 1.099840697921536, -5.240351651823452, -0.36396046255416437, -6.555148537507356, 3.6989750308879383, 3.0167369971871025, -9.551188343960959, -7.800675052144054, -9.381529150619244, -5.353058002065967, -8.464811505388028, 0.405893654172198, -0.5439573563882849, 7.605208234543003, -7.567158162494048, 6.0892169849827695, -8.55322635600805, -9.25531616390344, -3.371076307068817, 2.822859543169887, 7.382395153118928, 9.443938510559622, 5.540180373222336, 8.481060216336907, -4.478277088554945, -3.8635446619522895, -0.905458831470991, 4.640278173648058, 3.5073499927821636, -1.5323345692834494, -4.748420436588717, -3.207085732874944, 1.7790860983223826, 1.2891397169417615, -2.8534943480868495, -2.202991814809197, 8.92275374619939, -7.867526930415059, 9.12186849982804, 4.985131670272464, 4.849902152756018, -8.744996692283301, -1.6768060987668871, -9.720865337593995, 1.4200358016341035, -2.9080993132090978, -5.638695496598489, -8.416457313325648, -9.007984956116141, 8.713307597108944, 3.4657078322598682, 2.7473026532939944, 5.123293790130008, -8.10041224467016, -5.379599940437707, 7.495039423016387, -6.117801034259038, 1.2344466386981008, 4.624158167966481, -8.280293692555624, -2.939156937497991, -0.7980461461090229, 4.887593719369011, -3.651066126227156, -9.549638741756866, 5.205037940967896, 4.585852281462648, 7.537187301554667, 5.01826936691284, 6.21663975509129, -8.744195783358961, -4.506946720582146, -5.727682619996008, -7.7850030508818024, -4.226852086805897, -5.408759704874915, 9.536711188969043, 4.3468970274995495, 1.6075706785346924, -9.829587453683196, 5.5109210473823715, -7.8513922939353, -7.224648026205463, 7.206760322129547, 2.2211945172705754, 2.293351993711985, 3.826566609476881, 1.6620960151248116, 8.224551708878302, 4.590927648576548, 7.547067899777563, 5.28504377922901, 7.543521294258724, -4.183148324979726, 0.9020753585524481, 4.818395183466658, 2.741821400162536, -5.920737778480765, -7.112765922658757, -0.08621636713312775, -3.736927676378759, -7.406670239218112, -2.0345712844095925, 9.225633446193505, -2.6235916075048804, 6.692226245782539, -5.9414128259261805, -5.642230582069782, -0.8437326963723013, 5.090654694817152, 0.6289404486660288, 0.9987500524532358, 5.776670227511932, 4.136567676541873, 9.25297866717061, -2.2299104640946528, 4.93481973186711, -4.4185064485613745, 6.751735117155569, -8.11699162247308, -4.125887663812369, 6.973864798565142, -3.821112459938824, -4.233648492058459, 2.3310160221094574, 4.218348931437815, -2.9348569832706684, 3.571940234912482, 8.464309935278287, 6.772172722880789, -8.857529795359028, -1.854146542764795, 7.386629622005195, 9.0505728058362, -1.2070296028470135, -9.548613092113849, -2.8546029804596547, 7.684423838126996, 1.905532363333398, 8.115107027797482, -6.890495844685674, -0.14708317212343758, 2.5900766816494674, 0.2850229903923118, -8.298523668294557, 9.34775473643236, -0.7430393280205205, -6.652327123229198, 5.868594314852984, -6.547635396145108, 6.760146384285644, 9.139755926539369, 5.085562725493595, -3.2123489417591795, 6.577497727359145, -0.5791212467698905, -5.278461380821826, 0.5933670269789495, -1.6485600880618652, -9.147312697355524, 3.889698856861962, -7.941656294666819, 2.7937077917582727, -0.3167289127900439, 3.4943655345959215, 6.295498873411709, 2.722210615881833, 2.6140669951242046, 5.871749813051251, 2.080825272144722, 8.54345986467732, 8.434847538258307, 7.732291297029644, -2.6399623801682415, -8.130147773264206, 7.628997626844711, 5.628152901691594, -8.08546054505265, -4.884716873020459, -5.0256617786917595, -1.0818686572129508, -2.3937845205742754, -0.27816546952839616, 2.0735489863298504, -4.634682319024179, -6.59471417103485, 3.1524712418170875, -3.103671552677141, 6.179728451221489, 1.1872650277950125, 2.2912303717542564, 1.3165577583258745, 4.226472021527666, -4.948021683125951, -3.135101407285217, -1.499676681240107, -5.336320635037843, -4.949565751602581, 5.478950172663019, -3.4516537931346036, -7.2283917916522284, 7.050510043836152, -3.7432725863030676, -9.627125820645396, -8.750682263987255, 4.2959859270402845, -7.94675098526244, -4.9981642090332805, -0.5263401927681635, -7.428616354556992, 7.052783998241978, -0.03405299407349638, 3.127949909201499, -8.595802714553685, 8.64504988905648, 6.991477468352013, 6.5974998154270885, -8.945067560165636, -6.414467890445175, -4.087690264108199, -8.619493792290296, -3.4449195838040003, 3.213102204017364, 1.636846250498012, -5.032766636716883, 5.056828483821169, 1.9786843533784335, -7.728094953350815, -8.403123986916212, -8.818817444443678, -4.0209947931469525, 2.040530321813696, -8.103464697352223, -4.429833329470632, 6.675177246113222, 8.188091263629154, -7.630615371627316, 6.445968746522141, -2.73436914315095, -7.076624027412692, -8.759851051367182, 0.1543663704918643, 2.037516348599766, 4.898208550459369, -2.9401093161838165, -1.6655565925220408, 7.5410361105784, -3.5889666053247264, 3.7479786868669507, -2.141450231154673, -2.161820088848174, -1.7607904181646727, -3.3867974858583754, -8.789153200834344, 8.39221513210041, -9.072668304565099, -3.019633201659926, 2.5070795391764644, 5.8071544463975115, -4.565593758871421, 6.956003137324661, -0.6800725355254897, 9.250412394010901, -3.7744043788344612, -3.6656358478238698, -1.048993521048729, -4.005993153704182, 2.369381558432057, 0.45861867275198875, -7.981719482030869, -1.5507751422912683, 3.980750798881905, 2.210495759347724, 3.439101210950941, 6.577691934022326, -0.14070466616391109, 1.1100286411668936, -4.189052747497179, 4.499318106430287, 3.6472830025408083, -6.952738289288081, -1.9158070720789322, 2.733250458634366, 4.397283419865696, 2.3073741918966064, -3.3267599387802456, -2.028427932934207, 4.887868195706449, -0.7904523692755276, -5.5457825000478795, -0.6795674785961321, -2.6202454508743926, -8.636580394228815, -0.31339187509202837, -0.7435890783822785, 3.5640910552405565, 7.769854729008255, 4.956265219023354, -4.067778932498223, -8.381668278091524, -1.1221030387142754, -1.0554481426390332, -9.313431592931547, 6.992106675680599, 8.026939107052176, -9.341871369610859, 3.130491077375998, 1.5931876554967221, 9.669285492254879, -6.184105405612968, 4.237128376674125, 9.527247432993743, 4.886380556956844, -0.3814871198229479, -0.18939207743708053, -5.280909886219978, -9.885617505828597, -9.883232303571333, 4.56679835514791, 3.2385728267263083, -4.8842022614214375, -8.653646033425414, 3.093785637994074, 2.9340473199481902, 7.593634695382484, -2.178428068604279, 6.08522755607552, -5.242046947087584, 9.663920386448098, -6.431219208927974, 5.462865555869643, -8.424590806294932, 1.556529781989731, 1.8366032679593793, 5.019486266611896, -5.695386364900525, 1.7869660424697482, -3.906978417331704, -9.474120638636087, -1.7094240536330538, 4.185503702569003, 2.8377385010314207, -1.4259044695854897, -0.5979362252032416, -4.066721824239452, 9.597727229254303, 2.1648626554635015, -8.430876958379496, -1.5211041814512747, -6.622662373159473, 4.436550369572636, 5.359145131238419, -6.339143677194238, 2.940208215714959, -8.204418300638128, -2.5187651007098815, -9.102288068639597, -1.556404567078646, -5.4550019970157155, -8.960434333222755, -8.366080484676939, -0.038670887081293515, 6.790925175807363, -7.449598009356608, -3.2402066929971802, 7.235718319747853, -7.399024505634233, -4.605984782520212, -1.8468653838784626, -6.168587754696264, 6.777785731671319, 3.7371369165915613, 3.526005024104146, -3.257953199266046, 1.9771975258820884, 7.756955778689598, -3.2189594324292603, -0.9942074131743777, 4.165765468313298, 9.50853443037969, 7.969553033922846, -9.244661753779067, 6.492268373780593, 4.084491178667754, -7.065204113397825, -5.686173041905363, 0.5871307850158569, -0.17125058383893155, -0.5669055466911281, -5.270806417200193, 7.568518228709621, -2.68085801710483, -7.383085358842251, -4.050495881089984, -0.4266767292038729, -2.450104900738703, 8.879912823966372, -6.866000842311212, 6.854738758629377, -4.991598396048205, 3.00120144597658, 1.1242243900178988, -3.999815701608293, -9.105114158927314, 2.140317830452183, -9.952997850571652, 6.608923824674402, 7.92724890405843, 7.439560453038819, -1.754125239242823, 1.881196467369623, -4.266841829593377, -4.168903560982741, -1.1341484643838164, 7.718350287604345, -0.6436158737591668, -9.557073618403686, -5.434993463090027, -5.016742501935276, -4.732209019051751, -4.613887464336277, -5.24248644498255, -4.797302415235592, 2.620009088992534, 3.9378021144832758, -0.6827778360103274, -3.0142491238646363, -7.554906096725191, 7.572060274680169, -4.656598975072919, -8.212584476979893, 9.561676717350355, -5.486516141041696, -9.177033165720616, 3.409439906288421, 3.159307532404707, 3.437810123216609, -4.52235840085917, -7.189131641027076, 7.763286505797005, -0.6304599466919107, 3.915997940320379, 4.526553970407194, 8.106607583837768, 2.31950683412337, 8.807970805117339, -0.8306733223278009, -4.066844031955412, -6.749429274111607, -7.976890438357582, 1.140324659708444, -2.379612600256271, -2.6033786197839763, -4.3825778857553015, 0.8436433640387637, 2.894032077444555, 7.632050192923682, 8.172175690948759, 1.3078160858198355, 0.3405987226659484, 3.2518342546127332, -5.2238437823385535, -7.591493125871709, -8.533778142997996, -3.477359649035394, 1.4724296731752613, 4.031725832351068, -9.863248310084225, -8.657474398128155, -2.029096920516558, 3.3450108657150857, 8.485058041759594, -4.466078402885114, 6.429814750594325, -5.1794351499430835, 4.237534733390467, 4.120439869381656, -8.304980400334795, -2.9959654776786104, 2.7958774528343966, 0.6166079512626368, -8.039557833934879, -7.714354276255577, 9.71849533119195, 5.825131346579562, 4.121135241160996, 1.4356945911286125, -3.6439469084441107, 7.988509261733828, 8.960194743045228, -9.927872064256853, 8.716892770150594, 8.833767484792538, 4.137955801672559, 9.520280920178937, -4.529017503868642, 4.904236383327408, 1.282198282200003, -3.1413798953325873, -5.915104951884674, -2.3729026946473137, 2.840421455311299, 0.3201549833616575, -7.667068376633887, -2.8084578004057192, -4.033220963404174, -2.348270508286701, 8.791274445373666, -9.827328024458925, -6.268939280418131, -4.186518427258434, -8.037429213772636, -8.138692642255164, 9.900913925061609, 5.53807547217084, -2.4753269216481417, 8.751096803249133, -1.3790371894960618, 4.156445467506876, -0.6791307200474872, 4.564742020452206, -5.133539584339227, -3.21911316324395, 1.4094352540778416, 7.254059456802636, 9.880199609247732, 2.8223509775999833, -4.92280550288071, -6.802041626107727, 8.611593007444121, 4.186988990510965, 8.266926087294792, -5.617972401497344, -3.0751933107559566, 3.0740367674999476, -4.20665122638934, 6.508147620842685, -9.577626833048745, -4.246448860574949, 1.0894467281623292, -1.7341732673073178, 0.7496102536448106, 5.7191551711971105, 9.517358046421165, 3.9565576483005245, 5.316107351604289, -0.6452048145364468, -4.706312210621815, 9.896479302906958, -8.034848898424427, 3.9904718539573736, -0.1620288473576874, 2.5808155704888147, -8.306553954570223, -2.747196543845911, -3.8466070910116645, -0.5076323919595964, -9.85063190609945], "biases_list": [3.6262206258991583, 7.849080216297317, 2.2392045826456126, -7.080996949185412, 6.671403421425502, -2.188677487256432, 3.874376673367653, -4.21938637559101, 3.694696198239347, -7.079762196413462, -3.0344381787465124, 1.2260170005083495, 3.8383417624652534, 5.873705023811482, 1.5478227916467002, 5.7595280720711255, 4.334605096696329, -3.0106619165495445, -6.436585303734381, -9.338457501316844, 1.3917130612710267, 0.8973120591088151, 5.713070424014566, -7.419820753696548, 1.9482138310187693, -6.847575596534192, 7.17775702467479, -8.20761508055816, 4.2934217377459145, -0.24747160730215612, -9.996907377884979, -5.009176961600639, 9.09392424552166, 1.2594767785409893, -4.623339098493147, 5.539216116186756]}, {"weight_list": [1.1083323864731498, 4.352441225042253, 1.7203990780796277, -2.937903987245206, -1.760864903359801, -4.936875993148631, 4.416625359397707, 2.2837726333319432, 2.854377154914234, 1.175208981877307, 2.714780614886281, 2.143484281404781, -0.32806112572493284, -2.682758093561526, 0.6887231991401748, 2.6901905851604537, 3.493288272640343, -2.535385005928762, 2.269518908013747, 0.7154693795518781, -1.395894922334726, 6.283112384954635, 5.030070571244658, 3.176800887980586, -1.7716165321724098, 2.6509721749041146, -2.385134560577728, -4.754839119089063, -3.5370675372410787, -0.5322233570516726, 0.9241866503398102, -0.7324119813485792, -5.082344807144651, 1.215238346689958, 1.4645648612516124, -1.8078154691724482, 2.8388739864850887, -1.7041856873875842, -2.6092652050404537, -2.0948733861495983, 3.9885360949950712, -3.029548690959457, 0.0538829560961287, 1.6915808727432986, -3.780275981296958, 5.0834622805985585, -5.584975802394451, 2.1725304808420924, -2.3374805119235393, 0.6076891843776258, -2.9859237086280404, 1.0629031839863599, -4.052590136934491, 0.9771604002257164, -3.4223414550367184, -0.8548585042728523, 0.3714372112957667, -4.213370011130342, 5.252757837279131, 7.417172177190363, -0.864783766729095, -2.897159557511891, -3.742240279057654, -2.7961185223307075, 1.3403199344742953, 1.0443782420969296, 6.186843583026313, -1.1239854701614114, 2.294824651777842, 1.0950590008314092, -2.44201802754914, -7.063036006322928, 2.138461828301476, -5.389047056125668, -1.3509200146777498, -1.5881033377073326, 2.759689730254601, -8.085768861349038, -0.18704707257839037, 1.314944795704411, -0.7681182878111034, -1.2132761404118808, -2.010779486252369, -1.1189467126235109, 1.0799653549935955, 2.441622585469726, -0.9646253571537333, 3.869879288015894, 1.79768656795987, -0.20461428059635378, 3.38647522789965, 3.6757181264573813, -3.758424931218668, -2.7799091564121077, -0.5194934985191426, -1.41757274072645, -0.5479188866834446, 3.578055263056288, 0.4134180716451432, -3.7487677657735112, 7.340552425768733, -3.759742578605577, -0.644706233614144, -1.9311882476680797, 5.266901299478601, -0.12574054762899978, 1.4746603276891808, 3.958718047318312, 2.98969546858679, -0.4547486970424208, 6.218749547960991, -1.8827849572953974, -0.425594298196894, -3.5294005302977194, 3.5498470101262765, -6.363933080520289, 2.8198683719227557, 1.6301599364840063, 3.3856046715556456, 0.06514794824311432, 0.9233079349196731, -1.329533573076892, 1.3469873465550046, 1.126774450233298, 6.437354179169461, 4.212808983056334, -5.091737862700737, -7.541837100316091, 4.261147726608996, -0.7757303600376464, 3.2325587246298086, 4.817122373658356, 5.7948743129954146, -4.1615212682499605, -4.339119941183181, -4.690814165375516, 0.7946089175850848, 2.554378725282694, 3.1769945574619562, 2.3840075109222525, 2.0265568978750172, 2.98862009399506, -5.6349896323333475, -1.5220010065271568, -4.563420512417206, 3.3691039702826755, -3.757467788330366, 3.105496309083337, 0.10048615152825247, -5.966152399865686, -0.34092788702728505, -3.50309761115152, -2.8818781978086676, -0.49744058488615783, -5.799150242839344, -6.008676037973659, 2.9554985799365254, 0.558408808146118, 2.996436568431073, 3.0203438943157703, -1.6083045808121408, 1.1451767386413376, -5.602538002782117, 4.3185420682062725, -4.046709865692266, 0.7572497255394697, 0.4901749223134395, -1.6788139002194304, -0.38351131835733054, -2.493014140499633, -2.011493967458873, -0.9060835082008794, 0.16176611949321051, -0.8689036006175754, 2.622578845640943, 2.319246556375277, 6.479789983925388, 2.0759949304873873, -0.05855173373069955, -8.313025506033556, -2.601699161231286, -2.4120623634408895, 2.110781557845689, 2.2772731813997087, 3.1003912889690444, 0.8253080552564034, -2.3170453507070095, -4.661784216797978, -1.9600021242754078, -1.025126559460125, 3.2836900619735143, -3.191899912578784, 4.66921461656068, 4.6704749517861845, 2.6272471204122594, -0.499855744849496, 1.4498815616171505, 1.5077488611243535, 3.567308894966077, -0.2385252800134885, -2.302931783846156, 0.5575791522616655, 2.625053451426242, 0.2081701248556751, -0.682963824861979, 2.136696440512278, 0.8166903004069579, 7.6971262435415255, 1.8072884800696825, -2.6930067289088377, 0.03887291862815334, 0.12335769155789222, -2.1345963576173603, -1.390407228297088, -1.0862475700613223, -1.6149926825698027, -0.7807159900416181, -2.0772463996733395, 1.6880229515671648, -0.8210048040889918, -3.215623065157163, 0.643678752720467, -0.2605412385961874, 1.28451548973425, 5.475485974657523, -3.719923088996283, -3.071212611730974, -2.895851101950579, -0.858304287408889, 1.0937024101314616, -6.248648380776326, -1.061553473845631, -4.528817802226127, -2.3695814468480876, 2.0343994877338494, 0.6509361515198369, 5.351731497924842, 0.013226340260775515, -1.3859538668238607, -6.319732658894087, -2.9973363755515736, -6.02023075107115, -6.286352525657053, 4.089454706825229, -0.8563708758013144, 4.129084692231029, 3.423948666520401, -1.1758016971416556, 2.705454812650907, 7.485635934712931, 2.269407786986832, -3.936829300834921, -2.721248184281978, -3.7237107783677663, -3.550150534989079, 2.5881325917900693, 0.28051447052937784, 0.5849054630105497, -3.6705197983493205, -2.0079706255454424, -3.8389109410194844, -1.7745049063608032, -3.876743138643195, -4.340146224283642, -4.342866706236151, 0.16903041073752, -1.266992318076106, -1.0276620485744183, -5.148084408253269, 0.4423065596270612, -1.589825985379702, 0.810682869507928, -2.4868572855678357, -3.195589448048798, 1.8139428568083336, 1.270237549628988, -2.915984648056022, 1.9554778302021392, -1.9861086798458818, -0.008576492704065908, 1.4779375964465777, -0.4890310936045874, -3.0995787647657957, 2.990089978844604, 6.247876101080031, 0.6766309624040399, -2.4482929623934537, -0.5232060867008301, 3.6212470457751778, 2.1452968868857965, -3.9140688759413935, -1.5836245396908089, 4.109572719037662, -2.9070950733680796, -0.8011339533681618, -0.15895039392248111, 8.822279718904381, 8.108192830816222, -2.8314154560409985, 3.9150366426123666, 1.7349433112306238, 0.8021564056948507, -2.626882706569745, -1.210397121343789, -4.160384900135953, -3.6050220903782844, -3.0628928997199703, 1.3076896832537122, 4.026247851445078, -2.8226717719992576, -0.18179152761006523, -0.8745814557566431, -3.117633240230229, 3.987725821403161, 0.9777136922065315, -1.9833967071437055, -3.784621383447445, -2.53484642939571, 2.467973067581255, -5.958174737031472, -3.149871760147962, 2.2449343094095813, -6.768912272745283, 4.536960978565716, 3.894107196730242, 3.0309652845617663, -0.011526372089504133, 1.103927553563194, -1.8362525346999279, -3.4774620054154717, 2.682503760491328, 1.5302361609493476, -7.773438579604268, 0.5337295722320368, -3.2852935738689464, 0.30981279884163837, -3.5842846268674826, -0.918701412875734, 6.217411072135119, -5.969217575788603, -1.9407436891648595, 3.5164041228085523, 0.4631282529992662, 4.613549395911225, -2.948889306793377, -1.8600167400115084, 2.9294087989898494, 1.2789857054748035, -1.7027183531111574, 1.820871433241694, 1.3458585295106107, -4.859959427790132, -1.5884292707589194, 2.5528219804081775, 0.584248703623985, -3.5553885075955765, -0.653640213937996, 0.03791709742984484, 4.5734137857508985, 2.098926154685007, -1.0626266978652876, -4.158955395467382, 3.589427476824941, 2.5665832375928606, 7.049938997776035, -0.09614384567930911, -5.970237175798928, 3.091533273476559, 2.6019536229585674, 1.3047437136259301, -5.836656699663318, -1.0932102889004938, -3.438980236887631, -0.8344396888027064, -2.660294955382205, 2.7285004763491014, 2.074406038193799, 0.7563182384003708, -2.1556946045088425, -4.820587880011783, 2.4099057833469177, 2.0143384515643543, -0.6870889083445775, 5.08170824958858, 0.9267458391201597, -1.5651049357241138, -5.649691540027934, -5.3183818309744115, -7.282887920096595, 1.2208293453111185, 0.6212843658401948, -0.5108606075779805, 3.2768303048821874, -0.61784465408972, 1.471917764161061, -4.9212970223269945, 0.5431971853403001, 6.352498714239803, 2.876323164360219, -1.3623324565887178, 1.3937453685063996, 3.7425681913703874, 3.4859842443607683, -2.233647366381645, -1.4535072404125033, 3.713611937422529, 1.0563392372951173, -4.586235895092306, 3.1012441824574672, -2.147167084342765, 0.572935572115354, -1.6764299736655361, 2.751115032302574, -4.346456011822865, 2.5080326510327935, -5.79463425017461, 1.688987236760334, -3.2055393052612766, -2.214534588047698, -0.8355080641437234, -7.49322124503308, -2.6711813930882924, -0.47619312406197534, 4.003792960561102, -2.398524772303595, -0.8417986544861377, 4.112689654384663, -3.7498215731922278, -0.6614872184238789, -2.4575347801246306, 4.254356263913988, 0.6493903682261939, 5.5428742692794195, -3.3573017862365884, 5.383863656297265, 4.71620440112188, -1.6413960503916594, 0.7565852278134348, 1.1300733702213117, -4.545857629674712, -0.46615238319731844, 1.0656029423840838, 2.6551843919135276, -0.015684417532556894, 1.499722424168774, -4.582809471039252, 1.191619530357257, 7.092303798058127, 1.9307779559922738, 3.6350506820720083, 0.7075992689135167, 3.5822633985091272, 3.2596375404542473, -5.789526800927168, 4.432328806530487, -0.1713119048315952, 3.8172911978467345, 4.032880356332043, -2.5261872722765437, 1.162867057424279, 1.2823984000793511, -3.2593647524721776, 10.238074163152104, 3.8597457761697918, -0.41380119432662377, -0.9565539898865474, 1.4223979125405286, 3.580228361628998, 2.589199820011121, 2.8534899224178205, 4.143400926936703, 0.46951117046678204, -1.8548664215649515, 0.43856359590932703, 1.075475785776253, 0.7950650599862179, 5.316151944704799, 2.416980031744731, -6.458634254222903, -2.959738450667639, -2.297744203932046, -5.5080806567912814, 1.0867400790250255, -4.588016983250306, 4.261081000337927, -1.1012840387641365, -5.3161658163715195, -0.20970257589761743, -0.6497262210634254, 5.117255946478842, 1.7043171887851152, -3.546819823642698, -1.2557159610847295, -0.13856961405727342, -3.4531074934397896, -0.06499172545574683, 4.105645278384374, 0.28956334427246877, 2.267225365732851, 0.06914684390902925, -0.17178230870078093, -1.0914873159718255, 0.7453718976693011, -2.7349076394882204, -2.074376691586511, 3.5924401919589437, 2.266443796439879, -2.6044359665746795, 2.9953638009813393, -2.176887784986355, 1.930848878775555, 0.5197942025365831, -3.373689179489639, -2.618011573451502, -4.876921076631577, -1.8264803553987423, -4.856914344801886, -1.5825687964713007, -3.4212932501187376, 1.7329393487192148, -4.107904741717837, 5.098081919547828, 0.9742191356443657, 0.9935247950036874, -2.2216847745012642, 5.850755452613489, -3.9123608239982515, -2.5176324139087525, 0.5265590647207536, 4.856252225596454, -5.64862461578645, -6.252386407792446, 2.089059676157205, 3.2758717444025836, -3.8608756794633727, 7.691288063889301, 1.451987379265132, -3.667116004309434, -2.6600008506625326, -4.023593748307348, 2.0394561190652283, 2.0162215881348367, 0.3881755373606117, 4.930102349790917, 1.6629382972389521, -0.7831455899609042, -3.459823809042174, 1.2051243484982157, 2.4807688736348315, 0.7073473014904832, 1.0106226842632875, 3.9436480899183737, 0.4592963252798703, -2.41346293884865, 5.574082213340009, -5.022285232811232, 5.233130011739007, -4.31417980806667, 3.3593092845456916, -0.12109745542959227, 6.30859042488747, 0.2847311393151859, -3.614897664545702, -3.187749833434741, 1.1826760335770041, 0.06569709490495423, -1.0770729994048756, -2.588604313803084, 2.9718024700641172, 1.0320860456837146, 3.286787279502861, 4.218406246422871, 2.6765279112715303, -1.4716553634215952, 1.4785999355896777, 1.091001157326012, 4.131266929318961, 6.1588122044943105, -0.3728249868352058, -0.32180856491224885, 8.817046963037065, -1.3757142522315586, 1.7308376456893289, -1.0168277867361486, -2.715518331977051, 6.617211997483188, -3.0657853583283385, -5.638677621415553, -1.6120462395509636, -7.34295535951982, 4.168198408944747, 1.6759296598867763, 5.133518794668573, 4.725771215980982, -2.861323016070015, -0.21440719072156722, 0.7773839436723793, 2.291549114340149, 8.503658456018474, 0.8575028119786394, 1.6966690554486972, -6.68880961388592, 0.43377222011741323, -4.540597405748535, 2.3844924302157873, 2.253811276843564, 0.21334180762264943, -4.692958541700058, -5.131106873253799, -0.0004051583433966055, 2.1961619518516944, 1.7317565196819107, -4.815009591980187, -1.268006964406813, 3.9587164354566813, 0.29003607047896907, 0.7017047013803466, 4.52010935467802, -3.8040925613740786, 0.8333807695423983, 1.8661079468682065, -9.831294631713904, -0.4609043122715849, 0.43416240664294414, 0.7745283474893707, -0.601480589672637, -1.7188524519495845, 0.09579513736511247, 1.7389933927585188, 3.0280744800107753, 2.9015273411088858, -0.9370074407229321, 3.090288078497541, -1.6723564282028465, -2.61974742612374, -5.931614260070273, 0.2395172820958149, 1.4360077850162636, 4.525915433928244, 3.085096127856401, 2.737762263780171, 1.3215035316031827, -1.1881197977591014, 1.5074371424679383, -0.6374369076176994, -2.7038763829694203, -1.5071711436920743, 5.578741226459853, -3.419156370257341, 4.093670218394343, -1.7368791654767566, -4.120725882970376, 2.6153451668201324, 4.635012046281723, -2.4001442769767354, 3.575172156253542, 1.1369057014747677, -0.3033969875904726, -0.34183943261452465, -1.1955921436982448, -4.012663087070905, -2.3030997209352186, -5.0167740725938685, 3.3293771347059398, -3.547976683683144, -2.733864431921619, 0.47750286366088357, -1.1656050241345728, -2.839904419145337, -3.7130352351840235, 4.16850824586305, 4.765161254762067, -0.11224157859438777, -1.9586768370693552, -2.482240673592222, -6.088489921008277, 2.78851679550154, -4.455521501349429, 4.541694861147741, -2.13112458541586, -4.264091669777081, 6.994859057184689, -1.4972413108234166, -2.5707447300769335, -5.055501005247203, 2.600345802441039, 2.7189613477941297, -1.3462687944101284, -2.9526742555596233, -2.947858710171019, -4.840954276220522, 1.245575277423037, -1.5255149858957504, 2.71540281499347, 2.095307302483701, 2.8268883421161304, -3.954773693047281, 5.820985190536878, 0.06925184105356541, -0.7226955664353001, -2.4881344014260844, -4.954447631700855, -2.695856819150324, -0.8633799176650554, 2.605083383554521, 0.5094530406622748, -2.2411209811289328, 2.3881329699475984, -2.4977954208878996, 3.7931254571639768, 0.16474997509921785, -0.14829818471578715, 3.7034794443417507, 2.952241229913019, 1.7588416860029112, -3.482357939458515, 9.399210555189391, -1.7117335116987398, -1.4340409371086733, -0.6951501800240216, -0.9822348493765105, 1.3414479864884137, 3.6778287497286852, -3.80015326777788, -2.068504072399308, -0.6053026776815053, 1.1444621946715405, -1.7421839319299721, 4.118960573429099, -1.158330949563871, -1.7370906925683767, 0.30611549762053647, -2.5390633803616676, 1.2643777686540139, -2.036835585727373, 4.27349718974423, -3.4123184321990507, 2.6302136002702365, 5.445156096222713, 8.304896207968028, 1.2754374245702502, -2.242443443888937, -5.511333722843476, -4.882416568116274, 2.0007265906522322, 2.8104019986772797, -5.93299201094213, -2.088479716300238, 0.21828018923140613, 5.654742086900992, 5.249157016522899, 4.533534934869198], "biases_list": [-1.815414824212156, 4.158766059645084, -3.360733040665967, 4.857625169831698, 8.495170727097124, 1.5340315256507182, 2.8540899748506208, 1.3780134918782099, -3.275880094635177, 0.8310234819925162, 3.3537333272526446, -0.6148415614952975, -1.3916623162212804, -2.9637194644719993, -3.877095884814458, 5.991817829596321, 3.336408951469404, 2.3966997649004016, -6.562688304833758, 0.7525012022649844, -2.8815575576953845, -1.6283287179658394, -3.6328782511093847, -3.5639925997229245, 4.011786373414344, 2.445741606278681, -2.3831709355930344, 1.2630211340513648, 1.314696123994623, 3.01875236911372, -1.1911593093956134, -0.5383416494224198, 4.480186271365643, -0.7336999570139573, -0.23842296096128746, 4.0159638293273], "shape": [27.753547822478396, 14.515610530026235, 14.502692672873119, 4.9059736554575615]}, {"weight_list": [-0.819729016439954, 3.852023068943563, 1.0034857549801695, -4.040403452461612, -2.4107412011423524, -4.100595235416855, 4.317338427006272, 1.4516323725732452, 2.4043065551766594, 0.25872434660902455, 2.241410154129103, 1.173561814192237, -1.2783138321163714, -1.672770405094255, 0.09201017847599258, 2.0755945275116106, 4.073407005400226, -3.1905920235624095, 3.2088103687084084, -0.03702399688195612, -1.255925433206776, 6.188218148758624, 4.530829858944446, 2.618031775653556, -1.402284213435223, 0.522219119761201, -3.974628824687482, -5.672105728938563, -2.7925644037303092, -0.05647934224659068, 1.471843855641108, -1.492956361322113, -3.9980328764741637, 1.6341965877464597, 1.3276371840906496, -2.2465875982567898, 2.4354227727415454, -3.7159509544250504, -2.7732060517895496, -0.8660813581750628, 4.007120533273454, -2.377816119974842, -0.23970541923427613, -0.3522109646393692, -5.373897695914352, 6.290256926259425, -6.58438157754812, 1.4995191786576036, -1.6676997649625362, 0.2838751206988459, -2.8066584626610926, 0.9548245615063364, -3.891214625968462, -0.2963804985444862, -2.8477969081154133, -1.2812060751440675, 0.14636001279717448, -4.431569610796572, 5.556472265163939, 8.163969462011394, -0.331344879627122, -3.824532891794593, -4.25889234095003, -3.295595015953742, 0.4853895668049, 0.96266607899677, 4.587512331745039, -2.0664255614544365, 2.2333384942456465, 0.06272775690257704, -0.7988060200770211, -6.293965905513962, 1.6852105413548744, -5.40174554320045, -1.9600983612189353, -1.1375626120423725, 3.440407758815865, -8.320430298863768, 0.041141155047604405, 2.462902054404582, -1.8985030148591304, -1.3301636405009647, -0.8795627216840844, -1.3289681085582667, 0.5390126844833691, 3.721196162725625, -2.562977099686761, 3.4971788290999557, 1.7367770406930938, -1.0367187267012872, 3.1116408202605186, 1.8602046838549722, -3.2789969331549766, -3.5581025773926616, -0.5283514374190044, 0.10638995377308702, -1.5603888021367478, 3.5022596976084523, -1.2303569743982297, -4.279594835882563, 7.171275792321291, -5.0674543983530524, -0.3504346013171882, -2.429417210301784, 5.10502809969876, 0.9432382052037511, -0.3819077144900682, 4.596621126175117, 3.2237738077495948, 0.7566430123902923, 4.982141909381342, -2.505558376967509, -0.41233258967091857, -4.288558873196479, 3.7381271452204086, -5.752547013686613, 3.6056978748205024, 1.264761915289749, 4.401914493437204, 0.19525002241402767, 0.4318356691769174, -2.757226152366193, 3.49685538379497, -0.056245218492906535, 6.445973481734629, 5.702208390654753, -6.699049010324762, -8.001480067505481, 3.09236362934693, -1.5069881473822129, 3.813067709282092, 3.788625180529772, 3.440550294726381, -4.328474758950922, -3.677989038596751, -5.6667457414418525, 2.2281683919592563, 3.2365100276108976, 3.1503062878497685, 3.1929216689963926, 0.6325454719570038, 4.145371848291012, -6.089669401139302, -0.946751683665082, -3.802269051632295, 3.6995222425687135, -4.039164226660644, 2.748724093150523, -1.2893854312606456, -4.322608180487254, 0.7655498853968519, -3.132562181337285, -3.078233743317643, -1.9946677312255414, -6.260421803380646, -5.596740204191599, 2.881055321047185, -0.36946186872401265, 2.481562313198645, 3.537214689148609, -1.323686112298733, 1.3167272975973447, -6.608385212471365, 4.389591669095846, -3.255078506295186, 0.15296239058717775, 1.4097234868581596, -2.2934511620151476, 0.31296244458610145, -4.327782407623355, -2.4616431624085635, -0.42696523652249707, 0.32739838150303546, -1.0486915249397608, 2.3117948939099966, 3.5008630611898903, 6.20134109699244, 2.2861108764734817, 0.8109990128880553, -6.671913847649243, -4.952193986547641, -3.0986363391405574, 2.2610838272458675, 3.0271096209367947, 2.0190824635414906, -0.3693514511003344, -2.0631895376437144, -6.228841247164649, -3.108914806011106, -1.7520097039743199, 1.8154658433783082, -3.6798941953161366, 4.477741422591903, 4.683750457439584, 2.8398034535158985, -0.5854808202902884, 2.692659773965837, 3.106466410482307, 4.264827761288644, -0.35439858736434293, -3.1761212630119084, 0.8074163164019574, 2.849906276802271, 1.1579238423155882, 0.339957738992382, 1.885192413132346, 1.1745043044252061, 6.1888292118067945, 2.261135195864428, -1.9094853123831403, 0.00064454644442824, 0.19447421418256128, -3.475917951809438, -0.5396809761563116, 0.36909454597180447, -0.3582354979447713, -0.6253986153094941, -2.208218111688102, 1.2433962474497502, -0.8239402354402855, -3.3125866151561576, 0.6199700123068239, -1.0190094234330729, 1.2343121006603397, 4.0933314726369705, -3.0666322391071326, -2.326598043178336, -2.593601825909057, -0.2002999950454849, -0.6217185365240879, -4.345685306517071, -0.6409748733898384, -4.129064963385769, -1.9703523978037079, 2.589362774438654, 1.8697600638312486, 5.505233037134754, 1.660569908001908, -2.499041310145489, -4.768642213631837, -3.2620898286005273, -4.4799211473575635, -5.966363353870502, 4.461780889395159, -1.2596694770252708, 1.856793997201339, 2.5911617537492297, -0.8611803706492718, 2.025889864897712, 7.68107994850163, 0.10649499117423522, -1.7528253013033395, -2.9304899101697526, -4.835896872063062, -3.7259147839132236, 2.0088592891791435, 1.3773160481072146, -0.7954872380796867, -2.8110002910396923, -2.778737420039053, -3.7061138832544236, -1.892194878141009, -2.3828838250948388, -5.046449493365841, -3.515031147278541, 2.1215009716859665, -0.09818470428056247, -0.16576489693642538, -6.649418513206195, 0.5796117448699274, -1.9528177201111079, 1.3686833560018545, -3.939358959942905, -2.408039855114043, 2.519763317575248, 0.9926634062273068, -1.8309314050825722, 1.920671388284684, -1.217744551023883, -0.28961134248800335, 2.1440993041052927, -2.072946165338533, -2.0034166997665874, 3.289991942381236, 6.252781398736434, 1.36952077752027, -3.548725134406427, -2.1514821019192603, 3.569540025908295, 1.3252836353788338, -4.273700540023333, -1.9652434294034504, 4.214647992106343, -2.4149604827261912, 0.10566051251356479, -1.0580570752714125, 9.009914876907153, 8.22227707916168, -2.938507577452279, 2.949273237389959, 1.7321308004531737, -0.49213302099417144, -3.4509077103259704, -2.6840425789347147, -2.659831677814121, -3.2908979925843913, -2.655359822869073, 0.8973166580842071, 4.850617303636777, -1.2162200367601566, -0.9900146076632913, -3.3499962691453025, -2.002307515175114, 3.766692548590372, 0.9976111451244778, -1.3037481402337476, -3.6065781075151016, -2.6689849285696616, 2.3987584182747153, -5.381470180127341, -4.3267677647686975, 1.780630822229119, -6.942478035674593, 5.563878730504549, 4.164811777214627, 2.9816597385719823, -0.85578709672114, 1.0664068805078286, -1.7887329964356518, -3.5041133781239835, 3.5153507717951804, 0.7358166129435548, -6.635844474454338, 0.3693992498292804, -3.9526634726361904, 0.49657634162313435, -1.7079909949537033, -0.3926053606134824, 5.671264077158579, -6.04362677310224, -1.6723775642181604, 3.4587195397437567, 1.5188794181982668, 3.1943860134943556, -4.173980512330235, -2.1272325772575766, 3.437885047672303, 1.6134691657532043, -0.8912384878058865, 2.2482497242424575, 1.6683882235967542, -3.5017831201036467, -1.3802296131714382, 2.412358094426188, 0.9313164258451005, -2.7873721368981594, 0.12430528890256776, 0.7441575641060121, 3.0575455631480075, 1.0473219959254942, -0.8892000727354589, -3.1231469223554225, 3.9218354308637275, 2.677970004404087, 8.097266876306747, 1.4118840370556263, -5.787807578677121, 3.207642253164966, 2.07698983986798, 0.668170300625766, -6.1687813621867305, -2.695459523807434, -3.2608138199122143, -0.7327235798596172, -2.78072088267009, 2.7008063099212336, 1.585615205132036, -0.8832437239928534, -1.5175662492949513, -4.674363074643788, 1.5139493149784355, 4.1659040261302795, -1.6965186466599358, 5.564422937411081, 1.292175160527227, -2.0967583681330204, -6.576596386617006, -4.68051331375735, -6.807249778948372, 1.7416783352117298, 1.530158708800898, -1.0894438503152024, 3.1968865536315487, 0.4544097881962843, 1.0481932209465619, -3.7981998172190883, 1.4788453664161914, 4.488010298244049, 1.8076633968829423, -2.0074646346235774, 2.1345363955077308, 3.640272949463311, 4.3459441621913415, -2.72016361112473, -1.011002722233048, 3.6871263133477443, 2.612821458798442, -4.280112775447482, 3.232554786432255, -4.490573681363671, 0.2711896807156804, -1.8196411942288364, 3.6709648290072785, -1.8609954695364503, 0.4632877763061569, -4.835851040671126, 0.01442178874864819, -3.349765646267345, -0.9825414524052023, -1.525216500521943, -6.160623657375314, -3.6555238411191384, -1.5346046839264313, 4.973039714966028, -1.5083827634487725, -1.6598693104566276, 4.430285109056954, -3.11637654787209, -0.4596919375560439, -1.3343976635775074, 5.021140617169576, -0.3121564122838514, 7.099940925123663, -4.6419584220077645, 4.9488269618668665, 6.684895501124559, 0.04698917416198567, 1.194350236285021, 1.4030259003340295, -6.550333230794614, 0.7951486244952317, 0.6995982241318612, 2.712907768914348, -0.14953585386158663, 1.042992252901636, -4.070993618970555, 0.30310679256694506, 6.517804983418024, 0.5278409791628966, 3.2849656876978877, 1.5518171331399309, 3.4587551312999167, 5.140449454694679, -4.504550996356876, 4.6817108984171405, -2.0961397630817302, 4.2190458337543655, 3.935910788423496, -3.2640755311576215, 1.2612606841126839, -0.25289787393060215, -3.889265799896018, 9.538165676348068, 2.785499462982102, -0.20406443657154272, -1.877722692190988, 1.252296928432894, 4.862929745205976, 1.1049171286111825, 1.861625748355729, 5.758413308633445, 2.0189891967407165, -0.4544149852301924, -0.03699611572235095, 0.13897452353806372, -0.3588900126580845, 3.5309525105780573, 4.005693420665879, -5.432311228552588, -1.9960948569818295, -1.7772587175558157, -5.724702129122978, -0.4638106509078884, -4.298728768038029, 4.529583191477922, -0.26898145710701626, -6.680723961056671, 0.1812755266979198, 0.9076379324357022, 5.413575769409693, -0.7327660891593789, -2.2389259245760567, 0.34331775255359265, 0.13669684760627288, -3.7179098311009944, 2.0003395577946455, 3.2306663712714005, 0.8963739219646738, -0.3285698443699606, 1.7754609864818307, -1.3645053499853992, -0.8150262408167156, -1.5604167506300395, -3.2027367619107294, -2.9875497354120473, 3.419752630368661, 2.455011317486953, -1.0397331568683232, 3.6031713971817485, -2.0285574609991093, 3.8357535704635985, 1.6110928665420965, -3.611726879514474, -3.574440119623975, -4.6778093567159615, -2.419436610933886, -4.6571670180171925, -0.9902917138095135, -5.416097329342307, 0.1756498955859067, -2.6645887980455782, 4.821204567140832, -0.22507875263250288, 0.8146275345718565, -3.065250385140633, 5.315772908668681, -3.7274412365186764, -1.4874478166887342, 0.34830141999601283, 3.379114845677311, -6.112943907477825, -6.84152101074387, 1.7172318344725133, 2.014650313699984, -3.178408216898081, 7.196086640115249, 1.3914244421643307, -3.1061899403098368, -1.9561819644492269, -5.298670188931862, 1.3528959787264858, 1.954286040475262, 0.9376431484637386, 6.582369777298122, 2.009156648090865, -1.3479126509421044, -3.870175291236407, 1.1705438319301686, 2.943800748089477, 0.03592211635740217, 1.3217606104636745, 3.463724186233791, 0.441272247926888, -2.6152065428137243, 6.2383041913975585, -5.303806869119394, 4.599484370390301, -4.684403515971143, 3.542288685839404, -1.3914307526675636, 6.643925087478158, 0.8291761747115125, -2.481227450892365, -4.4741204203458596, 0.9293584604072529, -0.13228734669372477, -0.8297028971994145, -3.9814280661443977, 2.6462643145875413, 0.13860928730092326, 3.4024320162128667, 4.7229969025110075, 1.6092326384133333, -2.688385470703852, 0.9047643212001579, 0.4187272557730819, 4.180584605027093, 5.846588550411237, -0.07894857337449102, -0.13288616046447332, 9.486565351454875, -0.7333005583854642, -0.5718604289581181, -0.935858981634974, -2.867880597974809, 7.113305498358232, -2.255888428694653, -3.944998728317359, -0.21974291292351222, -7.446499012313711, 3.589551344876009, 2.5720739364225507, 4.717583833030436, 6.0421041352855624, -3.6088421889493794, -0.21320004065642895, 1.4912406808155154, 1.2146446568369704, 8.245172796717034, 1.7276971939142118, 1.8175362159494015, -5.7125445700784425, 0.9078174397033645, -5.996480361552395, 3.5323053677120217, 1.5050395559570928, 1.569374914291533, -5.493930853627746, -4.38150093514714, 0.5566159114935336, 2.4465225113206532, 2.9403534464709393, -5.223402859548129, -2.0050022333574145, 5.059683192173578, 0.6213784934370286, 0.10197350221671209, 2.8867254854356217, -2.784032023005759, 0.6226512970993994, 1.1227033922194303, -9.736977261118842, 0.6519164329529743, 1.754838512726412, 2.4866054225031333, -1.2520480417491124, -1.8511749579851948, 0.00700901570713186, 2.2154837695558696, 2.1693010794402743, 4.638483582652835, -1.0667794155402892, 1.5689828278214835, -0.5879291813951506, -2.871959724105068, -4.6016403464758415, 0.4111387583937287, 1.6020164742428058, 5.4515401616056645, 2.9358992464881672, 3.347998120537694, 2.7916063950217813, -1.1074145466035858, 1.5146495342438646, -1.2669000722312413, -2.2201579960538282, 0.46574949837543733, 5.1619287976171755, -3.051965684451999, 3.3766995644941327, -1.4508902090166393, -3.888807031971554, 3.1739572965616, 4.767033157992233, 0.008036062986370052, 3.1019125883889904, 1.8745130701409112, 0.4895780527106619, -1.6040278831627062, -0.977172381353304, -3.3765335488492596, -3.0463763661878582, -3.7633480362407488, 5.0501747871405485, -5.536749955930537, -3.4971381965164356, -1.3626214278720787, -0.16174441458272282, -3.0262808396452234, -2.8129626795385168, 4.573704569068658, 4.847807505450405, -2.271571293801143, -1.638249244130018, -2.836108453604182, -4.997468717275591, 3.967871296180486, -4.492187173145863, 4.933655041541366, -2.7165040148594164, -4.919149584432005, 6.968280584165556, -1.6055335809280809, -2.9859169071082983, -6.993116290759607, 1.5843483176747233, 2.527615764421903, -2.9102463176383653, -1.4055270768814057, -3.1091248935321687, -4.695613042966269, 1.887450689680537, -1.2743510211610591, 2.725622126875776, 1.9991187019549908, 1.8449695059031606, -5.1952222482370205, 5.538831560625141, -0.8175776584698523, -2.6254970683235355, -1.5076860546741389, -6.512779656183245, -2.7750119531234088, -0.3411494769788276, 3.365045762319081, 0.47008944506086126, -4.2789567377772935, 1.4502643692365078, -1.2917388793425508, 4.234974014118343, 1.5841938829917872, -1.2411590578110994, 4.262766162106512, 2.5345051886881818, 1.688453818643922, -2.7427684301382382, 8.648270536788928, -1.2150020406817625, -1.375297698432036, 0.10693942222198238, 0.21271012345758478, 1.7013322180334423, 1.908771469687443, -1.8371187604032144, -2.2128095388987132, -0.9504190317035706, 1.6858408713068038, -0.6913328518034785, 5.152569580063094, -0.07569299206568258, -2.0386990336497623, 2.1210026196404805, -2.026598239292246, 0.7006305619394235, -4.095533440803521, 2.4234843718361225, -3.011465587382224, 1.6212566860975777, 6.401915736460064, 7.191273084023045, 1.4995302103583232, -1.748103773483325, -6.463402899742136, -5.244315793674535, 1.9988668956242353, 4.934741433639321, -6.501240295417037, -1.3626268045593142, -1.3527890485494938, 5.124789736463833, 4.167935709393813, 4.7420391537344875], "biases_list": [-1.556232422095864, 1.8615661438152116, -2.7214995552391086, 4.416912187890967, 8.277905066326031, 0.7118117929967953, 2.900209656445197, 1.3028443420168703, -4.352623938873963, 1.6497926546396644, 3.062213057287435, -1.3430757604620152, -0.8446966813184172, -2.061499189670739, -4.149166456214097, 5.560561996481932, 4.663931935470658, 2.138076792701824, -5.7955325111795295, -0.4162834441473279, -2.221297239621542, -0.11234634010356181, -2.4892542797200576, -3.7294018978261, 3.5819055363267562, 2.3274537322794284, -1.9456596111389048, -0.1974722623322357, 2.938981118245513, 2.489639640660148, -0.8359451579502184, -0.2862814037473027, 3.071108858272055, -0.304782107324009, -0.2076599614549789, 2.041560652592075], "shape": [27.424983716333017, 15.533332390361565, 14.65775921753491, 5.12412031720113]}, {"weight_list": [-0.2680236123159849, 4.076684968302254, -0.6781599384308736, -4.269896197883544, -1.566235007542374, -6.164616682052295, 2.6969145638096315, 3.366773732740107, 3.2690517202542653, 2.023327457897918, 1.7194799503434823, 1.38520925242348, -1.3834449317717634, -2.3489002326719595, 0.8575376580246004, 2.4628612278369557, 4.561552359902634, -3.5727952073156333, 3.1515198187917344, 1.6380727489137792, -1.446383782304134, 6.19248104203598, 4.968610485780184, 3.8078625365303367, -0.9587704939950124, 1.9068392019561848, -2.668081567134056, -2.56361244131798, -3.2380599848257434, -1.5395264883898074, 0.8374574700612891, -0.9594031379840571, -2.1684077303940024, 2.460054217979274, 0.032598614876504284, -4.1696236542277845, 3.85268026160219, -3.3328748842761327, -4.529232442338278, -2.2442064977628866, 5.139997948753418, -2.9387265023886373, -0.45847158541833544, 0.45114922148154, -5.5696595576447825, 6.410010495212096, -5.855415689132328, 1.2092610829252655, -1.5237295397230175, 0.6525349430447684, -4.77999167435257, 0.6251440809741453, -2.734001410952591, 1.7594439214475974, -1.7658712086758988, 0.03671463395236829, -0.5662606210346599, -4.108512908136927, 7.193794552066979, 8.556440926624052, -3.163895302679844, -4.450568811703347, -3.0798377620986233, -4.360611342908523, 1.1509160705936168, 0.0914496451297988, 6.583962014315749, -1.3966612330248174, 3.549858054602897, 0.30272863451867593, -2.674406840783755, -5.936228644331664, 1.597300184826281, -4.917423118708368, -2.279718956882573, -3.8239862652758863, 2.5180718111316236, -7.870610191855331, -0.6781544833511917, 1.0963581163619414, -1.8810584246758675, -2.337120102631534, -0.8460350439046338, -1.7762624941273542, 1.664468162909384, 2.9458464758285183, -0.927220142989543, 2.3088533575799546, 3.5322515565782275, 0.28181889476900235, 2.337669726239848, 1.913028853660803, -5.276692212037871, -2.0730605457579614, -1.8055844869954654, -1.9142231676646269, -1.9792480117575277, 3.2376249354408007, -0.9682804448567723, -5.125285196087408, 6.183704650744947, -3.392193775001031, -1.0156364787741552, -1.6106201087102943, 4.992844635222404, 0.9128253338147403, -0.54694503935817, 3.7214572036945546, 2.9571497339635155, 1.531499012847077, 6.5512106028954165, -1.8000575463567194, -0.652211038845038, -5.295702010480914, 2.348391877708786, -5.29642592013086, 3.4398984438429405, -0.3542399705091015, 2.7719002591558874, -1.4549278144990168, -0.544356308694366, -1.370459862336615, 1.7613554777199587, 1.7259458746026928, 6.212131368512957, 4.4850767967391825, -5.381803969849595, -7.247297898132448, 3.679167939458363, -0.34219519822791056, 4.036261963107576, 2.0739256151668064, 6.109867759533571, -3.7138904092007836, -6.222300950197357, -5.297501215352598, 1.3716366903048867, 0.9284449519978326, 1.381100931526924, 3.5979564293755413, 2.800402473052284, 3.3447622644722586, -4.993222189967383, -0.36410833107370066, -4.714535929297071, 4.122459673557781, -3.3174770150925825, 2.100516680274511, -0.7765328732225099, -6.496976731081675, -0.10365312223919221, -4.760341621788811, -3.177584218509421, -1.9936208654424523, -6.336868559673538, -6.8148990389843185, 5.226238198743159, 0.7869509884505295, 3.6985218955244754, 2.436371146433749, 0.11189391068029253, 0.9025219296374598, -6.162426700831907, 4.551619386584781, -2.5513014672176393, -0.25679079420228157, 1.0097414183017785, -2.438302148016713, 2.3702448923357498, -2.298136460651098, -3.712974928382087, -0.16160664026901406, -0.416818738298265, -2.65865120138278, 2.0155727570119346, 2.980769741442764, 6.818832640154655, 2.65968663937329, 1.1510349487865978, -7.707015350575175, -2.5047908460631056, -2.4667905116595445, 1.0032642210463347, 1.8913664335749907, 2.9986770208008293, 1.6503230705785938, -1.4341157058329872, -4.574874423957727, -1.381143911207859, -0.0020540528407810843, 3.2959591485932327, -4.468932267509425, 4.7916473828283666, 5.801181887646185, 1.459794451237923, -0.20847510487020027, 1.3466483163797678, 2.8775239660176704, 2.439405606685683, 0.3194949711302877, -1.0750656288671478, -0.25618310289571133, 3.0968412769995464, 0.6909685770347944, 0.654646572081534, 2.260401673023325, -0.04682891249723298, 6.33353967218197, -0.5024434808375325, -2.913015669205836, -0.21847090242251688, -1.4526877747584575, -2.192773396700601, -1.3044817684217094, 0.5505934461779161, -1.1251465844512663, 0.6890172221582835, -2.72594373242394, 0.32583731917423986, 0.1944044614725402, -3.5965857441629465, 1.6746458744635477, 