[{"weight_list": [3.3378477984129464, 7.292550526035733, -2.428894377749949, -0.7397201672534979, -0.40302633967217727, -4.481305448774155, -2.8818500707149255, -2.205064090673381, 4.286398712927025, -2.5435475672415313, -1.5582625065730487, -2.209083103220892, -1.1316579098640267, -5.687381712123169, 4.876771513922276, -0.1291827220852939, 8.265116595133868, 2.512830372228683, 0.6675801543215036, -4.289631468351185, -1.4096376478570645, 5.4398866294872015, 8.093574067865488, -0.9013555821717676, -2.3462126946678348, 0.5813691935600915, -6.597050666785634, -0.7048885218408634, -6.134268161257041, 4.274848476274989, -1.5724905278070793, -3.2419530152607745, -1.6974353509468287, 5.163724840156351, 3.5618207957539862, -2.145051490219741, 0.5168323950710065, -4.631161425817284, -7.599413960369562, 0.7332971337489713, 5.195565142638333, -2.0300899413802833, 0.9072905615938163, -4.895026514247491, -6.774190765882813, 4.836619956387301, -3.8264242951674765, 3.955959303620274, 0.9160826663303188, -2.3018856694669934, 2.763447072481836, 1.6602783236312297, -4.712778354844678, -3.373527434421134, -7.074193778515154, 0.5983549748217172, 1.8323045044010762, -3.314831404170313, 7.2743683263451455, 8.745764317148831, 0.12353218774677055, -6.622983015689927, 4.291555042257198, -5.509464390656786, 3.9662767517568422, 2.3349661491333684, 4.3214148639251695, 2.9594187143391957, 1.1063771502953736, -2.8182671243567885, 3.3843681973579853, -6.7025266376403625, -0.09273370575292317, -8.551570732492667, 2.714685061920278, -1.8929394855588229, 0.35888378278405453, -2.22566979630612, -3.0608862314896417, -0.650475108718974, 1.4676945729925759, -5.852238709788424, -0.30859807961743435, 2.091157430266236, 1.0336267213008217, 0.1796740442871283, -2.4110664013913454, -4.307303043929575, -4.525623526017471, 0.7543264355527637, 1.74170395351058, 1.5785889234227537, 2.9633806067930966, 3.202041194073873, 1.919769901776526, 3.1434580216567776, 3.364951528937757, 3.8251883114410434, -1.1072585308516598, -6.298247239311212, 3.990324139962879, -7.558057313985561, 1.310672207484695, -1.5184371688330556, 1.9432093307664644, -4.902034098573215, 1.7231681102704668, -0.15668313642081544, 3.3328427976832886, -0.18400917581139864, 9.030294553435962, -2.6723670786122735, 2.5369021297268617, -6.478055035835322, 0.020757306965344613, -3.0007849943669895, 2.321318629374158, 0.600515715419246, 3.7110517526345994, 2.973382126227423, 0.9693917873028504, -0.5109801089383692, -0.42894941146270127, -0.6489554152886494, 0.10593115357203353, 8.46467860228919, -2.2846059829399143, -1.8762387831635212, 3.1207099229132957, 0.351009759034975, 5.363554199669824, 3.558716587156594, 1.2586263472781654, 1.4339271593950285, -2.288665126511444, -3.2361616595598255, 2.6957567972701995, 6.764696406777123, 1.0588047530744324, 6.197119952070311, 4.279158966299294, 0.8713005413326225, -3.3618611127198976, -3.5296393192941533, 1.2031147871380075, 0.13277852059205753, 2.23712284953136, 0.5491312387649554, -2.1350272795796017, -6.073664125973402, -2.7629170149635227, -3.214075984567344, -0.023292368532545016, 0.15696586248999855, -4.996832810792894, -7.917464579340135, 0.02412292887136891, 2.0117622555682044, -2.6249465729803103, -1.3640527022854074, 1.952122696860621, 5.4111282051934735, -5.492746930271753, 7.002685085423991, -4.935290717230886, -3.186722053630097, 0.8414984871795701, -6.535954545750485, -1.8873592526400056, -3.8861535609490154, -1.0468605530722488, 2.291980081875673, -2.8112944045805746, -3.3442943600713737, 1.703867722428944, 5.172496215942877, 3.5111769773277457, 0.012670858544581609, 1.477639204417506, -1.1930742800316803, 1.995041168976762, 1.6645952780376247, 2.4308922986696047, 5.701670368832093, -2.8825969424491884, 3.662653750536723, 2.3069385512950356, -5.749348356632069, 0.5971457102843354, 2.525013174687561, 6.28712049134063, -7.7996285723774115, 3.8414273765846367, 2.3662482074329705, 2.047115191341644, -2.2288352863274925, 1.3889892605272216, 0.6799184611309763, -2.4074352713627896, 2.2988286266005638, 3.1578667065781962, -4.942555036010448, -1.7366644776063798, 0.020486627605341035, -4.175549636706172, -1.1900293964916013, -1.1257546832589704, 0.03155770282891557, 4.416466842461679, -3.8745996972487795, -2.267211308597172, 0.07917172802585659, -3.468035871108424, -3.313667771866508, -4.478476196807076, 2.9976290001166412, 1.6671140821858215, 4.008957172557542, -1.5316421487766412, 0.90837563574709, 1.3265439197182745, 3.272604797184532, -0.9199761212516275, 2.4605332380324056, 3.0608236722454407, -6.233595386025964, -0.9890165773363109, -6.945066090822675, -2.4211485814826186, 2.0184976110326547, -2.32761940350703, 1.5158984832386553, -4.781963687545078, -4.144808118093614, 5.22373418300323, 5.79604585000218, 5.2989244968723215, -2.99064636174995, -2.743358638990797, -9.338812176936447, 1.5202694555901903, -5.090962009124113, -2.4772543109970755, -0.2707937676337595, -0.8734894828903319, -1.9562972186256138, -2.8089251609858814, 2.938864837023477, 1.849213323375992, -0.4305079409685355, -1.2703066722797067, -1.6624994458581608, -8.06171044387594, -2.554673536042981, 3.439712826713543, -3.7325593131402037, -0.2503737932203387, -2.2304758207740525, -1.2454869889775597, 3.383014561217035, 0.8433863085884858, -6.040187601262099, -5.311303661388116, -5.178938121288928, 1.8250775459883952, -3.2299756966559343, 0.4822531262414673, 1.1580803335252279, -4.52307574964381, -0.48425838579227376, 0.9993513569611943, -4.018533563527943, 0.11621521035241344, -0.07124719936242041, -2.847740904450201, 4.345062691855594, -3.7678634068245542, -0.06797477520813988, -4.571766670189822, 3.0309585267295516, -0.6624270579455933, -2.077157068189935, 2.9576431519116193, 2.1802822255059753, 3.64100930347303, 4.739954301104871, -1.6934571744267612, -4.007926546216057, 6.127330070779273, -0.7942861747474849, -6.351894501546465, -2.3182248261398546, 0.7650302697434337, 0.9501218153336763, -0.002948901958815253, -1.7233209311352022, 9.429418325498917, 4.88330563735912, 2.329058577243592, -1.018562326795658, 0.29958610743382086, 6.501948448418528, -4.7604081743789735, 3.898518436979705, -2.1746086434918848, -1.6315863951115592, -3.8413505556243335, -0.8677787096139131, 1.4349090004246694, 0.6275833453352462, -4.1039171323454, -2.457501855425875, 1.0757527673280771, -0.1257910256825887, -1.388239371182881, -2.583648222650636, -4.858546763738875, -3.6246648514832898, -0.26924913551436513, -2.2325936211860475, 0.7825165834992478, -5.399409850715919, -2.98045106516345, 2.2374878446340176, 7.141065424384568, -5.145575829448829, -4.693359676199696, -3.086017030741448, -2.2856510911047323, -0.7261725446639673, -2.384689779518337, 3.810102737566858, -8.610742657351205, 5.864807427101833, -0.15723249949017593, 4.529761534830381, 1.832937761338933, -4.976799063119656, 1.06367190129686, -3.551285550360216, 0.3573964034651329, -1.134243329633429, -1.6067045302623697, 0.2845065670363196, -5.5165471884127415, -3.8812420634907867, -4.20408784786063, -0.2593633602010801, 0.735035274866165, 1.8988179095654312, 1.0923683469409458, -0.89672385828653, -0.8894805234085212, -0.6215926733116799, 3.754275783928038, 3.6490555458003735, -1.3269492536057834, 5.213820081928733, 3.9675085893548694, -2.3751513419544916, 1.5058669950242596, -1.5112469907133113, 6.99552458091574, -0.7502330898765519, 1.1972278517207489, -1.1190624989419957, -0.3556134380865825, 5.27250300551924, 6.644049688737695, -0.6396156737106551, -0.2003072673020494, -0.2856760647736697, -0.13601037192669874, 1.5134780578640594, 3.7439837830237916, 2.296964500458739, -1.4895742552466105, 4.74883988973024, -3.5622127673615047, 2.4407021780896536, 1.0899273798570928, -2.879136447074301, -2.925242329159712, 6.359700101069586, 2.140484672371219, -3.5841074631824617, -5.37783222245641, -2.3499299395573527, -2.1479736028305494, 1.3871048652054543, -0.01225899324141233, 4.648809320668237, 7.04421238623201, 3.774374350577233, 1.4465097091567385, 1.981188409810585, 4.445877257019367, 1.8687506499816622, 1.7852248428212443, 3.049692054425986, 0.09648705188765483, -3.565790372164529, 4.53338860694676, -3.369274832514721, -0.8430129514924705, -0.24553909334316182, -0.40610424973148374, -5.957080225624243, 0.9795335301800838, 0.41887541547166096, 1.4567029374927083, 0.47994889533313145, -2.5408020359314496, -1.4074145763204402, 2.034236690684791, 3.4922745766584553, 5.075480192681242, 0.41015538356837, -1.2056429754539937, -3.8729236305400274, -5.3146694740645986, -5.362426045035741, 2.7232612096201256, 8.589723816174741, -7.1946522314152705, 1.612288528061784, 5.2911304736480735, -0.5660056846923607, 4.885960771945144, 0.3029353937448005, 5.030697486396284, 0.05137523949043388, 4.721420014564917, -3.9907143304169876, 4.215834642610524, 5.857386351747962, 4.289276577372558, 3.5775391445431435, -2.584573899958033, -3.8028570814214038, 1.4432408470716735, 7.123111617554745, 3.153703850264625, -4.072057780265151, -3.51096071220519, 1.5111742699415278, 2.9738188499637017, 7.05015628369809, 0.28696583118716457, 4.035305276166561, 5.8702740970263925, 0.1258273982840108, 5.697899151430388, -1.4617280762305098, -2.1073611503741243, -1.3039107487148864, 0.847169170453252, 1.9965306046700286, -0.3483488781160714, 3.4766911044220654, 2.857122625290094, -0.18562757832116472, 8.068779574192709, 0.27333357706523786, 3.2801389930918337, -5.338972614165916, 3.900162200639813, 3.257199525933965, 3.213301245200852, -0.2791063349681313, 2.5618268511555815, 5.3138543434814665, 4.257819415437584, -1.3711844874764132, 1.5025165774190548, 0.5104542802139984, -1.917438047194158, 2.7037155366345758, -9.287011671856536, -2.7507742673090085, -5.742929861860533, 0.6031473803584844, 5.117133715026146, 1.131156835372951, -1.3024870884868338, -0.841227982631612, -3.1972111305226782, 1.9012570396712523, -3.0788050919157177, 5.783704674890399, -2.6431147817469114, -5.909683725784655, 3.996355574610325, -0.9407162609387121, 1.108623229109213, 4.388184586140627, 4.315538091371685, 1.0542829826491493, -3.2645680973121145, 0.5928462061759872, 1.7644213539037654, -1.9394936190556287, 4.8988804991000885, -4.842192085115675, -3.0215320882541588, 5.482791800885055, -0.17393388702923418, -5.682944736975346, -2.1622884733653245, 0.9943046354280878, 0.4022343534857591, -1.1372156191569274, 2.790240815391935, 1.5565907680054298, -6.47670635616176, -2.4676945360627034, -0.07779171931439954, -0.7966036791927182, 1.1138234163656486, -4.275262801887973, 0.4001892544578953, -1.703523404670745, -0.4553876310362772, -0.833313779214004, 2.0499823724029937, 2.1582403187521697, -2.290770732561456, -0.32427219289051923, -3.163108675056202, 1.3710208902236611, -3.7434722275997006, -5.345492897882633, 4.375562047424276, 5.8069387979963665, -6.654515585188622, 7.10920089128723, -5.328574237339941, 0.39999992642905036, -1.8168896037856788, -5.754113420758316, -0.9235115524918422, 0.9433428843401568, 1.3979317607384245, 4.18385470341683, 0.3155232278672351, -2.1099975459685782, 0.7037605306047543, 3.3972613648731746, 4.158026035890929, -1.6784536552223115, -5.687906493942453, 6.253166146679821, 6.1930501806008635, -4.016340139729836, 4.707610989956019, -5.739794276591792, 3.6753786003087523, 1.3019254129544255, 4.2113947916990755, 0.8292029878018747, 0.12787535757051738, -3.24647391868784, -1.737072344201372, -6.338638058981422, 4.228198576993804, 5.48250082896744, 0.4234458691622345, -2.597131652438307, 6.8396534759074665, 2.5768653961053234, 1.945375010555476, 1.7560137417474975, -2.91615749157327, 0.8261241044096577, 0.15539161135083313, 4.562112476919108, 1.3706233316948215, 0.09044850456878617, -2.6945222149934143, 0.3295020251114291, 6.434106891374015, 1.9942626753723216, 1.1160208858262486, 5.0873177599977195, 1.3716839704115822, 0.27349229847426737, 1.351760732127695, -5.186469194625314, 3.52104065763897, -5.491724511357155, -0.003966149170446132, -1.0707188871346347, 1.102393884676932, -0.2877562137903593, -3.593049143162797, 2.0398905864253543, 0.2708254592409238, 4.702578753332307, 6.6285831037957195, 5.432140312560546, 2.5154911481946303, -2.0324549809111288, -1.711922769846824, -2.86466864247301, 2.1039087122277413, 0.11367959590582566, 5.094983119954365, -5.722513988640468, 1.0175304061088477, 0.6794100226471396, 4.493989606046699, -4.8405693514440085, -2.2828671200091937, -0.8749969344129196, 1.6341719544161677, 4.9653560726853945, -2.649159433945232, 1.7473374567886548, -1.7955897721861787, -4.103566382520075, 5.890969251345261, -6.914494788297925, -0.046286663312137044, 5.078209084555127, -1.6604059497461807, -0.9525962785290745, -3.012199720436682, -4.328268634207157, 2.3577408171596232, 4.143802470459791, -2.645095668653379, 4.893826397249063, 0.843951021057288, -0.2994968756672389, -2.2978005090622697, -6.902283211093049, -2.1078300136262964, 1.5032657575220214, 4.579524255946582, 7.001719986430592, 1.8615637814316992, -3.9901094981485867, -0.9252432653563258, -2.5111414141224575, 0.1844248885544455, 1.6542890312647698, 4.648513202299718, 0.20891570051634822, 1.5444294237851484, -0.3750389064735933, 0.5931124848934037, 2.976384609940335, -3.6325386545460954, 7.353500683269107, 2.171951634025726, 0.9168797962363302, -3.06727860929871, -2.4708191370645, -0.20626522654834334, -1.6686286512410984, -3.0125562787689057, -5.44482864161768, -3.6181689570255973, 5.10134416703745, -0.9897472141272992, 0.7220172135291303, -5.211577608860656, -2.73946099838305, -6.258691019456472, -0.06574267285315138, 1.453679232926559, -1.5696442498257623, -3.2855409110029403, -1.2852956595994427, -3.8617430642733312, -5.66474937090303, -0.9396991078099817, -5.255571531983632, 4.674652563943042, 4.755885810311984, -3.3015547602192203, 0.6101066640794255, 3.6698791710484153, 2.006474322890794, -6.175221606146057, 1.3321657527695576, 4.099274420038691, -5.352666862213484, -4.118333227247074, -6.275932734590743, -3.0563874085803655, -3.3027830955988104, -4.481076516169276, -0.6126138272770709, 3.8491287514695287, -0.2726483535281585, -3.915945240191049, 1.6510499803962704, 1.8962181141128096, -4.734402592714164, 2.6238926737398507, 2.6684361703900565, -2.7339348603097964, 6.541485135402911, 2.567451186485867, 1.6504967797160024, -4.514199484563094, 6.369354444166765, 3.1773754179203575, 0.07842727318399056, 0.7598160737225195, -2.7419850903803673, -3.148345263487958, 0.12010731160908694, -0.09202170210039662, -3.3773373649822744, 0.03748814024649327, 3.250440839152449, 3.6781858633980526, -1.164766964829699, -4.1433456656941505, -3.42109336729273, 6.0736843400086515, -2.5240835227773224, -1.4043281120123636, -2.8129916395767416, -1.459784306434843, 0.4154613193856318, -0.04315769800484315, -3.0491537573452874, 0.3735878806138522, -1.945268139738703, 3.276529681953388, 5.080103163704479, -4.421714447060526, 1.4471129303554697, -2.6644108052534485, -4.968543561576059, -1.797022823491307, 7.55288027061906, -0.0990798109684966, 3.101146741049871, -6.170050207633402, 0.9050706074311332, 6.57423096131498, 3.7699232190214236, -3.169447787602542, 1.0451727324640818, -3.3419157242645103, 6.871357078501196, 6.1870697258783025, 1.3768374251954292], "biases_list": [0.3042383526626731, -1.2004600141750164, 0.3826503015372671, 6.89113464889092, 5.721487502558856, 1.3178001557968617, 2.457261172422273, -4.1445929354443445, -1.9646401729101848, -4.228045827234201, -1.3099657524516883, -4.241270413431157, 2.141966999177404, -8.31028565647257, -5.775729817277376, 3.1097140899939344, 3.672208053236152, -0.5622861296385215, -2.8956341311262697, -1.9167414918373213, 0.4078243727307427, -3.1523165566115, -2.5750316721768214, 0.39588460839868755, -3.345546199742308, 7.815925876546148, 0.5155891392736662, -1.5633102194117225, 3.238254516591761, 3.277007886958466, -3.633401468462094, 0.426492375331222, -2.9127975644285593, 3.114856688384039, -0.3080538260173278, 1.1666652567148734], "shape": [27, 16, 16, 4]}, {"weight_list": [0.9642023954793548, 5.9068459718959065, 2.7824380797448045, -4.991676625160578, -3.546279938599367, -5.005777936492141, 3.2923124652277327, 3.408111373670762, 2.7625830381482794, 0.9537255070007506, 4.780100589670245, -1.153332607514882, -0.18688197888376212, -0.8564470260238422, 2.332422321520755, 5.932998104261387, 3.859048005092827, -3.836229206459217, 2.625917455175072, -0.14191077723005974, 0.19196870842445612, 4.477327038671673, 4.938799711796732, 3.0331954379609014, -1.722631838361339, 1.021870971017523, -4.312395279602042, -4.3570495535832015, -1.8962079704942754, -1.9769314742255328, 1.1012928847728665, -4.1690370787592395, -3.186861017906676, 1.7476398808413527, 2.5068940623522025, -3.157209360786037, 3.8043436849363035, -2.762166429302521, -3.9062335230013696, -4.075751671985979, 3.437401980956766, -2.677649649597952, 0.5806139181551695, 0.5422007254451331, -5.865663591070471, 8.343466594069623, -7.13462533340767, 1.05891517544145, -0.733802398354253, 1.6627157007198847, -5.150533407209927, 1.8592457729516205, -3.794646685861351, 2.002253655812633, -4.508839602318039, -1.1529216079737914, -2.4003154478734743, -4.087801033111655, 7.7914738497572, 6.790984493451058, -0.4703724859324595, -3.760671251601645, -3.763643345026126, -2.22759846584258, -0.09751236801885821, -0.9207404248861879, 6.746111287191978, -3.861048433328978, 2.7838318513901763, 2.374940261719139, -1.5182826378139436, -5.727492286841615, -0.5469178114073705, -4.155406353063773, -1.2271064180738762, -1.7106942350292489, 1.4847535605494828, -7.661869302104709, 0.9143711813210862, -0.8825260801920336, -3.021449367356758, -3.0087641192191015, -1.3026034038234857, 0.6871128098580228, -0.839072354214565, 5.653847100066815, -3.6445769709497924, 0.9462488931513731, 1.6918514152822919, -2.2858765301187995, 3.774792870234106, 4.57243939391878, -4.912570624240072, -2.3981094777594603, 0.7128624857910575, -1.1519678055276927, 0.30217501828708615, 1.8818040659347304, -2.0726708571032235, -4.14068060375222, 5.833758984013366, -4.443061753270859, -0.958444907719725, -5.194469014536815, 3.9779463844590026, 0.6485694733587692, 0.4313982899354847, 5.945859728726204, 4.150704929834949, 0.40946542639815986, 6.613992922510484, -2.574038033907846, 0.45284427818477524, -5.828642142576168, 3.2583156053387343, -6.3875234295291445, 4.496289964700415, -1.399622331554392, 1.317770934552839, -3.2992900701017103, 0.1365040283929695, -0.7995351293658819, 2.6849065214412846, 2.52447712025997, 6.12230198130207, 4.961345159436402, -5.775491220878523, -6.841509252265262, 4.121695630151592, -3.4969517473176785, 2.9953395593563394, 3.2267068390656073, 4.902284113114655, -4.459295482963924, -3.715076847274606, -4.686713794527547, 0.9168395467389003, 4.271065618042124, 0.2918030303168564, 4.075989204157889, 2.1924243889631314, 3.046785479481011, -6.995280748484388, -0.21519613232072698, -3.0356787068313116, 4.571188461071225, -3.7966581243755986, 3.6873761370096068, -1.443481879911382, -5.743946072270319, 0.6011298182878562, -3.2648342117006965, -3.397605631720178, -1.3524570293891536, -7.523103892749688, -6.901647223397922, 3.7211549981089345, 0.0017002433164392539, 3.125602896737125, 3.1895847955270185, -1.6846060482548624, 0.5793322935201555, -6.003702583972199, 5.226223312201155, -1.7519187661305073, -0.24797690647798165, 3.575098021665978, -2.904611070582341, 1.4170275554359044, -1.7564351097241357, -3.545472484090113, 0.6995287993813908, -0.47034856250430956, -0.7732842849053001, 2.390205552995737, 2.6928162871440744, 6.957668186524681, 1.4691886456555094, -1.8497540867775697, -8.216514989392504, -4.700621295728794, -0.8136273594014302, -1.1213127961136544, 5.2967660570169395, 3.68241768644849, -0.22559626443064995, -2.3680019958213476, -7.44251912496193, -3.3964253648534464, -1.847868582545841, 1.8291691977496667, -4.181645605025718, 5.263598519532992, 5.951176182912924, 2.464447370145213, 1.5898431177628423, 1.4066907487040066, 3.709480111035461, 2.649569401585782, -0.4531185320239196, -2.396722968718101, -0.22781700367657431, 4.039990966716267, 1.0228119003092204, -1.0590460055537245, 3.8626229718218124, 2.0044045959095262, 4.434938699285814, 0.16065331021726514, -3.3084315219531915, 0.5284957224007181, -1.5060095275862504, -1.133771419927161, 0.7584856924170498, -0.8719224675703424, -1.2711765939393636, -0.1564742488568771, -4.305198122198576, 0.16634812377968977, -0.058097336809413314, -1.7840054723355656, 1.5188523035035781, -0.09297831985854721, 3.1157843740200333, 2.483914829088636, -4.522240709780107, -2.5028341275782937, -3.840922787048251, -1.8210818541136462, -0.7378338842628627, -7.628051702948486, -0.6756571495630128, -3.153033923834384, -1.910612447670564, 2.4936593407652223, -0.5506083901248371, 6.346516906239891, 1.6278119311779093, 0.2559016682539559, -6.276971467612755, -3.9907298351303475, -5.772961265647315, -4.121148121436525, 4.881783760730291, -0.44226556521821103, 1.7313117307504027, 1.6694720281696522, -2.450290545141496, 1.503320602382486, 9.212921602725995, 1.4528502097623566, -1.2625061962019442, -3.679119753686812, -4.5878589286274565, -5.259156079544765, 3.145782151372771, 1.7608417832095995, 0.4076558811600912, -3.16752167069259, -1.4637014325811613, -4.3187838879403655, -2.487999600549495, -3.4581094663923855, -3.9125206025821884, -1.0118010528022732, 3.213891729186848, -2.6396234693561165, -1.142151156585943, -5.787742471480912, 0.6699747021354403, -1.366978300056872, 0.75915271660004, -3.6167252519665958, -2.7979202310797846, 1.4621652014499693, -0.19249644151664969, -1.739899161962565, 1.6553960498119258, -1.625871297270753, -2.3755395172498677, 1.032364612883713, -3.390127955355001, -4.498997011200631, 4.4538300137832385, 5.652753185474304, 2.3282322983882358, -3.5184351352896606, -1.6189501942780966, 3.646084798759185, 2.9570175577791815, -3.9406372187051035, -3.3319539123693236, 3.2860049163303717, -2.513530140274108, -1.559178110894854, -1.2285543794714031, 8.537923028858172, 8.012332109544158, -0.6522722005348858, 4.593398878089033, 1.7014760068425718, -0.4557547750387285, -2.2952174129357035, -1.8150545077937794, -4.436662208589461, -6.9486701708751255, -3.5348357330943267, 1.7125379287325755, 5.171170743585375, -1.3810273101229216, 2.5926725985922094, -3.0647387343634334, -2.8673838541842342, 3.6713452162540374, 1.3803575594869368, -2.588775597323421, -3.338353981921947, -2.082246429248447, 2.453484610770735, -6.24845006918471, -1.9847596596789123, 0.8130595018888063, -6.383569758618928, 5.999499808995053, 3.961222072784814, 3.942665288760046, -0.4708929216546389, 1.9103310280418655, -0.28568095974941543, -2.8632764735207097, 2.5287605535956628, -0.013329226402259087, -6.5766950873409495, 1.3120041346249018, -2.7670196394125157, -0.6310505620624842, -4.647155765909593, 0.1318496201290118, 6.539112177002708, -5.34573849626236, -0.3591834984134512, 3.7639697269160726, 0.6484516337381871, 2.486930021095877, -5.668448121613218, -1.235189937914107, 0.48639759683770856, 1.9234751524945244, -2.1551972598591576, 0.6875020586787204, 1.7474354070900615, -4.711262916184442, -1.18075632947582, 3.0278868431791057, -0.492474233424977, -1.2866608948257847, -1.2037389923746902, 0.6856277217861062, 2.4257037092593734, 1.9421043182689472, -1.0333872870966305, -3.697282748339598, 4.655981181836012, 3.6338310056730485, 7.764839453481942, 0.49278646378507585, -4.697720717150058, 4.838661489896315, 2.6422435363414163, 0.0038405087744095567, -5.2167975293348725, -1.9554414474499004, -5.3071514822197265, -2.0854464315806664, -0.7422060203191667, 3.712246805328978, 1.9317352878751977, 1.1533924820428663, -2.9849998233184545, -6.297065983995365, 1.4953170985182203, 5.09072935473875, -1.559196345377767, 3.6401128433127212, 1.1815005811678465, 0.5769894134407423, -6.419714745599073, -7.978778800114641, -6.143428112200868, 2.370828948174474, 3.438275052526862, 0.239747178038902, 4.948386565083412, -0.9512739811955628, 0.6788931776402742, -2.6696593754546294, 1.9525958498240907, 4.454392540103932, 1.2181701887968264, -0.35961177642218867, 0.4536286838770094, 5.957219338781767, 3.3858891852785575, -1.762725167477275, -0.6494141138722481, 4.719489836015095, 2.5872357087405735, -0.9035633153292493, 2.9631676193255743, -4.101042082768485, -0.962534863621147, -2.927257763754417, 1.0253540989291983, -3.4033944715833684, 2.0854717787637407, -5.293677590321764, 0.7311621204970837, -3.0011990294753867, -1.5928694332135773, -2.013257861706162, -7.1554285514312514, -4.298613478002799, -0.6393561868268671, 4.829112068125441, -5.3767914893622475, -1.900629483187073, 4.284408035928727, -5.687866734272648, -0.6612908699016113, -3.587607674015824, 6.079342763826349, 0.05823647733686155, 5.394707974481573, -6.240334169090447, 4.979071659869395, 5.923562571325707, -1.0489207356770052, 2.4747456917242596, 1.8641860152388006, -5.684879688089954, -1.5253030158856244, 1.4157182300841389, 3.361877073890221, -3.710480069167672, -3.092666908097396, -4.692508078559937, 1.1438194161342792, 5.233352868263983, 1.969564610740587, 1.2805007416449614, 0.786900719784372, 5.528755600175312, 3.9243669835621002, -4.222464624047063, 3.250498631511202, -0.8738339198112427, 3.394891182237018, 4.421226123218043, -1.461827307903852, 1.5157282100229983, 0.10910189161556882, -4.967259054520863, 10.08001938346312, 4.323131976892599, -1.6378727671715174, -0.48967068976633454, 0.009051914050825616, 3.14313428767748, 3.342143901799604, 1.9307513775234124, 4.507251977886217, 2.351515766212877, -3.4266387768607065, 0.0728826537448175, 0.36278392297219075, -1.6667537516087796, 3.822130977075142, 4.114347007079409, -5.751667898171987, -1.296869250343272, -2.950117245084666, -3.6845893957359124, 2.006371946538191, -2.975446844299507, 4.09186567289803, -1.129644110330194, -4.665416633407081, 1.1624528891812345, 1.2444231720780508, 6.129800585181722, 0.13090290387392756, -3.535895751901437, 1.631548997513331, -1.2222890597150577, -3.660985812374304, -0.4778924900960886, 5.138425670680792, 3.2623882025179265, -1.114124609549575, 1.3193824977088622, 2.7706729016243408, 0.5876630594572454, 0.9955424899558705, -3.601766595840617, -4.53002796404592, 6.2036450849406615, 2.4620889692684225, -0.5741623547244377, 4.247201721742147, -2.876389616672938, 3.7347616317777277, 0.7854181122212809, -2.2083129563690687, -3.7612052815852888, -4.110969098832683, -3.1004293388595205, -2.2647260002700214, -1.4751469041465899, -2.8952179834284593, 1.8976197392986371, -2.0647988398501513, 3.9191575639752356, 0.6937274292885101, 1.9394357689896653, -1.3848904400848001, 5.763027064558782, -3.3512262741351204, -3.2269241875785823, -0.4793947767802307, 3.9618249446472253, -6.478660054611666, -8.298920370794036, 1.3768839491961051, 4.123516013271184, -3.669927347437419, 6.95289829801855, -0.05304970078375004, -4.86160197905763, -1.7817308147357191, -5.896149597815913, 2.017291482632139, 1.6886407086703006, 0.6058818943999982, 6.756685034338354, 1.9510659413511116, -1.66584244462314, -3.670091595260827, 1.2790987967196097, 1.811434866487632, -1.2811054933047799, 0.2148362653277882, 3.2259165608501013, 0.8440286299341344, -2.3085487877534128, 4.738405089596611, -6.6949155071499025, 8.248960189980474, -3.702924394795417, 5.3850674830643985, -0.9831855775815983, 5.65752256174731, 0.49275600330280467, -3.6823570601713955, -5.152871894850794, 0.2857672744296287, 0.4196812780016539, -2.489484108171025, -2.6019185164738614, 4.991632216313552, 1.2519156088745333, 3.3212641467827764, 2.1105330116698378, 3.5268830141123875, -2.9923632016081347, 1.5740308949650736, 2.2931718672127848, 3.3770437794808856, 5.78704644389717, -0.6178350260673426, 0.5217037052483204, 7.641223407530703, -1.0592192086868113, 3.031604876157161, -2.9178993352071783, -2.7165795764523883, 5.86908089341518, -3.427198296184265, -5.381770271621507, -0.8214787307567474, -7.592678133691676, 2.593522697649541, 2.085982761270383, 5.391871645122134, 6.633227462830092, -1.4204984060832753, 1.8381619886021956, 1.2678803395645684, 0.5168282298747837, 8.018031901939311, 1.975247920306772, 2.379797043201, -8.112449893206517, 1.2884632996122338, -7.222303150094846, 5.097341377329531, 1.8303304096206272, 3.3640712322549406, -6.060438380267274, -3.9497344547551383, 1.1242423066573908, 3.8586443307735365, 2.4475687295074247, -7.502659909199543, -2.501445463580464, 7.351020709405422, 0.7296607842098413, 1.5189547128756242, 2.0210315230907376, -3.35381162220692, -0.44827837496678535, 0.2183865592192673, -8.990796505837071, 2.248536786001213, 4.441140638300038, 0.2509544516143767, -2.0720812748015023, -1.254078521254642, 0.6434450404995249, 2.462808547585781, 3.3196483824559877, 2.9766154663436355, -0.4628908561188593, 1.187884017142367, -1.407237786148292, -5.664412108306838, -7.291073905557872, -0.132791007336033, 0.699609326370884, 5.884609011793163, 3.0500287412375453, 4.128656520735567, 2.5594900251040826, -1.025172222955791, -4.273111539531196, -3.3638543329577537, -2.7860588480213373, -1.6515707447046097, 6.926378980332475, -4.006779757214696, 2.066622237289889, -1.8811918273231591, -4.112215822271167, 1.3133582323865491, 4.414128955121823, -2.4735471494926085, 2.170221011976218, 0.7337863863889642, -0.9556748083286442, -0.20967681259490956, 0.16071134328974823, -6.686306046817616, -1.8243538676353925, -5.760858947081337, 3.3359084231023264, -4.808957860603384, -2.820736362673962, -1.622153108263329, -2.5703791440787263, -4.3211919500540485, -3.828499474625616, 3.923868955292809, 4.553391239579594, -0.4541880683531221, -2.3844084806752424, -4.387038377457593, -5.9582064853216865, 2.5578024530980206, -3.2214213641662486, 2.8526444031128184, -3.018558467311484, -4.004586974905596, 4.317237889326895, -2.7362367808874186, -4.528530903116728, -6.0924675321437345, 2.5008618955709423, 0.48893247441426957, -1.8122981949097112, -1.2884855615637665, -2.2275565039298693, -2.8145698640076438, 2.455996217828123, 0.2717516615698239, 3.868113493945594, 2.553296093794051, 2.4622647348109927, -5.372522806042914, 4.492345779064942, -0.6279780164007704, -2.943662261131399, -2.100991001761561, -5.777782083789114, -3.8401794994553446, 0.6118231850213527, 3.0262059150927207, 0.9552121110068614, -2.208593464789721, 3.2980702563624558, -2.1761784800081583, 4.055538695662715, 1.2710987600131451, -1.31169499684138, 4.169356365242116, 1.5209729183432632, 1.8922224546879765, -3.829690357666091, 6.814971655585295, 1.2298129078551803, -2.9749590430907062, 1.4918175405461334, 0.1871667854336727, 2.627369588197509, 3.595530482055085, -1.9602035569011032, -1.6446195431937585, -3.856141687942973, 0.3991093244847437, 0.06131074730284669, 5.797205258722787, -0.6104275994472347, -1.2079490374817974, 0.8657455599460055, -0.14367072998027486, 1.7712878180047378, -3.8360171057385815, 1.568454547520636, -2.3082005000180956, 2.39064819734108, 4.853406012212689, 9.825415753504142, 0.8995899952393898, -2.5122947159285074, -5.968149440095315, -5.619264966574348, -0.029239135362033375, 2.7436539778087274, -6.036934616314265, -0.664385178000229, -0.36506872426482806, 5.772159428024082, 4.606838542568141, 2.8562333128238855], "biases_list": [-4.553467912823676, 4.371497055517801, -3.613237247132202, 5.389760187296849, 6.113849455898629, 0.8584596938668647, 3.8581639736487645, 0.537930324007889, -4.361781040929875, 0.9547948410744431, 2.343262159832812, -1.1251550485045059, -0.38302256016393077, -3.038616282092778, -6.985545964559969, 5.250332909623902, 3.959250053987966, 4.803405461683394, -5.973513053095472, -1.6886583225918743, -3.8038573062586285, -0.3818376219262043, -2.6502017368885795, -4.594794514991172, 5.538153374630617, 1.450291091314833, -1.6494878297508302, 0.8723549216712856, 4.110242862290141, 1.9756422974763206, -1.451355321781006, -0.5331499390190801, 5.793584514239844, -0.4179407404293257, -1.2032415613076926, 2.4067015633859192], "shape": [27, 16, 16, 4]}, {"weight_list": [-6.114579318069319, 4.719583837365903, 3.888491290412805, 4.279684961657651, 1.1056790393684786, -3.697719636845795, 0.6910135365965644, 9.581067043821307, -6.708071608377817, -2.612737968729495, -3.6801052636936245, 1.9104503716449592, -6.855408797083628, -2.6794982271464, -9.184831255666746, 5.84279557763292, 6.1504548947938, 2.989975809913526, -5.638492234215267, -0.6779264784429841, -0.37851735625027594, 4.452995979703939, -9.38943603204456, 9.825929655887506, -3.311252491212377, 2.032181838565439, -0.1832181875325496, -6.388218067324594, 4.962715614797288, 7.0674527849704525, 3.7736622671069995, 0.34356900250643463, 7.350112559374576, 9.783945150064739, -3.217426477418983, 0.843829794805373, 9.199418461430238, 7.282027093745036, -0.9831910622589071, 6.560084924920901, -7.025884262375817, -3.7523794786758247, 0.9296302456733248, -6.346152692240922, 3.511059270800679, 3.0902254492492283, -2.410239021165519, -4.179865224305224, 1.6886568160582272, 3.161061363491932, -5.015139663312684, 1.1448985531112417, -0.7914768323881525, 9.5136220742583, 0.9151912497234012, -4.233717285813928, -7.764442845392017, 2.1575869338838274, -0.7600396476333504, -1.6781854849798865, 0.9347018591033098, 5.397998459825876, -4.067562206598043, -2.0746045599611858, 1.6628648555059264, 0.32935379996498604, -7.881197960891075, 3.4937222991749977, -6.373515917811742, 4.804377498035443, -2.5551827627863073, -5.570837858961102, 8.379543610566856, -1.4413797222402884, 6.020406645088272, -5.672624331482055, -6.802103176767904, 0.7069776488250046, -6.635399782875943, -5.914007229631948, 3.680596421329481, 2.1322135131149373, 6.155028222165054, -1.4643599607997775, -6.195748482479184, 9.416581561088261, 7.115333953712259, 0.6187802044930013, -5.231287898341139, 2.331565150381781, -5.6331675519348785, -0.7639101139314679, 0.24837726849753672, -0.969331859265349, 4.553653052793447, 5.35117392876648, -2.9034597611132433, -3.802612951321354, -9.145352132023408, -9.8601870598732, 9.634052369992201, -3.1144603555058836, 0.19484043388933792, -1.532795281825802, 6.2468790214820125, -6.3544978058783546, 8.128611836329366, 2.3207100479537814, 5.3465318053685795, -5.7563576740371865, -2.591380188026129, 7.26905169019609, -6.914494212461206, -3.285109754858164, -5.114081195957554, 4.224510583567717, -2.1388830377253276, -6.636467851648011, 9.060455660621333, 1.180991087064422, 5.593062570325806, 1.7641506234403277, -3.2086812741470023, -7.928128298117314, 8.774470535153036, 1.0413114871302191, 4.465021435331071, -3.004518393352214, 5.107140883845524, -7.667069648575868, 8.332684005630444, -7.218597709312371, -8.836114181582776, -8.286874979239665, -7.681725100820809, -9.246857157811451, -2.639474042862517, -3.5782815591847417, -9.603919515211354, -3.001040405005453, 9.158384157487795, -9.292230399047085, 3.264159519429855, -1.7548089832105145, -3.8277235000379672, -4.458227437051789, -9.770673545526922, -4.468621927770182, -2.2710046022121304, 2.0931269442274374, -6.752777268897194, -0.9286878637006541, -1.0144085942608587, 2.089156260662186, 5.361640730082428, -1.8091058063044372, -0.2114454610065266, 6.831382231754091, 2.8421090892224434, 8.022665027987436, -8.207818790441753, -2.467918221390346, -6.196013358525352, 7.933682128699019, 6.337486934252354, 4.476686719036515, -1.2319293778098643, 8.698600982698729, -5.890960150807265, -6.626103049345938, -9.791987307108407, 9.342095700355827, -8.303379480062468, -0.305816810488178, -6.415822042489996, 1.1600865840129764, 6.2719069698151095, -3.3049441846882033, -2.0571967367436494, 6.8222055618218, 8.887378150190195, 8.000133508925614, -7.120113542194623, 5.4838758591164165, -9.233664983630504, -9.684484635351193, 3.853138998376938, 4.428668514260785, -2.315126803933378, 3.3057848171572495, -9.11959586530099, 6.28103416762686, -4.673514605871672, -2.492405611000579, -1.6599025857708192, 6.308570740709108, 8.113719937235444, 7.516413457832389, 1.155559611394498, 5.78312387229894, 4.059212133815054, 6.76402202060202, 3.2242334365453083, 4.959941962579919, 4.067306625714632, -1.60251827692937, 2.155006207234111, 7.001392244041071, -9.464370801011789, 0.7082251411265865, -6.970596454856535, 5.494864405417992, -5.667076117476231, -9.747651889062404, 4.233409295592361, 6.2912315391755165, 5.295010475521508, -8.442987598502969, -5.287018994776396, -9.889602381102149, -0.7842818347837479, 9.908456091882254, -2.001380931646528, -0.08046814313056672, 1.6855197806340723, -3.201757564132606, 5.618090697840973, 7.800037664021531, -9.85235034476786, 1.9784058925982055, 9.084144509959476, 1.9265261126074318, -6.014807862596278, -7.338284247386779, -9.849997539928896, 9.88227320455914, -9.642443779215098, -3.87516908090592, 3.2258441845442363, -4.94041262834793, -4.269891248513815, -5.172124442388217, 7.368169237060041, -4.720736361241366, 8.368520598796806, 7.363204604576406, 0.4785874619784085, 6.89845232096048, 6.600522600466817, -3.4446365772166736, -1.0147850459625403, 5.264171906581863, 2.6067108220289033, 3.3329493816068716, 0.5374075446231945, -9.054620560887948, -8.167196817254165, 9.738090533702216, 8.646881096503996, -6.164719675631658, -0.3080842796375656, 4.67820796526701, -5.488875160248057, -4.7895649364171655, 1.51828368080999, -1.360466665829584, 0.07082159418938616, -5.159153153218517, -5.871715295267501, 3.2478048304201756, 9.420327807316355, 2.500610793871463, 0.2212816049126598, -2.556575331247391, 6.399773250825483, 3.8745321518715574, -7.355200193012907, -5.466332222641144, 5.967718574819166, -8.969242267813877, -5.253786634606675, -1.1659291296501877, 2.144744531137558, 3.995580075168835, 5.563033210543775, 4.116017079081809, -4.340537709707027, -0.4035159423608512, -2.3896132687264586, 7.184817299185148, -0.05112760383306991, 1.1644283043926702, 6.873961298699939, 6.663638887922282, -6.4339900785354835, -2.5440900491992835, 3.4156130262244115, 8.43098833260326, -1.8838627020528609, 4.116996051806723, 2.709416813983921, -5.360508668197763, 2.7291956532783743, -4.99488586869552, -8.126031331486509, 6.845782094725333, -7.14410871462009, -8.250880591546819, -9.991406956525369, 7.284179058273249, -0.3178930426741271, 7.704896026384837, 6.44626358469765, -3.4665931321338705, 7.053556305490037, -0.6296221483561393, -2.405850182107363, 2.9792516295287736, 0.7460823354968209, 0.4818595865746893, -8.193573232726667, -5.9993661925049, 5.628982830390177, -7.859529871099051, 3.120355704078099, 4.098274985412534, 5.807664895443807, 2.9114914234493465, -2.065190006255384, -4.083178212444059, -6.280991625936199, -9.957474249135075, -6.123078428020941, -5.120810168571142, -1.9153429084444955, -1.708502331868086, -1.8763743510396793, -4.860538711964171, -8.140478728227219, -7.537646398821522, 8.99828123770978, -8.518241507714944, -4.010286349076795, 7.9389005672479485, 8.63536953923689, 2.277892765312604, -4.404305838279463, -7.193671286218275, 6.427269523901877, -5.195908459886638, -7.1142847605167026, -0.16860528755554505, -3.550279995032457, -1.2135953397239785, 1.3729945205781675, -2.6788502469627957, 5.354688616552366, 1.844338845517255, 1.508780793731077, 3.007120670927012, 8.119980827996407, -7.29978445550699, 6.9913186838701655, 4.044772640734294, 1.9663653946040842, 7.252460333454309, -6.432803480106106, 0.544050727265823, 2.046384375043292, -4.156391970466505, 5.335231941198328, -4.037960965815106, 7.035144505508573, 9.364411197976274, 7.0034841256563105, -0.6556923919057027, -0.3223655525203952, -4.32507640008263, 1.617319203298269, -0.3953970282500219, -4.777990699209966, -5.5454097200161385, 0.7849432675450352, 9.90587497127892, -5.3458835199566295, 5.880720516511616, -6.086356817365233, -7.122967919134913, 1.1410019605162702, -1.2562496273669659, 4.15693194695962, -4.41669351104387, 7.26291292934987, -3.0108872608596915, 6.104389952946583, 0.07995762311912102, 1.7088225935825427, 9.815956516902055, -3.0060258309411143, -0.7803550280529947, 8.00053245012877, -6.647216410757464, -4.9362548439069, 8.127548180607171, 2.2907607869205844, 0.8569355284187878, 6.727578487520013, 8.808386469342306, 5.78068899923047, 8.621712697768324, 4.800893434569565, 5.476198543409804, 9.44670710194384, 9.269174257190194, -4.716807242945458, 0.2626721266864518, -6.717318375316454, 7.649292942798734, -0.6154390687957427, 9.861889816034456, 9.877563088258437, -7.9609995940472, 0.0644580736280389, -2.249101731309164, 4.266750640523309, 9.469826375314227, -9.078887046556046, 1.7880527721532005, 2.400752780787826, 1.060040345864179, -7.510107248873243, 9.61883750789871, -9.037411283436146, 5.9748010067879385, 8.892577761378806, 7.991037373540749, -6.321648626301128, -6.933319525635788, 9.385357187780269, 2.580944105368758, 5.779574686248539, -9.237172873295483, 2.338671063986757, -1.1682084792645568, -2.920305336139288, 4.232019247878524, -7.5866374481916115, 1.271527105598004, 1.9217341997492028, 4.998575988145085, 8.41179304313329, 8.639730390737903, 2.208727695451355, -9.031171989233881, 7.7045542831043115, 7.768995107744047, -2.8992779262548574, -1.024880322529489, 0.2574375757304086, -0.4564089767170749, -5.339190470100458, 9.126028405702527, -4.234091151379418, -8.089387354273306, 0.1998251992718636, 3.273673786498989, 5.979899921213761, 0.07678148311429389, 8.7523556825881, 2.065468480488061, 4.059400825790721, 1.7683691415499254, 2.297457597328025, -0.34903115949963137, -6.312523421288594, -0.4940688120947101, -8.244204270923143, -6.2876562059662096, 3.7195195087248187, 4.139494208687156, 7.510544664750782, -1.0415694897028445, -8.059727205232702, 7.688370539020642, 1.6819733033339155, -6.8139484441210545, -1.7550126580708376, -5.83093458723442, 6.54339394033423, -6.872385620826478, -8.828922939802688, -5.579501774598008, 8.610361698712037, -5.300397360563558, 1.0351436351531227, -0.6487446034217967, 2.028824563572675, 6.562954340488975, -1.9144633023046786, -3.9021726036568065, 1.815850877489492, -5.067178760797626, -0.6848349831758362, -2.051452003221512, 2.017125938854898, -8.945984781093372, 6.5870436743328895, -9.099775526496499, -3.115563132421439, -6.235135577954041, 8.081303602190527, -7.0180821482014855, -3.851106700570492, 2.019467270049569, -5.3255482415657385, 3.807561753477515, -7.165079119456661, -8.393945324136636, -7.669833039586855, 7.803747213492375, 3.7065073052308968, -0.22165567458904256, -9.023113148623272, -5.28274159204674, 2.649985343587142, -0.32639865247121413, 2.1638245320950062, 8.395338726987912, 1.608649706459527, 5.970447398076821, 7.51916705292826, 1.8859944967195208, 8.070847798200237, 1.0799097282825478, 9.883531123701225, -7.842251674424401, 3.919391849405745, -0.6898916326016806, -0.6425402719459417, -0.6631072929389532, -7.128310207228791, 5.175190182387761, 0.6582682594018241, 7.042810466279558, 1.8513738717782253, 9.849192081809527, -8.651594911744308, 9.439596996435796, -9.40018901964448, -0.022217379641528368, -9.493427864356674, -2.178165453232534, -4.3281145650460395, 2.955339102266164, -0.27228487645156285, -4.109162711511621, -8.291469830914494, -3.357283043456116, 0.48495400010182266, 7.731203769086356, -2.7292888460453106, 6.511693892524345, -6.027266198453134, -2.78586906752321, 7.387551044298501, -9.582309487931651, 1.080928591512862, -8.523897140978915, 6.173079288280409, 2.3535441819456278, -9.283943743284592, -6.827571168934947, 7.986129811638666, -5.305208017023022, -2.847204091821154, 5.842462825667633, 8.458802714090869, -2.6733902018771305, 3.4878662645868523, 8.746890891512422, 1.7783347195168258, -0.8219343000010344, 2.079922412920368, -9.047802680007507, 7.346480781279347, -1.8721964685727421, 4.606743346865121, 0.7282443127514693, 8.99125778564946, 5.1833131058465085, 6.743248259574813, -4.232749576809283, 2.5699037088255103, -6.530950225952976, 3.360178264799478, 5.909599198405445, -7.735830869403191, -3.3590993465380343, 7.775089211204655, 5.3929228953155555, -0.9694428891998754, -4.950339873113466, 3.052362231377021, 3.174897855588654, 1.3988262925128865, 5.969327602528571, -9.83122271884879, -4.418011363933738, 2.9652677867533743, -5.301623450728281, 3.663559411828679, -6.038277063635304, 7.557945844694814, 3.2294642068968145, -4.70429181509706, -5.622550144659806, 6.421275225944598, -4.872346260471323, 8.47977635738986, 2.923415665017215, 4.110798516332961, 6.637202873952717, -2.7049943601912645, 1.6536735649563248, 1.4694851302292644, 3.8782520861507024, 4.0095509882909735, 8.68781956835777, -4.315799946872831, 7.7494839091051055, -9.330848554785053, -3.9509560055185595, 3.219577921115137, 6.9675405496203915, -7.956953110775141, 5.869415799509648, -5.993912094847125, 6.379041408965598, -6.628119910790488, 8.990411875149672, -3.7942834016884746, 2.0584539229215295, 5.489129274304103, 7.621904924425252, 1.9243158695275948, -8.67746700616255, -3.206819839470942, 9.691667201474921, 4.035199335583133, 7.608046538251358, -5.701775543120958, -8.080179239175722, -6.534908378088746, -3.3758861413268892, 8.959340629302794, -4.316615947389817, -7.493452853756002, -1.990385219401281, -8.793217342767313, 0.8733068601035594, 8.13966120081027, 9.153486513944916, 0.3813457776051177, -7.280253029743333, -5.7963120462112965, -6.127756673896303, 3.5971432130285095, 6.346835130014981, 4.862757809342433, -5.721607075004158, -8.99884090960109, 4.704614522481821, -1.7573519416956334, -6.516933746057658, 9.819540338765044, -0.3876168260566555, 0.9102884625589205, 0.23938218764692643, -1.9019620846405303, -0.7617500903770704, 8.604551132903786, -1.7583457128185298, -6.8367041203616825, -3.983064340388662, 9.91840292415172, 2.2325332879774944, -6.147958035502715, -8.17514041644397, 2.169322141772742, -1.7536694644850712, 2.680691901589567, -5.96726025609863, 6.207684656865059, -2.4042915992553704, -7.20294633481849, 2.683685481748059, -7.0939914084771765, 6.284940484198035, 5.555874033567573, -5.002963234553901, -8.41926943894201, -7.5185976903142215, 1.5435811805526178, -1.5046371292389864, 7.7212566969433425, 0.9035189407351361, -4.878080001141862, 5.32760083324696, 1.8060543277619523, 8.008572861117212, -1.7229460718271525, -3.9646618201514183, 8.942709621129378, 3.5148055568346095, 7.921057030519169, 8.948707226039026, 0.4696764544127685, -0.7847802493622353, -2.8031494344777403, -1.111022593494475, 5.594749794510285, -2.3797816268469196, 6.7277667964068755, -7.703069468722072, -9.519521871181757, -0.38058197758410905, 1.0415647613976287, -6.095604549806001, -0.38230900907386633, 9.537422614507044, 7.286320328538022, 7.758573799775711, -3.5060124221754885, -4.815369143668087, 5.395861622504885, -3.854955087165502, -0.8036099925139499, 7.212476170217073, -9.913522782928778, -9.760701172044858, 9.971094098742782, 5.107351860745599, 3.243148623826995, -8.211780534151487, -7.197240541654946, -3.4655485188832458, -7.3509233823618825, -9.0582781431172, -6.108123857514229, 9.842700193534796, 2.453649664258995, 7.872456192595557], "biases_list": [-4.557325669646377, 3.8643812298179157, -1.0451636675102165, 5.289718542841415, -0.3487562738154697, 6.629777600575487, -2.4631242819810613, 6.497640841111977, -2.4678347617696827, -0.2313953898647121, 9.240391590065943, -3.185884819819071, -6.703707449222433, -5.015892046782795, 3.8657790911703334, 2.1951618800985138, 6.195333152180719, -1.5818296131861622, 8.595168389838733, 6.29214566034986, -0.26616403070505257, -9.198463004226493, 1.877672913068837, -1.896117775169584, 8.115513359570418, 9.296422847851822, 9.084186286305261, -8.085118145734619, 3.827913096664769, -5.8091357639877605, 0.16784921852574897, -9.158054668832136, 7.111581396776295, 6.929765538716069, 8.150183931441603, 9.152510954227981], "shape": [27, 16, 16, 4]}, {"weight_list": [1.4301142198675083, 4.068698181109608, 2.2795014699193272, -2.940048310092021, 1.9784288439400752, -5.0188720763473285, 0.5306348066340183, 0.3083161659480138, 1.8413526883405185, 4.991829235459234, 0.6693001206225615, -0.4436684987402364, 4.54194177857992, -3.282117673696755, -2.0870995192410984, 1.6946040324503588, 4.734318568507523, -0.7146098978797151, 7.047683348271107, 3.691486485977663, 0.6923753411409259, 3.514179303208195, 4.363410496541371, 4.419756386675724, -2.6283751129429307, -1.4224465296167659, -4.272244849406256, -6.173747547634702, -2.4551238106595994, -0.4700026822158543, -1.7697004356306452, -0.9682984785184319, -4.522230258330407, 3.803105809641761, 3.1161380755311976, -0.3988928078172068, 2.752921520489959, -0.04769212388814248, -3.97847952319342, -0.349174862499936, 4.146140274322765, -3.8789035174764224, 0.7217497067901526, -2.2679430077941793, -3.327717722761471, 6.208768035270822, -4.170952001122451, 5.001513102586418, -1.7266310122915869, -2.579687555704945, -2.902601521899464, 1.7892487012573235, -0.5362979604248792, 4.928492566890672, -2.58090718923283, 1.6871719261017244, 1.8634648884722171, -4.010870323295226, 6.905029950600866, 6.448060671100685, 3.9138791065604943, -2.9935441683632895, -3.993920850600922, -2.3458483519461755, 2.450672172788077, 1.1493691345814705, 7.653929345972903, -1.2171565182707091, 2.2460386159189887, -0.9933818214569989, -1.848836440679497, -3.7957552186519083, 0.889967227739469, -5.047344902611092, 3.3811721115379907, 3.049147405424195, -0.2609150494542499, -8.878147821773736, 4.365830923955444, 2.2063178277669335, 1.0953797491858657, 0.02484765185522475, -0.7355063100807522, -2.306217476422697, 1.8009888772698668, 0.9560070989341221, -2.226257988710286, -0.1906069636161496, -2.960779505961577, 1.7695156851222578, 4.181681682734782, 1.9149064157556204, -0.9729065063876272, -1.9036904479598578, -0.22256843081105393, 2.402926687629824, -4.1736122892105465, 3.1852416056875352, 0.47660951545131325, -6.0877992213557075, 5.315639026532395, -2.911476267685572, 1.9141102267200112, -4.072481709673075, 6.675075748008946, 4.057271469700959, 1.4505916893482853, 5.346369807925329, 4.884529222076225, -1.6376238084466732, 6.548269390693385, -1.5141212780514473, 3.294112157409854, -6.421785301465342, 3.6873756526411414, -4.894780942838838, 2.616111130051094, 1.0294232973473174, 4.076545144517251, -2.2304968571660604, -3.067783607515345, -0.6159970446932188, 5.157949265411043, 1.801219760161148, 4.898056973332637, 5.65583311577278, -4.506108132146194, -8.574745936128446, 0.2952961454254166, -3.0384448701576705, 1.0799326606455795, 1.908423646011797, 4.592070018706424, -7.380542964144491, -5.067709457299503, -6.580591081961022, 2.241754250256531, 5.504840841334007, -2.1037159227716415, 5.409648954219869, -0.36436974375161824, 1.8377938790149546, -6.057267244465051, 2.7945834742265436, -3.0903666456067063, 4.817517201342049, -3.4169775769101354, 1.5589359025462652, -0.25329839764503714, -5.093690041598444, -2.6129903042090437, -6.347755690110799, -2.553718293551835, -1.4253826747113765, -5.76654471782967, -7.296886287222107, -0.3203873094800016, 0.10442955364392814, 1.8626490786039485, 4.6795352239147725, 1.0771808269734855, 2.4914364579890753, -6.896093154456631, 4.541180593262947, -3.258394555673692, -3.713494939938337, 1.5174863709132218, 1.4676442895579296, -1.0890156284029167, -5.471332957508464, -6.475931339462303, -2.0778648792508525, -3.0993196901413804, -4.075562706328622, 4.550094282540165, 4.266456852613012, 3.492367795931293, 2.164645471447437, -1.9612159829010058, -9.080226715729053, -5.606444315662127, -2.6427629124219627, -0.9167497966865099, 4.603707000600395, 0.38420822303908864, 0.9629046313684999, -0.39932699323867893, -4.967941895448823, -1.6251558216450126, -1.2400763092073315, 2.7349158696269757, -5.8252353348129065, 6.044523979990796, 2.812316293480869, 1.4398374350260426, 0.6129171046323478, 2.617764639919704, -0.1981781402185454, 1.37466263143597, 1.0031068809721102, -1.2618759096109349, 1.597545812421819, -0.17838735672299366, -1.988805662228889, -1.3922840875241287, 1.34958821293164, 0.08615179144184726, 7.4591383043585076, 4.625807169577086, -1.322189779885999, 1.3489361688445674, -0.8365538597710789, -0.5083506263253945, -2.896622370366088, 2.2034147060145286, 0.27292784631598543, -1.881528786479118, -3.3164129450033784, 2.2212578191225685, -2.7344115884692144, -1.860984566692247, -3.2424967773041087, 1.0293648385182657, 3.196699687901474, 3.7439014202597543, -3.3237261586395097, -2.3994703180872765, -1.645676000523242, 2.0641937236014827, -1.311584632049561, -5.019894102586269, 2.438338931972713, -1.7558020194665511, -3.394539602388913, 3.8560075385013146, 1.239227517739029, 5.054900300076814, 0.0695305280305063, 1.5052494150516371, -6.394867362867956, -3.1288347563908747, -5.9493969145425245, -3.9799175311756314, 2.8028384193138427, -1.9195189708057643, 4.0466058065174915, 3.2065885056570353, 1.057043047599231, 0.7321797014018396, 9.027183345691364, -0.4893145907723737, -3.5758099073937686, -3.5211945496240284, -2.8444539682205496, -2.0844082366814924, 1.3673512751542862, 4.157852551879611, -0.2342310684460388, -0.2971127826670492, -4.017885113893618, -5.798289186654092, -1.743855439220623, -4.621664470177691, -4.101770096433135, -4.73877777968694, 1.2893783542159238, 1.1942010653498887, 2.188597094825622, -3.2711670303809983, -0.7464074248559458, -2.224535606120319, -3.122568424028133, -0.4503406186133052, 0.8848091984370672, 3.324286317129901, 1.919224552909684, -4.026714835279777, 3.1811241244053603, -0.7068384520274317, 2.4297439679232378, 1.9957881003683413, -1.37004912088881, -2.344420453087207, 4.638980218641369, 4.980280646802513, -2.5122126693859057, -4.503872148796712, 2.204178086993511, 2.6398569261465927, 0.39933798183369995, -4.181833280139987, -2.3770130490140278, 4.271878629882506, -2.8434470887930035, -3.426497789356449, -2.705295345957515, 9.373622099082116, 7.934967190122009, -2.1309983846672615, 2.6400639172875398, 0.6293171367848682, 1.4267273044180797, -2.962157901125533, -2.4327315944981027, -4.935521246143715, -2.1664631889923838, -2.0839940683739067, 1.5217904282902173, 4.845184267215121, 0.20381044756765432, -1.2506195550574197, -2.7436659580279246, -5.164496622762047, 5.018514025785285, 0.8141143182988997, -3.4669902869213596, -3.4125841283315013, -3.397183170692302, 3.2538441488328456, -6.706030660507053, -3.6380922714744925, -0.9776583109281662, -5.864408296965274, 4.951392832517712, 3.5353853433777322, -0.09747917111415716, -2.764172791420438, 0.5737655365780303, 2.2404831503536986, -6.448836957118617, 3.343450605765148, 0.4879086455527508, -5.020223347745396, -2.6530568197662436, -5.0616625039959455, 0.15435099437767952, -4.199859438624354, -1.7420935214092441, 3.3551031394702138, -8.438666760575199, 0.7883461364455182, 5.4332938800463495, 0.681379284087039, 4.64874652951154, -4.218189924743873, -0.8447824405006894, 4.801538708877864, 1.6664372673623378, -2.0978343795396213, -1.0884209487080794, 0.36210606064488937, -5.026295134017032, -4.110487038140103, 1.7772493559223532, -1.6115523749012233, -4.867493968355735, 0.2596705163227626, 2.0053807117526588, 3.239934157932632, 0.9404343221136924, -0.1927707552780089, -4.91183006518068, 3.808465445668104, 3.4590900263867326, 9.380348484184942, -0.8355945225260077, -4.891498768990262, 2.9224682913076614, 4.524860260196895, 0.7632021667038158, -3.9805142899067945, 0.9265719532156216, -1.1926888851882604, 1.1193887269738, -2.1237509524000604, 4.412802570946647, -2.531860895178962, 0.12355977456454403, -1.2627008195236622, -5.798284311475503, 3.9463995078878034, 1.4695529834807246, -0.7951196884180638, 1.6925560733795697, 2.463033760388991, 1.822563263414691, -7.460651231476548, -7.816513026329625, -4.576770131115994, -2.2614854006786165, 2.248327633865993, 1.4419572573545754, 4.5233138165884625, -3.0662421917171514, -2.3778006858950205, -5.610578372701779, 0.6693852573005878, 7.150893005986395, -0.1719180922844442, -3.0350024612013344, 4.2523978331731636, 2.749425150634985, 1.7145827868557495, -1.4687365633486444, 3.714171342389964, 3.2040340563776475, 3.173930228063308, -3.1644951255252125, 1.7523011849048586, -2.2172600238344238, 2.402040617380944, 1.6668108393075607, 4.381734534489031, -5.309720676660329, -0.8238041409229009, -2.8084361335531725, 0.4993824672256044, -2.874577378764215, -2.7665908534087125, -4.5178800237108545, -7.448709728366525, -3.520224610793371, -4.243867182323505, 5.136834615586593, -2.8164984630189465, -0.2997334746743472, 4.92801451160668, -2.4765243582191103, 2.3508940194554793, 0.5459744320728885, 4.837597099292168, -1.0269988533048364, 3.7906805932584895, -5.255293863282089, 7.740403967925925, 7.691613594459854, 1.253271814866725, -3.0857409661647863, 0.2842777208006029, -4.583043754748206, 1.1249193990451234, 1.9909533065152383, 0.3802705248031455, 0.7862869220760005, -0.24079173567728684, -2.753417423023288, 2.5428957588474717, 5.800951288357119, -1.13504263503119, -0.16460382881850222, 4.371794518085505, 2.7331588394899695, 7.173816853851449, -5.228669661070865, 3.672372221918341, 3.451305441064104, 0.17428573086114185, 2.16508179720462, -2.586918903779841, -2.0814705256892765, -3.668420067534467, -4.47114727944511, 9.002932016591862, 3.425187586320572, -0.8739934373688564, -3.611126483508553, 4.604988824312193, 1.2495216182084796, 1.4944035018216768, -0.11872806040069861, 2.1105669893400583, -3.444138421837427, 0.4422607446672657, -1.1636661842370761, -0.866139211845566, -1.2608349403439354, 4.1163376443259425, 3.1399224353427755, -6.332742944166652, 0.5448034484268272, -4.745431433519411, -1.4320178908389278, 1.2488556020300479, -1.4585851943119352, 1.8166150743016969, 2.8970384287186493, -5.489002010125516, -2.0499511353844184, 3.83242666271424, 3.972005205819533, 1.9442678428252922, -2.958982976996721, 5.498087076943766, 1.9508705168162965, -0.07778774205108219, 2.67616525984871, 3.910218655931615, -0.46765586024530115, 0.5937438636228254, 2.579839570659603, 0.7410219389054633, 4.253611862792621, 0.004311955136029555, -1.6409159355289902, -4.297482225004275, 5.78429267413861, 0.5752077368430839, 0.9675165288016823, 4.593183766363597, -2.6414196964448537, 4.555882085246442, 2.515003830113164, -4.150631807961675, -4.758922368245, -3.499706736783266, -4.644988681958148, -3.7497863674688396, 2.0283904631623395, -5.562882480426893, 1.719510004416109, -2.1574521713774253, 4.04836015949944, 2.3436276763803052, 3.2851679104651845, 1.5487146902458466, 4.401872020398784, -1.0081926437550668, 0.90569421626957, -2.1062635131915197, 6.033221255928097, -4.524290595075013, -8.349844113789288, 4.4803097489733945, 3.431733695536847, -4.7040642386121965, 8.370361505594794, -1.1031700101082718, -5.785906197300687, -2.772955045912317, -3.9997901401500195, 2.778200857299489, 0.8641565993819149, 2.476585197834809, 4.7841273049680355, 3.2023485356033987, -0.6969439456799933, -1.879424614013797, 0.6223327207367428, 2.8139275241054587, -1.738075907807328, -1.3033430398168548, 0.4170102006512344, 1.049039837662638, -2.8752345545997207, 2.483574886740614, -6.2705588516389135, 5.821774381696173, -0.4557625695071785, 2.151713216053513, 2.0099771275416884, 4.518717114026399, -0.7534110580645217, -3.3410791464267455, -3.9291557297192465, 0.6025058526080591, -3.6584417318261404, -1.4969763265280358, -3.0229474987946157, 1.7827911488565755, 2.6843766695945748, 4.513652935159371, -0.5473866942858698, -0.4481161843886259, -5.039957921250561, 2.2262006293962706, 0.7456229212283094, 1.8078365662736227, 7.661905252265541, 2.525181554607973, 3.0707148536063773, 7.798349438259809, -1.5592031483487236, 1.1450395457850555, -2.1171329290760807, -0.24722467247777513, 5.740010862838768, 0.14969028302440046, -4.7546805027879255, 0.004017545339309869, -7.436056151232814, 5.04945082881715, 2.7955339493026305, 6.663691940720539, 7.15407681962664, -3.702668249511765, -3.391298275184793, 0.5263757039992016, -3.3805345289169972, 8.374678442202745, 0.46911228831603746, 0.5477012069220994, -5.094157982768863, 3.331498634723861, -5.051949403938231, 5.378848101506815, -0.09694241042204788, -2.731818125145721, -5.503863850828917, -2.469851026333136, -0.05520211088899796, 1.3062200881383967, 3.040053523076966, -5.009468481915348, -0.8144656972935351, 6.979663339691211, -1.5039537260261038, 1.2081061067104217, 4.204775424868068, -1.8188090245754975, -1.1376928048353208, 1.3249555590729782, -8.697698937525072, 1.3996540217821485, 4.066603866457545, 0.4285339964403998, -2.109632712972952, 0.8683109386014858, -3.3082501861429634, 0.7339254207466048, 5.057161560919177, 2.4123554435777206, 2.1290432931833974, -1.222816823989091, -1.5183303463339197, -7.0984429962238815, -9.102021347483454, 4.610500904816812, 1.6037505785225008, 4.611559208915457, 6.107645158074782, 2.506121218133527, 5.83160005863175, -1.4526222694061526, -1.2760326918162876, -4.132309953412225, -3.9678608534477777, -0.378784267383818, 7.25644614070927, -3.826576670966004, 6.673702961160306, 0.025097980620005345, -2.7073459384559455, 1.9631790082714877, 4.10066527911795, -3.282264747679103, 5.3611809629320195, 2.6654273539861757, -1.6547787381381163, 0.5170429791243831, -1.004968162839301, -0.3679816152534765, 1.5901377959782312, -5.28561368339763, 1.90457061972287, -2.3470551221052807, 0.8851426966956755, 0.32435577513192215, 0.5599064094652362, -3.682119573943819, -4.480265448290054, 4.973638829961166, 5.898385528769643, -3.2731562033447785, -0.5201470616363916, -2.5082296441403162, -7.1477292589423485, 7.1408638044590464, -1.4167806844772366, 2.8828463925068526, 3.590482941296984, -2.4199067143651494, 6.741867749694886, -1.8436929920077898, -0.6173640832440446, -6.434203569244886, 3.399464114050428, 3.5833034162757755, -2.5653865813324073, 3.7293602355261033, -0.3978247357563691, -1.9905675166018024, 1.1884799951679534, 1.9222125424728915, 3.924050827830184, -1.4167700369525724, 4.136497316431327, -1.6711956692447085, 2.6644037631097737, -4.494384861209866, -3.053361650799049, -2.772708753686298, -7.911016297938007, -1.2202962946829676, -2.9196222678710946, 5.036508683687906, -0.7112086325114317, -3.342284040047191, 2.5356476509104233, 1.0158721041743384, 6.186862886030954, 0.7561403159655449, 1.032068934867982, 3.6561137142737223, 6.088045874122464, 1.2034181051528954, -2.767882938085721, 7.057785521505597, -3.3444982473546507, -2.906208046265368, -0.513693586267729, -4.343619624571664, 2.041618044779738, 5.595472507197281, -0.8503528441911645, -3.720178073040937, 3.027952057133139, -1.1200071459582126, -3.4928472243879316, 3.29709153538305, -0.5917290172107131, 1.3232065485925535, 4.6490761631032775, -3.453867521966946, -0.14953553172626122, -2.547199107598825, 2.9089841861097785, -1.8437977883005996, 2.418415830105041, 4.586033082109232, 7.82790818632464, 0.0779808156722761, -1.0280972630320617, -6.139466719129985, -5.350278761525869, 1.874702505057913, 3.069164655295162, -6.121267960489313, 1.6444224705461767, -0.7454946153986743, 3.8360484260128223, 4.293151686173952, 2.6495544657062964], "biases_list": [-4.258964225917099, 0.6653588216960982, -3.0409205267205355, 2.0948807918320878, 7.017639133575958, 0.8206383721413348, 4.863948517937876, -0.35118664190601034, -4.15457881230318, -2.0653321536742917, -0.5827632149950073, -5.813699673879954, 2.537640288212118, -3.007234294615629, -4.78153410291865, 4.4968072092330456, 2.5113143858864175, 4.278553056480636, -7.392254181382344, -1.0187744087088517, -2.745932842426596, 0.2751903038959893, 0.45931189643161896, -7.204684142915941, 2.4009074957683145, 3.081260798215986, -3.297165254531082, -3.1442059107193083, 5.8977047783786505, 1.7033827240551744, 2.87276372445661, -1.7540425743842503, 2.3328268141011073, -3.0897729643575333, -2.7702357760335783, -1.6195440749941252], "shape": [27, 16, 16, 4]}, {"weight_list": [-2.0430084319825585, -0.6077745765376517, -2.7711819981265737, 2.1730408634449785, -0.8763739165820463, -3.377955241672616, -3.719289961115361, -2.1832407060179797, -1.3714444081857513, 0.9558422215558993, 3.7858539134855818, -3.221288958774222, -0.17217064258658787, 2.9315474526533998, -1.971138316558659, 6.9165075773940305, 4.70686701955934, -1.078845127524679, 4.18767216552325, 3.8349291353356323, -1.2373079952032884, 3.5773941241961476, 0.0960458613959343, 5.961035699173727, -4.3184736609364, 0.48635372460862114, -2.7585966615008486, -1.1261089555570079, -5.416442624176534, 4.158070859904025, 1.4091750261524596, -0.25022625577880087, 1.7908659291981706, 0.4538136255354326, -3.8863236258643656, -1.9149872628583666, -2.6389922535277766, 2.3653508714151776, -4.3895681057930505, -3.147395092386728, 5.675231442028349, -4.492451392986574, 2.894056593831637, 0.4376703465757903, -6.507530814097591, 2.0029389088780327, -0.4106596450094706, -3.1371402106419013, -3.5310235225387703, 4.773118541150405, 0.236762455527054, -0.6098815597674554, -1.0809087787220812, 5.348631477148293, -5.438171881324697, -0.1816790945187663, -3.2152118293319107, -5.209519168633706, 6.156428919312255, 6.89251354999489, -0.4369958647018446, -4.333254562521671, 2.10993814279931, 3.3927737133264584, -4.256311550326293, 4.556843519409732, 4.148260988600654, 0.35281013399838823, -0.8102814321011744, -4.186365548871912, 1.5680560706626672, 0.8414094191381964, 1.1156007769471614, -6.79641398979396, 3.414041190571356, 2.335601798939015, -0.2969017004206169, -5.467317889779678, -4.569267924152174, 0.5643741488385992, -0.9112553292166299, -2.7295125055420058, -0.13540087491674235, 0.5163406721292669, 2.8598283166314697, 0.2519399689517636, 2.2518234346798605, 3.4226087683295097, 4.776564898090235, -3.415651126873379, -1.3531588679915227, 2.586591384947032, -1.8861839307547108, -0.9265546489617709, -1.1340836662872804, 0.2269281817075517, -3.640654353574776, 6.600958283865532, -2.691108287881523, 0.5550626490119628, 2.306033244409476, -5.793592243291699, -4.605196422315545, -2.182058517357417, 7.79632055055904, -3.6988110874472935, -0.9817363180194827, 1.6265309759539388, -0.09171766090196853, 0.9186541980964089, 2.844107464988333, -0.9280633132601244, 3.3523271044039733, 1.2259352675408368, -1.5619915366097707, -6.287184533278709, -1.3767330159902127, -0.10498022743711999, 2.3893964973128448, -1.612936627169, 2.224688875303113, -2.1641195137002205, 5.52401074745615, 5.674118897571114, 4.450998232253114, 0.04677906539476151, 1.3788908439619192, 1.0840867493977235, 3.061270001455415, 3.8564894801366334, 3.6225989529823677, -1.88877337809346, -1.715097073770605, 1.4745684345644814, -5.258651854621387, -2.5057234318625845, -0.9173019975762822, -1.8833070463314612, 4.141812124726597, -1.411342630680537, -3.2289270397651118, 7.144560371354208, -3.8262110307477464, -5.82893638775555, -0.8143121973525707, -1.7103158037792858, -5.211647241230475, 3.421909584314463, -4.76781980930174, -6.4168216074646445, -4.19011689494055, -5.022237448166775, -4.253418221999645, -4.0213397080794575, -6.101792240468441, -8.956531618025728, 0.2672877100454385, -4.559957516556496, 4.315916231935008, -1.2205963034913943, -1.465519391042786, 0.5859968853109514, -6.855281191957621, -0.36142056595978467, 2.4826823411197383, -2.1848754478284844, -1.4155989956937653, -0.07577986987536534, 2.6937429015455665, -0.7084045726415749, -3.7776040119579104, -3.218908565751518, 1.278546267334427, -3.5488693020424447, -0.9394873289444678, -1.453441436252102, 1.8026086116687434, -4.116868963217955, 3.3404549147717466, -6.312259851977553, 1.5981070425974608, -2.6707678373787918, 0.14966422113065692, -0.6248771707868852, -1.9599472320417284, 0.7107447176073847, 3.244560480230742, -2.4732071682134835, -6.28318995443402, -2.3930816217451714, -0.18191964219480794, -4.374445400765364, 0.7627283147820638, -1.3275277143805362, -1.1100365966417873, 2.7735170288827473, -3.244598349049964, 2.259220283175374, -2.2019527219866704, -0.15830136114954052, -0.6432776372951701, -2.683380513181817, 5.75649913020292, -0.8708762362052012, 3.5700758986742898, 3.425214770511853, 3.1542631882742462, 1.6758137647047402, 1.739788704693023, -2.1963440426658587, -2.3306931801881436, 1.2261712455987075, -3.0792617365782675, 2.7590530427038096, -5.807689758799899, -0.5294323336602589, 3.9123814494830604, 3.6634170555495285, 1.513116485874121, 3.5161163363926278, -1.934142829560697, 2.809884665044674, -3.7229671477869077, 3.108471042867424, -3.2560809957210575, 1.1668038201797062, -5.228099026035251, 1.9676577830955417, 2.420388283342413, -5.325071458699965, -4.406037126909163, -3.258143884344734, -4.937049975274438, -3.949135354849262, 4.99717994176968, -3.1249227690439283, 4.214195670821856, 0.45288938216719243, 0.5796424405623288, -6.69119098637522, -5.4790311110688075, 1.3576672178503815, -4.440773049043282, 6.24115335610769, 0.7051965857487967, 6.075824044772455, -1.747589387038408, 2.007265698093724, 2.570678710867039, 1.5188410975080613, 2.480564371363232, -1.9002088210996988, -3.930915905592319, -0.11451588768560139, -0.7208138768315808, -0.05552752609085898, 4.386593388309118, 3.840822064356235, -6.555552665460079, -3.5154557063408323, -3.7457089576334, -0.3588842868589919, -5.769647541154231, -3.6654850337049902, -5.8131073006717635, 1.801035864418159, -3.512041727001253, 2.9320977728373747, -1.261015687521422, 4.687951609542486, 1.802352259106407, 5.313144592009331, -6.124471124444719, -1.3287992164399347, 5.236458432142291, 0.9931064422314906, -0.6213651926334214, 2.1493196709433793, -3.4001314417359603, -3.0908043342610325, -0.049695835644037345, 1.5564663927473283, -7.065037150681287, 5.554716872707263, 4.3050508261039395, -0.744836456931961, -4.116225011448087, 2.9764938461693125, 1.7051196654749141, 4.488681757956981, -3.369271661778186, -4.825221656711985, -2.462461830068075, -1.862399184965773, 3.347277367685148, -3.105192511776867, 6.00973430164289, 1.5667617102756823, 1.4270931068533659, 1.2106664304404506, 4.004652022974101, 4.224837260741053, 2.2312908760304486, 1.2882187851131794, 2.677182412966913, 1.6583969060572454, -3.9669044958253163, -0.47542140026078483, 5.962767860035115, 0.9893831433016425, 2.288547738604703, -4.965035869860144, -2.929484868483215, -3.2492368949534365, 0.3467818145496111, -2.344588956211912, 1.4306343584469992, 3.7488064838456507, 4.125997816533728, 0.6064164963944432, -3.585987792086226, 3.5385270512464, -3.4866164066565934, 5.8359821769066205, -0.47867201031376205, 5.103641778117996, -0.35145863555049384, 1.278327608960823, -0.061109165239297325, -4.741434601841464, -3.410939677961472, -4.752434758600614, -7.592393245227577, 2.4363293721648316, -2.6128126235808242, -3.507859835144627, 0.8611479780139353, -1.757326355491067, 0.3384648608200671, -1.285115029561571, -1.536029214029372, 1.1517481239476735, -0.39823273857585895, 0.2282417233308034, -7.798440791344815, 3.9786603408314907, 1.0076839663279022, 1.4907532188353398, -3.731219661361815, 0.7962067505719381, 5.119842510257536, -4.969808219342269, -6.180976587669564, 2.727517709245598, 0.3997833592395339, -1.3820140040183833, 2.0622283801823555, -3.955805928249595, 3.487642678158922, 0.49146605455957326, 1.3194987109142593, -0.03606176378892312, 0.73318022197506, -0.677595800162734, 4.252700022447767, 1.3484251037761243, -6.187730829195185, -1.2209582082012682, 2.201521896065501, 1.5093435131329995, -2.666864492946085, -1.6774556472965352, 1.3398655045138383, -3.391345355345072, -0.3918241835649243, 3.222937555437511, 6.073044859505828, 6.344454351945556, 0.09750402983059248, -1.9720797218584731, -2.6779281932318764, 4.925589552540499, 2.4450305667336822, 5.063554294974714, -1.1573456007414205, 4.369969736628137, -1.2535439488393036, -3.2243010768745983, -4.076948465246817, 4.171720562812846, -1.1607364519184653, 3.277290212472387, -0.36433541232789435, 2.902330076639399, 1.9590070736744938, -5.587887635720424, -1.0611173899608786, 1.8222506459708256, -1.3623578353306176, -0.08895189704645456, 4.917913608974322, 3.2971593694128165, 4.261797288790857, -0.012424302027743583, 0.4103855553444651, 1.1718844900238925, 5.292104585225071, -3.3969798885643296, 6.687457084189042, 3.535772994632227, 2.9773337834806837, -4.774680839207843, -2.747658107036828, 2.2510437062491873, -0.4450021569664657, -4.9168422128476035, -0.6173938345681134, 2.6677153029766405, 1.6003537198002578, 2.6762755290453524, 1.693375205280133, -2.330735158550612, -0.46733657704799714, 6.74161888943958, -1.0232327842430085, 2.03815683025001, 3.003710715707501, -5.654909730108111, 4.27089770778457, 0.6865265391261115, 1.4819632534461356, -4.516343811746167, 5.006337427197707, -4.356916410193177, 4.098243703859183, 3.7482872126938513, 2.1592737426028554, 1.4189292847994217, 3.4651999539944516, -5.687592510924178, 1.6843780713742413, -3.8348502619697564, -2.426277405432533, -0.4901668792975187, -3.424307620359537, -7.211599837663088, -0.3624912772254414, 7.442640688858814, 1.7334092425159162, 1.8385653975929115, -0.32180095697224786, -0.4993120961393003, 2.2536637332065235, -6.4555254857375814, 2.5176199141575863, 0.7371829099837028, 2.1565681078267795, 2.583063611092774, -0.535178681440428, -3.8701692666227503, -2.7848810845634837, -3.354216261847915, 1.3253878681806626, 5.422179792252144, 1.8555121311485405, -0.6968305512852375, -2.8770809080800075, 3.7036160294315206, 0.872434893354171, 2.235665521157589, 2.8040902326640906, -0.6552678024535596, -2.76877909992976, -2.389886025326269, 0.8090132322366403, -1.1569996739152262, 1.3244169082024033, -1.584216111875307, 1.7907963744045783, -4.845602317641582, 1.5121205848712274, -5.813351161799037, -1.8900781860685418, -4.331093083210261, 1.3335462649611647, -2.1080625603822156, -0.8520529796496479, -0.7674254717709224, -4.264600482865602, 4.643634605333406, 1.646932376572642, -3.8489329150746734, -3.036235651563733, 1.1949247575277662, -3.6047967595445947, 2.527054387517247, -0.5245023363511634, -3.967074146396354, 3.4154230843729074, 1.344958048176116, -1.3867314660775907, -0.17350387566740832, 2.33082834025309, -5.158741597101668, -2.087038984949382, 3.6075497159181955, 4.111998777114084, -4.347643058264199, -0.06264313187747961, 0.7659625740640956, -0.519048730139168, 2.9389580374895887, -1.3127530386882713, -4.150894177080579, -2.395324022089801, 0.4750246964671425, -3.320919954398156, 1.4640651545470478, -4.005600919469529, -3.159015510604595, -2.456622507322114, 2.86850901120241, -0.5999054033876874, 2.936672418845675, -0.7597647528565641, 7.610002378108359, -1.4374580877943954, -2.3685161770880905, 3.804980753771269, 4.3505626054145, -2.2241312826060557, -0.26002780342515575, 2.6150996886219593, -1.0996709143398231, 1.8774501651936468, 4.806745821310057, -2.964029230997567, 0.652641548500444, 0.38297254233693145, -1.7748037373280627, 1.0441055752998816, 2.8831225714207265, 2.831886230732091, 1.0465999871486176, -0.2954330034777106, 3.3531709821857074, -4.1674353699577456, 2.73804094988274, 0.8874982341020714, 2.2956027227026468, 3.5758727243570467, -2.6055345176115474, 2.383874325260443, 0.4424678170120926, 3.1431492763530144, -0.6123813428616061, 2.452566283843221, 0.2816148624686441, -1.8659016410777223, -5.834780968941504, 1.419332385538636, -1.0529313347956526, 2.958981270090767, -3.1985098111235084, -1.168273559613331, 0.8692303428823955, 2.666746806323996, -2.66649221550613, -1.034274295836865, -4.38070880358187, -2.8071839754208936, 4.040085257955797, -1.8561142684365406, 2.5836671462116616, 5.007289115449843, 3.263027361943262, 2.821529049076652, 2.2237274335192456, 0.46060862388542745, -2.7421591789890982, 7.7478816187157555, -0.2969453319102108, -1.7433883558459817, -2.7032241367204204, 1.6684025035789336, 5.32993745974126, -3.9107220778912986, -5.30405352905485, -1.9982907257163658, -3.900194581918429, 1.9552137944135026, -3.0974900911916903, 7.689938951892987, -1.0928028931139697, -1.5171082187869647, 5.901974130240394, 4.92477380039456, 3.6885078965089626, 7.37080862825796, 6.623152371754288, -2.9238780302873106, -2.308659307217383, -1.26095839181406, -1.5860840198977513, -2.548035387856938, -0.3846229015775018, 5.565706161677136, -0.9490818992226946, -4.92217805315107, -2.8375960038046255, 5.999839300687792, 0.6997938801912942, -3.3933057309558765, -4.815065775524554, -0.14864253141983497, 3.2196543350454467, -2.905589743962256, 5.036783540314272, -3.748293957152695, 2.3706662365832822, 1.677816488417013, -6.619967858980218, -1.9254646637585684, 0.31502318521546635, 1.993014333834132, -0.6600162263173996, -1.6603717115732475, 5.959863034156498, 5.728719698490485, 6.769004625583443, 4.248729135556843, -1.4926870219982649, 2.0261501131106474, -1.037849850369203, 1.055752068665404, 0.13432013505205376, -0.42394665715048685, 1.7069821390663567, -1.7494199706887588, -0.6638395456400326, 1.868154596017248, -0.08015587168322336, -0.11831358382319779, 1.323120776200183, -4.562663782794816, -5.208230418638615, -2.0639120997244103, 0.5507694475253724, -3.7466477372064215, -1.6404205461475054, 1.6725950906170501, -3.6995659140897663, 3.5345480185240223, 3.8953622355753756, 3.0615766139064515, 0.8524092147787519, 3.611920697851012, 0.6291380858258608, 1.5120478952456606, 0.08929682970098152, -5.148905512457045, -1.1435700541679363, -1.30128105526263, 4.253305618244756, 1.9538358787760877, -4.809041620298626, -2.6549968544937084, -3.8294503594818123, -3.486888238218132, -5.489569884094717, -1.0164817892396636, 3.8475723809018394, -5.536924637910989, -5.005616136712058, -5.060776899824782, -0.5450269460484916, 0.32423534247402586, 1.3038130986211396, -0.8480976605783099, -7.051915020025326, -0.9790293949050937, 1.0535504874366133, -1.6563622863012561, -3.525351082172037, -5.764747074746171, -1.6618899922374113, 2.1418108784892693, 0.7531286315422163, -2.273567933030495, 1.9728135200840713, 4.023533156503498, 0.32095527917652555, -1.852955947467436, -2.4171783215820097, 6.386855454972918, 2.0552003423658562, -4.561709709787132, 2.040828021300218, -0.7994937101825318, -2.636308753688273, -4.155973279059971, -6.921863824148811, -4.821254554539096, 0.5993688372548307, -2.703084843199255, 2.770575651656044, -5.041983247744419, -1.6599149705339789, 2.8743503845519034, 1.806184047817882, 3.708905716301901, -5.083756974683205, 5.340429936016189, 4.441633427145316, 2.668017166670751, 2.3655373632572125, -0.12260901449144535, -0.5162546050611672, -1.9774319584391837, -2.671890408670844, 4.005033519638211, -0.8783351899839316, -1.2129042776963117, 2.521329028609247, 1.379809173661004, 0.014513453792653674, 3.780310002177645, 4.561741259441036, -0.27797747149015617, 4.995690139399169, -4.483919176312537, 5.838521708315536, -2.411134426780233, 0.09412684839959096, -2.4826092477132193, 0.2686459399996042, -1.75603867192128, 0.7139819687270827, 0.43056000633288694, 5.3206797541641455, 4.78474372704064, 0.6037069105331749, -3.6384944202417095, -1.6926084729506319, 4.7482754430890735, -0.3237072140788162, 1.4906286849428207, -1.5870409422716591, 2.0220136126880046, 6.388106001564241, 6.516600651518596, 2.4054757050276896], "biases_list": [-5.887638878721701, 4.749732610050422, -1.0616939500509783, 5.168843182456257, 5.278847673605155, -2.2985108855705545, -1.9992589935531437, 1.498940849722806, -4.460183729787669, 4.905917895854012, 0.34931996384741937, -3.7500682555530345, -4.858787395275837, 1.158678918963001, -1.1955644867878725, 6.005087302208858, 6.5375801018188, -1.4945715159398905, 0.7925454542735095, -4.0929911144422855, -4.820617268209956, -4.352611913857212, -5.476414509840878, -0.23527426156469122, -0.3939143656119133, 3.0056682824241108, 3.27254681042713, 5.560327949143629, 0.711783666862746, -1.3698041674325685, -3.7722574951161505, -1.7318209666815358, 3.291983190041533, 1.2724004754981237, -4.609272974273749, 4.961556706175388], "shape": [26.955266145438493, 15.26895116984339, 16.542958178351267, 3.268717339631209]}, {"weight_list": [-5.283334032223191, 5.200806206158273, 3.416075323658145, 3.702830554996231, 1.8633270609978645, -3.5391090787650668, 1.1611919216901718, 9.3594937032549, -6.995306965066282, -2.7179132723142043, -3.9398229306380905, 1.0411360073586113, -6.605216271552474, -3.144487076419198, -9.267517114536883, 5.947335410349484, 6.459418134898957, 3.0814806813312243, -5.331951878870595, -0.25057319417118973, -0.683548498431229, 4.4559282004751495, -9.23145698186868, 9.498151007399024, -3.4665366231683503, 1.7427913688675511, -0.19009872157149132, -6.930031441222696, 4.6497581601338815, 6.441779607410045, 3.09824368940075, 0.6652643543282502, 7.627968980388465, 8.902067603819066, -2.6194785471439355, 1.3614844574508194, 8.828831559965538, 6.7384225934450965, -0.726690578624658, 7.462716250085718, -6.394486754907257, -3.7549533638309773, 0.8180601665688059, -6.158254438971209, 3.616377599077068, 3.46132514010852, -1.551891176095717, -3.2168926130222215, 1.665084878366974, 2.2313578869221047, -5.491863322458128, 0.33883586126441045, -0.5941675404684739, 9.709256519637762, 1.5924156789272423, -4.52330735440266, -8.341566502490227, 2.8043172300504335, -0.24251767291491788, -1.8807425588444193, 1.8705320376424996, 5.50123920851202, -5.052899941139456, -1.573464588702242, 1.690530311527493, 0.6356852605043859, -8.63371307503914, 3.1059344685539685, -6.3899002751059175, 4.584249987406776, -3.4002317226338006, -5.961743402661747, 7.60320184498052, -1.3679730015767422, 5.775423085446913, -4.678715243170844, -6.907991211679791, 0.3180153407020103, -6.454341165365577, -5.1796518874077355, 3.231747548660251, 2.8306967624970927, 5.314551332989609, -2.4058749063923983, -5.935270941608222, 10.124521796954278, 6.673333330968638, 1.4002688076046255, -4.642838610307053, 2.069746388215255, -5.452998534750332, -0.2733947825164622, 0.5852054842682861, -0.8237715224144637, 4.1312851359358405, 6.107663756129123, -3.876593212672563, -3.9921552832563347, -9.263426542578884, -9.896464472265233, 8.952229046755853, -2.2518777550729583, -0.24771335050102516, -1.3667132728847924, 5.730056601763005, -7.179973157551253, 8.879826033046143, 2.028025002445255, 4.610388179825824, -5.437182682907194, -2.9324892190036547, 6.594001036033483, -7.8020277164056475, -3.1981934495861473, -5.920146644568992, 3.5856625371177513, -2.7512786639506444, -6.009299256161242, 10.010603424223026, 1.2105243292126602, 5.421197477340261, 0.9989955272733988, -2.4468386623215137, -6.972215072819985, 8.761331546563532, 1.695467158195112, 4.280009752378409, -2.3738886011989146, 5.515731824624783, -7.524046219167365, 8.161619570903293, -6.762109924487409, -8.539074881424892, -8.648428797772986, -7.023996772026199, -9.040318353698662, -3.5116400684842555, -3.6305430810850643, -10.428998903723114, -2.4122434039380574, 8.934232733246438, -10.102087385110336, 4.107211242717521, -2.0144451917464234, -3.193698471738971, -3.9006383534190254, -9.111834418350593, -4.696417738438254, -2.4668766340220367, 2.5495446736159035, -7.45540979465781, -1.8568831560168089, -1.0486981111166644, 2.7497521989816356, 5.257443892041262, -2.430946119297331, -0.031538260424681, 6.420176729988052, 2.6784594690429824, 8.937461219599777, -8.666285071471286, -1.7786471794861427, -5.599267695624173, 8.088633706757006, 6.858516707334218, 4.7298655496331925, -1.165483669263426, 9.604774913627734, -6.451329355682098, -6.041668195546791, -9.418030848021063, 9.341333765102831, -9.09899732020534, -0.248697427315137, -7.194314240075658, 0.24228020218066004, 5.405845410067736, -2.526450315591777, -2.642943021221776, 7.212570348416122, 8.287985817302156, 8.922949625345598, -6.321175454296, 5.034827829761262, -8.43848511562408, -9.03726043618293, 3.1192949579983775, 4.414035679620816, -2.7854755990457534, 3.0807243367996726, -8.450690610806683, 6.6501954006840185, -3.785750712252261, -2.340865762628928, -2.138243410687875, 7.235563026144726, 7.415407443361431, 8.304272653900172, 1.6061420652163263, 6.254965164848969, 3.108185353920023, 6.76884326901573, 2.597015141985013, 4.000572858760545, 4.271466511355907, -1.0961511531572483, 1.582066517910695, 6.526313270834215, -9.536562009632561, 0.7262779969183368, -7.421273147406312, 5.022858715485507, -6.646590045348493, -9.084544526568923, 4.353167182408031, 7.05896755638638, 5.417808516233712, -9.001812466138439, -5.249338583388888, -10.424706395253118, 0.13251222627725312, 8.961782608710152, -2.8312716965082654, 0.7994291705618781, 0.6927922794407968, -2.5476128887953386, 4.921125140725426, 8.586816968924488, -9.913633413090729, 2.467815249746123, 9.905007364318621, 1.2274395963647748, -5.889701460897079, -8.038046480904537, -9.829986201789918, 10.699014277814591, -8.97192092458827, -3.742344740799434, 2.8564088239191783, -5.557500022103785, -4.892291032032849, -5.2380518029313325, 6.875203270896597, -5.370424866304204, 8.42291471097695, 6.506925490972665, 0.9313130031015111, 7.271008012352073, 7.267028786645973, -4.2557635664528926, -1.4501269644322707, 6.171824844837905, 3.256961704689937, 2.5941854728698015, 0.03162540504327893, -9.422231310812256, -8.221327468371879, 10.084531594689881, 8.472648320640266, -5.967286382817389, -0.26596763345327923, 5.328520637985032, -5.40758849940535, -4.089895144546892, 2.4558368701636866, -0.5396409389767793, 0.2241792820852373, -4.299894344916826, -5.455831760636529, 4.0933257219829, 9.307271235577346, 2.6621875034367095, -0.340398332545486, -2.3682887488878053, 7.090595457973357, 3.907105715380128, -8.132983939790357, -5.809161358661125, 6.5754731075074835, -8.382965303613606, -4.334325954796858, -1.0832743106423905, 1.6896751661280316, 3.905933295603983, 5.55349367526027, 3.7337407858117277, -4.3981663991108295, 0.0689806398632169, -3.14429516949951, 6.851878482095799, 0.7166558163229573, 0.473145465725648, 6.939880608170306, 7.164651783258185, -6.287620542190322, -3.311145485007869, 2.8685237676084574, 7.830768380955357, -2.000066124595901, 3.9932184129687665, 2.402798961660958, -5.6237710882044825, 2.4049252399671404, -4.166688442574282, -7.306593134096647, 7.745229303356584, -6.504026728577875, -8.987501756599311, -9.236134458253414, 6.953257708014566, 0.21802636545297926, 8.27198453975993, 6.924747752572896, -3.2516527795412085, 8.027569426252894, -0.7602479035498668, -1.9639297655076036, 3.9459921891133893, 0.8841745771381422, 1.0345993675652059, -7.569857535661377, -5.379141948095519, 5.304239618202075, -7.92158076387913, 3.410666295277551, 4.732885655825139, 4.808937140686188, 2.0398976292385305, -2.792220858878477, -3.76677065148478, -5.637538948424553, -10.460747235535045, -5.970154300935845, -5.725154323076502, -2.172221796985908, -1.7138165851117284, -1.0167115488146174, -3.9189885689856654, -7.57687109954677, -7.038301118086938, 9.038868429775407, -9.164961776069903, -3.2826099236011617, 6.998042651117445, 9.354606018196556, 3.005326997770302, -4.613573734524436, -7.070678160863935, 5.727995950734121, -4.233199437436498, -6.891182741161348, -0.5287798454835109, -4.048436935105177, -0.6768475085528272, 0.9397637617575851, -2.4607689845323653, 4.852319112584894, 1.6687916575983754, 0.7022898861227929, 3.157903014025803, 8.35175053302191, -7.1506812050265545, 7.259300017887149, 3.9696654129971742, 2.943155999177984, 7.244633161705982, -6.087852524231469, 1.219414480542615, 1.954551181115896, -3.804030560697818, 5.681976030285606, -4.479142935508852, 7.2006322770694435, 9.76955141164404, 7.387031391411508, -0.11118502947131814, -1.1944276806082423, -4.8475754175020445, 1.1577130876994324, -1.3357130855602335, -4.580448278828045, -6.262502158118826, 1.6362677619709265, 10.81386546574108, -5.526052381517159, 6.735161951304803, -5.774475245614962, -8.084096609777868, 1.116936566209394, -1.4512912129901188, 4.976546230988511, -4.032182147958235, 7.171348077805888, -3.630703195240632, 6.3280694248105505, 0.4347354186772068, 0.9925172564495672, 9.927473606403261, -3.044532335621103, -1.5465921754347591, 8.806750580980323, -7.46334931982548, -5.0798099420588505, 7.131396467611189, 1.3863786674641991, 1.7169080126374854, 5.958252821891032, 9.700612719563162, 6.024105570863437, 7.8903892573656265, 5.041818943251151, 4.783824657325255, 9.045933793071992, 8.459113602812058, -5.554637366305351, 0.9135050078854776, -7.249271094895883, 8.484130168459032, -0.3577067464780439, 9.051922075972904, 10.112234078871579, -7.516883776041509, 0.9846236942791364, -1.3402521509749306, 4.045500892634561, 9.641101150431236, -8.423523830347845, 1.7596209537825098, 3.1435424597711528, 0.4601195177854096, -7.225149498407729, 9.160712788222499, -8.247892750606457, 6.4506499555941, 8.13824725293186, 8.847264195099282, -5.520366786912927, -7.513218728166114, 10.028219952240065, 1.85065088277829, 5.081302439751164, -9.910068881312197, 3.3121671932031695, -0.27631818223337734, -2.158302967776333, 4.586328640161328, -6.588622845395202, 1.8617149190606561, 1.7700728325700688, 5.829886437436892, 7.995593123609865, 7.732850798183245, 1.563470896921288, -8.484465040368313, 8.374024196840317, 7.442049805478893, -3.104260951998845, -0.6405266881057747, 0.7135729368930168, -1.0965209029855678, -6.263161394027392, 8.587661303054096, -3.6282903642483646, -7.531067223859038, 0.43497064532630536, 3.6974337785329077, 5.15814717778195, 0.22124445812129, 8.138278938495413, 2.9709355738663876, 4.464609239957473, 1.7725489007813522, 1.7802613203249935, -0.21379345669940242, -6.625136234221179, 0.45674922064817736, -9.056176666170568, -6.121359675143719, 3.6545069306540965, 3.8324098938990963, 7.444068193578895, -0.32517024364063385, -8.584100562338547, 8.653167446926002, 2.2700183888227157, -5.960969432603462, -2.068972517985136, -5.417631096000107, 6.162712531025102, -7.201611100862988, -9.29863088632107, -5.36163901624476, 8.196200862079756, -4.544629723982023, 1.116087654781194, -0.7088700927164253, 1.8223849440354964, 6.236904546489771, -1.5024731662811184, -4.047707800820669, 2.406264226471082, -4.4069716010827396, -0.7904325318095857, -1.696006160672462, 1.204774414377173, -9.528448400704404, 6.843991439656029, -8.422295462822257, -4.0666729125914935, -6.195833855176583, 8.707706370821295, -7.956233517539491, -3.011722413330745, 2.197497409712917, -5.374540321078973, 4.226472561993054, -7.023841672145989, -8.247313568438575, -8.2748528252557, 7.060718995831811, 4.376089760684631, -0.6305842860779864, -8.903540175841096, -5.6016858253496205, 1.6688621164431057, -0.484795196066532, 1.880755091355006, 8.175839569418438, 0.8557520173694344, 5.377210749946455, 8.468579244406856, 2.0870769472961044, 7.486269947162885, 0.12231389469745291, 8.934309574550412, -8.555945590660638, 3.2526016677159646, -0.9849745757323498, -0.08118595724216693, -0.8008084240764051, -7.161346217930899, 5.695894172441189, 0.9075061307872845, 7.592807012317806, 1.9442887081074485, 10.039421163860176, -8.14594949818193, 8.899051389022896, -9.889587557369165, -0.16196409132050116, -8.712832063201267, -2.5812142878718918, -4.123065688226075, 3.946297229814572, 0.24162178960105285, -3.4776307080402047, -8.305683793206924, -3.7106758803068263, 0.2838909460638137, 7.628018234626149, -3.653747466366035, 5.977744271444729, -5.957321757749486, -1.8418215541549192, 7.377063876581932, -9.887272553597318, 1.3039462248939175, -7.6803923330546775, 5.563421963813684, 3.017099612460946, -9.941571408036609, -7.2046312102732895, 7.625298249730882, -5.8791905906237085, -3.125038450515588, 6.347739629143767, 9.160412265087025, -2.7503524087609463, 3.4512289036466663, 8.816779880023754, 2.136875774018823, -1.1985792017389472, 1.6771672881860304, -9.573785821951457, 7.355355459852557, -1.7092937417147236, 5.278582268153977, 0.9763710626167639, 8.33625252634136, 4.7361619631777305, 5.899710687930321, -4.03054693504946, 2.8533789256365574, -5.961375118456304, 2.392557320949253, 5.66473661447562, -8.704674144852687, -4.239296573492228, 7.348151173745109, 6.004504550168987, -0.49214356153008465, -4.745229945560608, 3.1239325960466644, 3.567991475207112, 0.7549034251468254, 5.598965611458524, -8.969240834672558, -4.142857995126724, 3.483265452013197, -5.2958231514220495, 3.09726190026951, -5.496492887369554, 7.341317515298179, 3.5076567528792486, -4.917430326101462, -5.407365302575821, 6.579531279905013, -4.72186331442194, 9.469345063208497, 3.6132173197649715, 3.528990781016006, 5.742141005355391, -3.58228068435048, 1.7627433413575329, 2.0978219490371126, 3.3397926930672908, 4.67774717147001, 8.568105049640803, -4.250499893998154, 7.766932112171235, -10.327499038446216, -4.616162588911599, 2.9073322303587936, 7.754381815044042, -8.021871020273814, 6.400080255753324, -6.702501937268321, 7.1019531055477945, -6.991961002732777, 9.115985563947039, -3.837963553655544, 1.3530178610465295, 4.862298130157574, 7.76600065522053, 1.8270032811008292, -7.984025102039612, -2.749069729694945, 9.492528643545949, 3.160602515987942, 7.917284364747527, -6.284303112022208, -8.559508393030162, -7.268756012634995, -3.8272343264030777, 8.102491490130415, -3.65944726625444, -7.430721038609276, -2.14908490597434, -9.057520583680267, 1.2631626213390286, 7.427240279187265, 9.309611329794066, 1.037138037503956, -6.762742708125942, -6.530911710047041, -5.906913075945548, 3.24490199944165, 5.860365379267038, 4.212626616787379, -5.106868055897197, -8.514341428338925, 5.465316676146954, -2.4412967505414604, -6.83813130552533, 10.042559195362157, -1.1614884361643036, 1.7940497229878085, -0.6904588673988441, -1.1770169635720198, -0.3979151990023424, 7.680784379926873, -0.9605816815692738, -5.840359625273588, -4.848317843842833, 10.297257805038186, 1.9702043498862194, -5.582814290868475, -7.3227079755958, 2.838116422891537, -1.9195957929544805, 3.320179602003426, -6.815014553812888, 6.466600840837026, -2.9266041915284875, -8.106159147660165, 3.529018668723002, -6.612993042988357, 6.3942272095032155, 5.7765970654008125, -4.59648047273312, -9.414942825051444, -7.825797993401087, 1.6673889492387044, -2.3596825867781375, 6.7215211633940175, 1.0948209075478923, -5.745878937071132, 6.259714678867883, 1.7389906890669375, 8.36444094473835, -1.1812413057586004, -3.9512703734454373, 8.619303691869526, 4.133014141358853, 8.351626536994232, 8.12742103233907, 1.36005426235561, -1.1796331730838463, -2.0574117791582234, -1.896367409832234, 6.483832228109565, -2.8460412681803082, 6.852946388231668, -8.554146493740278, -10.161052048640014, 0.21053065754212974, 1.0976776220402749, -6.254495847156507, 0.6097973616100041, 10.15719067327127, 6.522217240989718, 7.396462442212384, -3.4300808957215922, -5.573426556075335, 5.211122407114539, -3.1412823606949107, -0.49879812782104316, 7.090480366949684, -10.490788537890742, -8.970084943881153, 10.23027186595756, 4.144413315591895, 2.3002853831236547, -7.824960591819031, -7.789726990017302, -2.880477403616743, -7.028525807937277, -10.004304532001967, -6.742807614573841, 10.441861380353266, 2.593303712324857, 8.30497793163548], "biases_list": [-4.434526232428649, 3.812455689939891, -0.10749382570201127, 6.160503390567094, -0.4604897349080428, 7.266344123402723, -1.4956885267268638, 5.5351661227438385, -2.7302579431635614, -0.7508472838904268, 9.399598190078157, -3.020765479078575, -6.562871023642304, -5.942021618109736, 2.9050866468318075, 1.2782113769115337, 6.409861115738249, -2.4583910235118203, 9.40363886832924, 6.603939833694026, 0.418125675217484, -9.965406416960679, 2.723632360218926, -1.0449952945034153, 8.39708238571301, 8.877677540106971, 9.152124615941247, -8.925702463475469, 4.333912572792427, -6.631440254153697, -0.6894527604162652, -9.156166129012764, 6.946329625987861, 6.91413392208266, 7.693535581073325, 8.790805043677354], "shape": [27.049811864507326, 15.668351544177664, 15.995239280234635, 4.9024917241513934]}, {"weight_list": [-2.1350993828024585, 3.162590146704055, 0.6404943544587633, -0.29103759220371206, 2.2333276316622674, -2.1187349553179406, -3.0143936061945973, 0.23393892845587883, 1.6653460674382954, -2.8457364679764368, -3.704785929415124, -1.0029038004399164, -1.964497105003522, -5.745125594647926, 2.4812993823742056, 3.310675625891447, 3.1527287902333434, 0.918438856763254, -0.7730873860476398, -3.1780205133310533, 1.6431959796742293, 0.9902770991395065, 2.1743913706799334, 2.673663344384768, -0.19480778868396342, 2.8030304605242753, -2.374819817265511, -4.55438131964025, -0.5599588368358217, 4.688793105883382, -3.0365915714505762, -0.2334571815051092, 0.6984410113594088, 6.6546838475494425, 1.0762181716060488, 1.3536232052295318, 2.5096949887157316, -1.2130013428503565, -2.9159558891185986, 1.1369181580529748, 1.9945162548526119, -3.8073367260784123, 2.1687433216447185, -4.871362408551833, -2.7470324322259967, 2.540063602049948, -3.3390309760500947, -1.0286049887183124, -0.13042542873861218, -1.9953715820581333, 1.4400411118326568, 2.620863325573618, -3.6096019556240737, -0.373949048822108, -1.2327688823209533, 0.6530776387288122, -0.46071502433234457, -2.5383287574203237, 1.4194556614704328, 5.4482986504761435, -0.2735312497636677, -1.3801003152741764, -1.554473858477585, -4.4830011405063, 1.1911939488955574, 0.876059343648411, 1.370845886492508, 0.7277010144509091, 1.20598782982346, 0.38689467930372934, -1.1175563493710052, -7.408031160295781, 0.6033964133038732, -6.603765982376956, 5.716408581021237, -0.5604687431528721, -4.003111992004737, -2.087189390409664, -3.9407906101162995, 0.5734959055283326, 3.629709634401241, -2.9726415641155457, 1.7167160979463607, -1.9226816456296152, -1.2676918690117014, 4.838755070703487, 1.89268580964977, -2.5024241618897984, -4.323845116639514, 0.9166905031013486, 0.9462496685666055, 2.371947194343872, 1.2616646649811476, 2.0867260747987624, 2.976128346711786, 2.6847177637173587, 3.9230996345514013, -1.1872072400781222, -0.4851520346474354, -6.7071735913262645, 5.5199028817775275, -2.769141990392323, -1.987512688714758, -0.343576404608406, 2.87511823480384, -6.347833761171088, 3.9574254673385987, -0.3955199040319298, 1.8263470401605986, -1.7968992060496076, 3.6697840202739664, -0.7104824886601531, -2.6122759031298406, -4.277859602553589, 0.16439072830630463, -2.8861566807154686, 0.909359658341675, -2.462382169747638, 5.244313878356378, 2.6067847829566886, 2.144867669851344, -0.38640099108589443, 1.1603584963765252, -3.158875266474179, 3.8108117583770778, 5.855839283601094, -1.77205956108335, 0.5456144961933949, 0.7052478583401824, -1.8007934910637593, 2.5245046443276085, -1.2284931424716763, -3.2403229421192234, -1.1435602006971561, -0.6922757167748319, -4.744315293287893, -0.18753315873688137, 6.131742898775729, -3.0231896670185794, -0.11333505398780752, 6.253256412443164, -4.552744964211435, 2.0523758485107133, -2.539722854017384, -0.6718900913225181, -2.800532522186151, -2.1983763657754922, -2.5147532216881405, -4.364476424884236, -2.5650384915085214, -3.672450403620846, -2.340954231280161, -2.2655184190803515, -0.6648721907191363, -3.312045990547273, -4.570086347675992, -1.0988816114747764, 2.47608720651426, 0.3286172422620355, 2.143594633185039, 1.549000352303655, 1.7491222851010146, -5.698195140025255, 6.481704987930222, 0.24588404997653224, -1.8520314150303816, 0.5856109923280757, -2.733478636218576, -3.858807260206052, -2.232700806330969, -4.245249407136168, 2.297000506774997, -2.09969457680034, -3.1905511068238983, 0.617472211186656, 6.268923441849323, 4.938577073153973, -0.9500992513112904, 2.247188182293476, -1.2634502567104113, 0.03891169902465652, 2.425108731709546, -3.33472883882618, 3.380274623983894, -1.8739245396395794, -1.19752706901361, 3.6753011670235907, -1.287250508035962, -2.4946488358794197, 0.9424592661256725, 0.45415139940170524, -2.7671811047352275, 3.0890800201704556, 0.17913837993582926, -1.0468793286239648, 1.380795200211999, 3.981027733977694, 4.694280672947839, 0.035603333635995105, -0.10593721658384625, 0.4288086237896489, -1.6319927315487235, 1.2443076245591853, -0.4311029565027845, -1.512436452679916, -1.5462601761762294, 1.4454176121188187, 1.3178266950657314, -1.9272420181979506, 0.9311025854737152, -5.794701161231407, 1.4152344583626526, -5.669967448645449, -4.420327628924429, -0.7910753529625973, 3.8587936156461247, 1.0653347242927236, -0.67048223434904, -5.028711420611547, -2.2460414946069234, 3.1645544658410865, 4.216824754079126, -3.600442493896028, 0.7843036728061683, 1.200191574133278, -3.9819432550709832, 0.9559218536818563, -1.1483906782944697, -5.85430746257571, 2.621645165918948, 0.7878345799638142, 4.816584925518398, -4.36617280545903, -2.901325377276348, 1.3361695881055158, 5.413354724342422, -0.2786045113667541, -0.9440967941463403, -1.8847142857281334, -7.395419540839828, -1.4997472337930045, -1.446210333531624, 1.0009104360346912, 0.008577269354523853, 2.154918378723369, 0.05027256744373476, -0.4289971284649261, 3.902212900269368, 3.331122935208829, -3.4384256917740235, 0.5228129198958111, 0.3735463487913684, -2.019996604051303, 