[{"weight_list": [0.8184773432140142, 6.177136698052262, 1.4631014748804145, -5.309944311461184, -0.22721905129951636, -7.023686850329827, 1.917537293083587, 2.2923840711057917, 0.9187083504332849, 3.948529848179211, 0.5707035630531792, 1.1202849951437805, 2.163926782043215, -2.3393250038896674, -0.20813118670814412, 2.5821301994813632, 5.432720769452819, -0.21287913659130542, 6.083309184100878, 1.0518423950388538, 0.1819526499587616, 3.701798299636989, 7.253777367806773, 4.300923268174453, -2.7100535454952346, -0.6125371624363077, -3.9968862874905833, -5.6818647799614315, -3.072759758992726, 0.19077174969886057, -1.059693176029754, -1.0192101214713407, -5.764132349732893, 2.396365101803873, 4.677250063635647, -2.4616110775006246, 4.0642013508287205, -2.653481243285175, -5.472186617775629, -0.9586343152962061, 3.903620190309896, -3.685392185221757, 2.8512272177326277, -2.215468547930438, -4.5035014367465, 7.830454943718168, -5.354894567536778, 4.302204893593233, -2.001224763012179, -2.294550000129397, -2.517322387855055, 0.12960022211050415, 0.3632354175978172, 3.407700303573657, -3.3594438906750463, -0.26305862690546, 1.1407890312431856, -6.230091071568372, 8.127299843135642, 7.086257493684878, 0.8007623455851733, -3.953245071169129, -3.391733297071435, -4.028008984834884, 0.314175586184851, 1.9371303101213444, 7.4492546954232814, -1.0628918403196252, 3.364527271229277, -0.08104714228198817, -1.2304258422786678, -4.764504033891287, 0.18190858319923908, -6.261917955890384, 1.1581099495397602, 2.859277497020374, 2.454381379746195, -8.905809685992104, 2.7354461326472688, 0.008714572427789502, 0.017003683995095553, -1.3393512416722904, -2.578578025367294, -2.2405583232851836, 2.654959592905604, 1.5030348471124642, -4.976003699007811, 1.0224571646153757, -1.2901550006878753, 1.926303351355548, 6.399744677885199, 1.5583861245942532, -0.9277999066019946, 0.237603349540922, 0.6953519231373184, 0.013449209472984558, -0.9400878017646024, 3.9230723838403136, -0.16229495289367735, -6.933916996490822, 4.59829205571082, -5.557721346589097, 1.2659416039921618, -4.108743188859583, 5.201537917786249, 2.518489992832965, 3.097513758683969, 6.111655818900237, 4.469169476083701, -2.7019472214112086, 8.463985629913306, -4.256298380609048, 1.2368492601444876, -5.690596118674873, 6.607284248584286, -6.055357838212779, 3.213131924521126, 2.314308978819777, 3.8206837792729447, -1.9086633343366144, -2.4430683784986336, -3.7043743755490737, 3.1871587589389607, 3.3328619771450656, 6.847841528505808, 5.940788865337332, -6.086525250710452, -7.274889108447142, 3.1980317350698586, -5.55093230422894, 2.697685875318763, 3.5826402565985287, 6.065352907797698, -5.731663605663373, -6.058912648059217, -7.788544072213928, 0.21614245707255297, 5.355233127533049, -0.5302248994374474, 5.1936626134931405, 0.3905741077490261, 4.1817469195496155, -5.507531754737274, 2.0847013783798927, -3.677520407900139, 6.191635522245264, -4.0073996218435886, 3.7536961601767906, 0.23892434717479816, -7.948545524396982, -3.1340886328472615, -4.757358463637372, -4.099895768591323, -0.46575053337590777, -5.803606062503466, -7.969708275670309, 1.0262386004420478, 1.477329802276488, 3.4168789363611625, 5.705567550616195, -0.1764464240518686, 3.5199834380902475, -7.36253773397992, 3.378917681911501, -3.721574631313119, -1.9663067570658121, 0.2783230152017744, -0.44829641838934964, -2.1530600210107638, -4.7028103173613225, -4.918395402453432, -0.4790184704640551, -1.507612773807349, -3.5215036627826297, 3.3708085011095967, 5.15089032612994, 3.018574899178539, 1.6380073315113108, -1.9780820062416387, -9.22583567662525, -4.64822205780856, -2.615075925970043, -0.165095258833303, 4.723075919721322, 2.0083243559696466, 2.512438410145461, -1.2933709345041184, -4.811592233815166, -0.8632381273039013, -1.3035047959854353, 5.984186602139887, -6.986881107048746, 6.003754716234497, 2.9446123456911475, 1.216150932362753, 0.35845472359981767, 4.068835809518207, 0.7191939176773545, 2.7272060653972217, 0.3169769843302048, -2.7504154708596067, -0.2553283539027238, 0.3682605195632056, -0.16937642075556403, -1.9572000637694345, 1.507008536705798, 1.451628846756062, 7.118465051050029, 3.115342332920469, -2.419707062761481, 2.0156657132454256, -2.906350692646423, -2.5561553609872103, -2.995961952108783, 1.5278525642691951, -1.2851926542114986, -2.008514847573693, -1.785884707347744, 1.3252249576183894, -3.048327470640036, -2.9953431651017928, -1.0747679920616386, 0.21439296832299237, 1.8093888053001765, 4.964349411159565, -3.140701192479103, -2.746303596390017, -2.6510356950569465, 1.5125137721202089, -1.194595695505228, -5.655151447866553, 3.624824130220034, -3.5044870005311504, -3.8127407958594706, 3.2789505436646404, 3.0759301515924973, 6.292025401385807, 1.0355181513973468, -0.4237029250894214, -8.111537098631938, -2.562484085460752, -6.266665401605447, -4.2236200837316895, 2.4679493682592786, -0.8202492174698182, 2.5354795765182665, 1.9727198774436907, 0.48725869808357425, 0.6474681347235847, 9.034522371331528, -0.506679647671223, -2.618171731302741, -4.635102659881702, -4.6377013093747115, -3.099093049941034, 0.9151692908910154, 3.2372827599400553, -1.6250544199927404, -0.7363930842745217, -4.545933725749498, -5.849520193077224, -1.0415666208263872, -5.616327813193463, -2.444379659132456, -5.2372233795261005, 2.228316795895346, -0.33853061146181296, 1.5063445958356327, -3.013463753454334, -1.475477892402406, -3.249458162522944, -1.9740425741136487, 0.13808296728632818, 0.3469261309157239, 1.3342920309379567, 1.5375538653270784, -4.165459417524129, 2.1512657304169713, -1.115780677857356, 0.6100115282924201, 3.827479216389275, -0.5248751930994435, -3.7138764620390994, 4.136519117329163, 6.17361401954483, -0.4895697450473264, -5.216039417510348, 1.829450241985973, 3.2653374564555504, 0.05093965538415679, -5.147491909044005, -1.7910496600698018, 4.016594318491736, -3.440468788010489, -1.8473592024587382, -3.431555633050964, 9.580194460884274, 8.600893506853087, -2.6458954195656155, 1.3682726268332512, 0.7626786106250782, 1.4212640418307334, -3.3551615264530783, -2.656998788168173, -6.082370623745903, -1.6200584340748667, -2.428015555882254, 1.6229404615264609, 4.9717892317319565, 0.6887207766815575, -3.161889432916066, -3.812619765692309, -4.020185111706136, 5.5502295369384, -0.0058586264167885815, -2.027823273558377, -4.1359071188759815, -3.4890482781420067, 3.5625031116586543, -6.280629100436557, -4.233184702561844, -1.0551608129522712, -3.548830128307438, 4.991186616635632, 6.499313102481096, 0.6392269794173213, -1.4400310410122399, 1.3117149750028214, 0.8803662779867911, -4.267100713217673, 3.7438762097688683, 0.7957766586957622, -6.152827569871346, -1.573219199450668, -5.734933189071369, 0.9039841889837024, -3.7373533203571236, -0.770523003945733, 4.180980180505892, -7.880939667653992, 0.14613361328274954, 4.965839359242969, -0.7002448624191563, 4.769038989691359, -7.501765072061083, -0.5534540829158516, 3.3660337334892763, 4.0167210262264295, -3.654240997621749, -0.22419020072353013, 0.39306212762050086, -6.159542743252478, -2.1427982796180896, 2.558405296668533, -0.03127603948467195, -3.675483104028496, -0.1548785535362256, 1.429848755105656, 4.856904789845489, 0.7175691331649316, -0.22391730625350637, -5.3388270639535955, 4.846091391741005, 5.57846731854246, 9.266837545046723, -0.691502583244787, -3.7219531998167374, 3.60995281152207, 4.786540941375865, 1.5009355307640986, -5.5416924956250355, -0.07952415975109262, -1.8848318290497754, 1.3496196957347135, -2.181719329096687, 4.5740015117131545, -2.2906860994870484, 2.397345233538262, -1.8942068424399348, -5.85780767870898, 3.608407429311444, 3.1649328527051797, -1.1161002999380454, 4.760816405963332, 3.6634618764373217, -0.43711566245087785, -8.480888496271218, -7.348322879487829, -5.688828334735566, 0.44025291086841567, 2.3767715100050015, 0.4971379685871742, 4.296493317398728, -1.9446230832062368, -0.6513886002167586, -5.807577201697482, 1.5240982167124653, 5.322270025893754, 1.0321169562161896, -1.2768478970516075, 2.7448728248506633, 3.928249554636875, 2.5046274595352296, -3.6071996929170504, 1.9576718059239369, 5.770007482871812, 2.670720137729047, -3.123065658697907, 1.454201196083949, -2.326518431325354, 1.3754553032894719, 0.31698575970243614, 2.64265722388883, -4.701614536926985, -0.6353055759008925, -3.108825802423133, 0.08627076146901524, -2.1000147659723907, -3.649011851876752, -2.847962805582503, -6.626769529353294, -3.5164677285475126, -3.1902870816212485, 6.773230094681413, -3.1498428125764173, -2.3988308442651736, 6.569934862110436, -2.4862235173181437, 1.7667819567723244, 1.0559786537014149, 4.043874562197336, 0.2494163481670726, 4.620971615537438, -6.41384583012182, 7.347035258268731, 7.6558862688198595, 2.3413457105242124, -0.19236706240769097, -0.01975866230387313, -4.05379834143591, -0.2693749156153058, 3.474898073328335, 0.6559232230648864, 0.35798483339242226, 0.19247813275336556, -1.1120786960456803, 2.274635347867124, 4.930767546851299, -0.40185693091488095, 1.214550696316481, 2.949103538740526, 2.5637676165737235, 6.287477628525492, -4.5731515572813555, 3.1113739806869942, 0.36913468977088226, 1.379189229055294, 1.809642699535054, -1.5085131276989243, -1.374407017881533, -1.5486062550491813, -6.721056457133509, 10.210957785570294, 4.579781310518092, -0.7378617885404142, -4.729529246622706, 3.257666159883631, 4.077015356580082, 2.3742294136254243, 0.932633736275873, 2.135099794393022, -1.3296678621884415, 1.1019908564932273, -1.7196672265094743, -2.5876917906552865, -0.4648286545466088, 4.372769836185977, 4.784925734141981, -8.380051865961388, 0.5478500117429421, -2.914937040190971, -3.6932201874374653, 0.6937718049598951, -1.0281328053485532, 2.7615177098558927, 0.614984269918357, -5.456590322994103, -0.5426463731752331, 1.6771052881091082, 5.567508666580798, 1.9494617704002728, -3.3935691010579574, 3.472279809796863, 1.5961689301588975, -0.9148943118244729, 1.2377718490115317, 3.8259591832353532, -0.5816686151178292, 1.165194171020397, 4.414657335281663, 1.9420713744505882, 2.840449565843551, 1.2458490442867398, -2.780026566293495, -3.227748773754599, 5.379047122842701, 3.679755231193676, -1.0336426375457233, 3.4718648791649835, -4.028266774394453, 5.242428058444546, 3.07065027769218, -3.0450897731407407, -5.343955427985025, -3.320084316746513, -2.641515633780897, -3.0925211277131646, 1.354842080512359, -4.5680301304482525, 1.8159548694037895, -4.281122201042476, 5.082869666229139, 2.971059777811238, 3.0155291711761727, 1.1565527080346802, 5.229453377256959, -2.103326700550745, 0.21199433546458835, -4.14550654653342, 4.912230063334732, -5.905215761591444, -8.787401689584145, 4.1456290529735424, 2.6977267642921383, -3.5634260374148283, 9.188499297550516, -3.2329793331883474, -5.783356406543619, -2.667506226147065, -2.948447530614594, 4.226112349698248, 0.5782059106558877, 2.49695862717995, 5.742342560392405, 2.8636330668091077, 1.0226418822057637, -2.7662256134414345, 1.5981356766240902, 1.0083335793437431, -0.6751990079095437, -2.167007378632755, 2.7464250429076977, 2.8370349392535177, -3.5349703019793943, 6.302216437840652, -5.921469587658249, 4.592399077206562, -1.3203608796685604, 1.7124425321078833, 0.22286074051846638, 4.363133928708548, 0.5659272185132243, -3.2455198917012824, -3.340137811958004, -0.3151643947454671, -1.957126873009236, -1.8236882953862368, -3.786474115831071, 1.3455104942159037, 2.4016935538242272, 4.7674800658114105, 0.6828174263804683, 0.9322268760039001, -4.889972009475083, 1.4527411049873198, 0.5695709185756637, 4.547300297129127, 7.326272720457965, 2.1333825684633188, 1.0814849629575227, 8.445661561505503, -1.5329791872311995, 0.5234803992259904, -1.4516876165052843, -0.21808148297700403, 5.232714189852303, -0.233545328746407, -3.4736945421459007, 1.0303519836056987, -8.481037192473973, 3.5209787759147906, 4.651148135556185, 5.334929193988271, 8.374146263751731, -6.123976721417677, -3.0583492736238047, -1.3645879589230359, 0.34317114413933125, 9.884339053347906, 1.4376242343090944, -1.516340184184638, -5.121313877395979, 3.1637822867229817, -6.433545322184827, 6.343349055011015, 1.855165418658955, -0.23049285842638767, -7.108575551949379, -4.179337268815333, 0.08116716566233739, 1.6678794662922711, 2.5545535661246697, -6.2895364064838475, 0.29154994364529574, 7.822716568543363, -1.3675350398888606, 1.0068085356687408, 5.642108748375495, -2.899111857877071, -1.9557736344520211, 1.6420905389737364, -8.31212085319931, 3.918467786458214, 4.569371785888112, 1.8203231053924438, -3.419481357687139, 0.3147986768377955, -2.956244084163976, 1.262443912011462, 4.503714123011148, -0.001229704083057448, 0.9396733694518526, -0.12229486898489439, -1.105571597468339, -6.648808165653149, -7.867775891779839, 3.481545315647982, 0.9345927967961987, 5.2234987776118835, 6.109377594739089, 2.276550041364013, 4.1048969836901374, -3.923414135540823, -1.123800646958925, -3.438091008399454, -3.5166439354598484, 0.13557624390711798, 7.083696968704043, -3.491185620364237, 4.843805751417532, 0.533326345230662, -4.178130530587886, 0.6471143263899721, 6.023056678538354, -2.4118894949368217, 5.28599963884515, 2.9383465903626567, -0.053528489757197706, -0.36988819768423775, -0.2958040543499242, -0.9309785870288392, -1.4096772473440509, -4.745479314022236, 3.8909862965655835, -2.375621626677037, 0.6381713039225596, -0.2487511410273615, 1.3914313540883323, -5.258897811234262, -5.04328140135632, 6.826161651934672, 5.607133637881224, -2.8310827027049483, -2.215165522333127, -3.926238023756549, -6.636868079458837, 4.915204048341918, -3.9776076233860858, 3.1645281409333297, 2.846370862514938, -2.519056106579097, 6.674278093280489, -0.9849282837046467, -0.08089391025022052, -7.194678383200718, 3.2942710269565953, 3.645730683492859, -3.119884503512261, 2.2971843823163582, -2.0368268979413067, -4.371509106697813, 0.5871463010150397, 0.9596158098492009, 4.184036910737468, -0.7753566343402811, 3.6771179443826085, -2.485411274207309, 3.3595817833520183, -3.9441762810839354, -1.8386482444582972, -1.1055417503283569, -6.273357348183834, -1.4932139789700372, -0.9262400327720659, 5.876707216333526, -1.8402270378464627, -5.175415456124491, 4.360837514017662, 0.3525026340421822, 5.476912067868542, 3.133549626369727, 0.16978371286056326, 4.7838797822273005, 3.5278229038148616, 1.4136153589877187, -4.562674840725767, 6.313006587262372, -0.6241130100797516, -2.2582170335049825, -0.8701173648596187, -2.2545413786776534, 2.1931285393006847, 5.319780405552842, 0.49305800967556257, -3.079880874663284, 2.3683081302328186, -0.9157581748706436, -4.228144675195376, 3.931687839170541, -0.14730058502472065, -0.03713728885552148, 3.983475140040662, -3.651073585128498, 0.4680534834851908, -3.586226262544427, 2.905870884845025, -2.2058427820886175, 2.8072758586434627, 4.24453906131424, 8.825922684503183, 0.6323225847099421, -0.6591638282202859, -7.366445435520397, -6.676243115358005, 2.8873589083756848, 5.192511799242599, -7.5259381649058215, 0.8025035020675935, -2.169173221335031, 4.796665947831272, 3.6409805381714726, 4.906942414568202], "biases_list": [-3.583888391947707, 0.9525572769222255, -1.8595896944442785, 3.137568477697788, 7.87672488067914, -0.04735436584357977, 4.399359137113863, 1.2500728223553663, -3.781832123514753, -0.27845257573472915, 1.4158695120100768, -3.962172786535569, 2.4179751371279554, -4.725239538087704, -5.7240234449575365, 4.768838396429785, 4.269870472335828, 4.95536336535304, -6.3455432513071095, -0.7840372327178913, -2.941221804506463, 0.6203576617748845, 0.4755037626512979, -6.6608542199734915, 1.5766683549422278, 3.1154216167604627, -5.15278264321195, -1.509228962034135, 6.927840838892212, 2.958140476371818, 2.787742403144388, -1.7167385277418776, 2.875480838009632, -1.593158894041381, -2.5452339039274188, -0.595463699177143], "shape": [27, 16, 16, 4]}, {"weight_list": [1.6441787818524158, 5.651566285371192, 2.2352567229628493, -4.575842940185547, -4.494953885020356, -5.876971211549652, 3.8642324606160674, 3.839278321866109, 2.5997951309508314, 0.4285833857321255, 4.865273468482196, -2.118274494057963, 0.6490440222360909, -1.1472347778787628, 1.3599253917262009, 5.345105363673106, 4.371085691397786, -4.526144797197918, 3.146997093546485, -0.06513548129676316, -0.090210750662433, 5.340865743176946, 5.2079767007630124, 3.325806774411289, -1.1914352059643933, 1.6451382442503077, -4.2470254509629815, -4.71451181977898, -2.820848079082669, -1.1542095571298248, 0.5894778372185814, -4.7802079378713636, -2.3741313144016916, 1.4234590265934424, 2.643616511099263, -3.62944749159903, 4.518835985062191, -2.1179136422694915, -3.3568429295299156, -3.1361490464950936, 2.652121786016486, -2.493941986578414, -0.10011025889445291, 0.7442898306805248, -5.300511318074989, 9.332481221260059, -7.020782540345881, 0.2195599481878201, -1.3223794070568218, 1.5218843883001285, -5.670312603823929, 2.2568234653651653, -3.4704946604254543, 1.8647255161819256, -4.9317059666250955, -1.1737567426497957, -3.3602626302965364, -4.533855558927975, 6.939098529533306, 6.2535224578235855, 0.2010647834243544, -3.9892102928363835, -3.7152881477808855, -1.256958619991508, 0.19585386169094, 0.07053335171416109, 6.872699016015698, -3.9077259337334853, 1.8956832116867726, 1.6566188612146706, -0.596896406120681, -5.87886157694539, -1.181167256158822, -4.048742749687843, -1.2250396344072971, -1.3527712103594034, 1.2837668316879993, -7.192880340323391, 1.8842139155702746, -0.19160895004709078, -3.1534319928243875, -3.415643727688779, -2.1537342439059786, -0.07067834069572831, -1.0790862704300257, 5.9744664400444245, -4.576236100323171, 0.3762466992965181, 2.176101912077832, -2.722654257839568, 4.334656838874522, 5.159114896306463, -4.4203739749979905, -1.7767914910133915, 0.517999189360332, -1.4345799967107489, 0.05278578069684414, 2.2715027286769534, -2.317516378993065, -4.5809258520522205, 5.460954088335265, -4.489321200121914, -1.0700868079014456, -4.818194408583148, 3.9563231864816046, -0.18507822265230778, 0.26272820108604367, 5.010705013316492, 4.62431195679705, 1.0003240742142152, 6.073897065062445, -3.256000961347622, 1.3310911790303184, -6.593323687040737, 2.473751467058661, -6.688436041323414, 4.97505163973733, -0.624003026059768, 1.2804105512986936, -3.85223648712538, 0.7117280576287406, -0.8909057354525858, 2.7231748460616645, 3.0482629837586455, 6.265818215616678, 4.454839899795394, -5.011902131641265, -7.637646106986419, 4.0188844867835805, -2.8380922719394275, 2.1233441243532463, 2.890016619660172, 4.10646158360547, -5.369343234189363, -2.798308444054524, -3.8658572028448708, 1.2317390993516817, 4.433370958561143, 0.7937760442865689, 3.4008141272087045, 1.3425547844651478, 3.3719577026893504, -7.149854226356647, 0.3745457343826146, -3.5272159921803876, 5.040338155288428, -4.751622893403673, 2.9284272287175037, -0.5555227953387167, -6.226083264351499, 0.98574646426775, -3.3790806461502294, -4.157914821397382, -1.656472591854132, -7.665316843580434, -7.202295817449253, 3.15097463526336, -0.1260869614162925, 2.341788088788913, 2.9505140984606673, -1.1447418840549681, 0.2826032924771775, -5.476566088127696, 4.834177024808369, -1.9873991947393836, -0.35742531164643243, 3.385274973870242, -3.1781865133278284, 1.018064975182086, -2.6708953016874433, -2.715482063780633, 1.466875008360922, -1.3479094349400893, -0.4059632328933491, 2.347994033279792, 2.765456577908894, 7.19436614101846, 0.8344426130186873, -2.139360721086044, -7.878162618416162, -5.311281823672109, -1.1460224070552196, -0.5331735627878631, 5.467414866791352, 3.143049456957973, 0.33249693378556655, -1.8808954940309248, -8.16125728344565, -4.081180103824522, -2.8297359673076263, 1.5763225892231287, -4.471436889948013, 5.322975526299803, 6.77211912954577, 3.373711036508263, 0.7336285972608672, 1.064273305499781, 2.722311843152829, 2.448668839577152, -0.03536738524511451, -1.927450814809669, 0.6427686315467769, 4.000349700298457, 1.8238348476543056, -0.8702052377500771, 4.290641055335539, 1.5943091351145116, 5.156118257314858, 0.7527720370799051, -3.497989624989493, 1.1910279915254098, -0.9472281680835177, -0.3762360912652287, 1.3407209096992525, -0.4086373253585672, -1.9962133941667801, 0.04408259666669356, -3.4242316501422816, -0.24643906938656102, -0.10395991218028833, -1.8002148324053886, 2.502058097413649, -0.312736683238825, 2.2733355233935972, 2.2883761074438, -5.410016487274699, -2.9714543711131225, -2.8550386336577476, -1.3965824588541718, -0.6389216874881065, -6.719511217574486, -0.7790927582563281, -3.282409090692884, -2.6123519326632056, 2.4535592547854477, -0.8804800777139725, 7.010651086199079, 1.2686069706577414, 0.024576908673986653, -7.197140986795537, -4.393977751000307, -5.902394608374648, -4.609300151078681, 4.777034579980409, -0.11225238632486234, 1.9872436066842827, 1.195276979030412, -2.6432236707328354, 1.4809001749474913, 8.56004182230798, 0.7965056064615108, -1.3787787907199338, -4.121239125643935, -3.8838325850335487, -5.442835884270094, 2.5631820740408027, 1.8202982454060104, 0.2237163828395221, -3.77667100394853, -0.5840991977280614, -4.419983320874108, -1.6586728178178147, -2.7445374691517017, -3.0715881340959754, -0.026099394209229798, 3.9503594570034464, -2.0197214676743807, -1.892266259167004, -6.480671016895304, 1.5343058177708953, -0.8716541830601763, 1.3309172891323109, -3.0513274764014193, -3.4671429800941462, 0.8225293741113506, -0.1713514882472491, -2.6142528314088755, 2.010956102374151, -2.1055567865360585, -2.7273771050356785, 0.09899907815419451, -3.800629464009484, -4.699960904882238, 3.7737198108441126, 6.3147055093438915, 2.5849150611243523, -4.207298833090571, -2.5859193152501248, 3.6668899217267494, 2.7488740307867463, -3.40182257001531, -2.737918537928749, 3.6940282422713, -2.152637535386324, -1.2659845789682749, -0.7984854600787332, 8.095099113878376, 7.36375054382504, -1.4193144112102236, 4.817990364771959, 2.5116473204375476, -0.05660135102147934, -1.5716920068349876, -1.0305414599474487, -3.98408821187868, -6.164566772369883, -3.5294908589898193, 1.6974415984164386, 4.272394834245411, -2.1889043346011414, 2.494601099340014, -2.6336972733588393, -2.6527690424736914, 3.472696053776107, 0.6499935930605403, -2.5506153081865213, -3.9050489406061333, -2.4122904697982293, 1.473043396938789, -6.373822118504481, -1.6607990858276007, 1.6269849864401231, -6.085747348372816, 5.1609887720113, 4.712257994419206, 4.285442447768495, 0.48904910805800306, 1.4801663059194916, -0.4406644882266342, -2.6131317170605435, 2.5994010944033574, -0.30608514599128567, -7.552347336903612, 1.5773523720054623, -2.899091253165806, -0.228110990992473, -4.034487180890855, 0.602433655423646, 6.248398809037783, -6.219639398069375, -0.6201344260339416, 4.54856106412514, 0.5407603509102208, 2.41749312583293, -6.544068429313245, -2.188883725953725, 1.242819655003017, 2.3497449264524217, -1.579114681380805, -0.12725837371826487, 1.429439924521371, -5.062516320606134, -1.9982474816531755, 2.7720580867140514, 0.1565699229124562, -0.8400497138099601, -2.057898843877048, 0.1474423472156774, 2.6390021796092293, 2.1513366039979642, -1.2000742138241167, -2.7467374333825734, 4.512334423335673, 3.8197218398970856, 8.083625747245097, -0.44852574840107096, -4.362216258927786, 5.599416014682903, 2.082202610381435, -0.9708564152211177, -5.2351644773716455, -2.659205981517978, -5.221087082852599, -1.7472537402965669, 0.1171904115825746, 2.8654318287639695, 1.6311354872447303, 0.7361602459654468, -3.1610035812493784, -6.473059675759276, 0.9279406524203873, 4.964027814029675, -1.435624138433445, 3.8362562344183138, 0.8068414531164032, 1.1598239360645222, -5.902957072373724, -7.677730925751899, -7.125611893569369, 2.020574702613568, 4.257883377340644, 0.05052773169160418, 3.9765337684772346, -1.4964388783942835, 0.7087725475710014, -2.646396365420083, 1.7357276948324873, 4.212470566375149, 0.5398513952718473, -0.762388496270836, 0.16698361115673488, 6.352629827632368, 3.502981184074283, -1.9789317837990517, -0.7185944883041736, 5.240391909968168, 2.691473902275638, -1.1318961848445577, 2.4272238298497193, -4.582618834013921, -1.067005255648671, -2.4312678228157907, 1.2478427971270611, -4.189963573249688, 2.42035973856333, -6.238914995613193, 0.48317477745687665, -2.5038259607070854, -0.7256314121256604, -2.1269660439972613, -8.047432768430976, -5.103107975539864, -0.43729855110850013, 4.528703703413348, -5.013571689691107, -2.691686015010065, 3.5685035488268007, -5.5382106726429114, -0.93136727340164, -3.4204295120418555, 5.495506233148423, 0.5684980110339952, 5.305845186276069, -6.222975330374522, 4.065019137027443, 6.503423559892111, -1.6420899833869265, 3.1902801520480963, 1.6972698307497658, -5.087573310590065, -0.9342154972295207, 1.7328804917841372, 2.7398157407846195, -4.086239431375188, -2.1492691921294935, -3.937060968389187, 1.9885420115560022, 4.4992644133875945, 1.172460965388817, 0.9644706773445813, 0.6869940266249428, 4.92589851992919, 3.8862917865039277, -3.2250516868562045, 3.9673265366571933, -1.315877093915506, 2.6640727040759966, 3.546252291685752, -0.6356506476220509, 0.9197108606316673, 0.8544807994938566, -4.897679749313052, 10.931140342589782, 4.827148922436935, -0.8367559936093472, -0.9875242493083503, -0.7005529633811647, 2.2836547807687624, 3.7048463474343842, 2.554953144453079, 3.689970349074235, 1.9723720225082646, -3.0404964613045293, 0.25125171138087943, 1.1931565273870257, -1.1551653747852142, 4.298747047538935, 4.735724291134649, -6.30659717862138, -1.3238620409219515, -3.6934598161907655, -3.2666870390974836, 1.7663838111834949, -3.2048968283067247, 4.854908337563771, -0.9034011291177024, -4.227471456906043, 2.0888145246997385, 1.823743969684334, 6.213325808028989, 0.3480637360731471, -4.37197982645079, 2.618301113000022, -0.929799448624377, -2.7327652237804836, 0.4501609056775291, 5.053046100416863, 3.2923015655150216, -1.4396305150387607, 2.2060532916157682, 2.0934288229371907, 1.413782594136931, 0.8793389966677472, -4.49772875382749, -4.169586252777403, 5.761880470925252, 1.5279693045435057, -1.5572541480256232, 4.848760863067879, -3.2027739661419594, 3.1054336820287682, 1.1781112429827054, -1.71684818848462, -3.697449523935714, -3.9864649375218097, -2.6885235293178336, -2.614082696559108, -1.7560040151070804, -2.2845267940393965, 1.5321426479024853, -2.6507196914487396, 3.1338644552640984, 1.2860071860859614, 2.0889182148283316, -2.262778606669303, 5.905372935730652, -3.298065614000654, -3.027327858070463, 0.16575178557394032, 4.360007593135224, -7.231160372562332, -9.138606611439908, 0.9175963011671715, 3.9066435862215876, -3.664137518071066, 7.2261150151335976, 0.3373963554707897, -5.853348791439747, -2.2811092230759082, -6.654707868615009, 2.144050203364846, 1.1371326377231843, -0.3236948781208959, 6.970675422031588, 1.7697757083121504, -2.056266818288965, -3.0736836942700094, 0.3598531890226193, 1.5827739288249791, -1.7435519774821462, 0.4923242885733745, 3.7486054298012927, 0.9062735416756103, -2.4188071593912266, 4.398387558544311, -7.294071071672879, 8.879196243476935, -3.832741506526567, 6.124288198010673, -1.1825025102455393, 4.984756829469068, -0.47927949903564326, -3.7884468584903206, -4.338548287704852, -0.29253046537247274, 0.5945313828876873, -1.8510969646994047, -2.017139140550438, 4.478513272883966, 1.9974646681791928, 2.5139672894848246, 2.2040657135159534, 3.4149098726334746, -3.7052507627299343, 1.6075497610954645, 2.910688009977215, 4.0947545409483705, 6.45021685023036, -0.3156813698605041, -0.3889985063013832, 7.379243248665446, -1.6479702526984643, 3.724257183008387, -3.3638275662259254, -2.0936116725573326, 5.1322084729681485, -3.2398398718860886, -4.882916326188671, -1.7174242750304298, -7.5710099872788845, 2.3870703904821453, 1.2202945627024833, 5.628022701551695, 6.356910856698561, -1.2112756463358292, 1.3689341326103448, 0.8814041665220425, -0.00935575857363835, 8.596119448460811, 1.4872628134683619, 2.6450771252170444, -7.741297310682169, 0.8543480177799381, -6.632466956628832, 5.056429749557742, 2.3470173470693574, 3.783117349404068, -6.668382261816192, -4.49446895761343, 0.21848935640778921, 4.533410953120486, 1.7191563260571838, -7.30693063376391, -2.617430008691853, 7.90128219257857, 0.5440332661080418, 1.5945290101942846, 2.2322056248483593, -3.6945018032324484, -1.0016011593266854, 0.8981510218772149, -9.786948040267355, 1.6035489966230916, 4.661859916963078, -0.526729823649597, -2.427245810423054, -1.8443019959784803, 1.5987564432385355, 2.4072688630700574, 3.374576439713942, 2.488441773431477, -1.0814749375237178, 1.5103980426502144, -0.5590751829673608, -5.410219271041745, -7.585385001962223, 0.31384386042564527, 0.5295118267783752, 5.1004453368536256, 2.732789718390763, 4.644256378848452, 3.3382983785314657, -1.8708350661625148, -5.215210285486067, -4.228994409779791, -3.743758791438607, -2.6103329108880344, 6.263224616828106, -4.980677988664006, 1.2416396120737114, -2.8551041862346906, -4.4811348997734015, 1.3279149110143074, 4.982021164692609, -3.3708384684008843, 2.905234863739107, -0.09527130133610706, -1.1190252690330538, 0.35897420902292465, 0.6870963904233864, -6.974200740920452, -2.42116256673044, -5.697175912198605, 3.3030684658578924, -5.2664948500415845, -2.7734535257835864, -0.7493115852294909, -1.73402499400041, -4.627421630866566, -3.7474531225371166, 4.270804959690948, 4.588941190692737, 0.29062292989536087, -2.8177486293846217, -3.8435000367498553, -5.55322276797402, 2.2876478162028815, -3.619752247754647, 2.2494644859833994, -2.0564340547964335, -3.9125819110954527, 3.4200043886405, -3.0299108462087827, -5.343398281562864, -5.923972622598014, 2.385511172818591, 0.030178226591663693, -1.9539718269520985, -0.7725128277814697, -2.948056430362745, -3.301956802052307, 2.1902430348228834, 0.17009272228740469, 4.426225361627355, 3.0751865619747143, 1.8550961859970903, -4.849245293793675, 5.203200182343523, -0.7014289929158233, -2.08516324211576, -2.486898805815718, -5.720132853225968, -3.5389076747390895, 1.2867275663846338, 3.1327677241734113, 0.1932835177846044, -2.9031282575185657, 4.059945014461871, -1.4072779907312625, 4.246919855325475, 1.0688875518110939, -0.4570711087290309, 4.761029711084747, 1.0354844662230365, 1.8672576776158647, -4.2187255403225565, 7.812824811527161, 1.3487249364993366, -3.467331854772899, 1.3616001805823066, 0.5533237516458096, 2.3463016361152027, 4.584396607577374, -2.75595294074206, -1.3012294123662742, -3.9781144914282462, 0.21894631972704004, 0.8993678879894904, 5.417832339009428, -1.5620726200540882, -0.297484450072774, 1.8264122418910658, 0.187419347019953, 1.4464985102251635, -3.6014461003320775, 0.9009361495607191, -2.5467197413279363, 2.6514209390249155, 4.098259640535662, 10.22623465942481, 1.5338667723341999, -3.3868361147116235, -5.8724887906496015, -6.468556462049127, 0.3075630000120777, 2.4017853550319055, -6.970054250352805, -0.3433013465624306, -0.3331537424655444, 4.960510199122446, 4.644997390511651, 1.8800839224381365], "biases_list": [-5.2252219432681395, 4.953493994926429, -3.085357568124662, 4.757309857259262, 5.1430087681397465, 0.09458096753060685, 4.332253702979612, 0.3027371932672238, -4.45189821077684, 1.73771627517967, 2.3246481248674953, -0.9904235314930285, -0.10303805875546335, -2.7977711140676256, -6.62568710758722, 5.694735631629033, 3.8382933730534017, 5.246036259344298, -6.4661045295523, -1.2415936831802612, -4.802178236457418, 0.0890186918646032, -2.2724519291129344, -3.743909090847299, 4.818606042325559, 1.5362472091779589, -2.335270049773138, 1.5151589673424435, 4.829202495162909, 2.6228756415491548, -0.9589567870277456, -0.523016271115768, 4.943772334972151, -1.3578838845306676, -1.0344059775338874, 2.806317778355313], "shape": [27, 16, 16, 4]}, {"weight_list": [1.4301142198675083, 4.068698181109608, 2.2795014699193272, -2.940048310092021, 1.9784288439400752, -5.0188720763473285, 0.5306348066340183, 0.3083161659480138, 1.8413526883405185, 4.991829235459234, 0.6693001206225615, -0.4436684987402364, 4.54194177857992, -3.282117673696755, -2.0870995192410984, 1.6946040324503588, 4.734318568507523, -0.7146098978797151, 7.047683348271107, 3.691486485977663, 0.6923753411409259, 3.514179303208195, 4.363410496541371, 4.419756386675724, -2.6283751129429307, -1.4224465296167659, -4.272244849406256, -6.173747547634702, -2.4551238106595994, -0.4700026822158543, -1.7697004356306452, -0.9682984785184319, -4.522230258330407, 3.803105809641761, 3.1161380755311976, -0.3988928078172068, 2.752921520489959, -0.04769212388814248, -3.97847952319342, -0.349174862499936, 4.146140274322765, -3.8789035174764224, 0.7217497067901526, -2.2679430077941793, -3.327717722761471, 6.208768035270822, -4.170952001122451, 5.001513102586418, -1.7266310122915869, -2.579687555704945, -2.902601521899464, 1.7892487012573235, -0.5362979604248792, 4.928492566890672, -2.58090718923283, 1.6871719261017244, 1.8634648884722171, -4.010870323295226, 6.905029950600866, 6.448060671100685, 3.9138791065604943, -2.9935441683632895, -3.993920850600922, -2.3458483519461755, 2.450672172788077, 1.1493691345814705, 7.653929345972903, -1.2171565182707091, 2.2460386159189887, -0.9933818214569989, -1.848836440679497, -3.7957552186519083, 0.889967227739469, -5.047344902611092, 3.3811721115379907, 3.049147405424195, -0.2609150494542499, -8.878147821773736, 4.365830923955444, 2.2063178277669335, 1.0953797491858657, 0.02484765185522475, -0.7355063100807522, -2.306217476422697, 1.8009888772698668, 0.9560070989341221, -2.226257988710286, -0.1906069636161496, -2.960779505961577, 1.7695156851222578, 4.181681682734782, 1.9149064157556204, -0.9729065063876272, -1.9036904479598578, -0.22256843081105393, 2.402926687629824, -4.1736122892105465, 3.1852416056875352, 0.47660951545131325, -6.0877992213557075, 5.315639026532395, -2.911476267685572, 1.9141102267200112, -4.072481709673075, 6.675075748008946, 4.057271469700959, 1.4505916893482853, 5.346369807925329, 4.884529222076225, -1.6376238084466732, 6.548269390693385, -1.5141212780514473, 3.294112157409854, -6.421785301465342, 3.6873756526411414, -4.894780942838838, 2.616111130051094, 1.0294232973473174, 4.076545144517251, -2.2304968571660604, -3.067783607515345, -0.6159970446932188, 5.157949265411043, 1.801219760161148, 4.898056973332637, 5.65583311577278, -4.506108132146194, -8.574745936128446, 0.2952961454254166, -3.0384448701576705, 1.0799326606455795, 1.908423646011797, 4.592070018706424, -7.380542964144491, -5.067709457299503, -6.580591081961022, 2.241754250256531, 5.504840841334007, -2.1037159227716415, 5.409648954219869, -0.36436974375161824, 1.8377938790149546, -6.057267244465051, 2.7945834742265436, -3.0903666456067063, 4.817517201342049, -3.4169775769101354, 1.5589359025462652, -0.25329839764503714, -5.093690041598444, -2.6129903042090437, -6.347755690110799, -2.553718293551835, -1.4253826747113765, -5.76654471782967, -7.296886287222107, -0.3203873094800016, 0.10442955364392814, 1.8626490786039485, 4.6795352239147725, 1.0771808269734855, 2.4914364579890753, -6.896093154456631, 4.541180593262947, -3.258394555673692, -3.713494939938337, 1.5174863709132218, 1.4676442895579296, -1.0890156284029167, -5.471332957508464, -6.475931339462303, -2.0778648792508525, -3.0993196901413804, -4.075562706328622, 4.550094282540165, 4.266456852613012, 3.492367795931293, 2.164645471447437, -1.9612159829010058, -9.080226715729053, -5.606444315662127, -2.6427629124219627, -0.9167497966865099, 4.603707000600395, 0.38420822303908864, 0.9629046313684999, -0.39932699323867893, -4.967941895448823, -1.6251558216450126, -1.2400763092073315, 2.7349158696269757, -5.8252353348129065, 6.044523979990796, 2.812316293480869, 1.4398374350260426, 0.6129171046323478, 2.617764639919704, -0.1981781402185454, 1.37466263143597, 1.0031068809721102, -1.2618759096109349, 1.597545812421819, -0.17838735672299366, -1.988805662228889, -1.3922840875241287, 1.34958821293164, 0.08615179144184726, 7.4591383043585076, 4.625807169577086, -1.322189779885999, 1.3489361688445674, -0.8365538597710789, -0.5083506263253945, -2.896622370366088, 2.2034147060145286, 0.27292784631598543, -1.881528786479118, -3.3164129450033784, 2.2212578191225685, -2.7344115884692144, -1.860984566692247, -3.2424967773041087, 1.0293648385182657, 3.196699687901474, 3.7439014202597543, -3.3237261586395097, -2.3994703180872765, -1.645676000523242, 2.0641937236014827, -1.311584632049561, -5.019894102586269, 2.438338931972713, -1.7558020194665511, -3.394539602388913, 3.8560075385013146, 1.239227517739029, 5.054900300076814, 0.0695305280305063, 1.5052494150516371, -6.394867362867956, -3.1288347563908747, -5.9493969145425245, -3.9799175311756314, 2.8028384193138427, -1.9195189708057643, 4.0466058065174915, 3.2065885056570353, 1.057043047599231, 0.7321797014018396, 9.027183345691364, -0.4893145907723737, -3.5758099073937686, -3.5211945496240284, -2.8444539682205496, -2.0844082366814924, 1.3673512751542862, 4.157852551879611, -0.2342310684460388, -0.2971127826670492, -4.017885113893618, -5.798289186654092, -1.743855439220623, -4.621664470177691, -4.101770096433135, -4.73877777968694, 1.2893783542159238, 1.1942010653498887, 2.188597094825622, -3.2711670303809983, -0.7464074248559458, -2.224535606120319, -3.122568424028133, -0.4503406186133052, 0.8848091984370672, 3.324286317129901, 1.919224552909684, -4.026714835279777, 3.1811241244053603, -0.7068384520274317, 2.4297439679232378, 1.9957881003683413, -1.37004912088881, -2.344420453087207, 4.638980218641369, 4.980280646802513, -2.5122126693859057, -4.503872148796712, 2.204178086993511, 2.6398569261465927, 0.39933798183369995, -4.181833280139987, -2.3770130490140278, 4.271878629882506, -2.8434470887930035, -3.426497789356449, -2.705295345957515, 9.373622099082116, 7.934967190122009, -2.1309983846672615, 2.6400639172875398, 0.6293171367848682, 1.4267273044180797, -2.962157901125533, -2.4327315944981027, -4.935521246143715, -2.1664631889923838, -2.0839940683739067, 1.5217904282902173, 4.845184267215121, 0.20381044756765432, -1.2506195550574197, -2.7436659580279246, -5.164496622762047, 5.018514025785285, 0.8141143182988997, -3.4669902869213596, -3.4125841283315013, -3.397183170692302, 3.2538441488328456, -6.706030660507053, -3.6380922714744925, -0.9776583109281662, -5.864408296965274, 4.951392832517712, 3.5353853433777322, -0.09747917111415716, -2.764172791420438, 0.5737655365780303, 2.2404831503536986, -6.448836957118617, 3.343450605765148, 0.4879086455527508, -5.020223347745396, -2.6530568197662436, -5.0616625039959455, 0.15435099437767952, -4.199859438624354, -1.7420935214092441, 3.3551031394702138, -8.438666760575199, 0.7883461364455182, 5.4332938800463495, 0.681379284087039, 4.64874652951154, -4.218189924743873, -0.8447824405006894, 4.801538708877864, 1.6664372673623378, -2.0978343795396213, -1.0884209487080794, 0.36210606064488937, -5.026295134017032, -4.110487038140103, 1.7772493559223532, -1.6115523749012233, -4.867493968355735, 0.2596705163227626, 2.0053807117526588, 3.239934157932632, 0.9404343221136924, -0.1927707552780089, -4.91183006518068, 3.808465445668104, 3.4590900263867326, 9.380348484184942, -0.8355945225260077, -4.891498768990262, 2.9224682913076614, 4.524860260196895, 0.7632021667038158, -3.9805142899067945, 0.9265719532156216, -1.1926888851882604, 1.1193887269738, -2.1237509524000604, 4.412802570946647, -2.531860895178962, 0.12355977456454403, -1.2627008195236622, -5.798284311475503, 3.9463995078878034, 1.4695529834807246, -0.7951196884180638, 1.6925560733795697, 2.463033760388991, 1.822563263414691, -7.460651231476548, -7.816513026329625, -4.576770131115994, -2.2614854006786165, 2.248327633865993, 1.4419572573545754, 4.5233138165884625, -3.0662421917171514, -2.3778006858950205, -5.610578372701779, 0.6693852573005878, 7.150893005986395, -0.1719180922844442, -3.0350024612013344, 4.2523978331731636, 2.749425150634985, 1.7145827868557495, -1.4687365633486444, 3.714171342389964, 3.2040340563776475, 3.173930228063308, -3.1644951255252125, 1.7523011849048586, -2.2172600238344238, 2.402040617380944, 1.6668108393075607, 4.381734534489031, -5.309720676660329, -0.8238041409229009, -2.8084361335531725, 0.4993824672256044, -2.874577378764215, -2.7665908534087125, -4.5178800237108545, -7.448709728366525, -3.520224610793371, -4.243867182323505, 5.136834615586593, -2.8164984630189465, -0.2997334746743472, 4.92801451160668, -2.4765243582191103, 2.3508940194554793, 0.5459744320728885, 4.837597099292168, -1.0269988533048364, 3.7906805932584895, -5.255293863282089, 7.740403967925925, 7.691613594459854, 1.253271814866725, -3.0857409661647863, 0.2842777208006029, -4.583043754748206, 1.1249193990451234, 1.9909533065152383, 0.3802705248031455, 0.7862869220760005, -0.24079173567728684, -2.753417423023288, 2.5428957588474717, 5.800951288357119, -1.13504263503119, -0.16460382881850222, 4.371794518085505, 2.7331588394899695, 7.173816853851449, -5.228669661070865, 3.672372221918341, 3.451305441064104, 0.17428573086114185, 2.16508179720462, -2.586918903779841, -2.0814705256892765, -3.668420067534467, -4.47114727944511, 9.002932016591862, 3.425187586320572, -0.8739934373688564, -3.611126483508553, 4.604988824312193, 1.2495216182084796, 1.4944035018216768, -0.11872806040069861, 2.1105669893400583, -3.444138421837427, 0.4422607446672657, -1.1636661842370761, -0.866139211845566, -1.2608349403439354, 4.1163376443259425, 3.1399224353427755, -6.332742944166652, 0.5448034484268272, -4.745431433519411, -1.4320178908389278, 1.2488556020300479, -1.4585851943119352, 1.8166150743016969, 2.8970384287186493, -5.489002010125516, -2.0499511353844184, 3.83242666271424, 3.972005205819533, 1.9442678428252922, -2.958982976996721, 5.498087076943766, 1.9508705168162965, -0.07778774205108219, 2.67616525984871, 3.910218655931615, -0.46765586024530115, 0.5937438636228254, 2.579839570659603, 0.7410219389054633, 4.253611862792621, 0.004311955136029555, -1.6409159355289902, -4.297482225004275, 5.78429267413861, 0.5752077368430839, 0.9675165288016823, 4.593183766363597, -2.6414196964448537, 4.555882085246442, 2.515003830113164, -4.150631807961675, -4.758922368245, -3.499706736783266, -4.644988681958148, -3.7497863674688396, 2.0283904631623395, -5.562882480426893, 1.719510004416109, -2.1574521713774253, 4.04836015949944, 2.3436276763803052, 3.2851679104651845, 1.5487146902458466, 4.401872020398784, -1.0081926437550668, 0.90569421626957, -2.1062635131915197, 6.033221255928097, -4.524290595075013, -8.349844113789288, 4.4803097489733945, 3.431733695536847, -4.7040642386121965, 8.370361505594794, -1.1031700101082718, -5.785906197300687, -2.772955045912317, -3.9997901401500195, 2.778200857299489, 0.8641565993819149, 2.476585197834809, 4.7841273049680355, 3.2023485356033987, -0.6969439456799933, -1.879424614013797, 0.6223327207367428, 2.8139275241054587, -1.738075907807328, -1.3033430398168548, 0.4170102006512344, 1.049039837662638, -2.8752345545997207, 2.483574886740614, -6.2705588516389135, 5.821774381696173, -0.4557625695071785, 2.151713216053513, 2.0099771275416884, 4.518717114026399, -0.7534110580645217, -3.3410791464267455, -3.9291557297192465, 0.6025058526080591, -3.6584417318261404, -1.4969763265280358, -3.0229474987946157, 1.7827911488565755, 2.6843766695945748, 4.513652935159371, -0.5473866942858698, -0.4481161843886259, -5.039957921250561, 2.2262006293962706, 0.7456229212283094, 1.8078365662736227, 7.661905252265541, 2.525181554607973, 3.0707148536063773, 7.798349438259809, -1.5592031483487236, 1.1450395457850555, -2.1171329290760807, -0.24722467247777513, 5.740010862838768, 0.14969028302440046, -4.7546805027879255, 0.004017545339309869, -7.436056151232814, 5.04945082881715, 2.7955339493026305, 6.663691940720539, 7.15407681962664, -3.702668249511765, -3.391298275184793, 0.5263757039992016, -3.3805345289169972, 8.374678442202745, 0.46911228831603746, 0.5477012069220994, -5.094157982768863, 3.331498634723861, -5.051949403938231, 5.378848101506815, -0.09694241042204788, -2.731818125145721, -5.503863850828917, -2.469851026333136, -0.05520211088899796, 1.3062200881383967, 3.040053523076966, -5.009468481915348, -0.8144656972935351, 6.979663339691211, -1.5039537260261038, 1.2081061067104217, 4.204775424868068, -1.8188090245754975, -1.1376928048353208, 1.3249555590729782, -8.697698937525072, 1.3996540217821485, 4.066603866457545, 0.4285339964403998, -2.109632712972952, 0.8683109386014858, -3.3082501861429634, 0.7339254207466048, 5.057161560919177, 2.4123554435777206, 2.1290432931833974, -1.222816823989091, -1.5183303463339197, -7.0984429962238815, -9.102021347483454, 4.610500904816812, 1.6037505785225008, 4.611559208915457, 6.107645158074782, 2.506121218133527, 5.83160005863175, -1.4526222694061526, -1.2760326918162876, -4.132309953412225, -3.9678608534477777, -0.378784267383818, 7.25644614070927, -3.826576670966004, 6.673702961160306, 0.025097980620005345, -2.7073459384559455, 1.9631790082714877, 4.10066527911795, -3.282264747679103, 5.3611809629320195, 2.6654273539861757, -1.6547787381381163, 0.5170429791243831, -1.004968162839301, -0.3679816152534765, 1.5901377959782312, -5.28561368339763, 1.90457061972287, -2.3470551221052807, 0.8851426966956755, 0.32435577513192215, 0.5599064094652362, -3.682119573943819, -4.480265448290054, 4.973638829961166, 5.898385528769643, -3.2731562033447785, -0.5201470616363916, -2.5082296441403162, -7.1477292589423485, 7.1408638044590464, -1.4167806844772366, 2.8828463925068526, 3.590482941296984, -2.4199067143651494, 6.741867749694886, -1.8436929920077898, -0.6173640832440446, -6.434203569244886, 3.399464114050428, 3.5833034162757755, -2.5653865813324073, 3.7293602355261033, -0.3978247357563691, -1.9905675166018024, 1.1884799951679534, 1.9222125424728915, 3.924050827830184, -1.4167700369525724, 4.136497316431327, -1.6711956692447085, 2.6644037631097737, -4.494384861209866, -3.053361650799049, -2.772708753686298, -7.911016297938007, -1.2202962946829676, -2.9196222678710946, 5.036508683687906, -0.7112086325114317, -3.342284040047191, 2.5356476509104233, 1.0158721041743384, 6.186862886030954, 0.7561403159655449, 1.032068934867982, 3.6561137142737223, 6.088045874122464, 1.2034181051528954, -2.767882938085721, 7.057785521505597, -3.3444982473546507, -2.906208046265368, -0.513693586267729, -4.343619624571664, 2.041618044779738, 5.595472507197281, -0.8503528441911645, -3.720178073040937, 3.027952057133139, -1.1200071459582126, -3.4928472243879316, 3.29709153538305, -0.5917290172107131, 1.3232065485925535, 4.6490761631032775, -3.453867521966946, -0.14953553172626122, -2.547199107598825, 2.9089841861097785, -1.8437977883005996, 2.418415830105041, 4.586033082109232, 7.82790818632464, 0.0779808156722761, -1.0280972630320617, -6.139466719129985, -5.350278761525869, 1.874702505057913, 3.069164655295162, -6.121267960489313, 1.6444224705461767, -0.7454946153986743, 3.8360484260128223, 4.293151686173952, 2.6495544657062964], "biases_list": [-4.258964225917099, 0.6653588216960982, -3.0409205267205355, 2.0948807918320878, 7.017639133575958, 0.8206383721413348, 4.863948517937876, -0.35118664190601034, -4.15457881230318, -2.0653321536742917, -0.5827632149950073, -5.813699673879954, 2.537640288212118, -3.007234294615629, -4.78153410291865, 4.4968072092330456, 2.5113143858864175, 4.278553056480636, -7.392254181382344, -1.0187744087088517, -2.745932842426596, 0.2751903038959893, 0.45931189643161896, -7.204684142915941, 2.4009074957683145, 3.081260798215986, -3.297165254531082, -3.1442059107193083, 5.8977047783786505, 1.7033827240551744, 2.87276372445661, -1.7540425743842503, 2.3328268141011073, -3.0897729643575333, -2.7702357760335783, -1.6195440749941252], "shape": [27, 16, 16, 4]}, {"weight_list": [0.37636491875114575, 4.3005841963692655, 0.09434287611601677, -3.34023944642595, 1.0842732413667386, -2.260051149000381, -1.5679059547644112, -2.0626552683794643, 2.6588870361551575, -1.8465940884036913, -2.00805770266063, -1.6647726162450234, -0.7308000017922409, -5.9012673859476905, 3.8836114783617193, 1.912327038074653, 2.9714651481734418, 2.276376250005948, 1.7816241482578867, -2.7390830441829457, 2.102209565374878, 1.86013806867676, 7.410024044816382, 1.9942086798563863, 0.678911782336276, 2.4694965489192087, -1.6081835232045576, -2.838367601265508, -2.4172229421352855, 4.8507396762134025, -2.598272146640417, -1.1047871140235275, -2.2628813327000525, 4.439459898047244, 4.927782404383658, -0.5927877837634481, 1.0577809794853774, -4.445548685114586, -4.073594964562737, -0.8494241627151886, 5.2674413746939255, -2.530622125660981, 3.404883268917219, -4.868295572703215, -3.9199816326765746, 4.738995784603929, -4.40813487545756, 0.3699460094815119, -1.1106267471897362, -4.72068512032666, 2.5637286740775203, 1.216665746900723, -3.9959934790869145, -3.135988455000343, -4.162414995970703, 2.8806814226867212, 1.2261357497509184, -3.8242859733143035, 3.732825043952472, 8.473998506871727, -1.2814950028888799, -3.319935137896257, -0.9323886720824806, -6.03092577966826, 1.5798589410659343, 1.3942810393722462, 5.191657986091283, -2.399089550489402, 3.054536108086422, -0.9615152185108609, -0.5830304242179765, -6.208352121346289, -0.5979697654481786, -7.757360216474352, 2.4615943553056296, 0.5596761175360399, 0.2718633760760083, -4.049317106277588, -4.487129509520143, 0.34819652724650196, 3.4405115742597445, -3.3974274294363287, -0.010075566139867043, -0.5718075641698659, -0.00988262925148553, 1.2077617818964232, -0.3205898874854298, -3.8567980331494636, -2.0856820206343034, 0.7490880684252219, 4.602350256579055, 2.408277911781459, 0.9246922049987563, 1.9807201348682089, 0.6610769940968386, 0.5649725954222062, 3.870435665070402, 1.054982114834849, 2.522523767852495, -4.627352619662178, 5.054071850582531, -3.6829975733379827, -1.8338425991618619, 0.3333980373501344, 1.210877717244908, -2.496218666563896, 4.134076496371928, 0.8585107744322149, 0.1604319468568982, -0.32322106281264407, 6.392350417376555, -5.468531835618887, -0.753384261092499, -4.363345175652432, 4.702581233164768, -4.169599444333982, 2.098943913493615, -0.5167833653079229, 2.3308654226043544, 3.402357609128985, 0.03234220946026234, -3.219475824006948, 2.100037934286318, -0.7248466782128082, 5.4366358096166545, 7.446764101710745, -2.360970984630767, -1.5079775295254292, -0.1951128466626446, -1.677004109507629, 0.627792194380532, 3.0304487782437866, 0.5503525528934081, 0.19924795487236158, -1.3829158820687555, -4.114208480115535, -1.3190469330251045, 6.72518044677164, -1.728939151917759, 1.525461171752807, 4.749252616295254, 0.643793322382959, -0.8761074827618052, -0.03757626163258121, -2.8595268795195876, 0.15704703166691814, -1.130396071124917, -0.33375139135583687, -3.4294086251684, -6.161177253611477, -2.686354506948624, -1.7627296415916787, -2.851486134568141, -0.7338750222388029, -5.306833162913368, -7.534022240636526, -2.2249745226107267, 0.7000271481918261, 1.067269656787543, 1.7500868094743218, 2.3891888526531826, 4.854889866313457, -5.763224764683272, 6.043936927154947, -2.1312669239587785, -2.450888416039896, 0.8940056234394509, -5.526978044356872, -3.7013553732163436, -2.258603140436745, -1.9674510900468276, -0.4147526406202795, 0.3355884356128058, -4.589958586918904, 2.826980278747982, 6.525977582149689, 4.443270048774433, 1.0703133561674134, -0.0893884448419483, -4.198683945201019, -2.1269664986689483, 0.5082045822399448, -0.8420929750507662, 2.9823995526776037, 0.8388044961067396, -0.02044196580415747, 0.9601569743668574, -4.0294213032121196, -1.3265617388989572, 0.0799853777208539, 4.953579338276037, -7.992169518350176, 5.046070425478962, 1.9025482949858077, -0.04896000988295923, -0.8811180164707775, 3.980573320929917, 2.390789809234282, 0.3088423122774895, -2.2220081866825585, -2.5631572389375368, -5.025711239997683, 0.38871814693038376, -1.7718044024523087, -2.5394263111484765, -2.0561000731085013, -0.07675398401089839, 1.673802681908163, 0.6843803429316877, -1.1399290548161323, -3.8039797827571853, 1.306900762877206, -5.141060746938802, -0.9756524253816519, -1.1518672650569468, 1.1122746611934513, -0.5362545246038144, 0.6176987435218895, -2.8938269766049913, -0.7419046688565505, 1.8561152045439298, 4.167391920876491, -0.9814976714716539, 2.647031287914074, 3.0861681988012126, -3.974573819585088, -1.1603808969522609, -5.704019018955642, -2.5267824934903604, 0.8294331000557176, -1.88461757669199, 5.504919756391973, -3.2160783063953042, -3.5788194711328694, 4.3086443356795305, 2.7220135803391674, 3.6473205675913922, -0.9217522923467589, -3.380798751661648, -8.226895807927507, -1.9578419049556453, -1.396597076946064, -2.8968213977714923, 1.1480973636707659, -1.7641260605399995, -3.3422162433386644, -1.0284665893330684, 2.3829592243774824, 1.2572085931284884, 0.36943317962065825, 1.0588111328133594, 0.1331590292981515, -3.2975283910594464, -2.2288332157164237, 1.4653525298257195, -1.0719182364305417, 0.5636858110822573, -2.328794844630089, -1.6323822374117882, -0.9497514674809737, -1.9655236288963716, -5.945839948723892, -1.7621552415162278, -0.8456442391847223, 1.6923196591575813, -0.8057115484618862, 1.004701889901221, -0.228886577896258, -1.4548899602932759, 1.4802305468790813, 0.30467211673824934, -4.6713051998720045, -1.7435851449319963, 0.8464498587522316, -2.9795455639466297, 3.770554565155705, -4.422140455135616, 2.350858079456944, -2.3967863981047994, 0.5030054879907451, 0.7334583497214167, -1.6252939660417711, -0.22231966066450437, 2.9775257142821303, 1.524053476318243, 3.1443091002870434, -0.34290470121137284, -4.4344595221518865, 3.720189994614965, -0.4646797067314862, -7.016362223605894, -2.249742664794706, 0.20117054949220203, 2.680886474552402, 0.9858360079780353, -4.7518628827945415, 6.150076662233946, 4.239744858173074, 2.378081265806517, 1.3014848651257975, 0.35832535703047075, 1.7104690263771296, -4.968502314581407, 0.8197969292304035, -1.7825898025038596, -1.8533449211499433, -3.5775932348752644, 2.3074124796476307, 4.360516036736392, 1.7779740046854737, -3.4810186176468267, -4.085027550410552, -0.6646113106445541, 0.07191021806833087, 2.25338273601463, 0.6682799847656109, -1.5984416428826775, -1.400222735649072, 0.10736356920064738, -1.6458526904321689, 0.7695927967813068, -3.9714887192945225, -2.7644205032314524, 0.7333127109599693, 4.537329942335604, -5.172255598135879, -3.5186042737575622, 0.9738546143714906, -1.928012764755434, -0.4642117630701208, 1.1044684025574933, 3.0070770954885564, -5.224970476172719, 2.5458185571660703, -0.32189180670077644, 4.315193122773897, -1.4925819429798728, -2.2343508766408995, -0.9611023281440485, -5.594587475182678, -1.267005210898209, 0.47937567659136926, -1.2936927653425137, 1.217125430028828, -5.042887965501429, -0.3013070458925713, -0.9040098565656416, 1.3916539350888693, 0.5431123995053289, 0.4384585108792096, 2.5523134167419377, 1.3982577463634227, 1.8517021984311572, -2.2630112767629846, 3.407379521293116, 0.5056425379692808, -0.1834282905754887, 0.8670987589794774, 4.202751712589315, -3.035104333626599, -0.6542463482940166, 0.15596693710199916, 4.902443589263266, 1.797739664344248, 4.531365323275244, -1.0727288448281016, -3.0624467113412797, 5.795809137118352, 2.964280877841901, 1.0110092624681846, 0.4495931169092722, 1.7601121418493113, -3.0292724673998754, 1.3203331461938426, 1.64207669898631, 5.036913552719286, -0.2606009240448055, 3.0868308585487636, -5.631746490337266, 1.253520591374238, -0.4438209214748374, -0.03832150361603026, -1.675609331334193, 3.322816985316331, 1.4874726137671095, -2.744460751148991, -7.84316049681021, -5.324367060443726, -4.219610826252336, 0.27283212700365844, 1.250060186064502, 4.268409414664771, 3.3602812941750475, 3.502491463834284, 3.63335581726926, -3.1956903036206707, 0.8516106435713213, 0.8419624896726952, -0.9425362597206368, -0.2725278385081966, -0.18720633566738165, -2.767705468823692, 3.05224516181337, -4.468593512371543, -2.326218009005115, 0.011733138685902311, 0.5123713106543137, -1.7699599747821397, -0.3410936968898912, 1.595459800436553, 1.2895275367977361, 0.7823897900469738, -1.8438884681573873, -2.9218498712459553, 0.15567797020186624, 2.384731192019757, 1.3051962852093482, 1.2938670974898558, -3.0461044732633598, 0.7492631133841521, -5.743652426113638, -3.7475160105776766, -0.2445929426794735, 3.7657500996586846, -6.5609849736002115, -0.843060250930582, 5.609783401916029, -2.026649482770493, 3.6546182667813945, 1.5512821564224306, 5.317364823366917, 2.7361410805632054, 3.6174764334409133, -4.018685621783427, 5.875431688672462, 6.134511001419623, 5.16150580623775, 2.0484467578072563, -4.3455409565349505, -5.47549508055778, -2.6372522033482473, 5.3467152697871105, 3.2666985146011616, -1.1307631244773861, -0.9540784488877674, 3.1608386893162574, 0.014197868115495504, 3.046406432356985, -1.8346343322613277, 2.6903243401981536, 2.4250709638090013, 0.3837659804670823, 1.6012306876717757, -4.913360984205293, -2.3590064916188194, -3.0084787076738673, 3.6067988702729936, 0.6073756022501289, -2.0394459709457404, 0.5316153047638899, -0.2764105482776269, -1.180223531668351, 7.920984959545933, -0.7336967026082715, 0.6149624068862858, -2.33055762852612, 2.4537030754243556, 4.817933200259748, 5.637277158676853, -1.2565561854819653, 0.22243106798518197, 1.0965499618860468, 2.205437040778151, -0.9107895296248159, 2.74613980456148, -1.3151633049504179, 2.4015087904137786, 5.974724493173179, -8.316419545159642, -1.2818301300397363, -2.9456550119187987, -1.4485490332069533, 2.444968875449394, 0.6094720126234967, -0.49566005312949035, -1.2130317167116402, -5.3439717297040525, -0.41753482295325484, 0.6333866139951514, 5.626666835907214, -2.0803354781178243, -3.330531354421074, 3.935855616126445, 2.083153869283356, 1.533681565315085, 0.14539463105547457, 2.2443331690770583, -0.9844945148587718, 0.8845172226231368, 1.3482640199178921, 2.3317938438093484, -2.787597755006547, 3.0980684228618562, -2.072898151411014, -3.9932183017647, 6.585663033849198, 1.0009871677231703, -3.690267272121523, -1.0339990406688613, -0.5827087175919978, 3.92945527345786, -0.7983155010684284, -0.4366450276681111, -1.6466456047011115, -4.561606214567196, -0.8831498859914058, -1.3384192286009629, -1.6900198580690953, 2.0640276857048665, -1.2214576963141601, -1.38146344893743, 1.6072647327551808, 2.1219423308729266, 0.4566408532968176, 1.347832579613803, 3.3193862444593547, -0.46755785007247996, -0.09701173013199949, -0.6000915743461248, 3.112235599924004, -2.7916619913901783, -5.660209747395061, 1.8317439262115487, 4.5756971463852505, -3.935138851351933, 8.723718050817874, -3.8364675496994227, 1.6119022417569835, -2.4920262601641996, -1.5024860734546792, -0.28412192727604146, 3.953825436170316, 1.8112816164825514, 4.344153334570305, -2.2768243424071777, -2.797557143670795, -0.8102440957447306, 1.9944063550568352, 2.157915422746341, -1.3541148319099028, -2.7399974559875773, 2.4767325575165824, 1.8157360240915286, -1.3991156029975165, 5.232182179079465, -6.03998893109944, 0.3754869716509559, 2.3594669923135347, 5.628588622437118, -0.9225698817197537, 0.6160213467606908, -1.7058613533443088, -2.1042537266852896, -3.264479321003115, 0.5703279224888744, 4.348354395560449, 1.9618521023029984, -3.536606167639123, 1.4437199600438597, 2.883943995898691, 2.204179979381813, 0.3541715146191804, -0.6143463341953883, 3.1099360752887684, 2.7825601383497824, 1.5539388484744627, 2.484932804974646, 0.837768150095626, -0.5868893569851703, -0.05913592863574024, 6.770900928767322, 0.1264503631266003, 1.492229399297575, 1.884571386771328, 0.21663420592194504, 1.6463520393221218, -0.8315121110400407, -5.9820845804155764, 2.360097862535727, -4.802833065697631, -0.01967619724809999, 2.9639231374504607, 1.5472544542963038, -1.103263678504656, -6.129093545208526, -0.7423892044696736, 0.1921958719558674, 3.8527382243960453, 3.454136038546487, 3.1585898503858933, 0.8072522809678886, -0.8872168818089499, -1.1803836817070374, -2.600029029254353, 4.307217946032081, -0.7395487089691123, 4.340982733073855, -6.43107640403628, 0.5112349741753885, -1.4948567851514103, 0.4824530290544766, 0.30952144287888683, -0.4718541050779661, -1.1280103707322306, 1.7157778679688045, 3.76217731854861, -0.922847298511563, 2.695929902981666, -4.061950474039591, -2.627325185277599, 6.141434912027044, -4.997683431691874, 1.4426770839671619, 3.591371524898893, 0.8143685074350269, -2.7368264088077305, -0.5219937327695152, -0.6014590548784056, -0.5558729196867296, 1.343481680660946, -0.43713378606659203, 3.539685993763136, -0.3205754613372056, -0.09392447683612681, -1.4210764932963489, -4.315380101545929, -0.8904819646891544, 2.492092354672912, 4.552863899103513, 5.630918827412627, 2.059657543782489, -3.1652641198966407, -0.7952630654029986, 0.43430466721831107, -0.1340029958269784, -1.689479636319812, 1.5686010710100984, -0.20302087238094535, -1.4200756361140716, -2.1801547717803613, 2.018689098045075, -1.6772343159359795, -2.7005419142775424, 6.705923611616681, -0.7849318341271663, 0.7620171001614819, -0.15364308482273148, -0.2783758765488642, -2.994336727023867, -4.107247562952044, -4.988342104278565, -4.267556644997869, -0.6445230076869661, 4.579799992747988, 0.9384030791646931, 1.6087328795046196, -1.7344357073652197, 0.7071196240064315, -6.688286895290458, -1.049964871011516, 1.2129754556903958, -1.730461049575591, -0.7776762271880426, -1.2305137757168234, -3.5029529884753856, -5.053067788031645, -2.6770388223080643, -5.304244129918817, 2.4154294887683347, 4.779134631253188, -1.0823863141757462, 0.6355243045447212, 0.9486255744004082, 0.4079008361664511, -5.570999763935967, 4.097822466235273, 3.7401282722648235, -4.892662216560957, -0.6958673479673934, -2.480221914729775, -5.040018736312954, -0.461961738646089, -1.3329991543723125, 1.0294913300553903, -0.5879105512230036, 1.4948539120249196, -3.7380645701774737, 2.01857933453611, -0.3057527656233704, -0.1690125140925085, 3.5466724982897464, -1.6124740121709307, -1.1638132741677332, 5.197615405729422, 3.7175615701882823, -1.9930508314963993, -4.234308620935985, 2.717147572818072, 1.147000128622583, 2.6498137279197733, 0.22669885138767443, 1.3729727011181598, 0.9691181807444653, -1.2310274498487963, -0.6736367448222498, -4.304936794034786, 1.6593595662970682, 1.8062727425220944, -1.3791273255743175, -1.1901371152366678, -3.287734591224236, -1.0406765673410554, 5.582977268010387, -1.2717952799445789, 0.37236309683633495, -1.5530482918848199, -2.4852603282067367, -2.672490545658583, 0.680876864341998, -0.26148727098496005, -2.1039958226955324, -0.2716255075950128, 3.8776832246762947, 1.5571025785271506, -1.7411199323783038, 2.788043571536644, -1.348949728511768, -2.141961472701454, -0.8072423363177226, 6.666634340266324, 0.6046363720549774, 0.166543645155816, -7.043964977331885, -1.0375720239479584, 6.269079289577086, 5.939561212410705, -2.5483076356327596, 1.9268884235124268, -5.74562478960055, 3.508084311512995, 5.1507114232522575, 3.824024382800495], "biases_list": [0.5670051559460998, 0.47255822483973375, -1.958655797731167, 8.114685119585518, 4.374187527480105, 2.0702609593768986, -0.04846217736666647, -1.7458095582612705, -4.147805013175221, -5.032779133447835, 2.292464951429438, -2.330625019649876, 2.7957675169253102, -4.977028409667708, -5.96072144897692, 3.5291618571735732, 4.412608976373358, 2.4845775697865458, -4.409861082970576, -2.2448489921867374, -2.4785148343064094, -1.6916805289449863, -2.079137967235245, 0.27006717409207415, -1.500090316445229, 2.2983984036062495, -1.1567949866632432, -3.5746890730153784, 2.1841613842692515, 4.771210832525079, -3.4864492254500647, -0.7003925443820216, -2.8034383439226658, 4.050972840224824, -1.461174420865679, 1.6386475760634793], "shape": [27, 16, 16, 4]}, {"weight_list": [1.1611624068710809, 5.250105632950975, 1.4473633956292282, -4.902358432579451, 0.04118095633158014, -6.284902651549508, 1.1720643184570356, 0.3959796272194591, 0.834187667227895, 4.0940620246758295, 1.4790139501227424, 1.2748504638725962, 3.6937814562505658, -2.3388502336240338, -0.1761197527738143, 1.8496733058591475, 4.398687214784864, -0.5601008941856646, 6.453651690570341, 1.8728378874559137, 0.23906537537549788, 2.7471471512339534, 5.003539336989125, 4.196384578514733, -3.2393475788151678, -1.868773745889359, -4.387173660846344, -6.871572473869235, -3.7433768209954215, -0.26847905894340574, -1.712833540075881, -1.8796203764276913, -5.711827393082278, 2.6502730144149487, 3.329009843768352, -0.6590694430416102, 2.856057291474771, -1.354055819435927, -4.2014539557113615, -1.4507823168099532, 3.815838537307749, -3.9105550937970945, 1.7448563242098345, -2.938606644628084, -3.412910777241896, 6.626111205496468, -5.404366806952863, 5.409706004454133, -2.3621477587249977, -2.417158125952075, -1.9692363577526175, 1.5055331030077226, 0.5272279539318254, 4.66492492858265, -2.0448048747737353, 0.7579605491160606, 1.0730107020138426, -4.613023310815082, 7.5634425030144214, 6.056904332307302, 1.431846260091691, -3.779033341191143, -4.003688590508822, -3.489629931622456, 0.5837973796366498, 2.1576775830150683, 6.789013561072476, -1.2872448539871921, 2.4545231345613203, -1.27717047867989, -2.469748623479468, -5.043187278073427, 1.369991556574318, -5.995833219270191, 3.074728720583451, 3.8951024882610223, 1.8415287414070285, -9.04545325371942, 3.1798266269181443, 0.2839676708007888, 0.13396479599875177, -0.9017422382543197, -2.6185690513478006, -1.460963477651494, 2.446938634753022, 1.8319854026657492, -2.923221806011687, 1.0771898245429785, -1.917756247340142, 2.764516330778375, 5.377393178807858, 2.331476469077596, -0.8608950500709193, 0.06869002473823116, 1.211885219634571, 0.2801626479418937, -2.6630948608227385, 2.5730888474004683, 1.0310050417878451, -7.263004930994152, 4.315415296439422, -3.8392818641816593, 0.7423822212184117, -4.404201839573485, 6.638335996289308, 3.9205295141755734, 1.6364058296120496, 5.363450909011336, 5.379174390909344, -2.4717392033802135, 6.5294371075134015, -3.82333820256982, 1.4663521688767203, -5.335823635536502, 6.0610141684532275, -4.868258530841108, 1.996578500712066, 2.0875731465533334, 3.6715064851075123, -2.0620795989719345, -2.7936836634614393, -1.5699739302669105, 5.062530710842954, 1.9946440366401514, 5.771141531289254, 5.5651227856872945, -5.116051614898362, -7.288198412958286, 2.3036201346119545, -3.680344817977069, 2.43724913204787, 2.3383518827355667, 4.5872076628624985, -7.380963376011355, -6.484174507479476, -6.22704386803726, 1.9390045727609087, 4.974636605860927, -1.731963585792777, 6.155185636226999, -0.2339982759129936, 3.2683387038959095, -5.261659613863025, 2.73813806985127, -4.106557604006328, 6.014910878676904, -4.035923543693321, 2.679380139126528, 0.6616238893670756, -7.397074739028753, -2.8015523890066136, -5.6947517590964, -3.2710968135833998, -0.608827330054676, -5.739674651045597, -7.441405394747244, -0.1688773217450924, 0.05576005974178089, 2.6686210253259834, 5.8337604173286275, 0.46876836376838127, 3.271182610934563, -6.4833611237973985, 3.4264605824301393, -4.041272077652911, -2.910772612476124, 1.813858397479219, -0.03256037908705378, -1.6804009620056823, -5.427867609675687, -6.589885502448229, -1.274184487803222, -2.4332150870604856, -3.8314135042070876, 3.914169558553258, 3.930460813391938, 2.8392818568462284, 2.699559055243406, -2.15064731115733, -8.654904348631245, -5.832735343095816, -2.774929259716695, -1.1107159626804397, 4.142365852680271, 0.2442454280695785, 1.1464943994392036, -0.07413196108152642, -4.302247352099098, -1.7095684532265878, -1.4955739494270337, 4.521547454536181, -6.676507963158174, 6.717462091941124, 3.3784855355984673, 1.146531853931016, 0.9262386941156284, 4.094661146029386, -0.3297894553810774, 2.2760998295904447, 0.6211080493014489, -1.7080262395378143, 1.5469788935173847, -0.029513176738171554, -1.6413992289150074, -2.0091341689439717, 1.1762887130330268, 1.3305748667248594, 7.955544711432605, 2.9794810619904686, -2.1543124071729296, 2.290614132733157, -1.7759804539698405, -1.8745504537632038, -2.483865478197934, 2.762052456134392, -0.5883575970717563, -2.607518832071438, -1.590677145033173, 2.6283725826245115, -3.5172090900222663, -3.359933458616325, -3.0746205855057167, 1.2269380630529132, 2.98313596489494, 4.306821840608757, -3.6700664923103314, -1.74456200978114, -1.3189570026619475, 2.259983520389878, -2.1834121399586817, -4.782837886981418, 2.4475840269141793, -3.5995306524129913, -4.118783168487935, 3.127642642867265, 1.2198894659404704, 6.267492675717732, 1.320412144325001, 0.9966922284770938, -7.387604183822496, -2.158598047790794, -5.698976910685354, -5.074337311155923, 2.5054936777229644, -1.3385324761386277, 4.102608332897975, 1.7552380521856237, 0.5181647046661015, 1.5903421726538003, 9.485509383408889, -0.37310604033099215, -2.358905209306312, -3.7087575457025577, -3.4475385522922104, -3.5356623347956573, 1.0025589330161218, 3.7609201462918787, -0.2866860840429757, -0.6041921234222019, -3.9668702452973825, -6.13773939504677, -1.3122563842662225, -5.230026603658542, -2.606572398643607, -4.680098117415944, 2.2284810734976355, -0.16055437952890428, 2.5030221968995487, -3.2659869623391815, -1.2602460459901905, -2.110087226719723, -3.090204040310567, -1.0467410498867413, 0.07245498082507673, 1.3834648057349508, 2.5464635553929282, -3.827214904040523, 1.9397349575601588, -0.5375841838741455, 1.4533392887109295, 3.873710221890323, -1.8914228594897633, -3.390705655534898, 4.172535110178711, 5.001862476773457, -1.8577996076392358, -4.350982034425819, 1.231673845255115, 3.3202204036542433, 0.7586292823644669, -4.795724154542457, -2.3748054350370733, 4.105031082906879, -3.4827495880194075, -2.304973150152133, -3.597197056288748, 8.546936349644222, 8.71907322611672, -2.9682161704365617, 1.0497852179899558, 0.2723031048184201, 1.8392577340981848, -2.5305629853778173, -2.6151448184174813, -4.794711786054412, -1.2959204568189715, -2.5089960522434236, 1.0776393510833868, 3.953377017682434, 0.2792151187277061, -2.0950114909887914, -2.957949082905599, -5.209897202758055, 5.206662291191032, 0.21771589401286073, -2.0852104271133993, -4.3755387028152075, -3.4888219831946294, 3.599183916174809, -6.119011279609757, -4.527316386725795, -0.61340912435904, -4.376928249026874, 4.270329971652139, 4.152888721734447, 1.1419439270847125, -2.105370174326514, 1.2298430787461543, 0.6657513566358149, -5.615928265560707, 4.030359361388203, 1.6102343639153367, -4.770315896509916, -1.2332846176856607, -5.002326772855436, -0.15794728872147268, -3.3014657148286553, -1.37388137275285, 3.1522265493513846, -8.968148464822633, -0.3240893261024952, 5.045194333878646, 0.12167657940506693, 5.523551837189396, -5.198648012439083, -0.2511106294539551, 4.8578845747350865, 2.1653258664482555, -3.7877228280339277, -0.3296530559491365, -0.44436166950885236, -6.2487361715851595, -2.3126260737356845, 1.8163800703164155, 0.1702765531698751, -5.096780422888277, 0.7320119817758051, 1.177662472815904, 3.269165494922813, 0.6304687108055176, 0.7081162562255114, -4.837697554008291, 3.7911736895770893, 4.85621361500798, 9.34581215663485, -0.3252966771642152, -4.504900258242624, 3.048651126482407, 4.201435659733535, 2.0781807875918377, -5.653464520619986, 1.2047418206056761, -0.7275959007647008, 0.40689560894453414, -1.6873514579633238, 4.557826987376224, -2.178353144666661, 0.32794073675762214, -2.523973120013843, -5.674282358580794, 4.266494838905136, 3.059403057358219, -0.47127569672913416, 3.251266805891736, 3.4047111460232875, 0.1963891741662005, -8.262149287064592, -7.012842145311996, -5.274654276924783, -1.6682535005139574, 1.5678599362572063, -0.01101127726377149, 3.941389935740279, -2.761508693514675, -2.132983155395466, -5.936901765366908, 1.4211757476345355, 5.807608383225142, 0.40300861293639323, -1.8902855912917123, 2.8480503727667337, 3.63432940903646, 2.8134759561021165, -3.0257192853904016, 2.0540619332282417, 5.064554483092142, 2.7032516792999974, -2.949979822169811, 0.8733697301517154, -1.9639993622217213, 1.242854395474584, 0.8067998770769265, 3.5315580690391775, -5.17924750207183, -0.9126039250109204, -2.3637054041579786, -0.20998324702870474, -2.85702897623233, -3.749476714727077, -4.103081445310975, -7.65962752605552, -3.1670918361133955, -3.20324513270471, 6.852314955249316, -2.033892721353743, -2.157174029586291, 5.396231927607579, -1.6495108766723596, 1.2599011838634926, -0.03332491707510965, 3.4831053550729294, 0.21660464216305364, 4.016324046915216, -6.8339566301779096, 7.303299718485727, 6.942282314573872, 0.91446232653508, -2.317488324092131, 0.9587685969742095, -4.787175003443172, -0.26516696956567554, 2.0436959467519564, 1.0227898539532099, 1.5038135346696726, 0.041052307093085494, -1.3649150740332738, 2.7912155862011154, 4.540121561723672, 0.20516832479627545, 1.4211174388333694, 4.428803388444598, 3.4920343699349106, 6.270163937860849, -4.231762126699335, 3.2144587562377493, 1.5170074301745782, 0.5593172397837209, 2.65899383163781, -2.242047861269511, -2.019766852533025, -2.195316564328565, -6.17280409716869, 8.765093017697515, 3.847043394777761, -1.7815546592944331, -3.9628111805542217, 4.724889747420724, 2.9066108293131734, 2.9195515353412214, 0.17192144888440453, 2.329456102493112, -1.3975718226382419, 0.6181953025189229, -1.4157594011502, -1.268115817565455, -0.8986903919171549, 4.0808855497900325, 3.985669723493655, -7.926931696711078, -0.00706378570295918, -4.735479028801481, -3.1066894392789046, 1.8042468175036488, -2.1548320463735555, 2.5287088584965316, 1.8152851636212564, -5.1773046732754215, -1.595721604339111, 3.08214533250902, 4.06218363014616, 1.5499073505632683, -3.9108281558731033, 4.70742400387404, 0.805450115653011, -0.7988597106412838, 1.6375360532355834, 3.0460950859214844, 0.12030415817389128, 0.6961090745024849, 3.363490212020853, 1.4953405553252872, 3.3296253242873473, 0.934432811065621, -2.637702931384325, -3.941224380969161, 4.923172099430823, 1.2476243132851632, -0.13728963687372198, 3.6170902915139314, -3.6459458613009383, 4.42977543819512, 2.3804457013722455, -3.499409806197097, -5.094640528277249, -3.9886889042759996, -4.351671508004552, -2.434859479090734, 2.0057313810056243, -5.126657315598347, 1.7528581297592378, -3.5457051049117156, 5.02670030472433, 2.833869157533373, 2.9353795282466066, 2.065213321453605, 5.709070400485453, -0.780903581469246, 1.342781172198174, -3.6050701753838608, 5.609599021570681, -5.220148856962748, -7.975120038665045, 3.7162491388985828, 3.7935588962903886, -4.403382486876498, 8.674792296747196, -2.6879512533795418, -4.842869357708629, -3.2710427906518307, -3.126651655929271, 3.0045850385207906, -0.025063912252689335, 1.7710256833402518, 5.724241047888547, 3.847762784747916, 0.4152651467130024, -1.8216938646618686, 1.4956846691121548, 2.79409516787032, -0.32447133560252794, -1.5386480925603763, 1.106511048943176, 1.6053919762554383, -3.3632423514639247, 4.889328068713335, -6.5808529950925365, 4.858108582963853, -1.6630425417573278, 2.686756300703136, 1.882260799303499, 5.364529894910559, 0.4955294757400295, -2.3683884881903365, -3.7236085588122636, 0.5029046577763006, -2.5309759627426462, -0.8733028732105574, -3.9957997115739996, 1.0027025135912413, 3.2891720550274437, 4.5629692486294156, 0.2520646382302658, -0.280889630585073, -4.154975674709011, 0.8988736414620475, 0.8886170663377633, 2.9271242033454583, 6.999268977328974, 2.28642691201439, 1.6699509355862423, 8.906427727993506, -1.8466696795516324, 0.41210799125932196, -1.2173120042452121, 0.5531692992393731, 5.802980812699979, -0.6466719995262058, -3.546850820832705, 0.5569201614223831, -8.789458898665085, 5.119209422247395, 2.9983764060959235, 5.291216024783502, 7.289704014226807, -5.099283791951614, -2.886111771184887, -0.9665581093440917, -2.3500048703993315, 8.768065501582742, -0.040680441483510354, 0.39338535758046467, -4.218024942068439, 2.9154536774002935, -5.36858775592828, 5.267143894682315, 1.3370129732753422, -1.6993261504081867, -5.3815547498564085, -3.102376585203957, 0.42733691743406266, 0.7396635651844923, 2.0066106092565548, -4.665167760556973, 0.6957479646265705, 6.710622272696095, -1.2390197779476098, 1.5048806355615976, 4.325563077825299, -2.89589105874093, -1.803935973505191, 1.3609498403625202, -8.390495903339346, 1.827628711609973, 4.753359529543512, 0.7226054019742296, -3.472625750232053, 0.04232438809777572, -3.833936972295294, 1.890427211581104, 3.9093297402298806, 2.0020880142222093, 1.4604598812654332, -1.2072408197650677, -0.4219967065482477, -6.976861641398359, -8.813907271558001, 4.483375124943656, 1.556091929736036, 4.20621571913965, 6.438276536610317, 3.19726537301423, 5.52654930710595, -2.983757660238406, -1.9831564786735554, -3.8962242363755526, -4.197579462070776, 0.5062162547614792, 7.314165148003147, -3.9259083800247563, 6.692693317566504, 0.052290882771386604, -4.199202915564472, 1.6256375355292212, 5.991077352159561, -2.59367084708546, 5.171623911563479, 3.6429482076524122, -0.7998407844252761, -0.8586522307875546, 0.059205298465945244, -0.6595262144419768, -0.2771489163705032, -4.051624545852242, 2.9867933409483776, -2.603203408688297, 0.05106657694233263, 0.8488321735692725, 0.2935804687326147, -4.009683223736384, -4.754927753688344, 6.103342997687998, 6.603986519280824, -3.9146995667194706, -0.7222702289191847, -2.7990009108647254, -7.007171943889526, 5.583984486929042, -1.9334227642516355, 2.284806697541137, 2.9416658416825494, -2.3477472383081253, 6.667231091730493, -1.4430085804871684, 0.1744958104784795, -6.257802872386093, 3.4344350217389845, 3.5573167127704313, -2.23245165354436, 2.9868412135760396, -0.3124521642102245, -2.413480988766957, 0.31311128233001506, 1.3076602704613975, 5.033705735172711, -0.9301981044113281, 3.15435178812265, -2.6505325541361495, 3.1225439092622063, -4.1063298591379045, -2.297960212759037, -2.9341010767713414, -6.586116257529887, -0.3898601551944654, -1.41342231747764, 4.471338412771205, -1.8440991072565878, -3.353142239552528, 4.056194908349591, 0.50933135166255, 6.044462897286831, 1.5540405729255338, 0.04171156535125653, 4.835172766059035, 4.564313224729598, 0.4481292710157587, -2.8580106339968125, 7.368845287747112, -2.0511669392282377, -3.3796377252890113, 0.21203565670227276, -3.2796968840547778, 2.4107517703104113, 5.9431953874790375, -0.9422656301988717, -2.8408953714027643, 3.4036443792107036, -1.7239975054919645, -3.5797724634594164, 4.30138959270825, 0.2838111802735168, 0.3822452175765747, 4.093535073259091, -3.934745120947259, -0.35703911583316705, -2.2753499346954515, 2.8455874144527478, -1.5743653519053604, 3.017120332319992, 4.523290483543009, 8.946832527369764, 1.3190188984741722, -0.7188024312435545, -7.0280277859393525, -5.7587233187550595, 1.7030470643719067, 4.799184428673508, -6.557426044183154, 1.7589844918373112, -2.1521703314175196, 4.4228194944670856, 4.374816170640558, 3.1976204459130297], "biases_list": [-4.819720586318161, 1.292080426744786, -2.8846106187336535, 2.810636275391318, 7.111428132861279, 1.1432068457671951, 4.922575791385498, 0.15870083561258497, -3.498422918117723, -0.1955015902133379, -0.05201632399825529, -4.9207234791931285, 3.2887390649864914, -3.043056403983421, -4.573125891626309, 4.819862522109978, 3.8114306702651826, 4.221237462919237, -6.869680482937548, -1.2059111214662501, -2.0216517492339507, 0.1935557317726304, -0.24532614338284142, -7.502847607156166, 1.8339327668359795, 3.7147705922372536, -5.164332440633661, -2.257210082828147, 7.267092784895933, 2.750460205840959, 2.169503983175063, -0.7673273612152471, 1.9366784503896448, -3.327998775479883, -2.1442069391899166, -0.39202795966128656], "shape": [26.660289934211328, 15.500808128680603, 16.348169220067405, 4.101723673929764]}, {"weight_list": [1.8286183120925412, 2.0309695874825477, 1.8448682180303373, -5.885473251164412, -4.534181258232221, -5.815005396824456, 4.09847509910012, -6.274017212834881, -0.9783495867462582, 3.7032055227461385, 0.7345856069132748, 3.58020012134907, -2.952583359591705, -4.037509526144239, 4.6838330363170355, -3.6035944833460514, 5.297779038361426, 0.586386193317697, 0.8589849844277508, -1.0332017912390496, 0.01847516213223499, 3.0660641107895676, -0.18970669891275893, -2.706722651959332, 4.28070215509851, 2.6529919786063947, 2.086200834245222, -3.1498820411504562, -4.873048237200909, 0.034307185617627134, 0.5098883225072006, 0.007390524121252184, -0.299261592005555, 2.535990028511913, 0.3124338759740335, -2.2443959107724405, 4.1017960330047245, 0.4149274041492985, 1.0935544881101995, -4.714304510123445, 4.628792968805157, -3.086526723001311, 1.2030389357234292, 2.112390102542917, -4.477904828249959, 2.1574743532640834, -1.1922564560166773, 1.0174584996239968, 3.230403393881133, -3.4928020094990395, 6.930646297883268, 2.035123175193918, 1.8755440855683805, 2.4659516848762695, -3.55686541759315, 6.539058039094805, 1.0300237502123255, -4.417149840339737, 1.143324396617829, 9.043642099073573, 0.468712237597366, -4.354936209634166, -2.6232754580954865, -6.756090273923324, 4.9549057571435595, 0.7206594855266493, 5.147956789517174, -2.5996646043298552, 0.7094218474606391, 0.7893894891355644, 0.6045558861436624, -2.3505354279878494, 0.2431683214144602, -2.2533428570200806, 2.2432461509242794, 2.5485459335583336, -0.45888654713316956, 2.517698559435063, 0.601400060724663, -4.530815667883989, 5.187297609875397, -5.160069787059062, 0.44520134751299034, 0.08876077399942117, 0.9052309475742129, 1.7319976484320811, 2.58130919727434, -0.6372889072402514, -0.9513688245896992, 4.850348029474088, 5.95302055836381, 0.0701654984197011, -2.461549178116899, 0.9101832066227955, 0.8036595787307006, -3.5675947315089696, 2.7899899239579167, 5.0552697260629, 0.871571876070772, -6.280326968866636, -3.2676944484227826, -6.446480640394139, 2.001655250231427, 4.22943264302428, -4.249479702322855, 3.213017896065362, -1.3730923906426646, -0.3176996823810859, -4.593512474608539, -3.647428499131721, -1.1902768455668062, 0.2967551713067955, 4.174372445227072, 2.76739532761726, 4.470707102919208, 1.7384933951195696, -0.12953143973302916, -1.4548949141983012, -1.108478940426723, 2.0794427946133927, -1.5983391444313018, -2.6196114511618016, 2.2587794624083743, -5.352973616617785, 4.075320565259097, 0.8837990650923786, -6.568755302159528, 1.2042468617047484, 3.850303219495565, 2.2798990531503858, -0.5176703196078261, 4.351276311309448, 0.09633828363652208, 5.328878327569665, 0.14889916525715963, -6.951407767801236, 0.9565373731998035, 0.9957682180475327, 2.101501635823565, -2.9505329031995453, -0.5145808716164126, 1.0327497285314386, -2.4390272450965, 4.653742115144066, -3.7589305194372296, 2.2894971061231653, -1.405245805188029, -2.69833967951377, -4.429576975973538, -7.210496279781214, 0.8146255603480987, -3.4142365684280316, -3.919146980750858, 0.39714217572757393, -2.873527703455155, -2.3698223965703704, 0.24110058578866922, -0.5286424403927664, -0.1541552834635289, 4.135154914526824, -1.5749381167211713, 6.770018201317383, -1.231494768807365, -0.8116452244040413, -5.134056338546337, -4.455542945279129, -0.0949825008734092, -3.583125070676898, -7.481389273629122, 0.32813994579394645, -4.8868272136264554, 1.3534995639981449, -2.378315200856952, -0.5749032393270477, -3.389637318775483, 8.102572128487605, -2.08636286152389, 0.3038194141210382, -3.227852038544467, -2.983247740625756, -3.3059757772676486, 0.6411835355475846, -1.111906672517911, -0.20579426741637374, -4.312412283640925, 2.4871455947580667, 3.575488289105179, 2.431612961959719, -1.6396823250918011, -4.655075731199558, 7.56868454451501, -1.4176366763588428, 4.38759071614952, -2.897297920561129, 3.565378753648794, -0.25799440146915353, 0.4443639659886247, 0.7723687353416986, -2.0044015271693043, -2.374408186562748, -3.181510785225946, 1.7576355752652058, 4.690453382845796, -2.0408839212486565, 0.01487196554402459, -4.859955082651704, 4.389799227955044, 5.140848338694332, 1.7406951992416433, 1.98003715629227, -5.579169769087956, 3.8340475789495514, -2.3268129082893863, -1.2574935791553536, -5.188483706865632, 3.574872511982492, -0.7716755847897517, -2.0929073170022763, -4.387590822964505, 1.5080698592343564, 0.5679161125422802, 4.0622541108292625, -0.42835713528783415, 1.9838085622957955, -2.4386724922900953, 1.387744975567502, 0.9872044749708615, -4.149280677676458, -2.6435537861944773, -1.0748089117708703, -2.962061869745586, 4.845957519686677, -4.061996933078298, -4.484980498613757, 2.0624620840354178, -3.4139073912257136, 1.626579968915303, -3.091481994969551, -2.0076848467977944, -7.200675658250787, -3.683228447566652, -3.6227242032880462, 0.8153472117716183, -0.37725824316197554, 3.7674025432537537, -2.558070679330392, 0.7889151104594925, 3.4977428893520495, 3.3566341956023598, -4.9037863438314835, 0.05275025781837073, -0.9802123389405064, -2.1268100394009353, 2.27675636707646, -1.7343580037880137, -5.021757451932067, 2.3009311024720964, -4.624786680077869, 1.4262708119525707, 1.7852561448127844, -3.1810783781506773, -3.4500493616364585, 1.7564861509457188, 4.399087052459295, -3.403054275271968, -1.7376041552674348, -0.4458264988085243, -1.7480482594380697, -1.1387453568271477, 0.4590258971880097, 3.933242029120688, -0.3611727592076506, -4.000845052165225, 4.595441797184965, -4.599973319387284, 4.444575650911267, -2.4394656251088653, -2.9155447865760475, -4.560758795656118, 3.780782825670153, -1.8050032352174796, -1.4408671001155178, -5.160065865597255, 4.171064309428479, -2.1692206521434927, 5.734891829535982, 1.708482552939039, -2.1821215908694933, -1.5455248345595518, 5.155170611169594, -1.650024541115725, -3.524037563431076, 2.308449887827941, 0.5332512189735412, -0.6124677928542027, -6.690636501052502, 6.083501460304686, -1.589776149078477, 2.5157166719026853, 1.9901336526334603, 0.6619666205967414, -0.648449003732666, 1.187129494490974, -2.149436717013084, -4.381390380965275, -1.1406469091614586, -3.4718429259780708, -0.48039747683158796, 2.7172941676490145, 2.1249448124055528, -5.881706957581826, 1.7187074265523936, -1.1274068201022347, -2.226346232037918, -4.67442633958758, -0.7486916124563392, -4.859479896466189, 0.6739815612521616, 0.9936984720957911, -4.757863154559706, -4.951330871795701, -5.719134851086325, -1.8387761303994958, 0.37717309451145775, -0.6122113535292824, -0.223145720414355, -5.1729393590573, -0.05193011142875392, -4.068158651646403, -4.42223283182388, 1.1921171021535306, 4.212247646011824, -3.0981974208779843, -3.1981638393201806, -3.9806846650064376, 1.0647447171849653, 0.7221512387749982, -2.9535206238587755, -4.972582984283039, -1.404563193748926, 0.3788992242975069, -1.1507772776279168, 1.9367403726128423, -1.564896027129975, -4.753207570178692, -1.8660961471216038, -2.914106147635594, 0.1903631759152189, -4.218507957896476, 3.8935469488346826, 2.5139805169976466, 3.1147595126789076, -2.132554424686651, 1.7361637942104204, 6.815196342667604, -3.72988764800926, 3.3986200029071973, 0.8465788502260845, 1.33246431052227, -5.012400018446691, 1.380344717851826, 2.501793522523119, 6.232384873864078, -3.64529837093108, -1.0307552862252247, 0.8967390072950137, -4.030232123351126, 4.335582346318164, 0.4262103778480111, 4.384388600301876, -4.404193500575669, 3.929430877953531, -1.220113618208832, 1.4183928022364585, -0.6752751033773434, 2.7083105857909473, -0.2516632920760088, -2.0040867213694615, -1.7410917873380112, 1.7816309947865827, -3.0156053305450543, 2.096094748704158, -4.658479510006879, 1.2679765679662376, 2.240906573637395, 2.9848259979557934, -0.6317529625918019, -1.352218532300829, -1.131599432245825, -2.8294918423206443, 0.7653596351154774, 1.8525279376434636, 1.0636424092852645, -2.149041895088561, -1.1779141007703609, 3.6139855728937693, 4.0138851822824835, 0.12039777664066409, 2.187847239369316, -3.1759329184602247, -0.632380307317443, -2.4017605626432275, -0.24369570060486145, -6.326319794261604, -2.622150911524388, 2.912965486623018, -2.8652754975780272, -5.105326770563501, -3.03396255854727, 4.1922719250440625, 1.5348344270369259, -2.5323377778493263, -2.233285891782694, 0.5498927742398896, -0.25308135220856864, -0.6134015798959773, -3.2619102969621077, 1.1136642580149494, -4.6093163372803705, 4.6357832711908955, -8.102895458829519, -1.1311382369439404, -1.766200301591796, 2.3795810504528103, -5.782574532309747, 0.2208854259154267, -1.1471053089637915, -0.7257028553096603, -1.144485053565613, 1.23426287009752, 7.917896288757838, 4.391204044416998, -1.6317876607160744, -4.515383807455755, -1.2379031068877118, 3.617295149576571, 2.71814617610829, 5.904452832048273, -1.5326967184800593, -5.768311030149498, 1.9296470074943453, 4.324717488977556, 0.8165861718714049, 0.09354943356958945, 4.734530802831483, 3.046109695345832, -1.0243304163515448, 1.3721535209320397, -4.068787676011052, -2.724238321742908, -1.785343530894295, -1.8743482560774543, 6.156548913687398, 0.5525280038214584, -2.904675654121103, -0.7160157713944941, -2.89918185923052, 0.49029103035113675, -3.3515298700756606, 0.3298661787572552, 1.228591261312645, -1.2132225962548993, 4.3185209561186735, -2.9303025481275515, 4.703434507724101, 2.4752876406586966, 5.304372515374891, 2.6728684400007245, 7.280135242500995, -4.415692826927706, 0.9651093896133451, 2.3727738310775095, -2.7231619265292935, -3.5851300823188925, -3.037427551096743, -2.9732672139462686, 4.24270348210351, 4.120150549311024, -8.104739239854874, -0.2562845021811405, -2.673585354811289, 2.7653860454594064, 0.7069410616149296, -4.652115869262186, -0.4590335813510408, 3.5183653237300945, -7.286923825601093, 0.9274946745743342, 0.526316695076263, 2.802451019414743, -6.425568376922941, -0.313153295586474, 1.3258782591818132, -3.4189551693525946, -1.3604151238471676, -0.32558412588689833, -0.25184465620762, -0.8515706709106372, 2.133208812032902, -4.120992695753726, 0.2895563964179655, 3.0451680298918156, 4.685181540593183, -4.723056264129932, -0.39248584484613946, -0.13465728964463874, -5.193722101698143, -5.841552927055584, 4.449465658331378, 1.4096907723704888, 0.4195866062970721, 0.1780977554621348, 0.6793794534816249, -0.8622978577671104, -3.1750694262089265, -4.164291359828467, 0.5411964836576901, 1.3835990010530135, 1.9781419000883056, 1.6200853371023962, -0.02277619162995359, 1.8177909494044515, 0.8926870480964169, 2.2671741576784177, 1.5064022948287552, -1.6083701254989953, 5.092518676650652, 5.4259608662823435, 1.1217643740001035, -1.4630676594026768, 0.94201164164304, 1.0599168839090765, 3.273942903037531, -3.201760160832772, 0.5985588027590245, 1.8571845269988132, -5.209341736505531, 5.353585506092596, -0.21914855830231517, 2.064396591063677, -5.328710105851461, 3.1502085804103492, 3.539008660592051, 6.266972048805886, -6.344779943896125, -6.214878892276724, -1.7854139495796448, -2.955210200259904, 2.9120400035127254, 0.39975687633791646, -3.371845087050534, 0.2035574360221033, -3.912635869502078, 2.469064669498259, 1.3905068126137308, -7.989316013525477, 3.2420807368115723, -1.4640067738068077, -2.792176270230862, 0.11055971235009632, 5.89525592193536, 0.5181604804817939, 0.8832342984058275, -2.0719041969125622, 2.6306596013926042, -0.01891740921495244, 4.594110784770555, -1.81947960845658, 2.559496978145659, -1.7984366687613664, 3.8010847437770483, 2.8877046601355256, -2.4649268730958425, 2.591786582105752, 1.936117810669323, 5.590563009227308, 4.552693163908408, -0.4626688612874359, -5.951364472506446, 2.341320749530041, 4.912937558503822, 0.8221853882232835, -1.037437705293588, 4.488609883459466, -3.517496753823472, 3.474588440159301, 0.03539302573109593, -2.109437110013329, -2.0351737945564845, -5.518446645375994, 0.776993806342779, 2.4342252636530786, -3.074864736875636, 1.3138843704918695, 1.3602876321895363, 0.4406094687706461, 3.267692599255069, -0.1418895527730033, 1.752170092475719, 3.11140550215869, 4.348488676234925, 0.38639647343362227, 0.23154998004939742, 1.5413344074838804, 0.11365720999740492, 3.1052774974682, -0.00023104015274566514, -5.334276986622197, -1.2021505301096154, -0.43799959921427145, -2.8732511267864513, 1.7924501648111386, -0.982249598950007, 2.1572357329735916, 1.7713518520133165, 0.9154268173505105, -2.066358388092204, 3.84931505759641, -2.7685533627571415, -0.7114410679931591, -0.28857639386890055, -3.5518590949161073, 1.738949754988723, -3.4493513968218363, 4.24165955879139, -3.4597597105550983, -2.029357236724104, 2.8987166906236568, 2.834718328105957, -3.526719027622234, 2.8374255830519353, -3.0309160854361927, 4.929602549946939, -1.6153776556338217, 4.160161089598943, -6.120588958997402, 1.6888540821032958, -1.2775361748893328, 3.571323498190326, -1.2315923128549284, -2.391288774023506, -1.9758668735381746, -5.2936141033622715, 3.278463590383554, -1.2538955799048355, -6.721535387508678, 2.154736328284504, -3.0183312163752056, -0.5683494027800889, -1.1447147362947034, -1.6072754683853845, -2.4788261175491373, 1.3419861818471888, -0.23834850132148921, -1.7214465259547156, -1.1653329510129915, -5.563212094776902, -3.062504824315605, 1.5697457988087464, -2.054335348874932, -7.614339807613922, -7.294733954496779, 1.1337441846601224, -1.723337337557937, 1.7379733286353929, 5.556140568901143, -2.975493681801808, 3.154898687809956, -0.330810983208206, -3.977643176310361, 1.587472552461258, -2.1830203025863426, 1.1888415787594244, -3.9608632864486295, -6.4393808639189345, -2.3140518506558734, 1.7845048876427345, -2.586694892897179, -1.7638302819404752, 2.143577213744416, -0.19102358378718243, 1.5363121048127697, 3.5438725713540746, -3.6295235527324254, -4.18277470766657, 1.05833213116858, -2.4990160875345717, -7.347234694641902, -3.3416292497367195, -2.1368904262971538, -2.1766213621805823, 2.7215844985265214, -0.37611277699428214, 1.549521747482916, -0.25417533563994565, 5.796671941196982, -4.476990143393315, -0.739914299992019, -1.62749006737765, -2.1189247046815023, 6.582325058801446, 0.5024911094116624, 0.8816461967391995, -0.40074644757874855, -0.23901048913097056, 1.3202439002256061, -7.705395554077205, 1.5531942741678648, -1.5048868780028153, 4.848256311919172, 1.8167710935705164, -2.018055145339101, 0.5957816445418671, 3.8268000254583487, 1.0940716943570665, -6.150098547944812, -4.796901547690301, -3.85961505521349, -3.4508361245583625, -1.0431450833946307, -1.9138267730466199, -2.8607862115624343, 1.054888031624437, -3.232601968901931, 3.6068710774584343, 2.5408989331111016, 2.607122929478723, 1.2527549285580095, -3.1405241103367327, 3.4553897104443507, -1.403373965094619, 2.095441373171668, -1.0524449186977596, -0.08178607992210774, -4.849406541335206, -1.1699170379026331, -5.358270193658147, -5.541940739849991, -0.5934903131308127, -1.4387863674424086, 4.259583752088248, -0.16975217109455254, -7.722042263964665, -1.8147028913015264, 7.035521482070827, 2.755072069421618, 0.6401586421170979, -1.2469447408211876, 1.023357959426272, 5.427209842368541, 2.286997861112805, -1.1420897178958118], "biases_list": [-2.345398069500569, -0.7331691630348982, -5.48593676290707, 1.3217956312095618, 2.10602991356824, 3.675440148227647, 2.1097278386421756, 0.804639980924611, -3.5194339306897056, -0.49832749273195875, -0.3759811513839926, -4.221694986876177, 4.4559038152308, -5.28969371084772, 0.21464008848465777, 5.852260939866518, 0.01457497237658334, 5.90919993596605, 0.367139690630391, 0.44091233257702367, -5.6836139624324415, 3.0090287904921453, -4.445789021868482, -3.7450762980691357, 1.5378749165135073, -2.1662558841207122, -0.3172317160560758, -6.984940205429327, 1.882114055811729, 2.7635067232952597, -6.144697789354285, -3.9409029725472533, -6.667133527509955, 3.077006325352121, -4.000225502548034, 1.340152530763275], "shape": [27.656976049225783, 15.71145020554533, 16.227319490463803, 4.197397419385722]}, {"weight_list": [1.3473493672005805, 3.8852240521554418, 2.1050022223661737, -4.487320148374724, -2.030765341496639, -4.944460910197069, 2.989601600019056, 3.0125924018133308, 2.0884423209052176, 3.1309433725626175, 2.266801752647944, -0.727768487480823, 1.9514415942831143, -1.7410812282398431, -0.3289541517320256, 3.7810367941793377, 4.969131777249656, -1.735906690088889, 5.670377168632575, 2.7766179883278044, 0.7727980750459995, 3.549525661112141, 4.907628400878202, 3.3039395784179852, -1.3327678546487651, 0.5372124921018055, -4.176062729617697, -4.652732174983758, -2.546617697295523, -0.4616911604040933, -0.9153929254435692, -3.2730922204751183, -4.063255279992982, 2.0671035157109796, 2.4030659844259468, -1.8804251774879317, 2.8927577703882945, -0.10224058845540895, -4.226593811759335, -1.2040930621051893, 2.5762997704668242, -4.16935384487185, 0.9068844796629341, -0.06300673140619828, -3.9402667194679557, 7.914556437253935, -5.702823048259252, 2.03834171968766, -1.1977116311312115, -0.3532964236773437, -4.217533017873626, 2.8606221591761667, -1.2571956289500703, 2.5267249562552165, -4.184206694807896, 0.7005109707592765, -1.2571524500897857, -5.015589756109243, 6.447154274322914, 5.379163450914697, 1.0792475083229611, -4.456697871602297, -4.127655330162294, -1.6865830021687058, 1.046061351928813, -0.3001600222226495, 7.383705357459984, -2.1270877085319784, 1.5763528575039039, -0.2269341658319758, -0.7383794444670628, -4.901777826097149, -0.5215353505940354, -5.273846753812844, 0.27828430047041897, 0.9873749061407278, 0.44379854982622713, -8.412887000190658, 2.5793486962600154, 0.01525268193606677, -1.8598202222585027, -1.0710847922647675, -1.6049831433137993, -1.8658699934190892, -0.5307938024835601, 3.184767696209958, -4.361718668232689, -0.24275495590200336, -0.8735928622437468, -1.2952006527689857, 5.225777391739301, 3.0277368238952462, -2.4385801444301167, -1.7336059885283552, -0.6862659898777741, 0.8793764875649857, -1.6577950756293403, 3.627408067661742, -1.6161700290524776, -5.2890774020450655, 5.540417389085599, -3.5863902965729517, -0.5736066329699221, -3.4875017143420184, 4.9328753682917785, 1.420426274122729, 0.1252814519763792, 5.627897088649834, 4.00792831887195, 0.3595990321901681, 6.476021811109519, -2.6288700173448953, 2.761214447275708, -6.067873728097107, 3.649377171429511, -5.20186914770333, 3.078276953520289, 0.8772913866048975, 3.190574325203947, -3.8997387554422804, -0.9115345139422093, -0.9146051782693772, 4.0741466370253265, 2.849687128566706, 5.400121296185669, 5.6538424695220115, -4.040743591323591, -9.08029716595997, 2.544427384568978, -3.736319335377043, 2.5728478031629978, 2.409713508303329, 4.6055168731533564, -6.754649546219731, -4.91697165419775, -5.3931920084047515, 1.0446299837072823, 4.262237893282382, -0.4488802199752491, 5.0093379159700575, 1.4736784310947861, 1.7021521994611541, -6.387272983536903, 0.8574783979492717, -3.7957090774949984, 4.757810694967043, -4.955574368000506, 1.9316713032532444, 0.3238428648823455, -4.74290071769989, -0.786635228324808, -4.963366679365492, -3.9576514746495417, -2.4491041194330094, -5.846465648918294, -8.229770646931652, 0.8951043478867742, 0.43982460256482314, 2.283676092797328, 4.763476116197884, 0.3099397621935369, 0.9733460793926183, -5.81502647280142, 5.637453895863561, -3.025243049098453, -1.6902403574451517, 2.2629581040153006, -1.7557337513944204, 0.07233937923105116, -4.090570054999891, -5.5621363865062925, -0.024415151616957065, -2.021403826267627, -1.4016932726321347, 2.6503411157555234, 4.039237123509795, 4.374404899457269, 0.5117874989054405, -1.2845940738198833, -9.038729786338195, -5.269961718738197, -2.596803147460978, -0.023030049245912565, 5.984819381397678, 1.7594890304731292, -0.2936058581478177, -0.8154473093541885, -6.971541825969019, -1.9928640276996028, -1.512616157250939, 2.657964557018108, -5.025007577833972, 5.165685842961908, 4.7627630879715035, 1.8427342909309719, 1.1563369580682057, 1.8235822406235407, 1.1211718605445524, 2.384212547359791, 1.16414086928416, -2.299101448367573, 1.0813634662597456, 2.7156257189790685, 0.4359016431902716, -1.6272917322918354, 3.2272833568387096, 1.7656345951484465, 7.283728000225965, 1.7003284632906528, -2.6800400187178512, 0.3466373897245216, -0.15825174773414397, 0.01081094681155248, -0.12798875138289256, 1.6993494089771461, -1.2370032794345662, -1.3695164511937215, -3.905226578690913, 1.627848435349827, -0.5744258119825627, -1.107186778345251, -0.976442941154227, 0.6455544330403269, 2.312193859146026, 2.67658151255878, -4.726920549949322, -1.8182521155986788, -1.7469131666947297, 