[{"weight_list": [0.4000137404531945, 4.577639947280275, 0.062140720690137874, -3.4404088071503276, -3.250429906941048, -5.132635050349234, 3.899314496950952, 3.3928913253784945, 3.143874410882174, 1.3408567959749922, 4.136400137030318, -1.9273561441230869, 1.2285539183739473, -0.22554334635133733, 2.020235762430043, 3.3806511443613827, 5.05152215157155, -2.431333626894987, 3.7775393695502704, 1.9049375926227254, -1.0796498705877549, 5.261394087666745, 5.142973685208781, 4.395352459457499, -2.0835667154509583, 0.8707521339161353, -4.626910736803725, -4.761433157870979, -1.4953043344625008, -0.36596042162286113, -0.7075299332460239, -3.2104109101032385, -3.5456748679495536, 2.8582744346965274, 2.273794936496448, -2.6639658142396225, 3.8962240523143974, -3.1460679076782117, -5.683017164838522, -1.4721707042866414, 4.734245138781981, -2.390617862807441, 2.1310669751643374, -0.8660241867915683, -7.334073835744688, 7.147773305999175, -6.514160806202071, 2.2713732208249904, -2.7580673354557814, 0.13062532393753368, -2.939182295952109, 3.0017316948740653, -1.8771279043767335, 0.4303013733278058, -3.239558834769199, -1.675605400826014, -0.8966636253758651, -4.182620498392409, 5.534499302329213, 7.5599660438188465, 0.36293593052180495, -2.89929974128143, -2.6561845466213474, -1.7515212722216476, 1.2670342096080383, 1.1971010787320573, 4.5968192791497415, -3.610496203105149, 4.024564931455738, 0.8417212565236041, -0.8242385134636789, -7.945833727582629, -0.9455184807473295, -4.087724955720609, 0.7234397661619476, -2.339791761917302, 3.4905490807283437, -5.405411723785754, 2.2784580420338196, 0.40940800427238333, -3.939361345215854, -3.3629046797036377, -1.012160745303053, -1.4474429076058495, -1.2657057232405426, 3.212103924449343, -2.945904457109621, 1.8161000387145219, 1.1260748251184576, -0.16515555672456805, 4.14704279349647, 2.994684867541966, -2.8451945941035968, -3.8280653441461805, 0.43999677719572317, -2.1403502504804113, -0.8780749311686884, 0.4869039421660093, -1.2395207945630622, -4.405911909629087, 5.508869660557316, -5.755627488732722, -1.0016086754688585, -5.052374033353488, 5.887794926350286, 0.5913948006065384, 1.2228253135682605, 4.206793622379992, 4.429192424468758, 0.7005278704560374, 7.282973113707518, -0.4112370274022954, 0.4212602206386953, -5.0599055879126675, 4.876862419131253, -4.061439253067389, 5.379291027811554, 2.106322670080056, 0.4003386793016963, -1.3995775284458658, 0.7918800112232045, -2.274322968250061, 2.574920840125068, 1.4297463876797556, 5.314798953228535, 6.143571044710762, -4.92963787708842, -6.468981266705484, 2.8726125948170593, -2.635798509247647, 3.4558951695620754, 5.575729750280008, 4.8730066682407, -3.563527988020865, -4.72825595151132, -5.108262369490723, 0.6172245954381819, 3.3692970589120472, 1.3206690954206421, 5.153124246365846, 2.2642111397429683, 3.9802692615741915, -6.460262143293294, 0.49156780385642573, -3.6528645580505827, 4.253141810610052, -2.749450248504827, 4.856908023884276, -2.2568270435212545, -5.696605383219367, -1.7664611895040607, -4.770066305497741, -3.279168841385726, -1.8206323252278094, -6.4098632862859475, -7.048028299500072, 3.5034693949226243, 0.9352017496274607, 3.7218633480551144, 3.9285313724498945, -2.215530965156784, 0.7489458558064319, -7.541019403176065, 5.194681941472696, -4.011043138611886, -1.0626831451806709, 1.5228291506731821, -3.3079580555021946, 1.354604955815347, -3.342894090482157, -3.982888800017961, -0.3376826407962268, -0.8918891006644833, -0.6531137456566942, 3.6871488807529627, 4.424274593897394, 6.983407437962894, 1.6239646038182904, 0.13538845164405444, -6.4530491995240125, -6.6799952998873575, -1.6415357970556503, -1.6212919114543758, 4.70362209992285, 2.88738048454759, -0.3157333898373871, -2.9607333565669003, -6.7289653021322, -0.5966388260442594, -1.4881789878812206, 0.670834619591876, -3.485787102283916, 6.0372889052161, 4.634503476147376, 0.5708038277685421, 1.5605970594611458, 1.234970875327586, 3.2053110745059437, 2.9452793224226146, 0.4967630751305543, -1.8894937977918833, -0.9498364097797185, 4.35186413098992, -0.1853154183255885, -0.8993208671463035, 1.9064208259173334, 2.025527571503102, 6.04172290369379, 0.8138635456384948, -0.6722799685686252, 0.2894149938891186, -1.3872857381463162, -1.3483477930482262, -0.03174524447645888, 1.1471926523373233, -0.5152414305636268, -1.3976467017818135, -2.939189204374521, 1.5764407575358605, -0.585263236530899, -1.3575432164603203, 2.4163703081727075, -0.5914276025118873, 2.1045373334247133, 3.612188837817161, -2.632604207644592, -1.7148958283985827, -4.407321484742742, -0.4748787841708748, 0.6173086568509814, -6.2992285118218545, 0.7227346935239072, -3.635147207034451, -2.3683095855427787, 2.999353581235424, 1.9304872679029268, 6.0541680739478085, 2.1647743987147816, -0.8814323496335974, -7.478544924879958, -3.4024195647025905, -4.412035788113913, -4.2666570300684175, 3.7497194543228662, -1.784907510067887, 0.7868868778350537, 1.9719619777960125, -1.5146793314870204, 1.545003743775438, 8.604878188329886, 0.6479857696228855, -2.024239633953502, -3.327785649122772, -3.3537696689826966, -4.3935609272262965, 2.164467546856974, 0.7685768234522945, -1.6082697804591608, -2.6521770675917526, -2.8511494219933837, -3.4565661967747543, -2.057732892955127, -2.6754464564324696, -5.019283093480623, -2.6885515522430143, 0.6620868354535274, -1.1529308070351394, -0.9643471632850719, -4.24604268432133, 0.6566837011463165, -2.20806883047407, 3.031758097689547, -2.0301391241099074, -0.5804829313024831, 2.5065762286932696, 0.3652881065803475, -2.736553220827008, 1.0122453831625196, -1.9259500903841835, -0.19110526915995418, 3.2006441284865357, -2.1714302188404995, -4.957867758002408, 3.9471711088173205, 5.715550077037328, -0.8671441626216121, -2.8492122737365455, -0.7487715856640016, 2.7037024379450374, 3.322676086860466, -3.5336917941506663, -2.6840284061048045, 2.681999492632386, -1.9637898342537032, -1.162323450873988, -0.80704201305775, 9.966284185509508, 8.006367517372547, -1.6556195636970483, 4.585383707126935, 1.0627733915292414, -0.18141374467897375, -3.906459566387852, -3.6847482172647537, -5.009595316535032, -5.726728741324369, -3.9651797243256097, -0.26286752824836923, 6.823387969751427, 0.3036847709643349, 0.9168373299070589, -1.7592281006132244, -2.970021002210094, 2.75335571277203, 0.13689476490075725, -1.7754811176840786, -2.8608919301835325, -3.312492731936601, 1.8435136306033773, -6.734215805159673, -2.517600303579128, 0.8667289948622081, -6.188272357210979, 4.435400488977504, 3.9250758545155984, 2.2201579371374, -0.26996331949733987, 0.9317008868278873, -0.10425227116099234, -2.8093951638154717, 3.862848708247453, -1.6271612432681022, -6.098951870688904, 2.143394290993863, -4.5133080577618045, -0.6148037483055555, -4.216119736617798, 0.7050527982018906, 6.25861908888735, -5.8225653702297775, 0.06766193690979239, 2.54831866159961, 0.5474151657928823, 2.3810528629876906, -5.364578844018144, -2.668139279984042, 1.3273167145935827, 1.9213742337026414, -1.5999316450090533, 1.3083445869829986, 0.5231366734735445, -5.838646249230959, -1.2386398357409172, 4.644458008355625, -0.34809508538875433, -3.457886358072203, -1.5773953804997534, 1.2506326790043998, 2.339508727507602, 1.470764956889811, -2.0104920532980035, -3.3478856202828267, 4.876937480613822, 3.6176026603567895, 8.778114308684337, 0.5920969566257581, -3.1864994263436026, 4.5225852562818005, 2.373917624239514, 0.8171684513374631, -5.312974877420611, -1.7544227410545694, -4.926421328298837, -2.4681244682993517, -1.0068690164288978, 4.162209274725673, 2.4328880576233165, 1.8923973769834905, -2.9450048402466615, -6.02275454656762, 3.2055959906497336, 5.559995078266506, -0.07297874693394801, 4.642171150959491, 0.20888278393636606, -1.202377841106763, -8.040379317393395, -6.719648404961087, -5.152958584426401, 0.8170929583153324, 3.623473416770193, 1.7945695862118782, 4.6538574692780585, -1.305917154409749, 1.049570779464986, -4.139358700033312, 1.3828605527714157, 5.85662155721377, 1.4396048352225366, -1.0488705109470964, 0.7905506216728888, 3.9135809768652985, 3.7595297133993633, -2.89092047512687, 0.12936408995072712, 5.352830607118333, 2.5819578867471025, -2.023350496414994, 2.4954277059132393, -5.357838945950929, 0.07897717276680027, -1.461491760660048, 2.514474887198876, -3.9858040893727034, 1.4898330631144567, -4.102190727183783, 1.6556974078775086, -2.530303547326848, -1.6593836379617317, -0.02375788248810773, -8.741617719797524, -4.159429543702802, -1.0050905484209132, 4.461994487986189, -4.130923730975205, -0.8739114405872099, 5.61994836802205, -6.176826912192296, -1.4164405175949197, -2.131598109720476, 5.472769849587378, -0.8490259981044281, 4.506760418762147, -7.242179490286517, 3.985723333611902, 6.28882018810189, -0.16771377755043482, 3.0172752741573374, 1.7645352116358568, -6.613043799552555, -1.182618248530265, 1.2545105125157825, 2.4458793128927576, -3.1782685777092263, -1.0612684236332441, -3.9778856421339195, 1.2506864072935295, 4.636380055245878, 2.2629045848865195, 1.3904805194226455, 0.8269682398421143, 5.178108706126954, 2.948197166318218, -4.851534268777957, 2.6611987750631876, -1.6343868416065062, 5.021537597818701, 4.3168500800478, -2.7411664858925677, 1.2427753071265117, 0.774802121670009, -5.001938200060209, 11.52933993245315, 3.565869003015778, -1.3122659838543023, -1.25994852998851, 1.5041484930301312, 4.570176685549431, 3.4785209652061546, 1.017059703253758, 4.282259772364445, 2.813767761631249, -1.610441874926632, 0.39181635938905535, -2.313854271187693, -1.2356285007158982, 3.163028971779701, 4.35859443499908, -6.4065582901450036, -1.8474333250050947, -4.2065348407951895, -4.711534693612601, 2.233992362096313, -3.743195376898866, 5.308843020634904, -0.6817809220536551, -4.050831788448815, 2.137782131663327, 2.5437880421794534, 4.300831806476901, -0.5827813632343, -1.349380158437825, 2.362072411460932, 0.6579269431243719, -2.322513795711256, 0.8845184313702839, 4.841377736878794, 1.9389009608938537, -0.6544959682366173, 2.8175392397393138, 2.270990365913008, -0.20794510418121193, 2.281979675726581, -3.351945294248003, -3.484435022701781, 4.919646174511986, 2.8519875256492573, 0.29041250295962606, 2.3472171918556075, -1.9418819351043701, 3.832238023102186, 1.015212151497133, -4.174965508662044, -3.639482562369248, -3.942470355385016, -2.5552288688123963, -3.1681710799714025, -0.7172503516197419, -3.879771319321084, 0.319087574194143, -4.098514473319986, 5.655239424708844, 1.4391368844444976, 2.106060691071648, -1.626942307333583, 6.142990814909795, -4.000909982736962, -3.6599401565329157, -0.010918824269361194, 4.496840223665317, -5.633710704194432, -7.7784670394907645, 3.7836266155577913, 3.213981566827947, -4.436073856770938, 6.164903147494229, -0.7111440447791089, -4.492361550529019, -0.7557588328302898, -4.995940697659853, 1.531430891394649, 0.6873276074382781, 1.6867905570258452, 6.37430468532953, 1.5016133450017621, -0.9920539408303218, -4.2064222126802155, 2.205659539825496, 1.3660244888745825, -1.3170569144691548, 0.20487436651865165, 2.663538466090977, 0.22682666075485924, -2.8603503852252974, 5.989614536672283, -6.181910296235393, 6.454568806663728, -2.938656653332476, 4.57038066713747, -0.24438163325973805, 7.429764140974582, 0.4892457816749043, -1.382913310215548, -4.985957199519062, 0.7908005833255041, 0.6388879979499757, -2.604797132441508, -4.274508711497198, 5.45445906393407, 0.21030972203884035, 2.1360103204761787, 1.6157645499702147, 2.401813223481028, -2.0764273859648323, 1.8795697023553553, 1.3513707397100618, 2.7463316802012425, 7.8025272165946244, -1.457321099695064, 2.434665271776327, 8.355742494273727, -0.2749916837525075, 1.154126993898716, -2.3965563243064283, -2.7514353866997308, 6.857678532552299, -2.8744925854331744, -4.7699466177936864, -2.1395827633645887, -6.6215178715244, 3.2800948427283894, 2.3489634904263, 5.7772007842744975, 8.046942261452704, -2.4236186660178882, 0.0825482312548631, 2.0614243557195744, 0.7485564219441645, 8.315769115567148, 3.210334010142465, 1.9894280089033867, -8.086347867322468, 1.2394703566823138, -6.151236639305641, 5.304694103419397, 1.9379355830566505, 1.9663494450762538, -5.9243114415623035, -4.641137295245453, 0.26528669792874116, 5.182710842593156, 2.4182526561755293, -5.623251380537191, -2.8845414520089596, 7.9884084978531416, 0.46840288073320546, 1.8082331461028982, 2.4882858848849922, -3.591170313162414, 0.7622893502862078, 2.573476462128646, -9.030887613268906, 1.6536928913919864, 3.724797076215201, 1.2776060519249275, -1.6693766406044839, -2.9904233264216087, -1.1260211018309674, 0.3019686855185939, 3.1101065005706046, 1.3752835632256692, 1.5835262441995512, 1.4964058721896039, -1.147764626936186, -5.061059229388348, -7.978927163371243, 0.5050928987339709, 1.8161615447294412, 5.773160606261374, 3.7018531137170676, 3.7317503220002504, 3.335336008452801, -0.2800081043765206, -1.0774609802718578, -1.831782850065019, -2.2577418102085813, 0.649546486771208, 6.883367166456688, -2.3216612339819904, 0.7531510747451013, -1.020321329578404, -3.5328307676151476, 0.43450809254445644, 5.363676414057787, -0.6989344270150142, 3.4307490280216806, 3.0717381478637744, -0.6680650062568683, -1.3209331301176317, 0.5239950708662549, -5.937060521596086, -1.826081019644255, -6.705497297639208, 4.013992665161239, -4.865333338607743, -4.0900688839288115, -2.465697137467518, -0.34942566986855605, -6.745966359079648, -3.714478383960482, 5.648202563769967, 6.406607432342552, -1.768497722396447, -2.7559117168608864, -3.395535323085089, -5.637676023843436, 4.494987128461898, -3.886323591016212, 4.884236238051917, -2.2165283581677517, -3.534601487009925, 6.167422402594339, -1.9077735967154248, -2.1647744979981827, -7.509108756615789, 1.9036910919304395, 2.4524358201623015, -1.8905608806873122, -1.9216965866495876, -2.3881562976940747, -2.0864344576740814, 1.589540186754757, 0.6443955240464485, 1.9083034776412244, 3.49070188882708, 3.496864715601009, -4.9236462954035884, 3.3426040631291976, -1.6192247774863673, -2.0069136319867455, -1.0208715688652874, -6.796334289335967, -2.169768717950543, 1.0602361056537761, 2.58187995486287, -1.3667269100500234, -2.9459792086128123, 2.033214405264345, -0.9635637965627692, 3.8438356161482634, 0.6451570592609692, 1.329236029270647, 3.4458754865538586, 4.088453023288709, 1.15533556890853, -3.4360286695458653, 6.941464513680418, 1.1959223985445426, -2.820437537346802, 0.7114726382926169, 1.5786840804091211, 2.2539881114970126, 3.5501909055532224, -1.116736547739227, -2.1956625955421734, -4.047682881865767, 0.5690812656481834, -0.02410819271948683, 4.726290126863366, -1.8263123297191748, -0.32885813541515974, 1.148876369091068, -1.2164265606898463, 1.5499145275753206, -4.250266617108373, 1.0629742449018762, -1.242691455766022, 1.7109906152812187, 7.505216075083329, 6.784862777243431, 1.7047283948625127, -1.775150065443056, -5.451159936892263, -7.26547676092524, 1.2891969124160116, 3.7003407951456673, -7.367394646737145, -0.9525389675201912, -0.6348787917621008, 6.526507520017432, 4.542454551566953, 3.1490917677617567], "biases_list": [-2.3517830441336423, 1.681611992455823, -2.9986373127213017, 5.074908372927911, 5.677181040111803, 2.823397114577925, 3.921776181032464, 0.17114657664658273, -3.29299440977109, -0.3756800403833074, 2.416978322857268, -1.8049671007904695, -1.9714482326583997, -2.8367808486923263, -7.192778127432886, 5.810095541510581, 5.589670353068446, 5.156236543368504, -5.556392041199594, -1.4151602072386267, -4.125399663146237, -0.7454996708294763, -3.574191078614354, -4.335831961082525, 3.3437194044668628, 2.3871373390260207, -3.2976676554231785, 0.4641818490169147, 3.478933483113342, 2.271911545063792, -1.1951949039607919, 1.3252928922117362, 5.409380511239867, -1.1668893494098416, 0.23589629456087757, 2.2645929775275073], "shape": [27.294289203031852, 16.162039021962315, 16.301849343178887, 3.313158158522774]}, {"weight_list": [-0.19657654185127904, 4.522234922081183, -0.10925329170879561, -3.9760107208885387, -3.009408637167934, -5.661975921016515, 3.065193189580283, 3.009936596746348, 2.447105263445422, 1.635656378256396, 1.7769904392779523, -0.7306051749208975, 0.2446833645260691, -1.3710876385210164, 2.0211241929698422, 3.737367009481436, 3.8840717090857053, -2.5594867293007617, 2.8255645319826344, 0.5697834922040634, 0.8068956061874304, 5.271252240117267, 4.986182357644008, 2.5063589742807344, -0.8446610649362432, 2.0690900187270174, -3.6229556376965286, -3.9147525746716996, -4.072012526490118, 0.72458459847542, 1.4412039629633222, -2.0202697875508218, -2.8616009482333737, 0.8623775795489212, 2.4453154038946545, -3.1348823295152757, 4.026506242685805, -2.9278488653523143, -4.704330442838816, -2.3152109981847278, 3.9189374033875275, -2.274349087380773, 0.5309526048737068, 1.8871892573423312, -6.4612160707149044, 7.233551239315279, -5.70659259262086, -0.4103142605538378, -1.2575637902434318, 0.8026377601542303, -5.109459142563381, 0.37368147771215776, -3.310159917231462, 0.8762151749343594, -3.9271343747140213, -1.2780561884545032, -0.9763059050533611, -4.1601595382060585, 7.506291649272397, 7.144971543857411, -1.6367729256915733, -4.131622480203254, -2.937405364872194, -3.0596194314235325, 0.054753491617151706, -0.13851923478277772, 5.3875679022358245, -2.6770751146666, 2.064349708236719, 0.35944412501497003, -1.2869686447373698, -6.022279319850641, 0.4004472171693223, -4.225592857084607, -1.8655178933331293, -2.3024674242698584, 3.301967225453766, -8.326821205788374, 0.36255665343132426, 0.5852929421563056, -2.803224443889195, -1.5606351544267136, -1.8942648485207512, -0.16671588765882261, 0.7576194911254799, 3.1042746393052454, -1.6631880018329024, 2.1697051134268053, 2.560152080847358, -1.5353966925376739, 2.965698878217661, 2.1639272146059554, -4.9440739501927276, -2.898732096484367, -0.08729748604567411, -0.05827724667358647, -0.0050370943047561845, 2.8644689419942644, -0.8739524123864699, -4.735101882573574, 6.344193333510708, -4.862744411843072, -0.9659093580667295, -2.7134022564620457, 5.245625576376735, 1.0819091993101946, 0.8023888454641954, 3.264305742726137, 4.722843603450306, -0.6409449590510652, 7.665376673069094, -1.9722888305996167, -0.958446758146732, -4.505467418079773, 4.041822063912989, -5.627502882709257, 3.4527434168615976, 1.6089659652517336, 3.5571515587375657, -0.7492959774205055, 1.6017399071924885, -0.7935656264566846, 1.5098404735063022, 2.396055183129211, 7.390561006396691, 5.184284021852983, -4.747940954976286, -7.033829071980462, 3.268049497141921, -0.9831870504059244, 4.219141841097542, 4.301729031511865, 4.151211639298234, -4.94585444503949, -5.572717701573636, -4.779019261450978, 1.2125835275777037, 1.9105881078252205, 1.1250397951102755, 4.3838850305960415, 1.762052195480401, 3.5869035925548474, -5.202962436842416, -0.653048453396186, -3.6575295763190354, 3.2449934717949134, -2.202044098164792, 3.9081965640080973, -2.363733818873211, -5.720115871048879, -0.7148470870280946, -4.296991364633861, -3.1959925641038005, -1.0909989386609662, -7.02597050105876, -6.491064897016465, 3.977952781463502, 1.3109797435456878, 2.427893659457619, 3.696219752127675, -0.07291011509869716, 2.7280836958929697, -7.695533728508549, 4.920870849342217, -1.913909179024628, 0.7131402856173681, 1.0646505231328987, -3.729685112568293, 2.5621836899998947, -3.019649250397086, -2.568916175215653, 0.4307747417005725, -0.8576241472888967, -2.2484907537146173, 3.2612367737739527, 3.1546463935944047, 8.186004508885572, 3.1590392310779762, -0.502734268846625, -8.496686203046178, -2.751580498336461, -1.1267842030842155, 1.061027586689241, 3.164618785747866, 2.8728358083547425, 1.0105204432803392, -2.4798444596247977, -4.226919067696432, -3.4648963414354625, -0.15463663790898863, 1.796563957009413, -4.090776309670465, 4.098524711614546, 5.2776585079607665, 0.8582898920108999, 0.622158046996802, 2.6736354172966648, 2.8274772114520292, 3.755659068319982, 0.3567951014175552, -3.0305958931317583, 1.8444451854748092, 2.854543144909252, 0.17412764563446315, -0.4161974409452197, 1.1780173078321976, 1.8521333093394423, 6.5807688939319835, 1.0875374833185831, -3.632064385162782, 0.6678705589238152, -1.3526637268371566, -2.1026855357381837, -1.0093379992644125, -0.19582003827725103, -1.677602291819979, -1.4005110035793005, -3.108739506713367, 1.5584046669657554, 0.7012441051302616, -1.5671369495867695, 3.090566830112527, -2.223143478347705, 2.3925390515933596, 2.849965201650673, -3.3588272550608824, -1.5955838507270146, -2.1968796089895415, -2.0968085766195026, -1.0245209644915985, -6.61857866584687, -0.3396318174419315, -4.056318692471702, -1.4781704161927687, 4.228891147613437, 0.27600419972414914, 5.646690433548287, 0.4139045956587961, -0.17511730473938036, -6.635254858825994, -4.181066376525896, -5.430307760210027, -5.465117820872526, 4.411027308220068, -0.6760547965132335, 3.177079979901486, 1.6689744523000511, -1.2557152695478344, 1.4115169682599102, 8.505257357672189, 1.9633727614378222, -2.7571719139488495, -2.590003343687979, -3.9987749578435388, -5.148895557443128, 2.7069969442754855, 0.6313294453407567, 0.03145527175840401, -3.308356566535924, -2.380799912848804, -3.8836086639035887, -1.2697447992430693, -3.1951629763400913, -5.506195111249378, -2.954670905978483, 1.75650375640316, -2.2486706695596514, -1.1655750319710347, -6.002096624102502, -0.5111670057104843, -1.7015962278256165, 1.9454396374132825, -4.122236690720873, -3.5973598012225425, 1.568984851906718, -0.15764505647762073, -0.7077260985259846, 3.5771221477794555, -2.12752931173576, -0.28658669058121133, 1.1906562418861064, -2.2668407613579094, -4.225802335003178, 3.185815547937363, 5.6669294327508535, 1.2326814383691347, -1.8055053274384378, -1.7554193728509353, 4.649366234010692, 1.1528130188085375, -4.270624981957698, -2.8899846621108463, 2.8581028852022654, -2.625790780342911, -0.6892471120073023, -1.4868406241837577, 8.55284109729357, 5.4326295248959955, -1.238452188457241, 3.4243127753059994, 2.9764958765422214, -0.4078201904787442, -3.1686030372300724, -0.6640808527288551, -2.8203561160165043, -4.653308268581405, -5.296100713529871, 2.0755050039770753, 3.9109240057092167, -2.6016108046016244, 0.3022986598822388, -3.1021230927174446, -2.242929856390852, 3.7314588226908922, 0.5349787993324935, -2.284789827796721, -2.908092139816888, -1.6215438026592064, 3.228154679499573, -5.3082885868555545, -4.242917703030388, 2.3423295842106073, -5.64697872871942, 6.385533238319077, 5.731277001594667, 4.3367091987724455, -0.6344032135798612, 2.148703917818433, -1.2881703681786711, -3.658446097841032, 3.3820099547956586, 0.3151179941758584, -6.011333766830337, 1.0360363170275697, -3.237103966955438, 0.029823794542519266, -3.829150728154829, -0.7606591395818776, 7.220842163392925, -6.220702624697314, -1.3351192153894007, 2.98400102354824, 1.5159453439034234, 4.688732430049872, -5.277797530861561, -2.3257344871258203, 2.969541723748822, 2.478031429423063, -1.98346124189376, 0.40167359600154473, 2.3113595212962186, -4.070231798101312, -0.6546664055296287, 2.382780262743185, 0.9203388435194393, -1.3025848289513822, -0.916895042474657, -0.45834111787998155, 2.776492317944625, 2.7421590273495813, -1.5315158516446865, -4.120983507164713, 3.572404807868887, 4.170344462852788, 5.4958841807585035, 1.512935225757491, -4.100243746424887, 3.403185540207213, 3.1715129652324467, -1.4998015993783589, -6.954922077181938, -1.7739487801454432, -3.336607780339454, -1.8569886620182559, -0.750922592673892, 2.960282835242869, 2.2285311744134964, 0.2922345712970156, -3.676372152964, -4.0630019356002665, 0.45332845250239884, 3.627457298882149, 0.23749670340276907, 3.041362209905717, 1.6876395692835837, -0.8263603003772393, -5.693443084362349, -7.721374090489332, -7.581949783869258, 4.007800833749967, 0.8087081812226709, -0.5173324673976092, 3.4810109079788045, 0.5819002276851934, 1.6453810099559147, -3.9578279311142426, 1.703987970989528, 5.396000210141262, 1.1422414599664856, -1.7865935228092769, 1.276630446550321, 5.298384862193242, 2.312733522765833, -1.8770024546279551, -1.6306140545822276, 4.900789636560884, 1.7014304649833898, -2.7457921880042537, 3.775346128083142, -3.9051250004193125, -0.6357220603338658, -2.949239543005536, 3.015563991470917, -4.761551203351713, 1.977736482364655, -5.3787495769101, 1.0218174246535163, -3.405492040857104, -2.7600480743507765, -1.601444243463679, -6.653262045232786, -1.7276609659913136, -1.8435840481197456, 5.232606801705432, -4.184532578115117, -1.1557937118616852, 4.696018117136806, -4.303563816248127, 0.9519024327671941, -1.9595455697177808, 4.971643082367958, -1.8059071794030241, 5.365239051848013, -5.206917418027517, 5.392468594007724, 6.380502003228898, -1.0991683964453598, 2.3604104622698094, 0.6635018256549794, -6.722862106251887, -0.73595559801897, 0.43825286101592154, 3.123329252710181, -2.60526049481628, -0.9617265148209737, -3.516504070450054, 2.42407450227671, 4.84707999609633, 0.7396508283934473, 2.6377570814340308, 1.4064929666157324, 3.3904822496672944, 4.089411548854573, -4.884089614546397, 2.2910600355058213, -1.6149672531244805, 4.456049820938738, 5.089585283463368, -1.6546078394854442, 1.070911297651501, 1.0138524856987763, -4.0567664375393875, 10.754803709471766, 3.7626357681558966, -1.037323131019976, -0.14856252296982042, 1.9193324275798056, 2.49731087810434, 2.6892065954438173, 1.5622022578409505, 4.983198575071081, 2.8507631301389136, -1.3430258146725202, 0.34957704090596153, 1.1686919163082536, -0.9861667758955386, 3.287868571786394, 4.074944239565308, -5.719775616446138, -2.8607426619579974, -2.892769849587857, -3.341228517146817, 0.7850706985212346, -3.4127842401410424, 5.7223614578287165, 1.181301790065758, -6.552234785564078, 1.0701973181776618, 0.12678877382425857, 6.0994179815391405, 1.1499869774679157, -2.5711656021642613, 0.3703202298560342, -0.9774257746599568, -3.1549207678123086, 0.7384688748342336, 4.838498893782646, 0.8829954506762709, -0.13745581044025945, 2.7885759541205024, 0.8786336961124293, -0.43253816863497674, 1.2231190841482982, -3.0999581654167443, -2.469898549703367, 4.987919359225983, 3.188777082918774, 0.1470734873551438, 4.447189219803638, -2.03445566757571, 2.5710451372953993, 1.527519571251713, -3.125310438798495, -4.164196938034446, -4.6887637283591, -2.506280638346731, -3.1278007135547288, -3.1228637916806066, -3.7012120062454703, 1.5114895815729072, -2.339234540400361, 4.954010431220736, 1.4583204321434184, 0.6609889158481594, -1.3281578344371536, 6.542497304912162, -2.9039942290607583, -2.2250127257319514, -1.301503841340168, 4.106066347808945, -5.88438725507884, -7.722185227560157, 2.7447853368460375, 1.5381783388350203, -3.0186749660257868, 8.708330420569725, 0.0339216430652276, -4.0557110600628015, -3.0055356505988264, -4.35130425145492, 2.5189913339744017, 1.261797363673217, 0.24172178134195654, 6.019863721249756, 1.1997096583446636, -1.8377150157020723, -3.7463340049283174, 2.3709951455287825, 2.1230338021710833, -0.21267458933877081, -0.9744866160081685, 2.9367590990598984, 1.2511744965158598, -1.9647470843859067, 5.729491220865804, -5.650019701582364, 6.402431062893817, -2.499155129201558, 4.006085305270142, -1.1253507897129695, 7.535948707526607, 0.11317411659028798, -3.1096346394071643, -4.75756284838465, 0.7801958571648191, 1.3326651167644687, -2.187499912440644, -3.2073796978132636, 3.591493560010095, 1.3078766292862727, 3.372532371434718, 2.998117747373545, 2.2226928384639475, -0.03674962550812455, 1.4705304621202986, 1.7375212954896773, 3.393035328534334, 6.449177937316845, -1.473482734008958, 0.502573554052177, 8.66518723563692, 0.4321492064763157, 1.2940363022017403, -2.2302959852933855, -3.7847324139483893, 5.78374212505086, -4.085451480951212, -6.654969792944926, 0.13789599029681, -6.4584316939676745, 3.3706206408648027, 1.8862563564058128, 5.339260012935298, 5.921016469359943, -2.4312431167558666, 2.297538130849089, 0.36225911046256964, 1.9681717240332075, 7.726426076747039, 1.2626724590752576, 1.9309404268154804, -7.505196835565695, -0.4971190061469736, -6.658868455039549, 4.335602557761734, 2.473700829380525, 2.8656785259017568, -4.974284802859508, -4.078334663223424, -0.13139826951377842, 3.4865896743132634, 1.9003703932406255, -5.908067592696326, -2.128774126818821, 5.352237496672759, 1.1827372421344258, 0.4532608540991969, 3.5564107536229965, -2.726719935656586, 1.0364390544403017, 2.666446236489918, -9.744696450298644, 0.32666956179486895, 3.264218559967018, 1.4498755949209823, -1.9637993087376344, -2.54417066328877, 0.5205328960691884, 1.071706189926826, 2.4492542287429377, 1.7071747890926519, -0.8019974254450364, 1.8984300234853944, -2.293458846101851, -4.483282225863173, -7.204966516584305, 0.7054254433270615, -0.0028382381008411617, 5.814897988718556, 3.24650564756792, 3.815307598090812, 3.5090591764974794, -0.5218055374342583, -0.4401445562847881, -1.8614881739259843, -4.17651069362306, -1.4236511772940093, 4.947470366221182, -3.0784441925423085, 2.9437974013940993, -1.3595112265712324, -4.665680603929106, 1.801667563591029, 4.124896657469403, -0.16910948109305834, 1.8483257851742176, 0.6187757338514555, -0.7310029298641743, 0.3075610083939937, -0.1323499767616192, -4.4683721686115385, -2.536746947026388, -6.009850311859221, 4.217390838917794, -4.695056524572294, -2.4592906519846798, -0.07382704407957719, -0.519717267362996, -4.856540059354972, -3.994469477442824, 3.26114118937255, 4.494119194734689, -0.4948729804307219, -1.6766256481058501, -2.8793477296365775, -5.908292490803946, 3.2171717092700103, -3.0834840938862333, 4.862810739316167, -2.442478768299476, -4.610250202216181, 4.929153058663498, -0.9676795747330573, -1.9729569001610552, -6.511756052900186, 2.9613390017382777, 2.061445132087722, -2.248882485111457, -1.9854279129300725, -1.5749683771201524, -3.2851451975900625, 1.1939669145514618, -0.8514615626409112, 1.9801315883558255, 3.2401354108961264, 2.947614906848395, -4.8623754071912515, 5.369076306440026, 0.5959474256911941, -2.3101802956933497, -1.5413879296895612, -5.368320603453563, -3.5393441582682454, 0.8942615642963574, 2.2404189189472103, 0.5161183017265394, -4.560084079481184, 2.8813951137358367, -2.9918178303032406, 4.126536056527536, -0.014484357823655758, -0.9649595570700844, 3.6344219199156313, 3.3499824922440764, 0.9220414243461581, -4.858162275330398, 7.312301607668266, 0.006064800110352486, -0.997513993844092, 0.24465720853372686, 0.9021176357260965, -0.5778816411566978, 3.0950529801765594, -3.3073698635450084, -3.5878648008810115, -0.7819624537406449, 0.9222950534537269, 0.0957272515484271, 4.348551124235196, -0.4526519334381913, -2.498414603253125, 1.2636093802639152, -0.27219365780752103, 1.2110675183975927, -4.166766715385481, 1.7899683297208595, -1.9505212153310763, 2.4198501037735953, 5.44368208969918, 8.293218830586227, 0.4153090315352972, -2.4483098592679964, -5.971122653771731, -5.799664778269053, 0.4932268914130522, 2.8499122230711462, -7.676070879969515, -0.08093504406877339, -0.7177177285947139, 5.7062093930834505, 4.6034216319502095, 2.9053213970730454], "biases_list": [-2.4572238386928644, 3.8867338191930942, -4.122432939926986, 5.90538689558782, 6.654893535807948, 0.6752820977609395, 2.6913654422115565, 1.072872593750711, -5.32378156843966, 1.6974747203249265, 3.5237488513109696, -1.1626357219193952, -1.1153301635291197, -2.4442475270451696, -4.335142461435483, 4.622179891345258, 4.927719644953211, 1.5606254230234016, -3.833493109878024, -1.6089805415665643, -3.9716013931951633, -0.9249935375422542, -1.5511266502358627, -4.939113286974196, 4.680846366154242, 1.3890842942594248, -2.570430480986404, 1.4878993397698723, 1.9705874321874957, 3.5155081697135957, -0.4853251932021805, -0.6139802143027093, 5.006682946439633, -0.8737567243263118, -1.5317319414906785, 3.7793606034524974], "shape": [27.083638793340896, 16.401470484885337, 14.93862348408282, 4.464289859228234]}, {"weight_list": [0.06558088448761645, 4.828820679516517, 0.2530411196962141, -3.8868565644278217, -2.0160968282238274, -5.754073210553046, 3.0192044150095745, 1.0048072407116808, 2.599617744361578, 1.1882781037891013, 1.6721237612180282, 0.7339718129519526, 0.5511418021536938, -2.4582322619677264, 1.2056232032299472, 3.0309390257935735, 2.7859458238993557, -2.393233888787077, 2.511384481338075, 1.4020484013477272, -0.24402995091329194, 5.189509097296125, 4.876540761218556, 2.239232656528573, -2.8243362742341103, 2.843892841438909, -2.4606294192549614, -5.603489125528922, -3.300912965235417, -0.9818063681124545, -0.006574286163959719, -0.8820757593223422, -3.936061279179344, 1.1414387655355798, 1.4605839228087918, -1.8849624124656403, 3.021387990283827, -2.587007433073939, -5.057405214316738, -0.6166792641650214, 3.4812069875728486, -2.5795579849208123, 1.8404802101501359, -0.12472200856658666, -4.880741023577387, 5.7730515694661655, -7.066557610894138, 2.4227359234026826, -1.8726252730614048, 0.7686426195498361, -4.433770562085579, 1.1032354973063208, -1.6218040507666347, -0.5224650369699537, -2.877109138391045, -1.8784544196684545, -1.4810874997137735, -3.121748981120536, 5.900540138360416, 7.647350128051697, 1.4462215951257336, -2.9817535252724947, -2.5481237765674543, -3.0225075766802587, 2.1338462985109032, -0.3540184903329546, 5.729903235393232, -0.6377036882372432, 2.7677509080637774, 0.46173543379016624, -2.3679282481090773, -6.439101985052125, 0.47899671442145575, -5.301473081609912, -0.17056930099217327, -1.594940644292188, 2.401813058992088, -6.878700732320566, 0.7950533278074339, 0.8300489876385848, -2.179989589108776, -2.359298916956239, -1.5566020307626887, -0.46899909944310747, -0.8210377165318964, 2.7181614192743004, -3.0832292659562768, 3.618309949422409, 0.9960685929747166, 0.49071531601327, 2.720392449297969, 2.819080267343295, -3.7168298177057357, -3.5015111202802833, -1.0208344391819812, -0.27891290805473, -0.34364137056661104, 2.037346692110119, -1.3704793639905217, -3.137069387093982, 8.430837734040331, -5.789239634628672, -1.868572311374626, -3.0308422880009482, 4.543508053647301, 1.9619103879172264, 0.5962446908109902, 3.923048736362503, 3.631494510940989, -0.5477153512447697, 7.50204982445443, -1.6712102504723496, -0.6513981922197315, -2.9957439308191134, 2.3990245555299277, -3.9939522169338835, 3.3889185596474594, 1.5786471955933594, 4.019253888238905, -0.4065484681536815, -0.162788070825568, -0.599541241116246, 2.914160161172348, 1.3744876979192582, 6.068989408133004, 4.536321156572486, -5.59388255594402, -7.561555838930489, 2.7784963688636997, -1.989026122956979, 2.950751248748377, 4.340223157349824, 4.89949299393542, -4.184768176996017, -3.6680021961479587, -3.0681552160107746, 0.9059184968462743, 1.6597294832642309, 1.660059260544302, 4.118712580576149, 1.5596349913976297, 2.9233961070686965, -5.844207340789207, -1.571451321417587, -3.7214831577116616, 2.8261869919930698, -4.173596216719687, 2.574006330568312, -1.4612549211309314, -5.564113869536723, -1.8044320388728359, -4.526793189392685, -1.5606812963273051, -1.366110531506191, -4.039956581185901, -4.392594186313434, 1.7861145956497224, 0.1816940676165859, 2.7508170809758594, 4.053326989289186, -1.1868168203118015, 1.0552131773507574, -6.943841054848921, 3.464224351439408, -3.6890230529571744, 0.16736871001964193, -0.3578729439031517, -3.019211434233673, 1.5675928361976066, -3.0466552578813837, -2.171951705874876, -1.3461649151377122, 1.0301731729707067, -1.0843392825431355, 1.9492773249995867, 2.4306202671528814, 6.408604947450803, 2.3453677980764134, 0.8998591425901084, -5.733715116308532, -4.34632538602573, -1.8610211957710014, 0.5161784055451306, 3.413282389616863, 0.4796671856084518, 1.5382850625027373, -2.6960209762738723, -5.351736483542421, -2.8226325551456872, -1.5778400142904967, 0.3228741519817324, -5.315307934545382, 5.037633463250462, 2.740155820385583, 1.4046474961721898, 1.4253130245242231, 1.7927378121567874, 1.982930423699306, 1.6407153314076761, -1.133323214839485, -1.0326966162647306, -0.3592510058352515, 3.321879559458008, 0.13286874423157813, -1.8988338578193757, 1.0462718539798725, -0.20561388952784387, 6.949837411736777, 2.577156860103863, -2.0460415671408105, -0.0328198569454603, -1.1066634714225252, -1.4448640706569698, -1.6970495143899385, -0.03321627975653585, -1.7524658717909465, -1.8011009193871097, -1.6470108480463277, 2.0196109296950837, -0.6643512443369397, -1.4154782425191044, 0.24640325646868066, -1.5129521592885058, 1.990515465660367, 4.107333930243816, -3.526946590453849, -1.4436004856873734, -2.9148220132260088, 0.1535287281737241, -0.6442264783089895, -5.123381449007198, -1.2508548655591725, -4.46779712791861, -2.345404891318937, 4.471544844178284, 0.33361857099631465, 6.41627252583821, 1.6689877128364587, -3.777597793337566, -6.6954611177448085, -3.3725833363148787, -5.264330156698884, -4.407229852058453, 3.685317478885609, -1.1537912259670817, 2.2171781249811566, 2.303681595694453, -1.980196178508372, 2.969564144332249, 8.32007342321451, 0.32763841007051675, -2.963890295121355, -2.775709357500957, -3.72019266024229, -1.011010662297985, 0.30985590472156255, 2.7900756965961597, -0.21877067780399395, -3.954083125040744, -1.94232406482345, -2.336300245160132, -1.7321351805372658, -2.748865977412951, -3.9972295410829557, -4.195730438500788, 0.8317601583469305, -2.3007631351846376, 0.8196058202652785, -4.475436922820854, 0.463539995629332, -1.2001634505315855, -0.2991402153332723, -3.2213409570917104, -3.2895659202461314, 2.0284060524921506, -0.5698309278077653, -2.8988151794498105, 1.3437794483671208, -0.6444616128446143, -0.1811460186889915, 3.093276426143335, -1.0291218855283555, -2.631494063656243, 3.5729896373468435, 3.48936599532683, -0.1975158563286139, -3.4878211664962047, 0.12760201789520775, 3.7821688576474592, 0.37626079158121595, -4.605275905356951, -2.772682393983734, 3.5828581182572297, -2.795537532838268, 0.19377757309620058, 0.0031059099371990584, 7.762839789510931, 8.151753614384324, -2.2748868927584436, 2.153997350641979, 1.1095570718631715, -1.6014888713551267, -4.101555290288932, -2.3141750790293214, -2.7769289622323927, -3.1235242674626917, -3.9944333702637937, 1.7594909832613657, 4.721182074954578, -0.7615010921894532, -1.3457718700829637, -2.647799178111087, -1.5183214648323615, 3.7010855676288132, 1.9302518836409766, 0.00010964684809122716, -2.184464552479575, -2.7015594306714528, 1.802085341891976, -4.070600002233151, -3.1839753303058416, 1.059712616448392, -6.85376800915635, 5.0950226724199545, 5.496093777551491, 2.663337564024656, -0.7948485172656612, -0.7035611943540216, -1.7913068165967019, -2.4946117686349973, 3.186387095597711, 0.9304451034885199, -5.65571217485925, -0.11569923117029635, -4.3586233579052704, -1.4736867461835956, -1.310664593521087, -0.2911484256750275, 4.29380385703095, -5.09651102790246, -0.6237876075840287, 5.606021076626918, 1.290032902547778, 3.508272351518162, -5.379052992231334, -1.582689826576011, 2.515154654150452, 2.064083535539481, -2.249547746968635, 0.3900542254928925, 3.16190644763454, -4.453853592062474, -1.4904492147360737, 3.6809728391631173, 2.2159466104567365, -2.627395439492974, -0.7447947570771138, -0.18555367484029228, 1.822234540502996, 0.7181641968401202, -2.202287611488435, -2.3427980662949643, 3.3175605712519944, 1.6147109756607425, 8.143512127315935, 1.245326641458858, -4.3882738030523525, 3.1481055540738296, 1.0152380494694193, 0.47555643398356673, -6.773251281258414, -1.407657490261382, -4.407596637059449, -2.942189029419184, -2.6989266153588662, 1.4419770392818707, 0.8415717929599538, -0.9172808539819759, -2.500070642335026, -4.758790635397228, 1.8883019094864455, 4.364574958718879, -1.4947084847129188, 4.303285818861632, 2.1741433877314122, -2.2314246475608073, -5.151367026327247, -6.543931978791794, -5.3525527573142835, 0.8213509274235107, 1.570105134213033, -1.0473839364756634, 2.2094900031189835, 0.2605149919989693, -0.00891693102909652, -4.8056159163141645, 0.8254533279091869, 3.9611533560425967, 2.9990877782895184, -1.1449711641930156, 1.4734999413790097, 3.6761092172065872, 5.334315407900299, -1.6327092841648783, -0.017635973834501772, 3.5479421172395664, 3.101393938329063, -3.7070836817972337, 3.769062405813145, -3.4081352052768574, 2.1380135301524885, -1.629423874869835, 2.9417527384520445, -1.7807260142355226, 0.2972007962544845, -5.083373160311374, 1.180945270875462, -2.655056988889915, -1.491988965513769, 0.17662570626496543, -7.253911247094762, -4.338962843449882, 0.6240085041813725, 4.484151168599256, -2.299280249314452, -1.9644444929872862, 1.9289291387069674, -3.20366686467704, -0.3667710799927659, -1.805687273299889, 4.832120657935715, -0.42644747435792074, 6.662299630022172, -4.9708485509661635, 4.863208113158517, 5.431505648403819, 0.6022646272903445, 0.27769842977876436, 2.067472454316607, -5.520911119168806, -1.8176242252281218, 1.0016133842483277, 2.4226602366279444, -1.778432674666223, -0.30331135437812995, -3.8491879334090973, 0.5463151186222164, 4.545336375546794, 0.26367981757990133, 3.899766390642193, 0.7793877736011765, 2.253652714464911, 4.129737320391447, -3.391593286199285, 2.3363509394508872, -0.563336746837019, 3.437763298470302, 4.167071371757886, -4.139882661137799, -0.01109557310311815, -0.527264232361981, -4.106589402627297, 9.58784299234602, 2.2200560168525527, 0.6654581340127037, -1.9217455511383812, 0.5695671553463808, 3.340255026676279, 2.1467401155277646, 0.1294178416649152, 5.278122828872169, -0.5019800974342737, -0.5881784816679616, 0.12755397903753107, 1.4094909241960902, 2.2033792179551996, 3.0791436596798327, 3.7672792911119313, -5.106241503532664, -1.105093941447032, -2.914432461746621, -4.202698715355027, -0.07071850967317606, -3.181411275455668, 3.5295328675605724, -0.16697093808328822, -5.329198544890479, 0.7312998318253165, -0.2437587510524475, 4.609689331190509, 0.4307881967115952, -4.111618480078615, -0.09707426392267304, 0.5353237169205278, -2.34987658176816, 1.9365950195230983, 4.238152405600307, 0.3973052950901417, 0.9408472817172204, 1.4776889851647703, -0.028679266431975492, -0.9790837601947524, -1.32700567780622, -1.9038947884400177, -2.605590957396286, 5.0223959657095225, 2.8738153935760637, -1.211171487312827, 3.649318648312036, -1.463749395109087, 1.4814270492501729, 0.7997596582521171, -1.9548580945569725, -3.050903561467489, -4.2572073657657015, -3.4747314476844755, -4.909201442817783, -1.7425623284031613, -4.975551752979254, 0.9782543243191402, -4.676357233885657, 5.289333700112412, 0.319224275493287, 0.6231245386709827, -1.7684629961881086, 6.650413481047981, -3.1127541388042888, -0.33830783420961996, 0.4563562072305727, 2.9591083564679908, -4.060247666466656, -7.095641055134038, 4.112567275386459, 3.8263017653504026, -3.7897798381799985, 7.768513619958991, -0.6444456821940687, -1.8702785349179245, -1.258396056281887, -4.130279960326847, 2.6488827428638335, 2.2443546209854337, 1.4369429130118831, 5.960165827792622, 2.466875981090255, 0.15994249017294626, -4.211460540998944, 1.2954927055751608, 1.8215076011923426, -0.032545676820154745, 0.7870208186773384, 2.096940367869759, 0.9078549369609092, -4.42172471739392, 6.057015999580834, -7.242853827659539, 6.046284884463268, -3.1537303932308514, 2.347444203732023, 0.6261542271449754, 6.384677807605007, 1.307854304637523, -1.8514136683792386, -5.187446192654351, 0.3144890452692206, -0.22938279274376616, -1.1138820622070977, -4.315209050453007, 3.5450485709126607, 1.5988474481932515, 3.1950550176585377, 2.7983859847428345, 3.1939108316734046, -1.5763957535590682, 1.6079112252850765, 2.0156252909658674, 1.9024930231474868, 5.875558952630131, 1.0934514490607166, -0.3914913892016407, 8.435298901512024, -0.4121695010645591, 0.563724008214459, -2.5412858932811018, -1.0380902352122692, 6.127801933723254, -0.8587435119072582, -5.376775496054419, -1.9785586185637687, -6.70366700553528, 3.517181344547639, 1.3153990034860592, 5.4675200082809905, 5.679000987089315, -3.9248141806293884, 1.684663401331084, 1.593825478842882, -0.1591291930844866, 7.8819463241380525, 0.7997015903844504, 1.4552353409348013, -7.290070012516381, 0.5309251494278948, -5.512579165220656, 2.8258299349920266, 1.5882291552583059, 0.49618758509781746, -3.810989627062704, -5.918447649851321, 0.036333886208484545, 2.324308483061351, 1.953629701964335, -6.324096843895097, -2.12610756567691, 5.79554030208191, 1.9825578209676689, 0.20615323499439975, 3.703358094111058, -2.8591550797631697, 0.16134732905829008, 0.5803011113876229, -9.751703007767034, 0.2618867903548514, 1.854979780142032, 1.6037598824181898, -2.3808809410358363, -1.8027423484486635, -1.4716831204834457, 1.6943667069882409, 2.4774364635920447, 3.1148813923100693, 0.8838440898285804, 1.9329495580761917, -1.100711486510119, -4.77553416834592, -5.847943944478159, 1.4519843503914656, 1.6968585586656948, 4.4668564682669105, 3.9862438727934153, 3.5582544520990833, 2.574851486892677, -0.6401453831424024, -0.6642503920505438, -1.8773269639521486, -2.2192074832635345, 0.029153323450984203, 6.019177147881235, -2.694233212963809, 2.5013835840658802, -2.8122877299201736, -3.8548636133230643, 1.739966476684955, 4.354578743774431, -0.24270915026598439, 3.84627189069629, 0.4536688406893965, -1.837681012111519, -2.0226381016075954, -1.1103142083479884, -4.288478322772619, -1.171839710774262, -3.576519481960459, 3.907418805905386, -4.780325874874046, -2.71260872159002, -1.0358031618860688, -0.08675950397069654, -4.345138764565887, -2.6581736208797118, 4.164518743174098, 5.395067353769992, -1.4905674018798951, -2.0148442874948165, -1.7659963715171514, -4.992350045024496, 2.2701357485406417, -5.069196787257113, 5.417939754213407, -2.3535274817315486, -3.899246927832535, 4.861281283363958, -0.9088443261181998, -1.1717283047413347, -7.885798967639541, 2.011735404818819, 3.6984385773756303, -2.215742751263177, -2.2355247565977283, -1.964795045272556, -2.86230974144727, 2.7503156027781364, 0.09306985416648361, 2.074857335945536, 0.7282805869611191, 1.284277529897122, -3.5025952023762956, 3.3185664614406374, -0.8003874998319166, -2.757920509855313, -2.0321886305093733, -4.146937790324204, -2.75102394001825, 0.3688255595240242, 2.7639719247458245, -0.316275524023768, -3.6404464533169865, 1.1469081300954018, -2.1730434915661245, 4.106483576285905, 0.7668217019853361, 2.58507369725966, 2.83746428871303, 2.2399124525046323, 1.151321067928408, -2.2196979552976153, 6.948707053451592, 0.9177159556535139, -2.2395242016126153, 0.330594247126045, 1.1382720844360152, 1.3238350524235782, 1.3578610295403477, -1.548001590487155, -0.66078811745912, -2.476795834164386, -0.4880945470504574, -1.8222249367072947, 3.7740133956006536, -2.7027855581613807, -2.0747307851807113, -0.464203206555592, -1.7266978360327978, 2.813608192134893, -2.022083026010689, 2.5207312294669997, -2.2041681171485985, 2.088010202122388, 4.568777124910999, 7.372896686712677, 2.205951978678386, -2.081146862847048, -6.924836590754365, -3.4753985689261713, 1.858555071512507, 3.96096315613618, -6.170617667456441, -1.0090881624889587, -1.0048155125132092, 5.845052706247428, 5.241171506144369, 4.386687563287181], "biases_list": [-2.8885169797503973, 0.3178172710116076, -3.3001179542063035, 4.324127046475797, 7.883315392847297, 0.8647580242333344, 3.2609270678211733, 0.24215811568841983, -1.4920306889907566, 1.2024654330382623, 2.762784367991042, 0.14204246856708802, 0.43763751810398266, -2.761112933485725, -5.507621523443288, 5.85514099875931, 5.84956566962572, 2.4367441126013967, -5.264320445628916, 0.6153587881097193, -3.3869850571892863, 0.36657202160253477, -1.008268862469352, -3.654074343439592, 3.4933610872505705, 2.905629475551314, -3.5229190906504964, -1.0232616231773624, 2.626054412070361, 1.6293517954390326, -1.1970689083794641, 0.5409775046538665, 4.473859305742298, -0.907588412528511, -0.5684971640433545, 3.9747741533092062], "shape": [25.842226412474997, 16.701464740812316, 14.378426224293829, 4.062302883504999]}, {"weight_list": [0.30601557115790556, 5.755424868346006, 1.0762027818396271, -4.852194034576755, -3.4796846068662113, -5.301486797609046, 2.3448375730186783, 3.0778363726692213, 3.03994687258362, 1.6218596685155315, 2.930519793336351, -0.3151978289460988, 0.15148700285370076, 0.223419096534067, 2.4494283214200587, 4.423158480433205, 5.07448355431027, -2.684009548760189, 3.9927028565448683, 0.23090024445566293, 0.6607073675342177, 4.730429425674152, 5.110356359965729, 2.4205301103512813, -2.0668113025991275, 1.7870933895124397, -4.011161877570118, -4.354236643729225, -2.818507693138244, 0.28007154905657594, 0.5720207030543594, -2.774708092279698, -2.5327101163361085, 1.8741637842257548, 2.183786883490818, -3.2524570962132735, 3.8013516676030035, -3.0257834274979385, -4.77882510152804, -3.186088711369928, 3.813928377717212, -2.76166472643194, 0.37837347307138725, 0.6684233993982378, -5.794882570813483, 7.735657107227194, -5.204378414751167, 0.6577821967202457, 0.16852502162234262, 1.228244282210475, -5.030082416181048, 1.3874702716246254, -3.08354680853664, 1.6342760684493705, -2.6959727849863366, -1.7303095590099031, -1.696012123150863, -5.480002043287037, 6.710589384744312, 7.305235839587548, -1.8671519219384605, -3.9922558159800214, -3.9646701943293277, -2.6926419180702466, -0.6436794090179292, -0.20376238396516266, 5.971574466870319, -3.646050091861623, 3.1952792815151394, 0.5682047972333182, -1.8363770837582423, -6.3157573066743, 0.3296011143326991, -5.172810988543398, -1.5042760171041962, -2.745857626952443, 2.807078907729169, -7.146966806490626, 1.2252978656091087, -0.7342118176799651, -2.348839943901331, -2.413422013995323, -1.4104693711509873, 0.6014768744013574, 0.30529672486512416, 3.0321573873068797, -1.6022223349170788, 2.1279830493094094, 2.5379507719947654, -2.7976328154705232, 3.570558172100954, 3.2697882822995314, -4.090319140860314, -1.6302440677136467, -0.8913964706354132, -1.225545295019144, -0.29315605043867654, 1.862449671936405, -0.9930766550251298, -4.339229779578836, 5.968200355825547, -5.4174502939334035, -1.23621385907405, -4.032402367260235, 5.1022428960364525, 0.6895082560036481, -0.08572744772276442, 3.6862399010715237, 3.276841491018385, -0.5257731422632009, 7.423610757540004, -2.692675191912327, -0.015300714568694973, -6.381290652695655, 2.647827660133588, -5.185411752862853, 4.439759262292999, 0.7478782494635685, 2.1975810215129696, -1.9581195360300578, 1.0060585154147859, -1.2228628251881106, 2.1661180521761367, 2.854404544268581, 6.222209636219349, 5.546125239032705, -4.919416886800887, -6.539076020430709, 2.98505133511053, -2.6824613192487012, 3.4618551662335353, 3.730231316833515, 4.469505871373411, -4.934928123144584, -4.672295861386692, -4.260527946365251, 1.7940945138677726, 2.8060880517819395, 1.5824717715146823, 3.8784146343468144, 2.4347042454147716, 3.4375038544744942, -5.371020160412725, -0.5809992510215404, -2.1998196302198, 3.967320338536572, -2.166241256977169, 4.110982909579171, -2.1019146294520232, -4.825153560659987, -0.67816004109014, -4.823724248070115, -3.1552545661989733, -1.7159567597054304, -8.047160170484158, -6.347094614076401, 4.915777198432729, 0.2320093414396296, 3.257295240169677, 3.634542963731853, -0.48755143214546126, 1.874489443297647, -6.847766845978357, 4.794104621488695, -1.2761481481244146, -0.4957752850201793, 1.96377959351116, -3.66664585913424, 1.891242917063967, -1.7939568692576522, -3.199647462892525, -0.027820966339393793, -0.07036950156563293, -1.3498177305959478, 2.911607869033373, 3.915145500492655, 7.471712867613032, 1.8630236476316417, -0.7188800147146466, -8.501165331992013, -3.8196011188386896, -1.1103273150904636, 0.8469916859058588, 3.6495976629705353, 3.628252458300927, 1.2579570818385664, -1.9548206392318463, -5.266610986527771, -2.2073574254044317, -1.173078445555175, 2.3202118069552293, -4.219783955718471, 4.698329132507254, 6.356004767587668, 1.308976406042973, 1.1372145884179936, 1.8938127634506206, 3.022362378340656, 4.363069613351536, 0.9534873932201244, -2.492574846609258, 0.8600168721267951, 3.491667583370603, 0.49349347282762457, -0.026451289999096517, 2.4367473718797736, 1.1106426843246924, 5.2318875598201835, -0.49198846397452667, -3.500180155327567, 1.3985977413563786, -0.7172418161795528, -0.591122069648639, 0.38979589465972886, -1.0136150297670907, -2.065725778993249, -0.39615142887035437, -3.4712042470132727, 0.3037400795220597, 0.4932007548515802, -1.274603187773507, 3.0797786663127136, -1.9703432587482295, 2.2138669286435144, 3.6223696033917907, -4.314658180096287, -3.0393152025673116, -3.0058678414835844, -2.519694206884778, -0.19454508228984102, -6.9846625896482735, -1.332048381241995, -3.6930202723749277, -2.0287900215228074, 3.176621389094432, 0.558935573406941, 5.466318787066928, 1.0232254357901511, -0.40295071719371145, -6.243017967917177, -3.1411846688809213, -4.802428740908618, -4.136181992088741, 5.288463840275596, -1.7440227339466339, 2.5678286311377887, 2.7364468784409457, -2.6192380630489565, 0.9893602384190727, 8.67972805714844, 1.7607924581923426, -2.398933578928097, -3.779308708868602, -4.441461357843586, -5.556585757917808, 3.5466171121722354, 0.509337577023866, 0.3822039026672124, -2.7056113020809276, -2.2421319146585175, -4.024465104302167, -2.184968430372925, -3.1377619371780554, -4.837134984552627, -2.65662600645381, 3.3105754163638945, -2.96038730118339, -1.2640426075868951, -5.792767906221719, -0.2169817840086885, -2.3048643087595835, 2.1593357283176946, -3.942515103795431, -3.1716826941969307, 2.2654750327754387, 1.1922842911967044, -1.1691987772579429, 2.769420969026015, -1.9514981610388895, -0.7565686494266712, 0.3704059966121527, -1.861785482952447, -5.418936160936456, 3.5522308615649774, 5.678794877197928, 1.6188144545748822, -3.0661542962198265, -0.8888173693180079, 4.073155593237555, 2.268409986087919, -3.6510151298225804, -2.7186626594002457, 2.6801237834878138, -2.921092888716517, -1.0512262200621094, -1.2112694254484075, 10.270183753259568, 6.454390142991643, 0.3956229097744681, 4.07000512524029, 2.391345825999217, -0.40257793180097956, -3.6003748519912357, -1.3412001527563253, -3.1696787354511717, -4.846971145600788, -4.461422514647835, 2.0784174780235087, 4.520331796412201, -2.2761295579480185, 1.6512190107077567, -2.7946090025192256, -1.3907916060674248, 3.670574009439086, 1.4027256531345778, -2.7477461069416873, -3.2893329474531585, -1.9656127186593981, 3.0499100983673273, -5.560281840202745, -3.8651927705269014, 1.9909263368910532, -6.089156094945059, 5.6128290017024245, 5.53773146193841, 3.7862172215686583, -0.8920968860972912, 1.2180904319477541, -1.1304100325262127, -3.4211270794633424, 2.8157842317632618, -0.015712664028345702, -6.5099292731501714, 2.080015613214913, -3.8598457199024505, -0.8831702025745995, -4.430854213471106, -0.5361459914653861, 6.6480163073422585, -5.920880588686151, -0.9191721971728959, 2.876507959694778, 0.9956266601019275, 3.400376869904555, -4.682506663796509, -1.477079335902107, 1.6866002811205236, 3.3061485667363115, -2.335229364617928, 1.451123230794742, 1.3856983589425917, -3.902216454403944, -1.6376893340623138, 2.864878780933827, -0.26449423887107226, -2.2638444110313523, -0.6268884897874605, -0.10924534578361977, 1.9741453437987406, 2.907161001762483, -1.090011563671664, -4.894172579333633, 3.8493101527807028, 4.746750644068039, 6.238790322460718, 1.444000429013733, -4.897648178237184, 4.3028836053600195, 3.04201986776242, -0.47861234488428195, -6.103795304220423, -1.3342856317571916, -3.7080447018243365, -2.042641864505668, -0.8627513619027813, 4.376019887348743, 1.78296297850925, 2.0625773612058405, -3.999911463589891, -5.563620731113859, 0.08440939642205336, 3.8762915836049707, -0.08499570953765034, 3.2173500705215403, 0.19760517238433906, 0.09664588463759505, -6.726282884197444, -7.900151121339955, -6.903539447406466, 3.7974055998579637, 2.0081388503288427, -0.5867640110805715, 4.171518310812825, 0.5869466344555607, 2.5180543279462904, -3.735215111732911, 2.1394689002628917, 4.191733076317714, 0.0746636722855838, -1.7529969269047132, 0.07287259604722562, 5.441176151962989, 2.441248023415375, -2.435715558717321, -0.9794903076479213, 4.697339093761721, 2.06231406972414, -3.02018388184122, 3.8469380181524038, -4.302440684346781, -1.2450924452700567, -2.0516231594058025, 2.707707666073598, -4.837025886110793, 1.78931196977905, -6.197688102241696, 1.8052772379419535, -2.958514463282115, -2.320741816461859, -0.5855308880705015, -7.036655753188844, -2.212794620227619, -1.2672069481418387, 4.604843561179209, -3.6341599812641263, -1.996824366262821, 3.775206940020647, -4.542280646751981, -0.3885308859191132, -2.0242073329970682, 5.0969593331878835, -1.303637234137071, 5.613942192526635, -5.940042843655037, 4.67656571149252, 5.728702997532775, -1.794088809032757, 1.507240222112869, 2.265843380900579, -6.264390422404437, -1.6892025824068013, 0.24417166282147007, 2.6586859222666854, -2.946651198332031, -1.2108665865286343, -3.7036224838159963, 2.4596142934167755, 4.740776193978915, 1.7080821545032956, 1.5398762476204766, -0.2882894130532747, 4.190667191789199, 3.452712971522118, -4.530549079875339, 3.0909376973237297, -2.0541987407228444, 4.533752709285826, 4.026146158730152, -1.324483821405892, 1.8377896885362803, 1.6054622198872952, -3.6311649937635107, 9.586149516843838, 5.3571731018874775, -1.8214398751876477, -1.329942621342076, 0.9645991042695916, 3.0126834757087844, 3.4118974917541394, 2.8416768470150293, 4.425053021556662, 3.4906330360890125, -2.3218419641013233, 0.3804784263950003, -0.04129410044924586, -0.8800281344140962, 2.6734261269232267, 3.925378901449191, -5.895517804161024, -2.5924175390729665, -3.790040644451264, -4.305624836464418, 0.9652622914625855, -4.15031935705826, 5.362053768516388, 0.034888225204043666, -5.335688498033253, 2.0080951767236197, 1.3272100684589154, 5.668488927558284, 0.39947960346464884, -2.002327882371495, 1.1407921632331046, -2.065430473313593, -5.1667047098601575, 0.3377271924501901, 4.079806103410477, 1.5707835131819632, -0.32907383548643376, 2.0785434666812463, 2.2223618472750983, 0.9907467165623305, 1.8804528115406267, -3.702438642004923, -2.237637022877914, 6.252988460572298, 3.8256596305018107, -0.7346817593680354, 4.180537960484923, -1.3340155648015741, 3.0225510781717837, 0.8130260389477835, -2.5698111981191447, -4.1340161816711865, -4.351055841483437, -3.087638338270361, -3.575184655317356, -2.275787579003337, -4.679650718280277, -0.012439184842065298, -2.4293217416001642, 4.666285691928675, 0.6703178743019804, 1.4022302828392448, -1.8608520447081234, 6.24512845384411, -3.551808511850508, -3.0423987451476333, -1.0778260957409507, 5.177170322205495, -6.98513924880778, -8.276464092252754, 2.2808103039350778, 2.1699455723601724, -2.88487192706749, 7.7654482532294224, -0.37962915455760426, -4.879142651250994, -2.4837631257498005, -4.710710483129838, 3.6906688106265566, 0.412449259580141, 0.6383840438640231, 6.537042466050895, 0.7436523837736997, -2.57857985521266, -3.4389222263341814, 2.198537139485375, 1.980260877950721, -1.0633169009799817, -0.042843385640834786, 3.2130722095200728, 1.554547974736936, -1.5526167318050415, 4.881270456957828, -4.98134337112494, 6.92306607325367, -2.0477933647112008, 3.8737594267347157, -1.8796903767225912, 6.873008335284105, 1.1095374775509943, -2.220172706658643, -4.405296396222148, 0.39661315893234406, 0.6071166098141658, -2.0925334800416495, -3.3500612965907965, 4.74911352543406, 1.2992582642206902, 3.797244198955733, 3.185629581578313, 1.5195517624109902, -1.8146863279149543, 1.3879330980393636, 1.7587493536279952, 3.608154446964291, 6.099936708344002, -1.0142450574935036, 0.3084840929450112, 7.915407716957731, -0.3037427354021519, 2.5106551827231582, -1.6346980190203966, -2.9039592787808672, 6.189004496158466, -3.922006957474429, -6.935083267870677, 0.24229833712228732, -7.046379679226095, 3.4014053722679254, 1.4838720265154404, 5.750992234009526, 6.351085010800805, -1.2396476002038777, 1.9039028915257652, 1.6111175916340819, 2.4986903551913757, 7.656798878879462, 1.9523823497843082, 1.131328313253439, -7.446151009842726, 0.4605775022535217, -6.065629296920948, 4.614995657407939, 1.838282704292661, 2.2019390596363837, -4.911408509518194, -4.329248157370583, 0.5783774313964383, 4.598945672445658, 1.2281045238553858, -5.674767276316794, -3.432797638149069, 5.4559219561092185, 1.4742694853516758, 0.7064397551274009, 2.3893048849873226, -3.8233462581704334, 0.7275285015241308, 2.113088975967222, -10.124794793116351, 1.7322620498084227, 3.312672170380239, 0.9798862553563157, -2.0032855878671243, -1.8491841928753951, 1.381560902188249, 1.186756835057901, 2.3429286673551086, 1.9607988017510456, -1.156448671158318, 2.3354723050487074, -1.687710337591229, -5.306790565041745, -6.776141483237608, 1.5510687707532398, -0.49710569302738883, 5.739039021902267, 2.9355916596475025, 3.654586233951453, 3.4306403625470487, -1.4185748722465896, -1.4438888216255807, -2.1824082898469532, -2.981484104231477, -2.253611156693096, 5.892424890803928, -4.881742986073903, 2.5630173511173293, -0.5927699037127866, -3.7862892966918373, 3.5127127476552493, 4.133847904679847, -0.5305366646429341, 2.1794404382909383, 1.3815258235370074, -0.588764322714789, 0.6718440187812296, -0.6560379754711261, -5.928380137378576, -1.3636788149060215, -5.331860440065774, 3.7812157631802448, -4.007984451577177, -2.562540665246286, -1.3393499462506577, -1.168607256518841, -4.357957184159804, -3.9582516365244675, 4.090414138260305, 5.732010094048013, -0.8343563540193872, -0.4794932249271342, -3.6200405562117526, -5.414564647697391, 3.3642427078650616, -2.8260865309673946, 4.474050787175063, -1.5138473684163183, -3.766255539237046, 5.0087518879126165, -1.3428692654919732, -3.5512839807143735, -5.366048412923382, 2.7388138792386583, 2.0062563084110496, -2.5453821132790333, -1.478752877193069, -1.5016411576579125, -2.047553326550822, 1.5756838948452017, -0.2772046959976908, 2.475659791166833, 3.133920696124054, 3.665058909261707, -5.92178616791322, 5.347603102514789, -1.1928987129056479, -2.2517316540243737, -1.4497875963064417, -6.88528410052789, -3.868454456747767, 0.3691029254097917, 1.8811412153382934, 0.49472932515891044, -3.9913800951449607, 2.6065417979882386, -2.4563272015960393, 4.551327789186396, 1.162703926337746, -1.6997273572153038, 4.3174831644036304, 3.6405244736622686, 1.9680492835274208, -3.598248266892867, 7.9188788852198915, -0.459697392969733, -1.5485128633114427, 0.144402834309048, 1.3531435162015155, 0.7107533713075256, 4.459772815406999, -2.9754413262247557, -3.270492590135472, -2.117837212412118, 0.8788470362781344, 0.23813791405859175, 4.082203630003962, -1.6063426922455655, -2.322576249956281, 1.7873172452263812, -1.149662687141634, 0.6062503597092588, -3.9635143648452056, 0.9673114557111759, -3.0836178055835397, 3.4112964353416872, 4.789477248285359, 8.527745352626019, 0.7117292421425985, -2.7800461305431226, -5.824698663173932, -6.784895955898627, 0.6701475756429194, 2.962703057689623, -7.219705715757142, 0.5042480340374909, -0.2077102820617711, 6.496260768014289, 5.170783326629132, 3.893928733344567], "biases_list": [-2.988538058015391, 4.474175089059779, -3.3820217086166515, 6.618739853743769, 5.918981038433803, 1.8139153213146133, 2.507303697232274, 1.2686304414971281, -5.901699370672623, 1.146209538518559, 2.828364380767197, -0.857621880017077, -1.1734085326726837, -3.585792920921782, -5.8869275516384585, 5.8733300043211605, 4.478752424925928, 2.4364322363148303, -4.4814657403341975, -1.1702130395986823, -3.270471237572556, -2.092748711395518, -2.210001295212175, -4.169751893044456, 4.730939709910174, 1.1309805693617925, -3.2537205229849526, 2.6013396798942807, 2.6346581384971017, 3.3104558170754093, -1.4717029613982466, -1.0340469852213043, 5.088699009197246, -1.2591547016407096, -0.06827674675984596, 2.9003358011300717], "shape": [27, 16, 16, 4]}, {"weight_list": [-0.9160489649524863, 5.289859581069324, 0.5810101183276983, -4.3110140632894, -3.110216896938219, -5.527139412492327, 2.462566454166758, 3.0039908383467058, 2.034818008829583, 0.9780195974415842, 2.842286811259446, 0.5460582299683936, 0.9974117683738428, -0.42484417906022354, 1.5406734130419988, 2.6940703032597613, 3.9608881269109864, -3.6087610673014323, 3.8470103646392024, 1.3800307560239373, 0.18867736281782732, 4.729230672451154, 5.212377841308594, 3.4137600664946977, -2.5746327086368943, 1.9231512500529417, -3.4173809173097505, -5.027476310398148, -2.782313649534343, 1.3209141792239056, 0.37583882308758954, -0.5936786833039753, -4.505530522186965, 1.4882505201445908, 1.8859549599056917, -2.96204674978728, 2.6362701612062596, -1.5113599486337883, -4.664071281022327, -1.988135337265456, 3.553472723000554, -3.207928184994751, 0.4901925479852316, 1.4641862478259364, -5.901136648408916, 7.0096578871876964, -6.230235595044465, 1.0400668492356653, -1.0170259080438202, 1.7443762520730512, -4.908074967301182, 1.1904323080815535, -2.7618306437727, 0.9465233994257882, -3.2181821355571687, -0.95006335671207, -1.3575532507398163, -4.575959404521119, 6.47498984809895, 7.878656590563603, -0.878724499971165, -2.973001621129229, -4.917353239896196, -2.0233080590971957, -0.08151198905290691, 0.25996988980609403, 6.412438353999482, -2.8646303220524207, 2.829587200089837, 0.9379031390699424, -1.7862862423880688, -5.917250918482408, 1.8433202164849387, -5.704954418941103, -0.7413659256407994, -2.588004712580101, 2.9295894278632297, -7.279819787241095, 0.8256081232247956, -0.06120990358368039, -2.376251610521302, -2.172087662575767, -1.4698880438832564, -1.066978484069545, 0.005146009826269893, 2.7952796975286653, -2.2335194117234467, 3.2657950990347864, 2.577054369700446, -0.6634920673953999, 3.5831838047151248, 2.958673126551421, -3.6990863156725435, -3.449209853064591, -1.4265654581133234, -1.1742749363308504, -1.7513860831130126, 3.252768564809764, -1.4161253198870876, -4.0478039171776, 5.894234908286916, -4.968688334084403, -1.2478839588518382, -3.455997460669272, 5.545927902065873, 0.36610072742640387, 0.8960262940230366, 4.102194115517377, 5.120651215847944, -0.23204257945690743, 5.861734676717106, -2.1066497555300425, 0.19119574139933482, -4.03490139077838, 3.077868226482508, -5.807980566690973, 4.0209625129905895, 1.7631374539418863, 2.528373509321069, -1.419952060111144, 1.7404604182166015, -2.6132501910688215, 2.3718520791723963, 1.714264217926984, 6.0047360789638695, 5.600760940640027, -6.39845642542223, -6.724847990754155, 3.2061671796938667, -0.740403020555114, 4.143845994504811, 4.116996153780633, 3.042165223986798, -4.988165906309685, -5.4006741638192155, -3.554612252723768, 2.3915029786428756, 2.8221303314745816, 2.081610236995606, 3.9877687411016884, 1.828263695071593, 3.601214195325868, -5.914140646561759, -1.5237049293954958, -2.901587003124612, 2.3806219878354606, -2.036157318746877, 3.0045648525427264, -1.048198323477107, -5.958977633836384, 0.24170330389065464, -3.26460124742166, -3.6180674968320194, -1.5912502959789945, -7.368963123559169, -6.143245295668102, 3.3734273542972915, -0.1996872924474784, 2.7348164748038233, 3.647028010532318, -2.0240294141144135, 1.808069391987316, -7.048215300001168, 5.108542091337197, -1.6870626488481753, -0.47327725210274696, 2.2758539676600287, -2.842629051501379, 0.7045589530113192, -1.963204313090058, -1.4145030965090892, 0.2727830400241176, 0.3724911642941855, -1.709401572970583, 1.794047303634943, 2.172117979945041, 6.218425116415872, 3.185534373989774, -0.06334864786345251, -7.343120129253697, -3.3111374958690885, -2.1184029419669317, 2.4396696542945433, 3.889146026562214, 3.1370070827342857, 1.6785766830183912, -1.4528087727308847, -4.828997775136909, -2.423765481915689, -0.48697728531212814, 2.6476829872593792, -3.253805968047919, 3.900387266904934, 3.996176468520355, 1.5245581465595084, 1.0835725359347825, 1.3378876177534074, 2.2177115851958327, 3.76413638813335, 0.3914897053832842, -2.633374985089449, 0.8243116230958032, 3.3889437031734904, 1.6204621351484865, -0.7729827790669155, 2.812528508228807, 1.6159425684531579, 5.735122789578581, 0.8519397591855356, -3.266984421976249, 2.230538561190652, -0.6233132630827992, -0.8589863536973927, -0.31937256098696654, -1.5210681758852849, -1.1876688943984404, -1.3538853216557465, -3.6481044817042703, 0.994012354852394, -0.5435627756229355, -1.63552891411833, 1.4288059661845622, -0.8101522870721871, 1.7470699177221043, 4.523282564679484, -4.079834211886699, -1.726555615070758, -2.0845691614687922, -2.1242513487397146, -0.20879731550710545, -5.105579808514989, -1.1337730407473494, -4.522315545056301, -0.9079779371378793, 2.9014338446909615, 0.05952264062679302, 5.902029234546947, 0.5184668567472366, -0.6818293604400045, -5.669922470966673, -3.344825934726, -5.303005073937771, -5.028293034893904, 5.3602694172080465, -1.6853330396699362, 3.0051883018256165, 1.8977913572087846, -2.789686711053177, 3.116190765472199, 8.312230140657721, 0.5594041549965523, -3.124074402507569, -2.5972874137350663, -5.970810855708498, -4.500314238663688, 2.799966356156089, 1.3049082641441716, -0.4249536469295532, -2.673893764543786, -2.859262948838353, -3.7585400567383713, -2.398663096542082, -1.889636227733722, -4.493763542671963, -2.420146624886027, 1.9782579591788574, -1.8921072105310803, 0.4148375270284226, -5.118015947878622, 0.2850963417172019, -2.5552388465684164, 1.8974139303900746, -3.2498045549499257, -1.6870895759724964, 2.6265945533418886, 1.9024993259127605, -2.0943590124008473, 3.598719056217078, -0.8679768839238373, 0.3490185087389712, 2.1982421083909554, -1.2555331301233996, -5.3191627618237405, 3.432857511817753, 5.679030440367091, 2.516805393879372, -2.6594913365919126, -0.28475068834205564, 3.529652202266841, 0.6046353883832345, -4.630627196860938, -2.7411203353288265, 3.7146994193428293, -3.9920876038371906, -1.767637918357673, -0.14982754590069547, 9.701375687792272, 7.341398722883486, -0.5964636940368648, 4.562982802633947, 2.6461683462324093, 0.11740981753642621, -2.288441539207448, -2.011666133372188, -3.2381023561505122, -3.556992502153348, -3.584255543530988, 0.9406949424687059, 4.5938540533413725, -2.5836193932409612, 0.15919443299823133, -2.842441555302631, -2.748277187535506, 4.143987040999179, 0.09837924678242316, -1.9846886684521727, -2.114941253447244, -1.681626325512055, 3.139980014696852, -4.979610655266803, -3.8972584795524003, 0.9267251868727169, -5.243783322995422, 5.121125096346418, 4.797839280680146, 2.6446112359866354, -1.322816493039248, 0.8055619573301047, -1.170475472362817, -3.8912353289896098, 2.977703408577374, 0.5050817172985573, -6.9300382084669945, 0.08941532230057003, -4.956912434580459, -1.2513977592993182, -3.829261528556148, -1.2852803383543998, 5.955198131761168, -6.0831283288137135, -0.6060033661356732, 2.3352155949149975, 0.7208213047244696, 4.244606803894325, -3.9478151839655498, -2.067194984569786, 1.7676359259247967, 2.9226828813902728, -3.384171532661953, 1.4909354762095508, 2.156687849652803, -4.011519928599036, -2.053648271941409, 3.1274776648646565, 0.7727795126641417, -1.7510516267138936, -0.20929803951617, -0.36978634865434157, 3.4692051078275457, 3.1292846692276743, -1.2830311159645387, -5.240015314043567, 3.4309506105055014, 2.871936513150634, 7.149587143669887, 1.3132312650063152, -5.5556979802706214, 3.754354607478346, 1.8449630350428592, 1.2800611703290534, -6.09778200409361, -1.702610459761459, -2.73128437274577, -1.9201069813119243, -1.6387718061144503, 2.826623377526608, 2.2124687043667377, 0.7051405501674683, -2.327500562249242, -4.800599062428941, 0.8538223382207715, 3.376278763389502, -1.6655805751394888, 4.444021099495513, 1.0158971847302372, -0.9341196614542737, -4.996589699897672, -6.797301235508534, -6.644456332130479, 2.592098625730309, 2.748372939281139, -0.17520173501318892, 4.396806146353369, 0.844526151378505, 1.119284124781747, -3.802615618058999, 1.0710069139494012, 4.134431232364576, 0.5133417891849981, -1.0872531382887003, 0.7481000600872612, 3.6455887609633377, 3.0955296515157933, -2.584979535774232, -1.862704287077147, 4.852880277503866, 3.121792960487676, -4.215859754769915, 4.287658988319706, -3.72028658528634, 0.6086291646467961, -2.3794063284883427, 1.9305722304837616, -3.288379089731718, 1.9923958353314015, -6.124829036238264, 0.3654611378408099, -2.172290962822692, -2.7255712498598044, -1.2417559943231082, -6.643734099863727, -2.561995689118312, -1.7662883103980416, 3.860641773245942, -3.74869305202364, -1.7147277188273056, 3.9484742845188157, -3.1088806193865883, -0.17931802922914075, -1.8612887581205328, 4.534578150118296, -1.9851288356037546, 5.088748810033832, -5.777397648384663, 4.9309146833403545, 5.284873115886873, -1.1520681075040045, 0.6871900232643764, 1.7109527311574482, -4.920536005444537, -0.30803936756812433, 0.2475703071331834, 3.308433535458251, -0.6417564645264595, -1.227996802920743, -3.9589785132322985, 1.4752197160437275, 4.868200337517531, 2.135290868345082, 2.3705372660332182, 0.787011340000054, 3.4606315017555946, 4.411907154826521, -4.949721453943693, 2.7382875855972166, -2.073033411095542, 3.3728127976475797, 3.860798605722157, -1.7738508253125587, 0.8800715438409465, 0.9878360872657479, -3.337240989428948, 10.500083374827998, 3.7157702560967625, -0.39293599907342036, 0.13077149681405054, 0.39658416186699896, 4.65402002704188, 1.6014940446257344, 1.459655550645509, 4.582232221455426, 2.789524974668414, -2.3984573683031005, 0.06153829569276681, 0.4085036604419874, -0.14189476627476405, 4.396029901882196, 4.347228452793659, -5.6100139364957915, -3.220320565063065, -3.328783507675958, -5.547997286239098, 0.02934131128026074, -3.9244144149739704, 4.635104751616298, -0.006646826515138593, -5.975916222049197, -0.13760448365828415, -0.26758366777569775, 4.2720044053814, 0.7101510638021413, -4.0044140251264695, 0.5440875493933626, -0.14040394946310708, -4.469132944139353, 0.337338119721319, 3.4824864452935156, 0.43006687227322393, -0.48434151891463284, 2.1615538383477415, 1.8928605881356186, 0.25141922587631416, 0.39831712122168983, -1.9376402666902306, -1.3641793462715908, 5.471398488889468, 3.7787426127200074, -1.5541585971757224, 2.9887355223129832, -2.305018015977919, 2.287020000036696, 1.142657325628651, -2.431286758949451, -3.667433521067652, -4.373136852952581, -1.2794513625704347, -3.208200016143811, -2.020210807296258, -4.345325518775613, 1.8786881192041616, -3.594870778356996, 4.8243346766212145, 0.3030900650284005, 2.181561419946802, -2.4274011426166937, 5.733035079087731, -3.207728790166594, -2.905224575406016, -0.7976965575796793, 4.587894631931249, -6.870915938537768, -6.873223367742143, 1.401680926706578, 2.5500561068044973, -2.960148105389276, 8.081506441439894, 0.025391218476186417, -3.478994207056976, -1.785490584807925, -3.3162646197408043, 3.390245821978776, -0.4061747028449665, 2.2268352071786177, 4.680382149570627, 1.7335185024611146, -1.6002710886273057, -2.927615388995484, 2.5208824749182295, 1.3907781495515108, 0.4911300758201007, -0.548411157626816, 4.234140788763098, 0.6703937524257, -2.0956706246273153, 5.946544105894825, -5.0438264730543265, 5.5824262822987984, -3.604323700393201, 2.801798230034759, -0.4836763966288762, 6.76911524168143, 1.495756885084662, -3.138188788105345, -3.682300411893845, 1.025231451334589, -0.1371823780357022, -2.307869048653303, -2.277194858523718, 2.822590283110499, 1.7517503154683371, 3.5959586802049675, 2.87773608841448, 0.8934349988653614, -1.2797963956902034, 0.07836456629400779, 0.48757545453407003, 4.127837999842434, 5.75326107601226, -1.1327500988549994, -0.5445229731188624, 9.394329323462062, 0.39142616124971963, 0.6123834915497737, -2.374748231958182, -3.498262090956066, 6.330641675041936, -4.233774983532387, -6.984085747045626, 0.1395791652195204, -6.62022316766168, 2.763568568720137, 2.529033523603479, 5.935382699958913, 5.703309871898677, -1.8448328517539572, 0.09203918120137855, 0.9868111458981801, 1.600499054015041, 7.520770798945415, 2.2843392829436744, 1.27071415754886, -7.134496029947183, 0.7795271547529028, -5.626213553794633, 3.4745449677494884, 1.2255633260623169, 0.37627075134118626, -4.953841510216904, -4.7681438642794, -1.0947058483100904, 4.019955362526298, 1.4083636546116978, -5.156921653872192, -3.022674545692011, 4.724849910750178, 0.46190833579250223, 1.4745697757883498, 3.18384913151732, -2.4877874583335116, -0.428620689862649, 2.076262071733418, -9.693571224238944, 0.5528593857640334, 2.9911718533796186, 1.8659982940321624, -1.6717072186004174, -2.3912692012680417, 0.5304294102424505, 1.2385645621546555, 2.3372596985957736, 3.3715427125431026, -0.0006211168361258679, 2.3362508632798344, -1.609285559140873, -3.97701752662082, -5.917816738738065, 0.6577871438158314, -0.1815065476342559, 5.393050452667369, 2.9128926017745957, 3.714072475047563, 2.110000147586973, -2.0853452626237328, -0.0379251773133511, -2.439338512366033, -3.0568526480529505, -0.28175969506423537, 6.864794434071934, -4.072852000576271, 3.001194175958253, -0.11108197209070814, -3.325815096339281, 3.3702718598933235, 3.3997090603255558, -1.6760104371014277, 3.0871204544339994, 2.696669646686429, 0.44245000893995634, -0.6265640672160051, -1.2697154203101484, -3.820362961931951, -2.5332285212680787, -5.047493710684574, 4.568979388480026, -4.311898697901092, -2.2228360071141577, -0.9481839500750575, -1.792643131796035, -4.426192344776131, -4.081708572543583, 4.569915152593525, 3.6973080940459973, -1.8198596456876976, -1.6704471109294476, -2.897778340277005, -5.923158435204221, 3.0879420465255274, -3.7910847831225123, 3.6908598663821737, -2.1867487066525078, -3.6281682483681124, 6.573297965855867, -1.4739592031952788, -2.1508318393991805, -5.620456243189003, 2.9778320425490454, 2.715332948430718, -3.370087066654274, -0.9997616533804894, -1.879997075562777, -2.712505689218565, 2.2095324372688654, -1.5633799052857025, 2.013618388336382, 2.447005989360866, 3.5804284669286686, -5.485845192268762, 4.923840283233105, -0.504824228827805, -2.3376598103621076, -1.2777731579013982, -6.884449741814306, -2.997788336053894, 0.15098472669805751, 1.1983723001974322, 1.7110393876359797, -4.008959830788622, 1.6112534539050039, -2.486661604098498, 5.746730513075199, -0.02655507193839346, 0.14790103726287196, 4.027865363733241, 4.256515931139618, 1.2694412355907296, -4.383835395025503, 7.512342957343876, -1.6661570653770736, -2.1483475056431027, -0.7485689070655981, 1.2052682073350098, 1.0330384894063958, 2.325239899250593, -3.9736396350478236, -2.2685560458772045, -2.070583216022956, 1.4680135466253805, -0.3589286332181588, 3.9553628801126486, -0.9832242246058542, -2.7647063382451433, 2.256390102316775, -2.4444782714021724, 1.745173984366919, -3.192184560292352, 2.282834522490954, -2.8936629491063286, 2.5029767753868457, 5.4984537658176755, 8.233571987977648, 1.3337634820900397, -2.3585132675487914, -4.933539294044397, -5.013868952034298, 1.855400560582618, 3.196621753286184, -6.690645763931957, 0.8675314635901563, -0.1798917782450954, 5.207920992085061, 3.8461722099127353, 3.0036260996088417], "biases_list": [-3.109609755555727, 3.97231054426544, -3.8968732500101964, 6.222825274782171, 7.680351585191145, 1.7005536437353976, 2.4854439779072917, 1.740819009497077, -3.7349469472086434, 1.8222560703379664, 1.923945353073064, -0.5860589460037359, -0.08228225530794664, -3.2834982569725106, -4.648309729825911, 5.339057168783703, 4.553479861509528, 2.9450474726398577, -4.4745175215882504, 0.5696268386869328, -3.6969925420566563, -1.2415046605317555, -2.9307915475173196, -4.121272005942419, 3.6268430783841277, 1.203437188298091, -3.669189942392207, 1.2159419879214344, 2.837073685355252, 2.582771925123708, -1.5658419685233353, -0.256160153618335, 3.494398931847919, 0.45468455852256406, -0.8277036475422469, 3.682347665487886], "shape": [26.33857836886647, 15.423605985208361, 15.864439296645138, 4.8514908665346255]}, {"weight_list": [0.1239852611502672, 4.067773183249983, 2.343281519743674, -3.8070259151648624, -3.249630190623937, -4.639305040036604, 4.090155990322982, 1.2082879890331193, 1.6287122283995634, 0.8852685398090061, 2.1931522214292714, 1.1909536807464747, -0.4846296272948565, -1.8952502211699793, 0.17582818563803215, 1.7777352516366314, 2.5704033341894, -3.2194066334291636, 1.981422646803734, 0.07947805135937447, 0.28952964032341266, 4.936572762134706, 4.738516018146204, 2.5627998416493796, -3.031173835300805, 1.681684369512198, -3.092842667862643, -6.2051371011920455, -4.5139838037413185, 0.029972228730521522, 1.0819439469050307, 0.6219760526856108, -5.174260080613206, 2.3321556639227037, 1.9287694768439572, -1.9256640732191748, 1.7287855358044384, -2.85877557941929, -2.3223645496889764, -0.7284454484642977, 3.8806337692582513, -2.842485132357198, -0.33001330841414556, 0.5283546339939553, -3.394579107416646, 4.889095601160042, -6.262549543177278, 0.5464644835719439, -2.3585946528276063, 1.4611594950105937, -3.4933040401201247, 0.15032062712947192, -3.393301219886606, -0.17699801395705617, -3.715911205430978, 0.35854821267524084, 1.6164741175493607, -3.9430747570843803, 5.567399874851035, 7.420971470270301, 0.37385126801886637, -2.7406713095893296, -3.509713995452392, -1.8081691939720366, 1.822177789579643, 0.6213698304298572, 6.001762536722941, -1.097615016370782, 1.195660122277744, 0.8758765052555844, -1.4874156348337004, -6.8161453507132865, 1.9468559843224593, -5.326982266069253, -1.0139085697199608, -1.8227732133509087, 3.6713358431932015, -7.9476993591149, 1.1898895351951202, 1.8670498167802392, -0.40729008126339306, -1.2717611322226061, -1.265517386585825, -1.7780637142549784, -0.10357077629073563, 2.705381922543311, -2.7623869873743843, 3.779647992266269, 2.5634966866087145, -0.9300478481963017, 2.9596407489076206, 3.4095528595151174, -2.1523886648884067, -3.843920022376479, 0.1778124610278753, -0.9191217330310457, -1.739393679287331, 3.791238262063297, 0.29112431870481137, -4.448512185254966, 7.220369769999969, -5.3213635055205675, -1.208066016195342, -2.8530437878613824, 6.347290117524894, -0.2080046229418906, 1.1025377354624188, 5.42348974084732, 4.347406843142579, -0.4175110448697712, 5.030259661928665, -2.0196623883857434, -0.1232549815099293, -3.1170469875619413, 4.859515471048485, -5.4497707764072585, 2.4507701073495918, 1.504525166325772, 4.683288096838616, 0.6786554736248922, 0.7669170960082423, -1.7394790890547804, 3.415574877799564, -0.12727897061049032, 7.389215815176346, 4.771293076614329, -6.4146813863408765, -6.86520467807887, 2.755395572363973, -1.1472195248972124, 3.7986627113437486, 4.884633293374353, 4.152457760265923, -3.7812379747780027, -4.5335777637433, -5.284795207425048, 1.050513129739279, 2.2450725286327744, 3.392395896889778, 3.0295386664678317, 0.7803864136033309, 2.730306578354664, -5.17926330243147, -1.0112030900950508, -3.968101251161952, 2.701956442650486, -3.6815616363846986, 2.851194278860886, 0.33775485523287285, -4.500950035930142, 0.8780632368881871, -4.2238900489015405, -1.6943629518817853, -1.4067277075090872, -6.685966861981455, -5.077473440004882, 1.9000716338403203, -0.335710313920041, 2.1184754620684747, 3.412537306596894, -2.4621704991226503, 0.4778663871744795, -6.301303182872195, 4.583741673400696, -4.049250424993027, 1.143515051031251, 0.8020649678379446, -2.774992741454394, -0.5848101033667843, -2.9073668585326224, -1.9184855965651024, -1.7006950604521502, -1.181323066744436, -1.1542821063129465, 1.8005154138757615, 2.9259820112734527, 6.001511191648233, 3.1793719059598002, -0.9776436351127642, -6.709387886176046, -3.4805687933933718, -3.7233128398257582, 2.9030454302167468, 2.8031256006840906, 2.159096192616931, -0.203932984223274, -2.165315763632041, -4.683582253633189, -2.8264170324198696, 0.37599403317354785, 1.472779671902022, -3.4943969238164416, 4.296379882536249, 4.211228876673944, 2.4871986624023767, -0.7922346666057494, 2.1531423248703625, 1.4760288984568843, 4.397009725191852, 0.012970650850286702, -2.812893029296739, 0.4159058501833943, 2.000040381904876, 1.2763979289012939, -0.03551362692466964, 1.831292335536621, 0.4540420388695925, 6.924673506295143, 2.946537682499571, -1.5680142307581928, 0.8684002593815663, -0.2876207082549762, -3.653007079093901, -0.86107033597869, -0.9055684613829333, -0.5123582001315228, -1.5886192254409008, -1.8756497959588054, 2.561382036533413, -0.29744764003435065, -4.044588106150803, 0.9180991742640541, 0.24277711356841447, 1.347666887774368, 5.1501975810991425, -3.675647699740857, -3.120890913037455, -3.0429049463021816, -0.4434693056670327, -0.24238240783065268, -4.244443410356518, -1.624546201714415, -4.771678255454952, -1.1925845532071975, 2.9624594088591762, 1.2362062458865353, 5.458619255836845, 0.6730914569284627, -2.2065770803887794, -5.140198072410203, -3.511601788247794, -5.033458616902629, -5.5654163013841, 4.399112224357113, -1.354545278886957, 3.887891823640146, 3.0188837633999634, -1.4626903918878504, 2.9913342780885355, 6.299831442788365, 1.5754125029796437, -3.640918839601458, -3.114815853655519, -5.384420854631115, -3.931473045420627, 1.9394238077995647, -0.001376828208146108, -0.40880266091893913, -3.896205880912289, -2.3066664328993953, -3.40166153313732, -1.611448118154328, -2.4446009548455376, -3.644988116923547, -3.4299489193546457, 1.9477804723944203, -0.43035804653214016, -0.47813475193213084, -6.228194272094425, 1.1028533893333439, -0.4113443922146549, -0.25208841925523373, -3.650789803292219, -2.503165661690205, 2.7306342447154983, 0.19062915821096182, -3.360395452558505, 2.4655652682081377, -1.1775312753734408, 0.3409213093457639, 3.199811509014208, -0.4542252165233056, -2.6795672156149495, 3.8083575893695443, 5.301087446016414, 0.5315735397797636, -1.7273916922016297, -1.465394661447876, 3.5109576280659125, 1.4224488843475953, -3.5902425281181563, -2.051576837487029, 3.948408742596408, -3.0722678338093328, 0.09412639445896676, -0.126102651482489, 7.7313482736407, 7.758797043860737, -2.2942584322726205, 4.144295869074662, 2.6200943417502502, -1.0372828132626308, -1.3528013670660965, -1.120155647772018, -3.2921200683640013, -3.387369379073664, -2.4927179699816095, 0.5588634050288199, 5.883948539468208, -1.903444120147912, -1.115651474717106, -1.5520698240989297, -3.4351727520352835, 4.455389739940864, -0.5491574209497156, -2.445405997258618, -2.5428921125961486, -2.4000827201581485, 1.6407150108668898, -5.184867523914446, -3.1172700822372263, 1.61279481484596, -5.270337057876009, 3.8650950973847937, 4.945706107605956, 3.2382944652905, -0.2362947361009673, -0.4708161061764855, -1.890001152341279, -2.2986419140393215, 2.8954623837491233, 1.051586317520572, -7.233409598506861, -0.38718883248887925, -4.524936065468921, -0.5053941414849461, -1.622811878826615, 0.24463241313348494, 5.903837681964161, -4.782567128376916, -2.4760371230881546, 4.350995511220858, 1.5811095269731892, 4.325173099768871, -3.2856698200436463, -0.7679014750969455, 2.9871736022095483, 1.947418492715463, -1.743130082623812, 2.472815461471341, 1.6996488754905528, -4.385594233251579, -0.8844155153321827, 3.86824887371834, 1.138319046612441, -3.8202363288139463, -0.8452224300416245, -0.5659352275130017, 4.075201359597793, 1.1794946552293881, -0.05879006363447892, -4.5656307346389, 3.6109786965530404, 2.5613149472108274, 6.946870340270928, 1.349419793888266, -6.093180804173496, 2.957077637153996, 1.800019690792897, 1.0760582288727454, -5.068582149263012, -1.4471415157679528, -3.0738836358990653, -1.882956885146218, -3.280469039107458, 2.7035341126544346, 1.7475428343857908, -0.6654891127868763, -0.4493152544837389, -4.1612724716629135, 2.5633305007408964, 2.188090948006826, -2.1601698877630646, 6.125670318471988, 1.4182642396533929, -1.1981278166029659, -4.849793780597084, -4.309826225659166, -6.818452077199169, 1.2586487059452605, 1.976983623548441, -1.263415900037815, 2.596906371563885, 0.2371186355478565, 0.8543377681932196, -4.878109037272428, 0.9359895494869788, 5.495017022682336, 1.7201334041136986, -1.2350079824557931, 2.2580094899231775, 2.1842208337883298, 5.482951736405682, -3.1711398084233506, -0.9829879158051567, 3.59075290908547, 2.079587474088236, -5.171970542290859, 3.2358984281306924, -2.6080587697171236, 1.2161384002742075, -3.16154425292491, 2.5637906486486055, -2.0953371136740118, 0.8189994959703766, -4.550685071105052, 0.01174539406695252, -3.2242286318736855, -2.3635233671418487, -1.5555495201808334, -7.397903111343612, -3.1104315413907795, -1.0860542773701378, 4.63894539252629, -1.0587268415889652, -0.11882483591410242, 2.8531379255339333, -2.887310261368852, -1.0224099384845644, -1.6677253342426135, 4.571132218104081, -0.12844258034708178, 7.164002991453188, -4.551758848754947, 6.167274432589868, 5.8265766507736405, -1.3136304030175674, 0.31426754958442005, 0.8869407859977678, -4.382459570706139, -0.05728186804367841, 1.2812366895834693, 2.9443479270870383, 0.31683571486153084, 0.7117359916995833, -2.991123394505041, 0.35286592798142724, 5.333377866491963, 2.3100553049750707, 3.748387314788869, 1.7523847685919818, 3.1571233491866684, 4.669065555711324, -4.989194375861693, 4.331055531224294, -1.3312199245961498, 2.208933084851761, 3.6153420916371086, -3.2754001833066475, 0.34120841314464134, 0.3317841857553634, -4.4750606423349435, 10.924222283854652, 2.9291581810915392, -0.1840049500870098, -0.7465224004108817, 1.0474582779316313, 5.255136758696359, 1.9428155336297945, 0.47916482334915567, 4.937213633591888, 2.24766080618682, -1.0506567333280472, -0.39843743994225345, 1.360656418287359, 0.4410110023103515, 4.331425241503643, 2.792949989673642, -5.21864510782626, -2.675572616688763, -2.6667206560091232, -6.409086135586007, 0.5800931618892389, -3.4402632096704173, 2.840863120255232, -0.5342376465855481, -5.731561865412451, -0.16631179100812277, 0.021522835297486997, 4.706188499465534, 0.5951845843033055, -3.4466057863247777, -0.4431531296143524, -0.37734311781239427, -3.324215595383605, 0.7566502598375209, 3.0398160288464737, -0.7634594738048728, 1.894087736521577, 0.896141281585572, -0.44022632923013694, -0.5820725898136043, -0.623156328673887, -2.0107977606431393, -3.341769033633996, 3.7491975425229302, 2.4476484995532655, -2.270506752710693, 3.9231658089791814, -1.981374109835371, 2.8001372168859877, 1.7205574324842967, -2.6276955420578583, -3.2517271135641073, -3.511394962521519, -0.5468179928268497, -3.7434175539125842, -2.373762406451256, -4.497461809325305, 1.238658408064654, -5.62171334500133, 4.402162122889409, 0.428990873347042, 1.5043430879189885, -3.284426954552698, 4.925240858041619, -3.024449695636447, -2.0173595190181475, 1.6083671781779465, 3.8530588319103822, -5.095859407702649, -5.187547509240741, 1.2488036893163263, 3.796903157893725, -3.4602656877394913, 6.828006593381269, 0.587560168788245, -4.329335559853647, -2.8517770495130312, -4.3024008425384626, 1.3150172599501144, 1.3638638087819905, 2.3428537255602424, 4.978688922546533, 2.7067452520774613, -0.048695481954879494, -3.324961742275669, 1.2231634323168037, 1.1712474679742502, 1.0670128609888998, 0.8347198304317596, 3.6082585501238977, 0.48057141527379943, -2.4803693260971915, 5.896294898583737, -4.255971835436292, 5.019768653377409, -5.639371923785346, 2.4887524588985954, -0.5428900055433755, 8.005221632044254, 0.2469887515621325, -3.022304322124347, -3.848617443300946, 0.9639000657136205, 0.5283348436069468, -1.2224688774641943, -1.887073823495801, 2.709241234890633, 0.6860910562462104, 2.458297459288697, 4.872583738563458, 2.506925797303278, -1.4974455306776848, -0.2877079284194797, -0.7688869375661074, 3.666206762943392, 5.639674043283879, -0.004838544809625311, -0.4191800343306422, 10.401935657809531, -1.1842354179314811, 0.43694160357269207, -1.494117573584426, -3.285490316630751, 6.712029185846268, -2.164139651813166, -5.58083460431603, -0.7828825291375978, -6.641912503795643, 4.258270251069225, 2.970456288502225, 4.564781858498375, 3.3449809615856285, -3.1694347791580912, -0.7028376673861958, -0.48274922491173156, 1.149480106450138, 8.858459558698183, 3.0897251590964077, 2.944938812564147, -6.121860029830164, -0.33543230803521384, -5.506755652896144, 1.7500115767534306, 1.9057383171747477, -0.012700905192342571, -5.033708014363084, -5.18150540402905, -0.026064284126073978, 1.6035815951814598, 2.2538945213183323, -4.994048813247939, -2.0329408019345436, 4.326540291010028, -0.35094752453963474, 1.0141850876834329, 4.625460073367073, -3.229094177388445, 0.17955236766183091, -0.20157291426998736, -10.891573563043526, 0.10727776907142705, 0.9390801717194728, 1.2717929575935272, -1.3769215054321022, -1.3344640089861128, -1.2193695650666527, 2.7653033544463144, 2.9851113924725734, 4.106010084859722, -1.3703116221676466, 1.6489885414239032, 0.13534735241553952, -3.4529698330488694, -4.845137629109868, 0.7607101489166967, 1.761421900661439, 4.268884164462052, 3.4513348191899444, 2.589398567316312, 1.2053253376033526, -1.9057042387420255, 1.601908287797237, -0.8532679210027883, -3.597307887446289, -0.710825750761849, 6.13212074041083, -2.9072748043808567, 3.76069602059282, -0.7076046953934576, -4.784594057693322, 2.2405015656456806, 4.966455771837639, -1.3277727829106762, 3.5532380157633217, 1.4813810591983079, 0.6559106093178684, -1.5454221936562427, -1.0187217715541128, -2.887056783475714, -2.9184892124731445, -3.2250245559875315, 4.190987212349475, -3.6633686756928094, -3.793751249365102, 0.23529066335024296, -1.4097092330156846, -3.4551411640507608, -2.7758168439636863, 4.069689129844455, 4.457580457446688, -1.325196663993983, -1.5899106605704598, -1.1417047222890448, -4.722514725135239, 2.8439138704506735, -5.1787485371348545, 4.524696184509324, -3.954859700092114, -4.46597726008719, 7.349251036558005, -2.1075963871855556, -1.0947907948278812, -6.561634811844796, 2.288926799137686, 3.091308922907677, -2.60342484775589, -1.649065991747119, -2.3179171435424513, -4.325064439996121, 1.780359406826367, -1.9187372859585963, 2.1541228044501146, 2.415272613619808, 2.759669695867906, -3.322144756744322, 5.4218822298695475, -0.5679629470807639, -1.9030123585334655, -2.292924584764565, -5.827987856870321, -3.298665129464301, 0.812554489276601, 2.5907183657729767, 0.9984486144337454, -3.260203474929541, 2.0030379111193914, -0.8866884952302845, 5.422256285834491, 1.6805636880367318, 0.2646628295369846, 4.12168723842287, 2.777379678522758, 2.0684791889421748, -3.329577597983234, 9.111404238724965, -1.6213629441643054, -2.41051012854558, -0.38432648514277734, -1.0188172769206356, 1.5047361753098136, 1.7643248712675925, -2.3928761061805965, -1.8430769234560145, -1.3219574600952493, 1.2020705322097403, -1.113290187817257, 3.0434705056054465, -0.4355284092631022, -0.766035925387722, 1.7341617203551283, -2.9383564820736563, 1.95417134004712, -2.8742622877720487, 3.2754761562729815, -2.5667597401035005, 1.8438146591322537, 5.468734250143606, 8.26510491467317, 1.8460299362646113, -1.527114312748716, -5.598838054782351, -3.2775602563034463, 3.75227834727409, 4.522080518326625, -5.512017060754544, -1.0283778936122703, 0.27724138759101735, 5.3844101155889685, 3.2576453342890233, 4.96280650040857], "biases_list": [-2.686016774107679, 3.0420304034845866, -4.531044207004101, 5.5507704020439315, 8.868653057758985, 1.0311443582498838, 1.7303047745819056, 0.9560855097141487, -3.3855055289794445, 2.4531836977058012, 3.0123354917501493, 1.580985678450201, -1.011593652785076, -3.7222282696722493, -3.423292129587809, 5.5631037013977505, 3.7293642766474973, 1.6411886899950767, -6.762110826992922, 1.1807967023526098, -3.5172289332448337, -1.400279930070801, -2.3550616982389334, -2.7221356103312915, 3.1794207135692236, 2.7873590289634844, -1.4666852571506985, 0.3727305298042236, 1.529056611106812, 1.5428917619539169, -0.5330720638241946, 1.2904475575212135, 3.682527791313304, 0.6825098344309917, -1.6019070672079496, 3.453531396794368], "shape": [26.855562378350818, 15.141526069441195, 14.727601455407598, 4.6110472410042895]}, {"weight_list": [1.060244836875306, 4.018071467155922, -0.2941722081733389, -3.305954856960407, -3.8472270528436443, -4.9547042247143205, 2.949400363971907, 1.9441980438675808, 2.134442393052808, 1.267623151170166, 2.561837043818976, -0.433972097982279, -0.4052857928059086, -0.33723920704589583, 1.217500023579266, 2.9009185719928974, 3.2909411597025384, -3.011903076154596, 2.902551647332008, -0.0982562031335873, 0.36555080273501717, 4.5306168241813864, 6.10831494801273, 2.2182009874007895, -1.3570283550786628, 1.0192452079683028, -3.0832526981006074, -4.249595790874544, -4.203008336595567, 0.021605500617924545, 0.7198597759973064, -1.3832608819597494, -3.1688647228660023, 1.933506696478732, 1.7249908527845461, -2.426768822876166, 2.6312831396200105, -2.503226904432837, -3.3013633567667253, -1.5976202994224755, 3.7823406490362697, -3.81763282747205, -0.002763743826758036, 2.014959170943382, -6.632985102731121, 6.035684567384063, -5.222694146203098, 0.48712945431808974, -0.7557349268423539, 1.7864811467926147, -3.7738841188384056, 0.7024302035913603, -2.4019338398767562, -0.1834737195431756, -4.392234406335497, -0.9847844695351484, 0.10098053727152645, -4.5370564208802815, 7.540332564126826, 7.454914594640899, -2.048365323604518, -4.36892556251186, -3.969906718250439, -2.203538257200792, 0.9555717664517804, 0.15719272880414348, 5.625455155105316, -0.872156821608731, 3.0294130769221104, 0.17001993814997407, -1.272042507034408, -5.932637856453869, 0.242254235649918, -5.197987763878792, -1.2878436400611804, -1.8874095738524093, 3.823607524341864, -9.002604093305107, 0.7646226336911996, 0.5053898763394276, -1.9868897343178131, -2.0256942805237346, -1.4065091183771241, 0.5730980736322349, 0.3366814492906216, 2.48644422452412, -0.5348171229882983, 2.9082055291840203, 1.9314608500547363, -1.9972025136064968, 1.9904671934677474, 2.3575700512632514, -4.642316733399872, -1.6043811061875424, 0.33561055653005845, -0.7974343299828597, 0.03422932402059109, 1.7271545080337112, -0.34791326314595694, -5.3619215417065735, 7.263022245123377, -6.041140042450385, -2.444935665767659, -2.417768887557223, 4.6956220504604245, 0.44170050228047875, 1.803096883541826, 2.6004097095265246, 4.24216879920106, -0.5799711598949326, 7.288067936535617, -0.9678980028054209, -0.7107224279726697, -3.925596232414522, 4.586741156022228, -4.218480676453379, 3.2931056368886713, 1.1350197349042843, 4.038840876717546, -1.9602133526580674, 1.1581423556253498, -2.2163480567093856, 1.9733984802782052, 0.84462242826378, 5.925894421811718, 3.7881006300299163, -5.402658498814137, -7.506940401751309, 2.353766973381827, -1.1331775959672303, 4.574977229549257, 3.514914147733583, 3.6787431161743767, -4.259020309889548, -4.252268725445993, -5.422251016983395, 1.7166968634016975, 1.3104698310162721, 2.032984800989116, 4.211749973327178, 0.7459810023676763, 4.2903535789828915, -4.592274054254315, -1.4197159485047532, -3.045829907657356, 3.2406380385391484, -3.3452995155134437, 4.765538885342394, -0.28574039331316303, -5.791321488751563, -1.0094499441036913, -4.576811581136517, -2.6526667249568385, -0.5443303844864449, -5.291190126181659, -7.043789098688996, 3.187407910874456, 0.8368998526240345, 1.6143327843272912, 2.9382120582219393, 0.26247485205688714, 2.653396171958197, -6.925713558779984, 5.103928375982946, -2.0002956993563235, 0.800142887234744, 1.9527577979078465, -1.8110912410775553, 0.5455816603374601, -3.070602091190163, -1.7359601942523164, 0.10489992291403127, -0.32575310460420903, -1.601394776352385, 3.4120158902211175, 3.5197296308054202, 7.689085984680958, 2.0320771236419057, -0.7071021548383312, -7.716445057587788, -2.6015577934668768, -2.330882312505909, 1.585995050620494, 3.88228353282965, 2.508344515552875, 0.7363986684536192, -1.37031906082128, -3.9859467076048594, -2.611707224263547, -0.5728608746430993, 1.5529375547312791, -4.632014018602385, 3.951489476081277, 3.3757848008336637, 0.2984504580659155, 0.8846373243738368, 1.9366262567691197, 1.84945630676298, 3.551410778815466, -0.38901205564686636, -2.5171496922157663, 1.2154176382669464, 2.8181822560434693, 0.8923146274589047, -0.12570030009551414, 1.827986338965875, 1.1050830358211816, 6.18749141212092, 1.3985239389246207, -2.642403075085405, 0.1891962913101206, -1.021443110580878, -1.6765833510272246, -1.180506470463245, 0.608215766623585, 