[{"weight_list": [-2.17212830380981, -0.6372167124866497, 6.923360534122672, -6.7266316283546, 4.968433043830718, -2.3911175621329717, -5.2022791793078955, 3.891583666164548, 6.591664129593845, -5.462577350943485, -4.29595110849986, 4.896725106243252, 8.19637358070668, -3.598710281262141, 6.978876701327394, -2.7316509601494126, -7.259733350587927, 6.215807525755164, 0.3890777872432061, -5.1767039421793415, 3.7394970385277038, -8.251091638822867, -6.839938419124296, 5.914129207802727, -1.5854291336231547, -9.605637610049381, 5.446904202612915, -2.620660889572795, 3.2851892663081976, 3.817172327348217, -2.416942550543542, 4.131621627705325, -7.718334738281712, -6.578929734473345, 7.41958131281395, 4.670842933723895, 3.348852980196046, 8.911413304491944, 8.278949867148093, -7.279374416056736, 0.3499907889629448, -0.7818714937353004, -5.526368750251585, 9.28916789631883, 4.6879147433669015, 2.888771804473272, 9.36477177557634, 2.2085600490408392, -4.2964457538143, 8.648602769986706, 4.406944777148418, -2.84627976302525, -9.633798167382402, -1.1176817596487165, -3.8185859878422974, 8.852784751726418, 7.266787049991713, -4.146152823640749, 1.8131214907345452, -4.901590628072725, -5.933342608772055, 2.457247624631133, -8.823934627363085, -5.006583316305779, 0.37386627912847636, -4.206223721301581, -2.9998481129067844, 7.000340391438407, 2.292578632733502, 7.4188977176072335, -9.08240128320692, -2.486265059357933, -9.729147563257568, -8.832174951013116, -0.55941413698703, 5.138620437006232, -6.599366426098139, -5.540629118384841, 4.286636943275122, -6.5129682241617814, 6.617956986883151, 3.6347048093854006, 3.4121531942452847, -2.386643126339454, 1.5141165097046319, -6.227561430172144, -5.402431016406146, 1.7847408275599346, -7.247024265781752, 4.091716004608974, 0.826500724445868, 5.241485284484712, 5.497792280304584, 1.237583874002139, 8.627309124878877, -9.662827769142643, -3.7951694372385543, 8.185091307226493, 9.741089408649547, -4.725495444639023, -5.432299021303242, 9.165657947125453, 8.345793908216482, -4.690495232372312, -1.7601989021104263, 7.188292351348647, -9.05459898525942, 1.0131513292035894, 8.557812208464313, -3.642138208614969, -8.854601612415255, -5.918560158722908, 3.490539832411452, 3.8392376437102307, -1.877861512517816, -9.413679713697892, 7.104009401340612, -3.273485267558085, 8.669959713565419, -6.795902845847803, 1.1348817635091475, -7.446142227358812, 4.090295634378901, -2.1599375287443774, 6.8304558217577345, -5.832614213988032, 7.046152275701921, -1.5723346726148577, -5.7246422969045625, 5.529406213923526, -2.4197119618058194, -0.3932923578044303, -8.846416847659274, -9.525830989725428, -7.164586060372078, 3.880864155857534, 1.3724797989976238, -4.779572235548222, 4.892509531891216, 3.04015843339368, -7.435038052559446, -6.931345070532733, -1.1870049055278908, -4.350505823556466, 3.7927881753739907, -8.967565962205661, -1.8360636248075544, 4.705076588867364, -4.1412570118945125, -5.693437812700108, 0.150124638316953, 0.8596509154259309, -4.233390165613676, 8.11451132455024, 2.8463989111074266, -4.688276642026949, -8.04204330984385, -6.083258523689601, 5.195008346732115, 1.0301898517816284, -1.3597505972263058, -2.202769662203579, 3.7380693777748757, 0.7291915903929684, 9.782364072504478, -7.445655052679099, -6.3334486255605, -2.2118063644126984, -2.5305682528241347, 6.895681758708914, -2.709575330075735, 9.246466880677488, 8.090066844724845, 0.5640843377740836, 2.0598905856566763, 7.377786222479166, -3.5060048999074684, 7.3042400232820235, -2.483794096677247, -8.637454957392043, -8.870157778763598, 7.773269301918386, 6.230225297863473, -0.1914360585037489, -2.994880997799754, -3.43314445835931, -1.5445081821184736, -5.379125121999763, 8.097052459750962, -5.176693153888461, 2.6112157665752527, 3.778629270203769, -2.557531904423687, -0.19490683777059203, -3.1733590113112475, -5.164031124476898, -6.109721234660485, -4.102720878860813, 6.306900907376868, 6.72624453889069, -6.513648239144598, -6.531637034300754, 3.5641551317201063, 6.318128590502546, 7.823861113434305, 7.556927877417799, -5.836103221713939, 4.9331237780433845, 1.8906586116082167, -6.598795285953978, 9.322476676445817, -7.83584602962015, 5.55531563634454, -5.811398465819599, -6.017389223907359, -1.314401627635128, -6.7409329763629415, -4.075218678723999, -1.7821115169019492, 1.0842881621477858, 4.807301547286393, 9.856433868290544, 7.541450946540053, -5.631769066244305, 7.781759339744916, 5.1307938241792606, 8.907595399420757, -7.385925522163941, -7.102865061282044, 2.5679119128898, -9.125783309029064, -6.851987473755954, 7.004001375002783, 3.0240298669722314, -2.493022189783032, -8.368044213189007, -6.226755293265354, 1.2419991411947358, -7.061642441594493, -8.989360606105265, -0.6936283364690006, -2.8902659307781597, -4.070232810330108, -4.345117918664625, 2.47682332481822, 2.4155579747435745, -4.862852671232529, 8.542999252505307, 9.45058800032962, -9.391645823755102, 9.663073374622225, -0.4244633036704428, -3.1902192625603405, 6.986997605999939, 0.5529284624729911, -0.44876272958808094, 1.502713012879763, 0.1808188851475112, 2.660573883337902, -3.0142797854166403, 6.06327374830169, 0.7860475847639101, 0.7784398268923791, -2.9341065864836207, -4.249213535327385, -7.735278844481868, 6.4410471752319225, -4.818335908922542, 9.212560935111128, -6.539586195959255, -5.724095610279633, 1.1323428429799076, -1.5348988246185247, -8.92789107845311, -5.776226417971094, -3.1930418598701777, 7.818942227613729, -9.823499480633265, 0.7885165696182757, 8.592445211871677, -9.445165709632828, -7.813754361634069, 2.5968611029787247, -9.598823849808994, -3.3554897871899136, -5.266465515066132, -6.973870629785319, -5.447682642430416, -7.501046841478269, -0.8838414292040504, -6.326003536760847, 3.7776898658083837, -3.77015387711568, 5.0481769288170035, 9.178066562859986, -9.285977794338331, 2.963835910375492, 3.4283559436649096, -8.98995100358327, -4.0542803625844615, -0.748213364091237, 0.6555988425433679, -0.2585887541601828, -3.5058364272834, -9.678215353812076, -1.5122422890240763, -7.156616635366828, 0.9693781368178467, 4.625163128807319, 0.8084919686536924, 4.076759111941035, 6.3245474539070905, 2.239667345566607, -1.7396456242894782, -0.17229066912675606, -4.479697318030547, -4.641296669551515, 5.675169793790918, 8.286970395582568, 1.1512538106402364, 4.570298865679845, 6.032536355181236, -1.835515815979356, -0.8034870863166272, 5.072788332138414, 2.7376495839857675, 5.333727155938167, -5.515190790450555, 3.1222238835362184, -3.32668539678118, -4.951181761209906, 0.7230984507611247, -9.549117852616071, 0.5175050117658273, -3.3601145899813956, -8.344226417755687, -5.56409384258105, -0.6494679211666607, 7.71017219964396, -0.7308508712733168, -5.396038984469877, 3.6241552770479224, -7.136804395596195, 9.63102405875538, 0.3134465661107235, 4.561324044365563, -1.4915837750890297, -0.40948369964855225, -0.9881954995495903, -3.9586477576762054, 1.5136438620438053, -8.749305722035192, -9.874503757857747, 7.928227600109253, 2.684076525206031, 0.9497761605981392, -8.404607858540768, -7.787893321024015, 1.242349910524947, 1.9301119526904902, 5.534295190546485, 2.053961219781609, 5.020565842502787, 5.361939995101956, 6.118436026808919, -3.9989060313637896, -9.945076053606074, 1.86001360712096, -4.4127729742567485, 4.916757985043157, -3.700573868932131, 9.57146129579495, 8.598201086518387, -3.1709869738297636, 2.4518827827492657, -8.024994926432573, -7.761621724788537, -6.624856447878001, -5.346644833146366, 7.9573693943452675, 5.263460648304562, -6.2935138580599865, 8.089916770204312, 5.988509219364309, -1.1450059622103907, 7.183885789048588, -8.930941431407309, 2.751870125598737, -0.13776120386578583, 3.5771770415426385, 9.718099374763646, 7.840243066953956, -4.444928149424181, 5.200836370599882, -5.422830361082274, -0.7518014573496412, 7.21995548464351, -9.127251367567947, -5.903832010601191, -2.6076287917750047, -5.5054054541022035, 3.7100361706963128, 5.693856256935723, 4.847069509562322, 2.9770480748146273, -7.197353228475743, -6.332581333044307, 7.421477290521132, 5.300011151644483, 6.858610481500744, 6.156601245925774, 8.969010917019911, 4.575615506759663, 3.441316337635845, -8.687029067968862, -0.46983552638397263, -8.286288417443641, 3.276566188143054, 2.0618539541123297, -0.3544870966828775, 0.9132146118320286, -6.971447172988876, 1.70868269584523, -9.446705800474476, 5.960664253405438, -1.9091695866281242, 9.416034013588536, -7.728006073714317, -9.116489521128774, 9.428747187022093, 3.735358318668789, -6.350927572252106, -8.312112853172817, -2.978071612770183, 3.5059346629997474, -8.41658084539297, 0.5334542759253846, 3.0199968094735947, -9.778326258239156, -4.163618118600104, -0.9442838502259967, 7.170112816918959, -6.96820716424249, 3.4935418030025147, -7.5630411015534005, 7.594995509159546, -9.128545047994319, 4.333479928179022, -1.794501596662883, 7.459807251011881, -5.433954760232556, -4.647662424998041, 4.7538963224566295, 7.613762028196032, -5.087310437354251, -9.748044658650226, -8.425006955742715, -4.61408237093317, -7.2339543315451245, -7.692327002800452, -4.2338718950885745, 0.09219813551839273, -0.11016001006881027, 4.599484048983127, 0.20404083996868216, 8.016057071178931, 6.483238522347385, -6.484327068366433, -0.007596906509508727, 3.546137339616685, -3.229556000839258, -5.380667233709364, 7.708061507522171, 9.970913033762972, 1.1335664862332315, -3.6351373854174662, 0.6530728659765828, -2.1590304754525764, -1.235584392000991, 6.332206343599928, -8.496770287569177, -8.634167972535403, -2.7856214471442042, 8.390845421420195, -4.12934200318591, 6.7303591850140485, -4.149278790203619, 6.237866682666148, -0.284473886015995, 2.2594607446631176, 9.122940912849526, -4.950988443739428, -8.534644979549448, 8.807766642571405, -7.127132197995351, 7.981530485554874, 2.1032745937280612, -9.412524898911807, 5.636148125668086, -7.8625078400755655, -1.1337190540648443, -2.6442287050751734, 2.0239848292340508, 7.196331130314185, 0.268779757218482, 8.168315918765305, 5.843614518922134, 0.9218335524506323, -4.95393635898062, 0.20858065736801734, 1.4212045448151045, -0.37929188139387904, 9.636972474142958, 6.581155649104836, -7.303588484308761, 7.64527024043289, 9.961710585529598, -7.210235398347646, 5.6533308902599995, -4.749778707690702, 0.5178890381914556, -0.7344261596529833, -4.612908161311098, 4.889096171235652, 3.864046895741808, -7.47589102781677, 3.687702229649828, 6.739752693057454, -9.386435879506754, -1.0257817991835019, 4.908076765776851, -3.3435183756485536, -9.023163501827858, 9.35095745019495, -3.5334061384156445, -1.8120729213918185, -9.777707028975161, 6.98441082924052, 9.839231358725982, 2.304583085430309, -4.352578300530983, -9.508619773492695, -6.3078043105852055, 1.4460175540588072, 9.821914741527578, 0.2665302749097691, -6.469823000223305, -3.0386768586519564, 5.005459738831842, 0.24175789244637969, 0.7708696443702774, -4.662103011519934, -1.2422768879136488, 7.107328705085418, -1.1212874464986466, 2.0549722200879685, 9.842427782769764, 8.53597022024194, -6.524366095134777, 4.593425154634614, 7.938903898022968, 5.6018475746337675, -8.814230408974975, 5.686015371039394, 1.4983630659118852, -5.407435725767469, -1.2863461579663316, 1.093057618926423, -0.7057199317806173, 6.167524522497267, -0.9109161830023975, -3.317242634215562, -4.551654176493831, -5.505982324889347, 4.341757639928147, -5.789801709291935, 1.5295031252072349, 5.758074278848673, 6.214370955839371, 0.7511730359489235, 2.7401118528572237, -8.515249984965996, -9.589942041669786, -9.270757551131974, -5.7346946247065445, 6.145079720910026, 4.868976827746083, 2.73814948874697, 3.7518636788495243, -4.042990326574221, 2.294872443366403, -6.693749406900771, -9.219067924948538, 1.9913929705496187, 5.733110033423856, -3.9802041366752183, 5.360107134322368, -5.889558267495083, 0.30220968815758553, -1.7980938127264814, 5.855685841896518, -4.535753052502248, -9.514582617951179, 8.645487277913375, 9.832784789120431, 9.959723521788696, 0.7792391369045877, -6.103641335860601, -6.3754869765322875, -8.992128962356079, 4.553145434432743, -2.9280970411910907, -7.140871012575063, 4.0277095717012035, 6.303190134551368, -0.19813194009948987, -5.748196824187211, -3.3118700178453526, -7.819977193299148, -8.108737887763935, -6.440244740788508, 8.237905641395827, -2.073837518576889, 7.8444790410016765, 0.18566013634969458, 5.710952304308874, -6.528541547866884, 9.13481876651214, 2.6437872624034586, 1.9106140815073651, -1.089433962102726, 8.3729640875327, -7.891247173154364, -4.365804209780418, -2.1234303085281603, 8.651849938583716, -2.5334615731913646, 8.175166028419998, 8.287668803634961, -4.379623069043081, 3.247039023242939, 6.380951114145358, 0.5629704327247751, -5.291822819004894, 0.38505616453301883, 3.9080717268531817, 0.21835411805319183, 4.739991039632862, -9.498849527472842, 9.465257711166707, -4.228153956571772, 2.8240221771984615, -1.3188040364671387, 7.40788673079075, 1.0080521117705548, -1.0079473585362457, 4.972463027517195, 4.783635582857848, 7.414138534748965, -1.5567967585439018, -9.074072562361387, -2.9593600341106168, -2.5461923234978396, -0.8730251293265106, 4.24317033839168, -1.9916106453957223, 3.361786159144426, 5.928108489079431, -0.29761479704999516, -7.44185565797431, 1.025217620613983, 5.9741556487857395, 2.8043167423878916, -0.7508404885626891, 5.879356995647383, -6.889450868319063, 1.7733537085189788, -1.3207190491119203, -4.747488929706392, -7.323823525608053, 0.03798209003624642, -0.6554435483393171, -5.204161922240045, -6.5038986542625565, 0.775779065619961, 5.54195110476606, 3.8396999127035265, -0.5747480571095842, 2.3404793798193495, 8.395227524014395, -7.895117687756946, -4.541558046355387, -0.704049380654137, -4.83763492011361, -4.291239661123971, 9.741012411543746, -6.697015119690577, 9.01907387629549, 9.504859544367648, -9.157564493386474, -4.4706700699104545, 1.959900663528975, -7.077947030268628, -2.755512941159301, 3.976202507056847, 1.2592301708606648, 1.3243891264764471, 7.831095492948126, 3.543857919811572, 0.018514529289252124, 6.927657583085118, 8.140015815567907, 6.295916417503523, -2.005330191561658, 0.187425365770153, -7.854974530401824, 9.15735515339405, 2.5289584825473916, 4.4124974322630095, 3.3193767622553985, -5.511700586059094, -9.178951730835287, 5.109631569755745, -7.273118173834439, -0.8533179851963197, -3.6215454973723427, -1.8285520925552348, 7.602452611779352, -9.990737126764955, 2.4123451623985375, -3.239691545942871, 4.238477186993384, -0.15423587738919942, 8.074202097794512, 9.349968498808735, 8.783774202376126, -8.505997599684996, -7.34914260462558, 0.5737580618655471, 8.50288244746918, 9.7276735730653, 9.564538880479702, 1.456999582539602, -5.309571391914874, 6.536012510404703, 1.047753340287791, -9.10378146810698, 2.9591635181890616, 2.2356336606589977, 7.5832058232180835, -0.2693105251217105, -4.162264409979894], "biases_list": [7.436923645465587, 8.441650771662449, -4.964165360692787, -0.525892340808813, -0.3994529852581312, -5.957282253380731, 3.3583019498831383, -7.21850261644623, -1.1442553839763097, 0.1725582674838737, -6.051244807842955, -2.0782380218289713, -7.066739236586923, -2.713846620554195, -8.2865060597744, -2.8725558507806763, -1.857921666632155, 6.27258950816535, 7.820940350864763, 3.6104869238223607, -7.92828213431418, 7.9861081926638775, -3.191777640845091, -9.906896869883274, 4.519762542551188, -5.582543287953749, 0.9304160748719692, 6.046326806564252, 1.5398420004181332, -1.2702744091438731, -7.15051581094605, 7.544598711205438, -5.599547520112578, 9.042811882853364, -8.50628028205369, 5.121385802697308], "shape": [27, 16, 16, 4]}, {"weight_list": [-4.438152488955254, -6.784252331548859, 3.4226398675077814, -6.277135972008856, 3.825730367885935, 5.041675594292219, -7.331872180368528, -5.667926717671903, 3.0437682683908065, -5.091909867407987, -5.515797451984577, -5.92458739240983, -1.9603458571150973, -6.056286981260031, 6.4854265813147585, 3.499233820659537, -9.81632741845089, 1.027242485689019, 2.4841920358516525, 1.085053527150471, 5.001933126518168, -8.41294427833309, -1.5829555460598055, 0.8181216210327147, 8.478390414337472, 4.781728189487492, 6.214678047072983, -6.421417795551565, 4.847936229972088, 7.321803569312909, -8.435090438068054, 2.174307555474721, -2.0141171191779916, 5.766348574837929, 3.1922130505901656, 7.170990870920029, -3.6520612259690584, 0.35561374804610324, 8.82388775275253, -6.651158787425597, 3.9803147695151697, -4.860445175476505, 6.703432383388623, -4.774203599164881, 1.9516961522068872, -1.8515063111690377, -0.3593844305962879, -8.244328251460251, -3.1432344827050684, -7.271306901521887, 5.399806068452762, 3.888281521889658, -9.105630629861318, -6.148145119097467, 5.9306820015814985, 9.246526589189909, 2.4615711441026598, -3.5852253287767155, -7.1451523072767475, 8.85899954843407, -6.7727269230509375, 3.0672670784090386, -6.751815629843209, -9.267639623102246, -4.269654233564646, -3.9642749452083574, 6.263574080177293, -9.771775932917947, 9.523903804240192, 3.4039196294872465, -9.243996738486366, -5.998725977216697, -2.0621700417121698, -8.224954526673924, 7.701654954769349, 6.504781027125784, -6.926691843816338, -4.765314405088931, -8.906865693639697, 4.035512487827136, 9.951546715684753, 1.707430203470448, 4.860566095419351, -7.445020966875411, -0.5882039247729072, 5.300292278827294, 6.463422000452571, -4.496058899866611, -1.6776669909338349, -0.5199780267752292, 6.305006952389178, 5.326193874134368, 1.2211573501309871, 1.3979869472730755, -0.015301872679874151, -2.4925321887540086, 9.202958926072455, -8.19741802701903, 9.847819120921027, 0.08345847504582338, 5.617211675270543, 8.404209035289224, -8.647837989638926, 7.478849411859851, -1.7083876477332254, -5.614786758366694, 7.95051538680444, -2.7612544911841947, -9.18244926822124, -0.8446453640828793, -2.043129451563215, -8.502743313937586, -9.295558603835781, -0.05095899798944714, 7.873653085395308, -7.644228420855015, -4.02472091817605, -7.246520075399639, 4.545276241627796, 6.217254287280888, 0.3588336152170477, -2.9378043498379647, 7.1752977223134025, -7.687210422383998, 7.514435628486908, 2.8973088026662097, -1.8389551373231185, 4.7020525654356184, -9.027608934602204, -0.6178263929697785, -9.074626522028906, -0.9994290571756821, -7.354439393332459, 1.3319988532912284, 9.99617236599829, -4.753722255367645, -6.889616349252803, 9.070568641143709, -6.250227173078908, -7.566259516507996, 7.8655019018072565, -8.385261775584436, 7.575239043072401, 2.65543721039192, -2.7031856704686463, -4.286004050216561, -3.4682753125574166, -2.8578605130844643, -9.902086195711853, 1.9765565528930367, -1.0482551848352255, -2.006083071623477, -5.300862997444902, -3.581775904121109, -7.7059812906774265, -4.898525913157901, -7.40180232262907, -3.174535925634898, 2.8762700194585005, 3.3980689638084662, 8.935308009792717, -0.23462423087101492, -6.663942406561178, 4.619708532595112, 5.3373081614105296, -5.076475232755035, 1.1053700542274711, -2.9327786808877327, -9.453253705497968, 3.404767836696344, -3.561738964984011, -7.054975657239229, 9.687855784158867, -7.607290806304768, 8.353628052085522, 9.135364747056048, 7.694440224166492, 2.3373807587030733, 4.946590438867348, -7.799458878004943, -9.95559320236077, -1.7418686868610074, -6.750005387166295, -3.2800964698811974, 5.688301310471305, -8.079907428782732, 2.169240273937959, 0.8687612668329887, -7.71246828810189, -5.527280123545843, 2.1355406320428916, -6.846920284384154, 4.52541938307715, 2.7624299833245765, -4.573570640440867, 2.8520294015241383, 3.7201631616482267, 7.537543213588137, 5.401189177781777, -9.386151815504224, -9.899151638743223, -3.9710659766041, 3.588943919622098, -7.321255644502084, -2.1215446003253184, -4.4909648665246715, 4.247273568878844, 0.1292609380190246, -9.78335487210094, 9.035362517766004, -9.847776890890199, 4.160151793041848, -7.634556621756035, 2.4863349350404977, -0.4663781601022663, 0.2919085868770708, -1.9523759579088633, -4.329691097986732, -9.49626890993725, -3.2699673675686665, 5.9445584595324, 5.669952696801598, -5.818704452448607, 2.5123951815188796, -0.22137623941267215, 0.14529637498416648, 1.3311429311633187, -1.0195598915386022, -9.950714087278108, 1.3177058008793026, -2.3682406553146578, 9.78325197945787, 2.317218656891395, -0.10605424865880408, 6.086998276363278, -0.8078433930149931, -1.2281957153525447, 2.8139165191487407, -6.400836200263158, -4.299491596334413, -8.383924017053008, 8.232611873094523, -2.546773313415251, 4.069803095177896, -2.3612238262824565, -5.689344308193758, 2.5472717024654905, 1.2715937239032566, 1.9847415751497053, -8.256848086075266, 6.6521847492671, 0.21065101572626155, 7.3454537363818275, 2.7701760047402306, 3.8511320058331826, -2.83340236351245, -2.6394236867935668, 1.0841282651972364, -4.652222356990197, -8.86391637505336, -6.215099680323124, -9.683212445895249, 6.014519078092611, 7.14476269410639, 7.511746452076039, -2.2876835382963723, 9.546724473118793, -6.788398432823753, 9.686089589139272, 3.874955234841348, 0.6997800713743079, -9.488703044623241, -4.911608064860564, 4.762632407996822, -8.054517078227017, 6.908402968328215, -5.813782897701698, 5.900023802733635, 2.9360231525133464, 0.6388044697660007, 1.462005694411559, -3.259565830604199, -1.2487032646568874, 5.567191734962204, -7.405646917463214, 0.9685542069714899, 2.6866250131999685, -9.19767670998029, 0.6131475127272665, -0.4047600715248727, -9.003057160893848, -2.609104951459593, -4.080197397920453, 8.781671782234287, -1.3222142118836935, -4.6956356019383545, 0.6248051427605681, -0.21597361902281875, 6.64221833694975, 3.7635652003328275, 4.054784271193263, -3.9372656522494243, -6.348866658023784, -5.379806148792965, 3.4244584161873135, -4.064357959565397, -7.616133824346902, 8.916849704988838, 5.4024623090385155, 4.337490985674659, -4.223307054483021, -2.9710918511047097, -2.217906506284262, -7.83295009952043, 8.930709802885538, 6.583335248871883, 7.978129638727829, 5.600857401291414, 1.1521586645149178, -0.057987589205950485, 6.566062182158831, -1.915149856416562, -0.5023372341766645, -3.3236748993914595, -6.421355748129081, -9.049454331701387, -3.5665122947868744, 8.943488692529247, -0.4474882111176761, 4.03925518422829, 4.289347886053218, 7.053350814844215, 4.599558910072732, -1.4171842963026275, 5.1187055809281325, 6.30429474287557, -5.787339171034336, -3.6189093823593392, -9.05139647965729, -9.494529841940487, -3.061591688599796, -1.9570849989470922, 1.0499970795015408, 0.25578716248231537, 2.863773071876425, 8.678989435634143, 5.983313408092176, 2.0796073554527954, 9.00637734300711, -5.712251535576767, 9.816980159915843, 8.722848713760442, 7.8695875403588325, -9.204985990907106, 8.492890835741296, -4.226591728898796, 4.718216927556222, -4.067122183710882, -0.9308762878893688, -7.018368853057169, -7.4404075615600735, 9.32149419010415, -0.630496512420839, 3.192862461931263, 8.996179351627926, -0.07691508444472817, -8.869658022848677, 7.292178983065121, -0.8699154260218567, 6.265749144646886, 9.79419533178465, 8.151932083387493, -3.5523503030783026, 5.465694139224153, 1.4431261308135959, 8.340379439334416, 1.3045250185978308, 3.8376168180990398, -8.370990200716232, 2.8287947162155707, -8.731798812250666, 2.5708699865828972, -0.36701159430672803, -4.115815995392358, -6.081814749496051, -4.949083148679094, -8.872132039150685, -6.8954244363992405, -6.6354883752177845, -4.0575094332018224, 1.7530003392508497, 4.786863736408497, -1.542169656463308, 8.24563584772768, 9.739403097004718, -9.388360683377075, -8.166314574486611, -1.9563243047127017, -8.489506778887883, -5.849893188122042, 0.7977065028154193, -4.691086405308777, -2.016434902247692, -7.240425907669676, -8.439757575047608, -5.557390311728556, -2.6520869373236415, 8.770851811369827, -8.275738979627526, 7.939593981193568, 5.39665224479627, 1.9154989120769486, 0.9247531713127941, -5.351729060488431, -2.540205093741605, 5.248689058668825, -7.790135284745419, 7.789790467824261, -4.892049414550477, 9.238007465140395, -2.0312318152192033, 2.4618973829704736, -1.6352744641600143, -5.78583622401484, -2.626134194163823, -4.76359137592647, 2.2375217767672932, -2.2979012704609048, 3.7720030647011207, 4.802897981142912, 4.615449193843624, 7.5692443689346725, 2.208581244108231, -2.6517764450005394, 7.666592178822405, 8.186422250799147, 8.903649431122933, -3.561741801215092, -9.420791383339456, -9.178514644415438, -9.5980935941712, 0.6202724821243617, 8.95567959850418, 3.5637767615127647, 8.86374139579306, 9.962614831792141, -3.4818095725284, -6.131265290203649, -8.916385238292976, 3.7226116338079063, -8.445025247983299, 2.0762347052087637, -6.235917428790607, -8.042904188163796, -9.248911843996384, -5.875801796656715, 8.474025498076962, 0.9591373636379963, -6.839887423873467, -0.369551031005086, -6.923443611337121, 7.111978321668296, 9.394130491466562, -5.16622786101502, -1.5443853216613963, 5.475546476584503, 4.7269084123114276, 5.995484595718384, 9.45985402200704, -4.901938260890448, -4.238338446363324, -5.591454210231466, -0.5517344200554071, 1.8257953409419265, 7.768852130017393, -5.128179404862792, 9.71013983162273, 9.48454618438906, -3.865119238436936, -4.951818721393241, -2.8776499461027, -4.372499306616502, -0.17949459455322447, -0.5485363190393233, -4.689557136439961, -5.325261877581631, -4.611987616546404, -3.8041828452614386, 6.354708930549428, 1.6122259439420112, -1.1209051140310464, 6.217995589967259, 4.370063130649463, 3.599178132144001, 1.8447711489666592, -4.469442519414189, -5.114494542835148, -2.1065979616489123, 3.98955102883707, 4.4290310482540285, 4.59300961480597, -6.999752218841097, 4.184303293778427, 7.45892142795449, -7.178991110321529, 5.424586388013935, -4.884469118946209, 1.001909456108283, -3.820832052876715, 6.686279836694585, 3.925128574310701, -9.818352366514787, -7.1853645054528625, -4.42535399630226, 2.7681999031853977, 4.60795286446989, -0.6296508802473504, -6.004366264876038, 4.428633637186943, 2.805300414427638, -3.5154399580588365, 3.0061159099322925, 4.23184304514548, -2.148611527733606, -0.10947433828888364, 3.7176096787070207, 1.0468370119902914, -4.034555669165956, 8.98678250587713, 4.452607521331085, 6.003547578765097, 0.6801080512488653, -0.6867806363380105, 7.969064764858484, 2.593751136344075, 9.21170629453757, -4.809368336231579, 9.052533731712295, -5.579976157147053, 6.202828489235991, -0.06218141473540939, 8.163619419704851, 3.555601299532558, 3.995228510887774, -6.3623265447540955, -9.603839990118972, 2.6911162815098884, -3.4932813499776216, -3.4779700372025335, -6.171527919944908, -1.656019409701459, -5.544558233571946, -9.16290313266212, 5.988028756822983, -2.928966044099168, -5.935524469050161, -9.28986098988192, 8.962649036750598, 7.29987178436658, -5.879288308865968, 3.094426692560157, -3.898447605788437, -3.4516181030523256, 7.1822060485322154, -8.333982916162759, 8.674436014812379, 8.082600357858418, -8.524937588208605, -9.463187001528299, 6.721405029314724, -3.2062946176528744, -4.943875803041935, -1.2192846540926325, 9.74028428483052, 7.993059161354278, -6.7626516249653275, -1.146432357211804, -7.796394616391737, 5.906213690101003, -0.8500534249863652, 6.830120266511969, -0.5789479775317545, 1.1447842106310304, -5.174978603531429, 0.24655585785253287, 3.7454023330864477, -5.867833898711052, -6.978945040635896, 1.3167303312360072, -0.15336394949176935, -3.696442914720839, 4.874753059462405, -0.04976279104149661, -8.290816071380146, -6.21025898911298, -9.150986589154018, -2.076515492992936, 5.5330602334820345, -7.223560096618229, -4.0068301528097106, -2.702721719069112, 5.790809650073303, -7.101451443721755, 4.03973932287931, 7.719175037814239, -6.357500755186242, 5.096226145267369, -6.814503786333184, 8.314282930100742, -7.376878957875772, -6.390381906168006, 7.591500978167208, 9.18393617159743, -7.503547323967405, -1.2211536939187617, 3.6329236945152914, 3.94359365444852, 0.6736546417335614, -7.828710064290043, -3.522107478536059, 9.360248226545632, -0.01892557238361192, 1.4937923461597364, 2.1395741656455147, 4.997530532725985, -3.98803642643363, 2.5510874022958454, 9.031751773950393, -9.011140129252766, -6.322438380752464, 0.5094068586518823, 8.68981995435184, -5.134761166802151, 3.760128899462863, 6.15283455246297, 4.772532867282287, -2.5561681175529554, 2.674750103455727, 2.598867067008989, 0.07029284518869083, 0.2951341418692177, -9.347362045119912, 1.2721582579317037, 3.6066167462877523, 1.6972535498651915, -7.296736559159549, -2.7529129123383766, -5.5047128334325235, -6.0819367756362315, -5.699599675899282, 3.4564519519596697, -9.999050791845342, -3.821266091557513, 6.795211257548402, -8.127436805908124, -3.9406156482307324, 5.875359607339924, 6.608723627486995, -9.790055429981967, -9.483688097802697, -9.856288308350258, 0.22003112029470628, 8.98874484890423, 4.862315467331369, 9.095936691551188, 4.451502366344274, 5.49591278360333, 3.977595705122866, -9.772619137038486, 4.313563767165572, -1.2105403537410364, -7.267905766975615, 5.002333093469844, -1.0712401508198415, -1.8356977845543057, -1.5140137147414663, -9.597447721441355, -6.459074372373306, -6.878954816645166, 8.115850046174238, 7.695264833343707, -5.753369755304057, -3.9059804173311115, 0.6032245904778435, -4.673183648954673, 5.967060013641582, 7.673141841574761, -9.995778530696654, 6.365266816993373, 9.56631740445771, -9.507251582544548, 3.073768168495148, 9.096282058011138, 3.535682068750985, -8.508918310538256, 3.2738445661888633, 1.2076211660860814, 2.405732602070266, 0.4257631185372741, 9.126008963226287, 7.28633787186509, -2.8013657893382753, 3.8625725202024057, 5.6716032528416385, 7.810138605898086, -4.9374777840665995, -1.9799866434590836, -6.830991313697334, 1.716503294691469, 5.599054744780233, -5.12731016253865, 9.69323952420374, 2.661138641001809, -8.57455468220649, -3.774541096154687, -8.381128929103427, 2.982639095964865, 0.5235401846896153, -8.430160005634459, -0.6663808013375156, -6.713005661816382, -5.110075100777811, 4.58846353699974, -2.8098115673046875, 9.244650434789975, 1.0773553456121334, -4.272134979062878, -3.6009623502860855, 0.6212128648916053, 8.013983934093194, -7.148134890945281, 0.015170193325735326, 9.174839335488294, -7.6004413008685585, 5.615319443157263, 3.270733252167952, 0.4883914914349532, 0.8397001905878003, -7.732650032428488, 1.7688590408651876, 0.9047745997768359, -3.7852297635044625, -7.843313428709404, 3.411749929043424, 3.8314064094806692, 9.877156804839199, 2.89086019341015, 7.464185201529453, -9.635800641756484, -3.3302094754092915, 6.4362243344955345, 8.649737476958734], "biases_list": [7.425737208417445, 0.14489662900152567, -5.331090804820084, 9.611446421826372, -0.8643312158112, 7.555675422676888, -3.028802429953126, -0.7892502403521071, -9.343677772947704, -8.058756559195206, 8.88751666606747, 0.12906285845402365, 4.532422401038332, 4.67899247888699, -7.245172625671083, 6.45943807923674, 5.120901908460976, 5.447918304102528, -8.550724818626348, -4.060108254613679, -9.746748247004867, -0.5879756400533971, -2.8865886777310035, 3.417436482795333, -0.4345172458492019, -9.284561789121625, -4.428033764890009, -7.385167753549813, -7.356553538832715, 6.497349813325744, -5.103971717384111, -1.2440681333170307, -6.2265331498211545, 7.919330798103093, -3.090794498636744, 5.075778426758223], "shape": [27, 16, 16, 4]}, {"weight_list": [8.717649249493824, -9.756837834520343, -5.001332645144019, 8.968449440134457, -1.9229471639001225, -4.691472421409042, 9.717272374571031, -0.608742615358441, 1.3917734243457254, -2.9469864892471476, -2.3339768574680804, -3.598579964507289, -1.0601030739153785, 8.76161467334186, -5.3151132778946275, 8.5608486417571, 0.03909515220326121, 5.646705384505976, 0.06004363529384271, -7.839055767994363, 4.563836642550784, -4.85016179435771, 5.596699519890668, -8.454368932176504, 9.925252118311882, 2.4321034198014324, 0.9743225241163813, 4.354633088961741, -8.90783957960319, 3.0660139351287725, -0.2561040886060013, -8.931526252580786, -0.6561484276027745, -7.478869564778375, -9.958432401473257, -3.9055833089322167, -7.443875771414965, 5.615960734329008, -2.5475923287631286, 2.5400399360499915, -2.7398550252217184, -4.39119390448684, -9.380371166241183, 4.429061225558941, -2.4963800506421947, -0.3104943196632952, -4.5818159825458915, 9.395719013455736, 2.606712568870151, -5.31961700205567, 2.8773082327250314, 1.4688338947728958, -7.814284157543097, 8.664435625379667, -1.6408013222268547, -6.657742241814811, 7.37992889553508, -3.297193912511278, -0.2748741985862946, -3.2822154027019534, 1.0767046523186572, -3.9596344896806617, -0.5914235546309605, 9.232163518667743, -0.9031440952591083, -1.394180308862989, -9.892921285816655, 2.6014123861676897, -4.852809636450733, -3.2538544693234, 0.11364930432752374, -0.5994204444414599, -7.523875312140309, -9.394517710785932, -0.8319979063775289, 2.159662355459151, 4.5295231688617115, -6.450423570136719, 6.0944487343213325, 5.064445685734846, -0.9770429946018471, 4.399161814557868, 0.3658571328356892, 9.695051833146032, -9.487359008206775, 6.50711476790903, 5.449701863410468, 4.010017003677964, 1.2935936557024519, -2.9866971111494696, 2.253373098215775, -1.3830842738175004, 5.086765416749836, -5.939789527697381, 2.9230526925480973, -4.034474428762214, -3.7685453907616413, 3.023956024255341, -3.991750057312018, 2.710557168390652, -3.150729587551682, 5.319167880591971, -8.904153479988342, -6.992051148934905, -7.6310169155665, 2.9798563434861602, -6.928887420986758, 6.348160597495994, -2.578962327401846, -2.208099993615747, 8.179101315842672, -0.10123903982769633, -5.64599992968247, -2.677691104121518, 8.477531232943196, 5.666358042948552, 7.24708898635933, -7.719734469369803, -3.7587529955922028, -2.695059842947982, 6.241499063132771, -2.930150150790835, 4.958231407180929, -0.8970179412738268, 0.5738853311019998, -2.3646554860437474, 3.2305633110780363, -5.753033781180024, 3.6381553199121885, -9.100226132690604, 0.9014869562827137, 5.243106515663232, 9.706927259462457, 9.861409312396937, -3.8835278606229684, 6.149928327242058, 2.17044662721878, 7.618451585211201, 8.455482089675389, -0.190137102938694, 4.938032928277792, 7.209311927216817, -0.41323382672609554, 8.711438057879231, -9.615783451844159, 3.2208100562799977, -8.546798909468006, -8.592059031239089, -6.38272312425002, 3.3222645688561627, -5.77575315709357, -5.616059818807906, -1.3722218357523541, 1.531981664149244, 8.012295036238957, 3.4728733449343494, 7.951624375340437, 6.354196720478608, 7.830521415679637, 7.812131247204846, -5.311796131554834, 1.729581004756934, -7.6174768495435945, -2.924608180496799, 4.242940899007056, 9.069484843626924, -1.8815766378165684, -9.417254721684849, 0.06534350550455592, -8.191356132009457, 6.733087566522819, -7.436771985606554, 1.2499689369524845, 8.246758976826499, -1.5364188418268139, 7.295304543318167, 6.166794657588188, 9.76492402466998, -1.3055011553087308, 1.1009107693426667, 0.013486457623050896, -4.20423805527586, -4.184142938343123, 7.9638454059967, 4.934127726837019, 5.121713810720355, 2.448000743392736, -7.290803390768907, 6.447290871390585, 8.988630932249805, 8.520182771583684, 9.014390915157946, -9.747758260305519, -0.0664913745237996, -3.757848894608653, 9.536832434235944, -5.564827377245523, 8.765183324604248, 3.7363624792053614, -4.919379038679324, -8.929642574186689, -6.263915719841416, -2.8671475163835787, 8.76267265893458, -2.0073382581372172, -5.767418920349153, 2.601570221357555, -6.833021763235411, 6.174032250912401, 2.5641189967232076, 7.713784964684471, 8.049550830968315, -7.728624954954424, -5.946727463629777, 6.941637330823575, -3.26448224637687, -6.567826995439868, -2.644568898376926, 5.466442833165582, 8.123763006528076, 7.388518377641869, -5.681563165156764, -1.3547593182079432, -6.802682901784309, -7.719225074328264, -6.601818939940318, 2.2222490221423534, 3.483793694470334, 7.599779864736476, -2.791544821532776, 8.438603380731497, -5.438190508864837, 9.416398333282672, -5.5707105248912665, -2.2543819349086514, 9.354335355910482, 5.136592257759485, 2.5241201661392694, -5.245476762903831, 5.981953336904995, 2.083025745502894, 7.785679441018118, 5.050772729639901, 3.4489303188504934, 0.29035527348432133, 7.559299986331098, -1.2446481169261503, -2.1468146926755116, -8.202238096219848, 4.254213247892192, -7.056071264889592, 8.065782675410865, -7.860030257864312, -3.391822755797678, -6.146894288499761, 2.343728428930996, 5.10567118572088, -8.05255238134405, -7.272041453322878, 2.7255237856721024, -8.11613771514425, -1.9393479784280423, 5.211150573253704, 1.91754736883105, -2.523624837087997, -7.970377858813389, -9.552579615085673, -7.459096883389167, -7.6916455740408285, -8.080540288092275, 8.40777531281735, 0.95710135136936, -0.09612382187388313, -1.2927480113245728, -6.281816859669518, -1.3088593626450304, 2.612920915380778, -5.69531955392955, 7.901790618277843, -3.908837927690594, 2.8024775266202813, -2.458014476665202, -1.4124023264915557, -2.2882064977535865, 4.34949679007828, -4.665328969785623, -6.911133133812797, -1.4310614701736455, -6.597111082679012, -4.348422268517904, 2.683067521013399, -4.592660534576418, -3.6244461893305324, -0.725455121141465, -7.909529612900579, 7.74906122136457, 7.544888470866592, 2.173309683571251, 6.243748042816094, 5.671176331627354, 2.92630762827873, -4.108097471855521, 2.9293631808642147, -8.16623472069072, 9.442206564188648, -1.6732043271869141, -0.714300378344344, 1.6441846406544673, 6.910106352983821, -5.211163650670533, -0.3379788093903091, 0.6426027737433202, -1.7229682320519117, -4.85917259544983, 5.034263969895926, 1.4831274713803069, 7.046547448361501, 1.5053611988784041, -4.0888091446971035, -4.885072149577927, -2.7598846329005866, -0.5265980068911738, 1.8688539528648676, -6.564220423929806, -4.870016172138656, -4.193847338246548, -9.38784310725338, 9.59199595891064, -8.608032786309906, 4.978796257296882, 6.9264503549228, -5.745406441891325, -2.5853534143589973, 6.348284761402205, 3.3041382679439266, 3.372976629014797, 7.051678845306654, 4.599643564442086, 1.9161804112899574, 9.107818212114879, -9.639196935349144, 3.3343389852414873, -0.07893724865501284, -5.12649392202039, 4.153307470912537, 1.2007338335746613, 9.916707941741063, -5.313169681299024, 5.880152736573201, -6.432393653812487, 8.644620468956155, -1.612491796455961, -4.029607708355614, 6.753393544194996, -0.3578190138679638, 3.550510972839394, -3.9904323616967847, 1.5352573308339394, -5.609793092542878, -7.538079859872635, 7.451785799821053, -1.084961327649669, 3.4020920587862484, 0.14554291579788625, 2.241085405455671, 3.909547148644098, -2.4441686604634993, -7.470634380068515, -3.195501410978075, 2.731712649407971, 2.708448932515781, 3.4895437278101955, -2.1827328184930384, 0.28104814760724395, 5.268861655750438, -3.984002700004547, 2.6190976457880843, -1.7026820621940573, -5.27084200282453, -5.346172218537801, 2.6247762744085925, -8.65633084158226, 1.7378183573035813, -0.5963660702452671, -4.357622815555233, -1.985134300400338, -9.55498336281083, 9.562976565052558, -9.616111291409348, 5.7729097940767495, -0.10354960026027094, 8.085304896579594, 3.8009305605642663, 6.0746162374502575, -2.613891758784437, -4.689607024939207, 3.8640656156490376, 4.935703045762958, -0.24254647723116562, -1.597041162525617, -8.409305223788461, -9.391221070186994, 2.2885973978929073, -9.548144590505729, -4.740904180706931, -5.2483303727240145, -7.497003337423163, 0.5776341293900895, -9.03787826484633, -1.9091611065729097, -5.852121495398695, -6.776103173201116, -6.043121549752293, -1.3327558608740517, -8.170204388875762, 0.9717833104253693, -0.8250770418600784, -9.808826428797124, 6.760736588197634, 5.221971474625045, -9.451943369418153, -6.304043144089471, -3.844117256477362, -0.8529551191987377, 0.6042280068360899, -9.672349144750967, 2.280701865529423, 6.834387912239151, 6.365997795080801, -4.439613060284488, 0.45333578752829595, -0.5414977073056608, -3.6919873654139295, -4.794069988230955, 6.623964316442475, 6.584854121302406, -1.4425941433083107, -9.395734894469873, 4.547758216507656, -5.915368135099747, 3.4778054579448927, 6.655228272184459, 3.5902011167649555, 2.3972646338777395, -2.1561729028561594, -5.109820205243305, 9.216436864710317, -0.6755881442677296, -7.904621157671292, 3.7784626219402213, -3.2291396538442996, -6.076549013477863, -2.960301614416336, -4.027978104951551, -8.4834428301179, 5.356643730393763, 4.649520310681831, -5.286419104272766, 7.471464262072242, 7.16072928978398, -8.09609280493019, -9.527147186613217, -2.2657876571899527, 1.4198151020942724, -0.40672119279486907, -6.473425335013414, 2.780842190205453, -2.4183361068763602, -6.623992413867279, -4.8656425242678285, -5.839544331269721, -5.4955213721184375, -3.821445370080559, 3.766781035209373, 9.356495869402266, -9.11312011435761, -7.973030675231396, -8.836148532644453, 1.4290310622584084, -5.131387305375892, 1.6209067968631352, -0.7584819204894231, -8.154556060521141, -9.041332141236873, 9.581185407998852, -2.1512969158410122, 6.203469122937211, 1.644870253056098, 8.2645807454427, 3.2017935786303315, 6.815776614183548, -3.870617386800812, -5.277222399472072, -8.455056927970169, -1.1279937992845728, 2.3317247977506774, -5.7741873463751485, -2.9194145114409924, -6.860965506865327, -5.362644515436701, -8.990810992147251, 5.540768035764943, -4.889533931738783, -9.809705852354714, -7.691259157363019, -4.344429434356902, 6.689406355208831, 8.960656848763634, 0.5664819395494725, 1.379218983740369, 8.377154118257291, -5.6306076651553605, -7.749007177779578, -3.678828647601076, -7.875542251686143, -9.156056935377963, 4.701102034726624, 2.128170247476435, 7.712713507546912, -3.163025117229619, -6.976097199660158, 7.400850264817528, -0.2271277990391507, 5.285929787599565, -9.862308168439405, -0.6841557140532135, -1.9385190042696365, -1.5709028550079687, 4.583557939326553, -0.3857875359675429, 8.50276045476497, -4.155961015041132, 4.958971132411968, 7.428135086201287, -5.6955087869507, 6.723994902181932, 3.489405067931216, -4.817640084438786, 9.637177134533353, 7.581713990751918, 2.366389217777737, 3.9579705521232924, -3.4216886080956126, 3.558067260305748, 3.9106250425854494, 2.8700044372313123, -6.761765140249542, 9.535696888267296, -2.678771795196675, -3.5550318119499575, -3.3918657169845545, 7.18305687656763, -9.517590666835424, 4.089363630400161, 8.770826462982285, -6.10819107742707, -1.6642121700980965, 1.3741499110121396, 8.106872824477229, -8.642794433107586, -1.6840460693183061, 1.1003557023258494, 3.4024392488345363, 5.182042480796888, 7.096378146468723, 2.3502509821919766, -8.733325513274433, -0.6578520161563688, -3.0575619376683205, 8.9152761340386, -7.568341585475558, 2.185909648967396, -2.9955796907395493, -0.9474879548501782, -8.360333622964784, -3.659898147233065, -9.06859945581122, -7.263365757956672, 6.765607110521167, -7.641185935449806, -0.5921031068347169, 7.9635513707725245, -4.507320771697514, 5.816982685070435, -4.311859165395811, 2.4365978813799654, 9.867429236686963, 9.446405033294344, 4.254807958281857, 1.8785443516824767, 2.289680646316386, -8.222171314718796, -4.810363694193138, 9.751616018619075, -3.71697228276145, -3.4824583953316353, -6.671582667437734, -3.2252642868010657, 6.574910676690045, -3.1485380941196617, 3.66559665256532, 0.7364071649191057, 6.893794489492787, 7.072313141956435, 8.348043623935254, -4.76002048739665, -0.8323286070159419, 1.5771207339249234, 9.495664408267977, -9.127366929469112, 2.778856182009333, -5.7377273645668225, -1.0407130146968981, -5.535393869730543, -6.228324103439162, -1.3898861471082231, -1.2061778985457607, -6.0327064166899325, 9.240264882170589, -0.1430186931245725, 5.369511963687119, 3.008697290161617, -4.248038068313383, 1.7036429215317117, -3.606864695650131, 2.4481948660108888, 0.10002753074225623, 1.958770330405624, 9.337171708261678, 2.7761536674863923, 5.389059362721497, 8.549737807346613, -3.068818394349333, -9.204997432496357, 5.632273526578274, -4.981332529058806, -0.8862855445917042, -1.1032701317467364, -6.121503425736357, -8.560979376353954, -9.025342856680512, -7.930069704051088, 1.8491905727766262, -3.987550064176906, 0.8910882725583118, -6.082941761585632, -4.0422778722482615, 3.1672659033653705, 9.543295290341138, -3.875129987292052, 7.882655451934095, 3.9157209166319777, -3.809193928262216, -5.78461337709117, -5.515661549516979, 5.374822513626157, 1.813125371327235, 0.06208841729844927, -1.981640026752597, -2.8635493703462434, -4.782221645683709, 7.833687548680498, -6.146207354605826, 0.5947280201184917, 0.4388499289582235, -7.6195765427203614, -6.286984561314912, 6.780529805575068, -0.8320532016876907, 0.21835682392462274, 1.9626417604018762, -7.519498065300965, -4.26451327102535, 5.218958181083007, -1.8621362400562447, -7.9497686231761815, 8.425440686483952, -2.555230501456915, 3.4565288051546084, -7.476644140844575, -1.2495434754467993, 0.42772645540044074, -6.345846558729676, 4.633259001430044, -6.797274744943447, 1.6119976407433274, 1.5848291643617358, -5.716302187533562, 0.5935290990001576, 9.739427843374635, -2.5635197559925498, -4.002282964618901, -6.37266506598638, -1.2448926794082045, 0.16358128141839678, 1.2916779666063771, 6.394089147491208, -2.8876287926637794, 0.7756396076503584, 6.2334015678984755, -6.31216768986188, 1.9212352817386211, -3.4648163200686977, -8.331017956016227, -6.839098189668473, 4.248524548919168, -1.3433564675399108, 5.713607494915907, -8.02933423436334, 3.3917931074207264, -2.0017765396531395, 3.4189798518593477, 0.2828357078557211, -8.22690141436296, 0.504162162168555, 0.37794800060802913, 1.8778971288648307, -6.95936006603117, 3.7168241134338267, 7.019271395903203, -0.04558625431604568, 6.6317359270764555, 2.555749962413623, -5.341245351725757, 1.9267951491246844, 8.595801702256455, -0.11348708855436129, -7.661583079088256, 4.962216882493866, 2.5164050573269066, 7.513206575427446, 6.173934267595204, -7.836490562315475, -3.986086907559068, 6.273831856977949, -7.305581273692379, -1.4577818788882446, -6.9061618759058625, 0.4832658856748484, -9.210338961310757, -4.802455979325364, 5.608373048200068, 3.432430931718608, 9.47396520414894, 8.452261224943992, 9.430559415641568, -1.5095381552721214, 4.690605104940095, -0.39553823991221293, -9.972597016259881, -1.0003528272197553, -8.459681400510068], "biases_list": [2.2962329460189146, 8.247090748415221, 6.065507667394641, 3.3485759411683347, 6.533748296799754, -5.199239653745213, 8.691871260436073, 0.09988653407656933, 9.322156461114698, -8.355018852791831, 6.713715464309843, 6.091731555915189, -9.77958235518466, -6.114473178787414, 0.0558298067288554, 6.029720152825281, 2.8680777101291604, -3.692564608914603, -9.179506553811898, -3.9027016504254046, 6.662042434765748, -5.821571667810828, 3.7095041519978107, 6.278757364868703, -3.4885419921717826, 6.19056919609935, -3.865388364667492, -2.8998179484832365, -4.699183213353608, 6.195799844476603, 9.383903322009854, 6.176483474848244, -8.724517892080051, -2.019582806816258, -7.909036293734251, 7.090409356392843], "shape": [27, 16, 16, 4]}, {"weight_list": [5.740271337382474, 7.348293044016568, -1.6719659211187725, -5.358990381537585, 6.665031193217082, -4.496429477296853, -3.473909972617628, -2.3686109789278476, 1.741048197512633, 9.518252040108852, -9.276037192948854, 2.383485338749704, 9.733781379808356, -6.420327863908093, -9.304500335612927, -5.726160693447349, 9.24873124183349, 5.606238768447119, 8.906032369440801, 8.760818608522474, 2.4759320007296726, 1.4039204688212141, 8.83544228381907, 7.635178922266306, -3.2665623442401888, -5.949611228836953, -5.893781900309952, -6.778495517202439, -1.9044617297227813, 3.0205176192897465, -7.0871482680397335, 6.502897102069504, -8.246338605452221, 5.051473855259212, 7.654314880398228, 1.30303544496973, 5.26524797011678, 2.9101692139714803, -6.496740934691956, 4.9102974087754685, 7.540035493951301, -4.698851943345823, 5.900399515430665, -4.4678878110775155, -2.078015956307615, 8.19829981342209, -4.107949774558932, 9.173100450006512, -7.843411647286882, -9.50725328098089, 2.7602949744676373, -2.4092765620247025, 6.303327720172753, 5.255311829414149, -0.6230723496689876, 3.0834338913881503, 6.331718197875755, -7.574765169542641, 6.215151231437176, 4.701951778400728, 5.5520663899575435, 0.5230525723868791, -2.5031024429770614, -3.814746235187556, 2.080227486534838, 5.375646497301377, 6.992347805230871, 3.1492796442685673, 4.562366922282603, -4.318250605635301, -3.5428355985755022, -2.565123458908851, 3.817478732042673, -9.304094163723756, 7.15443104926657, 7.401265435948645, 0.8454625521001464, -8.187537700540004, 6.084589794696736, 7.464902717341591, 4.933324003470849, 4.388498483704007, -3.869090940665396, -9.211407733350525, 9.495905450406639, -6.584291839414311, -5.323741182502976, -2.5074489679799576, -7.216866195818086, 8.771515121203095, 9.17700554815536, -5.239000864358729, 5.1906663918478735, 2.0207268236476317, 0.1278091642663366, 4.780804493671916, -5.469547949326308, 6.008377803555, 4.249573357084612, -9.997652573413973, 4.655411038641208, -4.098121753832357, 5.110580590182005, -4.373668410808258, 7.4163625516020275, 8.80992425449261, 4.195593722716184, 5.508848461936825, 4.684465829425299, -6.640094017180271, 8.21319597495647, -3.7535796930516208, 3.9048849307677678, -8.104264011618161, 6.430254928003368, -2.907088210556701, -2.2805972989771313, 7.458273182608089, 9.597386773269466, -0.7835346772254326, -4.7937230142864244, -6.4353791752690555, 6.212969956878855, 5.723303459384965, 8.596655703608008, 9.720021395391786, -6.220517126243797, -8.454543123806339, -0.0048540401122671994, -5.952613067411285, -0.6663701403245099, 1.567920268716442, 6.656637495187262, -8.154816289412071, -9.94290369907713, -9.08480097046196, -1.6662976145314783, 6.9504473853194, -4.503610983911674, 8.255168016473714, -2.1829133036297126, 4.019381735521483, -3.692637238670091, 5.87201461537777, -5.191901654575101, 6.817165439397627, -6.002735064671086, 0.7269855861717893, 0.8316839435839505, -7.606696570997167, -6.44446190631345, -9.613249765244117, -3.495828399772134, -2.028735225399682, -4.1358681800137, -8.828143592676522, -6.442674190990312, 5.636169441253486, 1.0918492638640558, 7.152927768112686, 5.620145877050476, 8.190106618316008, -8.702087586831578, -0.21715780720463052, -8.939816162879577, -8.697001390786376, -4.4282665470955145, 6.068736728220699, -5.922567024918141, -8.653561995604356, -7.723918456442416, -4.681108875679207, -6.630748791003917, -9.90195660582905, 8.792041959903926, 8.806769258463877, -0.49401008607814845, 1.8250176994828653, -4.229024703094009, -9.4944351945536, -3.5136653153480824, -4.5291121163723975, -0.5966468582363671, 1.6085146529190766, 0.27804438612520244, 5.889169835123964, 0.5908964503578122, 0.35856042796151577, 5.173452975441506, -0.39470432397266464, 9.505926766837021, -8.990379067261216, 6.973218773785991, -2.024911921138348, -0.30312651998865014, 0.6669079224560015, 6.3994333084021555, -4.747526750025878, -1.1361042936106216, 2.314245761707504, 0.5962782258581196, 2.5977694087684196, -7.475615406412793, -2.268053635330565, 1.1879051003292247, -3.12671115322114, 0.6725114988162222, 9.72368143617689, 9.038280245584936, 5.642495318854358, 3.8561571778098465, -2.3083101627994163, -0.733276540741457, -7.7349618069841375, 7.331334487107529, -1.1122354895911002, -8.155325992076216, 2.9932986846925758, 4.239892493976489, -8.242904729691414, -3.2406195900428036, -8.789365582534451, 0.9015029792198863, 4.576412820264064, 9.50624172387559, -2.3854785585342064, -1.8463967467554063, -3.238687333885702, 9.634356272527885, -3.4461205376200983, -1.2634280648120928, 7.864934399326128, -0.9717544192820888, -8.218006945157036, 5.466200073165986, 4.44596273103792, 3.409944882928615, -2.041942816079196, -0.7808068522051883, -9.6852185832582, -0.31149871429039777, -7.514562932354831, -1.0155564469862348, -0.6088143752350366, 0.26146857047018024, 2.8538185145925823, 3.963530443233715, 8.997259013857914, -0.35169956543985137, 7.059632953487771, -4.943879327306195, -5.788103243316442, -5.794660969236927, -5.559025600895655, 3.792277954728453, -2.0383462104336347, 5.514794333395599, -1.4472337021288837, 5.447225790724211, -9.02024776771232, -3.9923437047950605, 0.20644211409613966, -7.7787123489792975, -3.0718439575814793, -8.723348591879269, -0.748467766926666, 3.12656234062902, 9.17236006247255, -0.04931945615345157, -3.3595894016107852, -5.195038480268863, -4.226513896768164, 4.83957587635933, 8.057996113430221, 3.8975582170277008, 6.603807047026372, -9.138762401431288, 2.0886888792698812, 0.13214038678220952, 6.57623733352256, 4.625217387824801, 4.266252037781522, -1.397710761415997, 4.88637133483625, 7.638182207557321, -7.439291058499984, -8.913015148658266, 8.694861763472375, 2.262326078758081, -3.526575362671842, -7.1090009145411415, 2.1605395754020122, 4.843649349134971, -5.108075197502253, -0.295463979933972, -9.373220637279935, 9.252611840000611, 8.562237697760292, -3.905045602663975, -3.4583391428621946, -6.098378005636651, 8.364972121907655, -2.060643033624183, -0.13790786000238242, -9.849476947770903, 4.084548065451031, -0.497794073844517, -2.1107816378327193, 4.535617722934802, 3.7033276055499176, -9.355639141618186, -6.1382818055790604, -7.161982812286725, 7.886193972153638, -2.6319033461003354, -0.9892045794619868, -5.695193621772439, -4.819245883296097, 3.616797543369403, -7.5791460224668565, -9.053167045661233, -7.989001828511173, -2.3871999604401273, 2.2901789308747578, 7.461324417300833, -8.799044867198074, -7.699579636278006, -1.1779802322646304, 5.403748871518104, -7.512592417086488, 5.246239956050902, 3.6346002234184756, -5.630855016227125, -3.7837760197272496, -8.854384001143586, 5.6251781827231095, -5.163071782128097, -4.558138658230129, -0.8924950982141251, -8.145165995044394, 3.193045414892765, 8.983456215800327, -2.204040170497761, 7.294599060796376, -9.22865328521568, 0.891279586601625, 9.098624449807808, 5.6067817407390805, -5.987609665185065, -2.5030674748099857, -2.2964023674385015, -3.3981723705804328, -7.7240848422175805, 0.10329398167205639, -3.7081419576615655, -8.027782378670398, -0.9256156639960533, 2.0113622263008466, 8.243563431865653, -4.723020419939052, 2.769844182588045, -8.165190987891403, 6.822707353761967, 6.873522517263076, 7.567878333364334, -0.4690833779104313, -1.4072377460136725, -0.40204678401866545, 5.213334689345565, 6.543925045094721, -3.8140495622355335, 3.2134162953077112, 3.776500506507931, 7.13920853410437, -5.199469128388303, 3.36190123262668, -9.428679683779936, -1.795346146841009, -2.405321543372172, -4.624329284838855, 8.026717389825667, 1.733039743012677, -1.052752554397692, 3.786342097132124, 6.260722645116321, -0.035449982042417005, -9.132548385222139, -9.907752841392849, -5.525390667550639, -3.790949727904211, 1.0106005774099636, 5.193587677898119, 5.104982091284722, -2.3545217862961554, -6.87545403667878, -9.042133729967079, 2.897026574287924, 8.259727809553684, -2.2742901425864037, -7.460285475380144, 4.308399227898089, -3.2371058899825993, 2.2373856088636295, -3.8639411767537695, 7.1257604763750955, 7.113882590658601, 3.2013064034317136, -8.106087562786332, -4.500526127759688, 5.020830807975187, 5.50362396910243, 9.471957075995597, 4.238370984555871, -9.726316167961446, -5.76883490787438, 1.583518350724857, 1.5755569113229289, -0.08821143233212325, -5.283773514967582, -8.01255699623659, -8.22137356388308, -5.526703179482498, -9.16175837572111, 9.917791872313767, -3.6820386160711527, -4.135334541169691, 8.432101454286993, 4.557328298973086, 8.19768910181002, 6.296423416706851, 0.8285029705574392, -2.6475090846569476, 2.213108324027367, -4.088089697249131, 9.258786583076272, 7.092684956968199, 6.727427986001146, -6.716365303111709, -3.9801005495137476, -2.75144730624183, 5.060028435061918, 3.9867903371494897, -3.8555349843086173, 7.05260286542692, 4.768866261680129, 2.4257058348146376, 7.4004665556301354, 9.08188414058251, -9.82671386803906, 2.830385950560398, 9.575641612312516, -4.708478251034485, 9.867196271152405, -6.725889178358737, 3.315753642905868, 4.592338016810791, 0.766055892683319, -4.741695876415837, -0.5517402457603371, -8.284037690113111, -9.157866151847859, -8.163913834563143, 9.355580463128653, 3.168701939461007, 0.6361741673368861, -9.577180754762916, 8.164155788931907, 4.161560121403108, -0.9844508731051782, 0.414271820698481, -2.4342786489626906, -8.602826233639153, 9.263893426533535, -5.757501976047448, -8.004013707065646, 3.392723885913437, 2.0417317554956327, 4.570455523608583, -9.430144754032955, 7.07262469876509, -4.292128459761626, -2.6249594220504218, -2.714134104765966, 1.748470881813784, -1.3215813821419609, 4.8258308648413255, -6.646613499734258, -6.810518583290309, 5.140278493919849, 4.677908575726928, 5.500065580781978, -5.171266077118812, 8.90196032596895, 6.315254739887429, 6.881591921688351, 4.507542616674867, 5.318367865666822, -7.660638342503874, 6.2896790692617515, 5.272074639245298, -2.8906498777385288, 5.7450342083840376, -0.0745082640447059, -1.3063252132042251, -2.4590201013106316, 3.209519243345545, 4.099345930243885, 3.5164718529293033, 3.8073558929766254, -5.513544886042681, 5.815539534163163, 7.026178017051244, -5.883614918561586, -7.981086486570992, -5.809533404982425, -2.6298415229029937, -8.579638412484483, 8.20967969915938, -5.790367018897378, -1.0942698016274672, -3.0934887974883685, 8.484869973987994, 5.752152747927417, 3.571728146953447, 7.68182691214059, 3.0011888410899736, 3.880510461985498, 8.57223519854304, -8.111733100095917, 6.611402478205434, -6.142026683377086, -7.622496409336355, 6.407926164317679, 2.9886268379489973, -4.987582593115434, 9.96954575619504, -6.983598516848264, -8.15274074555722, -3.233227202447968, 1.2365895926746528, 6.3392982862190195, -1.956686173989839, 2.990181486614169, 3.4841833147711405, 1.2339496237661596, 6.731898355932117, -4.553997586267715, -0.20207064558336718, 0.5710647573107757, 0.963176780703602, -5.666706609985168, 2.196154408115179, 5.228260248195895, -6.674489171238838, 6.4426214420263435, -4.086935792942683, 1.3174083397011813, 2.624508775509838, -3.203199242543757, 5.834488016888031, 0.1349170461831477, -0.2763658127001367, -6.456672310328901, -3.642042041521849, 2.0834812421662754, -9.584355502363698, 1.6598823252620356, -2.630855397405991, -1.9727372830070973, 7.606885630134045, 7.611395860143453, -5.7674317596387255, -2.318295734557843, -8.512437768624611, 5.423213520506492, -1.254535520986714, 2.9648278049618924, 9.742269028679353, 2.2247372157075507, 5.285099650912722, 7.412001345154891, -1.4551605837703114, -1.707299851344441, 0.6872238346573329, 3.9537624757772107, 6.337310620376975, 8.151637167418137, -0.8990502295061198, 0.5523568664508911, -8.594524849271451, 6.5343513799597766, 8.423225113602314, 4.081226473762653, 8.70428412431318, -9.849330132923743, -9.135217534977718, -2.8128014176719525, -5.75638974017685, 9.7777076939755, -1.8971438354276806, -3.0672071524332996, 0.4584790074366687, 6.967802071059765, -8.444344859736667, 4.930865165481475, 1.9038064609785295, -5.636431414306989, -7.140115651443737, -3.077133828781358, -2.839109334302967, -4.277409317115839, 1.5864077158771366, -1.9006148258045776, 4.820728913243428, 6.301795479291769, -1.162186573872452, -0.7824789836210471, 8.78015160981715, 1.689196033974012, -3.486241571554702, 5.145757185869098, -9.143958644016951, -0.06244431898319469, 2.413941880329979, -0.05967760982781911, -1.0202573220265254, 3.315182244672169, -7.521285101574153, -0.6572797735090248, 8.606365486559483, -2.657074665419321, 4.634445934374138, -3.9485257184897105, -3.0614740730312917, -8.159286842430442, -8.925450603138092, 9.463569048034955, 3.193976228188296, 1.3434914115834289, 9.941712815612153, 2.1659166640856995, 9.640215809856137, -5.553894732386482, 5.20777171901277, -3.018142805382138, -0.6874838421797023, 4.502758406699865, 5.818137933496654, -5.30380060329763, 9.028535634795848, 1.274677432737084, -5.346161378422343, -0.28833471926904863, 7.166583858369815, -4.616495448576671, 7.808661433330254, 9.128934428165675, -0.9095619309203649, -1.5724840855110749, -1.7899980960903878, 6.011583100893699, 2.907691980624353, -6.752499103763019, 0.08229998803870053, 0.7624981953468506, 4.668631483764511, 4.7171317893242914, 8.137690424051478, -6.874997624440066, -7.867750097251638, 9.644515112185228, 4.99030951138745, -7.712151508207043, 1.6892926464123086, 1.5060795225405936, -9.845354343280588, 9.09904220663823, -0.8821796865037221, 3.7290371482017513, 9.96397270680453, 0.7350588561155433, 8.947049108304498, 0.8575189688687139, 6.676142481882252, -9.501388788722911, 8.199111333518562, 7.295771519065905, -2.566360225795588, 9.133423252283897, 2.843520964470237, -1.2607080702509048, -0.46147572165955175, 5.287593644692167, 3.8432058361625003, -6.6718996947488645, 3.4124947940740284, 0.4146283358900291, -2.384724440544219, -9.46201915243356, 0.7136341901138863, -0.8954243036705556, -9.149363428998791, 4.670790239874483, -4.754236533851042, 9.957414337250249, -5.610309121832698, -8.05245736851222, 1.2186059612566176, 3.068861492039158, 7.183292350713348, 5.023742684241537, -1.1534061445980122, 4.384428510000493, 9.290165788841382, 2.074623069700136, -5.924790606560126, 5.115567948951984, -5.520764216517657, -2.4006999177535686, -6.758311152989382, -9.80930182518833, 3.9799591952772584, 7.212218231003487, 5.235310826085737, -6.505641011526986, 9.201981922281064, -7.623477433869756, -9.927205185816367, -1.0925534835799553, -0.03959277704765185, 2.319041305491327, 8.72442812521545, -6.627990640365713, -3.3964927898384367, -5.958974141988563, 2.439980500602715, -1.6757613106410822, -0.5016037746627173, 6.965470201051694, 8.534705221575038, -1.7977684151254198, 1.230795954410544, -9.233889922965645, -5.983104265466423, 7.574030541606028, 4.008403437913364, -7.328463714914175, 2.1366499849052882, -4.236917691416431, -0.5602398495805794, -0.7770071391689335, 5.033808411553132], "biases_list": [-2.363309325398671, -5.075584739709173, -4.479500051627754, -2.1694244233956432, 7.892510674059039, -0.3423011756744394, 2.5095700177121536, -2.051860670761796, 0.9562646305987865, -7.6781995540861825, -1.0270053743600407, -6.720441779100148, 5.792855969097147, -3.862401043070909, -4.830401511204618, 0.8691415443113097, 6.337889775836249, 5.831972314698497, -7.913715780305266, 2.054659433281291, -4.488630580258692, 6.958757744505089, 6.707588986641696, -8.748851094081525, -3.656151602830782, 7.20811515047831, -9.369400833551216, -8.167756963902972, 8.41599029187022, 5.696419212997144, 6.924805480921805, -5.1916236013157535, -3.377380034610164, -3.458966884961634, -6.129068613751157, -6.029976006938879], "shape": [27, 16, 16, 4]}, {"weight_list": [-0.4948910972663072, 1.5426962461797524, 6.214466789432098, -2.5158185286619337, -4.606840409377758, -4.809950635281795, 3.9572723377444543, 3.6710162024276514, 2.135028544944396, -0.3594632462229381, 8.466328892890093, -1.9259860477464108, -0.6420182988390857, 1.2782932104541764, 6.336601490983642, 8.998271637665107, 0.6929250335181729, -7.022131407063631, 2.9520448590164285, -0.9070844925171877, -2.1569945871938505, 4.402825482861351, -0.02002287895232291, 1.8538171874846752, -2.6270516240720827, 4.236042571846159, -3.439778349245489, -3.1844174438901667, -1.5083000009551606, -4.483571454082335, 2.6753400457824767, -7.467091043887304, -0.15154088333387117, 3.3871681423173676, -2.680601386715936, -1.90398030132936, -0.4941305747978042, -3.433099529358347, -1.146527037181072, -5.831035079705808, 2.379748234265584, -3.2175274771508264, -4.2905507817481965, 1.6299739365793267, -5.4949965670585605, 6.039587068666987, -6.036710845544774, -1.1637336517249814, 3.1640497955954103, 5.428352175531861, -7.868731412296977, 4.723647286230903, -8.205820066083238, 2.6363456451414433, -5.178431100862309, -0.931997888518374, -3.825084207249696, 0.4467973888828898, 7.814503265140871, 6.573119102720979, 0.8706119791346791, -4.503434486635136, -3.8097743647087077, 0.10424999138431734, 1.5684667345270542, -3.0615722077205607, 7.504578263872094, -4.4810421111192085, 1.7988501751153856, 3.3478158299534497, -0.10335942477295457, -5.605172479684619, -2.5953839039330164, -0.5007350042133245, -1.1762837095887044, -4.185849577841431, -1.137401871659233, -8.46672943381683, 1.813414334130493, -0.32257857682351254, -4.907310756789705, -4.806266930777127, 0.7496156778617413, 5.569705072144676, -4.04573963629879, 8.930966613633831, -0.4671506891643211, 2.5661843590638127, 3.3397369702102653, -4.462857622059916, -1.0783803900711826, 8.09542432167688, -7.839307134962112, -4.937429919976996, 1.0448571933190056, 1.020425827233049, -1.187783755662539, 0.18999780754228635, -3.170799192027352, -1.2541736794318787, 7.226129212552127, -0.21777426723645488, -2.1033322103183343, -4.328924045059935, 3.4590888398250828, -1.138931937320178, -2.7169496081926736, 3.921532115241167, 3.2396976620125226, 3.8833359911118617, 5.187986291417501, 0.6272763204706295, 0.5024132405756203, -5.931029448159022, 0.20498260356910025, -6.014524163929764, 6.5860179385567825, -5.497481053263148, -1.0845861460206216, -4.574372396986956, -0.7636199050942609, 4.051808650054504, 3.3338785960988373, 0.10419214238610719, 1.639715750009774, 1.3254878709074638, -4.3487843294571515, -6.965453431735362, 1.411620230587558, 0.9327395208236589, 1.5840148702565204, 0.8241704699530967, 3.503423033830691, -5.623277872724976, -1.1636062941485927, -3.637473820324817, 3.6693767120744614, 4.649912053553359, 1.1863222080788525, 2.443597859483042, 4.1354213959953, 0.9761549363475421, -9.07850121236406, -0.8127878324980864, 1.0318996102777582, 2.731093641707126, -0.1987233100807968, 1.4353934857096675, -2.411534968836344, -2.0122799986185234, 1.8503653755995755, -2.1667953018142123, -2.3653915360293336, -2.7471469089613847, -8.425280798268307, -6.739854574226982, 7.611327254838491, -3.9709780780941557, 3.6910128862778278, 0.46355700644198383, -4.969524310687042, -3.6454200486840813, -3.7043076995658923, 8.435433922605801, 0.7262134713423674, 0.721231783595927, 6.67056181467326, -4.450747129584572, 4.667081701767428, -0.821427398192897, -4.563235642052872, -0.38255570590280397, 1.4061719619025048, 1.7369435946503229, 0.8441565229906749, 0.8698729389350681, 8.582704236590972, 3.03337619317794, 1.1774422833414149, -7.252325805155792, -6.35755718176047, 0.047287908693546044, -0.8250062044234441, 5.230280205319584, 3.0369146939587326, -1.9757703050454816, -2.2376205789178325, -8.770750194102956, -6.388079014177901, -3.5185650806638344, -3.1956743936318093, -0.6030494425733692, 5.252052326315985, 9.148317355886173, 5.139270641323418, 1.9585267561675148, -0.6580180015048052, 4.5569201745801955, 2.174042959514541, 0.5166013634831617, -3.841260629865012, 1.01509707353638, 7.627064385526879, -0.5846006939955655, -2.236469258395507, 6.386261856005072, 1.0022546600296396, 5.795480589141628, 0.704796947306052, -6.170578412305798, -2.0816269015435003, 0.2664948713045192, -0.8602197431297454, 1.6713539411995972, -1.4881969775474901, 1.4371977777526928, 3.020476751258699, -8.323623824090866, -1.157792268457738, 3.7420958705913367, 1.18320394396563, 0.5787354207854787, -0.9042553285037758, 4.158793431962134, 0.018325782204665853, -4.914786901784479, -2.2015234554540606, -2.6157275333091508, -5.490769319559572, -0.4095182603027707, -8.965010408060225, -4.0465890108153735, -3.02304616331171, 1.2832577914223622, 1.4809224690348102, -3.3732620921043486, 6.067165879228885, 0.5062284484725419, 1.454796093421875, -3.3517762460421276, -5.818240067580403, -3.6770795472518962, -6.061039663918076, 7.65794757866956, -3.2704291148139197, 3.7674016909057713, 1.9295052407544677, -5.212956662971459, 2.9556050178950444, 9.364491322907606, 3.7808435233135658, -1.3101699318470799, -3.098997174505721, -1.2915415643888646, -6.910279237185114, 3.74861228955203, 1.3488446267966223, 0.7820190817160693, -5.082981438745044, -0.5043843896505724, -5.889285354914774, -4.410629547068764, -1.69564282536333, -4.063057914529862, 0.4471984107149072, 3.4924756186617287, -1.7599553305022462, -3.292376888880163, -8.318105440705166, 3.8350279245961207, 0.33483856861452854, -0.21235210620865064, -6.315718277699339, -5.957397664191809, 1.3111265809455417, -3.558142977407617, 1.4916918267348493, 3.7445215880962115, -0.9824294927593795, -3.766954766149815, -1.2078015439364613, -7.058862398421974, -4.8282009577041105, 4.126793631765828, 2.107397389195161, 5.080064165192747, -2.06553605827001, -3.0502923567619433, 2.421764926148228, 4.7068716084860975, -1.079125260856454, -6.203667299673429, 2.8979423989158883, -1.5686681011090988, -4.353866182911407, 3.7345755935129397, 8.34095368529464, 6.6362210762279785, 0.1931457914070549, 6.99205414993606, 4.891939402508334, -3.1613322002395687, -1.2755121436698869, -3.531737408569023, -1.2582892621759532, -9.892691205223716, -3.7992218501741037, 3.269998659337987, 4.80784760335208, -3.882537165612748, 7.176585669649805, -1.1086582112361407, -1.6212202223484014, 3.3905683547054073, 2.942345747927883, -5.0774592330127195, -1.9694067685627212, -3.052622899162075, 1.4308600729909218, -4.4353835887162925, 2.978078287857527, 6.463014146740206, -7.6518238418430595, 7.768928618830378, 0.6392331272569871, 8.616830402494294, 2.4332259933865226, 1.1839421880122316, -1.109881300774871, -3.3063881955305425, 2.671373892374569, -2.2734616880542244, -6.794365649999305, -0.1405260844524947, -0.08394958958489274, -2.6924482894682678, -3.4590852986458005, -0.6911956689040188, 7.656011956356107, -6.378220649093283, -1.8787013389218774, 2.754670052400951, 2.7735508183506177, 0.45523861046961667, -0.3839277478283347, -1.9903258162839643, 0.29551291363147425, -1.7652865616510844, 0.9832445220013559, 2.122762778702822, 3.1265549922872093, -5.029737433233869, -1.9628754364023284, 3.3574477331014947, -1.0677221129225258, -0.4633014188179776, 0.5627371185079042, 0.2657144047476938, 0.1266633216645079, 5.534667443048655, -4.375038387398943, -1.1299667503844804, 0.9124591448935562, -0.6983195461235234, 8.555282335302314, 0.6459003059347974, -7.125135670452565, 6.519611708571951, 1.679583063907205, -4.242431035378419, -2.4818091865335408, -0.4637197620864961, -7.413012454324312, -5.831142279757887, 1.3412201780744524, 5.391359989820314, 4.517703772780225, 0.390174021763535, -1.7375535362002015, -5.325849952528688, 1.6600740905170435, 3.7046780805144595, -3.225894544706196, -0.8172164058372573, -2.2833714670701584, 2.24845025299123, -4.700405474973953, -6.112926187946891, -6.366734037803701, 0.3916879492825709, 3.239868190498421, -1.8505365351579606, 4.369216009599905, -2.644052964020517, 1.2803446791319724, -0.07614715759777613, -0.8593765981769388, 4.463799250901052, 1.7800351163818235, 1.2670996891746125, 2.8045913248272623, 6.889295931879675, 1.3867794643919238, -0.23870991017024412, -0.8054157128981896, -0.7039856742409774, 3.112680583366375, 2.575731910391764, 5.783676700340115, -8.234513506549135, -2.0234598974731397, -8.114809250530996, 1.5413474362216055, -0.5431455923822388, 4.820836099613162, -6.329986837242751, 0.19168416626061813, -4.916786163101257, -0.8173576416654611, -1.9967550783168273, -6.199933709811297, -2.2077979356161004, -0.5023588265112509, 0.05699224932198743, -4.053098468064098, 0.9785987441322439, 2.170788302177956, -8.588419469271109, -4.522702602913409, -5.150019277460102, 7.986634813768195, -0.14065816036949497, 5.502973473157259, -7.806419019585627, 4.4198072866141995, 6.971152732430282, -4.883900016645422, 1.9817032184569192, 4.352528952366322, -7.862124598544044, -3.9537192339607143, -1.7465044354497463, 3.883590266288028, -4.886753195304276, -5.013707743541542, -6.591363260092617, -0.06641347532170605, 3.183958698021339, 6.851107526926907, -1.3827372516077971, -0.16974928185399962, 9.128855881242615, 4.022979883387511, -5.5075391781831025, 3.3750128075075105, 0.5046724081335168, 2.26482387232803, 8.069868038564326, -2.713803605919642, 5.132947812538765, 2.33613763519657, -1.1235996533349406, 8.713620161415994, 2.3584229289712617, -0.9575754092797373, 2.8781673175411058, -0.3420453425662784, -1.2282318385818294, 5.461951665358071, 0.4261058437330192, 7.168682025405559, 4.630947504604955, -7.679774745398003, 3.9633476042838467, 6.175462216369599, -4.087559423464186, 4.348291339982341, 0.6261067849144855, -2.8733452972664475, -3.3755724969121665, -3.6218537978066623, -0.1417474822953564, 4.847234647012706, -4.897111398111795, 5.6803117958468015, -0.17314614286905305, -1.909849969928323, 0.8097123521269771, 0.7292050417211173, 4.017116177340988, -1.2905758135708838, 0.11760703502601655, 1.3469292763589298, -4.582607481403416, -8.10361284312008, -0.32816824723607274, 4.734408567331197, 6.559338366036483, -3.8418539880296905, -2.4259355244935543, 4.837317268774864, 2.0621848630412067, 0.576346582434611, -3.104988653188827, -5.077002433841811, 6.657370739438485, -1.1575416490301953, 0.3185280986639405, 5.321075365472358, 0.2720956203804601, 1.7002296158520886, -2.6506332181553325, -2.0997283874238395, 0.06997082309263059, -1.8929357917958665, -5.683298142805187, 0.3218680042693294, -2.4799891823589246, -4.6919727259413495, 5.099527927156896, 0.36036896066015056, 1.3484468944527483, -1.8307041027041975, 0.4466330857264471, -2.2913306050573192, 6.299655557406501, -4.911403213885378, -5.93303798325059, 3.9389705192268654, 2.901430540265583, -3.198781662903044, -8.295511229368078, 1.7275115684675324, 5.1171454976750805, -2.571218283824668, 5.31403045283567, 4.8463634273680025, -3.8524070202121985, -1.0402929102789868, -8.59264056245206, -1.4595443388279572, 2.042393040421061, 1.434335836898784, 6.865877367395964, 3.52384254537575, -5.7485390699345125, -0.5274979797428792, 1.2134691961266673, 3.7817325798011936, -2.138317502049336, 1.8949144858399558, 0.7848548151158734, -2.3740721452513087, 0.032245670938828574, -0.19694265339989525, -8.553022589442058, 9.642410515783485, -4.435553973343568, 6.890660609106806, -2.416022546579975, 7.32965167310353, -0.8880429360619131, -1.1141263201098128, -5.280943979620168, -0.03595536237131802, 1.6636177295197978, -4.628507399628327, -1.980112143249506, 5.651540465535124, -1.6813315277862202, 1.9624303348099854, 3.7383058780121825, 2.6153402619014443, -2.8310156371576696, 0.5287412458109848, 3.2156179100994464, 1.6646556227283718, 4.204239750686316, 0.6628588986701616, -0.8376795072386438, 9.041267992776783, -3.1667043374377735, 4.029126589755965, -5.148902765583484, -6.381026141205151, 5.572821206338855, -9.129472922462616, -6.3480842346768025, -1.565851465019489, -4.717122225418626, 3.6697368783088145, -1.6330360384479898, 6.978693013089456, 4.376658153678976, 2.6362495266303023, 3.2494333624169176, 3.5831065421970063, -0.07788797089040034, 6.313883001745709, 3.0865633229712817, 4.773991915669363, -9.403440270456546, 0.8231246108761465, -3.0701476436294817, 5.375527381976537, -0.7760600366264876, 2.3883407995093933, -3.1860860537777107, -1.9674807610997869, 3.0433311271167645, 7.819894408546235, 2.233259139108357, -9.27112772912402, -5.941561223477805, 6.8275286677558435, 0.6476621136435483, 3.8459407615285865, -1.978968898943247, -3.8538033012688704, 1.5226787780041318, -4.146939847207611, -8.320068121369033, 1.2496353876242106, 4.50071407063201, -0.5103699669849853, -2.3148081917476233, -1.575593133134241, 2.428854871498101, 0.9707439268787683, 2.168817429838191, 6.542881303999671, 0.49330592038799637, 2.5917941572370786, 1.315935391132137, -5.037630663505486, -7.4133152611319275, -1.8991828019252435, 0.6129149495080823, 7.805807291906275, 1.5838722732694341, 2.790942400518634, 1.662720238606041, 3.062642311234879, -6.822170647890737, -3.3519221511573143, -5.387689693401304, -6.046171838496503, 7.233774266441378, -4.361948613963591, 2.061104117456104, -3.756423224860727, -1.2062999013721563, 2.326358721814961, 0.6749588065840431, -2.4474743901917657, 1.8707208236096857, -3.56603393658387, -0.18173545968731597, 2.478538210369125, 0.6519636377696125, -8.828145031504725, -0.43989937427841763, -4.774769572809878, 3.9851749215751413, -5.43350395355789, -4.369340750619163, -2.2768351206898902, -6.066505180216206, -2.5948189535820436, -1.7018734878117885, 0.7409440808960932, 5.939689149751274, 0.6612152870617285, -0.9701583911956535, -6.630403433729364, -5.57027967293021, 2.959684540714904, -3.1909748693309172, 0.7884049806003897, -5.441628993179039, -5.312986020789388, 3.2715186573626074, -5.914683803512715, -6.989460219421377, -3.453563371152897, -0.9121067516659678, 0.15751926912249892, -1.148662820240986, -4.1687634957808655, -4.283915862121853, -1.7599280573859195, 1.289784874112633, 0.08960479376645081, 4.0542688640623945, 5.544233572291549, 3.8602552176682527, -5.328819115964128, 7.8742210447746945, 1.5445129540351807, -5.7337410737378764, -4.629890392794418, -5.112824199382954, -6.869663224558148, -0.012856959146861913, -0.04364349356733821, 3.367494052447779, 1.0791247815346727, 3.2759002951066662, -0.47848850717346303, 3.903026632354634, -3.0241785476392287, 0.7217187034287584, 2.1419273615006946, 2.158037124776919, 2.0330324790266943, -0.9630791289951599, 7.369631094736235, -0.04862408462876777, -2.5596541685476373, 3.7476902303021458, 1.4377353411514076, 0.06892471200889272, 4.268767799283555, -5.341637667554284, 0.3474743650016756, -5.901375311951996, 3.8295615750516028, 5.264191176891161, 9.512997164108643, -1.4699335082638143, 1.80304619004594, 0.6252255128319122, 1.5697402554335427, 2.2269300424727527, -1.5657215032655245, 1.690782314557807, -2.8403364681391112, 4.387450325502075, 4.4381487731973035, 8.392354005713035, 2.8888208525312242, -4.254696919128924, -5.303730189916034, -5.2908335941476405, -2.8235137860369406, 0.3445097292293178, -4.08803981676309, 0.5892366611820823, 2.271568077859482, 6.981181941782353, 7.019471330495481, -0.19513382581396788], "biases_list": [-3.8051723323940045, 5.390775806532329, -4.308151164878313, 8.289608831585154, 3.684273020484939, 2.9936044046016796, 5.0953217192648825, 0.8374361640388037, -7.8773235093082254, 3.550271753272156, 2.359329185013287, -2.377864521861359, -0.32524875105811457, -0.508357505601454, -4.301287531959986, 7.478486829645391, 0.05595163087852595, 3.271399538451419, -5.162262193093972, -3.587882810133268, -1.7765254706347557, -3.7535892092899736, -4.718048574493161, -4.595434954950658, 8.719492759376239, -1.4123817807837955, 1.6015308241612023, 1.8778989695649497, 1.9103271810105462, -2.320501442095905, -2.8332514570707534, 0.7770536966921526, 6.57388325361116, -0.6176914656802908, -0.09485357273994688, 3.977237107512133], "shape": [26.4388453544112, 16.939465728974845, 16.78793471703394, 3.6413728426406866]}, {"weight_list": [-1.7153126606471212, 6.942819320012158, -4.4062808526712285, -6.104192378188473, 2.5992334025467554, -3.8204999433943287, 0.07340797268864163, -5.068488934821396, 0.8218891648754778, 5.418615543157409, -2.903940199755465, -1.4695866436003175, -0.11502364744822846, -4.523045385532946, -4.102511383155137, -3.702307583623708, 5.508428909250234, 5.842787678763514, 7.401505694249236, 8.727139978385678, 3.3282192785174596, -3.672727021130397, 4.2385494021316354, 2.732771946529436, -1.3834985850102177, -4.708425260155714, -6.798588366728416, -3.1265349243495972, -5.58519668628637, -4.213566454168326, -1.0681841289293141, 4.769499971495685, -6.245688591108175, 5.943010951755917, 7.2796101757905145, -1.2652517013458788, 2.0450247707243245, 0.5363699905827475, -5.473277817972645, 3.4860570425927513, 8.539080698656507, -1.1815152264141944, 1.204178796172874, 0.3735355123304118, 1.5155011265150709, 8.05516647549381, 1.5393495438195561, 7.152318702998885, -3.7967245947597132, -6.6210901887502, 7.0174454953733925, -0.6892410407623513, 5.984111231632998, -2.339303922078545, -1.4115819757112864, 4.782057827253594, 4.903726040558698, -4.0658573434348115, 3.3069815754180834, 0.6647419530033407, 7.947125302003792, -2.0640934100988937, 1.0408594069467272, 1.8804149133507142, 1.5295878548186534, 8.392164290801931, 4.25735866165564, -3.459504510690158, 1.610719726725209, -7.269507381421919, 2.4904348049497607, -0.1025581289029367, 2.195744576434829, -1.7125887434742517, 3.5174506936990353, 3.050323808820033, 0.15839945153854118, -5.192126914211641, -0.6564863508396737, 6.311991492592344, 6.967159484837222, 1.2184419833913247, 1.7539970007613923, -8.112000412607525, 8.835815560056643, -5.871036830397669, -6.850084909071855, -4.1545654974831345, -0.5648676036554521, 0.9330612570771912, 7.134696642729809, -5.4545557660503174, 5.346644859933347, 3.007957693002422, 0.6109575711204167, -2.19017386846633, 1.9962899028606773, 7.160426274194727, 4.141412100648201, -0.36811543145217396, 6.382171884766001, -2.3252081995357785, 3.5583737896951195, -3.703235631880065, 3.2018311715485117, -1.0040680890617748, 2.4559574103009023, 6.417959548123139, 4.21411521422837, -2.6883533745248855, -0.08459130527024605, -0.3345909097544364, 5.447677956118472, -6.014729604843891, 4.776859831234253, -4.38538096072774, -1.0930629311342122, 5.281697865557273, 6.0659531234830615, 3.256486878666748, -6.794981765771363, -0.1245715297519372, 5.113182575390467, -0.8797555764702822, 1.516820352671215, 7.599029409421304, -5.868480625974292, -8.7756855750007, -0.2755680416413784, 2.2888136760277, -2.074204618556151, 4.6547740794714185, 7.182668434865553, 0.5257917808120713, -5.739837470079461, -6.515310349586045, 2.1844993355442757, 3.4279735981647077, 2.471932008780896, 2.276842067471674, -1.4320148575031502, 2.4636526157501657, -4.431300433921039, 0.2739234234299457, -0.17536601883349112, 6.6037957289888265, 2.58572035330194, 4.7341596167983635, 0.19036052476362797, -4.896417411166484, 1.0209159197636315, -5.673567986525155, -0.036894821549348755, 2.0680956236068164, 1.4153954780236182, -5.019005289243339, -7.354952177919605, 5.190026782814048, -0.10405620071224675, -0.6712060361686811, 4.969573004843406, 5.1102972794809105, -5.274470295398778, -4.190856708974845, -5.938745034983378, -6.469993420895362, -5.352950668007699, 5.764070278843919, -5.394696034060463, -3.0037817244660148, -3.854346739891262, 1.621853122586983, -5.047283660761247, -7.074002211400183, 2.835280357836951, 10.174147053279015, -3.376547649609245, -1.1929321153525065, -5.6522073227716945, -10.428769934329358, -4.115431829945878, -1.313212175836108, -5.369238521528266, -1.766747983472503, -1.6153041168394076, 3.2606419907136486, 1.9500804541050893, 2.4766810515120614, 4.023847441387422, -2.0749783958390027, 0.3062283759095128, -0.07864396740053081, 8.663596907644196, -1.9561086215035022, -3.007019559834659, 0.15968638458688278, 1.2663775400398611, -3.306551898265608, -2.237054430330441, 0.9372651464612618, 3.6023979067825387, 5.091583415620195, -5.30547557923268, 2.194898454442607, 4.362455896347966, -1.2047788578200502, 3.2569926371502875, 3.6309207799446845, 0.6706318742924189, 7.33033560393981, 3.081940790045927, 3.029644411759036, 4.944811258385711, -6.290620263913763, 0.7218510392453197, -3.4152572001751453, -5.419542600655291, 1.8935595453678005, -3.798984719480868, -4.079440529385972, -2.3868444036324563, -6.688319106539924, -0.690906840515084, -0.7306072872216269, 5.944536550352342, -1.8352585924654907, 1.8010624494130334, -3.4447630092409223, 1.9096494268805664, -5.656556988953195, 3.349821325034017, 5.05343090981935, 5.394589507258058, -1.3251783333340044, -1.4509913601725282, 0.6417669444532303, 4.459375173428552, 2.4364345397806204, 2.2264362046223143, -8.63664009376437, 1.355122551552908, -2.6902717212655327, 2.8900428249451924, -3.7754595958661037, 1.873193670663733, 2.30919168278431, 2.4996858998848586, 5.839669259704441, 1.2533713950551917, 7.0102072285591674, -5.702069270520091, -2.4615678901720344, 0.11390634636905883, 0.7365702906056595, 6.459020789170175, -4.53691695062953, 0.7650765680567049, -2.9459376522275766, 4.6094037191285055, -3.854759524297326, -4.381594388319758, 0.49423449156921295, 0.5101733412823786, 2.2631554573959054, -6.500901125257551, -1.6628964536166826, -0.7244068141616518, 1.6671652613506498, -0.15021178113537426, 1.3299186494335373, -4.211965163088103, -0.9237054541997731, 5.993965017956362, 4.1715543656153695, -1.599239643866575, 7.3571440267844945, -5.578973305194118, 3.3923072936631717, 0.2348830450524375, 4.110425720176137, -0.6758538049978462, 4.872407256006718, 2.9533134195455006, 3.486935412587896, 7.149631076144674, -4.66484749651253, 0.0877189415862838, 0.49224950986384575, 2.3550205125011305, 3.343235455658972, -4.277746955844436, 3.5146263085470757, 2.5840530439695555, -1.0388583657462913, 4.381006434206036, -8.446543929428202, 0.8125694379010682, 0.042349987784836784, -2.912735680270131, 1.9422949078193872, 0.6329645974145075, 0.3514575219971081, 0.9855121676450962, -5.599752374653669, -0.7649804595625638, 1.1511446086109984, -1.5398988659420263, -2.3636480234683948, 1.4710000282957578, 6.163728595795886, -1.502220023134262, -2.1905000797921934, -7.559226995230719, 0.2779404351208026, -1.362577208365722, -2.8723322165553373, -4.796498711740464, -3.587940042029725, 1.0491014076932572, -1.6542090462312422, -3.441467898357004, -6.711001178475846, 0.5509623354423867, 1.350799954737818, -0.6704469088686316, -6.857941762290368, -6.234770700704914, 0.2227404969754878, 4.804181775446119, -1.1833562557048276, 3.590278588746126, 4.278657884583462, 0.41703635753624746, -3.141773472810959, -1.340907525732024, 5.311700514138887, 1.5215105616435727, 0.9311768139919441, -2.0696484268686586, -8.748003379539401, 3.293241449090651, 1.7277753228544972, -1.743373909840569, -0.9160656077722273, -2.5329531813270814, 1.249599808225768, 6.790792895321764, 0.4340493820100835, -4.626704091307775, -6.043615970436635, -5.7954205219789, 1.925947384773468, -6.120887091087311, 1.888198580282224, 1.4485747808132077, -7.073050062884977, -4.06714905178142, 4.694925883088008, 8.629364013637897, 2.849933477308896, -0.6384477981071295, -6.289761394172368, 3.798154866907127, -0.20629213596076879, 5.42021339277344, -3.2445508193718706, 0.25573511109103664, -4.516243081999489, 3.4126094391179045, 3.5094084174121347, -6.107628125868195, 3.7360774516588435, 5.397285160477038, 5.702948182408654, -4.312748746180951, 5.4547023883894585, -2.295164889221595, 1.85794570770038, -3.1246435888089685, 0.3905542652091549, 4.478956458754267, -1.158201623062262, -3.5344484472883155, 2.655928142475176, 3.1466159631857575, -1.9504197300466182, -5.592549250177183, -2.68953318476396, 1.323845386507318, 1.299067202447318, -2.1655341374588786, -2.235093860194283, 6.923166537346893, -0.3854036024105578, -7.736741650052545, -5.6301558344077005, -2.0307793846193904, 6.173369844997854, -1.3546554473418453, -5.945072209159319, 3.652089545566856, 3.983278472752442, 3.482900282248096, 0.9010747877789589, 3.054524722350072, 5.607950758124936, 2.300782229801025, -8.013567866692833, -4.283946583281548, 0.23083382292282417, -0.43512628906139605, 4.815090790265349, 5.0820036814414875, -2.481338702128835, -1.4486652571720189, -2.463877853242435, -4.367982332436911, -3.8043564406905794, -1.450819332780816, -3.088182129010525, -1.5577628052689654, -7.055326073068717, -3.221124999371237, 3.5021931876240764, -3.9068157211193695, 1.7298544299759238, 2.8288802854608894, 3.955797420054468, 1.4522413613872445, 4.71307106724427, 4.5105243789663785, 0.17035921708409862, -3.2177313751005165, -2.7709203720523106, 2.221898113076458, 6.212551545191189, -0.46401354170443354, -4.7201670740363815, -2.0789124009645596, -5.6069934943875275, 6.994161111741013, 6.4221417440272415, -2.0317730587781706, 4.767415584219985, 6.001108050078938, 4.393343756766708, 0.6265251232970539, 8.624724722209198, -1.6302576151563748, -0.1367537434307109, 2.9231441667034312, -4.423313779752873, 1.743347587301182, -7.086304125478203, 5.502195326655849, 0.6412939575140177, 0.40297416306599576, 0.8589615082611171, 0.5034818543297572, 1.2579153107478267, -7.412655201069197, -9.004996967068479, 3.299357208523782, 4.569043969384479, -1.3025355289502085, -9.634997842243225, 5.14723520802543, -0.1653454507690153, -1.60793698610631, -0.5574055212604054, -5.4799948786072745, -2.1615871556719224, 7.444289980755956, 0.905803876714868, -0.2629608187557171, 5.662385418796529, 1.7282642358094829, -1.6733995113345963, -6.721629597222763, 2.505121100175875, -1.4537416316301717, -0.27163680019393444, 3.392549808735141, 6.187959765732851, -1.8327602651427661, 1.9715451693689308, -4.339827594366731, -4.639749745553055, -1.2957704517905466, 0.6016621685130974, 0.9079248080636799, -3.0168405866211403, 6.36898986744175, -1.7448675323865428, -0.24279044817743745, 2.8607644087158457, 1.7070157925917608, -4.230825853010222, -2.3726168413274973, 3.642777631985174, 0.7696869258400496, -0.11937141828190434, -1.7277091104045872, -0.8337135000816529, 1.0344936143578378, 3.605036339711017, -2.1800342699498407, 4.66115980618488, -1.0195599766897985, -0.1666377746034564, 4.080880287620547, 7.933417075777278, 0.4084110911965171, -6.0568606946734596, 2.168298372223452, 3.4715544067508244, -4.812827416443839, 6.081311145756486, -5.500840955866355, -1.0819103761087685, 2.4851684700521073, 3.8225202483232, 4.249853306632912, 6.4528820339339505, 2.2897255684551854, -3.1577621472993798, 3.393241902225478, 1.3516686570250465, -4.937870905655319, 4.380811324716335, 0.8947492833822024, -3.2683995756381763, 4.398156787014688, -0.6558440539268524, 1.4030397435080895, 1.970717172761455, -4.235818226661974, -4.251622658767552, 2.891461120059091, 4.265104659961856, 2.5082204523058116, -0.6984853022276574, 2.9870492350379227, 5.0647602737184245, 2.728838811659552, -0.5383417454178245, 2.442085212176089, 3.835731451526124, 0.6895783746313515, -2.2124779472263683, -4.419950716263715, 0.3700347612999657, -0.2853649086461687, 0.3988956885576036, 4.22319755478471, -0.44520890851043204, 4.355640282881163, -1.6446360924680161, -1.457274894919367, 3.409504860569214, 0.9151535524767511, -1.988911615020371, 1.3846840051296212, -1.363035895137962, -0.21154774047642455, -8.167234587210142, 1.5818553371621817, 1.5658872650685538, -1.4251909598428236, 0.9396413729346909, -0.5927336022977483, -6.552021123682267, 3.2904980582525774, -1.097568606160765, 4.6832995582369135, 1.889480128267821, 0.9254214927958293, 0.9524520941178327, 0.06502315355162169, -2.800403530416304, 7.858513865984367, -2.422786854673479, -2.08603978441523, 0.3568112571918882, 5.289690730070818, -1.3891689713514843, 2.512436980084316, -0.05254670213900359, 5.830345968902451, -7.345157151599678, -0.5680357393528352, 4.9698795230277515, 4.027818817049496, 1.25688199610709, -5.627549105536923, -6.701848698920209, -3.46236049453041, -5.996841369713927, 8.080078401652852, -3.739931777968704, 1.98886927370953, -2.608982082884662, 3.2996951957323972, 0.14247651953222507, -0.9837706115914442, 3.803381516527822, -2.273837816488366, -4.339810276422821, -4.532474269835539, -1.1168848511730303, -2.6387523616633963, 1.5799179200486182, 3.654080318279874, -1.6426501364560606, 2.075461176814501, -1.358368553228701, -0.23773905372589654, 5.761875303365353, 0.9462094287696834, 0.8688741991098057, 3.4155965999002653, -8.995542379347711, 0.7357860765608863, -2.253159030555137, 2.9054099583670494, -5.14719578099037, 2.913442635194648, -8.312371934689232, 1.2320639340069013, 7.014738233907661, -5.7639634243161115, 5.381469036229731, -4.62519415449405, 1.256957036794018, -7.262693375665826, -6.9437001918519075, 6.7962950487216425, 3.1316663048282596, 3.204739814468347, 4.201591770385498, 0.09398475811984408, 9.121906753360216, 0.2593676422386917, 4.969292464030785, -1.4124088818713356, 1.408132615498837, -2.0200020314674045, 2.0248009223673282, 2.5917658145274753, 3.8453226487853103, -2.428807483364433, -6.221140034203328, -4.419120281038125, 0.7678501524091355, -4.813042960534915, 5.434609819898094, 3.9803876302885275, -4.817741332066884, -4.694321881918903, 2.5329482395363723, 3.956320042633058, 4.1802511636020405, -3.5139706173256755, 5.3436806310160385, -1.4070745144104921, -1.8378078694186144, 4.661220410534232, 2.789650371136524, -2.2256705065380284, -1.0055269351798692, 5.502100309170193, 3.717115529398459, -2.0999476705580156, 5.923240994283843, -1.7679111679852004, -7.661610076429207, 1.6970982226885623, -2.473871837196072, 0.8561104255037819, 9.149971360736032, 0.13838482609007308, -0.15488346393465768, 1.271704773723128, 6.549288987467753, -4.4491543869309735, 5.954978666746321, 1.1028185726048694, -5.297299621257177, 3.620062106604779, -2.4004579109561197, 0.9848463787697779, -1.580963640296089, 6.204946659744111, -2.177592529405696, -0.46004470781431595, -3.106838896084837, -3.592070357923152, -1.2955410051392053, -8.02688440122128, -3.969210155096958, -2.1606389221011577, -5.705947592909489, 6.609961733326072, -3.6559025566611454, 2.2808642735998843, -7.12151457947669, -5.314109491558045, 4.09799277974818, 4.864335738001791, 0.40027790279424313, 0.9216743231743703, -3.7347286706380967, -0.6935841524595865, 3.6476708664659165, -3.355853551793891, -0.7210209003062502, -2.1056697390936536, -6.645759019412126, -1.1178544895689437, -1.7841613732379973, -6.724570855080761, -1.5144824130351207, 1.3307686040588944, 2.585376991174495, -6.131491911862087, 1.0389461073452608, -5.865064184661769, -0.5893139459006758, 3.9424932415622607, 4.438886121180829, -0.10171569909814271, 2.8166733194874913, -1.4768138471476038, -1.0659498391522644, -3.706944618395539, 2.5909564803887033, -4.993611498484718, -1.1728692855763985, 6.762971372227519, 1.088620251272756, -1.979566343725872, 3.9397871495523136, -7.653311941425568, -7.691474409492587, 6.447464696013033, 0.785288282452097, -8.141367033839032, -1.8335768025728305, 2.8346763955057885, 2.025303940257843, -3.854760093967256, -0.4590416229590779], "biases_list": [-3.3154108056642624, -0.25540280230874446, -4.611566466963941, -5.2161315911055315, 0.6300341997181684, -4.514568060116671, -0.6735081177050035, -4.966888826977609, -1.4768255542011257, -1.2829448239544674, -3.59023663191188, -0.966522413300025, -0.929364648172196, 1.162891941961652, -1.704789761734507, -0.4662169908232836, 7.1750605011830935, 3.4477527903002567, -8.367454288983339, 3.228001351746542, -4.798449335899367, 6.6331595368710685, 5.333077782253453, -7.928135226323424, 2.3894684473819043, 5.4529574313918, -7.6978098785569316, -3.2016072739048833, 3.8066456302936587, 7.17419939980817, 3.521600858066247, -3.6081372076516027, -0.3997971860769092, -2.1081357929725386, -3.759039642107986, -7.164586628281585], "shape": [27.141586645797155, 15.923669898614577, 16.886250449258604, 3.096738804295182]}, {"weight_list": [5.09644143116379, 7.8918059921199415, -2.4521825005198155, -4.708542432899046, 6.70013259304631, -3.5329340888251775, -2.7302645138296215, -2.6430247674137615, 1.6229897648447613, 9.870930532181829, -8.560083572004046, 1.9781919304900173, 10.04077979084239, -6.056037182833851, -10.237853832967204, -5.767622337606248, 10.170150288348893, 5.595897133149811, 9.707805148647786, 9.086411103830184, 1.6795384475477526, 0.8005647072067172, 8.381250121263424, 6.642828140962714, -4.158481963072537, -5.844905807676989, -5.266957325955021, -7.553702442692483, -1.5138711729273726, 3.6009919511778747, -7.776759445765039, 7.130459205065941, -8.424105534656205, 4.252068935976583, 7.4457338578761565, 0.839692871999975, 6.065310924662011, 3.6061559190791703, -6.4646080476310175, 5.622910072378952, 6.612549672728778, -4.065358337639364, 6.1548177184305, -5.288128438145268, -1.2482246245757171, 8.110868084303204, -4.0582188195822155, 9.57497253938874, -8.331482421294943, -10.135292213492447, 1.9645585743152543, -1.5309680385981406, 6.053551904246438, 5.8783858220402365, 0.14207213977942756, 2.426935181818748, 6.411435344318569, -8.133450417844056, 5.613053247339805, 4.348136406500198, 5.139746818064594, -0.3739975184706481, -2.9910743489722096, -4.12240781995777, 1.7394253665395096, 5.869794814093554, 6.99700510473539, 2.7189421607570448, 4.303904615845248, -5.304047155618826, -3.143673814763858, -2.357373384914783, 4.5381837102779805, -9.442465976609379, 6.418422428501002, 8.29285686332918, 0.26822599459148067, -9.159326399705565, 6.029167904108677, 6.6895895278260245, 5.190102391729425, 3.8117485432960816, -2.927074515713545, -8.901885553158488, 9.5826184688039, -7.511636348572338, -5.806405763500002, -2.4447897934088796, -7.461547712481171, 8.00879789580276, 8.220934526928167, -5.252873567794985, 6.051106536264431, 1.0863498998435759, 0.007620408325248684, 4.1848593288749845, -5.667144397737815, 6.914084990943524, 3.4420901285810706, -10.551144805407223, 5.0042854227694225, -3.7467777699851457, 5.16493998778259, -4.733534897858615, 8.309176759688878, 8.1642552812567, 5.031789933241026, 5.636390038166105, 4.695465394845823, -7.302002884109588, 8.560983736572924, -4.032993362678156, 4.789286644614666, -8.496788390339322, 7.174273871259132, -2.1196977444152685, -2.1664922529621213, 8.286948651484561, 10.38957467400795, -1.728249153726874, -5.145458537080346, -5.6187993616282945, 5.662595760590074, 5.122587342178288, 8.628865830663253, 9.208789745230352, -5.550689577000889, -9.397618683638957, -0.03220836461495824, -5.635483138907161, -0.29014274950776175, 1.8339288018637094, 7.329865680401319, -8.929533620130965, -10.882380476143691, -9.015810657221397, -0.7441125462626761, 6.802540535995217, -5.091024733816196, 7.588194304247613, -2.966665973137026, 4.00392809087396, -3.5900658171315083, 6.3641867774057435, -5.884292805840808, 7.627228350050215, -5.461430661952434, 1.0347093928357762, 1.267671885105921, -8.322737702971185, -5.492637593936294, -9.187704457698866, -2.886667654934543, -1.1101500506645463, -4.937837559279613, -8.078449315036945, -7.100682384645124, 5.384874690108813, 0.12061646798387238, 7.572800558195828, 5.813402288001886, 7.820989485492326, -9.065679962211211, 0.7789153468139005, -8.111488465258867, -7.769888351809366, -3.9713377655756297, 6.539589154618301, -5.385590405672518, -8.574402501848606, -7.034335516928556, -4.5685513142208665, -6.093049884194406, -9.549851926032266, 8.406452847663083, 9.207796282900802, -0.7491495377284287, 1.6577421465722217, -3.354271684805589, -8.925251230537608, -3.2482028340652116, -3.6372723046668476, -1.422552038599482, 2.406280457877284, -0.46468798655289434, 5.468921881022087, 0.8165130011392692, 0.05899898321726926, 5.091594311012143, 0.2938363526825791, 10.497018984301327, -9.411984814808086, 6.4533948539366515, -1.7420806504010005, -0.819900317729968, 0.49641630420777605, 5.417295986219293, -3.7752842247399614, -0.6171031829771967, 2.0625994706948285, 0.30281957621533095, 2.6530287241906545, -7.244821382091564, -1.664536314041989, 1.290635425737472, -2.84145561828246, -0.05664342352712293, 10.176590535739434, 8.501901463474107, 4.812452839506612, 4.633775444550323, -2.4131768612148967, -0.21943872350639615, -7.5867425549514, 6.695248384802446, -2.0975259243909177, -8.569900090525335, 3.5010150348360156, 4.519195820902054, -9.197197442733623, -4.124547181716412, -7.865626102096806, 1.5874431702566096, 4.13495470697389, 8.705784046105288, -2.2657232893455754, -0.8751987802419241, -2.5650224330344233, 8.635423248607543, -3.101791794351639, -0.3149095370720614, 7.795826102337617, -0.6028000065948831, -8.197974492736634, 5.211448150355065, 4.013950119754621, 3.2264815899549983, -1.6379410200822413, -0.23211032163888912, -9.7849522479933, -0.1655663720971745, -7.176403642259626, -1.6712682457630197, -1.1640128893371184, -0.10857588243795879, 3.509145016437323, 3.8355325027203175, 8.35352598651076, -1.2061271908336897, 7.906770123001872, -5.094707415122123, -5.848742824845383, -5.415664374094753, -4.8021354256788475, 3.1771257490946825, -2.287258423953965, 5.905029192432306, -1.2638037118146537, 5.592502771612866, -9.470334022336832, -4.0935044260272395, 0.37631311189994543, -6.905820852670641, -2.208442434970631, -8.238091133865836, -0.156740724120201, 2.8173908359308433, 9.23079557665722, 0.5739830127214987, -4.296903370257107, -5.71199125687492, -4.100105603036033, 3.877814407074104, 7.682810784598935, 3.6011748009510463, 6.2398594548040816, -8.870510136129138, 3.0735087634946225, -0.20685352091059706, 6.996947945627316, 3.969406503070301, 4.49527439365742, 