[{"weight_list": [0.8930585743488961, 5.6341684496098665, 2.2729295875624294, -4.930002422879164, -3.7891967008760807, -4.7435607131588196, 3.3893317234740126, 3.4125625838431155, 3.6988674152106205, 1.3698903416956814, 4.7582211362744475, -0.19321577816359214, -0.1501379327648671, 0.03064336963055947, 1.8892214102700264, 4.9358985937298705, 3.890234171644604, -3.203277859514404, 3.027783776898964, 0.7598748461255682, -0.4087763796049293, 4.782778545099258, 5.352715569989402, 2.4889376160370844, -1.6913124223346816, 1.8975990185602103, -3.3722586259434206, -5.120540852654155, -1.471344865597459, -1.4643266743155587, 0.48610962993943674, -3.7094098101758197, -3.5856602812220286, 0.9304534759500565, 2.0038376640584348, -2.858416946579488, 3.8298033561005687, -3.2707503012303896, -4.310150458233643, -3.6040131208542343, 4.255443019013697, -1.7182175604588203, 0.4261754521529597, 0.30952702703672097, -6.1847086018007165, 8.79777123913751, -6.6758668813827455, 1.2762199842505266, -0.7441240831711793, 0.9377185740662382, -5.679950491774163, 1.93465408731024, -3.083057020597101, 1.2182220840510647, -3.75445904537952, -1.7184801376946106, -1.7091789882149664, -4.373641501544881, 6.833467026788782, 7.367354556600791, -0.7386329243004012, -2.9596593527944997, -3.22251950424019, -2.300498063574278, 0.512468820102185, -1.2600048445471368, 6.40195516361321, -3.5272343827947505, 3.1772567042668207, 2.0955829372791794, -2.2217429654370946, -6.6477549203318755, 0.2334957448460806, -4.315086714390755, -1.2849925144896355, -2.705290321706955, 1.7965676199929828, -6.811104956696022, 0.25025515046023217, -0.6258846932021691, -3.5413797393314406, -2.587299360387343, -1.7648608590566726, 0.15482980276176583, -0.67257166670989, 4.678093135297333, -2.6545369083704147, 1.730782889521219, 2.3575436041980726, -2.2590129362478555, 4.065209084179896, 4.11474688107546, -4.3040611069808214, -2.4217236460985685, -0.19330853704770545, -1.3661816286455606, -0.3295317455649498, 0.9986295640287384, -2.278494713511785, -3.8308157659413333, 6.556021985478988, -4.708202117864529, -1.243501414104854, -5.780125007697473, 4.881464445584573, 0.9319389084482719, 0.36058917019484693, 5.068071072705509, 3.9508565265804227, 0.5229993359021219, 6.576873609674914, -1.6906182635534839, 0.7713624314423775, -6.0104618603873465, 3.8623151825352, -5.551403878193901, 4.699037288828196, -0.7336818887006387, 1.7347982096728503, -2.9359051795794455, -0.30818484884163655, -0.9320201400646346, 2.531273357894727, 2.1093480889151914, 6.39173389918043, 5.444435180660531, -4.877769675768744, -6.865879654180006, 4.026502168029267, -2.6043344657505196, 2.6717149008246706, 3.862263747410303, 5.606922691112699, -4.2602606246593, -4.6575282246520695, -4.036941204150976, 1.2041269841582656, 3.420432568117599, 0.34089779758223515, 3.431294961677996, 1.545773633250663, 3.499360333576206, -6.654909123732207, -0.0004801529804592253, -2.876924856218186, 5.330456717527349, -3.0072548482899832, 4.26165770638155, -1.7959285159922955, -5.216259045850104, 0.11711197521588801, -3.9069667410386026, -3.4593349974637295, -1.5262992120174705, -8.309970877556612, -6.156590596062669, 4.0055244999563575, -0.05038713882547108, 4.055402381148278, 3.6753856864140673, -1.6418190642005557, 0.5358345610406368, -5.778946023612072, 5.462215852676362, -2.2725211179804523, -0.5125749088267185, 2.824998481737243, -3.4911658246890402, 2.194022446744064, -2.7266877674280625, -2.710216988675426, -0.1978383600744138, -1.0758692254161368, -0.6572003338623003, 2.479908251243901, 3.3479105581660127, 7.902160833890244, 0.8848671943275648, -0.9578707611529267, -7.988694851904965, -5.385684474058942, -1.7300080397358055, -0.34694948613890575, 4.647444598804957, 4.5803420387184675, 0.3151862149272153, -3.2312606979359164, -7.085349508840766, -2.467059760575733, -1.6300327770298872, 1.283510632741125, -3.389096808382385, 4.533714222885752, 6.312049221990708, 1.6518674188774236, 1.6486400588246415, 1.7319247789143053, 3.466980301495939, 3.2867009472542685, 0.10490858320917518, -2.9034745210381327, 0.7548974254518366, 4.239243130525503, 0.42396260730866664, -1.7625765123350867, 3.4811118432831822, 1.5131666573940201, 4.203688610078062, 0.4872921600984401, -2.5892584834411765, 1.2143336288841384, -1.3758740336782973, -0.5280478251709186, 0.37130254920832373, -1.3113576583459783, -1.1668005382094866, 0.015113805634568545, -5.023289734472732, 0.6080956352528903, -0.07507111345588768, -2.255768696726692, 2.2112309084679413, -0.8540087725129613, 2.432341809893526, 2.6341404579721375, -4.866225153682613, -2.3580674217049475, -3.41549113527031, -2.359943846274573, -0.6020017585113278, -7.4469886553042794, -0.37440053402844886, -3.8307656272479527, -1.56198558619781, 2.4186768986788953, 0.3748572812397335, 6.252008340082593, 2.526342914313463, -0.25972181197096367, -7.137425123838527, -4.203265334029658, -5.85182080918851, -3.547738632369368, 4.797991858808796, -1.2175328577613396, 2.050382178371737, 2.442552513083215, -3.1752865617858688, 0.6901365854541135, 9.812628880189797, 1.6957630351780955, -2.126121131677859, -3.241193972783564, -4.5321523061700395, -5.44359587261487, 3.3047006265178807, 1.1698477440853994, -0.15609106667385086, -3.6988298151054644, -1.443235528214453, -3.680268893650407, -2.0835998055642735, -2.823914100855338, -4.711335026303859, -1.7545909812092912, 2.6554058669325142, -1.6937887729596928, -1.9915475976211197, -5.292403990498175, -0.022983027540694367, -1.4703586606792418, 1.4623647432425035, -4.544081200594452, -1.9137118121890935, 2.282472211905844, 0.4075713423255729, -1.494878723794923, 2.177400124193048, -2.227854445492982, -1.5064390381740935, 0.7457928795356539, -3.044945060948363, -5.102478156061692, 3.801674036787965, 5.073325717437948, 1.545885490523235, -2.62602032993718, -2.518454035359395, 3.6207710992973947, 2.2757806316396505, -3.70242114173677, -2.5635426149531932, 2.68536303383953, -2.928037977155225, -1.461887671699829, -0.5464003207558272, 8.917782088086168, 7.6329276631075835, 0.06149538543371391, 5.577861272885021, 1.9795948258904814, 0.0724654008839336, -2.6139244474648704, -1.8628180280113569, -4.418554665636926, -6.2929621019201605, -4.253385597240635, 2.023926631023884, 5.4328287899693875, -1.330384270793072, 2.0501893685907477, -3.0713580140338825, -2.1089255900212223, 3.3706634016327115, 0.8903457791441831, -2.1670493456309083, -3.2568683327086285, -2.1909917657104696, 3.042799630145903, -6.756999092652386, -2.9749385188847497, 1.0461651870116864, -7.030003888929922, 5.66595339516415, 4.48320635466307, 3.7085139722496034, -0.13257850410234107, 0.9695853608245535, -1.1015172100476858, -3.4746463402301986, 2.9298424570493635, -0.2633099448837206, -6.8616128292334535, 1.6843066954329702, -3.394061923565614, -1.49897391964195, -4.68244225761943, -0.2436454422898342, 6.726832442616704, -5.400433204773187, -0.8332169028309584, 3.095779706849041, 1.1079838328333507, 2.7367359949244983, -5.061718430264941, -2.1177552876406676, 0.9884728165695142, 2.0578553922335048, -2.066813256228773, 1.4327107601649383, 2.244181445117681, -3.998784502631936, -1.816874397237497, 3.345822837482923, -0.03852613190926002, -2.063057464845408, -1.1093092581431403, 1.5275586068851084, 1.6779574795797139, 2.743224310292201, -1.5803365084811598, -4.080842580769162, 4.094834401733808, 4.423791242256678, 7.288155432222393, 0.46814094694839037, -4.5573583525502155, 5.461398732881622, 2.0998953115404397, 0.5382889274322054, -6.200151297736147, -2.3144793012685563, -5.426834473516688, -1.6743123226587793, -0.7140922644814724, 4.097830827925849, 1.7095844936186313, 2.0247390722838348, -3.7008550016306936, -5.852798912529748, 0.7077775606805876, 4.9189963732167925, -1.4458603808644845, 4.137446827040019, 0.2490518519678908, -0.11860389119533199, -7.363780377621266, -7.2367277219249795, -6.5550589927272425, 2.6665463119440815, 3.715077079041288, -0.6279099538092583, 4.508012877083889, -0.5265675493129465, 1.415348545431986, -2.8216730321294037, 1.0068360335630535, 4.511476150504031, 0.6104517013434803, -1.293708153889393, -0.01757701418483215, 5.757492848778181, 2.624465597616487, -1.7990295077046305, -1.1446299939444224, 4.913549450507212, 2.3605947083764764, -1.74255933224972, 2.5651582992778157, -5.023897190319602, -1.58222333799037, -1.9998383857009807, 1.8743133670911343, -3.951290556349435, 1.7643575540234098, -5.826050321704923, 1.339652739351998, -2.9519621146075163, -2.307915556603908, -1.1244952998908986, -7.872002473430202, -3.613913777190173, -0.3766699917964944, 4.207445845198494, -4.73050594128359, -2.5822588666056223, 3.3518829116451636, -5.74054336564429, -0.9318812968042336, -3.7192072098565427, 6.81081438339198, -0.8859505618515897, 5.722021015381905, -5.792137039298074, 4.450963248172879, 6.597748494569965, -0.7185071218893633, 1.924336198861667, 2.3704978192628436, -6.3333286286959165, -2.244800088391747, 1.3597087754912973, 2.4223350885105432, -4.611706755816943, -2.893426731085971, -4.006567302597793, 1.569924061175366, 4.799389351364547, 1.7652318531717044, 2.181512055478401, 0.4118235093921583, 4.6657966501554355, 3.3564538247290603, -4.7353846448558725, 4.096826360178644, -1.679430546547823, 3.5432666916165516, 4.325062715800519, -1.6157405221986785, 2.3154322922773023, 0.9414485972266475, -4.955164596924531, 10.62995950447777, 4.615770971747562, -1.7923575621703784, -1.184669209495193, 0.7655259338096796, 3.8389874862763813, 2.826544738113896, 1.7860973657385655, 4.61861375859141, 3.1282360210965336, -3.2400608758049074, 0.6869873857621498, -0.40352532857357093, -0.7734488767300822, 2.962650202129346, 4.294451844581265, -5.757006533475767, -1.9691877734580157, -3.4626884189214637, -4.121726868088313, 1.1227407174049144, -3.8023527267149655, 4.963947823760217, -0.7525260513426593, -4.348622956405963, 1.546863400508074, 1.956291453503364, 6.371093017119886, -0.7731596419857201, -3.1224774216070923, 1.073716877781358, -1.7240146007296977, -4.568663709972354, 0.24609951291682797, 5.485285879270573, 3.2422674790441715, -1.2742705569900283, 0.940113314852489, 1.9845220259136376, 0.7111178472569324, 0.45362305044550544, -3.500067302700806, -3.810762995348445, 6.765256687532037, 3.255424284344514, -0.36831276640090094, 3.347669793094796, -2.426204337224026, 3.300847637818036, 1.091667208863762, -3.151084294677469, -3.4553445383548818, -3.8874627348765003, -2.649672482831685, -3.242222821474649, -1.8920965937652046, -3.730932122037432, 1.312684738773898, -2.740142712169919, 3.930814581063924, 0.9221118470877163, 1.2272882331336565, -1.9879840729982998, 5.974942206059584, -3.8689387148241132, -3.8702375326220944, -0.18511121784471674, 4.86308260122089, -6.093618577821701, -7.555857879337308, 2.3056060674016514, 3.1892455099939028, -4.1252927839070495, 7.477344729515352, -0.6239787785438291, -4.697058714164685, -1.9916943668552083, -5.906634315072682, 2.7566596540410497, 1.0096504973928484, 1.1035922681241108, 7.200707870328035, 1.2315974345023522, -1.5545192724849919, -4.352769598875248, 1.54037345993408, 1.8282472204321465, -1.010693384514705, 0.6017230955770443, 3.4358817128491745, 0.7274246101437178, -1.7012459303204226, 5.502019814675254, -5.967850690245383, 7.33859739570892, -2.805331974391218, 4.534312985120379, -0.17226460625750772, 6.248463699777686, 1.149282345118868, -3.222795097893864, -5.272391583578936, 0.49407177051470175, 0.2251653925512196, -2.5355902985724432, -3.200502367158735, 4.950462843112396, 1.6488672210178144, 4.267363824311646, 2.991334042198255, 3.1176201298836457, -2.391380563384364, 0.7143607426457301, 1.5065965223303843, 3.468984277318868, 6.283070992692335, -1.5933485137749126, 1.4232406873678873, 7.234795084580927, -0.5634908492792359, 2.348020637563996, -2.4514699038121344, -3.6690498925831796, 5.530131195743081, -4.278409527478827, -5.634765414814822, -0.9540749542625059, -6.724766108461396, 3.1059646235034144, 1.9569801514109026, 5.381886917968082, 6.420370048203992, -0.5257151875404189, 2.065385004479289, 1.2994285265810523, 1.2725704856332833, 8.080837183778016, 2.096237549214843, 1.8321557221022342, -8.076671341032469, 1.8012833209287429, -6.848912316609032, 4.631203775154667, 2.298412549804993, 2.657782514102941, -5.937884759912547, -4.699331757858952, 0.8084055341606269, 4.197499064073104, 1.492989356662914, -6.894660358083897, -3.036001062414261, 7.160010742860516, 1.5372906787152094, 1.1037241717030444, 1.34290238192267, -2.5982531828565367, -0.6347243784455356, 1.1797686573495132, -9.38043412917561, 1.3672756780325908, 3.522179186471064, 0.5185460869409004, -2.981303303969847, -2.1745683055800864, 1.2692455452578755, 1.7825585117472569, 2.4252363637310186, 2.5857562512450265, -0.5712866026714011, 1.1538937283682769, -1.4725619266104508, -5.193817665075633, -7.5313212647770715, 0.425424281458342, -0.26690391450079587, 6.4833603029683955, 2.326171900300448, 3.9681946782244975, 3.4828683633350224, -0.5988284433354134, -3.6235920988595853, -2.587788342407525, -2.048930107406517, -1.2585018600604843, 7.037445245965788, -3.4041106337056917, 2.173005501936987, -1.1771237977080455, -4.359241418900721, 2.0846131533641827, 3.786906200687718, -1.822909977376097, 2.0551801783840355, 0.7598107636780114, -1.2312093807650581, -0.418970631983153, 0.6053184375110303, -6.1194732253522535, -1.5522414016919222, -6.16670594544488, 3.711969679663431, -5.10136773552836, -3.1366329447280314, -1.5563509352572331, -2.0331601879080523, -4.973304276696403, -3.241607318325828, 3.6313268472278786, 5.173327489541514, -0.16255015587314614, -1.5326519756549528, -4.118989316058531, -6.344751309654406, 3.502157628990336, -3.9659862181711754, 3.5292817986849956, -2.207715442416493, -4.477867448931598, 4.408023946252452, -2.2819799044733164, -4.661215487675521, -6.0539249914110576, 2.183288310788022, 1.115091910527116, -2.7871793712735573, -1.499094551884721, -1.932311050816613, -3.6065923413818326, 2.4958023674106404, 0.3513842239065399, 3.224337733189034, 3.115210729447176, 2.645930378692816, -5.157587643818671, 5.015176034498023, -0.585502645777978, -2.622297596700093, -1.3566506021193776, -5.60575668655047, -3.9377571310857977, 1.4565371369160296, 2.9490469974280895, -0.0436391754165153, -2.0200164312727455, 2.5090518222243117, -2.1966408179223307, 4.659991635198356, 0.47044968293855405, -0.31809165612412804, 4.774525591995782, 1.8711905505622317, 1.0030143980745523, -3.4019075942245154, 7.641979975794957, 0.9577116099559124, -2.511776583949425, 1.6672794834701605, 0.8128395171350704, 1.6768858184284294, 3.855692074556538, -2.547315274845296, -2.214199247585748, -4.168717808848184, 1.2093251015161997, 0.9934961870692556, 5.390511830603076, -1.5051634417986794, -1.1464859391741522, 0.6961809416864304, -0.5918034435947186, 1.098752457088624, -4.219590477429698, 1.5491129350403021, -2.704460629875422, 3.272632340719378, 5.743460394497481, 8.998029502244849, 0.10738858132433271, -2.654418197422751, -6.30238268233933, -5.893040852417757, 0.1517662645994442, 2.6841718508185135, -6.576406937942527, -0.6522146218913074, -1.3170525699787912, 5.9890110341877545, 4.279929802604633, 3.8038738317044345], "biases_list": [-3.608399157511077, 4.163542846183933, -3.330410358236386, 6.101215204557257, 5.8970512390569025, 1.3605791698266358, 3.526193754309146, 1.5226021742934228, -4.977340623425091, 0.8528951899729689, 2.7326946642293883, -0.17157678811889054, -0.6824663445345585, -2.4579870491478064, -6.90503495017699, 5.7290648368305925, 3.767665197516191, 4.30587912215638, -5.580464669283689, -2.591102668883221, -3.8404274030980607, -0.9141439858590561, -1.7822122421758972, -4.272288202661166, 5.283049938651812, 2.013735735233446, -2.591030328265112, 1.826058531961471, 3.4375262288220174, 2.725268934479014, -2.0792479008917555, -0.5409860607036541, 5.631644201149899, -1.2098478710175709, -0.5583889673737454, 3.100827604729572], "shape": [27, 16, 16, 4]}, {"weight_list": [0.451387661036728, 6.526249379752722, 1.7190789459679747, -4.840923115773271, -0.052977842679956755, -6.991278049529403, 0.639369092373385, 0.8802613875151324, 1.0627076732805785, 3.2255630356797607, 0.769731612983501, 1.0092681463368445, 2.2184505932273333, -1.7610903501587667, -0.08054715753637554, 1.9475108898623077, 4.510831538548567, -0.07443721552357574, 5.7063030277955225, 2.105231388183329, 0.40164230635009535, 3.9216738540069365, 6.079446745545756, 4.751670368329606, -2.1972123129778036, -1.3152648053309335, -3.9771454077054793, -5.5619473033828655, -4.335291297725522, 0.2062691879035139, -0.9132868464615747, -1.7679588852082473, -6.375744055098932, 2.4067287462091684, 3.0587858514882234, -2.5434081943296185, 2.786997758861726, -1.0817756460488974, -5.098075225767964, -1.1555944707973809, 4.338991842134524, -3.012541148823268, 3.2455513310241084, -3.4071405889841273, -3.828352732057101, 7.406843796046939, -5.110074475374586, 5.709624500699435, -2.447183817293462, -1.9371749208332314, -2.2173905432988144, 1.4345145481349548, -0.11853329167441418, 3.607334333638277, -3.1462216257574918, 0.2776191868719988, 1.1907868282045815, -4.976457858850433, 7.67896157482315, 6.840270359004812, 1.4951137966351817, -3.172784350950868, -4.102312118796357, -3.391125460355369, 1.444201818208387, 2.979865744076834, 6.840186146414943, -0.8080023069085767, 2.828528760160243, -0.15075421711801917, -2.7151858465848107, -4.621202678646167, 0.9824761633902352, -6.641303215024759, 2.089601098654258, 3.50083977579869, 2.2599931761310104, -8.045478881178731, 3.7824025473289273, -0.7599616235244016, 0.5200484789138673, -0.5759346327557349, -2.007222179256908, -0.8812741108301696, 2.7223406947304225, 1.430090650767696, -4.387238823833753, 1.7665585140338864, -0.7045636130879296, 2.0147833870210636, 6.092678697361428, 2.6013254381975752, 0.03839226940315443, -0.6829083027772314, 1.592378956633783, 0.05488527247257302, -2.2127848064190188, 2.580404786622504, -0.015093512970256073, -6.411728419988812, 3.8891519232547918, -3.8256453233720107, 0.13894551948056155, -4.232140924345221, 6.292432524616329, 3.270849153634665, 1.6786681054689092, 5.28238816532151, 5.8340642990835425, -2.081554488307424, 8.273269636524937, -4.669790760238217, 0.3575175778544606, -4.696949897486009, 7.024311877232996, -5.858752497686302, 3.472677112811688, 2.9013100760914945, 3.0998292229538578, -2.7557647328015253, -1.7558913709826913, -3.5506225362673334, 4.828591983147897, 2.3446137153806452, 7.066373401516339, 6.1045904800582, -5.785798269569248, -7.1138427560234305, 2.8066711286529724, -5.159683102670796, 2.4579112678920856, 3.3292211700966963, 6.321592066891776, -6.223561902985859, -6.1094119249657, -7.69304407306354, 0.6956695304878153, 5.647445253949552, -1.4020099694435755, 6.386384915899178, 0.8816275916763379, 3.2389195510500324, -5.403586022298343, 3.011355759133764, -3.4302829446176055, 6.73101362646527, -3.0669074906525857, 2.246350321083948, 0.8654819886524907, -7.365482682316508, -2.05939627148243, -4.605526526268487, -2.6892144881627247, -1.3791762270230894, -5.3417043436908, -8.203117268753608, 1.3438535222077763, 1.5860557374891306, 3.453668222071169, 6.525483794915758, -0.40127953563236296, 4.309350281151689, -7.042493446973869, 2.8828820984406986, -3.918841222538182, -2.039665277276624, 1.9995125641646068, 0.39348397213986597, -1.8967127118729865, -5.341456414658322, -6.24584064341627, -1.387442195430587, -2.4308503150411367, -4.563213342494091, 4.1815026477003485, 5.532661376492662, 3.4501927864968955, 2.409454532285512, -1.792038616407916, -7.958573368241797, -5.864492945117322, -2.997577387545695, -1.004440192476744, 4.328716894452803, 0.18410077178303164, 2.273412132411596, -0.008501672797913473, -3.697094297185951, -1.5558808417233245, -2.226206283610762, 5.8531637352726005, -6.013594816292621, 6.029186607372896, 2.639372338663426, 0.5232819414133869, 1.0319013305718778, 5.03342660425843, 0.7953890659768381, 2.375248251396629, -0.19265827213314013, -2.2141364336661207, 0.39183240974339606, 1.0761553482412318, 0.04391895469232998, -2.661633345534538, 2.02485102996799, 1.142595318167393, 7.786136062470447, 3.3249256088323147, -1.5495866661755606, 2.7012439393969165, -2.8675986796621054, -2.7223952760852024, -3.5971144845325242, 2.2318210997448404, -0.3629529974500767, -2.2749773115268943, -0.8258895507413422, 1.3416327232944245, -3.2500684177021997, -3.3736312834633506, -1.532455908390292, 0.13667754824882072, 2.520747150267712, 4.98396632494725, -2.6983583265811832, -2.303573197391311, -1.9948528125911296, 1.3648854656844938, -2.166687416022799, -5.661257826181105, 3.344912270095307, -2.945254918951155, -4.411498551797115, 3.246058935057901, 3.0066284790231226, 6.652470368470173, 1.1108937051459122, -0.18711114070697943, -8.175318832121437, -2.572065425090246, -6.37203936234578, -5.394443872702091, 2.7041874162575423, -1.76726292237809, 2.488968560551677, 1.0253748735301529, 1.2609416664336948, 1.9138407360838894, 9.289211067620517, -1.1821730389593252, -3.0622987488431397, -3.3909102448603763, -3.3301098453431592, -2.4199528030290374, 1.1767908437231869, 2.7070498851191402, -1.6145257107520852, 0.229752893369636, -3.4309976245811082, -5.353872567504125, -1.68173018442493, -5.362833132403989, -2.3103959042759605, -4.636869509026822, 1.5896061327946187, -0.4186854660793775, 2.4406268365799972, -4.0364396084987355, -0.6697500165504204, -3.3263857172282365, -2.028164557857024, -0.011073081993990819, 0.7261686982936972, 1.7241849596529528, 2.5348872180273014, -3.748755967113622, 1.3042379863118314, 0.10280876305615827, 0.9025077742545184, 4.711069699357166, -0.72930998817944, -3.1757351465524053, 3.8875495055400053, 6.576814403719221, -1.2164700221894245, -4.2525029120369355, 1.7805466727869725, 2.56958586566334, 0.5877436865181473, -5.197606054535389, -1.3163970246043322, 3.36670458086875, -3.599903144424264, -1.270142247551318, -3.5406286911379583, 8.533943084338404, 7.955073477457743, -1.9073689232644486, 0.48575576477527593, 0.749240409686623, 1.2304625781837153, -2.3962667288379764, -2.6531541293672447, -5.017711345645638, -1.1530243648497474, -2.3397925585247226, 2.0108281542565445, 5.100776798918675, 0.8532513893448299, -1.8537547431074908, -2.9919432031358144, -3.678241488468103, 5.444388627129801, -0.49908221437355915, -1.672551796601228, -5.009618289587399, -4.220221074268866, 3.4848631212007355, -6.081525717091162, -3.4470351307038514, -1.8049311332569467, -3.0932947138999003, 3.906076328893354, 6.317300286881729, 0.6717156372849051, -1.5158233981974443, 1.55731830155917, 0.6444285662439473, -4.481538924361486, 4.636291742795718, 1.263769871841454, -6.1833823135445485, -0.902937165183743, -4.669766265049537, 0.21400112034074703, -3.304283252231762, -0.5311022179516578, 2.6716954487309836, -8.558007192166128, 0.5193990721310948, 5.587331515309993, 0.5241443796413461, 6.144094958463114, -6.7447269758214095, -0.6443542781296163, 4.728840823580807, 3.1754454390837568, -3.9790456298272727, -0.32117588047070766, 0.7416691620690954, -5.451244797568849, -1.7200909369485118, 2.5043765567748464, -0.33458924187494343, -5.026339668806461, 0.6672506165679244, 2.1913121173246344, 3.901821077062128, -0.2674178437686059, 1.0204659688039146, -4.264391402895503, 4.237758619501845, 5.833873481255907, 8.37582296137946, 0.2571041881393017, -4.155003658894243, 2.5822162316540855, 5.117033992626839, 2.5813522895378167, -5.907094853876481, -0.4199092079381337, -1.4236398593986932, 0.42238401056901465, -2.543848289663631, 5.492248705396177, -2.5011130457851682, 0.7132972820406223, -2.3763307195328665, -6.225290742106958, 4.893252830552511, 3.3428069486433714, -0.4992400913656432, 3.5444952589676797, 2.797235253028073, -0.8514408727327526, -8.94329058385623, -6.245637039423781, -5.61043114015551, -0.4126697029224681, 2.7791731533419446, -0.2180104100152429, 3.83835149968371, -2.7655629889300366, -1.4867422122359466, -6.054545890366519, 0.7573062255589145, 5.679769738167871, 0.9599847284926493, -1.2883063948059539, 2.675989632090632, 3.2636071645953297, 2.2891161285473824, -3.1073366641729017, 1.6395605815792518, 4.542152735418267, 1.7047878246593458, -2.8763623004459844, 0.5514778533116746, -1.3216701359423284, 1.6744751970631913, 1.513676670223413, 2.668833902013021, -5.293311368307498, -0.9272353730612267, -2.0256560468698943, -0.9843161530990276, -1.7273444582972382, -4.360883209042586, -3.4609162563289093, -6.290055372692661, -2.8456304201867426, -3.9063084699250306, 7.246177617555507, -2.9228564577304477, -2.2736018879770707, 6.8055457726607935, -2.0230368959050993, 0.629216307272972, -0.41725858017410933, 4.7205642185269525, 1.2235466821233159, 4.911345818178827, -5.917176796549082, 8.041439876397597, 6.507112411793599, 1.447051960340537, -1.2132550599873744, 0.0028121124467073155, -3.7371503606202707, -0.7594435605103542, 2.619424585707799, 1.3837139120114208, 1.3259809301427157, 0.4481187554718926, -0.7139927823615715, 2.4872434358221627, 3.9486147654027306, 0.11929741796661486, 1.6694962149039432, 2.8462692876689477, 2.383169434115798, 7.140609414192083, -5.189087185361191, 3.4037479507689827, 0.5122083109884485, 0.6153651969170837, 1.9285952682561636, -1.1414063246653148, -1.7600605061427979, -2.096133021544224, -6.104395680008597, 10.443418719375776, 4.387847667631679, -0.6846385411078495, -4.5619558071307615, 4.149766091806013, 4.146089056114205, 2.6540667670283673, 1.161363474766262, 3.1504694375204254, -2.2325945460609464, 1.803373403661105, -0.7940713951581553, -2.4253540962439435, -0.6663422236640737, 4.612380944054738, 4.094148326673117, -8.850322415480404, 0.5396824119175343, -4.247956943059533, -3.910103283042768, 0.5238670865297548, -0.873005251654517, 3.494511469670588, 0.48168305663830946, -4.907638350253569, -1.529254885507107, 1.853406693931138, 4.651516674262957, 1.9297045178746681, -3.4916252426444636, 3.935706795315485, 1.559343007478815, -0.19627126391945704, 1.1411548614622848, 3.8558710594595462, -0.42777938727892506, 1.3747695614484972, 3.384931713992149, 2.0806657023027353, 2.8635690666676545, 1.1206843032566622, -3.690361931603621, -4.212177640974985, 4.411534905477079, 3.09449332725414, -0.37517748522300975, 4.240207354073913, -4.348037914779633, 5.490087283735873, 2.6762830920807836, -4.203294852196144, -5.3373060927167675, -3.406496750425525, -3.118886206359361, -3.16583591246674, 0.8348071310152556, -5.2660228469443195, 1.911993934830421, -4.433006037511295, 4.460060684743382, 2.5953933203609654, 3.9604333205144213, 1.505251891967995, 5.071689688670025, -0.6665828991653842, 0.023771704132972582, -3.58301482413551, 4.4724809212489225, -4.993431089065127, -7.462938557237533, 3.5175675819722, 2.383232888157964, -4.902337856282893, 9.630121094093413, -2.2581137080079032, -5.548820610168287, -2.148893072610826, -3.4677897734300456, 2.964174648065491, -0.23157337082467944, 1.4105288248082877, 6.390826972303428, 4.156851083905758, -0.2607311087579762, -1.514302416979651, 1.7803374423427774, 1.014486035005704, -1.136729812166382, -1.0616541586174582, 1.1868553578512788, 2.899744636572599, -4.392414329209216, 4.9621377235107555, -6.586255295360188, 5.365497298981509, -1.5344161183068692, 3.1422070684748746, 0.6280604947529838, 4.227462785544534, 0.36975136672765085, -2.065569336955988, -2.679685915908335, 0.9665365081003112, -2.191634937097938, -0.5553082762377028, -3.497056844756436, 1.0269981279809448, 3.677143371576512, 3.7412543794991473, 1.2302572260834346, 1.2038041062361566, -3.5701665375292, 1.401021822749569, 0.44807446647310645, 4.3287590840439, 7.9278544595629, 2.2226291496066715, 0.9871934666442981, 8.165845845560883, -0.9240168204941719, 1.0951698777683534, -1.9201508739264854, 0.4844832114175517, 5.0217370246782025, -0.5748208821234115, -3.199398629085842, 1.011882005105643, -8.418054817482602, 4.298500832966422, 3.016563088903693, 4.581795567187037, 8.161222610572148, -5.741302024710219, -3.098465566425422, -1.7798655014564815, -1.334717047073967, 10.226517779051555, 0.8502299537449809, -0.951661446943941, -5.625623822538602, 2.4786888372923253, -5.45182433048441, 6.118818045277966, 1.6192266216034636, -1.853260386717253, -5.638113135246066, -3.768941763231199, 0.9002714378710337, 1.4815743341761678, 2.834142784941212, -5.4147760407469, 0.973396050657521, 6.32208986097036, -0.9826316098385126, 2.005109979836844, 4.772959293023827, -2.60201212604878, -0.8925529625508812, 2.3439018590703906, -9.084832982439607, 3.3046512378107185, 3.6967098921209836, 1.1298747570542012, -3.2720181448487056, 0.43611230536257684, -3.6653236400865725, 2.5605235311180627, 4.570327509364014, 0.976439351506261, 1.2165855070056457, -1.556648948102029, 0.05643992406764076, -7.721697391580554, -8.59282100453769, 3.4329634331991823, 0.6260550860736986, 3.830915097787212, 6.160561360505076, 2.6189657283188117, 5.218296602045588, -2.9023541041206027, -1.7694277374798963, -4.014543688573317, -4.254881364409201, 0.9136818214020492, 7.505379566113072, -2.917284804603341, 5.528273457783905, 0.6172761803136648, -4.849195586136107, 1.3660429481142833, 6.3467407121675095, -2.5433189522677178, 4.995026135761249, 2.74572374042192, -0.5682820586105817, -0.8070894929749961, -0.37311201830791574, -0.31278878824864353, -1.5208070299150012, -4.595132722441519, 3.7967220140221283, -1.642738525648505, -0.46162458875376056, 0.014332987388139706, 0.06583144341944758, -4.255298314110883, -4.730405049305301, 6.000968280974202, 5.687711957781714, -3.176465043644006, -0.8980195649088594, -4.182109283194739, -7.4275296963804704, 4.679807575825586, -3.0285262410002236, 2.96260286964506, 2.5256576080401842, -2.335026070700583, 6.281484634317854, -0.5046831464008803, 0.29384947700481834, -6.322481627337821, 2.9311387338367245, 3.3606367253481952, -2.8785349123577126, 1.7262791976004417, -1.393667916335744, -3.5226591347217893, 1.053045188951777, 0.7547142125409079, 5.233935512090357, -0.23656775639852656, 4.143157950602415, -1.815425267277415, 3.34084796240416, -3.7241383024482966, -2.4825780950474003, -2.9553677499556112, -5.44932786053959, -1.118146772235876, -0.26813462158228374, 4.2520242208767165, -1.6510477182327927, -3.9640757172878343, 3.5961142213075545, -0.10485973483011357, 5.759259898230264, 3.278683877885028, 0.27420780898663466, 4.465692624488826, 4.146254269312742, 1.1449300857942135, -2.8038447633088897, 6.301621800371085, -1.0028156722524861, -2.1434127142150055, -1.0034280696760294, -2.482549641651259, 2.9030965962936155, 5.1642985255812, 0.4502021331649586, -2.363437746802913, 2.3207320232798683, -0.9075550520779543, -4.057944451473722, 4.545580392716447, -0.13304235687369126, 0.5164003440307852, 3.1341321432200004, -4.4566802906027165, -0.6921028123381028, -2.8961291874628348, 3.7140942544618483, -1.090752557961805, 3.0439910522460583, 5.016772961910037, 8.176018518222584, 0.15385959444301744, 0.09969944052318769, -6.803803458990554, -7.083311432735512, 1.3187942101511507, 5.083757684786953, -7.05595992326148, 1.252754958094478, -2.468829168299278, 4.49920343204191, 4.9492377249164505, 4.940898366286175], "biases_list": [-4.015554046361582, 1.56765251743363, -2.2392652186261968, 2.340788818516329, 6.842081427197387, 0.49494511792354623, 3.94411001508767, -0.24554864214303995, -3.841895155860917, 0.6944320069722703, 1.311542707724274, -4.355555576002892, 2.4461728739066317, -4.248402199183916, -5.870399175081143, 5.409463574934988, 4.925765115680064, 4.459853919928024, -7.115789739100934, -1.0781432506794002, -2.3906492772815637, 0.23615623672912278, -0.8037916571495809, -6.089380763061841, 2.6408966139117362, 2.6883518265327018, -4.9179943484396755, -1.0619370674156614, 7.292906309321616, 2.0227480784764817, 3.3645482165421985, -1.014677285947987, 2.7080414572049305, -2.913275908690524, -3.0523383989141015, -0.8332204492021531], "shape": [27, 16, 16, 4]}, {"weight_list": [0.31942070967391656, 4.578465699294023, -0.03778914746575779, -3.474219247799348, -1.3288869103358576, -5.3690688077131465, 1.1573034225264056, 0.5665575927802193, 1.1924090272124022, 2.603731372958144, 2.382617877108856, -0.46865315206028224, 1.201379496162457, 0.12435052636068211, 0.6415439140096741, 3.937033592472371, 5.388450494697972, -1.643124483369184, 4.4601388210155175, 1.110941451066612, -0.2530621471029355, 4.896815840528905, 3.977336784181408, 4.271767595508241, -2.090518304182229, -0.1503833640098846, -2.905830489264104, -3.953396456528343, -3.152837628526688, 1.6300062125762649, 0.7854624858653003, -2.0501568048465613, -2.3091679438530743, 1.553677281447484, 0.8387066148037177, -2.997690561934995, 2.9727463061593995, -1.7436181529281691, -4.015084826357622, -2.2069156053274117, 4.737378496780221, -3.769778233035984, 1.2306627357352786, -1.181293587406713, -5.894709567572335, 6.596566773621708, -5.53391134919266, 1.4954466068717727, -2.126828657161745, -0.22493950286297493, -2.5156314311189125, 1.9632115608217862, -2.170981621942044, 1.5537525752904857, -4.5190997208373105, -2.624447914901447, 0.14991290936129964, -4.254885285039791, 7.0242723128018625, 7.431504913853528, -0.3540446144196483, -3.570290406135535, -1.772092156000272, -3.1549235924881467, -1.0587369896411178, 1.8332621407712177, 5.135410243023926, -1.0885543068761252, 1.7571152020859993, 0.0753468240945252, -0.15065189324448847, -4.519075991815264, 0.6870090266137241, -6.0923285570112915, 0.37422157212434826, 0.8547806248279146, 1.7735901308831266, -6.08043245670721, -0.2625404929491073, 0.012990862568233563, -0.7642094212683568, -1.5653618679081187, -2.8642369755901997, -1.3692649846261002, 2.6195530276607624, 3.4554308716431565, -2.751441040872133, 3.040342549212096, 1.0539909570814139, 0.0052114616718106355, 3.978520001691437, 3.1795913761976813, -2.986618017287359, -0.9206508459975611, -1.4369571816752822, -0.7222579702538985, -0.6793180212103036, 2.723007511144311, -0.9715867333481292, -4.716762924734042, 3.8054813660982285, -5.6830721139390805, -0.9100817963360659, -4.074969300624138, 6.808367235050825, 1.0671538210966953, 1.8604990270601718, 3.338446083860921, 3.221299208047279, -0.5125044061313334, 6.539378806178213, -3.2247264025364597, 0.15757586960421444, -4.6339859247698065, 4.070948011177533, -6.045164129238481, 1.099826097855182, 2.1458583274996705, 3.234890426841499, -2.086420690417908, 0.222291606907421, -3.0353361514031656, 2.4211269803763455, 3.2439888106137715, 5.4898317120554205, 5.508839204555638, -3.7483794510287556, -4.999987107357487, 3.367416034893014, -2.1670882960306264, 3.8001738375215517, 3.285868078264965, 4.40069057892559, -3.1991924068448316, -4.686087508864732, -5.110454304969453, 0.6638242185287688, 2.274742900780222, 0.6893056112368223, 1.8474393351797165, -0.5908483301191332, 4.051151936479316, -4.967661430232275, -1.3919991466846278, -2.514303860391125, 3.4027359901178587, -3.315093381021275, 4.53361644252387, -1.867521525257715, -7.470284278741273, -1.6104073787998268, -4.0180066762742035, -4.043513090506334, -0.90375350949967, -6.366344246968094, -6.283557306646783, 2.624743090008007, -0.32904997705029826, 4.394728349102448, 3.6827528260948803, -0.3337284952565155, 2.423225728182518, -6.541239172156962, 4.275701623184191, -2.3984813656936605, -2.5653993728085593, 1.5000106634915147, -2.3916973895551803, 0.09646100137380653, -3.344828466994477, -2.374438448176596, -2.046701060973602, -0.901002210765464, -2.733783758957116, 1.1066450290748495, 1.5848808086679922, 4.8230752711550045, 0.6811850421004635, 0.210779624790298, -7.429367569094563, -2.203738932534797, -1.7251064560759264, 0.48073016637749255, 3.3067506725690112, 1.4729316250774316, 0.316886144024918, -0.5210427262326183, -3.583976120726428, -1.945421237668231, -1.5113531545124967, 1.652939520280233, -4.100155700828731, 4.525084345553777, 2.476629395756274, 1.0844920485758545, 1.4897008334772455, 2.2909938489515103, 2.64990054323831, 2.1148365493244174, -1.046160179216666, -2.6010368661239514, -0.12268475170466608, 2.5088786907140275, 0.7640871212827955, 0.4666676446432838, 2.297430418497755, 1.8898482673356134, 5.1951252166095, 1.6986869973091916, -2.5813546790430815, 0.010207431508302278, -0.020087695558683727, -1.5393087833586145, -1.1495546468596376, -0.4903166577498428, -0.6731100964660832, 0.1275721558839611, -3.2490359314646784, -0.1707518898640864, -0.7104883592329615, -1.7710086324965568, 1.8744233095477902, -1.5603809532914317, 2.6951382074211354, 2.1558946767505636, -1.5431582968331243, -2.5313872023552073, -1.7105994097604815, 0.7402124218252282, -1.652342700114575, -5.113585671170842, -0.43756438730209934, -3.687054764859883, -2.4876020078163847, 2.6922755681273745, 0.4052766723468293, 6.6822644024707465, 1.886071029103526, -1.1530919275210918, -7.368578062483553, -4.144133884012616, -4.386119035504719, -4.328045679728138, 3.9141205495916838, -1.2084854578737079, 2.9633396537970755, 1.897005676925279, 0.19619664437839535, 1.9446740401184281, 7.494404670233601, 1.4044063754105034, -2.0185477243719827, -4.061557699210905, -3.4764486725801342, -4.019546424600995, 2.098440065496326, 3.469125763364673, -0.8877783597631692, -2.991063560665186, -3.1052424739716438, -4.904446836311248, 0.4346636037600786, -3.6826298774867583, -4.75539010872597, -3.800169822942393, 1.611806080574656, -2.4825006499383937, 0.6795307485074891, -3.0637843475818194, 0.7392817593410166, -1.4531362073744527, 1.4746307990085423, -2.8415501678863326, -1.7891074941287382, 2.3160281850211737, 1.3659498927724671, -3.0941883923987303, 1.6922464028122355, -1.4160587042757165, -0.48881346057162944, 2.4121004624425604, -1.9373013979479936, -5.203863547039645, 4.777707583324787, 6.187878308331619, -0.003045541617235914, -3.1161964029267537, 0.35325919518861437, 3.0608779260616448, 2.3871446390368942, -4.250412912260421, -3.168148004223031, 2.2352301324745993, -3.677700698256542, 0.10114910144249567, -2.0202517081217777, 8.7363370154341, 6.148604270930214, -0.33749998238259526, 2.583511635476012, 2.23787668135519, 1.2925339672515093, -2.0255734257649367, -1.62187695556196, -2.3169098663539347, -1.725377734225161, -3.3393604379633306, 0.6345869225266527, 4.475356856135932, 0.13495947523602814, -0.9057004891678653, -3.6508804046207493, -2.0495897325311088, 2.7821397246111426, -1.2151078774036064, -2.519071824393183, -2.4573748025977062, -1.3731167654471605, 2.3442605652402175, -4.886218457414151, -4.2343631135582065, 1.6914886482599916, -4.839585696451722, 6.040638955192459, 5.005369185950213, 4.222294783032058, -1.1244914955038123, 1.9179886765967131, -0.7051231555991826, -4.49685215847728, 2.074896929581607, -1.1146235332396714, -6.702162262487581, 0.64409455676171, -3.90815357545005, -1.3514216839761841, -3.218048837315646, -0.3236069007452429, 4.040262457621868, -6.333482673250997, -0.3368330979958263, 2.8172877654776123, -0.80840016230689, 3.9629808605774013, -6.935871835877254, 0.6339835296224674, 2.55226982600068, 3.1915831135084964, -2.2407576630938646, 0.14885673931049226, 2.8998603944135923, -5.309288278560829, -2.221578953461326, 3.4173325802773142, 0.4272936977690742, -2.972309835346943, -0.6903076201136049, 0.6549596273928922, 3.3312898898953387, 1.4407963788954108, -1.0114552125682708, -4.32715898056677, 3.2606934840135455, 4.078223045168308, 7.4502416888162735, -0.602884720593813, -4.427105877755154, 4.006839254713118, 4.302327123450745, 0.750489577144053, -4.197734596707868, -0.8510065202856743, -2.1162996041209325, -1.1609626440423724, -1.363265663617106, 4.4398128695765084, 1.445679443756851, 3.3486335564614134, -3.3391317666250417, -3.7193987023343347, 1.59078876160995, 4.776952645406279, -0.8374696360021188, 4.982032036297114, 1.1885079354511943, 1.3004035152040045, -6.960581575611802, -5.694764496898102, -5.7337678294315175, 2.3907717365667107, 1.4077496291042362, 0.7331838325150464, 3.628613867334538, 0.7610190532474195, 2.3306727502288744, -6.059425352036873, 1.5069122119566352, 4.305955526667054, 0.7477159487021259, 0.006098748088886552, 2.1132260280299073, 3.434391963055905, 3.331678224583566, -2.2945108411784485, -0.9223706343558802, 5.79333651523139, 3.377067867971725, -3.32304829341249, 3.2399057473519957, -0.9000046045442098, -0.33028720274600276, -2.2720139906074297, 0.8552430856399673, -1.5420943041098492, 0.8590373326675724, -5.587154155945431, 0.3092068156579635, -1.6705535455872784, -3.1359230284646578, 0.07585279387206656, -5.220468404277843, -2.766740373114172, -1.1420647086222582, 5.4507028496414405, -4.996109474382915, -1.0475157334506413, 4.810303951101919, -4.566480710927483, 0.3608988259243966, -0.38925904937799793, 3.5687264600390023, -1.1147878410407501, 5.235127758536358, -5.622054681188423, 5.376022844135464, 5.601130926977916, 0.26840856571574156, 0.5123718758039884, 1.4635481291520591, -5.814996341511777, -0.20839801791349255, 0.011075879952515244, 1.3638119202340588, -2.0162472145257344, -0.7289708662771202, -2.762995270980336, 0.9295701999327923, 5.423352830663163, -0.1375604215857833, 3.034800812623093, 0.8366116454753387, 2.784444338892508, 3.51414289787939, -5.524469732375805, 2.0546465784033483, -0.24858749262924773, 3.534441996793488, 2.9419926583927056, -0.5739492764289379, -1.3052895335886305, -0.2281828027895052, -4.955813350202858, 7.8156008601011955, 6.737988655190756, -0.2854672006889055, -1.083091285912689, 0.7496272840072677, 3.7956782222726044, 2.6119885213755882, 0.9529970220404937, 3.1346792541841406, 0.12917353825389233, -1.6419124075069067, -0.5508458856507048, -2.1536416956367623, 0.5214889158994194, 2.8015588714005055, 3.610068012877008, -5.90320950229837, -2.2782366317819926, -3.270151685750603, -4.636782287436952, 0.43410574540703184, -2.3282335673293466, 3.22436430844518, -1.182273361378959, -4.775805193755765, 0.5545028673351955, 0.5147006677178014, 6.456691958595318, 0.4311024917668529, -3.8385976618009066, -0.2757479528210566, 0.49706970051485166, -2.6562478815572095, 2.2311066854796904, 4.5358332299568875, 0.34659976215959376, 0.2746956604183517, 2.0096660176229837, 0.555090599853441, 0.5089440904553999, 1.2571631059135284, -3.420363411121885, -1.7247405614128275, 5.745538583174893, 3.6776313234546967, -2.197780869134594, 1.8025843585809742, -2.5212637436789453, 3.9925410239098555, 3.630932462326548, -2.895992550821538, -4.7818902996197306, -3.7985774283446916, -2.7147796360935006, -3.1363500802667152, -0.7755422384052599, -4.293472219028698, -0.3833424035449833, -3.019031701512885, 5.242262243573299, 2.148953812728603, 2.804619144902327, -0.6634934646679813, 7.2478269822749954, -1.8398759003941587, -2.5401093410842126, 0.3821663761640677, 4.360465738697228, -5.652912814311569, -5.919277936302741, 2.9889955954553753, 3.0722863328778285, -3.1586738818734608, 6.708676687243335, -1.5364476512724277, -3.892286795938878, -1.0031986634139816, -3.9919051036852258, 4.107867441677557, 2.269578463398768, 2.0897311568956214, 5.488159295002366, 1.4676476678701835, -0.800736236731191, -3.3854450507620415, 0.8273110214948352, 1.104655174017119, 0.350547373937367, 0.730614950115493, 2.5796761370127195, 1.0615745582280005, -3.076158868748225, 4.891307641906831, -5.243740382720578, 4.888269031729589, -1.440231213764239, 2.3775398120188935, -2.3108397031995853, 3.785117401783043, -0.2940553520681426, -0.6551208695757151, -4.4496533399855815, 0.0022550426083021158, 0.17753025139410195, 0.24203444823933928, -3.4289494918224803, 2.031092705228655, 1.32362929341733, 2.4668079066774022, 2.73798934026032, 0.5576713785858154, -0.8833797353505652, 2.873725613337756, 1.3119395713402935, 3.2316886764898864, 4.841309580747248, 0.35506590543782846, 0.3468845719785014, 7.140996476034088, 0.12735390244370826, 1.3574238502110223, -2.477734378499256, -0.6045191063715809, 6.157361995823762, -3.2618585873869756, -5.820416692377764, -0.7080681240541095, -6.28340450466115, 3.159634538481379, 1.6709020610671192, 5.954280044306858, 4.318258650599212, -4.03176730896628, 2.4700651284550057, 1.4437826026896348, 1.5880716123683074, 9.06206494443794, 4.034004825407382, 0.21126472414802722, -5.638902725238636, 2.0021118504892845, -5.597704571903767, 2.7500017188463275, 3.118930378954923, 1.629372811339512, -5.106058017352241, -3.633706413803414, -0.11221915211959699, 3.788514379237771, 1.2989762302599743, -5.685418400949331, -2.574942703855532, 4.693324575554783, 0.748918292440818, 0.26734444124910395, 3.6468867030272936, -2.2198823737990385, 0.19833398010991243, 1.0911588244583035, -8.865324401397706, 2.4207273070150097, 2.4700528234423125, 1.523180893930097, -1.9602993783832485, -0.9075253439898823, 0.2256336103418186, 2.008641716053133, 4.243134677995492, 2.8357946751646415, 0.8027419443593806, 1.5431455737541877, -0.7117190036226799, -4.392099083858124, -6.9981878293521005, 0.5239425953021009, 0.28352377587322364, 3.7129026036147046, 2.3255576094512955, 2.2653310916334166, 3.884159963517239, -1.2180565531651273, -0.3257712027515647, -2.170893458875058, -3.1455514641073536, -1.6149454652877449, 5.438468672192407, -3.664876266265145, 2.8750500654211155, -0.7539564231573649, -3.1012249202974154, 3.2126167308111464, 5.247694582234527, -2.2167501084031667, 3.4857867084307763, 1.8364830707278834, 0.8788512059195384, 0.7100466248453547, 0.3486783063754484, -5.37182918369907, -2.4162443876431157, -5.059715004091434, 4.138570512239626, -2.24916696522392, -3.797716994355838, -0.8517418578186953, -1.513198679563504, -5.030643027542208, -4.124912737299773, 3.781609109148148, 5.343930698138771, -1.6207320332546744, -2.5460685788780086, -3.654260609599903, -4.311752149002449, 2.777667610987001, -4.076582927878677, 3.3788919913907716, -1.5854528861260666, -3.264592056386355, 5.0966528502504165, -1.57440662067725, -1.8796116041422175, -5.608443976543883, 0.9679055141607371, 2.33395002954048, -1.0222052819970804, -0.6834744328310056, 0.04183456821297549, -1.5255970529788376, 1.7447579824063268, -0.3318991552655579, 2.3334478088890096, 2.6181613643141706, 2.489263715467426, -4.356534664357916, 5.255730104177172, -1.8225732877288892, -2.1212830274065038, -2.5851253493541373, -6.246771671936492, -3.2768316804638484, 0.11364035626150248, 1.2170281957002138, -0.7177893403644396, -4.238750086199208, 1.7243907689788616, -0.5353638596803241, 3.0757512008939845, 2.098267515548828, -1.5482479473458457, 5.187014010783489, 3.449998275915548, 2.4651995518632397, -2.773498586629903, 6.0522329367919685, 0.420475004910583, -2.0765074885721146, -1.4138581177040834, 2.217082667721379, 1.2907323935101824, 2.8886379090602254, -0.001236794902160998, -2.1677255300272247, -0.5801659719109238, 1.2321556793554658, 0.865192386417923, 3.3798268100352544, -0.19927082657815642, -2.460174084398786, 2.2871216467573294, -1.904520441348543, -0.43828715097079995, -3.4479867853974904, 1.1562455355433232, -2.2732989273296007, 2.8572853796123603, 4.913997115716118, 7.837740265901015, 1.8424390319280466, -1.377091979471522, -5.422757981023993, -4.701437761017446, 2.9485991322041807, 3.9804703799453574, -5.269496933819173, 0.5154457909921799, -2.0650820983118776, 5.356512376524041, 5.5584819599155875, 4.839723503264934], "biases_list": [-3.966467647980073, 3.4115029414184974, -1.7363463485068276, 5.053308817276995, 6.8861029185863245, -0.15538409093966077, 2.1937984218905946, 1.8305088181883535, -4.116450088121435, 1.4075239785248135, 1.4797213577983248, -0.8331078348421717, -1.3471000835091926, -1.822533180752817, -4.778656109266671, 6.20193146242051, 4.750120084914684, 2.063902611806898, -4.525860503438511, -1.4662911123680595, -3.621230821203201, -1.8738726896846822, -1.0925456806774254, -3.1716278722409452, 2.6356906183580335, 3.3332875211816404, -2.46404393804755, 0.653459685971655, 4.321729471967025, 1.8631181687916474, -1.0327139824133067, -1.0851092180651922, 2.9839161942006824, -0.22518952652939372, -1.6008657251043013, 2.1392368241239725], "shape": [27, 16, 16, 4]}, {"weight_list": [-1.2545496558698388, 4.830727770207522, 0.7078044594532349, -4.647030826451434, -0.03386278799247555, -6.32789834063046, -0.7228634492247574, 0.0017870212389623497, -0.6584453861416726, 3.8714852958698636, 0.9370967687192069, 0.016745196716936306, 2.1576873076557135, -1.0841614947972693, -1.0189032510512126, 3.5610653660774387, 6.3139620205350635, -1.428140676829248, 7.02818536845143, 1.3214122812694837, -0.9558041497985397, 3.8864202238678516, 5.184105625621584, 4.039691509140559, -2.502864659410142, -0.9793697899500499, -4.0510420409526535, -5.312481481227964, -4.671994921125451, 1.9007547104351645, -1.3840823824726296, -0.531943461577903, -3.9265012484886617, 1.9808947303146098, 3.6682179579850693, -2.570393813409196, 2.5386198246913327, -1.3645128850186163, -5.527139895552307, -0.6432315722093611, 5.50372695514848, -3.6760621971479175, 2.8169887703909025, -2.385631064301565, -4.226012492382423, 6.040791670039939, -4.923435159670733, 2.686410790535537, -1.5580601011682103, -1.4056800944149663, -1.6354992481563733, 0.3744663274833071, 0.5342075711416672, 2.593808235998819, -3.6385511870887672, -0.06389707548904622, 1.1395444187851917, -6.843175308390505, 7.232012393254562, 5.773079723438132, -0.08385266018050463, -3.8025105595757336, -2.797223341950711, -2.9985314789766786, -0.7264501454774575, 2.511909011073765, 7.152333869801099, -0.6090714893170076, 2.023437355091035, -1.997334044447327, -0.4464094376935426, -3.0119713195869195, 0.7434018949036885, -6.782369879881582, 1.6814613927701791, 3.536328154274848, 2.774086792225785, -8.060866781790287, 0.5966697088166599, 0.8828061392447304, -0.4104987775449668, -1.1001338215914982, -3.1186692189414, -1.8882982571706983, 4.23360669278161, 1.2555214711410714, -3.7230567272603574, 1.9364514193249995, 0.5954965627087434, 0.9904967150416499, 4.986107781777655, 1.3584323066525945, -0.7516147822974726, -0.20875772044631202, -0.015482543160486917, 0.23208782621590673, -0.63772464424277, 3.7608212760670714, -0.8959513144799718, -5.7216136092940255, 3.2166592172414035, -6.480036721637237, 0.7372480668093102, -4.069835255560844, 6.898655736587632, 2.2338173808694735, 3.1549708835560564, 5.386557047892813, 3.3449677041625563, -1.325281368026408, 7.832269240050843, -4.439964610031062, 1.5658759961218087, -3.7593119307711884, 5.553259012297928, -6.33335454604299, 1.0939502093408393, 3.1845489100461046, 3.88470566731392, -1.896600724550693, -0.6278475046435235, -4.114824460390981, 3.819240406608281, 3.88933458627678, 6.1815534191453505, 4.409551046721372, -3.5257044724902493, -4.335746729399651, 3.9829233165475433, -3.848239438488088, 2.967545016479959, 2.9608407365399296, 3.964103816035724, -3.854516310718888, -5.433788627725497, -8.10945411569142, -0.5911131463358115, 3.2929367760168855, 0.8893952460860479, 2.854465489842885, -1.2865801701813777, 4.519798897351008, -5.277002248984056, 1.3190960995288945, -3.8157003327351284, 3.191074642868058, -4.82201267902913, 4.139408007909587, -1.0221537534303842, -7.213259806691384, -4.629977031954166, -5.383680735639593, -4.731560792768464, -1.295307580739198, -5.854181498533067, -7.297746900531438, -0.258114590009934, -0.04564572226743979, 5.076511548094021, 3.815031583270203, -0.2876313105592787, 2.1813368984435275, -7.013999273704228, 3.464493929685002, -2.6719790910727577, -3.3326954872311356, -0.900376163815613, -0.024415322098993886, -0.9719370259417308, -4.656803693012087, -4.428784037698619, -1.8465430705988106, -0.8850673537206464, -3.7780218038981452, 1.5816866836769705, 4.141950554716907, 1.8111353626532392, 1.523873946643115, -1.270208377734011, -8.835411980479801, -3.2186604179078016, -3.0673412482679328, 0.3683997690430161, 3.641219432092446, 0.16512297276969212, 2.9926460488318147, 0.6997522485469707, -3.752251312386094, -0.34589255894823134, -1.2470273308603421, 4.295162400872832, -5.707910950104552, 5.19332468380298, 1.0215706018092985, 1.6284214144086304, 0.6962444733874458, 2.336622308700413, -0.04992647981655085, 1.3689600566994908, 0.001955474836700999, -3.1413553735130915, -1.1753345262948645, 0.4337482255458023, -0.18033297800362535, -0.5721277690194688, 1.5073369597909885, 1.7549445521562559, 7.104638795263808, 3.4777664293478256, -1.007057490833696, -0.19082388903720882, -1.9961141732974703, -2.11721633079824, -3.2511769897498626, 0.5911025214820915, -1.259230100481071, -0.9091023440229566, -0.6321179752815224, 0.3955047422828839, -2.6785844979803493, -3.148851453245748, 0.07320758966694907, -0.7818263232875153, 3.238692286711963, 3.8561734194339774, -0.6405578457200019, -3.9933837771343255, -1.483510820404478, 2.2258619675654296, -2.2668926961052476, -5.561582273271952, 1.1485389542892914, -3.540747342776454, -4.153438624762211, 4.69622577941015, 1.5248697351058587, 6.531307823391763, 1.3527363052741994, -1.158734126758209, -7.333561746387058, -2.425375989124496, -4.401246126865878, -4.672516847868573, 4.447778691052325, 0.0029570011009225627, 2.5234818409244233, 1.4823989718404862, 1.9077383691504504, 2.341556296882553, 6.698299426733375, -0.6105828134999006, -3.124543061052761, -4.543464487831774, -4.681143873669901, -1.5272500870032573, 1.525568333127314, 3.7468384478555565, -1.3165055505219472, -1.0568075922003386, -4.839735177568043, -4.569860997832208, -0.3918263367624768, -5.6548771178589385, -3.2224657813577684, -5.784530043131443, 1.3115826355773912, -1.7220603740778062, 1.7850727169935734, -2.365518206069175, -0.9006783037640583, -2.4062370884817064, -0.6616824578121682, -0.6703983729823326, -0.23494270873121825, 1.4270148891365841, 3.0843304934973332, -2.7915661403319447, 1.2868506787284941, -0.8036948093779992, -0.2880314128700794, 3.285067957892326, 0.2071963598486466, -4.258830615884158, 4.073443226879547, 6.917573495367838, -0.8579833128951833, -4.846873051724289, 2.1098174982456985, 2.239812553830633, 0.6904755147712853, -5.071412942403606, -2.83570845376882, 2.0742187000597845, -3.455118680038309, 0.22838517459423935, -3.2910420983912383, 9.820964042858584, 7.152717983148696, -1.900964351338767, 1.3885452455078302, 1.9210146768271392, 2.2966257662941545, -0.9461319268645685, -0.34832131350635276, -3.3206365297849687, 0.3595492454880085, -2.4778152710350447, 0.266544683084152, 5.72381322928681, 1.285943499864052, -3.121065922032681, -4.4393761534423515, -4.08999184218723, 3.2609908533222685, 0.2311757965015162, -1.7205878654998674, -1.8924295527001467, -2.4074805513205746, 4.17896317547655, -5.16771009735718, -3.5451912807016663, -0.6561237339097684, -2.8428795540115814, 5.322092987975116, 6.800312980694612, 1.9923564432901477, -1.5180236156448306, 1.375171484926062, 1.4796088753507144, -4.226822173432711, 2.357876901496639, 0.5382503318335021, -7.090656190385898, -0.37063321825926954, -5.774513373673869, -0.8687785840877079, -2.007888486085596, -2.218886449575482, 3.482292955276961, -7.281252757861941, 0.028146547463133498, 4.471015958305802, -1.1201897848431333, 3.6717598639216007, -8.854709462241598, 1.409160442238484, 4.09194637473923, 4.607103807015472, -3.5119627747192794, -0.3716775549678826, 1.5156330707191765, -5.8475950596305655, -1.7797185916223275, 2.5950774521703917, 1.2241122953954915, -2.141445215093713, 1.363309319241035, 0.4691299347597764, 5.333751677610152, 0.4946736603202233, 0.9717291475581971, -4.507295327536773, 4.6142071182127005, 3.627477766425887, 7.420717533679374, -0.024163976301927903, -3.5424100480901735, 3.01182163282468, 5.110597445299162, 1.4487662506068548, -5.742734825557495, 0.1825749313567111, -0.3605436779285798, 1.1676121432073248, -1.7259538865811772, 4.851073755788854, -1.4243913532526957, 3.746837924703616, -2.7596744210626376, -4.619577278138532, 2.886844224093867, 4.6720050479337, 0.19228520527072046, 4.40722210831868, 2.601924375957269, 0.44036590399651176, -6.028085576079732, -5.656416795910603, -5.333333011845056, 0.16439107185227142, 2.2348025724009926, 2.551839211855259, 2.4297721636278915, -0.706968500639278, 1.1450929195043882, -6.2774466868092995, 1.08559157689182, 4.962456826467617, 0.8376676937891765, -1.4838673264917688, 3.6901306525593425, 4.0324672691495085, 3.7464021233776323, -2.818210862110824, 2.1938306974952955, 5.370936264772672, 2.731905995745421, -4.108849083413178, 2.645686244379201, -0.04537180102013805, 1.2104491514159514, -0.03354204542839012, 2.313719587590785, -3.1702040890175303, -0.3248202194712315, -3.608398900753322, 0.035817601917079944, -0.08382159956393243, -2.6040024705077323, -1.9986027636248425, -5.305836634708928, -2.310706276462308, -1.1873733014016696, 6.129829462709159, -3.5552212098584697, -1.0210025012862192, 5.040489097516788, -2.938059207400845, 2.4829599150760067, 2.5791898888796325, 3.06064397220565, -0.30263773504490843, 4.04805389703531, -6.392836064186579, 5.487119449125995, 5.919304694857762, 1.6402921938932398, -0.17051188303452103, 1.1805363773782158, -3.853173151870857, 0.7740157598700486, 2.3572132625070923, 0.92087430343578, -0.5171966499387419, -0.9499741242440993, -1.32028662881127, 1.591669732226146, 5.934916184687065, -1.2759664360305119, 1.8912914063700246, 1.6330696995875118, 1.5459699934476094, 4.537780318143659, -4.5756087481105805, 1.7338773849473341, -0.32733384023008794, 3.282464447327704, 2.196208282454172, -0.9695991231265076, -3.158373830954361, -1.095968054214861, -6.824109601774403, 9.173251116240564, 5.255033722581574, 1.385349094883833, -4.045931581561786, 1.925988304345375, 4.574060176066723, 2.9730091515462194, 0.7711554384954753, 2.2945992698324758, -2.7507996873872855, 1.247592920346774, -3.1139253891890077, -2.803336911648168, 0.5278422196268442, 4.0201939099117405, 4.18105283932387, -7.837574683735035, -0.2865380378224852, -1.6812171072287931, -4.774472064768883, 0.8144758826737588, -1.3656279800741788, 2.4863414775170822, -0.21308429042134713, -3.9220057389343275, -1.707920988996076, 0.16577344989258336, 4.60257608559754, 2.5007221206677244, -2.421579814389318, 2.0899571396941665, 2.3387938595428097, -1.0195276048126274, 2.021488478835842, 3.5891402489617725, -2.2067901292918877, 1.6598603214346963, 3.738563528579669, 1.424960916976195, 1.744012114193227, 0.9396763998500848, -3.4718818325133523, -2.108888494801266, 5.764426049013256, 3.765771842275816, -2.2910123991549645, 2.1007185449776977, -3.575368472414757, 4.078292376280902, 2.939897030349184, -2.646454853966481, -5.9193988456686295, -3.362711818700978, -1.3800969045438347, -3.7080514753889466, 1.8798513833362898, -4.856717597574597, 0.8686491030434123, -4.722070971654915, 4.103250971901311, 2.5738521953216367, 2.7859130319213863, 0.7171922931556041, 6.637222964749016, -1.4331325413769305, 0.6408924204449387, -1.8310084876480104, 4.671589531175774, -4.63968216613456, -6.458219129765979, 5.0099623105616615, 2.5485524042124053, -1.9469898702279664, 9.3645217693038, -2.485851733205987, -4.301048621609015, -1.8851722329740923, -2.4319688707188134, 5.058981612552655, 1.2890913226738165, 2.187705413833436, 4.6188513839605285, 1.652240263242084, 1.4592993261001443, -1.9412579485323629, 1.9315893354944977, -0.46264697284901257, 0.20947267319480267, -0.5924612161446501, 2.6588422988650313, 2.1483101458956635, -3.5918571681697777, 5.609761913114226, -3.9174462634457177, 4.477400382885291, -0.1423315001262796, -0.6338777332956682, -0.3843730970595207, 4.138018595834253, 0.4998363429145718, -0.6047863859968217, -2.2883102703824827, -1.0534796399203286, -1.0599113294970905, -0.8837600704057847, -2.611753687440049, -0.7382338062540132, 1.0493251444533582, 2.3819358610555774, 1.388224527711448, 0.6892797570274438, -2.3822358263833077, 2.4724335659888697, 0.43393549871705095, 4.908450454780438, 6.143768837357728, 1.8373177261147795, 0.1158328082904323, 8.119963824151304, -0.6050155023563715, 0.6612262688043047, -1.9220174647733215, 1.3026088302564145, 5.212147327219014, -0.27225172941925035, -4.752328535996569, 0.1621196232698836, -6.4819427971717705, 3.3093243959807666, 3.7856288350887244, 5.7843050506158, 6.64089318412735, -6.596793464268253, 0.09672115671093495, -0.33963469383959677, 1.3314880772383226, 9.749693369749732, 2.1994674819709816, -2.9861621062343255, -4.062847183595934, 2.1576591888596868, -5.277167073816782, 3.777152612085679, 2.86544478747744, 0.644018955201741, -4.551729989045842, -4.786921858070095, -0.9821002984589124, 1.6904153101889436, 3.074009746633142, -5.085705108344078, 0.6244698198583438, 5.002764377709679, -0.05175027347085237, -0.9286962431416502, 5.937573220518631, -3.0239236143657386, -1.4193930910479016, 1.7477098015986865, -8.93117529146911, 3.770058757734649, 4.131969643095565, 2.111898967508364, -2.68448183450432, 1.2992409742157571, -1.0461893680652867, 2.4372953993561173, 5.211386208492638, 1.1055067535418983, -0.19913224758172277, 1.2441244786182066, -0.4125670045040858, -5.22761594591513, -7.016357677369391, 3.44819312253886, 0.6517230652815971, 4.096191602413037, 4.203983450283081, 1.2757640331238531, 3.848090443649969, -2.841372575960324, 1.3519916232996754, -3.8942215573397583, -4.106492185369345, -1.2428254856332435, 5.385211297437421, -2.398030426068569, 3.1533908335386656, -0.2184447489691994, -3.0954804743418376, 2.506732694410318, 6.984417323566175, -1.017843729654157, 4.818498573018861, 4.428036900746018, 0.3026015135399929, -0.54469213716165, -0.2134418619129218, -2.7500004906208924, -1.6545214340600034, -3.4865802642245782, 3.6693200762072022, -0.9167404179453178, -0.9095324976042447, -1.2686113498115423, 1.4418880030009888, -4.903388783896746, -4.897767246711979, 5.569081725241388, 5.359133454527209, -4.057057284311519, -2.422081828663468, -3.460369119713187, -4.34030128489589, 3.627675491682286, -2.799440474714949, 2.1059503701395452, 0.6337329303439012, -1.6158425818018136, 6.510371106270245, -0.9797572926186691, -0.34320428177221807, -6.457238696108758, 1.9424308889515283, 3.8342918426855146, -1.7736004298568016, 1.4576491290485727, -1.3022575439121347, -1.8751061620241871, 0.9581227395864289, 0.5887250297909883, 2.1215357865429487, 1.2784568852042781, 4.32570093602831, -3.985416527273138, 2.910453611927653, -3.26298447430929, -2.0240060831363125, -2.8043493598847418, -6.180835145497122, -1.3393714938823924, -0.3452167899622858, 4.174739688660385, -0.5209171926124967, -4.989941476924917, 2.0097976218007894, 1.502421654124365, 4.808759828969192, 3.3341734174549016, -0.6782326198063222, 5.065849494528992, 3.6155528136796775, 1.1345805438805456, -4.571546011846084, 5.11845569469183, -0.6979067192625243, -3.7639209677263104, -1.3456954345879142, -0.5671092873073766, 1.2720861910868484, 3.5823463531241035, 1.4900205652487823, -2.6723919517545096, 1.804266628629696, -1.055663236234263, -2.3845753952601507, 2.2821219171937543, 0.5882213529625695, -0.7259810935159146, 3.798649618470641, -3.011574930176879, 1.0222830697440912, -3.3519593733451387, 2.2631892733898114, -1.6786943932190985, 1.6822841301199287, 3.2903534200928695, 7.334544830656011, 2.503610354532004, -1.0659190599376096, -5.713982179675093, -4.826418790410558, 4.2910205504435535, 5.125058883590141, -5.090093660301747, -0.3929693009076132, -1.3572587946438213, 6.1565126881308565, 4.094706841377607, 3.5234395758475454], "biases_list": [-3.7395326676521106, 0.18008761703900134, -0.8511702825632881, 3.236788036999057, 6.93682365323807, -0.6897468228468892, 3.61232231793047, 1.0476781325383042, -3.4816565579602123, 2.0868787623055898, 0.509775633603029, -3.4607189358061694, 0.7475718749798506, -4.296469771069134, -4.502292297292074, 4.393355490967274, 3.8988213452770264, 3.4843517441607776, -5.839268571201648, -1.80310572394138, -3.3797590839762934, -0.6331634895263205, 1.123136153805893, -5.226648407182087, 0.7149402993249452, 3.499482426566628, -3.5521550691807393, 0.2527493008324617, 5.250375158603486, 1.7968037619571078, 0.7070731071644984, -0.3439430735554261, 1.5457157113349824, -1.2379278272797736, -2.5301147684319085, 1.1884970335909544], "shape": [27, 16, 16, 4]}, {"weight_list": [0.8949081611165721, 5.514005261444701, 1.625176463970008, -3.874241158898491, -0.4213860086414891, -6.710583015714354, 0.6440187911458288, 0.8652457665869027, 1.5115814001251726, 2.862746667638309, 1.5086863046421572, 1.0138885310090289, 1.101926200582927, -1.540085293202245, -0.15407037038071425, 2.5954064709336793, 5.744463532061136, -1.3882405457253317, 5.0216595866562574, 1.724018067980821, 0.6896339315017157, 4.03317457666339, 5.54497303605593, 3.6825707788361495, -1.4595165701621404, -0.1140419460794484, -3.271814804371717, -4.844017579242021, -2.9547119891895246, 0.04602547475995178, 0.6815991095050484, -2.5814633486469134, -4.493162323863764, 2.4551275697601485, 2.0253871956039697, -1.8861596419808018, 3.4019702682839137, -0.6442864333725509, -4.288691669149826, -2.4673172119030564, 5.309623565873682, -3.0724950107361737, 1.8652093401971523, -3.0813798621800226, -5.262148773813618, 7.210450152640771, -5.78528653311832, 3.239068480395173, -1.3844730314139948, -0.12629123183231394, -2.1700405572540604, 0.8701341776429947, -1.573441961626642, 1.597191171210186, -3.3983796896551066, -1.0550065343864394, 0.7385095255441749, -4.906129414514433, 7.925206098829372, 6.7361469118495325, 1.4240933256159027, -3.997738031659796, -3.726184732342583, -2.4258295835373263, 0.7478517182488256, 1.4182976239938174, 5.931988858368173, -1.609039937614663, 2.231001922261454, -0.005826531700817927, -1.6111086292491563, -4.7970033310148885, 0.3717609719805397, -6.398585268603934, 2.1687257149087413, 2.4110109391681434, 2.6638068389966936, -7.244173026779848, 2.4635214010449293, 0.16619700626872147, 0.8010147459055268, -1.2368438091131315, -2.0776491704334985, -0.18502372695317693, 1.9073386697313421, 3.3408558795254333, -2.7873763106148903, 3.399175943670567, 1.1402524847081583, 0.5076318169408447, 4.612318890505255, 2.5283480090407107, -2.2159478346957364, -0.6980428486599842, 0.6108076146860686, -0.5175172163065636, -1.4957202234337972, 3.2198012607626385, -0.2438603032657095, -5.045689282906928, 3.204170315683977, -5.655825318680117, 0.0024431452799427156, -4.5148603822655975, 6.497193937355963, 2.104628135628917, 1.2732012790789025, 3.4422683155498603, 3.989713246258943, -2.0437346590421814, 8.26871701893473, -3.275397799793527, -0.49488283342089, -4.082861221547598, 6.105023758265496, -6.062844445494035, 2.711450876795502, 2.6250116039337037, 3.2622716334467317, -2.4985401310290696, 0.12852302050741016, -2.8670273976661056, 3.515246046749306, 2.555388166946713, 5.297998557211437, 5.04515853293882, -4.49065467834062, -5.900985886334304, 2.645031686049566, -4.095735133822568, 2.317387320160388, 2.8984786894082157, 4.980176944920521, -5.333542959374007, -4.86913470943296, -6.744193451260023, -0.2444210996574373, 3.8218829396235883, -0.36536046753327667, 4.842389389096327, -0.5691026547773027, 3.4596784609525866, -4.5424805078270225, 0.6883671176429931, -2.060559175708857, 5.379407027704533, -3.136878726986331, 3.211222623163704, -0.20569349353756972, -8.23724874809389, -1.3011656905290558, -4.755099052209083, -3.8779410842522815, -0.917153478165371, -6.546679500523503, -6.899846784028979, 2.7710425463740735, 0.39468797289494884, 4.488634084066797, 5.202380085109975, -1.207761091600719, 3.847161832466009, -7.327699747859125, 2.8391048214774575, -3.134257771607005, -1.9814901074777809, 2.569404897780519, -1.6523540421514973, -1.1902399873167324, -4.622941482083686, -4.144968050135939, -0.9246204021375743, -0.9739994187622212, -3.5670947678603135, 1.6441918274788572, 3.0237416398917087, 4.963315857862947, 2.3463813169180643, -0.8051477972314084, -8.06927059217876, -4.921947509616643, -2.5092652997414135, 0.3432512160409207, 4.026915685462849, 1.6877519821473248, 0.6445622847419068, 0.024185825175843334, -2.674587934675616, -1.1738723936036402, -1.8801547449559937, 3.1448881454527813, -4.595979919227142, 5.8658480548441405, 1.9402519065901647, 0.39409566499501336, 1.018165447380036, 3.858896301044348, 2.5724875406159544, 1.7281373371654158, -0.28108209306215826, -2.4029827440394707, 0.7069029990801623, 1.4781180494994564, -0.2710575317184105, -1.54935856192969, 1.4745198671447932, 0.5346497868146483, 5.702200707953082, 2.2532632598131395, -1.4812591437207958, 0.7588048711091777, -1.8257173188653986, -2.4816922427985744, -2.3137944941242456, 0.8153895225057708, -0.46356035269863083, -0.32863406758540203, -1.5157652148441112, 1.4833243050726086, -2.4869121611161136, -2.597257777777956, -0.607624085038196, -0.32648394417706206, 2.818341086182238, 3.3012169164167506, -3.1186053162393965, -2.6841029193427337, -1.6940329355581298, 0.1257356567956267, -1.7964988720347062, -4.723209842276107, 1.1722426477008439, -3.6267408940580284, -3.900224085731254, 3.004870488085035, 1.8129546859745354, 5.7034535387416385, 2.4154186826174215, -1.2865938104088497, -8.513205139518487, -2.402935397039462, -5.804476334935081, -4.7725374927945445, 4.098553468245148, -1.3031400369037125, 2.246023153062751, 1.2603506306177996, 1.6078646530948326, 2.138748526297811, 9.126870559119565, -0.3857907151318365, -2.7132288694542277, -3.193330655229521, -2.4438109860061163, -2.896537402735362, 2.158404025613046, 3.01913423020234, -1.2852110296995725, -2.2490595244985823, -4.174085599482092, -5.063194377007715, -0.23034088858719748, -4.751076698317758, -4.332636328752546, -4.4801849676929875, 0.9389161833029125, -2.1940862837629918, 1.5153914568293558, -3.739517165843628, 0.25444907042853004, -3.2705015626269702, -0.6031767011939568, -0.47787850059211023, 0.294739494843997, 2.6075085747259434, 2.139291927677413, -3.9751914306336187, 1.6289578453421796, 0.001116172218578182, -0.6924852054265709, 4.481868749134665, -2.187405288477746, -3.7823875289837297, 4.499107852868729, 7.307034067473969, 0.38571138297654306, -3.3246243338598345, 1.5582954026983846, 2.4733185325785425, 1.9772136964216633, -5.4136499536179565, -2.1500778874106605, 2.810416092153112, -3.2286328873762145, -1.5764887736866244, -3.545011401206666, 8.370230271592675, 6.832363088775102, -0.4285131737539922, 0.6320066186252122, 1.9580902467885148, 1.6204351467168436, -2.9682644388865063, -1.4245884219368112, -3.253498823518796, -1.4688057866223818, -2.8813291309841556, 0.6625840488126651, 5.372103590780214, 0.6041245779189779, -0.943185990728777, -3.256197145616971, -3.410642670271433, 3.590016095146283, -0.2900629827436779, -2.0117016897596773, -4.169394018022934, -1.832901163206939, 3.4511133587875253, -5.49704682515815, -4.140978504352416, -0.8740648393624211, -4.237915347399992, 4.553786985978247, 5.956318562584381, 2.9198438545117176, -0.38181860141800805, 2.7223061977244276, -0.6052505884500071, -4.351584527860107, 2.9697097885513237, -0.6194215620882437, -5.544953336180119, -0.16755614830588594, -3.5928918991729812, -0.8123229466983926, -3.764628929643547, 0.04393991010672238, 4.099838459849471, -7.595877040828857, -0.6108848174857747, 3.948297127961773, 0.2607817599686659, 5.103468910644844, -6.992356313392408, -0.09267256191897555, 4.626600285777735, 3.8651844656411676, -2.560455166421236, -1.010139875839, 2.5885249536632724, -5.89908123512776, -1.4337975583287608, 3.6425250698471903, 0.4032865712313469, -3.086172280042868, 0.619005821412165, 1.8204969036889054, 3.0490736644199536, 0.1995721898629439, -0.4388391097220694, -4.061274673520124, 3.2594177443202383, 5.304607066125153, 7.87228667785114, 0.5855168376186857, -4.146409216028793, 3.583959384599133, 4.593594780710687, 0.8989606961880028, -5.152658752245789, 0.17198012217325176, -1.786172237132488, 0.41400384375254107, -2.4237251997023876, 4.425025712429088, -0.05482558787836145, 1.254121679080309, -3.3101773355141413, -4.168499179477178, 2.9004766253027787, 3.754479460929849, -0.5784062400270102, 5.261820364390145, 1.9334983179755372, 0.8146516666738823, -7.855762098663262, -5.6156955395684545, -6.385422031414011, 1.911425329078844, 2.544267591266793, -0.588429335234991, 3.656578304836092, -0.5927204804025681, -0.12295457794463682, -6.605477526137045, 0.8595194018302099, 4.771408604381398, 0.3660965564436327, -1.2063333806743741, 2.767955443825432, 3.075806298176346, 1.8330899472061062, -1.9823412800093267, -0.432568815290993, 4.339932618264237, 2.685428880821868, -3.903530916502901, 2.8801505519835473, -1.9225210383182998, 1.4649677817958984, 0.027551977437421105, 0.8488464391332151, -3.2546668640290672, 0.2500190827881419, -3.9031735751059964, -0.9921845595574369, -1.6161666692432226, -3.5331331542463507, -0.7837910067103953, -6.2606888374405445, -2.6068083095527435, -3.4457223825934173, 6.3357761829353825, -3.237096654107823, -1.825989821286856, 5.169679725463478, -2.759728123309169, -0.40099984772104036, 0.370280078620165, 3.999994939541315, -0.3535597547033478, 5.944320303553982, -5.2980342942533705, 6.295213473405001, 5.33506205470081, 0.029036300072649457, -0.8333890459080477, 0.72336066750188, -3.8903852720358065, -0.369543767952938, 0.7598232108612231, 1.324396719217897, -0.030948814706763583, 0.5377297677006776, -1.3092671966143372, 2.2770258410944986, 4.280459724641965, 0.23278404831125554, 1.5026871658859866, 2.6062837141822337, 1.6789433596208028, 5.520163692115583, -6.257980853615985, 3.1818851413223044, -0.06732271176606863, 1.1113627609754646, 2.1230543812099993, -0.6810919605672048, -0.7206551394119771, -0.9200944106462745, -5.424332777630359, 9.548697322401, 5.8454617549317645, -0.5343230141895083, -2.3057685036769744, 3.009140836223371, 3.620696235819258, 2.695308385336376, 0.4578257271076298, 3.9337781914826104, -1.5974718911892891, 0.9090995246434588, -1.346414213960391, -2.9471569378622706, -0.6534330779094971, 4.189138009413962, 3.78375515283994, -7.988378575361592, -0.38747492289114516, -3.7827035167130276, -4.449115948691404, 0.5618909863915178, -1.5163287552682432, 3.7703012323791265, 0.2157189450762509, -5.511905413485028, 0.14206978080188537, 0.993929137085575, 6.228324242597723, 1.5360255755476047, -3.022681046166939, 1.184945960393156, 0.8210904861859103, -1.6422912339592564, 1.3610952114969597, 3.364029480628351, 0.4922424953048461, 0.29472002626298366, 2.0534900298011767, 2.058050546532314, 2.29279745937444, 1.0766215590267927, -3.593629499309399, -2.0045169028660803, 5.6223716923061495, 3.37620614408757, -2.1099399718529774, 3.9057608407859155, -3.14435668158481, 4.818328248682638, 4.024959886257399, -4.327998042216512, -4.10384916935537, -3.599112902395866, -3.0857897938947962, -3.0044922546232358, -0.15145303721308367, -4.118092583342109, 1.4234546050847645, -3.8441543644222014, 4.221222363551229, 2.5147210734229852, 3.5233888090525856, -0.35982434510260486, 5.512530724290227, -2.189436095084476, -1.225627435389633, -0.6225046379164401, 3.505201790830034, -4.706193219407808, -7.639017418674861, 4.036247761468518, 2.3020287175136414, -3.542304523327628, 7.36506059599844, -1.0749369538093, -4.731366340165954, -1.0687879112848069, -4.299050318553895, 3.4776962785782946, 0.2940703033424539, 2.5804747742909377, 5.123956542910047, 3.1320940371853636, -0.1851687028501129, -3.3631725486351276, 0.7790752379816999, 0.14933321108393138, -0.29018959402374445, 0.09088356408378528, 1.4599673951310495, 2.0942309413727895, -3.9777918912940073, 4.7448095520129305, -5.259262288702433, 5.071817718691267, -1.8946332058933173, 2.5195202773867553, -1.7240100381996406, 4.941097666215781, -0.2970588714826222, -0.5834645757618719, -3.4131829742332167, 0.4108604479039648, -1.2962383877459407, 0.5918533992042483, -2.8690534119520033, 0.7082051760965185, 2.4783794314694725, 3.2023965515057355, 1.0377796466831226, 1.0734129061683624, -1.5594593536966437, 1.8377981088566586, 0.7277878939521658, 4.762966936412578, 6.949140490032767, 2.165636137859779, 0.780145775197395, 8.35798847853421, 0.16977873473101646, 1.8041135015042244, -2.086170371164843, -0.8515480573082881, 4.797343507436168, -1.8354223652304176, -4.0918355598744105, 0.5867860374632858, -6.930052796698262, 4.251184583123475, 2.9111072285519475, 5.445945233648381, 7.0672781928180655, -5.254184684937082, -0.02257562833800275, 0.02724157638337621, 0.9272269229556249, 9.158920092194121, 3.263179009109262, -0.7387222502327713, -4.784204079048626, 2.8626369423431353, -5.335494298963405, 4.265241687709343, 1.5491515932740243, -0.3228335161055702, -5.815206241109278, -3.6749030879994398, 0.7476138233193719, 2.09706797398416, 2.1152241407719607, -4.670565611026239, -1.402559495267188, 5.810639075714662, 0.3870248905936573, 0.1639208930961935, 3.494530308690136, -1.5857215751866065, -1.3332419311563337, 0.7982610592267987, -9.122864979583237, 2.483226726684588, 2.6286697869875515, 1.465886585332866, -2.8001821008387013, -0.2892930568127039, -1.863797947130424, 2.6288214726100296, 4.256918445965401, 1.7812270559856298, 0.6192696030841098, -0.09763976643303329, -0.19183935865501534, -5.8199174088904995, -7.745268482318883, 2.3719383850697078, 0.8182067561752655, 3.0340316919289068, 4.167473058294634, 2.386250378338581, 3.724443825044218, -2.992551413137332, -0.9689836157616589, -3.4944028534124434, -3.9673331343982476, -1.2468137645738935, 5.7173491162522, -3.4937136114568412, 3.6367930340757155, -0.5810391525851339, -3.7217135018269154, 2.166382930541663, 5.761354483700624, -1.6192665555852892, 3.7225846759629304, 2.236551429637494, -0.6271401004232617, 0.6285477118012457, 0.25446546280161275, -1.904785388483322, -0.9977955573504309, -5.140388402973139, 3.325421222957428, -2.4432876177039264, -2.439474109058312, -0.3985054764502045, -1.5422339111211993, -5.546785790732434, -4.757204189245292, 5.820162807858108, 6.461234983128402, -2.563890479484434, -2.3425468368689204, -4.662093188395388, -5.859642402003076, 4.274887953304579, -3.5866982884931846, 2.8060169126039396, 0.9775944886684904, -3.361172383183445, 6.572169412364112, -2.0186448093634857, -0.8288953596530562, -5.675079466517021, 1.2732315401362198, 3.7831287551730908, -2.5498572305841662, 0.16366145958678535, -0.17941262828738114, -1.8485166152494021, 1.1217363072631432, 0.13047498912534516, 3.2354266935125393, 0.3119151032113925, 3.264786872043133, -3.6139729701630507, 4.262567175781874, -2.7705190842189813, -2.840923427265225, -3.70666354379083, -4.913214572637349, -3.0745939888201095, 0.3353846058845611, 3.518396789817081, -1.4241773324439506, -3.8094121964835184, 2.8188742959540987, -0.7411324759055231, 4.4192626207160455, 2.5437090478088287, -0.9638793905756666, 4.69968329678253, 2.902605391025035, 1.7052906904062883, -3.381856552064014, 6.928945164178364, -1.207854167354871, -2.993052164320831, -1.4576258438093892, -0.2604365240735651, 2.1626286646844917, 3.5813365689155923, 0.501756855272774, -2.429298856178476, 0.19539725819253229, 0.01056936552670873, -1.9149034943557035, 4.88105531575882, 0.11056535644226595, -1.4347673648200654, 3.6584295171639214, -2.961108284800545, -0.9772968879313401, -3.0927798742873795, 2.0116138072969907, -2.584650721993676, 2.456604414187237, 5.81571828205873, 8.350123446712614, 1.3405750464133077, -1.0546412229818032, -6.992858182458344, -5.742260908637869, 2.129883758149696, 3.922243115085763, -6.607767812696991, 1.6392635314930173, -2.090836611501657, 4.727007115586046, 6.205752460008573, 4.736554476415285], "biases_list": [-4.249369986556973, 2.7230053197856856, -1.2257460708765848, 4.6135841885494315, 5.942464045264752, 1.0743781580849365, 3.5111919200189847, 0.41601331103002015, -4.8481626449287925, 1.3456558254056104, 0.43155584349553844, -1.7216898150782505, -0.10268735692989561, -3.487391818975624, -4.467921786092575, 6.754446900870145, 5.021867622138124, 3.366507371909358, -6.683824570327235, -1.8407183732390895, -3.878788264380689, -0.14978663993485597, -0.7848220662986438, -4.2478345391796, 1.9883406309192044, 2.130788696011469, -4.235754806496813, 0.5055038424387512, 5.132383992750488, 1.0352501964593062, 1.9492604401256095, -0.21887214600709282, 2.3346126210134797, -2.20931186772191, -2.2428139108653267, 0.28323591259532543], "shape": [26.273116956671565, 15.03250816186226, 15.287898670745538, 4.724708104050133]}, {"weight_list": [0.05674022326509154, 5.122292135119595, 2.3217044766039088, -5.615388396078834, -0.35210038871045135, -5.729652108502917, 1.4852339179808074, 0.1183329518589673, 0.5010331806757224, 3.529169450974419, 1.5693453285520897, 0.7765847407349777, 2.7936757730361483, -1.9367387378975585, 0.04534826651010726, 2.8442270143042894, 3.655448693062625, -1.0264954614986288, 6.13131091363307, 1.9206556555790266, 0.5887946533097876, 3.286331936703135, 5.919507045723476, 4.375109011550648, -2.9482371680140567, -0.9589729442591843, -4.115052992235388, -6.125406121783352, -4.964373940219785, 0.5090006591569673, -0.4673377040099347, -0.8383896729307874, -5.313180093471116, 3.1477551843112117, 2.991800316602336, -0.6735161579896254, 3.367616132947891, -1.2591861979247871, -4.326819328781546, -1.824540368261958, 4.016692133580111, -3.177055651766495, 2.3016047448167347, -3.7448372335089033, -4.127034212818082, 6.339082597787039, -5.788079710018069, 5.610241624997959, -1.8900096097129766, -2.385330785348591, -1.1385595959989936, 0.8337992392577445, -0.4279236273146405, 4.844060623698472, -3.5453613633323693, 0.5090703732328015, 1.458985775795849, -5.170451661711292, 8.421167469866113, 6.227585534476233, 1.4038394418500264, -4.024101449895476, -4.4293449731443335, -2.7102494809493356, 1.7347681833850164, 2.075188402471655, 6.870840445299181, -0.8511721023796177, 2.5800783462786914, -0.8430678724330997, -1.783048350815596, -4.7784570150338475, 0.8287735486037251, -5.692579789761876, 2.0592214792121215, 3.394979418151145, 2.8612901048600943, -8.022765248637027, 3.082072953747658, -1.2139272791218678, 0.13503238926245142, -1.35043876314036, -1.3288579079649105, -0.5720507838923206, 3.3853914996744514, 1.7182136879004903, -3.00648646733905, 0.947467027871207, -1.3989265939269655, 2.2759338287835775, 6.1852981619788885, 2.5419559987734024, -0.6422587327514382, 0.3372763986600269, 1.745620075077313, 0.5952735209205859, -2.116756516564743, 2.9814107378437766, -0.25894429187474344, -5.878250506018151, 3.8530373560859914, -4.637615666451563, 0.6564237604203633, -4.963693726120278, 6.3202550965709605, 4.16234719846704, 2.5971466496958957, 4.83188145656971, 6.491754249423175, -1.84042257180824, 7.429261396615944, -5.0605576433163195, 1.6937207912365722, -5.522638605510199, 6.515416015278081, -5.8453607333286435, 3.6255163165200495, 2.165782046102141, 2.7175121853111284, -1.9440597133061412, -1.8407361694456694, -1.7859596295419307, 5.471398976863111, 1.9831528360702029, 7.2589242659853195, 5.624105186181538, -4.880459388066896, -7.4152207578653355, 2.8205465830523115, -4.95651809194826, 2.173870176297901, 3.7552926027818243, 5.277070479543032, -7.147551582450985, -5.753052622865604, -7.674921213955502, 0.9876695765513692, 5.865414528613551, -1.889211010953022, 6.352311629970191, 0.930018783193556, 2.6898125378226485, -5.984092772108518, 2.407032348985461, -3.9212255976018318, 5.841998525818774, -3.0214915287919024, 3.400159288418731, 1.0625636809482621, -6.932402071769268, -2.2841524493133565, -5.780486782173713, -2.777061100164352, -0.8493911916469515, -5.8863601009151605, -7.143611046395674, -0.13692974990456186, 0.3278098529649629, 3.1574256550530384, 5.607639344635903, -0.2671626079761704, 3.0955743518346805, -7.127592214731177, 3.1781572694309546, -4.075243096708251, -2.517804165525852, 2.2590188649378797, 1.0089668841683994, -1.7193936475751601, -5.653770091919061, -5.859230023715391, -1.0905698566695385, -1.99231611380031, -3.869111100311854, 5.012380969208109, 4.800769845182598, 3.3323832605293013, 3.162348024883487, -1.3864555494025943, -7.600638717854569, -6.130701273267082, -3.5222141788379973, -1.8516316944682627, 3.5727357302999696, -0.47840912674181213, 2.392500858970778, -0.6348927687617578, -3.95904316471012, -1.449354021562758, -1.8023516802274018, 5.154769671828996, -5.509273181087741, 6.64810843883337, 2.0303936940736413, 0.28498712632902734, 1.5158485384926546, 3.6065857090160955, 1.1569738691609435, 2.283639358935976, 0.19076331161016014, -2.696616892171085, 0.4473464037837984, 0.45329076157615056, 0.018167607698274635, -3.231234847284835, 2.3954255456790183, 2.0759752493061514, 8.23851879529185, 3.4619891378454195, -1.6213911684740179, 3.1532697275158617, -2.511615544161991, -2.3009518530592104, -3.6869501671560023, 1.8917945402182808, -0.20375882880900442, -1.8441366416243976, -0.8116895860031093, 2.4975025361013783, -2.536766606799202, -3.037936749460899, -2.2739611266968147, 0.7429439834842932, 2.791461484215964, 5.006637661357571, -2.830863690900194, -2.9403216002059978, -1.7690509791054576, 1.8540274436891009, -2.8503037002720024, -5.5636627190354835, 1.931590706866598, -2.954405545960401, -4.5355040506612685, 2.630746163975203, 2.188797552867567, 5.813955575496764, 1.4938964392345158, 0.9297508553918532, -8.187534257538601, -1.5289107490024765, -5.350118429165434, -5.981737838030064, 2.9379534706673316, -1.7281882647491351, 3.0338849916819166, 0.4626711430679866, 1.4099891538820062, 1.8236185272681196, 8.873938593605745, -0.06765539295509759, -3.2298718964191853, -3.79212651651351, -2.6228212465663865, -3.4167536223108206, 0.3473701060176415, 3.3312251030384195, -1.46195991707192, -0.4880800099010495, -3.6761068721360113, -6.548472420933014, -2.2623422324312252, -4.6574561560085765, -2.915327419067607, -5.128482853661095, 1.5249338716223426, -0.5035502006175785, 2.541276436995904, -4.248068296978192, -1.2112800186750259, -1.8386771382397018, -2.431099605130142, 0.308774268499006, 0.4983268621865422, 2.021380989548466, 2.755492748644662, -4.361595582160383, 1.7658410245116953, -1.1652087264579396, 1.046559705723514, 4.576711448431013, -1.0183653148873661, -3.7228760578775275, 4.503792788627822, 5.6229964857026955, -1.668312254668053, -5.201109804726066, 2.2383740000903396, 2.461133062794548, 0.23181117755192915, -4.103737128207515, -1.0377066619993525, 3.3011849869198606, -3.2815217639827345, -0.9260754426414366, -2.7403309071500335, 8.808043492471018, 9.288251107940944, -3.2581876486439683, 1.018506634654058, 0.09406188229380597, 1.8769589148106505, -2.9915906636577936, -2.021965249364741, -5.797667636923933, -2.2173993483202192, -3.392940950461308, 2.2050457942071042, 4.8781664063778685, 0.7486135329832073, -1.1900897278763352, -2.7917041062715566, -4.345082323816184, 6.119418195425624, 0.14676407704706618, -2.7113610472762506, -4.4580700464036624, -4.115523411663554, 3.8711313059628116, -6.498275732494783, -2.996670313078581, -2.159443154284312, -3.819580355373277, 4.628215379569475, 4.419165963415287, 1.7956214405159505, -0.8384773353800314, 1.473503679385685, 1.2007242784276277, -4.476866108029162, 3.7733837263601346, 1.0276067902276345, -4.563452948306981, -1.240046731909617, -4.440385745653554, 0.7799448913186018, -2.876564455707631, -1.4319721023174692, 2.060895941036481, -9.738706793944418, 0.5472650316951972, 5.5864325322415445, -0.32082949381869197, 4.885675490134498, -6.791297143796575, -0.2794054427297754, 4.150583314336016, 3.378000813070325, -3.663517336017445, -0.9961154004683852, -0.28701357483220125, -6.6093344893178365, -2.675820757156689, 2.3174586651623743, -0.37123593822331924, -4.63620802366741, -0.07022530409213568, 1.5058910117839823, 2.9207839347476243, -0.731276749283614, 0.7158291534350656, -4.635557114710477, 4.439894369807117, 4.5050003889180745, 8.231324584808133, 0.9523025650215953, -4.54532358020272, 2.976846453825466, 4.629908540441049, 3.0139009330908912, -6.0267652346927685, 0.008765652772176225, -1.5929611470076683, -0.23004071115515756, -2.3989360102970885, 4.138922903704869, -2.314684674458114, 1.3242913621668735, -2.99740998912897, -5.008932459506055, 3.826926426340756, 2.498382632030658, -0.9604363067253114, 2.515207711652702, 2.3177372189944183, -1.286802119066418, -8.977726025925742, -5.874437719803955, -6.096747354105575, -0.6714660629254234, 2.7028945652463836, 0.3580610706572436, 4.0547751619155346, -3.1889523460407, -1.1209716590763166, -6.401073022973961, 1.9352658291642326, 6.69940550952597, 1.6065301135106078, -2.427459625876393, 3.1965090594548933, 2.502058587436836, 2.366336766450601, -3.671443648422449, 1.1527814195624666, 4.658068032732336, 2.265267203139321, -2.5909936451425604, 0.1701436715387712, -2.0299512201732526, 1.2377514443325968, 0.571181382647328, 3.641126976334178, -5.125087353409199, -0.7345865722262419, -1.4027052889934122, -0.04532457567679549, -2.49938610757187, -3.9097890132978206, -3.876538238156676, -6.342364636338783, -2.595923148538608, -3.649041770107777, 7.051741907625967, -2.3114822545222724, -3.1268546307209615, 5.879170682736314, -1.398579906806834, 1.3268338972501423, -0.7223428153354972, 4.532472391647246, 1.2140560318240419, 4.7921461218206804, -7.144717348922057, 6.809305981213845, 7.082512242736186, 0.8545814914730516, -1.348177462700035, 0.8555281135515134, -3.822982168651264, -0.3776745862195121, 2.090865816021034, 0.5347117182488135, 0.5955711084344901, 0.250712052125285, -0.4757631274221197, 1.995671527193767, 5.052943918570909, 0.39324035801956136, 1.769032007362486, 4.622918060571373, 3.7529436087272634, 5.733055411627809, -3.958998470050447, 2.4345940489629525, 1.7164418592884951, 0.4991734212094612, 3.0474130496547964, -0.6954566014141577, -1.7494904068060961, -2.8143419039378426, -5.54458030627935, 8.977667392544031, 5.051030385514282, -0.6184887367418532, -4.129270775235277, 4.47577210655549, 2.6188175340264683, 2.613575369298058, 1.0876860368423067, 2.056421987762434, -1.6902408106906037, 2.0465935538911886, -1.4518309794117263, -1.4832720829278643, -0.1127176784576609, 5.272926965414481, 4.16366583782555, -9.368718613299677, -0.015270847429912138, -4.789120211588825, -3.727068458620593, 0.5570506790917562, -0.8697413211816869, 2.184740386869164, 1.277057484238274, -4.572217861814506, -1.839566780908401, 1.967957663380182, 4.2973218170922225, 2.447062456718751, -3.5717087951704194, 4.083087174407883, 0.7590179954944523, -0.03153567854162309, 0.7922000895987069, 3.121537583191744, -1.0209486409525623, 1.8556379769486275, 2.8716498504360226, 2.323399210175733, 3.9793285996248855, 0.33098897328489385, -3.1333857007469375, -3.1546214678541666, 5.045601969067117, 3.0802395226145496, 0.46416562884806334, 3.5006409451961122, -3.97645471190484, 4.826704101673803, 1.6860079539062718, -2.8569869184918635, -5.140871106318191, -3.2905316122245285, -3.234249949882101, -3.2685083682682494, 1.8768369796968258, -4.969769332921066, 2.237133998174345, -3.5654835153649405, 4.2513746718872465, 2.9725575261898625, 2.7030188510152247, 1.4718696031919771, 5.2387043378488425, -1.64294998321656, 1.5164837181895856, -3.9113786637759858, 4.106695090499814, -5.040957867648091, -7.943698687429939, 4.080917516888904, 2.559337667346906, -4.189341696272823, 10.000160684227684, -2.9606584254659607, -4.202999035171263, -2.094251278733412, -3.846075227241782, 3.035132654276538, 0.5464481458496455, 1.141509967272201, 6.8205616602519115, 3.9811754038882015, -0.21093025736482196, -1.6716895704183263, 1.4171909968348007, 1.5401774167043372, -0.8047626852278362, -2.1345128468749905, 0.43991450231690843, 1.875775354186786, -3.7606486162190875, 5.801304042320392, -6.966375601917065, 5.072603466774585, -1.6552730484283817, 2.5298839857896103, 0.5028438954258976, 4.30469805150706, -0.16399361657321987, -2.0038872732463187, -3.6460590605588457, -0.0380902028925163, -2.676081371221158, -1.2029246353697647, -3.546236730298988, 0.555975698524612, 3.8259746346944645, 4.583192362162192, 0.10263738542571255, -0.5081260112478713, -4.767443277175895, 1.449356783775662, 1.3313296948378612, 2.8736972616026977, 8.376859094035018, 2.0998311970684753, 0.5454179038451599, 9.401366280118522, -1.6994378856911456, 1.2612765780166466, -2.2089348040982975, 0.45380308870913333, 4.5889807537935035, -0.8774790961913195, -3.898409133810871, 0.3662341204339561, -8.981628225381384, 5.023079852727111, 2.5211204767904736, 4.332024135595732, 8.128585058551069, -5.878191531165118, -3.110681213545044, -1.1300996832072063, -0.9760847820194376, 9.938724755240521, 0.7914744281802268, 0.4299657973376545, -5.687861336897693, 3.075106373392023, -4.840789389860209, 5.891192541330178, 1.8171200167304846, -1.9990472935461046, -5.671755556743092, -3.768472995894146, 0.5422511933386711, 2.0884903725236876, 3.0870905266202096, -5.390501485652571, 1.7286559045581091, 6.612943521147765, -0.38133086547982464, 1.0062318455325432, 3.643411425248842, -3.1731518783394566, -0.5018115942530037, 1.4250576585629275, -9.422265493481891, 1.890740533686814, 4.989951040249871, 1.8357166585813358, -4.23614722534875, -0.27641734967167664, -4.6821556760695255, 2.5478770579720873, 3.9069107108266055, 1.6156758157287734, 1.9018818890265536, -1.0781812639428525, 0.288475006354731, -8.192933156226166, -9.290642117388542, 4.083285821956081, 0.3836097205068243, 3.866919897475798, 6.934121071847601, 3.050346257845465, 6.228958505211489, -2.1597480755959353, -2.634025658913583, -4.885208598243011, -3.9001261318124905, 1.7003429119338955, 7.841724456961023, -4.0684280369955825, 5.256444163655769, 0.7052618900905165, -5.410907311966275, 0.8719639167358484, 6.085047210375258, -2.2436667031818702, 4.780402978955885, 2.5715571621861506, 0.24987629311798054, -1.1168835535407062, -0.6395312351967711, -0.052146851927451277, -0.9015705404969744, -4.643582066083928, 3.5178349181305544, -1.9314721192545283, -1.1773932657645663, 0.595603363938902, 0.8720157193027518, -4.8703536708812765, -5.3222818047754386, 6.138794101404752, 6.9049367655457194, -3.10718500843644, -0.5486084323594954, -3.0995653307420117, -6.355004715326853, 5.3190939416307295, -2.178699644619382, 2.954240866631608, 2.0728571445130433, -1.7704165232248996, 6.922161397862165, -1.2132302543616649, -0.39584745492203455, -6.2037107208206885, 2.61230666870959, 2.6917918910826217, -2.4400946083877835, 2.3574765494796464, -0.842403235178049, -3.833471308302271, 1.3011486007935895, 0.5789451077821162, 5.74725367671814, 0.09049834917462385, 2.6666203967484954, -2.4998648624306963, 2.5045888215814385, -4.909885642713392, -2.206094026886263, -2.6334701100473925, -6.385999619273014, -0.7859276226378487, -1.7577876282745009, 5.137569189813178, -2.6218566398984553, -4.623178525069032, 3.0980255008092588, 0.2485031421659576, 5.50129086077413, 2.558821408947054, 1.1182797803798321, 4.612835239125894, 4.283541693440065, 0.09629006275732621, -3.596088171415105, 6.019769924727955, -2.2491729987442906, -3.4422528730758923, -1.2710645820777962, -2.914770569024774, 1.979539873064386, 6.011726560545925, 0.18600297806647115, -2.265056636558356, 2.861033135775638, -1.0286483333569258, -4.6311144814932295, 4.132911645016175, 1.0293614518155763, 1.3913047269145689, 3.3654676581592664, -3.403126640217362, 0.21921371974898252, -2.6152503761117263, 2.616243570046375, -1.754096681793459, 3.4354895480137593, 4.499121389437394, 8.807320284075983, 0.3900887754867868, -0.4896861189341055, -6.008182409333861, -6.472128960482844, 0.8374090585879939, 3.975173529032287, -6.350186099754435, 2.3042634423688533, -2.2755107464902675, 3.7898715081167262, 4.518506008846814, 3.1313246700631208], "biases_list": [-4.63552244322609, 2.0902382110772235, -3.1140065917656976, 3.4825695117143116, 7.78428708055378, 0.9672594674316577, 4.3435428029239915, 0.5845038912884315, -4.52106886170621, 0.014272962762350572, 0.0763010365541612, -3.9454958295169513, 2.8110174009953397, -2.8061087850104443, -5.811594976931489, 4.462847905420134, 5.311471014176256, 4.278512187609018, -7.747195331019654, -1.5671926563838667, -2.042488757066005, -0.26397433397242653, -0.5835851783786834, -7.327761452222526, 2.4717210517439616, 3.653886148308249, -4.347850058817816, -1.3266851591378375, 7.825965221368206, 2.130805268820036, 3.605368754760171, -1.654895604981924, 2.6540189409561354, -3.687173377637274, -2.8275896495093584, 0.34823550024070493], "shape": [26.63746229117805, 15.875156736821243, 16.387747369510787, 4.904652036935861]}, {"weight_list": [-0.32370612516324815, 4.274477422580167, 0.5303674664495641, -4.809924485901221, -1.941945955592534, -6.084405588114534, 1.667969909759908, -0.8193297407453932, 1.0188322220389505, 3.5056977757992307, 1.429839463752141, 1.5837183298736406, 0.8321154146925926, -1.6585469974113773, 2.2239374460557446, 0.9163059002014289, 5.61033233630812, 0.184044741338514, 3.476604582623665, 1.2188199914154785, 0.18660991462965337, 3.0538738273247663, 3.7801175462026295, 3.3667001283298195, -0.9058153374771605, -1.327074577197172, -3.2793345519634673, -4.7993599630288335, -4.027133094609178, 1.4356645079187298, -0.5398417092726622, -2.226828838479525, -2.26206449198746, 1.591103558603629, 2.6378558076424383, -2.565092600065554, 2.422126870592757, -2.0020793207191767, -3.7807180314259714, -3.1448103151483444, 3.8985434321084096, -2.9024433406189347, 2.157782355857206, -0.37775905995514125, -4.679905803439162, 6.174271358977416, -3.0488860185634303, 1.713166185466445, -1.3420016157311452, -0.9579180816490671, 0.7061447387603987, 1.4987307020556013, -1.1968104629748884, 2.8441027797103935, -4.264952857670602, 0.59345312637422, 0.8453766216458416, -4.688334976932217, 5.313593744767029, 6.232698560995205, 0.4360821585741026, -4.0657137646870485, -1.6539117474258034, -4.917447268341391, 0.7917101184051694, 0.5873604238315917, 5.170341431290296, -0.44012599950665776, 1.8085139387772897, 0.7226342495447657, -0.43398189887391614, -2.852508183851062, 0.49515719822790993, -5.2806908916025215, 1.1910131624467852, 1.4804016629381795, 2.1610015420483877, -5.712358657218302, 1.8920720519880758, -0.34578324966905294, 0.9434034728789316, -2.790744066140764, -2.639279576004787, -0.285014842294836, 3.3261772767183544, 3.315927670241563, -0.2968268438236519, 0.6976839473751602, 0.4462214985877895, 0.710073476069623, 4.761035682934232, 2.323066554962005, -1.0818768691977025, 0.13612877261017542, -0.034929874050798726, -1.337562370374745, -0.17604986518422816, 2.2395287593605984, -0.5176849909281821, -5.91928937673827, 2.0952555820514727, -5.6860159070191365, -1.013750501919004, -0.7376965517576655, 4.756161611094504, 2.7065415774471346, 1.1286924159811287, 3.0955622502653455, 2.8983932701722503, -1.3415479652700597, 4.206460878931982, -1.1815620439033137, 1.9961429053244881, -2.9000646756116337, 4.326660645617713, -4.418077068732956, 0.9661525821447032, 0.42366429041375264, 0.9269966379869539, -0.9892500487051503, -1.1168402397688713, -2.326314661898128, 3.374378836663568, 0.769334933026544, 4.948325051051238, 4.546544794390176, -3.492548267783796, -4.013207410983085, 1.8702938842512307, -1.7847668838486752, 2.651409567214132, 2.348246833761106, 2.1694601405192238, -3.059099823522823, -4.045663660448648, -6.3507333338518634, 1.07349869079263, 1.7510889380341292, 1.1072778175679088, 1.8772768311745134, -2.051685706457543, 4.690747134499768, -4.331158441932158, 1.3408321956467208, -4.276466733722111, 4.088199915802834, -3.3306944501290845, 2.1771175599191555, -2.160613078048156, -6.402045060628529, -1.7502807176927608, -4.3507193951247025, -3.676391852967817, -0.37780325579427654, -5.638111374747119, -5.532038916342808, 2.4211765646922707, 0.027412219951991723, 1.65775281934335, 5.048908877702581, 0.06491846276458513, 3.5490803473784176, -5.292101991696641, 2.6102980402426175, -3.1287267770570844, -2.973787146794693, 0.5399933508280741, -0.8840643790040539, -2.5670192997544428, -3.037190884552797, -2.8989420361574014, -0.538641913727643, -1.7361103637592927, -2.6015440642319483, 0.03675847085078354, 2.9272485822129672, 2.0270834925869625, 0.3109385710309558, -1.8652634640495431, -6.4620656564974635, -3.856345060102443, -1.8841736025274523, 0.11515931926417067, 2.270612700612083, -0.12655560126622722, 1.6013671183674179, 0.8013719158298309, -2.7247306685722092, -0.6067604956251278, -3.048367864566349, 2.3895355683877337, -4.3727254681301355, 5.1645489059553364, 1.6217199312665578, 1.3194502566493878, 0.1318553610305837, 3.2967109833295325, 0.722075993022085, 1.3073941646084415, -0.11387536989861546, -2.015539297730024, 0.42767128412072664, 1.7720456366498718, -0.38709173630083515, 0.21507629386206428, -0.05354379877511872, 2.901415323912435, 6.417558509504849, 1.8468197957071935, -0.9101240177569454, -0.52124934117588, 1.5152575041766303, -1.999341555980236, -0.3546549690939962, 0.33079463845764123, -0.6415779744245221, -1.0957075853172191, -2.559652795385386, 0.19599460579895833, -1.3559527282775268, -0.44897910915015427, 0.6176371080339593, -0.763321285440747, 3.5685905145762007, 0.7273215103711046, -0.035121410905964434, -0.3793808432352894, 