[{"weight_list": [0.8930585743488961, 5.6341684496098665, 2.2729295875624294, -4.930002422879164, -3.7891967008760807, -4.7435607131588196, 3.3893317234740126, 3.4125625838431155, 3.6988674152106205, 1.3698903416956814, 4.7582211362744475, -0.19321577816359214, -0.1501379327648671, 0.03064336963055947, 1.8892214102700264, 4.9358985937298705, 3.890234171644604, -3.203277859514404, 3.027783776898964, 0.7598748461255682, -0.4087763796049293, 4.782778545099258, 5.352715569989402, 2.4889376160370844, -1.6913124223346816, 1.8975990185602103, -3.3722586259434206, -5.120540852654155, -1.471344865597459, -1.4643266743155587, 0.48610962993943674, -3.7094098101758197, -3.5856602812220286, 0.9304534759500565, 2.0038376640584348, -2.858416946579488, 3.8298033561005687, -3.2707503012303896, -4.310150458233643, -3.6040131208542343, 4.255443019013697, -1.7182175604588203, 0.4261754521529597, 0.30952702703672097, -6.1847086018007165, 8.79777123913751, -6.6758668813827455, 1.2762199842505266, -0.7441240831711793, 0.9377185740662382, -5.679950491774163, 1.93465408731024, -3.083057020597101, 1.2182220840510647, -3.75445904537952, -1.7184801376946106, -1.7091789882149664, -4.373641501544881, 6.833467026788782, 7.367354556600791, -0.7386329243004012, -2.9596593527944997, -3.22251950424019, -2.300498063574278, 0.512468820102185, -1.2600048445471368, 6.40195516361321, -3.5272343827947505, 3.1772567042668207, 2.0955829372791794, -2.2217429654370946, -6.6477549203318755, 0.2334957448460806, -4.315086714390755, -1.2849925144896355, -2.705290321706955, 1.7965676199929828, -6.811104956696022, 0.25025515046023217, -0.6258846932021691, -3.5413797393314406, -2.587299360387343, -1.7648608590566726, 0.15482980276176583, -0.67257166670989, 4.678093135297333, -2.6545369083704147, 1.730782889521219, 2.3575436041980726, -2.2590129362478555, 4.065209084179896, 4.11474688107546, -4.3040611069808214, -2.4217236460985685, -0.19330853704770545, -1.3661816286455606, -0.3295317455649498, 0.9986295640287384, -2.278494713511785, -3.8308157659413333, 6.556021985478988, -4.708202117864529, -1.243501414104854, -5.780125007697473, 4.881464445584573, 0.9319389084482719, 0.36058917019484693, 5.068071072705509, 3.9508565265804227, 0.5229993359021219, 6.576873609674914, -1.6906182635534839, 0.7713624314423775, -6.0104618603873465, 3.8623151825352, -5.551403878193901, 4.699037288828196, -0.7336818887006387, 1.7347982096728503, -2.9359051795794455, -0.30818484884163655, -0.9320201400646346, 2.531273357894727, 2.1093480889151914, 6.39173389918043, 5.444435180660531, -4.877769675768744, -6.865879654180006, 4.026502168029267, -2.6043344657505196, 2.6717149008246706, 3.862263747410303, 5.606922691112699, -4.2602606246593, -4.6575282246520695, -4.036941204150976, 1.2041269841582656, 3.420432568117599, 0.34089779758223515, 3.431294961677996, 1.545773633250663, 3.499360333576206, -6.654909123732207, -0.0004801529804592253, -2.876924856218186, 5.330456717527349, -3.0072548482899832, 4.26165770638155, -1.7959285159922955, -5.216259045850104, 0.11711197521588801, -3.9069667410386026, -3.4593349974637295, -1.5262992120174705, -8.309970877556612, -6.156590596062669, 4.0055244999563575, -0.05038713882547108, 4.055402381148278, 3.6753856864140673, -1.6418190642005557, 0.5358345610406368, -5.778946023612072, 5.462215852676362, -2.2725211179804523, -0.5125749088267185, 2.824998481737243, -3.4911658246890402, 2.194022446744064, -2.7266877674280625, -2.710216988675426, -0.1978383600744138, -1.0758692254161368, -0.6572003338623003, 2.479908251243901, 3.3479105581660127, 7.902160833890244, 0.8848671943275648, -0.9578707611529267, -7.988694851904965, -5.385684474058942, -1.7300080397358055, -0.34694948613890575, 4.647444598804957, 4.5803420387184675, 0.3151862149272153, -3.2312606979359164, -7.085349508840766, -2.467059760575733, -1.6300327770298872, 1.283510632741125, -3.389096808382385, 4.533714222885752, 6.312049221990708, 1.6518674188774236, 1.6486400588246415, 1.7319247789143053, 3.466980301495939, 3.2867009472542685, 0.10490858320917518, -2.9034745210381327, 0.7548974254518366, 4.239243130525503, 0.42396260730866664, -1.7625765123350867, 3.4811118432831822, 1.5131666573940201, 4.203688610078062, 0.4872921600984401, -2.5892584834411765, 1.2143336288841384, -1.3758740336782973, -0.5280478251709186, 0.37130254920832373, -1.3113576583459783, -1.1668005382094866, 0.015113805634568545, -5.023289734472732, 0.6080956352528903, -0.07507111345588768, -2.255768696726692, 2.2112309084679413, -0.8540087725129613, 2.432341809893526, 2.6341404579721375, -4.866225153682613, -2.3580674217049475, -3.41549113527031, -2.359943846274573, -0.6020017585113278, -7.4469886553042794, -0.37440053402844886, -3.8307656272479527, -1.56198558619781, 2.4186768986788953, 0.3748572812397335, 6.252008340082593, 2.526342914313463, -0.25972181197096367, -7.137425123838527, -4.203265334029658, -5.85182080918851, -3.547738632369368, 4.797991858808796, -1.2175328577613396, 2.050382178371737, 2.442552513083215, -3.1752865617858688, 0.6901365854541135, 9.812628880189797, 1.6957630351780955, -2.126121131677859, -3.241193972783564, -4.5321523061700395, -5.44359587261487, 3.3047006265178807, 1.1698477440853994, -0.15609106667385086, -3.6988298151054644, -1.443235528214453, -3.680268893650407, -2.0835998055642735, -2.823914100855338, -4.711335026303859, -1.7545909812092912, 2.6554058669325142, -1.6937887729596928, -1.9915475976211197, -5.292403990498175, -0.022983027540694367, -1.4703586606792418, 1.4623647432425035, -4.544081200594452, -1.9137118121890935, 2.282472211905844, 0.4075713423255729, -1.494878723794923, 2.177400124193048, -2.227854445492982, -1.5064390381740935, 0.7457928795356539, -3.044945060948363, -5.102478156061692, 3.801674036787965, 5.073325717437948, 1.545885490523235, -2.62602032993718, -2.518454035359395, 3.6207710992973947, 2.2757806316396505, -3.70242114173677, -2.5635426149531932, 2.68536303383953, -2.928037977155225, -1.461887671699829, -0.5464003207558272, 8.917782088086168, 7.6329276631075835, 0.06149538543371391, 5.577861272885021, 1.9795948258904814, 0.0724654008839336, -2.6139244474648704, -1.8628180280113569, -4.418554665636926, -6.2929621019201605, -4.253385597240635, 2.023926631023884, 5.4328287899693875, -1.330384270793072, 2.0501893685907477, -3.0713580140338825, -2.1089255900212223, 3.3706634016327115, 0.8903457791441831, -2.1670493456309083, -3.2568683327086285, -2.1909917657104696, 3.042799630145903, -6.756999092652386, -2.9749385188847497, 1.0461651870116864, -7.030003888929922, 5.66595339516415, 4.48320635466307, 3.7085139722496034, -0.13257850410234107, 0.9695853608245535, -1.1015172100476858, -3.4746463402301986, 2.9298424570493635, -0.2633099448837206, -6.8616128292334535, 1.6843066954329702, -3.394061923565614, -1.49897391964195, -4.68244225761943, -0.2436454422898342, 6.726832442616704, -5.400433204773187, -0.8332169028309584, 3.095779706849041, 1.1079838328333507, 2.7367359949244983, -5.061718430264941, -2.1177552876406676, 0.9884728165695142, 2.0578553922335048, -2.066813256228773, 1.4327107601649383, 2.244181445117681, -3.998784502631936, -1.816874397237497, 3.345822837482923, -0.03852613190926002, -2.063057464845408, -1.1093092581431403, 1.5275586068851084, 1.6779574795797139, 2.743224310292201, -1.5803365084811598, -4.080842580769162, 4.094834401733808, 4.423791242256678, 7.288155432222393, 0.46814094694839037, -4.5573583525502155, 5.461398732881622, 2.0998953115404397, 0.5382889274322054, -6.200151297736147, -2.3144793012685563, -5.426834473516688, -1.6743123226587793, -0.7140922644814724, 4.097830827925849, 1.7095844936186313, 2.0247390722838348, -3.7008550016306936, -5.852798912529748, 0.7077775606805876, 4.9189963732167925, -1.4458603808644845, 4.137446827040019, 0.2490518519678908, -0.11860389119533199, -7.363780377621266, -7.2367277219249795, -6.5550589927272425, 2.6665463119440815, 3.715077079041288, -0.6279099538092583, 4.508012877083889, -0.5265675493129465, 1.415348545431986, -2.8216730321294037, 1.0068360335630535, 4.511476150504031, 0.6104517013434803, -1.293708153889393, -0.01757701418483215, 5.757492848778181, 2.624465597616487, -1.7990295077046305, -1.1446299939444224, 4.913549450507212, 2.3605947083764764, -1.74255933224972, 2.5651582992778157, -5.023897190319602, -1.58222333799037, -1.9998383857009807, 1.8743133670911343, -3.951290556349435, 1.7643575540234098, -5.826050321704923, 1.339652739351998, -2.9519621146075163, -2.307915556603908, -1.1244952998908986, -7.872002473430202, -3.613913777190173, -0.3766699917964944, 4.207445845198494, -4.73050594128359, -2.5822588666056223, 3.3518829116451636, -5.74054336564429, -0.9318812968042336, -3.7192072098565427, 6.81081438339198, -0.8859505618515897, 5.722021015381905, -5.792137039298074, 4.450963248172879, 6.597748494569965, -0.7185071218893633, 1.924336198861667, 2.3704978192628436, -6.3333286286959165, -2.244800088391747, 1.3597087754912973, 2.4223350885105432, -4.611706755816943, -2.893426731085971, -4.006567302597793, 1.569924061175366, 4.799389351364547, 1.7652318531717044, 2.181512055478401, 0.4118235093921583, 4.6657966501554355, 3.3564538247290603, -4.7353846448558725, 4.096826360178644, -1.679430546547823, 3.5432666916165516, 4.325062715800519, -1.6157405221986785, 2.3154322922773023, 0.9414485972266475, -4.955164596924531, 10.62995950447777, 4.615770971747562, -1.7923575621703784, -1.184669209495193, 0.7655259338096796, 3.8389874862763813, 2.826544738113896, 1.7860973657385655, 4.61861375859141, 3.1282360210965336, -3.2400608758049074, 0.6869873857621498, -0.40352532857357093, -0.7734488767300822, 2.962650202129346, 4.294451844581265, -5.757006533475767, -1.9691877734580157, -3.4626884189214637, -4.121726868088313, 1.1227407174049144, -3.8023527267149655, 4.963947823760217, -0.7525260513426593, -4.348622956405963, 1.546863400508074, 1.956291453503364, 6.371093017119886, -0.7731596419857201, -3.1224774216070923, 1.073716877781358, -1.7240146007296977, -4.568663709972354, 0.24609951291682797, 5.485285879270573, 3.2422674790441715, -1.2742705569900283, 0.940113314852489, 1.9845220259136376, 0.7111178472569324, 0.45362305044550544, -3.500067302700806, -3.810762995348445, 6.765256687532037, 3.255424284344514, -0.36831276640090094, 3.347669793094796, -2.426204337224026, 3.300847637818036, 1.091667208863762, -3.151084294677469, -3.4553445383548818, -3.8874627348765003, -2.649672482831685, -3.242222821474649, -1.8920965937652046, -3.730932122037432, 1.312684738773898, -2.740142712169919, 3.930814581063924, 0.9221118470877163, 1.2272882331336565, -1.9879840729982998, 5.974942206059584, -3.8689387148241132, -3.8702375326220944, -0.18511121784471674, 4.86308260122089, -6.093618577821701, -7.555857879337308, 2.3056060674016514, 3.1892455099939028, -4.1252927839070495, 7.477344729515352, -0.6239787785438291, -4.697058714164685, -1.9916943668552083, -5.906634315072682, 2.7566596540410497, 1.0096504973928484, 1.1035922681241108, 7.200707870328035, 1.2315974345023522, -1.5545192724849919, -4.352769598875248, 1.54037345993408, 1.8282472204321465, -1.010693384514705, 0.6017230955770443, 3.4358817128491745, 0.7274246101437178, -1.7012459303204226, 5.502019814675254, -5.967850690245383, 7.33859739570892, -2.805331974391218, 4.534312985120379, -0.17226460625750772, 6.248463699777686, 1.149282345118868, -3.222795097893864, -5.272391583578936, 0.49407177051470175, 0.2251653925512196, -2.5355902985724432, -3.200502367158735, 4.950462843112396, 1.6488672210178144, 4.267363824311646, 2.991334042198255, 3.1176201298836457, -2.391380563384364, 0.7143607426457301, 1.5065965223303843, 3.468984277318868, 6.283070992692335, -1.5933485137749126, 1.4232406873678873, 7.234795084580927, -0.5634908492792359, 2.348020637563996, -2.4514699038121344, -3.6690498925831796, 5.530131195743081, -4.278409527478827, -5.634765414814822, -0.9540749542625059, -6.724766108461396, 3.1059646235034144, 1.9569801514109026, 5.381886917968082, 6.420370048203992, -0.5257151875404189, 2.065385004479289, 1.2994285265810523, 1.2725704856332833, 8.080837183778016, 2.096237549214843, 1.8321557221022342, -8.076671341032469, 1.8012833209287429, -6.848912316609032, 4.631203775154667, 2.298412549804993, 2.657782514102941, -5.937884759912547, -4.699331757858952, 0.8084055341606269, 4.197499064073104, 1.492989356662914, -6.894660358083897, -3.036001062414261, 7.160010742860516, 1.5372906787152094, 1.1037241717030444, 1.34290238192267, -2.5982531828565367, -0.6347243784455356, 1.1797686573495132, -9.38043412917561, 1.3672756780325908, 3.522179186471064, 0.5185460869409004, -2.981303303969847, -2.1745683055800864, 1.2692455452578755, 1.7825585117472569, 2.4252363637310186, 2.5857562512450265, -0.5712866026714011, 1.1538937283682769, -1.4725619266104508, -5.193817665075633, -7.5313212647770715, 0.425424281458342, -0.26690391450079587, 6.4833603029683955, 2.326171900300448, 3.9681946782244975, 3.4828683633350224, -0.5988284433354134, -3.6235920988595853, -2.587788342407525, -2.048930107406517, -1.2585018600604843, 7.037445245965788, -3.4041106337056917, 2.173005501936987, -1.1771237977080455, -4.359241418900721, 2.0846131533641827, 3.786906200687718, -1.822909977376097, 2.0551801783840355, 0.7598107636780114, -1.2312093807650581, -0.418970631983153, 0.6053184375110303, -6.1194732253522535, -1.5522414016919222, -6.16670594544488, 3.711969679663431, -5.10136773552836, -3.1366329447280314, -1.5563509352572331, -2.0331601879080523, -4.973304276696403, -3.241607318325828, 3.6313268472278786, 5.173327489541514, -0.16255015587314614, -1.5326519756549528, -4.118989316058531, -6.344751309654406, 3.502157628990336, -3.9659862181711754, 3.5292817986849956, -2.207715442416493, -4.477867448931598, 4.408023946252452, -2.2819799044733164, -4.661215487675521, -6.0539249914110576, 2.183288310788022, 1.115091910527116, -2.7871793712735573, -1.499094551884721, -1.932311050816613, -3.6065923413818326, 2.4958023674106404, 0.3513842239065399, 3.224337733189034, 3.115210729447176, 2.645930378692816, -5.157587643818671, 5.015176034498023, -0.585502645777978, -2.622297596700093, -1.3566506021193776, -5.60575668655047, -3.9377571310857977, 1.4565371369160296, 2.9490469974280895, -0.0436391754165153, -2.0200164312727455, 2.5090518222243117, -2.1966408179223307, 4.659991635198356, 0.47044968293855405, -0.31809165612412804, 4.774525591995782, 1.8711905505622317, 1.0030143980745523, -3.4019075942245154, 7.641979975794957, 0.9577116099559124, -2.511776583949425, 1.6672794834701605, 0.8128395171350704, 1.6768858184284294, 3.855692074556538, -2.547315274845296, -2.214199247585748, -4.168717808848184, 1.2093251015161997, 0.9934961870692556, 5.390511830603076, -1.5051634417986794, -1.1464859391741522, 0.6961809416864304, -0.5918034435947186, 1.098752457088624, -4.219590477429698, 1.5491129350403021, -2.704460629875422, 3.272632340719378, 5.743460394497481, 8.998029502244849, 0.10738858132433271, -2.654418197422751, -6.30238268233933, -5.893040852417757, 0.1517662645994442, 2.6841718508185135, -6.576406937942527, -0.6522146218913074, -1.3170525699787912, 5.9890110341877545, 4.279929802604633, 3.8038738317044345], "biases_list": [-3.608399157511077, 4.163542846183933, -3.330410358236386, 6.101215204557257, 5.8970512390569025, 1.3605791698266358, 3.526193754309146, 1.5226021742934228, -4.977340623425091, 0.8528951899729689, 2.7326946642293883, -0.17157678811889054, -0.6824663445345585, -2.4579870491478064, -6.90503495017699, 5.7290648368305925, 3.767665197516191, 4.30587912215638, -5.580464669283689, -2.591102668883221, -3.8404274030980607, -0.9141439858590561, -1.7822122421758972, -4.272288202661166, 5.283049938651812, 2.013735735233446, -2.591030328265112, 1.826058531961471, 3.4375262288220174, 2.725268934479014, -2.0792479008917555, -0.5409860607036541, 5.631644201149899, -1.2098478710175709, -0.5583889673737454, 3.100827604729572], "shape": [27, 16, 16, 4]}, {"weight_list": [0.5335407272267072, 1.5442764523111299, 1.7950206137798919, -2.4351936879473484, -0.8998892642967462, -4.949063636540139, 3.4879574696327884, 0.42993702619092145, 1.0219515129668535, 0.9057841444550709, 0.058901280245089005, 2.7814218475271737, -0.17130536514669203, -1.5064131263147165, -2.8506337030353315, 1.2294706417612655, 4.320889574070442, -2.5695680607971436, 4.890127141908277, 2.0431120097583153, -0.010477982566310495, 4.128469048583431, 3.044962517833196, 4.6139971915831435, -2.3723756289268265, 2.817440253379475, -1.4202577755852126, -4.27880267214785, -4.301152299561019, 0.2693795110128643, 0.22740222794416143, -0.5885947087095109, -4.589439002277526, -0.1357600937134864, 0.09615793614639645, -1.491941980670961, 0.2424969198247544, -2.0619356271549254, -1.450263530454284, -1.0929439815995412, 3.3372659952300925, -2.581093103961178, -1.6681354287273638, 0.7226453133950899, -3.349652002394211, 2.5635037938634415, -6.080303797999619, -0.8866017818601377, -3.98402922180093, 1.5302217921915329, -2.7790472594374256, 1.1756050537399112, -1.9899182578912225, 2.13550395986858, -1.6946772014086797, -1.714455213079303, 0.8965843432043046, -2.178577526580516, 3.1854223164035247, 7.5700206419963045, 2.40019114583888, -2.155596483671429, -4.198296297794485, -4.340103231285761, 1.2603055267487244, -0.12814316094304878, 3.6658199972299643, -1.2765769660334791, -0.3534130308982586, -2.919970214448478, -1.0571683962226461, -1.7972906576296817, 2.6024904515232734, -2.829741642951375, -1.2429466272331269, -0.8428950121522358, 2.941572122134038, -7.404162963722971, 4.0059743787683075, 2.583292658167709, 1.768324889125044, -0.8615510729997296, -2.992215773263726, -0.23550293950118162, 3.2374373362203848, 0.6147048803549491, 0.25665490168054905, 2.4076878701467135, 1.1360826459248932, 0.6703587502573436, 3.3094879336854985, 1.1942275391930632, -0.5549923638861156, -1.4899668565413766, -0.5574862682995205, 0.3915444992778294, -1.0076629556047558, 4.857739086877023, 2.437184023045194, -5.8121720233159815, 4.720958979136162, -4.050181608259547, -0.7670615193475776, -0.848075314178987, 5.70734328154064, 1.64462223153361, 1.022916284661834, 2.728368250230737, 3.718207786385583, 0.6043364390862824, 2.7649998643436726, -2.9711119576605416, -0.43234979005635077, -2.9683585081689716, 1.971056556467162, -3.6926920263504743, -0.8382934777407267, 1.6191902507874723, 5.4136760916537865, -0.5228992147735494, -1.9552386040213174, -1.273278449832644, 1.1135186843320417, 0.7436029319548558, 4.826591845338842, 3.8925234264812136, -3.9467361037094855, -6.238575308471542, 1.1046855261171205, 0.4130132325983451, 4.136862062872575, 3.9882001008567425, 4.290469094630316, -3.1027784394059434, -2.965309941110264, -2.3182496548188993, 2.4423159140685593, -0.5071677444562601, 1.883488554444276, 2.563186090636348, 0.7982976492187359, 1.5260049961784263, -4.922975224650251, 0.5500727124816143, -4.388042630244367, 1.1462306600808727, -2.734740117413415, 1.9348584579116697, 1.4552597507967615, -7.08185357861192, -1.9529851213599714, -5.719253748864332, -0.320971070765667, 0.2630820245982328, -1.7548444454640468, -2.628202663157067, 0.5909839709602696, 0.40938345133215925, 1.9976272034119775, 2.827066759021064, -1.133801635409251, -0.10711950746352028, -8.282509286396763, 1.7815416540068467, -3.742732096852026, -0.7046837969667796, -1.5558523998180331, -2.1557759187334398, -1.8160728611298473, -4.348645632823079, -3.860549906762838, -0.7756096816055869, -0.8181469443437959, -4.996741345677459, 0.1765570025068901, 1.9889090424354325, 3.242575765063477, 1.8593901954886256, -0.0740437097412765, -6.650677741773318, -1.1612558766593202, -4.16542877093741, 3.2243678111987846, 1.51829514592015, -1.2820251021626272, -2.5389245197209735, -0.7640439108869639, -1.7403411121403751, -1.7592686142327878, -1.622578735118371, 2.25172191102215, -5.025215251799124, 6.1259041863835675, -0.0683814522419991, 3.6867457075751275, 0.03081724646321593, 2.2384314289857463, -0.7179404795173017, 2.855294214346147, -2.8459400552184038, -3.542076591430206, -1.471425799928525, -0.08340999775958657, 1.0183639388035046, 1.4555156612138047, -0.6832090775409216, 0.43514607238826253, 5.962223288509188, 4.005557171657054, -2.0968283927633866, 0.04602821793866463, -0.19388874770924036, -0.553541578252809, -3.2251619717579025, 1.925424641746135, -1.5965046563096816, -0.1402754383149033, -0.2044888995396743, 3.559881527278524, 0.0771500861748109, -3.6361848202184976, -2.8299672276434222, -2.3380406862028797, 4.868015686348789, 2.8949103117857433, -0.41632839074838424, -1.0569836209672026, -0.3250447184625047, 0.8960741139386261, 0.25881451754157947, -5.20865253275347, 1.3241338917258219, -5.513269877741012, -0.6143798740621227, 3.334052713544555, -1.0623205675643388, 3.14463864442426, 2.501095252934448, -2.7203559233343038, -3.4776216264271964, -2.2143374258895427, -4.222856653532572, -5.6013347793818795, -0.6289294836266975, -0.49509051097285117, 3.4667737429277254, -0.8083468607709653, -0.28946677015915534, 2.822680995351824, 6.575223830339656, -0.18749893578112387, -1.9525984372992626, -4.260229817707343, -4.074036230845399, -2.562737744841985, -0.4547214880055972, 1.920348028014467, 0.2929584361223927, -1.8870111077391472, -3.891278661057823, -2.14021930474775, -2.219928520744581, -4.645420584547216, -3.4576783690349697, -4.8999709163552, 1.5685943073928739, -0.5583172532833279, -1.7345059620037968, -3.7596166593048297, -0.10366468305203003, 0.7455334354180798, -2.7066467422690987, -2.8258600770613223, -4.213700827530957, 0.7033127638759626, -1.1969099355950377, -5.0312376558923075, 3.1047156284050548, 1.6057023266602752, -1.9436249765482738, 2.0988426411010175, -3.2519114399166416, -1.8891652432504806, 1.8957992147913512, 4.205877496663698, -0.1051713526937601, -2.7977046512109176, 0.8851309619864394, 2.4079930704066546, 2.230382131298188, -4.127245359541135, -2.391797282283683, 2.9146775804719063, -3.499044802813022, 0.9239489079815864, 0.5727908559429173, 5.946634154677732, 5.393419782899508, -1.1311144636689447, -0.890816062903032, 3.880053076983378, 1.0226435352886414, -1.488026638680701, -1.7122832071752259, 1.3018385400504249, 0.9615355825732115, -1.7772779156423781, 0.6676146698552177, 5.432061006642526, 1.0424922645404475, -3.8613373904928925, -0.39135018343327643, -1.046909857846091, 3.3589403178118857, 0.1869506909406422, -1.0688434350709666, -1.9118573568470294, -1.1454812251560655, 0.5637543447200395, -3.7219232678673153, -1.634333406710162, 1.7442102212806292, -4.58111089169879, 0.704234623315797, 4.375171174668511, 4.893211643043802, 0.703980772960052, 0.5586162475258034, -2.002470809096235, -5.402182343395053, 2.060969957544078, 2.9387455406992995, -4.522158505795478, -2.060219844907981, -2.0565981965308486, -2.667497352493279, -0.7246643444234746, -0.17869052914229866, 3.1119105760692856, -3.473445622431437, 0.3745675333446916, 4.070150321162943, 0.2621859048298376, 1.2692188918574336, -2.791240915550972, -2.7264112051433465, 2.404015516249612, -0.18359691614007378, -1.621097845649895, -0.3897807163960776, 2.386353112664203, -3.227449811129503, 0.3842622873301529, 0.6858014386779034, 1.893556286936736, -2.0376699846781623, 2.0101963291879668, 0.7149028803317625, 5.541196210175391, 0.15552422401476407, -2.6068975540876886, -2.789477705904181, 4.363629454142062, 1.1415547234879226, 6.211467919554261, 1.453420789282529, -3.9007455188549107, 1.0876410340619787, 4.315840847747809, -1.931750536657129, -4.893629364124485, -1.5198970194264037, -2.269087323292875, -2.1433009899006095, -3.0649607608079847, 1.4294476071094837, 0.7701903130442291, -2.2478645094620715, -1.1792869582229646, -2.623541593240065, 0.4799848320986513, 1.2402399235501962, -0.09845482101369762, 5.7610494245033275, -1.0503048907787216, 1.3880242267443546, -2.6494518605121438, -2.8835471869163047, -3.5898710309061337, 0.8255802588590277, 0.873002112348948, -1.3009413672971963, -0.6443014630563166, 1.4745483230363892, -0.5238766750635009, -7.003922066159032, 3.618625078582447, 4.913722131964962, 2.59101775505113, -2.154271281618989, 3.7959388755693872, 1.5145300471161423, 5.122105891136194, 1.4210005382180806, 2.090538829264795, 7.76219553391871, 0.6412705252844331, -3.9941873265498287, 1.835306462920184, -1.6683025103870386, 1.7733351447896673, 0.005965166164672908, 4.159748636224252, -1.1326433227395623, -0.225669343218299, -4.37047474520245, -2.2247366170443086, -0.24921807797444062, -1.046522822103212, -0.7326599536080437, -2.896976519879045, -2.8384211856828143, -1.3094182493502349, 4.438979772171078, -1.859845593094602, -3.538640390580984, 2.255666197324154, -2.6116563625312175, 2.8859024875868937, -1.67607472586944, 2.580791796867131, 1.3333028016489172, 5.0881429244778325, -3.0509206629776955, 4.499533811006026, 4.067137274292251, -1.478344928376424, -1.335378057625052, -0.7838599005490021, -5.312445271692093, -0.9272367914693302, 2.2851240203817875, -0.6547754378910126, -0.7242907825634644, 1.2639618733984128, 0.005224307997450328, 1.1814319295425793, 3.6999572110474492, -1.216233589677861, 4.189487436066296, 0.15074015954162334, 1.7933274005328403, 1.196198530560752, -4.668252306465321, 0.327138716672706, 2.14985820525471, 4.252978129249383, 2.4974471299965426, -3.3350490967321234, -2.4128710770902924, -0.9354052537488105, -2.902678853345682, 6.369527869294106, 1.6123318558280886, 1.085501782282977, 0.42176231199938186, 4.464283619228562, 3.2377674377433916, -0.44617752583877857, -1.0177087439568906, 3.655004216099651, -2.675323054950143, -0.9932771480522644, -1.8875656159865482, 1.9765530798969464, 0.7416589345340725, 3.72848803361307, 3.1686315046247504, -5.787799188897924, -0.08554747448810995, -2.8567762968837673, -3.6893866834601834, 1.02077486669309, -1.8727079298127476, 3.320462133129949, -1.012947931262771, -5.807550883338788, -1.8444826475604887, -0.38464867446647677, 0.8762521745811824, 1.2327284987758311, -2.670081762677837, -1.5033110563268848, 3.1115843106298353, -0.6598677548492128, 1.939162623506375, -0.17634373147063154, 0.21359305352186575, 3.2290382539421536, 0.9206443053638877, -2.5669514592330906, -1.8260592820585524, -1.285053520757026, 0.30466798241014703, -0.8898008896317553, 3.2919833905225637, 3.132398469563582, -1.6834311704238278, -0.09852365748799308, 0.6124075360528294, 1.1595219857735817, 4.829978418183782, -0.46623925310988734, -1.8403157125739034, -5.41045513747122, -2.822277838352354, -4.934120761491702, -0.15725849790867952, -2.922689465298925, 1.1088157606668538, -6.325560217839577, 4.621960871083767, 4.140177434158266, -0.6206359535486603, 0.16106252416165923, 4.792896503519074, 0.45750104521888857, 1.1043594057718797, 1.2641296268018771, 2.4165847810341106, -4.1341836725585654, -6.0296468238163, 2.771014702300307, 3.4582792133243423, -0.07341522813543877, 6.409848968520287, 0.9961370470973416, -2.9699037632551595, -3.631015858630435, -3.275042291237054, 2.3960242015940816, 1.1107854597464142, 4.169357152624366, 4.0919506195507385, 2.001081630688601, 0.13333744949141146, -3.8782046685190075, 1.946184205331516, 2.9772971054794515, -0.8108947572661845, -0.3171933581009492, 1.9019274423537982, 1.0420178565679334, -0.6949055459785158, 2.6409611627717897, -5.207307066814687, 3.7685121069397898, -2.083971447110904, 1.8213560781062998, 1.1970464678645767, 3.820256802640367, -0.743653774323588, -1.7017072711843086, -3.3072863662243286, -2.0333544944712747, 0.45066840501434413, -0.17540648787393276, -2.9634584156696286, 2.154772862587314, 0.6467241641029455, 0.7468368243587844, 3.9216932744627115, -0.7091850939097484, -0.6320121306619397, 1.3326996732859975, 2.1266685440965296, 0.4003282769962957, 4.706156883311524, 1.325624081664504, -0.6438534883148441, 4.835061853696113, 1.7905119504005969, 0.9668173587555664, -2.7443557927491287, -0.9281504909454901, 2.8620867814415893, 0.18821854043087582, -6.165546197942411, -0.23971642637388146, -5.34206539470414, 5.170988026621589, 0.1705247352544681, 5.3605599265206845, 1.3212868137943983, -4.060759731486438, 0.5242906418731641, 0.2377968449455241, 1.3887436430639792, 9.616996135347481, 0.3942048125872968, 2.8912933454209226, -4.7508026095750715, 0.8397698115422956, -4.804957958814097, -0.5517073301788613, 0.7188174757710124, -0.2550163686253457, -3.119259854706713, -3.996748422865587, 2.071197750769464, -0.48265322271457123, 0.8700313853918156, -7.212791211671756, -3.1163632037774693, 4.598677080204125, -0.5227785450214959, -2.6260318578395734, 2.138227762858867, -3.1999146697577676, 0.009388732979408676, -0.33425039929191835, -7.732674796759803, 1.177090885454052, 1.0323577530566515, 3.5955178687773106, -1.2032385963441232, 0.6355890882031996, -2.2808997215159508, 3.778589717624177, -0.16608313489186166, 3.355106616841886, -0.4509592057285483, 1.3487504895566307, 1.1845377607080367, -1.0972213232282977, -7.055776886523192, 0.24858504311957752, 1.463636314559209, 4.597491990916652, 0.7333983313776518, 3.039886105929419, 3.854549737968978, -0.9437881196403454, 1.507470507483042, -3.0831929593497547, -3.347741858372766, -3.1468874479066065, 2.312029032325784, -3.707249006740405, 6.0474776464794004, -2.857476019750962, -3.358805998818841, 1.965778611456761, 6.084544119745309, -4.8572478456368655, 4.384824439973922, 0.9845405333699577, -2.3901756519614943, -2.0844763417832115, -3.660041292120445, -3.3349365969391487, 0.4150927064444865, -2.243065144448844, 6.17690130241261, -1.9117807814558616, -0.9047011701256626, 1.4720475606767165, -0.5531777021341102, -2.3561701123967698, -1.6724291970273464, 2.750431936029826, 2.401504052842077, -4.048392683252146, -3.2122379955427562, -1.8493084459322462, -3.8154387950588626, 2.0232920621599133, -2.7724474222440767, 4.5648545484082, 0.7259059814607198, -2.894635568366212, 4.566838082731201, -1.8197321610178383, 1.5303188431855173, -6.161818083193172, 2.7101014607028056, 1.939782381874637, 0.2937862504639872, -1.2895886467440236, 1.320046315142403, -2.480758573015692, 2.691616900547676, -0.669774901042326, 0.29073063915652164, 0.9323267081606823, 0.7645679383422301, -2.005933712536356, 3.9854807624006217, 0.7524831379226886, -4.063860942282337, -3.900061345479979, -2.8462375072530297, -3.9502782307292925, -2.8310464790376506, 2.303132113029347, 2.3216569866965466, -2.365231223299884, 3.653583913398209, -1.9801234168710853, 5.014384268706472, 0.8739905999019499, 0.86780184716687, 2.621019644645177, 0.9892860673191182, 1.4145267936619446, -2.42008741120408, 5.888700596997268, -0.23433426699706383, -2.397304822309039, -2.3365822317882676, 0.951592057809437, 1.0165666202976054, 0.8300338582963946, -0.17304774797608458, -2.24531686499426, 1.9524351645744344, -0.32458893055416005, -0.9434584034132747, 0.8208381608800883, -0.8224304390626933, -2.435213817313766, 1.8472803205215333, -3.2881169579643705, 1.9975691505867337, 0.03846411721679677, 2.291839286296912, -2.362348740808933, 5.888644982285502, 3.79627480611986, 5.766573624125596, 2.49620615587833, -4.33980194147306, -6.2408169426287925, -1.1096054869461107, 2.8808101059302635, 0.9076982495846551, -7.931568200889731, -0.1253500525708655, 0.02339042632097943, 5.397247844973182, 2.9471219124490675, 4.650703713997613], "biases_list": [-2.4153622406105573, 0.8381449782207073, -1.7705631865610674, 1.858247079814232, 6.6829007203051916, -0.34703082461400425, 1.1853207223164794, 0.27837965183450564, -1.7597304654514854, 3.0236738063001596, 2.377031971225063, 0.05635790671881358, 2.179869168413473, -0.030576524968372043, -1.2621216563618383, 3.597376432457173, 2.5025250315042804, 0.4026139870067662, -3.293962369960189, -0.3123629586240021, -0.41120868967259516, 0.3817049346757573, -0.8647923034054603, -1.053467048272239, 0.6250820155377428, 5.9784733568591015, -1.2018747870689275, -0.16488046742115758, 2.2420159352092535, 3.634605124848357, -1.6156985597848714, -1.1025930021173391, -0.6220649418147393, -0.7819156357097667, -3.185362791610757, 2.8977068112783284], "shape": [27, 16, 16, 4]}, {"weight_list": [-0.2708923192082454, 3.5530800494027037, 0.5959934523234127, -4.548597060608397, -2.072942691241443, -5.887056964823796, 0.25579368155337523, -0.20840088620619968, 1.253747929187214, 3.6792862965756745, 1.6218697695271667, 1.6919236122435448, 2.4858117342185366, -2.632591257005082, -0.5865288116781567, 2.2260929570703416, 4.723106121418407, -0.3514024455348772, 4.807373715064657, 0.5280077385828017, 0.31310748307648373, 3.9301369656850236, 4.331309652778226, 2.2389494023815137, -1.561434554795734, -1.6926997617935151, -2.3703737889484895, -5.147889565371211, -3.470019827818354, 0.911646649310023, -1.2304757810682123, -0.915161074033819, -4.474885612127087, 1.6390715038680819, 2.027563017240765, -2.618751841285105, 4.045744458126069, -0.44772180730318856, -3.5688779567760935, -2.8362019888620793, 4.851753989994647, -4.183185071721009, 1.7978987201021903, -2.556342995432993, -3.412955241024413, 5.368995765944996, -4.375310654611414, 4.110553703436912, -1.4094801043262546, -2.350017145525742, -0.655105982652256, -0.1391197231472867, 0.17767009689581625, 4.102660808553872, -1.7076245043741476, -0.07324068143655627, -0.4737496780108944, -5.029812660780653, 5.205258889079646, 6.71667633441534, 0.39635884116225517, -3.842202793546756, -3.1192001961955533, -4.180166961495135, 1.3138970973296207, 1.4460025957538383, 7.026483813923603, -0.6177660533579739, 2.965915784714759, -0.1609013869580309, -2.459459636459261, -3.8860162183379963, 1.8748270401298992, -6.304751587550404, 2.078543902112581, 3.670298515129887, 2.9093489016513274, -5.844235475232684, 1.3217196495313837, -0.059723487402643105, 1.0882775472352013, -1.7311507562910646, -3.096971433311337, -0.9142693306332956, 2.4517545387856483, 1.4288105242437297, -0.6381758630249301, 1.6196862961028016, -1.6690697314417793, 3.020156291855889, 4.603935653522136, 1.4287733378978111, -1.4183218649560858, -1.0175281064221333, -0.6917265726355525, -1.489384311722954, -0.03913448096643757, 2.990629712241289, -0.49564698041416344, -6.83048892997759, 2.293725372769766, -6.005286128057295, 1.1742874046667393, -2.151341382887034, 6.810265687163356, 3.439974562277448, 0.32401358210894804, 3.513777382037893, 3.7236745754292144, -1.1399195327360185, 4.994605751416615, -4.158185052913272, 1.3282675801587214, -3.46531860705296, 6.4069643436940975, -4.4271115459352135, 1.544502392256303, -0.07413540737634938, 2.432837085490464, -1.6018171808196822, -2.462320599554321, -3.5389794267775887, 3.4088987596560205, 2.5987024050807523, 5.5466524949876375, 5.877202825705682, -3.528594149929078, -5.9409138499003475, 2.558264693113583, -2.1931292317327093, 1.5869395643184667, 2.9724647591537163, 2.491574119463497, -4.940973499308285, -5.393804207242328, -6.855691533084881, 2.0424487665930706, 4.564899153711976, 0.20258247831458376, 3.1247909122533617, -0.7093669282848163, 2.444924443627519, -4.275007269551734, 1.9203315503998866, -4.092247224963403, 4.246064164816989, -3.153458501296402, 2.8704222434700357, 0.06670527074506083, -6.900823072256344, -1.626037091356808, -5.9287781422352275, -3.6513892064181634, -0.8747754234360525, -6.085162196400198, -5.581533928119199, 0.8591756699560633, 1.059011755402472, 3.1919540942071647, 5.509012909089016, -1.1062251266427605, 3.110002085424491, -6.47281319813073, 4.058259476309322, -4.190364317345535, -3.6660493835346255, 1.0398412478133015, 0.18927406650223477, -0.30170512581466546, -3.5428249557037534, -5.145437788329614, -1.8385005558541572, -0.4351868241670087, -4.5151081926899685, 1.6406446671427837, 3.6606480015485907, 2.983835843737989, 1.8731353527843173, -2.5798487652677617, -6.598814503413333, -3.927929204781245, -2.222921002489776, -1.1304236886453949, 3.3010568481823723, -0.8794557567314136, 0.9874808045567509, -1.1234917138031846, -2.883192525999166, -2.6622248286638674, -1.6919852589194893, 5.157774618444826, -4.868439408667715, 6.063638277900689, 3.017970334883464, 0.8945487371493936, -0.024833544472935953, 2.3333540279897598, 0.4195128935600443, 1.9002026605803262, -0.9727679217924857, -0.9836427073094713, -0.3074889650188912, 1.825508849778514, -1.2561589718459374, -0.4085661665205157, 1.2143494765365492, 3.237166703258665, 6.531936022580344, 2.0855619398343266, -1.939310183323766, 0.34871198570301054, 0.08433979129374936, -1.2251216436936632, -2.1672398288099846, 0.3623852089997308, -1.1386121914959142, -0.6049789989196588, 0.31589799449139977, 0.12526589977321545, -2.356235861462811, -1.5666292549767082, 0.2836987942221927, 0.2627644145626402, 4.098560058473893, 2.5614756718196587, -2.096188800817422, -2.837338385663071, -1.956264372144123, 3.0155899372954327, -0.6290326885928796, -5.713731578464154, 1.2984667253556283, -3.8092065796685084, -3.2965384171994616, 3.3880173856827565, -0.023287273913873863, 6.341546566422467, 1.3154625898552128, 0.6785696871098628, -7.719731580817053, -4.041200928122631, -5.0249419256384105, -3.524656096386529, 2.065793231887323, 0.5169645606214728, 4.020941461043621, 1.4649300824546119, 0.4474396235610971, 2.6757160711483463, 7.485503112715959, -0.009709237686810313, -2.051213730008872, -4.065292285003848, -2.6703507212127566, -1.2634042841155888, 0.8463909223752533, 2.4816165439838684, -1.0368136643858785, -2.1088937563896444, -4.130992418696893, -3.7478979295111268, -0.9663399459301159, -4.070077944389813, -2.6097806456464125, -3.1342082113191214, 1.9247205510273089, -1.2193087063452785, 1.2064779212341272, -3.0250887310240158, -1.2491734636467768, 0.16131007083037563, -0.7966495115275829, -1.2474786676868417, 0.16209174138721583, 0.7835068296717373, 2.170029042182687, -4.0717567624451965, 0.8720212218584633, -1.618279820848664, 0.5558809648612035, 2.0902618514842324, -1.6187086415091665, -4.223674683184198, 4.961741784191473, 3.7817306708163514, 0.7888803655928152, -3.0673028680673577, 1.3842093222671323, 2.5872081810106726, 1.660153662669352, -3.090949855698147, -3.087393121260937, 2.7585811929206465, -2.3127995108704744, -0.44532884459173516, -3.086903614853764, 8.76961277160926, 7.143457581288125, -1.256363424903728, 2.173560855589147, 1.9348044139066682, 2.110391179996586, -1.3264761671629224, -2.7000228928004217, -2.8441333520606715, -0.6249538373994263, -1.9587355649544083, 0.5752537742199195, 3.5314779359653414, 1.6836660335688682, -1.6051105914222312, -2.2599652543332587, -4.726713437384418, 2.3503185830851336, -0.9024156254043862, -2.563932813218922, -4.031430752846855, -1.769627286592361, 3.8635915735159116, -4.250198731072951, -3.0025810740861587, -1.6281217438913154, -3.1520604422618477, 5.177549185878735, 3.308476789578352, 1.6743472493863965, -1.625521762524746, 2.6106825869401122, -1.5512269435408694, -4.268760231424096, 3.162980238140385, 1.7301286858448703, -5.705502682933772, 0.5979189361941915, -5.610476137311533, -1.3945899172789837, -1.2700662543409864, -2.596990250619529, 2.8581818597163755, -6.667255974593852, -1.0411001139331346, 3.618797138530991, -0.8908704926704695, 3.6481439005217915, -6.52010546884418, -0.7902628776489321, 2.4901428529854535, 1.8052432246509151, -4.080258764479003, 1.0891789364514746, 2.3976285059777545, -5.150927328940755, -3.2443985571547764, 1.3632973090550022, 0.10418216024671012, -4.729357761638497, 0.24245607857317064, 0.49288615340121833, 3.508102075014218, 0.21588330781399678, -1.2454205530178015, -1.8977733528141683, 4.428157534128212, 3.0911733210125574, 6.962350515685477, 0.15960432952444115, -3.483742208770067, 2.7917033888477474, 2.7305303372011203, 2.059031339851348, -4.842824460541989, 2.257766760695705, 0.23218932074634546, -0.26307022155860493, -2.0207087168599918, 5.115649998119451, 0.15643646074279705, 1.9318093961151717, -3.12768084817589, -3.9860577793889336, 2.1787375653823773, 2.1695040476795198, -1.5503303635185919, 2.822146090543969, 2.9729673677951816, -0.11926672084120815, -6.195799878828337, -5.36057594783119, -4.116607662871087, -0.17019615489757745, 0.7054521271436802, 1.0444416092990823, 3.1169734783073277, -2.6416326126992393, -0.5632369674972694, -3.8875607575173303, 1.3683848238147842, 3.979477401410789, 0.5700690782403777, -1.144538087723524, 2.945022427436264, 2.2335085756687527, 3.557533348159069, -2.5872549583329256, 0.7021014517722806, 5.216733822226701, 2.980940604358288, -3.362305109080463, 0.543119167640586, 0.6926638731527908, 0.8273113737040145, -0.2767428006805971, 2.249141061750964, -2.9172538320816965, -0.015498718121384591, -2.9652173841275813, 0.24648034074999137, 0.08146540658281021, -3.797879836067239, -1.4473895047815808, -6.671508889598598, -1.885582114165501, -3.106284854496589, 6.221799924576275, -3.2386241097028785, -3.0159903311776874, 3.5582112746929084, -2.762314859766664, 0.5371597569849422, 0.3576727688870789, 3.5248449185011568, 1.3959017048751656, 2.9945370644466784, -5.179545600726137, 6.413983206012029, 6.1641842372252995, 2.613915174001873, -0.635032495573281, 1.5554834613940844, -6.100697469394928, 0.5690963250781214, 1.014558262877808, 0.5101478680329099, 0.06083304025489711, 0.9833269523749877, -2.546851141624714, 1.6043521909758551, 5.559603702809039, -0.1677608624352266, 1.6129826539433854, 2.7053891000694246, 2.9906474585654212, 6.301424434402432, -5.859416513658708, 1.0374069547181204, 0.4277304617083586, 0.49214738592703666, 2.0701945126278027, -1.3479622499122625, -1.6062424911500444, -2.3976015569101117, -5.886930929912237, 8.153942765024746, 3.1463674702042965, 0.6681863114034461, -3.8965739100782986, 3.0056857036368942, 3.677846402997253, 3.521367362497597, -0.06926538546279526, 1.6192889253103298, -0.9174929464828178, -1.6163559213392473, -2.8763982366984218, -0.9233136358417218, -0.34109406060592495, 3.4970072804439845, 3.230933446300692, -6.5553597478589465, 0.29363113593992485, -3.744539633627631, -2.97498691626464, -0.1818510832062017, -1.4279354895372476, 2.3643382648816162, 1.2238305765565327, -4.536744938646491, -0.623112430336434, 0.7632259552389933, 3.398525189588276, 1.3898328088737966, -4.7329391942035794, 3.529796095271398, 1.0042986251386363, -0.6801032741798423, 0.918574068768907, 2.9091694909538814, -1.1440688094420755, 0.9878698828193104, 2.5031719234196066, -0.4364096591545362, 1.979319432491331, 1.2290529824296277, -1.7402884767733575, -2.1900979560879623, 5.846592801574122, 0.3898081898978498, -0.3601051220089544, 3.823725615417924, -3.3462806289573295, 2.0646367532578567, 2.9989328552372814, -2.455363362254046, -4.629216518899431, -4.787196390506813, -3.369181430650337, -1.62395890358954, 0.0715865889991032, -4.740481142729183, 0.9777591066510225, -3.190733182107086, 4.406795977234944, 0.5918151842249355, 3.5980683529943462, 0.744195127003874, 5.96587829252689, -1.131827444028216, -0.5924113856673467, -2.167668987887125, 4.711762023668579, -3.291210518726424, -5.952167510601848, 3.317133065348349, 1.841622283210901, -2.0174543382455647, 6.642098198970889, -3.000244015028298, -2.9074746044164557, -2.0507599921267685, -2.6055262792566216, 1.4133839771958154, 0.8994635035988339, 1.223444151578203, 5.549526196513039, 0.43624898993570715, -0.5049233592532122, -1.373645310707739, 0.19351259861817405, 2.9681988375437847, 0.6007338717671198, -1.660339966566838, 0.5058718182474067, 1.092995187978099, -2.9294009630457176, 5.376181025901879, -6.86873926037664, 4.869244298940581, -1.8147592196198938, 1.7689380101558738, -0.03275607146449866, 4.7735502573933575, -0.7486437940008994, -1.1813650791855108, -2.917201352531883, 0.5863482815519128, -0.2126703039322514, 0.8616459403932966, -2.5209941285383204, 0.8773038694387179, 1.2993921166034994, 5.138473018169472, 1.1054447963761889, -0.7715158391958109, -2.8614540733976996, 2.1292707927999475, 2.1888682400304464, 2.721264758694172, 4.976811285063066, -0.5447003433310029, 1.4790167191868013, 7.469032792310031, -0.707695993823217, 1.1688260200106404, -1.2170476023379249, 0.04720900053694432, 6.084051043019901, -1.8769370842551227, -4.694405256025541, -0.9878970827372855, -8.228977961114609, 4.431269986848266, 2.297360575518711, 3.6927468826057392, 4.810753793287619, -4.054039260339696, -0.19901551564502462, 0.41849991205041404, 0.18045422735712657, 9.167026196025551, 1.8854540738202115, 1.228543574432046, -3.6859047028791716, 2.15655464761944, -3.863451478775014, 3.6248195277764674, 1.397017221001819, 1.105346276393556, -3.511095746993323, -4.054511199695056, 0.29939964657283347, 0.3313346029110835, 1.9757198343873759, -4.048755073217185, 0.8443029239148263, 6.013893292652464, -0.0758743525490182, 0.06644395238737522, 5.338999915144969, -2.9102097700403053, -0.8864514343103735, 0.8680705988618567, -7.536807385680326, 0.8087547608889154, 4.333501957290788, 2.4054513604594616, -3.1853764644497384, -0.4689580753919589, -1.273548855053813, 1.8443096023757928, 3.1734851524072, 3.046531363188799, 1.5468702809283927, 0.17416807475997098, -0.3675564323364553, -4.837360946770793, -7.389128197719866, 2.006679975071628, 0.4487789704913676, 2.4063526650376055, 4.321505053743845, 3.061692812981974, 2.8140452123979394, -2.5264002073815477, 0.46692941288689505, -2.28192113675366, -5.657403529664581, -0.5665809647603826, 5.578833663043665, -2.2129529710551807, 5.043265195004465, 1.2561311913858764, -2.561951326057393, 1.3512056882717918, 4.858365585102751, -0.3366738804742855, 3.53808130953431, 1.359774232537243, -1.0928237037777375, 0.6204305005790722, 0.0475819821833916, -3.2074337785916347, -2.151672256817145, -2.374764004325985, 2.7374823434787348, -0.7481896604293086, -0.5624575174675636, -1.0162607872940126, -0.6478113500768545, -3.872154291926141, -5.3187544550772134, 5.442349838640097, 4.427555607567135, -1.7643799517799714, -2.7288164652788764, -4.34578885228315, -6.626385534679716, 2.782110755987376, -2.912279123003427, 1.7335319421304858, 1.4250600198830918, -2.1636114696659856, 5.593534714184264, -2.1361193608325357, -0.6771060318691621, -7.278079050204509, 3.548082590684664, 0.9145759058287983, -3.7448579989605477, 0.5425292344519768, 0.2973578818001461, -0.45286435240209366, 0.9644925581888968, 1.3501254171058985, 1.6885290379115032, 0.13554259051489082, 2.5541848552976374, -3.6989866775315536, 3.829133237749465, -2.7832598222996836, -1.8202450879497687, -2.0975515526309283, -4.675040336612849, -0.4139497392592497, -0.8271349472360556, 1.5472947463794755, -0.9651496056945947, -4.903877869095106, 3.560904243263683, 0.004105003169959431, 5.905953897908158, 1.4321332312778399, -0.7708941710667734, 5.274793527975441, 2.767392071613763, 0.893453909914943, -4.219320592725863, 4.351591441329007, -0.8432897240659136, -2.074401607463132, -0.07850561978230264, -1.5653408209361455, 0.9001593434339248, 3.102476121964253, -0.6761679070079591, -0.825170627142494, 2.3637939012713645, -1.0633540118974172, -0.8951002424726686, 3.5903160270050467, -0.298721349218119, -0.7337130096108713, 3.789067097613799, -3.1169759682779947, -0.7692746303252188, -2.4393145600300525, 1.4277616590663795, -2.4043348482273776, 2.122955335251169, 3.4709144662619664, 6.935805838063104, 1.5931598306007624, 0.3510109578723566, -5.666033597129128, -5.2475065678405475, 2.408235203101545, 3.614201960872925, -5.15735031938659, 0.7870159470013047, -1.4398125339725103, 5.52544941024757, 2.7396824917288427, 1.9054503305241641], "biases_list": [-3.1631460204556108, 2.008201032749459, -2.8652813185366837, 3.560822726256748, 6.855598207423053, 1.076000071981479, 3.8901662992114474, 0.8622652292212016, -2.376248639088479, 0.5711088272860625, -0.625016875787834, -4.370788932903751, 1.3911843091339944, -4.059039441538963, -2.4548736195850047, 4.470076541314648, 4.320491369316473, 2.581572190150591, -3.7527386785192434, 0.18167131350878796, -3.357197932499778, -0.6194735088872703, 0.10733344183684057, -5.4527129459862795, 2.694929732519072, 3.1309101270102575, -4.103862350019803, -2.100912957509413, 5.317059889300594, 1.3496279429719547, 0.059515484860278356, -0.7910936054148308, 1.0296363299143811, -1.1286611245838942, -2.052893297406647, 0.22625605158125595], "shape": [27, 16, 16, 4]}, {"weight_list": [0.30601557115790556, 5.755424868346006, 1.0762027818396271, -4.852194034576755, -3.4796846068662113, -5.301486797609046, 2.3448375730186783, 3.0778363726692213, 3.03994687258362, 1.6218596685155315, 2.930519793336351, -0.3151978289460988, 0.15148700285370076, 0.223419096534067, 2.4494283214200587, 4.423158480433205, 5.07448355431027, -2.684009548760189, 3.9927028565448683, 0.23090024445566293, 0.6607073675342177, 4.730429425674152, 5.110356359965729, 2.4205301103512813, -2.0668113025991275, 1.7870933895124397, -4.011161877570118, -4.354236643729225, -2.818507693138244, 0.28007154905657594, 0.5720207030543594, -2.774708092279698, -2.5327101163361085, 1.8741637842257548, 2.183786883490818, -3.2524570962132735, 3.8013516676030035, -3.0257834274979385, -4.77882510152804, -3.186088711369928, 3.813928377717212, -2.76166472643194, 0.37837347307138725, 0.6684233993982378, -5.794882570813483, 7.735657107227194, -5.204378414751167, 0.6577821967202457, 0.16852502162234262, 1.228244282210475, -5.030082416181048, 1.3874702716246254, -3.08354680853664, 1.6342760684493705, -2.6959727849863366, -1.7303095590099031, -1.696012123150863, -5.480002043287037, 6.710589384744312, 7.305235839587548, -1.8671519219384605, -3.9922558159800214, -3.9646701943293277, -2.6926419180702466, -0.6436794090179292, -0.20376238396516266, 5.971574466870319, -3.646050091861623, 3.1952792815151394, 0.5682047972333182, -1.8363770837582423, -6.3157573066743, 0.3296011143326991, -5.172810988543398, -1.5042760171041962, -2.745857626952443, 2.807078907729169, -7.146966806490626, 1.2252978656091087, -0.7342118176799651, -2.348839943901331, -2.413422013995323, -1.4104693711509873, 0.6014768744013574, 0.30529672486512416, 3.0321573873068797, -1.6022223349170788, 2.1279830493094094, 2.5379507719947654, -2.7976328154705232, 3.570558172100954, 3.2697882822995314, -4.090319140860314, -1.6302440677136467, -0.8913964706354132, -1.225545295019144, -0.29315605043867654, 1.862449671936405, -0.9930766550251298, -4.339229779578836, 5.968200355825547, -5.4174502939334035, -1.23621385907405, -4.032402367260235, 5.1022428960364525, 0.6895082560036481, -0.08572744772276442, 3.6862399010715237, 3.276841491018385, -0.5257731422632009, 7.423610757540004, -2.692675191912327, -0.015300714568694973, -6.381290652695655, 2.647827660133588, -5.185411752862853, 4.439759262292999, 0.7478782494635685, 2.1975810215129696, -1.9581195360300578, 1.0060585154147859, -1.2228628251881106, 2.1661180521761367, 2.854404544268581, 6.222209636219349, 5.546125239032705, -4.919416886800887, -6.539076020430709, 2.98505133511053, -2.6824613192487012, 3.4618551662335353, 3.730231316833515, 4.469505871373411, -4.934928123144584, -4.672295861386692, -4.260527946365251, 1.7940945138677726, 2.8060880517819395, 1.5824717715146823, 3.8784146343468144, 2.4347042454147716, 3.4375038544744942, -5.371020160412725, -0.5809992510215404, -2.1998196302198, 3.967320338536572, -2.166241256977169, 4.110982909579171, -2.1019146294520232, -4.825153560659987, -0.67816004109014, -4.823724248070115, -3.1552545661989733, -1.7159567597054304, -8.047160170484158, -6.347094614076401, 4.915777198432729, 0.2320093414396296, 3.257295240169677, 3.634542963731853, -0.48755143214546126, 1.874489443297647, -6.847766845978357, 4.794104621488695, -1.2761481481244146, -0.4957752850201793, 1.96377959351116, -3.66664585913424, 1.891242917063967, -1.7939568692576522, -3.199647462892525, -0.027820966339393793, -0.07036950156563293, -1.3498177305959478, 2.911607869033373, 3.915145500492655, 7.471712867613032, 1.8630236476316417, -0.7188800147146466, -8.501165331992013, -3.8196011188386896, -1.1103273150904636, 0.8469916859058588, 3.6495976629705353, 3.628252458300927, 1.2579570818385664, -1.9548206392318463, -5.266610986527771, -2.2073574254044317, -1.173078445555175, 2.3202118069552293, -4.219783955718471, 4.698329132507254, 6.356004767587668, 1.308976406042973, 1.1372145884179936, 1.8938127634506206, 3.022362378340656, 4.363069613351536, 0.9534873932201244, -2.492574846609258, 0.8600168721267951, 3.491667583370603, 0.49349347282762457, -0.026451289999096517, 2.4367473718797736, 1.1106426843246924, 5.2318875598201835, -0.49198846397452667, -3.500180155327567, 1.3985977413563786, -0.7172418161795528, -0.591122069648639, 0.38979589465972886, -1.0136150297670907, -2.065725778993249, -0.39615142887035437, -3.4712042470132727, 0.3037400795220597, 0.4932007548515802, -1.274603187773507, 3.0797786663127136, -1.9703432587482295, 2.2138669286435144, 3.6223696033917907, -4.314658180096287, -3.0393152025673116, -3.0058678414835844, -2.519694206884778, -0.19454508228984102, -6.9846625896482735, -1.332048381241995, -3.6930202723749277, -2.0287900215228074, 3.176621389094432, 0.558935573406941, 5.466318787066928, 1.0232254357901511, -0.40295071719371145, -6.243017967917177, -3.1411846688809213, -4.802428740908618, -4.136181992088741, 5.288463840275596, -1.7440227339466339, 2.5678286311377887, 2.7364468784409457, -2.6192380630489565, 0.9893602384190727, 8.67972805714844, 1.7607924581923426, -2.398933578928097, -3.779308708868602, -4.441461357843586, -5.556585757917808, 3.5466171121722354, 0.509337577023866, 0.3822039026672124, -2.7056113020809276, -2.2421319146585175, -4.024465104302167, -2.184968430372925, -3.1377619371780554, -4.837134984552627, -2.65662600645381, 3.3105754163638945, -2.96038730118339, -1.2640426075868951, -5.792767906221719, -0.2169817840086885, -2.3048643087595835, 2.1593357283176946, -3.942515103795431, -3.1716826941969307, 2.2654750327754387, 1.1922842911967044, -1.1691987772579429, 2.769420969026015, -1.9514981610388895, -0.7565686494266712, 0.3704059966121527, -1.861785482952447, -5.418936160936456, 3.5522308615649774, 5.678794877197928, 1.6188144545748822, -3.0661542962198265, -0.8888173693180079, 4.073155593237555, 2.268409986087919, -3.6510151298225804, -2.7186626594002457, 2.6801237834878138, -2.921092888716517, -1.0512262200621094, -1.2112694254484075, 10.270183753259568, 6.454390142991643, 0.3956229097744681, 4.07000512524029, 2.391345825999217, -0.40257793180097956, -3.6003748519912357, -1.3412001527563253, -3.1696787354511717, -4.846971145600788, -4.461422514647835, 2.0784174780235087, 4.520331796412201, -2.2761295579480185, 1.6512190107077567, -2.7946090025192256, -1.3907916060674248, 3.670574009439086, 1.4027256531345778, -2.7477461069416873, -3.2893329474531585, -1.9656127186593981, 3.0499100983673273, -5.560281840202745, -3.8651927705269014, 1.9909263368910532, -6.089156094945059, 5.6128290017024245, 5.53773146193841, 3.7862172215686583, -0.8920968860972912, 1.2180904319477541, -1.1304100325262127, -3.4211270794633424, 2.8157842317632618, -0.015712664028345702, -6.5099292731501714, 2.080015613214913, -3.8598457199024505, -0.8831702025745995, -4.430854213471106, -0.5361459914653861, 6.6480163073422585, -5.920880588686151, -0.9191721971728959, 2.876507959694778, 0.9956266601019275, 3.400376869904555, -4.682506663796509, -1.477079335902107, 1.6866002811205236, 3.3061485667363115, -2.335229364617928, 1.451123230794742, 1.3856983589425917, -3.902216454403944, -1.6376893340623138, 2.864878780933827, -0.26449423887107226, -2.2638444110313523, -0.6268884897874605, -0.10924534578361977, 1.9741453437987406, 2.907161001762483, -1.090011563671664, -4.894172579333633, 3.8493101527807028, 4.746750644068039, 6.238790322460718, 1.444000429013733, -4.897648178237184, 4.3028836053600195, 3.04201986776242, -0.47861234488428195, -6.103795304220423, -1.3342856317571916, -3.7080447018243365, -2.042641864505668, -0.8627513619027813, 4.376019887348743, 1.78296297850925, 2.0625773612058405, -3.999911463589891, -5.563620731113859, 0.08440939642205336, 3.8762915836049707, -0.08499570953765034, 3.2173500705215403, 0.19760517238433906, 0.09664588463759505, -6.726282884197444, -7.900151121339955, -6.903539447406466, 3.7974055998579637, 2.0081388503288427, -0.5867640110805715, 4.171518310812825, 0.5869466344555607, 2.5180543279462904, -3.735215111732911, 2.1394689002628917, 4.191733076317714, 0.0746636722855838, -1.7529969269047132, 0.07287259604722562, 5.441176151962989, 2.441248023415375, -2.435715558717321, -0.9794903076479213, 4.697339093761721, 2.06231406972414, -3.02018388184122, 3.8469380181524038, -4.302440684346781, -1.2450924452700567, -2.0516231594058025, 2.707707666073598, -4.837025886110793, 1.78931196977905, -6.197688102241696, 1.8052772379419535, -2.958514463282115, -2.320741816461859, -0.5855308880705015, -7.036655753188844, -2.212794620227619, -1.2672069481418387, 4.604843561179209, -3.6341599812641263, -1.996824366262821, 3.775206940020647, -4.542280646751981, -0.3885308859191132, -2.0242073329970682, 5.0969593331878835, -1.303637234137071, 5.613942192526635, -5.940042843655037, 4.67656571149252, 5.728702997532775, -1.794088809032757, 1.507240222112869, 2.265843380900579, -6.264390422404437, -1.6892025824068013, 0.24417166282147007, 2.6586859222666854, -2.946651198332031, -1.2108665865286343, -3.7036224838159963, 2.4596142934167755, 4.740776193978915, 1.7080821545032956, 1.5398762476204766, -0.2882894130532747, 4.190667191789199, 3.452712971522118, -4.530549079875339, 3.0909376973237297, -2.0541987407228444, 4.533752709285826, 4.026146158730152, -1.324483821405892, 1.8377896885362803, 1.6054622198872952, -3.6311649937635107, 9.586149516843838, 5.3571731018874775, -1.8214398751876477, -1.329942621342076, 0.9645991042695916, 3.0126834757087844, 3.4118974917541394, 2.8416768470150293, 4.425053021556662, 3.4906330360890125, -2.3218419641013233, 0.3804784263950003, -0.04129410044924586, -0.8800281344140962, 2.6734261269232267, 3.925378901449191, -5.895517804161024, -2.5924175390729665, -3.790040644451264, -4.305624836464418, 0.9652622914625855, -4.15031935705826, 5.362053768516388, 0.034888225204043666, -5.335688498033253, 2.0080951767236197, 1.3272100684589154, 5.668488927558284, 0.39947960346464884, -2.002327882371495, 1.1407921632331046, -2.065430473313593, -5.1667047098601575, 0.3377271924501901, 4.079806103410477, 1.5707835131819632, -0.32907383548643376, 2.0785434666812463, 2.2223618472750983, 0.9907467165623305, 1.8804528115406267, -3.702438642004923, -2.237637022877914, 6.252988460572298, 3.8256596305018107, -0.7346817593680354, 4.180537960484923, -1.3340155648015741, 3.0225510781717837, 0.8130260389477835, -2.5698111981191447, -4.1340161816711865, -4.351055841483437, -3.087638338270361, -3.575184655317356, -2.275787579003337, -4.679650718280277, -0.012439184842065298, -2.4293217416001642, 4.666285691928675, 0.6703178743019804, 1.4022302828392448, -1.8608520447081234, 6.24512845384411, -3.551808511850508, -3.0423987451476333, -1.0778260957409507, 5.177170322205495, -6.98513924880778, -8.276464092252754, 2.2808103039350778, 2.1699455723601724, -2.88487192706749, 7.7654482532294224, -0.37962915455760426, -4.879142651250994, -2.4837631257498005, -4.710710483129838, 3.6906688106265566, 0.412449259580141, 0.6383840438640231, 6.537042466050895, 0.7436523837736997, -2.57857985521266, -3.4389222263341814, 2.198537139485375, 1.980260877950721, -1.0633169009799817, -0.042843385640834786, 3.2130722095200728, 1.554547974736936, -1.5526167318050415, 4.881270456957828, -4.98134337112494, 6.92306607325367, -2.0477933647112008, 3.8737594267347157, -1.8796903767225912, 6.873008335284105, 1.1095374775509943, -2.220172706658643, -4.405296396222148, 0.39661315893234406, 0.6071166098141658, -2.0925334800416495, -3.3500612965907965, 4.74911352543406, 1.2992582642206902, 3.797244198955733, 3.185629581578313, 1.5195517624109902, -1.8146863279149543, 1.3879330980393636, 1.7587493536279952, 3.608154446964291, 6.099936708344002, -1.0142450574935036, 0.3084840929450112, 7.915407716957731, -0.3037427354021519, 2.5106551827231582, -1.6346980190203966, -2.9039592787808672, 6.189004496158466, -3.922006957474429, -6.935083267870677, 0.24229833712228732, -7.046379679226095, 3.4014053722679254, 1.4838720265154404, 5.750992234009526, 6.351085010800805, -1.2396476002038777, 1.9039028915257652, 1.6111175916340819, 2.4986903551913757, 7.656798878879462, 1.9523823497843082, 1.131328313253439, -7.446151009842726, 0.4605775022535217, -6.065629296920948, 4.614995657407939, 1.838282704292661, 2.2019390596363837, -4.911408509518194, -4.329248157370583, 0.5783774313964383, 4.598945672445658, 1.2281045238553858, -5.674767276316794, -3.432797638149069, 5.4559219561092185, 1.4742694853516758, 0.7064397551274009, 2.3893048849873226, -3.8233462581704334, 0.7275285015241308, 2.113088975967222, -10.124794793116351, 1.7322620498084227, 3.312672170380239, 0.9798862553563157, -2.0032855878671243, -1.8491841928753951, 1.381560902188249, 1.186756835057901, 2.3429286673551086, 1.9607988017510456, -1.156448671158318, 2.3354723050487074, -1.687710337591229, -5.306790565041745, -6.776141483237608, 1.5510687707532398, -0.49710569302738883, 5.739039021902267, 2.9355916596475025, 3.654586233951453, 3.4306403625470487, -1.4185748722465896, -1.4438888216255807, -2.1824082898469532, -2.981484104231477, -2.253611156693096, 5.892424890803928, -4.881742986073903, 2.5630173511173293, -0.5927699037127866, -3.7862892966918373, 3.5127127476552493, 4.133847904679847, -0.5305366646429341, 2.1794404382909383, 1.3815258235370074, -0.588764322714789, 0.6718440187812296, -0.6560379754711261, -5.928380137378576, -1.3636788149060215, -5.331860440065774, 3.7812157631802448, -4.007984451577177, -2.562540665246286, -1.3393499462506577, -1.168607256518841, -4.357957184159804, -3.9582516365244675, 4.090414138260305, 5.732010094048013, -0.8343563540193872, -0.4794932249271342, -3.6200405562117526, -5.414564647697391, 3.3642427078650616, -2.8260865309673946, 4.474050787175063, -1.5138473684163183, -3.766255539237046, 5.0087518879126165, -1.3428692654919732, -3.5512839807143735, -5.366048412923382, 2.7388138792386583, 2.0062563084110496, -2.5453821132790333, -1.478752877193069, -1.5016411576579125, -2.047553326550822, 1.5756838948452017, -0.2772046959976908, 2.475659791166833, 3.133920696124054, 3.665058909261707, -5.92178616791322, 5.347603102514789, -1.1928987129056479, -2.2517316540243737, -1.4497875963064417, -6.88528410052789, -3.868454456747767, 0.3691029254097917, 1.8811412153382934, 0.49472932515891044, -3.9913800951449607, 2.6065417979882386, -2.4563272015960393, 4.551327789186396, 1.162703926337746, -1.6997273572153038, 4.3174831644036304, 3.6405244736622686, 1.9680492835274208, -3.598248266892867, 7.9188788852198915, -0.459697392969733, -1.5485128633114427, 0.144402834309048, 1.3531435162015155, 0.7107533713075256, 4.459772815406999, -2.9754413262247557, -3.270492590135472, -2.117837212412118, 0.8788470362781344, 0.23813791405859175, 4.082203630003962, -1.6063426922455655, -2.322576249956281, 1.7873172452263812, -1.149662687141634, 0.6062503597092588, -3.9635143648452056, 0.9673114557111759, -3.0836178055835397, 3.4112964353416872, 4.789477248285359, 8.527745352626019, 0.7117292421425985, -2.7800461305431226, -5.824698663173932, -6.784895955898627, 0.6701475756429194, 2.962703057689623, -7.219705715757142, 0.5042480340374909, -0.2077102820617711, 6.496260768014289, 5.170783326629132, 3.893928733344567], "biases_list": [-2.988538058015391, 4.474175089059779, -3.3820217086166515, 6.618739853743769, 5.918981038433803, 1.8139153213146133, 2.507303697232274, 1.2686304414971281, -5.901699370672623, 1.146209538518559, 2.828364380767197, -0.857621880017077, -1.1734085326726837, -3.585792920921782, -5.8869275516384585, 5.8733300043211605, 4.478752424925928, 2.4364322363148303, -4.4814657403341975, -1.1702130395986823, -3.270471237572556, -2.092748711395518, -2.210001295212175, -4.169751893044456, 4.730939709910174, 1.1309805693617925, -3.2537205229849526, 2.6013396798942807, 2.6346581384971017, 3.3104558170754093, -1.4717029613982466, -1.0340469852213043, 5.088699009197246, -1.2591547016407096, -0.06827674675984596, 2.9003358011300717], "shape": [27, 16, 16, 4]}, {"weight_list": [0.9338886110580005, 4.271489931673897, 1.6179433745529446, -5.034068086977673, -1.6834244687575728, -5.579899674554541, 1.2870233756234795, 0.5909436972278093, 2.220985059572511, 3.3896083479465293, 1.6774163412803285, 0.7413102646002958, 1.7900782178989738, -1.8976561275367971, 0.8036464472711231, 3.5250955553467156, 3.940767531895836, -1.3736767252535311, 5.049807297121948, 1.849912973165889, 0.24919235346471824, 3.4653311557200652, 4.445992267389929, 3.5140828944947007, -1.0972596078485235, -0.5672194687657908, -3.4435555419314374, -4.989822630318221, -2.2603055414591005, 1.3523835643522242, 0.18433744939192986, -2.6301538020153847, -4.698602054249456, 1.698759154440661, 1.3430362838634053, -3.1981309831329554, 5.109265238181157, -0.5183418730157403, -3.9521756330311284, -2.9420650216291984, 4.7983239912793545, -2.742360794314825, 1.8213293751641837, -1.5560245027869495, -4.360024166839972, 6.034850499405299, -5.245176975802735, 2.5960680718919416, -2.288127254641307, -1.4997890844551751, -1.900133446306292, 0.997007047594892, -0.9297631866906326, 1.8029172034765013, -2.6301701048522457, -0.5239218015265494, -0.9897724743666578, -4.465432553921166, 6.71477869773535, 6.760778517362213, 0.47116028005081256, -3.5892446671709215, -2.145575171738379, -2.9031878568570297, 1.1114658954816754, 0.5178383887957771, 6.793104898892439, -1.188235212819607, 3.4623119065774173, 0.9231051992507511, -1.5658725820645343, -4.74974857466342, 0.8156850318890063, -5.0264709586227045, 0.5278438349377217, 2.3021785900233374, 3.292418761906136, -7.371748027331067, 2.2135412634108, -0.6454904538442355, -1.0858641559429807, -1.4078985585520067, -2.7165708028445934, -0.4780047787167283, 1.6397113435010464, 1.7797257887441393, -2.4211374684850924, 2.090335920935283, -0.6384748962324448, 1.7824417475556644, 5.425413120538157, 2.823357789695261, -3.099803195908892, -2.00417033283698, -0.6255537870576195, -1.2895961150974102, -0.6284432378306525, 2.23323301268603, -0.9241105034585013, -5.318353107951555, 3.515281872922161, -4.928620772953795, 0.7713496467004528, -3.3014470242987146, 6.634526550892485, 1.42940999078135, 1.748874558184104, 5.056296383862979, 4.737868381653535, 0.17303625851246185, 5.07620364617973, -2.135449180291791, -0.4548033433843759, -3.6928526324642936, 5.371253624261723, -5.283451272097931, 2.3014366312621988, 1.4868110032556578, 2.544561364687004, -1.7181992006468585, -2.0900753597433646, -3.373060656449659, 3.1354391802801223, 1.694431657480993, 6.723016230857995, 6.049602617582562, -4.80717166674374, -6.4612775314549875, 3.766641196377133, -1.7508441875281833, 2.174122244968915, 4.343739604821978, 2.5578737068230444, -4.908444636444054, -5.636062658625711, -5.7240494406353895, 2.467164233647242, 3.9021165528958237, 0.3394941888214431, 2.565289872977094, -0.22359719790887378, 3.34418536461175, -5.837791982213268, 1.7518501984158052, -2.364425965168981, 5.767583314896076, -2.5373152738410942, 2.8310569127090894, -1.2535872339978598, -6.0035055052804065, -0.5470707523694451, -5.312700043930847, -4.147713977787527, -1.7340198543119114, -6.971979638202519, -5.895935591972178, 0.9739786230848915, 1.0185456387160272, 3.9575474342084505, 4.768256876575155, -0.2020454549383286, 1.7181196184211425, -7.393343176545752, 3.8048826114229417, -4.445950205351703, -3.6211848322328013, 1.464203899883271, -0.5219929595887629, -0.36352240923885015, -2.739860195114753, -4.969979111255311, -1.4321162287586684, -1.2406190238671198, -2.8292450218771306, 1.6485617376115176, 4.998086839911149, 4.611728348733676, 1.9392783059549532, -1.3375798836040886, -7.339126223569337, -4.1290577749611295, -2.435055831836978, -0.8604380457354787, 4.181799695166581, 1.7785411318036353, 1.418746950496069, -0.2835868696397934, -4.718010316967525, -2.128489668783363, -3.0475704554710425, 4.102705380740638, -3.901429981214069, 5.849401003772864, 2.8602000490877386, 1.104039494577444, 0.3588884066622151, 2.1271213361343744, 1.3507160526792403, 1.10719354022652, 0.16616706264951508, -1.9321871278656633, 0.6643323520349531, 2.0200833031947423, -0.4994381783456199, -1.1383768559481244, 2.6676209970868046, 3.357463973037703, 6.549874368072247, 2.06445336943068, -1.9013308490594012, 0.9269718371299016, -0.42092819988468755, -1.5578456581696467, -0.8581162274669041, -0.08342396515587946, -0.20153087866707775, 0.046896968890083324, -1.8624223227490646, 1.4250109480981137, -2.3679990049691666, -1.7956045629472581, 0.188178007186119, -0.7904964870195056, 3.2154607536422306, 3.384938145818241, -3.1821206774747948, -1.5820770893480078, -1.4942438760439478, 0.5362620654838055, 0.271834428438112, -5.893460211593984, 0.37097712509977887, -3.564196875558391, -2.677227159116216, 2.500001452668115, 0.5161965218750173, 6.0359186796917585, 1.5881722980920916, -0.5614289578409241, -7.33088123087704, -3.4951233449480448, -4.082345373958651, -4.798951117921931, 3.6889325280558065, 0.0397961427793474, 3.874734041387284, 0.7116852594215721, 0.6224183103230165, 2.904841517091728, 8.542893937929117, 1.5818747436173175, -1.5511889067561384, -3.0092930542096026, -2.3502623751978, -2.4655154368053553, 1.5697773062916616, 2.003132158205052, -1.1192073484925775, -1.9723616328987859, -3.766455074050275, -5.299584330194298, -1.3532951788970689, -3.414869397342832, -3.9065737897581077, -3.0064837985015407, 1.6498696041918786, -0.7332678810891775, 1.3263356730285314, -4.170913256847632, -0.777615981511524, -1.9468379242640268, 0.23419576509127737, -1.3916012426568602, 0.4756603481551538, 2.090583751130365, 2.2288253873695334, -2.570011000183991, 0.6655655683829678, -1.6004361194856311, 0.0770567697764395, 2.6539688859980406, -2.412807643571387, -5.154573542331264, 3.8753003266054025, 5.135413981877092, -0.3865828534127046, -3.7211811147734393, 0.08464119091617284, 2.109327645753699, 1.382543110299383, -4.276051992230899, -2.8393363370627864, 3.4053227625757145, -3.303309956138036, -1.1210835177824752, -1.4446519164780411, 8.737839720775149, 7.944393134885086, -0.9176608497608272, 2.393089341495558, 2.2113608011832318, 0.7091587343807264, -2.8201720091747497, -3.1869302974518625, -3.6330910960134988, -0.9297262209959642, -2.1695969648208298, 0.6492956587609622, 4.462125046844477, 0.004010940304449484, -0.998159913504841, -2.422500248740411, -5.014629475694086, 2.475792563503374, -1.0019275084979113, -3.329018268538883, -3.8238492035574296, -2.845654326584248, 3.1843922547666823, -4.805839066714515, -4.43557009549194, -0.16327717944181108, -5.112633021490474, 5.143051742558209, 3.0919699069255184, 2.032748746540662, -1.8548913992136602, 2.4164991584935382, -0.0917422376588618, -4.268287093045052, 4.021771800774265, 0.4293832274094531, -5.542896845174538, 0.3955225281055812, -4.37182055995244, -2.3677079177319262, -2.122628165274705, -0.8063591620965471, 3.3939992329168547, -6.412401867099871, -0.7235059526203587, 3.618657413436047, 0.7192341296067428, 3.033616527131179, -5.618610046885607, -0.7978041070203166, 2.490811670731623, 2.504063622785554, -4.096040591345016, 0.4731460089856365, 2.2333946984379125, -4.443251150455733, -2.1781731387297247, 1.9320483284050978, -0.42628346557921637, -3.6598503987488487, 0.3720295992377256, -0.3532792618006547, 3.0929266505742596, 1.393480805912123, -0.9764617782548011, -3.406974640166139, 3.8747357891723553, 3.3237293331897044, 6.188995951592152, -0.31274441933354, -4.6971404856975765, 3.565716284793491, 2.2272409415843035, 1.6065678926249478, -5.2102722313621275, 0.7477111035464534, -2.7306018773083034, -1.6134422525791132, -2.6585259914257167, 4.249318136495187, 0.9992251832411765, 1.8428181322910167, -3.4916633555307808, -3.9704285025581765, 2.1785248958440446, 2.84226760177301, -1.157855719615407, 4.730190388154906, 3.0625346654378163, -1.4244758559277442, -5.7996578313664315, -6.4636497343490005, -6.1520528340914, 0.22031356517014977, 0.35724120992043984, 0.11930116311225891, 3.3623483141598687, -1.3986084892948931, 0.0981923667587743, -3.5312152346093884, 0.13338104531769024, 4.099422697196961, 1.1046296605941754, -0.3432695214001482, 2.3715293979153564, 3.521443368702611, 2.6220295643556506, -1.6480132245587507, -0.9001800993393898, 4.299603087808625, 2.1549955844212954, -2.2882350659415325, 1.8324548399519953, -1.197677745079843, 0.46057974487397146, 0.6675729428015647, 1.2996932402794616, -3.5940255560528387, -0.6755764608877406, -4.653878036402576, -0.42077427127944733, -1.8491116540814467, -1.8112880182978992, -1.7412717102190018, -8.224927335963425, -3.3466053187994627, -1.2108892640775915, 4.401084421602894, -3.517679364164258, -3.2509189880970597, 3.087571621304865, -3.8432937649658596, -0.08219891941860569, 0.1672952974084887, 3.60907285694019, -0.1415931989733923, 5.134874615981765, -6.534586120195405, 5.876238957658913, 6.148329341607316, 2.066293573674276, 1.2261010516495285, 0.6797332434322554, -5.935909291825304, -0.338653248778216, 1.1677263415411652, 2.339178036817395, 0.19526309566244504, 0.961404489009118, -2.989337481857121, 1.2480013696728687, 6.429133116131401, 0.681710000385866, 2.940989429703058, 0.8469712819952477, 2.0821896262445456, 4.975546504043737, -5.020340158104894, 2.178425932609932, -1.547047497993483, 2.2860567750235483, 2.99747825396319, -1.9226678109829949, 0.5298897471694057, -0.6647742594132484, -5.098169016038363, 9.83604941222353, 3.7564607587573686, 0.20298193894859518, -3.268525069774287, 1.6239731745643464, 4.35349098348821, 2.4635043719478644, -0.15533157720409996, 1.9560186362716863, 0.4477666967699394, -0.8243987285452983, -2.218048178510697, -0.008299721673248106, -0.9627633373693438, 3.365760859429624, 3.1761026221199735, -6.412929317285065, 0.12055362260403779, -4.298158759782648, -3.802369907341285, 0.8000993534930325, -1.8104410702679063, 2.8061620401285294, -0.4445873664652147, -4.604547899507063, -0.4135823955464599, 1.7472049981378763, 4.433622484199412, 1.1502189243429717, -4.258034497855734, 3.2413170480834523, -0.7120752703114155, -1.4755188452698764, 0.5669630457272419, 4.703197785783981, -0.5005813646814703, 1.0354725601241737, 1.4088624764758118, 0.3503216081845326, 0.7988930139688413, 1.1462886659290676, -2.0210758262094077, -2.7760191804846457, 6.226584655614795, 1.737228009971866, 0.5673025868067052, 2.3283919683736896, -3.4983103449940587, 3.0554170889630905, 2.618268882034939, -4.150960367474385, -4.375475997711159, -3.889843413498606, -3.799721385997853, -1.7570823767771804, -0.5664424501803758, -4.480671384945308, 0.34089868263529555, -3.154067730396889, 4.825143943861297, 1.184185914946366, 3.323066603249103, -0.3949866634969119, 5.020891488747365, -1.7041159405271704, -1.7274370180905323, -0.5099130184173488, 4.22728440572965, -3.823802975694711, -5.803217457177947, 3.937730312455642, 2.004172083506422, -3.1550994762405313, 7.648217413954676, -3.038534584344311, -3.1678008555649138, -1.4887360881310026, -3.0633316434233784, 2.4355192594352686, 0.6493828662924894, 1.2253244360870665, 6.788365714674365, 0.7402329015024329, -0.5399630610314152, -2.293771483303153, 1.203973791525066, 2.6209994814984627, 0.06700247713824736, -0.5507305318037589, 1.578950106664009, 1.5656443219630751, -3.040940045898906, 4.972373915717352, -5.908189896978497, 4.500308956194336, -2.6422895921593534, 3.9532111143952733, -0.3031102289206913, 4.7343540607168135, -0.7457597947134593, -2.638125982232318, -4.966960403817713, 1.1009697077963927, -1.5073282200158165, -1.2450747181456459, -1.9201292955193736, 1.3347679091284048, 2.2456913343882996, 3.8362973180869, 1.5708704829758826, 1.011311200940313, -3.2481362623286283, 1.757119846634553, 0.4378042190632141, 2.7768388665636357, 5.4461664344237555, -0.16991415202887872, 2.472428672611707, 8.423505350386513, 0.4941691197294791, 1.688060046553209, -1.7916763251467707, -1.191107336642209, 5.991684484627962, -2.5659606915239577, -4.704877449230923, -0.17768595949360322, -7.60668261576912, 3.1549037903524884, 1.9143748375003482, 5.440203633623248, 6.737697976069773, -4.121058091169832, 0.7956642404392196, 0.9976593709088006, -0.3143192709804341, 8.854658513973368, 2.107365682280877, 1.9628583351587192, -5.258847146500793, 1.260097495953933, -5.484893599090495, 4.597433968086177, 1.145520720740492, 1.4844352040984585, -3.4845272097206554, -4.181329428356837, 0.6503539306041863, 2.991207203994718, 2.0991471105591883, -5.0225822113065135, -1.1545139682270684, 6.805867336194643, 0.5270497195738353, 1.0292125033003732, 3.746549700268786, -3.415333873026025, -0.48431599931622205, 0.4769839355488328, -7.763375463156528, 1.197425432081614, 3.159471697581071, 1.6483281800248322, -2.878603875809383, -1.236906106143682, -0.07151851696931222, 1.5498280592712748, 3.153149036852988, 3.5120340877491714, 2.358491597356024, 0.16368494586256443, -1.7032908603006922, -4.686880847381041, -8.19705830478745, 1.3356093564256266, 1.4606220810027648, 4.261180003956177, 4.7924983443574884, 3.8572880849990927, 3.3343524041159727, -2.1827068783532293, -0.5095413575746955, -2.405362681658371, -4.357252948114055, -0.22775849691293149, 6.2672956394379495, -1.9687926694124283, 3.4041553020497464, -0.1410669830589627, -3.7571350820310396, 1.5430242355163752, 4.11296058315608, -2.4504750686899603, 2.5844840133165654, 0.8418375762051682, -0.5071934594390629, -0.03288064190593509, 0.7175606118429234, -4.740343810185164, -2.251916020022578, -4.498487991552119, 3.2063977767857352, -3.328447115485278, -2.5078648924462774, -0.5007044030047791, -1.1667532879664178, -3.6379143665736993, -6.051883980190358, 5.531472516674297, 5.794698190137417, -0.5381047797276997, -1.9414895954822717, -2.9337147332309836, -6.899040322556514, 2.5678345569503094, -4.777967053805444, 2.569786625921923, -0.5714304786881268, -3.615161052046461, 6.250070461380564, -1.68302442979267, -0.22065764516341324, -7.067912437143516, 2.8276983745764044, 1.8922196537540623, -3.6920609443682784, 0.7014682087888771, -0.9875352325450686, -0.9247577755836218, 1.2873361980789388, 1.8422619963196887, 2.6403837799462146, 0.19683979584834455, 2.3916039760560084, -4.529596431437705, 3.5764132812052143, -0.7814968730603189, -3.058564601306998, -1.9431377895438577, -4.623167922717077, -1.2236554873228933, 0.9575521659212924, 1.1758350040480385, -0.9170145735009658, -3.718459446435595, 2.5073085873737, 0.013244533358229837, 5.907043772309637, 1.9603210551555446, 0.3892639583115389, 5.080062499031461, 3.4851260520772325, 2.37535122078581, -3.889504180532861, 6.154121354636645, 0.3797818064907541, -1.788380567271262, -0.006560841264676376, -0.13127213455626074, 1.5334074202856511, 3.599825765912353, -1.862501446391471, -2.1405780689717835, -0.9661177214182237, 0.558583972248607, -1.5192379474816764, 3.390835886756207, -0.997248441418916, -1.1786332152720722, 2.298128639965097, -3.159826692518787, 0.7309732544419718, -3.39614117779389, 1.9978829188346303, -2.1858007791242153, 1.142950249296634, 4.272443844895367, 6.746235190292035, 0.799613130082877, -0.12243135737245314, -5.266654020533241, -6.369889479928507, 3.159365794870478, 4.001190474048574, -6.878285098703664, 0.1050798413502505, -1.7343775577403207, 6.003855723946001, 5.032944462990143, 2.6299202128037154], "biases_list": [-3.2633658945780817, 2.9808539346905407, -3.182260363094951, 4.7825538505718885, 6.414049560212086, 1.0840083386834176, 3.657947020681231, 0.9881264584667517, -3.8674066447433946, 1.0921423019376983, 1.0330401450199718, -3.3324984791845216, 0.9830648169292944, -2.7850451726127154, -4.745643450906616, 5.320877243366565, 3.9481752193418274, 3.903096908052932, -5.062733651351299, 7.044007060774682e-05, -4.749974286774748, -1.5384006319777122, -0.44947145589088566, -4.26626429890714, 2.747322617983883, 3.702489445302792, -2.9629586503119745, -0.16782993415527714, 5.219861090511818, 1.5667488008514732, 0.7368824147179796, 0.2934940809851845, 2.537485759608813, -1.1031927470781353, -2.149304306625063, 0.8796608692205417], "shape": [26.03150751198383, 16.967247243348424, 15.488680952486614, 4.023606418215079]}, {"weight_list": [-0.09763806363160876, 5.771192215572714, 0.5336097348129563, -4.478213242098855, -3.201430042889778, -5.978518199140791, 2.954882567797112, 2.5828829072842607, 3.3476545193709857, 1.069984265930338, 2.6050825628995655, 0.8514348600089328, 0.8978263242924021, 0.05249812589525926, 0.7816144235071645, 4.040735402875196, 4.157269421251645, -1.2938738451385892, 3.892585142046058, 0.030923497022294244, 0.7808501584797356, 4.47818047605968, 5.559417139042032, 2.249601258840008, -3.286888399027694, 1.3453008694017217, -4.226397060018939, -4.062144817905666, -1.3861822959812318, -0.5220339273410453, -1.1802377467675795, -2.8263558378964957, -3.257659866815808, 1.4157115790171515, 1.33489798429859, -3.970456499085394, 3.9269372515695684, -2.786120996620263, -4.040294122577944, -2.3067963165298977, 5.021595830579525, -2.566732365061684, -0.5506023583870351, 0.1699395355820872, -4.295917135534309, 8.77642762628715, -4.956952920972375, 0.6127351854830796, -0.16095120047983968, 1.3678585365465876, -4.63614957658102, 1.0438621162518888, -2.114441623357033, 0.41116961249614636, -3.811832459727985, -0.8558491703350264, -1.445524573858421, -3.5664103904542053, 7.6687069011741755, 7.090666687560558, -1.3618021077454374, -3.8282744083899347, -3.0509190554843197, -2.965846035983664, 0.9105615518269587, 0.2444041094644147, 5.23672346749932, -1.524242857927527, 3.344753502325595, 1.4769511114710965, -1.0812217672278284, -6.148264279393862, 0.2539724301887978, -6.033737512530446, -1.4203318445647293, -1.8591180632696875, 2.769311911472658, -6.325776498390732, 1.0109997914004007, -0.7285102929484741, -3.484429763996542, -2.273129332141062, -2.1141843825688467, -0.9640408420014169, 1.0722780882390666, 3.728243181572995, -0.9984344322528418, 2.040354910100935, 1.5423173256308145, -1.5319569525334948, 4.497459217093931, 2.593889117824056, -3.131738346419124, -0.7531564146786096, -1.537680581542994, -2.313733859116244, -0.569752504737873, 0.9827469408920426, -1.0492081493513359, -4.764009276033485, 5.949259101780756, -6.298729407375731, -1.3947955631641964, -3.701589906865813, 6.804132306446054, 1.2843867386647347, 0.9542267829207776, 3.6766256168087006, 3.9192395045171526, -2.0238963567217887, 6.392735903852261, -3.261039853708431, 0.5145916539905251, -5.153816710222159, 3.541363564730088, -5.238068170527484, 3.3523217510964214, 1.2013565749879183, 2.684754413523638, -3.23508966721036, 0.19150392600846988, -2.6510870296038442, 1.9593319571424574, 3.164474196722912, 6.775080720945997, 5.242463716047891, -5.986208909300973, -5.709154848607102, 2.044093561464935, -3.4549796437839655, 2.3201758635177288, 3.0641308198140313, 4.03919977445967, -5.110064303620784, -5.565918291059383, -5.961504542729065, 1.7648714630163473, 2.8750839994398456, 1.6754908301078189, 3.8347155737893326, 0.5541087650648111, 2.6049365981384764, -5.213364085094, -0.9558166546925944, -3.289835978155774, 4.441625706646889, -3.3886009043995413, 4.52456737487206, -1.3872320414937471, -5.761721578237209, -0.07396537691957916, -5.583099878010479, -4.019626302199444, -0.3299909426082839, -8.119808469569943, -5.816143697283583, 3.8196561522501886, 0.792512990877926, 4.579000366709128, 3.677161494635971, -1.1778874050341066, 1.6410351498273572, -6.51021066733269, 4.626869442324839, -2.115063908835956, -0.7473820110178397, 1.1061473732100104, -2.910968367659863, 0.0438032076040662, -1.3988576359034293, -3.1587689054538384, -1.0890110736869734, -0.5508710106433747, -1.3613565853810146, 1.8929633069449303, 2.8954912158814023, 6.209365620216725, 2.2039656254440985, -1.2150831712413162, -8.150815264611378, -4.667530290696914, -1.755215194348574, 0.3331356670613097, 4.545026074969599, 2.596567289926596, 0.18942707440954454, -2.8052982688811214, -5.072082229377073, -2.732885022382761, -1.9881863754556417, 1.2556988620459961, -2.93229078895654, 5.007548594078224, 5.299149221163549, 2.300139244679277, 1.1020906814398561, 1.1064385617947519, 3.0398035857839343, 2.9092712667252947, -0.7286854918347949, -2.1621113084439196, -0.08389269316285342, 3.1533074511342614, -0.20115972634395118, 0.5730047054222198, 2.3621090277905905, 0.706438787525776, 6.066112349207968, 1.247267175059505, -2.883113656339945, 2.294686791746847, -0.09684823333882198, -0.34554490707527463, 0.48190274186097803, -1.3800366401899302, -0.5632067540458263, -1.1068702795694059, -2.640876919721245, 1.8660795836446429, 0.48734528463092586, -2.9658297919407106, 1.1661601213391841, -1.8267591081053909, 1.7760623934503927, 2.601902118696228, -3.6134942392463705, -3.2108919596354353, -2.2545584842391513, -1.0843546133488986, -1.5294980773064102, -6.49148221743514, -1.2785615831337265, -4.2638414127107405, -1.8135315446553333, 3.1678815227650317, -0.46310770346669816, 6.025574938723258, 1.0864596317340807, -0.7659557920354312, -6.881867165318219, -3.1904442067983805, -5.837261385862821, -4.3148231247531506, 4.783322466566376, -1.90702240866473, 2.3980451423492677, 2.3605281259651063, -1.536173290375112, 1.2721730733272087, 8.825469526592595, 2.01680900811826, -1.549467712719208, -4.987178021513482, -4.38212696899115, -4.3108019628462975, 2.7931080388059266, 1.5979800777671636, -1.1091093646210122, -2.7386942199832833, -2.20396369373286, -4.5121612518826835, -1.5195849469261853, -2.739675347570913, -5.115343641184966, -3.1326836455629063, 2.0605477425741285, -2.9641402151431917, -1.7334466317680004, -4.384231127144729, -0.5960635059087825, -3.010196021674057, 1.2884247360469097, -4.632856639066809, -1.6536447938801413, 2.0631324217617193, 1.2187615321440965, -1.7680603037439224, 1.7981542247093123, -1.1213890802656736, -1.449364748456566, 1.3975391976450426, -2.9495984669318824, -5.583951338408742, 3.3044152492702565, 5.6997370805577905, 1.1327767847447565, -2.0267584298170354, -1.7948007547075502, 3.516646966230061, 2.909839780712079, -2.522353359366803, -3.3143145048308797, 1.5978635281017146, -1.91823516191124, -0.8327710325744393, -1.0098977054901561, 9.958775618516603, 7.2146200190294465, -0.3167914716988983, 3.245772623592421, 1.5204955794520885, 1.2087570979779665, -3.1544934044562964, -2.9709420601344503, -3.8357690493605565, -5.058659133939516, -2.7636877760827736, 1.4343988438018926, 4.081942082930535, -1.9432265846547585, 0.7884796811749735, -2.88671552012297, -1.7040419844581565, 4.047400976996096, 1.169890229473154, -2.3943728641356845, -3.3195646498517712, -0.770819311546391, 2.874864626074423, -5.939160154371125, -3.488135142942391, 1.3295731302914953, -4.761288330090949, 5.555830669418038, 5.219344231575402, 3.619201135049207, 0.348091940716988, 1.7649520250874122, -1.6062263478643288, -3.999271737990555, 3.083958845388306, -1.1209307410065537, -7.026302432556959, 1.4240588795721063, -5.394492503428875, -0.393469353677793, -3.91658980096894, -0.4322214336309381, 7.051275423329072, -6.643428692626644, -0.4835587758784735, 3.4664176390557007, 1.3737379063387563, 3.3117288621015613, -4.686031531278712, -1.2555415946218031, 0.6652991726157709, 1.803812439650799, -2.7979035373896943, 1.851401167633739, 1.627778577703546, -4.397691643287531, -2.9357407734116308, 3.628900131545504, -0.5000442974457348, -2.3056606983223267, -1.8496483611063947, 0.8191776694962813, 2.0653557078461673, 1.131525074867687, -1.126771729724819, -3.5635531751191047, 4.967820073305953, 3.8326366514881833, 6.875331441430517, -0.3329913849319137, -5.249481731005193, 4.333910024756614, 2.84401075314356, -0.013850163515251923, -6.95222483894994, -2.417496134579741, -3.798946973624293, -0.3340420629690264, -0.5316329035558631, 5.144556538919994, 2.7374257515160423, 2.2711285032115205, -2.923668148986429, -6.172138510966657, -0.1036244028510458, 3.1952148477017417, -0.05333534656375816, 3.463314426322307, 1.14481964557846, 0.24197946691601513, -7.3572847427186705, -7.642389094689513, -5.7843090016179035, 3.108869703012556, 1.4952366016926524, 0.8791904993599853, 4.5074904849808455, 0.4419316457897291, 2.2465854778867325, -4.777145742119451, 2.217290977302997, 5.167241245545535, -0.4810762085413631, -1.0786415192044285, 1.3882681300898012, 5.0939838569868305, 1.781611033079777, -2.2965363245518984, 0.004703501458253712, 3.3158712910098425, 1.7368162659108837, -2.8355939256279243, 3.6773155980645154, -3.887232958668334, -0.9620572692912974, -2.077025913683474, 1.7385453957245396, -3.9042248687543806, 0.5195740789666707, -5.623318763870625, 2.4998155840299994, -3.178187261845971, -2.0770629519347894, -0.16086296778579667, -7.399179366099188, -3.616650538199571, -1.1676277125074284, 5.656418326268103, -4.1114743508038405, -2.5539405830697124, 4.4192612810015595, -3.650830661991581, -0.036445061752237384, -1.3493470013385416, 6.254238132237049, -0.023355716968551876, 5.859006853454938, -5.64437265912127, 5.641146028080859, 5.541484129134494, -1.2784626695920316, 1.689911564615469, 1.5294220011409543, -6.275030091677706, -2.225697969817481, 1.1865467605294557, 2.2445033847845695, -3.4478185708666897, -0.7140990289128903, -3.489646461717814, 2.7869861751848033, 6.45486918943894, 1.1962812292235565, 0.828573979306839, -0.6771423486667838, 3.331339683806391, 4.053887350602182, -5.593148026374232, 2.5594557451292186, -0.9094853725357475, 4.244991392852516, 3.9582560442782277, -1.7322646714692058, 1.504368878977874, 1.3511943950676972, -4.788272504062482, 10.458275326003887, 4.197615219626477, -2.4582264049485767, -1.7261260728690087, 1.5990926459205825, 2.612833781318676, 2.5289790653068964, 1.938525462412878, 4.191021001665129, 3.5393164812296023, -2.555779799926196, 1.4061341990435152, -0.6144123069445757, 0.3619622082068896, 3.4798413622786946, 3.7256580185252286, -6.554192187780486, -2.1037360487591705, -3.5992914281684785, -4.222382696761559, 0.5204782234178222, -3.584606678320103, 3.25336723050137, 0.2925376566934579, -5.69178222949869, 1.3421483488919908, 0.8462162826867876, 5.737395188036056, 1.092094494582001, -3.208273183033697, 0.23050201647024893, -1.0116602613514374, -3.845938305027179, 1.2008277425538836, 4.783385242537287, 1.7692298273144251, 1.0120443292032517, 3.3081849188502863, 2.1842002756844696, 0.4264478921320227, 1.0219894572464532, -2.4697276512225046, -2.706871491625341, 5.680447990226696, 4.581624811236007, -0.9792531019007826, 2.88785222697175, -1.8109712315541129, 3.573485704351385, 0.8570976364112326, -2.7408437394847196, -3.5857353633954188, -3.9801573571403304, -2.0402802991239604, -3.3286940226721042, -2.8264491056390897, -5.543450727932926, 0.7399948274622412, -2.419612629715438, 4.821522577456492, -0.13378956376912743, 2.1459848705093805, -1.724269108057719, 5.487618648931682, -3.2947303760629683, -2.483586813678402, -1.3259600532066615, 6.236641616485944, -6.788318263648774, -7.3315112469047685, 3.3163539869470027, 1.9343321213621731, -2.761062541534326, 7.279517247804758, -2.1462899434155345, -5.034972507627209, -2.550989563499874, -4.394070737734108, 3.2917862949888814, -0.22270983621724516, 1.1254207380247827, 5.768288084708965, 1.8369133843990877, -1.1044261426520519, -2.4034245855977168, 0.5909048792198601, 0.8554594659916095, 0.12048196214032769, 0.7127089040544203, 3.6629050918776853, 2.5818472270582116, -3.344936535259791, 5.430446796755851, -6.119542438414718, 5.828462618354945, -2.1977107509871114, 3.455630796700956, -2.1967549476674524, 5.259712619041, 1.8493662355544673, -1.7052844785614216, -3.949329268364697, -0.599707802881418, 0.9981490685368559, -2.446102567121849, -2.318538076672733, 3.503589100824529, 1.7771462388207286, 4.527040774136223, 2.6608531437512584, 1.5837279894684153, -1.0197552597664028, 2.0003630590272037, 2.2831389550128627, 2.620455273527148, 5.090758273866262, -1.6856198547071657, 0.6643569579703752, 6.886341001787211, -0.8661510238072253, 1.7716430627256514, -2.068152117590272, -2.484231516695703, 5.328697477014369, -4.46630213666764, -6.210478336575584, -0.7762012739627884, -7.2956034419063025, 3.2217975894723017, 1.3573655708427634, 5.42978160939562, 4.8420900587728894, -2.8837904241292667, 1.3584290276259678, 2.632110921903658, 2.15499281176076, 8.26810740131109, 3.043273230424334, -0.4114092096759827, -7.067130819195756, 0.5689920747254642, -5.39773981791158, 4.546160613083979, 3.0539948671994166, 2.162559990294514, -4.549951084997995, -4.098502410569076, 0.39223977330353854, 2.6823619594802492, 0.24417236172748757, -6.015710017982713, -3.537609920297544, 5.657335856054985, 2.0166194173220733, 0.756076747918256, 3.8523027644748087, -3.5540587566780015, 0.3648392753817049, 1.9906157798732513, -8.85183155931543, 1.6476777534755187, 3.1242642598028665, 0.5006179781382691, -1.9307337478264828, -2.147846795828861, 0.8623933006306244, 0.4760282204469286, 1.572749951753642, 2.3243267454496426, -1.3057057886911383, 1.182056258941616, -1.0754086929940718, -5.046614955378443, -7.13535406334255, 1.3997474110488013, -0.7703055064114122, 5.230106506720867, 2.403076037875413, 2.857057719507516, 2.8015327584041767, -1.100289673481284, -1.8677328895624163, -2.466829590855639, -3.229224773721931, -2.81158135383117, 6.5197898005032595, -3.620445942576131, 3.6556316945538114, -0.3540912906703708, -4.2703517873620855, 3.4574965207472745, 4.178174709699386, -0.5397003596215888, 1.6730124063937737, 0.9320653392639817, -1.1941625603297261, 0.7643802304443437, -1.3628501660396328, -4.986787951821063, -0.2005401971392604, -4.624395159919436, 2.6123684866057486, -3.392873449927732, -3.2842686484911905, -1.9206560879671475, -2.352557016192553, -3.876282482388703, -3.4462786315393763, 4.281053816703686, 5.551250320648223, -0.17091015981146018, -1.4638463055331463, -2.9598788324065026, -5.97821724197647, 3.1519384915302577, -4.065997147583706, 4.26339568293027, -1.2811764183396968, -3.4885473843522994, 4.3538358473039445, -0.6529967357159083, -3.4504625851177866, -6.194608011332787, 3.473968987689755, 0.8259823676033107, -3.09660044544481, -1.1116032963417992, -0.06157587087248939, -2.61872549777672, 1.647408005450576, 0.07300652120019047, 1.5165470361016702, 2.7688925377705607, 3.7791268092808785, -4.063311103236761, 5.0301745194027285, -0.20944382415537477, -3.2122934814705664, -2.094327171386505, -5.6634443141127395, -3.8207681837752667, -0.347656470035023, 1.5947133107967835, -0.49904269882745966, -4.093883683877155, 2.364009148317975, -1.598436424291068, 4.200871679176463, 0.6188991824896815, -1.2053653025368436, 6.052932231470392, 3.5686270805841662, 1.6228300145842303, -4.689625152410472, 7.0372146138268015, -0.5958239445423279, -1.870538038915084, -0.058332739523585975, 1.4077447387516937, 0.1401610254499821, 2.4390362439543005, -1.9037946186342638, -2.767388228197106, -1.9455528078885282, 0.820225791448546, -0.2580187981807215, 4.177260861980447, -1.2229614072236945, -1.3517109445803828, 2.0925007713127646, -1.9608781245951268, 0.04568047295673727, -3.580757692928371, 1.0749640557374054, -2.041060151454923, 2.3745827850016297, 5.85344579591899, 7.783190353566049, 0.8126268911912287, -3.0121091847880646, -6.327305182226757, -5.382475295264089, 0.6479364494408231, 3.484254110758094, -5.914150924134374, 1.1788976437572662, -0.6488416617953553, 6.917877053634184, 5.28870845677131, 4.45123898117326], "biases_list": [-4.507203124490816, 3.8138611900098853, -2.9053500042781257, 4.770895369953372, 6.563246261537982, 1.755834880171454, 1.8653318477217091, 1.4841715722167192, -5.088518820499517, 1.1487612432391563, 2.6676171928306824, -0.2088744831919933, -1.3555009587711313, -2.7404825935850887, -6.499365491598867, 6.495552186303273, 4.971423569033341, 2.7339286413463215, -5.104989092168845, -1.3436406718764031, -4.697846688140121, -1.803055046485233, -1.5111799616200783, -5.091418751028129, 5.199157698766982, 2.0042455204094782, -2.4941189345560932, 2.112601103611169, 2.8553055222671926, 1.82062159814928, -2.5200504240967865, -1.060461840286757, 3.619907682550423, -2.2908177110813086, -1.5903977974346817, 3.1062364799939406], "shape": [27.170348675810036, 15.561815181170893, 16.114133166544875, 4.826532148613037]}, {"weight_list": [0.6362265866436947, 4.902302612495823, 1.110540407956091, -4.02669475555469, -3.0382314100055687, -4.980173782258621, 2.02232805207659, 1.89821073101227, 2.4048050385565594, 2.3524115578867346, 2.1118299220127055, 0.6757716382992784, 1.1813832920634733, -1.2911664369059443, -0.060791442741112034, 3.5174179498686478, 4.90566174788205, -1.2749618404545637, 3.902457719174361, 0.8627215251549003, -0.19783877658943538, 4.6045370989768095, 5.43802011590034, 2.4881179782493223, -1.1412082446601444, 0.7662516190123294, -2.747106377560817, -4.820267700434669, -2.3639024697896325, 0.9036061960273516, -0.7113630953030031, -1.4241124238670355, -2.618881779083062, 2.0436956964440673, 2.7894151045624835, -2.1193865259029674, 3.9526581018560556, -1.2534196798638433, -4.673230199247882, -2.868724701337533, 4.3196284528562545, -4.340933840566825, 0.7415965074983517, -0.3971458407722812, -4.715424476994421, 5.877437110426037, -5.607414916875949, 3.2362938657844653, 0.32627993269132105, -1.5363610627910698, -3.715963900138328, 1.299480396556858, -1.9965210601359207, 2.6480765536358257, -2.262741500961578, -1.2300276285394376, -1.892154947056809, -5.519271864142432, 6.724304820385169, 6.549034159248946, -1.5022144177807732, -2.965736050305427, -3.5176309619839863, -3.859438460212079, -0.04246192354006284, 1.1956600496781276, 5.549184889711029, -2.7585363425540645, 3.9586880941034845, -0.4860967194688377, -2.448465132454558, -6.008355398332896, 2.0784390941391746, -5.7499352313186805, 1.0232361423474194, 0.8895502377147713, 2.851377024989579, -7.354065065113673, 1.6720688913370747, -0.1786619016402462, 0.0010114859091425732, -1.5457152073079823, -2.4949522743873134, 0.5011044337070163, 2.004295333984609, 1.6144109266151592, -2.075387817525174, 1.7165503228434793, 0.08337673008663105, -0.39998144548574643, 4.82845100138323, 2.166988458591498, -3.3474976146273328, -2.322664933622389, -0.42975524788665287, -1.334803549279114, 0.6277224715998684, 2.0385638474639323, -0.12015410594458997, -5.53780564775392, 4.823899397960362, -6.669362222228472, 0.8714489781433805, -2.749355928109707, 6.677487097693595, 1.8244997552975057, -0.21062513746220857, 3.698228236426047, 4.358610150488052, -1.206798225134071, 6.899614572188837, -3.5763988161782034, 0.2944364380637192, -4.25830030797506, 4.418520475170274, -3.903247528659853, 2.759912571050024, 0.21861829301041347, 2.988128139568241, -2.123374116159547, -0.17386839599915405, -1.6920305402331688, 3.2378292332267664, 2.6695429976309364, 6.263097350000953, 6.021786512793777, -3.7166584296915586, -5.6566009844355865, 3.2573483426698795, -2.6154957663556377, 3.098267760082111, 3.784764878337908, 2.5774104568064087, -4.358637070695001, -5.945441973998599, -6.418037622719255, 1.3986107013024074, 3.014754888422151, 0.5049818727858888, 2.596522259315993, 0.7663393821852758, 2.7464015086906244, -4.442521075797569, 0.10444616067428969, -3.3688882399805715, 3.291546747761693, -3.161238310959803, 4.22742735307081, -1.9048107468503497, -6.485766079624222, -1.1509299637969748, -5.117698552280473, -2.833254462635626, -0.49782720392888713, -7.717424659321365, -5.4725524923234845, 3.676550302986943, 0.19052514806321508, 2.869182574280341, 5.214908721508618, -0.9280869232283672, 1.9859821012499048, -5.7062668624439175, 3.696255174796069, -3.5069394085163808, -1.2778098945324519, 0.6289687256779786, -2.591124534433611, 1.2597847043468402, -2.7949479280805223, -3.3047827377248606, -0.7755969016787504, -0.2348788192407889, -2.0387694773988674, 2.511093532147603, 4.109367385409917, 5.7941412801120284, 0.9032183749261025, -2.421096539697216, -7.075418645010384, -3.437835991486997, -2.232455963485699, 0.8057504603635239, 2.9988469349248406, 0.893263772517563, 1.1039538534458373, -0.5836153283069929, -3.352258010486592, -1.8465633255347604, -0.9166181537791569, 3.012327428362214, -4.244109763043945, 5.6732736619173245, 4.722416332779267, 0.2500088091929933, 0.6448462683613649, 2.9015959643780715, 1.8609372868559895, 3.260514313038118, 0.031778907174057736, -1.9800491588141653, 0.23584130215476695, 1.9376408157936056, 0.4704514226247598, -0.4527176863398814, 2.792017153979526, 2.6541887158524133, 5.01652541062805, 0.8670310221875019, -2.2162362554327526, 0.8341214977461779, -0.06835041381271989, -1.5923236300805337, -0.10254422558332532, -1.1551565275281552, -1.6078483166505466, -0.7917966880160039, -1.1929317228831056, 0.1253032914492025, -1.265126656448008, 